<?xml version="1.0"?>
<opencv_storage>
<opencv_ml_svm>
  <format>3</format>
  <svmType>C_SVC</svmType>
  <kernel>
    <type>RBF</type>
    <gamma>5.0625000000000009e-01</gamma></kernel>
  <C>2.5000000000000000e+00</C>
  <term_criteria><iterations>100</iterations></term_criteria>
  <var_count>475</var_count>
  <class_count>2</class_count>
  <class_labels type_id="opencv-matrix">
    <rows>2</rows>
    <cols>1</cols>
    <dt>i</dt>
    <data>
      1 2</data></class_labels>
  <sv_total>140</sv_total>
  <support_vectors>
    <_>
      5.31196475e-01 5.73323190e-01 6.23803496e-01 0. 0. 0. 0. 0. 0. 0.
      0. 0. 0. 0. 0. 0. 0. 0. 0. 0. 0. 0. 0. 0. 0. 0. 0. 0. 0. 0. 0. 0.
      0. 0. 0. 0. 0. 0. 0. 0. 0. 0. 0. 0. 0. 0. 5.42745471e-01
      7.96796501e-01 0. 0. 0. 0. 0. 2.65598834e-01 0. 0. 0. 0. 0. 0. 0.
      0. 0. 0. 0. 0. 0. 0. 0. 0. 0. 0. 0. 0. 0. 0. 0. 0. 0. 0. 0. 0. 0.
      0. 0. 0. 0. 0. 0. 0. 0. 0. 0. 0. 0. 0. 0. 0. 0. 0. 0. 0. 0. 0. 0.
      0. 0. 0. 0. 0. 0. 0. 0. 0. 0. 0. 0. 0. 0. 0. 0. 0. 0. 0. 0. 0. 0.
      0. 0. 0. 0. 0. 0. 0. 0. 0. 0. 0. 0. 0. 0. 0. 0. 0. 0. 0. 0. 0. 0.
      0. 0. 0. 0. 0. 0. 0. 0. 0. 0. 0. 0. 0. 0. 0. 0. 0. 0. 0. 0. 0. 0.
      0. 0. 0. 0. 0. 0. 0. 0. 0. 0. 0. 0. 0. 0. 0. 0. 0. 0. 0. 0. 0. 0.
      0. 0. 0. 0. 0. 0. 0. 0. 0. 0. 0. 0. 0. 0. 0. 0. 0. 0. 0. 0. 0. 0.
      0. 0. 0. 0. 2.47234091e-01 0. 4.94468175e-02 0. 0. 0.
      4.94468175e-02 9.88936350e-02 0. 4.94468175e-02 4.94468175e-02
      4.94468175e-02 1.48340449e-01 0. 4.94468175e-02 2.47234091e-01
      9.88936350e-02 0. 0. 0. 0. 0. 0. 0. 4.94468175e-02 0. 0. 0. 0. 0.
      0. 0. 4.94468175e-02 0. 0. 0. 0. 0. 0. 0. 4.94468175e-02 0. 0. 0.
      0. 0. 0. 0. 0. 0. 0. 0. 0. 0. 0. 0. 1.48340449e-01 0. 0. 0.
      9.88936350e-02 0. 4.94468175e-02 1.97787270e-01 0. 0. 0. 0. 0. 0.
      0. 0. 0. 0. 0. 0. 4.94468175e-02 0. 0. 4.94468175e-02 0. 0. 0. 0.
      0. 0. 0. 0. 4.94468175e-02 0. 0. 0. 0. 0. 0. 0. 9.88936350e-02 0.
      0. 0. 0. 0. 0. 0. 0. 0. 0. 0. 0. 0. 4.94468175e-02 0.
      1.48340449e-01 0. 0. 0. 0. 0. 0. 0. 4.45021361e-01 0. 0. 0. 0.
      4.94468175e-02 0. 0. 4.94468175e-02 4.94468175e-02 0.
      4.94468175e-02 0. 0. 0. 9.88936350e-02 0. 0. 0. 0. 0. 0.
      4.94468175e-02 1.48340449e-01 4.94468175e-02 0. 0. 0. 0. 0.
      4.94468175e-02 4.94468175e-02 0. 0. 0. 0. 0. 4.94468175e-02 0. 0.
      0. 0. 0. 0. 0. 0. 0. 0. 0. 0. 0. 0. 0. 0. 0. 0. 4.94468175e-02
      9.88936350e-02 0. 0. 4.94468175e-02 0. 0. 0. 4.94468175e-02 0. 0.
      0. 0. 0. 0. 4.94468175e-02 0. 0. 0. 0. 4.94468175e-02 0. 0.
      4.94468175e-02 0. 0. 0. 0. 4.94468175e-02 0. 0. 0. 4.94468175e-02
      0. 0. 0. 0. 0. 0. 0. 0. 0. 0. 0. 0. 0. 0. 0. 0. 9.88936350e-02 0.
      0. 0. 0. 4.94468175e-02 1.48340449e-01 9.88936350e-02 0. 0. 0. 0.
      0. 0. 9.88936350e-02 3.95574540e-01 1.48340449e-01 9.88936350e-02
      9.88936350e-02 0. 0. 4.94468175e-02 1.48340449e-01 1.97787270e-01
      0. 0. 1.48340449e-01 9.88936350e-02 9.88936350e-02 0.
      2.47234091e-01</_>
    <_>
      5.25728405e-01 5.66863239e-01 6.34252071e-01 0. 0. 0. 0. 0. 0. 0.
      0. 0. 0. 0. 0. 0. 0. 0. 0. 0. 0. 0. 0. 0. 0. 0. 0. 0. 0. 0. 0. 0.
      0. 0. 0. 0. 0. 0. 0. 0. 0. 0. 0. 0. 0. 0. 4.14332300e-01
      7.42345393e-01 0. 0. 0. 0. 0. 5.17915428e-01 0. 0. 0. 0. 0. 0. 0.
      0. 0. 0. 0. 0. 0. 0. 0. 0. 0. 0. 0. 0. 0. 0. 0. 0. 0. 0. 0. 0. 0.
      0. 0. 0. 0. 0. 0. 9.49511528e-02 0. 0. 0. 0. 0. 0. 0. 0. 0. 0. 0.
      0. 0. 0. 0. 0. 0. 0. 0. 0. 0. 0. 0. 0. 0. 0. 0. 0. 0. 0. 0. 0. 0.
      0. 0. 0. 0. 0. 0. 0. 0. 0. 0. 0. 0. 0. 0. 0. 0. 0. 0. 0. 0. 0. 0.
      0. 0. 0. 0. 0. 0. 0. 0. 0. 0. 0. 0. 0. 0. 0. 0. 0. 0. 0. 0. 0. 0.
      0. 0. 0. 0. 0. 0. 0. 0. 0. 0. 0. 0. 0. 0. 0. 0. 0. 0. 0. 0. 0. 0.
      0. 0. 0. 0. 0. 0. 0. 0. 0. 0. 0. 0. 0. 0. 0. 0. 0. 0. 0. 0. 0. 0.
      0. 0. 0. 0. 0. 0. 0. 0. 2.04057738e-01 2.55072173e-02 0. 0. 0. 0.
      2.55072173e-02 1.02028869e-01 1.27536088e-01 0. 0. 0.
      2.55072173e-02 0. 5.10144345e-02 1.78550526e-01 0. 0. 0. 0. 0. 0.
      0. 0. 7.65216500e-02 0. 2.55072173e-02 2.55072173e-02
      2.55072173e-02 0. 7.65216500e-02 5.10144345e-02 0. 0. 0. 0. 0. 0.
      0. 0. 0. 0. 0. 0. 2.55072173e-02 0. 0. 0. 2.55072173e-02 0. 0. 0.
      0. 0. 0. 0. 1.27536088e-01 0. 0. 2.55072173e-02 7.65216500e-02
      2.55072173e-02 1.02028869e-01 5.10144345e-02 0. 0. 0. 0. 0. 0. 0.
      0. 0. 0. 0. 0. 2.55072173e-02 0. 0. 2.55072173e-02 0. 0. 0. 0.
      2.55072173e-02 0. 0. 0. 0. 0. 0. 0. 0. 0. 0. 0. 0. 2.55072173e-02
      0. 0. 0. 0. 0. 0. 2.55072173e-02 0. 0. 0. 0. 0. 0. 2.55072173e-02
      7.65216500e-02 0. 0. 0. 0. 0. 0. 0. 1.02028869e-01 2.55072173e-02
      0. 2.55072173e-02 1.53043300e-01 0. 1.02028869e-01 2.55072176e-01
      1.02028869e-01 7.65216500e-02 0. 7.65216500e-02 2.55072173e-02 0.
      0. 6.37680411e-01 2.55072173e-02 2.55072173e-02 0. 2.55072173e-02
      2.55072173e-02 0. 0. 2.80579388e-01 0. 0. 0. 0. 0. 0. 0.
      7.65216500e-02 5.10144345e-02 0. 0. 0. 0. 0. 0. 7.65216500e-02 0.
      0. 0. 0. 0. 0. 0. 0. 2.55072173e-02 0. 0. 0. 0. 0. 0. 0.
      2.55072173e-02 2.55072173e-02 0. 2.55072173e-02 0. 0. 0.
      5.10144345e-02 0. 0. 0. 0. 2.55072173e-02 0. 0. 2.55072173e-02 0.
      0. 0. 2.55072173e-02 0. 0. 0. 1.53043300e-01 0. 0. 0. 0.
      2.55072173e-02 0. 2.55072173e-02 2.55072173e-02 0. 0. 0. 0. 0. 0.
      0. 0. 0. 0. 0. 0. 0. 0. 0. 2.55072173e-02 2.55072173e-02 0. 0. 0.
      0. 0. 2.55072173e-02 0. 0. 0. 0. 0. 2.55072173e-02 0. 0.
      7.65216500e-02 0. 2.55072173e-02 0. 0. 0. 0. 0. 1.27536088e-01
      7.65216500e-02 0. 2.55072173e-02 0. 5.10144345e-02 2.55072173e-02
      2.55072173e-02 3.57101053e-01</_>
    <_>
      4.15881217e-01 5.28500855e-01 7.40087628e-01 0. 6.07815124e-02 0.
      0. 0. 0. 0. 9.97829795e-01 0. 0. 0. 0. 0. 0. 0. 0. 0. 0. 0. 0. 0.
      0. 0. 0. 0. 0. 0. 0. 0. 0. 0. 0. 0. 0. 0. 0. 0. 0. 0. 0. 0. 0. 0.
      2.53256299e-02 0. 0. 0. 0. 0. 0. 0. 0. 0. 0. 0. 0. 0. 0. 0. 0. 0.
      0. 0. 0. 0. 0. 0. 0. 0. 0. 0. 0. 0. 0. 0. 0. 0. 0. 0. 0. 0. 0. 0.
      0. 0. 0. 0. 0. 0. 0. 0. 0. 0. 0. 0. 0. 0. 0. 0. 0. 0. 0. 0. 0. 0.
      0. 0. 0. 0. 0. 0. 0. 0. 0. 0. 0. 0. 0. 0. 0. 0. 0. 0. 0. 0. 0. 0.
      0. 0. 0. 0. 0. 0. 0. 0. 0. 0. 0. 0. 0. 0. 0. 0. 0. 0. 0. 0. 0. 0.
      0. 0. 0. 0. 0. 0. 0. 0. 0. 0. 0. 0. 0. 0. 0. 0. 0. 0. 0. 0. 0. 0.
      0. 0. 0. 0. 0. 0. 0. 0. 0. 0. 0. 0. 0. 0. 0. 0. 0. 0. 0. 0. 0. 0.
      0. 0. 0. 0. 0. 0. 0. 0. 0. 0. 0. 0. 0. 0. 0. 0. 0. 0. 0. 0. 0. 0.
      0. 1.17949463e-01 0. 9.43595693e-02 2.35898923e-02 2.35898923e-02
      0. 2.35898923e-02 0. 2.35898923e-02 0. 2.35898923e-02 0. 0. 0. 0.
      0. 0. 0. 0. 0. 0. 0. 0. 0. 7.07696751e-02 0. 0. 0. 0. 0.
      4.71797846e-02 7.07696751e-02 4.71797846e-02 0. 0. 2.35898923e-02
      0. 0. 0. 2.35898923e-02 0. 0. 0. 0. 2.35898923e-02 0.
      2.35898923e-02 0. 0. 0. 2.35898923e-02 4.71797846e-02 0. 0. 0. 0.
      7.07696751e-02 0. 0. 2.35898923e-02 7.07696751e-02 0.
      9.43595693e-02 2.35898923e-02 0. 0. 0. 0. 2.35898923e-02 0. 0. 0.
      0. 0. 0. 0. 2.35898923e-02 0. 2.35898923e-02 0. 0. 0. 0. 0. 0. 0.
      0. 0. 0. 0. 0. 0. 0. 0. 0. 0. 7.07696751e-02 0. 2.35898923e-02
      4.71797846e-02 0. 0. 0. 2.35898923e-02 0. 0. 0. 0. 0. 0.
      2.35898923e-02 0. 0. 0. 0. 2.35898923e-02 0. 0. 0. 0. 0. 0.
      2.35898923e-02 0. 1.17949463e-01 0. 2.35898923e-02 7.07696751e-02
      2.35898923e-02 2.35898923e-02 0. 1.17949463e-01 0. 0. 0. 0. 0. 0.
      0. 2.35898923e-02 2.35898923e-02 0. 0. 1.88719139e-01 0. 0. 0. 0.
      0. 0. 0. 0. 0. 0. 0. 2.35898923e-02 2.35898923e-02 0. 0.
      4.71797846e-02 2.35898923e-02 0. 0. 7.07696751e-02 2.35898923e-02
      0. 0. 0. 0. 0. 0. 0. 0. 0. 0. 4.71797846e-02 0. 0. 0.
      2.35898923e-02 0. 0. 0. 0. 0. 0. 0. 0. 0. 0. 0. 9.43595693e-02
      2.35898923e-02 0. 0. 9.43595693e-02 0. 0. 0. 1.17949463e-01 0.
      2.35898923e-02 0. 0. 0. 0. 0. 7.07696751e-02 0. 0. 0. 0. 0. 0. 0.
      0. 0. 0. 0. 0. 0. 0. 0. 1.17949463e-01 2.35898923e-02
      2.35898923e-02 4.71797846e-02 1.17949463e-01 0. 4.71797846e-02 0.
      4.71797846e-02 0. 0. 0. 2.35898923e-02 0. 0. 0. 0. 4.71797846e-02
      7.07696751e-02 0. 2.35898923e-02 0. 2.35898923e-02 0.
      2.35898923e-02 2.35898923e-02 1.17949463e-01 0. 4.71797846e-02
      7.07696751e-02 7.07696751e-02 9.43595693e-02 8.49236131e-01</_>
    <_>
      5.46744704e-01 5.72645664e-01 6.10857725e-01 0. 0. 0. 0. 0. 0. 0.
      0. 0. 0. 0. 0. 0. 0. 0. 0. 0. 0. 0. 0. 0. 0. 0. 0. 0. 0. 0. 0. 0.
      0. 0. 0. 0. 0. 0. 0. 0. 0. 0. 0. 0. 0. 0. 7.11813867e-02
      1.03536561e-01 0. 0. 0. 0. 0. 1.29420698e-01 0. 0. 0. 0. 0. 0. 0.
      0. 0. 0. 0. 0. 0. 0. 0. 0. 0. 0. 0. 0. 0. 0. 0. 0. 0. 0. 0. 0. 0.
      0. 0. 0. 0. 0. 0. 9.83597338e-01 0. 0. 0. 0. 0. 0. 0. 0. 0. 0. 0.
      0. 0. 0. 0. 0. 0. 0. 0. 0. 0. 0. 0. 0. 0. 0. 0. 0. 0. 0. 0. 0. 0.
      0. 0. 0. 0. 0. 0. 0. 0. 0. 0. 0. 0. 0. 0. 0. 0. 0. 0. 0. 0. 0. 0.
      0. 0. 0. 0. 0. 0. 0. 0. 0. 0. 0. 0. 0. 0. 0. 0. 0. 0. 0. 0. 0. 0.
      0. 0. 0. 0. 0. 0. 0. 0. 0. 0. 0. 0. 0. 0. 0. 0. 0. 0. 0. 0. 0. 0.
      0. 0. 0. 0. 0. 0. 0. 0. 0. 0. 0. 0. 0. 0. 0. 0. 0. 0. 0. 0. 0. 0.
      0. 0. 0. 0. 0. 0. 0. 0. 4.84489977e-01 6.92128539e-02
      3.46064270e-02 0. 3.46064270e-02 0. 3.46064270e-02 1.38425708e-01
      1.38425708e-01 3.46064270e-02 3.46064270e-02 3.46064270e-02
      1.38425708e-01 0. 6.92128539e-02 4.49883550e-01 3.46064270e-02
      3.46064270e-02 0. 3.46064270e-02 3.46064270e-02 0. 3.46064270e-02
      0. 3.46064270e-02 0. 0. 3.46064270e-02 3.46064270e-02 0. 0.
      3.46064270e-02 6.92128539e-02 3.46064270e-02 0. 0. 0. 0. 0. 0. 0.
      0. 3.46064270e-02 0. 0. 0. 0. 0. 0. 0. 0. 0. 0. 0. 0. 0. 0.
      6.92128539e-02 0. 0. 3.46064270e-02 0. 3.46064270e-02
      6.92128539e-02 6.92128539e-02 0. 0. 0. 0. 0. 0. 0. 6.92128539e-02
      0. 0. 0. 0. 0. 0. 3.46064270e-02 0. 0. 0. 0. 0. 0. 0. 0. 0. 0. 0.
      0. 0. 0. 3.46064270e-02 0. 0. 0. 0. 0. 3.46064270e-02 0. 0.
      6.92128539e-02 6.92128539e-02 0. 0. 0. 0. 0. 0. 0. 1.38425708e-01
      0. 3.46064270e-02 0. 0. 0. 0. 3.46064270e-02 1.38425708e-01 0. 0.
      3.46064270e-02 1.38425708e-01 0. 6.92128539e-02 1.38425708e-01
      1.03819281e-01 3.46064270e-02 3.46064270e-02 6.92128539e-02 0.
      3.46064270e-02 6.92128539e-02 1.38425708e-01 3.46064270e-02 0. 0.
      0. 0. 6.92128539e-02 0. 2.07638562e-01 1.03819281e-01
      3.46064270e-02 0. 0. 3.46064270e-02 0. 3.46064270e-02 0. 0.
      3.46064270e-02 0. 0. 0. 0. 0. 3.46064270e-02 3.46064270e-02 0. 0.
      3.46064270e-02 0. 0. 0. 0. 0. 0. 0. 0. 0. 0. 0. 3.46064270e-02
      1.38425708e-01 3.46064270e-02 0. 3.46064270e-02 0. 0. 0.
      1.38425708e-01 3.46064270e-02 0. 0. 0. 0. 0. 6.92128539e-02
      3.46064270e-02 1.38425708e-01 0. 0. 3.46064270e-02 0. 0. 0.
      3.46064270e-02 0. 0. 0. 0. 0. 0. 3.46064270e-02 3.46064270e-02 0.
      3.46064270e-02 0. 0. 0. 0. 0. 6.92128539e-02 0. 0. 0. 0. 0.
      3.46064270e-02 0. 1.03819281e-01 6.92128539e-02 0. 0.
      3.46064270e-02 0. 0. 3.46064270e-02 1.03819281e-01 0. 0.
      3.46064270e-02 3.46064270e-02 0. 0. 0. 1.03819281e-01
      1.03819281e-01 6.92128539e-02 0. 3.46064270e-02 0. 0. 0.
      6.92128539e-02 1.03819281e-01 3.46064270e-02 0. 0. 6.92128539e-02
      3.46064270e-02 3.46064270e-02 2.76851416e-01</_>
    <_>
      4.78426307e-01 5.53444982e-01 6.81767583e-01 6.85607269e-03
      1.37121454e-01 0. 0. 0. 0. 0. 4.59356904e-01 0. 0. 0. 0. 0. 0. 0.
      0. 0. 0. 0. 0. 0. 0. 0. 0. 0. 0. 0. 0. 0. 0. 0. 0. 0. 0. 0. 0. 0.
      0. 0. 0. 0. 0. 0. 8.77577305e-01 0. 0. 0. 0. 0. 0. 0. 0. 0. 0. 0.
      0. 0. 0. 0. 0. 0. 0. 0. 0. 0. 0. 0. 0. 0. 0. 0. 0. 0. 0. 0. 0. 0.
      0. 0. 0. 0. 0. 0. 0. 0. 0. 0. 0. 0. 0. 0. 0. 0. 0. 0. 0. 0. 0. 0.
      0. 0. 0. 0. 0. 0. 0. 0. 0. 0. 0. 0. 0. 0. 0. 0. 0. 0. 0. 0. 0. 0.
      0. 0. 0. 0. 0. 0. 0. 0. 0. 0. 0. 0. 0. 0. 0. 0. 0. 0. 0. 0. 0. 0.
      0. 0. 0. 0. 0. 0. 0. 0. 0. 0. 0. 0. 0. 0. 0. 0. 0. 0. 0. 0. 0. 0.
      0. 0. 0. 0. 0. 0. 0. 0. 0. 0. 0. 0. 0. 0. 0. 0. 0. 0. 0. 0. 0. 0.
      0. 0. 0. 0. 0. 0. 0. 0. 0. 0. 0. 0. 0. 0. 0. 0. 0. 0. 0. 0. 0. 0.
      0. 0. 0. 0. 0. 0. 0. 1.61874056e-01 0. 4.62497286e-02
      1.15624323e-01 4.62497286e-02 0. 0. 0. 0. 0. 2.31248643e-02 0.
      2.31248643e-02 0. 6.93745911e-02 4.62497286e-02 0. 0. 0.
      2.31248643e-02 0. 0. 0. 0. 0. 0. 2.31248643e-02 0. 2.31248643e-02
      0. 1.15624323e-01 4.62497286e-02 6.93745911e-02 0. 2.31248643e-02
      0. 0. 0. 0. 2.31248643e-02 2.31248643e-02 0. 0. 0. 0. 0. 0. 0. 0.
      0. 0. 0. 0. 0. 0. 0. 6.93745911e-02 0. 0. 0. 9.24994573e-02
      2.31248643e-02 1.38749182e-01 4.62497286e-02 2.31248643e-02 0.
      2.31248643e-02 0. 2.31248643e-02 0. 0. 0. 0. 0. 0. 0. 0. 0.
      2.31248643e-02 0. 0. 0. 0. 0. 0. 0. 0. 0. 0. 0. 0. 2.31248643e-02
      0. 0. 0. 2.31248643e-02 0. 0. 0. 0. 2.31248643e-02 0. 0. 0.
      4.62497286e-02 0. 0. 0. 4.62497286e-02 0. 0. 0. 0. 0. 0. 0. 0. 0.
      0. 0. 4.62497286e-02 2.31248643e-02 2.31248643e-02 0.
      1.15624323e-01 0. 4.62497286e-02 4.62497286e-02 0. 4.62497286e-02
      0. 4.62497286e-02 0. 0. 0. 9.24994573e-02 0. 0. 0. 2.31248643e-02
      0. 0. 0. 6.93745911e-02 0. 0. 0. 0. 0. 0. 0. 0. 0. 4.62497286e-02
      0. 2.31248643e-02 0. 0. 0. 1.15624323e-01 0. 0. 0. 0. 0. 0. 0. 0.
      0. 0. 0. 0. 0. 2.31248643e-02 0. 0. 0. 0. 0. 2.31248643e-02 0. 0.
      0. 0. 0. 0. 0. 2.31248643e-02 2.31248643e-02 2.31248643e-02 0.
      9.24994573e-02 0. 2.31248643e-02 2.31248643e-02 4.39372420e-01 0.
      0. 4.62497286e-02 1.38749182e-01 0. 0. 0. 2.31248643e-02 0. 0.
      2.31248643e-02 9.24994573e-02 0. 0. 0. 4.62497286e-02 0. 0. 0. 0.
      0. 0. 0. 0. 0. 2.31248643e-02 2.31248643e-02 9.24994573e-02
      2.31248643e-02 0. 0. 1.15624323e-01 0. 0. 0. 9.24994573e-02 0. 0.
      0. 0. 2.31248643e-02 2.31248643e-02 0. 1.15624323e-01 0. 0. 0.
      6.93745911e-02 2.31248643e-02 0. 0. 6.93745911e-02 0.
      4.62497286e-02 0. 2.31248643e-02 2.31248643e-02 1.15624323e-01
      2.31248643e-02 7.16870785e-01</_>
    <_>
      5.07179141e-01 5.62117159e-01 6.53294444e-01 0. 0. 0. 0. 0. 0. 0.
      2.76392065e-02 0. 0. 0. 0. 0. 0. 0. 0. 0. 0. 0. 0. 0. 0. 0. 0. 0.
      0. 0. 0. 0. 0. 0. 0. 0. 0. 0. 0. 0. 0. 0. 0. 0. 0. 0.
      9.99617994e-01 0. 0. 0. 0. 0. 0. 0. 0. 0. 0. 0. 0. 0. 0. 0. 0. 0.
      0. 0. 0. 0. 0. 0. 0. 0. 0. 0. 0. 0. 0. 0. 0. 0. 0. 0. 0. 0. 0. 0.
      0. 0. 0. 0. 0. 0. 0. 0. 0. 0. 0. 0. 0. 0. 0. 0. 0. 0. 0. 0. 0. 0.
      0. 0. 0. 0. 0. 0. 0. 0. 0. 0. 0. 0. 0. 0. 0. 0. 0. 0. 0. 0. 0. 0.
      0. 0. 0. 0. 0. 0. 0. 0. 0. 0. 0. 0. 0. 0. 0. 0. 0. 0. 0. 0. 0. 0.
      0. 0. 0. 0. 0. 0. 0. 0. 0. 0. 0. 0. 0. 0. 0. 0. 0. 0. 0. 0. 0. 0.
      0. 0. 0. 0. 0. 0. 0. 0. 0. 0. 0. 0. 0. 0. 0. 0. 0. 0. 0. 0. 0. 0.
      0. 0. 0. 0. 0. 0. 0. 0. 0. 0. 0. 0. 0. 0. 0. 0. 0. 0. 0. 0. 0. 0.
      0. 2.24230528e-01 2.49145031e-02 1.24572515e-01 2.49145031e-02 0.
      0. 9.96580124e-02 2.49145031e-02 2.49145031e-02 0. 0. 0.
      7.47435093e-02 0. 9.96580124e-02 4.98290062e-02 0. 0. 0. 0. 0. 0.
      0. 2.49145031e-02 2.49145031e-02 0. 2.49145031e-02 0.
      9.96580124e-02 0. 7.47435093e-02 7.47435093e-02 7.47435093e-02 0.
      2.49145031e-02 2.49145031e-02 2.49145031e-02 0. 4.98290062e-02 0.
      0. 0. 0. 0. 0. 2.49145031e-02 2.49145031e-02 0. 2.49145031e-02 0.
      0. 2.49145031e-02 0. 0. 2.49145031e-02 0. 1.49487019e-01 0. 0. 0.
      4.23546553e-01 7.47435093e-02 0. 1.24572515e-01 0. 0. 0. 0. 0. 0.
      0. 0. 0. 0. 2.49145031e-02 0. 0. 0. 0. 0. 0. 0. 0. 0. 0. 0. 0. 0.
      0. 0. 0. 0. 0. 0. 0. 0. 2.49145031e-02 0. 4.98290062e-02 0. 0. 0.
      2.49145031e-02 0. 0. 0. 0. 0. 0. 0. 4.98290062e-02 0. 0. 0. 0. 0.
      0. 0. 0. 0. 2.49145031e-02 4.98290062e-02 0. 0. 7.47435093e-02 0.
      2.49145031e-02 2.49145031e-02 2.49145031e-02 2.49145031e-02
      2.49145031e-02 4.98290062e-02 0. 0. 0. 9.96580124e-02 0. 0. 0. 0.
      0. 0. 2.49145031e-02 2.49145031e-02 0. 0. 0. 0. 0. 0. 0. 0. 0.
      4.98290062e-02 0. 0. 0. 0. 0. 7.47435093e-02 0. 2.49145031e-02 0.
      0. 0. 0. 0. 2.49145031e-02 0. 0. 0. 0. 0. 0. 0. 0. 0.
      2.49145031e-02 0. 0. 0. 0. 0. 0. 0. 0. 0. 2.49145031e-02 0.
      4.98290062e-02 0. 7.47435093e-02 7.47435093e-02 0. 0.
      5.48119068e-01 0. 2.49145031e-02 0. 1.74401522e-01 0. 0. 0.
      2.49145031e-02 0. 0. 0. 2.49145031e-02 0. 0. 0. 4.98290062e-02 0.
      0. 0. 0. 0. 0. 2.49145031e-02 2.49145031e-02 0. 0. 4.98290062e-02
      2.24230528e-01 7.47435093e-02 7.47435093e-02 0. 7.47435093e-02 0.
      2.49145031e-02 2.49145031e-02 0. 0. 0. 0. 0. 0. 2.49145031e-02
      2.49145031e-02 7.47435093e-02 0. 2.49145031e-02 0. 4.98290062e-02
      0. 0. 0. 0. 2.49145031e-02 4.98290062e-02 0. 4.98290062e-02
      2.49145031e-02 7.47435093e-02 2.49145031e-02 3.98632050e-01</_>
    <_>
      5.77181518e-01 5.62524557e-01 5.91969252e-01 0. 0. 0. 0. 0. 0. 0.
      0. 0. 0. 0. 0. 0. 0. 0. 0. 0. 0. 0. 0. 0. 0. 0. 0. 0. 0. 0. 0. 0.
      0. 0. 0. 0. 0. 0. 0. 0. 0. 0. 0. 0. 0. 0. 0. 0. 0. 0. 0. 0. 0. 0.
      0. 0. 0. 0. 0. 0. 0. 0. 0. 0. 0. 0. 0. 0. 0. 0. 0. 0. 0. 0. 0. 0.
      0. 0. 0. 0. 0. 0. 0. 0. 0. 0. 0. 0. 0. 0. 0. 0. 0. 0. 0. 0. 0. 0.
      0. 0. 0. 0. 0. 0. 0. 0. 0. 0. 0. 0. 0. 0. 0. 0. 0. 0. 0. 0. 0. 0.
      0. 0. 0. 0. 0. 0. 1.61269344e-02 0. 0. 0. 0. 0. 9.99869943e-01 0.
      0. 0. 0. 0. 0. 0. 0. 0. 0. 0. 0. 0. 0. 0. 0. 0. 0. 0. 0. 0. 0. 0.
      0. 0. 0. 0. 0. 0. 0. 0. 0. 0. 0. 0. 0. 0. 0. 0. 0. 0. 0. 0. 0. 0.
      0. 0. 0. 0. 0. 0. 0. 0. 0. 0. 0. 0. 0. 0. 0. 0. 0. 0. 0. 0. 0. 0.
      0. 0. 0. 0. 0. 0. 0. 0. 0. 0. 0. 0. 0. 0. 0. 0. 0. 0. 0.
      7.51646042e-01 0. 1.50329202e-01 0. 7.51646012e-02 7.51646012e-02
      1.50329202e-01 0. 7.51646012e-02 7.51646012e-02 7.51646012e-02 0.
      0. 0. 7.51646012e-02 0. 0. 0. 0. 0. 0. 0. 0. 0. 0. 0. 0. 0.
      1.50329202e-01 0. 0. 0. 0. 0. 0. 0. 0. 0. 0. 0. 0. 0. 0. 0.
      7.51646012e-02 0. 0. 0. 0. 0. 0. 0. 0. 0. 0. 0. 7.51646012e-02 0.
      0. 0. 0. 0. 7.51646012e-02 0. 7.51646012e-02 0. 0. 0. 0. 0. 0. 0.
      0. 0. 0. 0. 0. 0. 0. 7.51646012e-02 0. 0. 0. 0. 0. 0. 0. 0. 0. 0.
      0. 0. 7.51646012e-02 0. 0. 0. 0. 0. 7.51646012e-02 0.
      7.51646012e-02 0. 0. 0. 1.50329202e-01 7.51646012e-02 0. 0. 0. 0.
      0. 0. 0. 0. 0. 0. 0. 0. 0. 0. 7.51646012e-02 0. 0. 0.
      7.51646012e-02 0. 0. 7.51646012e-02 7.51646012e-02 7.51646012e-02
      7.51646012e-02 7.51646012e-02 0. 7.51646012e-02 1.50329202e-01
      1.50329202e-01 0. 0. 0. 0. 0. 0. 0. 0. 0. 0. 0. 0. 0. 0. 0. 0. 0.
      0. 0. 0. 0. 0. 0. 0. 0. 0. 0. 0. 0. 0. 0. 0. 0. 0. 0. 0. 0. 0. 0.
      7.51646012e-02 0. 0. 0. 0. 0. 0. 0. 0. 0. 0. 0. 7.51646012e-02 0.
      0. 7.51646012e-02 7.51646012e-02 7.51646012e-02 7.51646012e-02 0.
      0. 0. 0. 7.51646012e-02 3.00658405e-01 0. 7.51646012e-02 0. 0. 0.
      0. 0. 0. 0. 0. 0. 0. 0. 0. 0. 0. 0. 0. 0. 0. 0. 0. 0.
      7.51646012e-02 0. 7.51646012e-02 7.51646012e-02 7.51646012e-02 0.
      0. 0. 0. 0. 0. 0. 0. 0. 0. 0. 0. 0. 0. 0. 7.51646012e-02 0. 0. 0.
      0. 0. 0. 0. 0. 0. 0. 0. 7.51646012e-02</_>
    <_>
      4.46890175e-01 5.44870019e-01 7.09510922e-01 0. 0. 0. 0. 0. 0. 0.
      9.16003764e-01 0. 0. 0. 0. 0. 0. 0. 0. 0. 0. 0. 0. 0. 0. 0. 0. 0.
      0. 0. 0. 0. 0. 0. 0. 0. 0. 0. 0. 0. 0. 0. 0. 0. 0. 0.
      4.01169538e-01 0. 0. 0. 0. 0. 0. 0. 0. 0. 0. 0. 0. 0. 0. 0. 0. 0.
      0. 0. 0. 0. 0. 0. 0. 0. 0. 0. 0. 0. 0. 0. 0. 0. 0. 0. 0. 0. 0. 0.
      0. 0. 0. 0. 0. 0. 0. 0. 0. 0. 0. 0. 0. 0. 0. 0. 0. 0. 0. 0. 0. 0.
      0. 0. 0. 0. 0. 0. 0. 0. 0. 0. 0. 0. 0. 0. 0. 0. 0. 0. 0. 0. 0. 0.
      0. 0. 0. 0. 0. 0. 0. 0. 0. 0. 0. 0. 0. 0. 0. 0. 0. 0. 0. 0. 0. 0.
      0. 0. 0. 0. 0. 0. 0. 0. 0. 0. 0. 0. 0. 0. 0. 0. 0. 0. 0. 0. 0. 0.
      0. 0. 0. 0. 0. 0. 0. 0. 0. 0. 0. 0. 0. 0. 0. 0. 0. 0. 0. 0. 0. 0.
      0. 0. 0. 0. 0. 0. 0. 0. 0. 0. 0. 0. 0. 0. 0. 0. 0. 0. 0. 0. 0. 0.
      0. 1.10812254e-01 2.77030636e-02 5.54061271e-02 0. 0. 0.
      1.38515323e-01 8.31091926e-02 2.77030636e-02 0. 2.77030636e-02 0.
      2.77030636e-02 0. 2.77030636e-02 2.77030636e-02 2.77030636e-02 0.
      0. 0. 0. 0. 0. 0. 2.77030636e-02 0. 0. 8.31091926e-02
      8.31091926e-02 0. 8.31091926e-02 1.66218385e-01 2.77030636e-02 0.
      0. 0. 2.77030636e-02 0. 0. 0. 0. 0. 0. 0. 1.10812254e-01 0.
      2.77030636e-02 0. 8.31091926e-02 0. 0. 0. 0. 0. 0. 2.77030636e-02
      2.77030636e-02 2.77030636e-02 0. 2.77030636e-02 4.70952094e-01
      5.54061271e-02 3.32436770e-01 8.31091926e-02 0. 0. 0. 0. 0. 0.
      2.77030636e-02 0. 0. 0. 0. 0. 0. 0. 2.77030636e-02 2.77030636e-02
      0. 0. 0. 0. 0. 0. 0. 0. 0. 0. 0. 0. 0. 0. 2.77030636e-02
      2.77030636e-02 0. 0. 0. 0. 0. 0. 8.31091926e-02 0. 2.77030636e-02
      0. 0. 0. 8.31091926e-02 0. 2.77030636e-02 0. 0. 0. 0. 0. 0. 0. 0.
      0. 0. 0. 0. 0. 1.66218385e-01 0. 8.31091926e-02 8.31091926e-02 0.
      2.77030636e-02 2.77030636e-02 2.77030636e-02 0. 0. 0.
      5.54061271e-02 0. 0. 0. 0. 0. 0. 0. 2.77030636e-02 0. 0. 0.
      5.54061271e-02 0. 0. 0. 0. 0. 0. 0. 0. 0. 0. 0. 5.54061271e-02 0.
      0. 0. 0. 0. 0. 0. 0. 0. 0. 0. 0. 0. 0. 0. 0. 0. 2.77030636e-02 0.
      0. 0. 0. 0. 0. 0. 0. 0. 0. 0. 2.77030636e-02 0. 1.66218385e-01
      5.54061271e-02 0. 2.77030636e-02 8.31091926e-02 0. 0.
      8.31091926e-02 2.77030636e-02 0. 0. 0. 0. 0. 0. 0. 1.38515323e-01
      0. 0. 0. 2.77030636e-02 0. 0. 0. 0. 0. 0. 0. 0. 0. 2.77030636e-02
      2.77030636e-02 1.93921447e-01 0. 0. 0. 8.31091926e-02
      2.77030636e-02 0. 2.77030636e-02 2.77030636e-02 0. 0. 0.
      2.77030636e-02 0. 0. 0. 0. 0. 2.77030636e-02 0. 5.54061271e-02
      2.77030636e-02 2.77030636e-02 0. 0. 0. 2.77030636e-02 0.
      5.54061271e-02 2.77030636e-02 1.66218385e-01 5.54061271e-02
      5.54061294e-01</_>
    <_>
      4.27267939e-01 6.49420381e-01 6.29043221e-01 0. 0. 0. 0. 0. 0. 0.
      3.94208245e-02 0. 0. 0. 0. 0. 0. 1.97104122e-02 0. 0. 0. 0. 0.
      1.97104122e-02 5.91312386e-02 0. 0. 0. 0. 0. 1.97104122e-02
      9.85520631e-02 0. 0. 0. 0. 0. 0. 0. 0. 0. 0. 0. 0. 0. 0.
      3.94208245e-02 0. 0. 0. 0. 0. 0. 3.94208245e-02 0. 0. 0. 0. 0. 0.
      1.18262477e-01 0. 0. 0. 0. 0. 3.94208245e-02 4.53339517e-01 0. 0.
      0. 0. 0. 7.88416490e-02 0. 0. 0. 0. 0. 0. 0. 0. 0. 0. 0. 0. 0. 0.
      0. 3.94208245e-02 0. 0. 0. 0. 0. 1.97104122e-02 2.16814533e-01 0.
      0. 0. 0. 0. 3.94208245e-02 3.74497831e-01 0. 0. 0. 0. 0.
      5.91312386e-02 9.85520631e-02 0. 0. 0. 0. 0. 0. 0. 0. 0. 0. 0. 0.
      0. 0. 0. 0. 0. 0. 0. 0. 0. 3.15366596e-01 0. 0. 0. 0. 0.
      3.94208245e-02 4.33629066e-01 0. 0. 0. 0. 0. 3.94208245e-02
      3.94208245e-02 0. 0. 0. 0. 0. 0. 0. 0. 0. 0. 0. 0. 0. 0. 0. 0. 0.
      0. 0. 0. 0. 0. 0. 0. 0. 0. 0. 0. 4.33629066e-01 0. 0. 0. 0. 0.
      5.91312386e-02 2.56235361e-01 0. 0. 0. 0. 0. 0. 0. 0. 0. 0. 0. 0.
      0. 0. 0. 0. 0. 0. 0. 0. 0. 0. 0. 0. 0. 0. 0. 0. 0. 0. 0. 0. 0. 0.
      0. 1.97104122e-02 4.87195611e-01 3.74765843e-02 7.49531686e-02
      1.12429753e-01 7.49531686e-02 0. 3.74765843e-02 1.87382922e-01
      1.12429753e-01 0. 3.74765843e-02 0. 0. 0. 1.87382922e-01
      1.12429753e-01 0. 3.74765843e-02 3.74765843e-02 0. 0. 0. 0. 0.
      3.74765843e-02 3.74765843e-02 0. 7.49531686e-02 3.74765843e-02 0.
      1.12429753e-01 3.74765843e-02 7.49531686e-02 7.49531686e-02
      3.74765843e-02 0. 0. 0. 0. 0. 3.74765843e-02 0. 0. 0. 0. 0.
      3.74765843e-02 0. 0. 0. 0. 0. 0. 0. 3.74765843e-02 0. 0. 0. 0. 0.
      3.74765843e-02 0. 0. 7.49531686e-02 1.12429753e-01 3.74765843e-02
      0. 0. 3.74765843e-02 0. 0. 0. 0. 0. 0. 0. 0. 0. 0. 3.74765843e-02
      0. 0. 0. 0. 0. 0. 0. 0. 0. 0. 0. 0. 0. 0. 0. 0. 1.87382922e-01
      3.74765843e-02 0. 3.74765843e-02 0. 0. 0. 3.74765843e-02
      1.12429753e-01 0. 0. 0. 0. 0. 0. 0. 7.49531686e-02 0. 0. 0. 0. 0.
      0. 0. 4.49719012e-01 3.74765843e-02 0. 0. 7.49531686e-02 0. 0.
      7.49531686e-02 1.12429753e-01 1.12429753e-01 3.74765843e-02
      3.74765843e-02 3.74765843e-02 0. 3.74765843e-02 1.49906337e-01
      3.74765843e-02 0. 0. 3.74765843e-02 0. 0. 0. 7.49531686e-02 0. 0.
      0. 0. 3.74765843e-02 0. 0. 3.74765843e-02 3.74765843e-02
      3.74765843e-02 0. 0. 0. 3.74765843e-02 0. 3.74765843e-02
      3.74765843e-02 3.74765843e-02 0. 0. 0. 0. 0. 0. 0. 0. 0. 0. 0. 0.
      0. 0. 0. 0. 0. 0. 0. 0. 0. 0. 0. 0. 0. 0. 3.74765843e-02 0.
      3.74765843e-02 3.74765843e-02 1.12429753e-01 1.12429753e-01
      3.74765843e-02 1.12429753e-01 0. 0. 0. 0. 3.74765843e-02 0. 0.
      3.74765843e-02 0. 0. 0. 1.12429753e-01 0. 0. 0. 0. 0. 0. 0. 0. 0.
      0. 0. 0. 0. 0. 0. 3.74765843e-02 3.74765843e-02 2.62336075e-01
      3.74765843e-02 1.12429753e-01 0. 0. 0. 3.74765843e-02 0.
      3.74765843e-02 0. 0. 3.74765843e-02 0. 0. 0. 7.49531686e-02
      1.12429753e-01 3.74765843e-02 3.74765843e-02 0. 0. 3.74765843e-02
      7.49531686e-02 3.74765843e-02 3.74765843e-02 0. 1.49906337e-01
      3.74765843e-02 0. 0. 1.49906337e-01</_>
    <_>
      4.81528461e-01 5.57638824e-01 6.76142991e-01 4.79672849e-03
      7.48289645e-01 0. 0. 0. 0. 0. 6.61948562e-01 0. 0. 0. 0. 0. 0. 0.
      0. 0. 0. 0. 0. 0. 0. 0. 0. 0. 0. 0. 0. 0. 0. 0. 0. 0. 0. 0. 0. 0.
      0. 0. 0. 0. 0. 0. 4.31705564e-02 0. 0. 0. 0. 0. 0. 0. 0. 0. 0. 0.
      0. 0. 0. 0. 0. 0. 0. 0. 0. 0. 0. 0. 0. 0. 0. 0. 0. 0. 0. 0. 0. 0.
      0. 0. 0. 0. 0. 0. 0. 0. 0. 0. 0. 0. 0. 0. 0. 0. 0. 0. 0. 0. 0. 0.
      0. 0. 0. 0. 0. 0. 0. 0. 0. 0. 0. 0. 0. 0. 0. 0. 0. 0. 0. 0. 0. 0.
      0. 0. 0. 0. 0. 0. 0. 0. 0. 0. 0. 0. 0. 0. 0. 0. 0. 0. 0. 0. 0. 0.
      0. 0. 0. 0. 0. 0. 0. 0. 0. 0. 0. 0. 0. 0. 0. 0. 0. 0. 0. 0. 0. 0.
      0. 0. 0. 0. 0. 0. 0. 0. 0. 0. 0. 0. 0. 0. 0. 0. 0. 0. 0. 0. 0. 0.
      0. 0. 0. 0. 0. 0. 0. 0. 0. 0. 0. 0. 0. 0. 0. 0. 0. 0. 0. 0. 0. 0.
      0. 0. 0. 0. 0. 0. 0. 7.15885460e-02 0. 7.15885460e-02
      1.78971365e-02 3.57942730e-02 0. 3.57942730e-02 3.57942730e-02
      3.57942730e-02 0. 0. 0. 5.36914095e-02 0. 1.25279963e-01
      1.78971365e-02 0. 0. 0. 0. 0. 0. 0. 0. 5.36914095e-02 0. 0. 0.
      8.94856825e-02 0. 5.36914095e-02 7.15885460e-02 7.15885460e-02 0.
      1.78971365e-02 0. 0. 0. 0. 0. 0. 0. 0. 0. 1.78971365e-02 0.
      3.57942730e-02 0. 1.78971365e-02 0. 1.78971365e-02 1.78971365e-02
      0. 0. 0. 0. 1.43177092e-01 3.57942730e-02 1.78971365e-02 0.
      3.40045601e-01 1.78971365e-02 1.78971365e-01 1.25279963e-01 0. 0.
      1.78971365e-02 0. 0. 0. 0. 0. 3.57942730e-02 0. 0. 0. 0. 0. 0. 0.
      0. 0. 0. 0. 0. 0. 0. 0. 0. 0. 0. 0. 1.78971365e-02 0. 0. 0. 0. 0.
      0. 0. 0. 0. 1.78971365e-02 1.78971365e-02 0. 0. 0. 0.
      3.57942730e-02 0. 0. 1.78971365e-02 0. 0. 0. 0. 0. 0. 0. 0.
      1.78971365e-01 0. 0. 0. 2.32662767e-01 0. 1.78971365e-01
      1.43177092e-01 3.57942730e-02 1.78971365e-02 0. 1.78971365e-02 0.
      0. 1.78971365e-02 3.57942730e-02 1.78971365e-02 1.78971365e-02 0.
      0. 0. 0. 1.78971365e-02 1.78971365e-02 0. 0. 0. 1.78971365e-02
      1.78971365e-02 1.78971365e-02 0. 0. 1.78971365e-02 1.78971365e-02
      0. 0. 3.57942730e-02 0. 0. 1.07382819e-01 1.78971365e-02 0. 0. 0.
      0. 0. 0. 0. 1.78971365e-02 0. 0. 0. 0. 0. 0. 0. 0. 0.
      1.78971365e-02 0. 0. 0. 0. 0. 3.57942730e-02 0. 0. 1.78971365e-02
      0. 1.78971365e-02 0. 1.07382819e-01 0. 1.78971365e-02 0.
      5.36914095e-02 0. 0. 5.36914095e-02 5.36914095e-02 3.57942730e-02
      0. 0. 1.78971365e-02 0. 0. 0. 3.57942730e-02 0. 0. 0.
      3.57942730e-02 0. 0. 0. 0. 1.78971365e-02 0. 0. 1.78971365e-02 0.
      0. 0. 8.94856825e-02 3.57942730e-02 1.78971365e-02 1.78971365e-02
      0. 1.78971365e-02 0. 0. 3.57942730e-02 0. 0. 0. 0. 0. 0. 0.
      1.78971365e-02 1.78971365e-02 0. 0. 1.78971365e-02 0. 0. 0.
      1.78971365e-02 8.94856825e-02 3.57942730e-02 0. 1.78971365e-02
      1.07382819e-01 8.94856825e-02 8.94856825e-02 7.15885460e-01</_>
    <_>
      5.03032267e-01 5.60810328e-01 6.57609582e-01 3.21189672e-01
      9.21933293e-01 0. 0. 0. 0. 0. 2.02230528e-01 0. 0. 0. 0. 0. 0. 0.
      0. 0. 0. 0. 0. 0. 0. 0. 0. 0. 0. 0. 0. 0. 0. 0. 0. 0. 0. 0. 0. 0.
      0. 0. 0. 0. 0. 0. 7.73234442e-02 0. 0. 0. 0. 0. 0. 0. 0. 0. 0. 0.
      0. 0. 0. 0. 0. 0. 0. 0. 0. 0. 0. 0. 0. 0. 0. 0. 0. 0. 0. 0. 0. 0.
      0. 0. 0. 0. 0. 0. 0. 0. 0. 0. 0. 0. 0. 0. 0. 0. 0. 0. 0. 0. 0. 0.
      0. 0. 0. 0. 0. 0. 0. 0. 0. 0. 0. 0. 0. 0. 0. 0. 0. 0. 0. 0. 0. 0.
      0. 0. 0. 0. 0. 0. 0. 0. 0. 0. 0. 0. 0. 0. 0. 0. 0. 0. 0. 0. 0. 0.
      0. 0. 0. 0. 0. 0. 0. 0. 0. 0. 0. 0. 0. 0. 0. 0. 0. 0. 0. 0. 0. 0.
      0. 0. 0. 0. 0. 0. 0. 0. 0. 0. 0. 0. 0. 0. 0. 0. 0. 0. 0. 0. 0. 0.
      0. 0. 0. 0. 0. 0. 0. 0. 0. 0. 0. 0. 0. 0. 0. 0. 0. 0. 0. 0. 0. 0.
      0. 0. 0. 0. 0. 0. 0. 1.69675171e-01 0. 4.84786183e-02 0. 0.
      2.42393091e-02 9.69572365e-02 4.84786183e-02 4.84786183e-02
      2.42393091e-02 0. 2.42393091e-02 7.27179274e-02 0. 7.27179274e-02
      9.69572365e-02 0. 0. 0. 0. 0. 0. 0. 0. 7.27179274e-02
      2.42393091e-02 2.42393091e-02 0. 0. 2.42393091e-02 7.27179274e-02
      7.27179274e-02 4.84786183e-02 0. 0. 0. 0. 0. 0. 2.42393091e-02
      2.42393091e-02 0. 0. 0. 2.42393091e-02 0. 2.42393091e-02
      2.42393091e-02 7.27179274e-02 0. 0. 0. 0. 0. 2.42393091e-02 0.
      1.21196546e-01 0. 2.42393091e-02 0. 2.18153775e-01 0.
      7.27179274e-02 4.84786183e-02 0. 0. 0. 0. 0. 0. 0. 0. 0. 0. 0. 0.
      2.42393091e-02 0. 2.42393091e-02 2.42393091e-02 0. 0. 0. 0. 0. 0.
      0. 0. 2.42393091e-02 0. 2.42393091e-02 0. 0. 0. 0. 4.84786183e-02
      7.27179274e-02 0. 2.42393091e-02 0. 0. 0. 0. 0. 0. 0. 0. 0. 0. 0.
      2.42393091e-02 2.42393091e-02 0. 2.42393091e-02 0. 0. 0. 0. 0. 0.
      4.84786183e-02 0. 2.42393091e-02 0. 9.69572365e-02 4.84786183e-02
      4.84786183e-02 1.69675171e-01 4.84786183e-02 7.27179274e-02 0.
      1.21196546e-01 0. 0. 0. 9.69572365e-02 2.42393091e-02 0. 0. 0.
      2.42393091e-02 0. 0. 9.69572365e-02 0. 0. 0. 0. 0. 0. 0.
      4.84786183e-02 0. 0. 0. 2.42393091e-02 0. 0. 0. 7.27179274e-02 0.
      0. 0. 2.42393091e-02 0. 0. 0. 0. 0. 0. 0. 0. 0. 0. 0. 0. 0. 0. 0.
      0. 0. 0. 0. 2.42393091e-02 2.42393091e-02 7.27179274e-02 0.
      2.42393091e-02 0. 2.42393091e-02 0. 1.45435855e-01 4.84786183e-02
      2.42393091e-02 2.42393091e-02 9.69572365e-02 0. 0. 2.42393091e-02
      0. 0. 0. 0. 0. 0. 0. 0. 7.27179274e-02 0. 0. 0. 0. 0. 0. 0. 0. 0.
      0. 0. 0. 0. 0. 0. 4.84786183e-02 7.27179274e-02 0. 2.42393091e-02
      0. 4.84786183e-02 2.42393091e-02 0. 4.84786183e-02 0. 0. 0. 0. 0.
      4.84786183e-02 0. 4.84786183e-02 2.42393091e-02 7.27179274e-02 0.
      2.42393091e-02 4.84786183e-02 2.42393091e-02 2.42393091e-02
      1.45435855e-01 2.42393091e-02 4.84786183e-02 0. 7.27179274e-02
      7.27179274e-02 9.69572365e-02 4.84786183e-02 7.75657892e-01</_>
    <_>
      4.75192606e-01 5.42807579e-01 6.92496836e-01 0. 0. 0. 0. 0. 0. 0.
      0. 0. 0. 0. 0. 0. 0. 0. 0. 0. 0. 0. 0. 0. 0. 0. 0. 0. 0. 0. 0. 0.
      0. 0. 0. 0. 0. 0. 0. 0. 0. 0. 0. 0. 0. 0. 3.01370583e-02
      9.99545813e-01 0. 0. 0. 0. 0. 0. 0. 0. 0. 0. 0. 0. 0. 0. 0. 0. 0.
      0. 0. 0. 0. 0. 0. 0. 0. 0. 0. 0. 0. 0. 0. 0. 0. 0. 0. 0. 0. 0. 0.
      0. 0. 0. 0. 0. 0. 0. 0. 0. 0. 0. 0. 0. 0. 0. 0. 0. 0. 0. 0. 0. 0.
      0. 0. 0. 0. 0. 0. 0. 0. 0. 0. 0. 0. 0. 0. 0. 0. 0. 0. 0. 0. 0. 0.
      0. 0. 0. 0. 0. 0. 0. 0. 0. 0. 0. 0. 0. 0. 0. 0. 0. 0. 0. 0. 0. 0.
      0. 0. 0. 0. 0. 0. 0. 0. 0. 0. 0. 0. 0. 0. 0. 0. 0. 0. 0. 0. 0. 0.
      0. 0. 0. 0. 0. 0. 0. 0. 0. 0. 0. 0. 0. 0. 0. 0. 0. 0. 0. 0. 0. 0.
      0. 0. 0. 0. 0. 0. 0. 0. 0. 0. 0. 0. 0. 0. 0. 0. 0. 0. 0. 0. 0. 0.
      1.08187161e-01 0. 2.70467903e-02 2.70467903e-02 0. 0. 0.
      2.70467903e-02 0. 0. 2.70467903e-02 0. 2.70467903e-02 0.
      1.35233954e-01 0. 0. 0. 0. 0. 0. 0. 0. 0. 5.40935807e-02 0.
      2.70467903e-02 0. 2.70467903e-02 0. 5.40935807e-02 1.62280738e-01
      2.70467903e-02 0. 0. 0. 0. 0. 0. 2.70467903e-02 0. 0. 0. 0. 0. 0.
      2.70467903e-02 0. 8.11403692e-02 0. 0. 0. 0. 0. 0. 0.
      1.08187161e-01 2.70467903e-02 0. 0. 2.70467903e-02 2.70467903e-02
      3.24561477e-01 1.89327538e-01 0. 0. 0. 0. 0. 0. 0. 0. 0. 0. 0. 0.
      0. 0. 0. 0. 0. 0. 0. 0. 0. 0. 0. 0. 0. 0. 0. 0. 0. 0. 0.
      2.70467903e-02 0. 2.70467903e-02 0. 0. 0. 0. 2.70467903e-02 0. 0.
      0. 0. 0. 5.40935807e-02 0. 0. 0. 0. 0. 0. 0. 0. 0. 0. 0.
      2.70467903e-02 0. 0. 0. 2.70467903e-02 0. 1.89327538e-01
      5.40935807e-02 0. 2.70467903e-02 0. 8.11403692e-02 0. 0. 0.
      1.08187161e-01 0. 0. 0. 0. 0. 0. 0. 5.40935807e-02 2.70467903e-02
      0. 0. 2.70467903e-02 0. 0. 0. 2.70467903e-02 0. 0. 0. 0. 0. 0. 0.
      5.40935807e-02 5.40935807e-02 0. 0. 0. 0. 0. 0. 0. 0. 0. 0. 0. 0.
      2.70467903e-02 0. 2.70467903e-02 0. 0. 0. 0. 0. 0. 0. 0.
      2.70467903e-02 2.70467903e-02 0. 0. 0. 0. 0. 1.62280738e-01
      2.70467903e-02 2.70467903e-02 2.70467903e-02 5.40935807e-02 0. 0.
      0. 1.08187161e-01 0. 0. 0. 0. 0. 0. 0. 1.35233954e-01
      2.70467903e-02 0. 2.70467903e-02 0. 0. 0. 0. 0. 0. 0. 0.
      2.70467903e-02 0. 0. 0. 1.89327538e-01 8.11403692e-02
      8.11403692e-02 2.70467903e-02 1.35233954e-01 0. 0. 0.
      1.08187161e-01 5.40935807e-02 0. 0. 0. 5.40935807e-02 0. 0.
      1.08187161e-01 5.40935807e-02 0. 0. 8.11403692e-02 0.
      2.70467903e-02 2.70467903e-02 2.70467903e-02 2.70467903e-02
      2.70467903e-02 0. 1.35233954e-01 1.08187161e-01 2.16374323e-01
      1.35233954e-01 6.49122953e-01</_>
    <_>
      5.31295121e-01 5.64283431e-01 6.31909549e-01 0. 0. 0. 0. 0. 0. 0.
      0. 0. 0. 0. 0. 0. 0. 0. 0. 0. 0. 0. 0. 0. 0. 0. 0. 0. 0. 0. 0. 0.
      0. 0. 0. 0. 0. 0. 0. 0. 0. 0. 0. 0. 0. 0. 7.41323292e-01
      5.77796102e-01 0. 0. 0. 0. 0. 9.81163234e-02 0. 0. 0. 0. 0. 0. 0.
      0. 0. 0. 0. 0. 0. 0. 0. 0. 0. 0. 0. 0. 0. 0. 0. 0. 0. 0. 0. 0. 0.
      0. 0. 0. 0. 0. 0. 3.27054411e-01 0. 0. 0. 0. 0. 0. 0. 0. 0. 0. 0.
      0. 0. 0. 0. 0. 0. 0. 0. 0. 0. 0. 0. 0. 0. 0. 0. 0. 0. 0. 0. 0. 0.
      0. 0. 0. 0. 0. 0. 0. 0. 0. 0. 0. 0. 0. 0. 0. 0. 0. 0. 0. 0. 0. 0.
      0. 0. 0. 0. 0. 0. 0. 0. 0. 0. 0. 0. 0. 0. 0. 0. 0. 0. 0. 0. 0. 0.
      0. 0. 0. 0. 0. 0. 0. 0. 0. 0. 0. 0. 0. 0. 0. 0. 0. 0. 0. 0. 0. 0.
      0. 0. 0. 0. 0. 0. 0. 0. 0. 0. 0. 0. 0. 0. 0. 0. 0. 0. 0. 0. 0. 0.
      0. 0. 0. 0. 0. 0. 0. 0. 4.43202645e-01 1.20873451e-01
      4.02911492e-02 0. 8.05822983e-02 0. 4.02911492e-02 4.02911492e-02
      8.05822983e-02 0. 0. 0. 8.05822983e-02 4.02911492e-02 0.
      4.02911492e-02 0. 0. 0. 0. 0. 0. 0. 0. 0. 0. 0. 4.02911492e-02
      1.20873451e-01 0. 0. 0. 1.61164597e-01 0. 4.02911492e-02 0. 0. 0.
      4.02911492e-02 0. 0. 0. 0. 0. 4.02911492e-02 0. 0. 0. 0. 0. 0. 0.
      4.02911492e-02 0. 0. 0. 2.01455742e-01 0. 0. 0. 4.43202645e-01 0.
      1.20873451e-01 4.02911492e-02 4.02911492e-02 0. 4.02911492e-02 0.
      0. 4.02911492e-02 4.02911492e-02 4.02911492e-02 0. 0. 0. 0. 0. 0.
      0. 0. 0. 0. 0. 0. 0. 0. 0. 0. 0. 0. 0. 0. 0. 0. 4.02911492e-02 0.
      1.61164597e-01 0. 0. 0. 8.05822983e-02 0. 4.02911492e-02 0.
      4.02911492e-02 0. 0. 0. 1.20873451e-01 0. 0. 4.02911492e-02 0. 0.
      0. 0. 0. 0. 0. 0. 4.02911492e-02 4.02911492e-02 0. 0.
      1.20873451e-01 8.05822983e-02 0. 4.02911492e-02 8.05822983e-02
      8.05822983e-02 4.02911492e-02 1.20873451e-01 0. 0. 4.02911492e-02
      8.05822983e-02 0. 4.02911492e-02 0. 0. 0. 4.02911492e-02 0.
      4.02911492e-02 4.02911492e-02 0. 0. 4.02911492e-02 0. 0. 0.
      4.02911492e-02 0. 0. 0. 0. 0. 0. 0. 0. 0. 4.02911492e-02 0. 0. 0.
      0. 0. 0. 0. 0. 0. 0. 0. 0. 0. 0. 0. 0. 0. 4.02911492e-02 0. 0. 0.
      0. 0. 4.02911492e-02 0. 0. 0. 4.02911492e-02 0. 1.20873451e-01 0.
      8.05822983e-02 4.02911492e-02 2.82038033e-01 0. 0. 4.02911492e-02
      2.01455742e-01 0. 0. 0. 4.02911492e-02 0. 0. 0. 0. 0.
      4.02911492e-02 4.02911492e-02 4.02911492e-02 0. 0. 0.
      4.02911492e-02 0. 0. 0. 0. 0. 0. 0. 8.05822983e-02 1.61164597e-01
      0. 0. 1.61164597e-01 0. 0. 0. 1.61164597e-01 0. 4.02911492e-02 0.
      0. 0. 0. 0. 4.02911492e-02 0. 0. 0. 8.05822983e-02 4.02911492e-02
      0. 0. 8.05822983e-02 0. 4.02911492e-02 0. 1.20873451e-01 0.
      8.05822983e-02 0. 2.01455742e-01</_>
    <_>
      5.06836891e-01 5.62629879e-01 6.53118670e-01 0. 7.12834239e-01 0.
      0. 0. 0. 0. 6.50304914e-01 0. 0. 0. 0. 0. 0. 0. 0. 0. 0. 0. 0. 0.
      0. 0. 0. 0. 0. 0. 0. 0. 0. 0. 0. 0. 0. 0. 0. 0. 0. 0. 0. 0. 0. 0.
      2.62623131e-01 0. 0. 0. 0. 0. 0. 0. 0. 0. 0. 0. 0. 0. 0. 0. 0. 0.
      0. 0. 0. 0. 0. 0. 0. 0. 0. 0. 0. 0. 0. 0. 0. 0. 0. 0. 0. 0. 0. 0.
      0. 0. 0. 0. 0. 0. 0. 0. 0. 0. 0. 0. 0. 0. 0. 0. 0. 0. 0. 0. 0. 0.
      0. 0. 0. 0. 0. 0. 0. 0. 0. 0. 0. 0. 0. 0. 0. 0. 0. 0. 0. 0. 0. 0.
      0. 0. 0. 0. 0. 0. 0. 0. 0. 0. 0. 0. 0. 0. 0. 0. 0. 0. 0. 0. 0. 0.
      0. 0. 0. 0. 0. 0. 0. 0. 0. 0. 0. 0. 0. 0. 0. 0. 0. 0. 0. 0. 0. 0.
      0. 0. 0. 0. 0. 0. 0. 0. 0. 0. 0. 0. 0. 0. 0. 0. 0. 0. 0. 0. 0. 0.
      0. 0. 0. 0. 0. 0. 0. 0. 0. 0. 0. 0. 0. 0. 0. 0. 0. 0. 0. 0. 0. 0.
      0. 1.55593991e-01 0. 4.44554240e-02 2.22277120e-02 2.22277120e-02
      0. 6.66831359e-02 0. 4.44554240e-02 0. 2.22277120e-02 0.
      2.22277120e-02 2.22277120e-02 1.11138560e-01 0. 4.44554240e-02 0.
      0. 0. 0. 0. 0. 0. 6.66831359e-02 2.22277120e-02 0. 2.22277120e-02
      2.22277120e-02 2.22277120e-02 4.44554240e-02 1.11138560e-01
      1.55593991e-01 0. 4.44554240e-02 0. 6.66831359e-02 2.22277120e-02
      0. 0. 2.22277120e-02 0. 0. 2.22277120e-02 2.22277120e-02 0. 0. 0.
      8.89108479e-02 0. 0. 2.22277120e-02 0. 0. 0. 0. 1.55593991e-01 0.
      2.22277120e-02 2.22277120e-02 3.77871096e-01 0. 8.89108479e-02
      4.44554240e-02 2.22277120e-02 0. 0. 0. 2.22277120e-02 0. 0. 0. 0.
      0. 0. 0. 0. 0. 0. 0. 0. 0. 0. 0. 0. 0. 0. 0. 0. 0. 0. 0.
      2.22277120e-02 0. 6.66831359e-02 0. 4.44554240e-02 0.
      4.44554240e-02 0. 2.22277120e-02 0. 0. 0. 2.22277120e-02 0. 0. 0.
      0. 0. 2.22277120e-02 0. 0. 0. 6.66831359e-02 0. 0. 2.22277120e-02
      2.22277120e-02 2.22277120e-02 4.44554240e-02 0. 0. 0.
      1.11138560e-01 2.22277120e-02 6.66831359e-02 6.66831359e-02
      2.22277120e-02 2.22277120e-02 2.22277120e-02 1.55593991e-01 0. 0.
      0. 2.22277120e-02 0. 0. 0. 0. 0. 2.22277120e-02 0. 2.22277120e-02
      0. 0. 0. 0. 0. 0. 0. 2.22277120e-02 0. 2.22277120e-02 0. 0. 0. 0.
      0. 2.22277120e-02 0. 0. 0. 0. 0. 0. 0. 2.22277120e-02 0.
      2.22277120e-02 0. 0. 2.22277120e-02 0. 0. 0. 0. 0. 0.
      2.22277120e-02 0. 0. 0. 0. 0. 0. 0. 4.44554240e-02 2.22277120e-02
      0. 0. 4.44554240e-02 2.22277120e-02 0. 0. 2.66732544e-01
      2.22277120e-02 0. 2.22277120e-02 1.11138560e-01 0. 0. 0.
      2.22277120e-02 0. 0. 2.22277120e-02 2.22277120e-02 0. 0. 0. 0. 0.
      0. 0. 2.22277120e-02 0. 0. 0. 0. 0. 0. 0. 1.11138560e-01
      1.55593991e-01 0. 0. 0. 0. 0. 4.44554240e-02 2.22277120e-02 0. 0.
      0. 0. 2.22277120e-02 2.22277120e-02 2.22277120e-02 2.22277120e-02
      0. 1.11138560e-01 0. 8.89108479e-02 0. 0. 0. 6.66831359e-02
      4.44554240e-02 1.11138560e-01 2.22277120e-02 4.44554240e-02
      8.89108479e-02 2.00049400e-01 4.44554240e-02 6.44603670e-01</_>
    <_>
      4.70757186e-01 5.41250587e-01 6.96731985e-01 0. 0. 0. 0. 0. 0. 0.
      0. 0. 0. 0. 0. 0. 0. 0. 0. 0. 0. 0. 0. 0. 0. 0. 0. 0. 0. 0. 0. 0.
      0. 0. 0. 0. 0. 0. 0. 0. 0. 0. 0. 0. 0. 0. 8.70469734e-02
      9.96204197e-01 0. 0. 0. 0. 0. 0. 0. 0. 0. 0. 0. 0. 0. 0. 0. 0. 0.
      0. 0. 0. 0. 0. 0. 0. 0. 0. 0. 0. 0. 0. 0. 0. 0. 0. 0. 0. 0. 0. 0.
      0. 0. 0. 0. 0. 0. 0. 0. 0. 0. 0. 0. 0. 0. 0. 0. 0. 0. 0. 0. 0. 0.
      0. 0. 0. 0. 0. 0. 0. 0. 0. 0. 0. 0. 0. 0. 0. 0. 0. 0. 0. 0. 0. 0.
      0. 0. 0. 0. 0. 0. 0. 0. 0. 0. 0. 0. 0. 0. 0. 0. 0. 0. 0. 0. 0. 0.
      0. 0. 0. 0. 0. 0. 0. 0. 0. 0. 0. 0. 0. 0. 0. 0. 0. 0. 0. 0. 0. 0.
      0. 0. 0. 0. 0. 0. 0. 0. 0. 0. 0. 0. 0. 0. 0. 0. 0. 0. 0. 0. 0. 0.
      0. 0. 0. 0. 0. 0. 0. 0. 0. 0. 0. 0. 0. 0. 0. 0. 0. 0. 0. 0. 0. 0.
      3.13727893e-02 0. 0. 0. 3.13727893e-02 0. 0. 0. 0. 0. 0. 0.
      3.13727893e-02 0. 9.41183716e-02 3.13727893e-02 0. 0. 0. 0. 0. 0.
      0. 0. 3.13727893e-02 0. 0. 0. 3.13727893e-02 0. 6.27455786e-02 0.
      0. 0. 0. 0. 0. 0. 0. 0. 0. 0. 0. 0. 0. 0. 0. 0. 0. 0. 0. 0. 0. 0.
      0. 0. 2.50982314e-01 0. 0. 0. 9.41183716e-02 0. 6.27455786e-02
      1.88236743e-01 0. 0. 0. 0. 0. 0. 0. 0. 3.13727893e-02 0. 0. 0. 0.
      0. 0. 0. 0. 0. 0. 0. 0. 0. 0. 0. 0. 0. 0. 0. 0. 0. 0. 0. 0. 0. 0.
      0. 0. 0. 0. 0. 0. 0. 0. 0. 0. 0. 0. 0. 3.13727893e-02 0. 0. 0. 0.
      0. 3.13727893e-02 0. 0. 0. 0. 0. 1.25491157e-01 0. 2.19609529e-01
      3.13727893e-02 0. 0. 0. 0. 0. 0. 0. 3.13727893e-02 0. 0. 0. 0. 0.
      0. 3.13727893e-02 1.25491157e-01 0. 0. 0. 0. 0. 0. 0. 0. 0. 0. 0.
      0. 0. 0. 0. 1.25491157e-01 0. 0. 0. 0. 0. 0. 0. 0. 0. 0. 0. 0. 0.
      0. 0. 0. 0. 0. 0. 0. 0. 0. 0. 0. 3.13727893e-02 0. 0. 0. 0. 0.
      3.13727893e-02 1.25491157e-01 0. 0. 0. 0. 0. 0. 0. 0. 0. 0. 0. 0.
      0. 0. 0. 3.13727893e-02 0. 0. 0. 0. 0. 0. 0. 0. 0. 0. 0. 0. 0. 0.
      0. 3.13727893e-02 0. 0. 0. 0. 0. 0. 0. 0. 0. 0. 0. 0. 0. 0.
      3.13727893e-02 3.13727893e-02 6.27455786e-02 0. 0. 0.
      3.13727893e-02 0. 0. 3.13727893e-02 2.19609529e-01 0. 0.
      3.13727893e-02 9.41183716e-02 9.41183716e-02 9.41183716e-02
      8.15692544e-01</_>
    <_>
      5.07441819e-01 5.64084589e-01 6.51391864e-01 1.48675263e-01
      9.61433291e-01 0. 0. 0. 0. 0. 2.27968737e-01 0. 0. 0. 0. 0. 0. 0.
      0. 0. 0. 0. 0. 0. 0. 0. 0. 0. 0. 0. 0. 0. 0. 0. 0. 0. 0. 0. 0. 0.
      0. 0. 0. 0. 0. 0. 3.96467373e-02 0. 0. 0. 0. 0. 0. 0. 0. 0. 0. 0.
      0. 0. 0. 0. 0. 0. 0. 0. 0. 0. 0. 0. 0. 0. 0. 0. 0. 0. 0. 0. 0. 0.
      0. 0. 0. 0. 0. 0. 0. 0. 0. 0. 0. 0. 0. 0. 0. 0. 0. 0. 0. 0. 0. 0.
      0. 0. 0. 0. 0. 0. 0. 0. 0. 0. 0. 0. 0. 0. 0. 0. 0. 0. 0. 0. 0. 0.
      0. 0. 0. 0. 0. 0. 0. 0. 0. 0. 0. 0. 0. 0. 0. 0. 0. 0. 0. 0. 0. 0.
      0. 0. 0. 0. 0. 0. 0. 0. 0. 0. 0. 0. 0. 0. 0. 0. 0. 0. 0. 0. 0. 0.
      0. 0. 0. 0. 0. 0. 0. 0. 0. 0. 0. 0. 0. 0. 0. 0. 0. 0. 0. 0. 0. 0.
      0. 0. 0. 0. 0. 0. 0. 0. 0. 0. 0. 0. 0. 0. 0. 0. 0. 0. 0. 0. 0. 0.
      0. 0. 0. 0. 0. 0. 0. 1.35526180e-01 0. 2.25876980e-02
      4.51753959e-02 0. 0. 4.51753959e-02 0. 2.25876980e-02 0. 0. 0.
      2.25876980e-02 0. 1.35526180e-01 9.03507918e-02 0. 0. 0.
      2.25876980e-02 0. 0. 0. 0. 2.25876980e-02 2.25876980e-02 0.
      2.25876980e-02 0. 0. 1.12938493e-01 6.77630901e-02 4.51753959e-02
      0. 0. 0. 0. 0. 0. 2.25876980e-02 0. 0. 0. 0. 0. 0. 0. 0.
      2.25876980e-02 0. 0. 0. 0. 0. 0. 0. 2.03289285e-01 0. 0. 0.
      1.80701584e-01 0. 2.25876987e-01 6.77630901e-02 0. 0. 0. 0. 0.
      2.25876980e-02 2.25876980e-02 0. 2.25876980e-02 0. 0. 0. 0.
      2.25876980e-02 0. 0. 0. 0. 0. 0. 0. 0. 0. 0. 2.25876980e-02 0. 0.
      0. 0. 0. 0. 0. 0. 0. 4.51753959e-02 0. 0. 0. 0. 4.51753959e-02 0.
      0. 0. 0. 2.25876980e-02 0. 4.51753959e-02 0. 4.51753959e-02 0. 0.
      2.25876980e-02 0. 0. 0. 0. 4.51753959e-02 0. 0. 0. 6.77630901e-02
      0. 1.58113882e-01 4.51753959e-02 4.51753959e-02 0. 2.25876980e-02
      1.12938493e-01 0. 0. 0. 6.77630901e-02 0. 0. 0. 0. 0. 0. 0.
      2.25876980e-02 0. 2.25876980e-02 0. 0. 0. 0. 0. 0. 0.
      4.51753959e-02 0. 0. 0. 0. 0. 1.12938493e-01 0. 0. 2.25876980e-02
      0. 0. 0. 0. 0. 0. 0. 0. 2.25876980e-02 0. 0. 0. 2.25876980e-02 0.
      0. 0. 0. 0. 0. 0. 0. 2.25876980e-02 2.25876980e-02 0.
      4.51753959e-02 0. 2.25876980e-02 0. 6.77630901e-02 2.25876980e-02
      9.03507918e-02 0. 6.77630901e-02 0. 0. 0. 1.12938493e-01 0. 0. 0.
      0. 0. 2.25876980e-02 2.25876980e-02 9.03507918e-02 0. 0. 0.
      2.25876980e-02 0. 0. 0. 0. 0. 0. 0. 0. 0. 0. 0. 2.03289285e-01
      9.03507918e-02 0. 2.25876980e-02 2.03289285e-01 9.03507918e-02 0.
      0. 9.03507918e-02 0. 0. 0. 0. 2.25876980e-02 2.25876980e-02
      2.25876980e-02 6.77630901e-02 9.03507918e-02 4.51753959e-02
      2.25876980e-02 1.35526180e-01 0. 0. 2.25876980e-02 1.12938493e-01
      9.03507918e-02 9.03507918e-02 0. 6.77630901e-02 1.80701584e-01
      4.51753959e-02 0. 6.77630961e-01</_>
    <_>
      4.28589523e-01 6.86121225e-01 5.87833881e-01 0. 0. 0. 0. 0. 0. 0.
      1.16841257e-01 0. 0. 0. 0. 0. 0. 0. 0. 0. 0. 0. 0. 0. 0. 0. 0. 0.
      0. 0. 0. 0. 0. 0. 0. 0. 0. 0. 0. 0. 0. 0. 0. 0. 0. 0.
      9.93150651e-01 0. 0. 0. 0. 0. 0. 0. 0. 0. 0. 0. 0. 0. 0. 0. 0. 0.
      0. 0. 0. 0. 0. 0. 0. 0. 0. 0. 0. 0. 0. 0. 0. 0. 0. 0. 0. 0. 0. 0.
      0. 0. 0. 0. 0. 0. 0. 0. 0. 0. 0. 0. 0. 0. 0. 0. 0. 0. 0. 0. 0. 0.
      0. 0. 0. 0. 0. 0. 0. 0. 0. 0. 0. 0. 0. 0. 0. 0. 0. 0. 0. 0. 0. 0.
      0. 0. 0. 0. 0. 0. 0. 0. 0. 0. 0. 0. 0. 0. 0. 0. 0. 0. 0. 0. 0. 0.
      0. 0. 0. 0. 0. 0. 0. 0. 0. 0. 0. 0. 0. 0. 0. 0. 0. 0. 0. 0. 0. 0.
      0. 0. 0. 0. 0. 0. 0. 0. 0. 0. 0. 0. 0. 0. 0. 0. 0. 0. 0. 0. 0. 0.
      0. 0. 0. 0. 0. 0. 0. 0. 0. 0. 0. 0. 0. 0. 0. 0. 0. 0. 0. 0. 0. 0.
      0. 5.57085991e-01 0. 0. 0. 1.85695335e-01 0. 0. 0. 0. 0. 0. 0. 0.
      0. 0. 0. 0. 0. 0. 0. 0. 0. 0. 0. 0. 0. 0. 0. 0. 0. 0. 0. 0. 0. 0.
      0. 1.85695335e-01 0. 0. 0. 1.85695335e-01 0. 0. 0. 0. 0. 0. 0.
      1.85695335e-01 0. 0. 0. 0. 0. 0. 0. 1.85695335e-01 0. 0. 0.
      3.71390671e-01 0. 0. 0. 0. 0. 3.71390671e-01 0. 0. 0. 0. 0. 0. 0.
      0. 0. 0. 0. 0. 0. 0. 0. 0. 0. 0. 0. 0. 0. 0. 0. 0. 0. 0. 0. 0. 0.
      0. 0. 0. 0. 0. 0. 0. 0. 0. 0. 0. 0. 1.85695335e-01 0. 0. 0. 0. 0.
      0. 0. 0. 0. 0. 0. 0. 0. 0. 0. 1.85695335e-01 0. 0. 0. 0.
      1.85695335e-01 0. 0. 0. 0. 0. 0. 0. 0. 0. 0. 0. 0. 0. 0. 0. 0. 0.
      0. 0. 0. 0. 0. 0. 0. 0. 0. 0. 0. 0. 0. 0. 0. 0. 0. 0. 0. 0. 0. 0.
      0. 0. 0. 0. 0. 0. 0. 0. 0. 0. 0. 0. 0. 0. 0. 0. 0. 0. 0. 0. 0. 0.
      0. 0. 0. 0. 1.85695335e-01 0. 0. 0. 0. 0. 0. 0. 1.85695335e-01 0.
      0. 0. 0. 0. 0. 0. 0. 0. 0. 0. 0. 0. 0. 0. 0. 0. 0. 0. 0. 0.
      1.85695335e-01 0. 0. 0. 0. 0. 0. 0. 0. 0. 0. 0. 0. 0. 0. 0.
      1.85695335e-01 0. 0. 0. 0. 0. 0. 0. 0. 0. 0. 0. 0. 0. 0.</_>
    <_>
      5.00603199e-01 5.53707838e-01 6.65435195e-01 0. 0. 0. 0. 0. 0. 0.
      0. 0. 0. 0. 0. 0. 0. 0. 0. 0. 0. 0. 0. 0. 0. 0. 0. 0. 0. 0. 0. 0.
      0. 0. 0. 0. 0. 0. 0. 0. 0. 0. 0. 0. 0. 0. 7.95165598e-02
      9.96295691e-01 0. 0. 0. 0. 0. 0. 0. 0. 0. 0. 0. 0. 0. 0. 0. 0. 0.
      0. 0. 0. 0. 0. 0. 0. 0. 0. 0. 0. 0. 0. 0. 0. 0. 0. 0. 0. 0. 0. 0.
      0. 0. 3.27421129e-02 0. 0. 0. 0. 0. 0. 0. 0. 0. 0. 0. 0. 0. 0. 0.
      0. 0. 0. 0. 0. 0. 0. 0. 0. 0. 0. 0. 0. 0. 0. 0. 0. 0. 0. 0. 0. 0.
      0. 0. 0. 0. 0. 0. 0. 0. 0. 0. 0. 0. 0. 0. 0. 0. 0. 0. 0. 0. 0. 0.
      0. 0. 0. 0. 0. 0. 0. 0. 0. 0. 0. 0. 0. 0. 0. 0. 0. 0. 0. 0. 0. 0.
      0. 0. 0. 0. 0. 0. 0. 0. 0. 0. 0. 0. 0. 0. 0. 0. 0. 0. 0. 0. 0. 0.
      0. 0. 0. 0. 0. 0. 0. 0. 0. 0. 0. 0. 0. 0. 0. 0. 0. 0. 0. 0. 0. 0.
      0. 0. 0. 0. 1.94669887e-01 0. 2.78099831e-02 5.56199662e-02 0.
      5.56199662e-02 2.78099831e-02 2.78099831e-02 0. 0. 0. 0.
      5.56199662e-02 0. 1.11239932e-01 0. 2.78099831e-02 0.
      2.78099831e-02 2.78099831e-02 0. 0. 0. 0. 1.39049917e-01 0.
      2.78099831e-02 2.78099831e-02 8.34299475e-02 0. 1.94669887e-01
      1.94669887e-01 5.56199662e-02 0. 2.78099831e-02 2.78099831e-02 0.
      0. 0. 0. 0. 0. 0. 0. 2.78099831e-02 0. 2.78099831e-02 0.
      5.56199662e-02 0. 0. 5.56199662e-02 2.78099831e-02 0. 0. 0.
      1.11239932e-01 0. 2.78099831e-02 0. 2.50289857e-01 2.78099831e-02
      1.11239932e-01 5.56199662e-02 2.78099831e-02 0. 2.78099831e-02 0.
      0. 0. 2.78099831e-02 0. 0. 0. 0. 0. 0. 0. 0. 0. 5.56199662e-02 0.
      0. 0. 0. 0. 2.78099831e-02 0. 2.78099831e-02 0. 0. 0. 0. 0.
      2.78099831e-02 0. 2.78099831e-02 0. 0. 0. 2.78099831e-02 0.
      5.56199662e-02 0. 0. 0. 0. 0. 5.56199662e-02 0. 0. 0. 0. 0. 0.
      2.78099831e-02 0. 0. 2.78099831e-02 0. 2.78099831e-02
      2.78099831e-02 0. 0. 8.34299475e-02 2.78099831e-02 0.
      1.11239932e-01 2.78099831e-02 5.56199662e-02 0. 8.34299475e-02 0.
      0. 0. 2.78099831e-02 0. 0. 0. 2.78099831e-02 0. 0. 2.78099831e-02
      0. 0. 0. 2.78099831e-02 0. 0. 0. 0. 0. 2.78099831e-02 0. 0.
      2.78099831e-02 0. 0. 0. 5.56199662e-02 2.78099831e-02
      5.56199662e-02 0. 0. 0. 0. 2.78099831e-02 2.78099831e-02 0. 0. 0.
      0. 0. 0. 0. 0. 0. 2.78099831e-02 0. 0. 0. 0. 0. 2.78099831e-02
      5.56199662e-02 2.78099831e-02 0. 2.78099831e-02 2.78099831e-02
      5.56199662e-02 0. 5.56199662e-02 0. 5.56199662e-02 2.78099831e-02
      0. 0. 0. 0. 5.56199662e-02 0. 0. 0. 0. 0. 0. 2.78099831e-02
      1.11239932e-01 0. 0. 0. 2.78099831e-02 0. 0. 0. 0. 2.78099831e-02
      0. 2.78099831e-02 0. 0. 0. 2.78099831e-02 2.22479865e-01
      8.34299475e-02 0. 0. 0. 8.34299475e-02 0. 0. 8.34299475e-02
      2.78099831e-02 0. 0. 0. 8.34299475e-02 2.78099831e-02 0.
      1.66859895e-01 8.34299475e-02 1.39049917e-01 2.78099831e-02
      5.56199662e-02 2.78099831e-02 0. 0. 5.56199662e-02 1.39049917e-01
      5.56199662e-02 0. 5.56199662e-02 1.11239932e-01 1.66859895e-01
      1.11239932e-01 6.39629602e-01</_>
    <_>
      4.78208423e-01 5.53918123e-01 6.81536078e-01 4.95405905e-02
      8.05034637e-01 0. 0. 0. 0. 0. 5.44946492e-01 0. 0. 0. 0. 0. 0. 0.
      0. 0. 0. 0. 0. 0. 0. 0. 0. 0. 0. 0. 0. 0. 0. 0. 0. 0. 0. 0. 0. 0.
      0. 0. 0. 0. 0. 0. 2.29125232e-01 0. 0. 0. 0. 0. 0. 0. 0. 0. 0. 0.
      0. 0. 0. 0. 0. 0. 0. 0. 0. 0. 0. 0. 0. 0. 0. 0. 0. 0. 0. 0. 0. 0.
      0. 0. 0. 0. 0. 0. 0. 0. 0. 0. 0. 0. 0. 0. 0. 0. 0. 0. 0. 0. 0. 0.
      0. 0. 0. 0. 0. 0. 0. 0. 0. 0. 0. 0. 0. 0. 0. 0. 0. 0. 0. 0. 0. 0.
      0. 0. 0. 0. 0. 0. 0. 0. 0. 0. 0. 0. 0. 0. 0. 0. 0. 0. 0. 0. 0. 0.
      0. 0. 0. 0. 0. 0. 0. 0. 0. 0. 0. 0. 0. 0. 0. 0. 0. 0. 0. 0. 0. 0.
      0. 0. 0. 0. 0. 0. 0. 0. 0. 0. 0. 0. 0. 0. 0. 0. 0. 0. 0. 0. 0. 0.
      0. 0. 0. 0. 0. 0. 0. 0. 0. 0. 0. 0. 0. 0. 0. 0. 0. 0. 0. 0. 0. 0.
      0. 0. 0. 0. 0. 0. 0. 4.42192852e-01 2.60113440e-02 1.30056724e-01
      0. 0. 0. 2.60113440e-02 2.60113440e-02 7.80340284e-02 0.
      7.80340284e-02 0. 5.20226881e-02 0. 1.04045376e-01 1.04045376e-01
      0. 0. 5.20226881e-02 0. 0. 0. 0. 0. 1.04045376e-01 2.60113440e-02
      2.60113440e-02 5.20226881e-02 5.20226881e-02 2.60113440e-02
      1.82079405e-01 1.56068057e-01 7.80340284e-02 2.60113440e-02 0. 0.
      2.60113440e-02 0. 0. 0. 0. 0. 0. 0. 0. 0. 2.60113440e-02 0.
      5.20226881e-02 5.20226881e-02 2.60113440e-02 5.20226881e-02 0. 0.
      0. 0. 1.04045376e-01 0. 0. 0. 1.04045376e-01 0. 1.04045376e-01
      7.80340284e-02 2.60113440e-02 0. 0. 0. 2.60113440e-02 0. 0. 0. 0.
      0. 0. 0. 0. 0. 5.20226881e-02 2.60113440e-02 0. 0. 0. 0. 0. 0. 0.
      0. 0. 0. 0. 0. 0. 0. 7.80340284e-02 0. 5.20226881e-02 0. 0. 0. 0.
      0. 0. 0. 2.60113440e-02 0. 0. 2.60113440e-02 0. 0. 5.20226881e-02
      0. 2.60113440e-02 0. 0. 0. 0. 0. 0. 0. 1.30056724e-01
      2.60113440e-02 0. 0. 1.04045376e-01 2.60113440e-02 1.04045376e-01
      5.20226881e-02 5.20226881e-02 2.60113440e-02 0. 5.20226881e-02 0.
      0. 0. 0. 0. 0. 0. 0. 0. 0. 2.60113440e-02 1.04045376e-01
      5.20226881e-02 0. 0. 0. 0. 0. 0. 0. 0. 0. 0. 2.60113440e-02
      2.60113440e-02 0. 0. 7.80340284e-02 0. 2.60113440e-02 0. 0. 0. 0.
      0. 2.60113440e-02 0. 0. 0. 0. 0. 0. 0. 0. 0. 7.80340284e-02 0. 0.
      0. 0. 0. 0. 0. 2.60113440e-02 0. 2.60113440e-02 0. 2.60113440e-02
      0. 5.20226881e-02 2.60113440e-02 7.80340284e-02 2.60113440e-02
      7.80340284e-02 0. 0. 0. 0. 0. 0. 0. 0. 0. 0. 0. 5.20226881e-02
      2.60113440e-02 0. 0. 2.60113440e-02 2.60113440e-02 0. 0.
      2.60113440e-02 0. 0. 0. 5.20226881e-02 7.80340284e-02 0.
      5.20226881e-02 1.04045376e-01 2.60113440e-02 1.56068057e-01
      2.60113440e-02 1.04045376e-01 0. 2.60113440e-02 2.60113440e-02
      7.80340284e-02 0. 2.60113440e-02 0. 0. 5.20226881e-02
      2.60113440e-02 2.60113440e-02 5.20226881e-02 0. 5.20226881e-02 0.
      5.20226881e-02 0. 0. 0. 7.80340284e-02 2.60113440e-02
      5.20226881e-02 0. 0. 7.80340284e-02 1.04045376e-01 0.
      6.24272227e-01</_>
    <_>
      4.57689017e-01 5.50294399e-01 6.98352993e-01 0. 0. 0. 0. 0. 0. 0.
      0. 1.30177885e-02 0. 0. 0. 0. 0. 0. 0. 0. 0. 0. 0. 0. 0. 0. 0. 0.
      0. 0. 0. 0. 0. 0. 0. 0. 0. 0. 0. 0. 0. 0. 0. 0. 0. 0.
      3.90533656e-02 1.17160097e-01 1.30177885e-02 0. 0. 0. 0.
      1.17160097e-01 3.51480275e-01 1.95266828e-01 0. 0. 0. 0. 0. 0. 0.
      0. 0. 0. 0. 0. 0. 0. 0. 0. 0. 0. 0. 0. 0. 0. 0. 0. 0. 0. 0. 0. 0.
      0. 0. 0. 0. 5.20711482e-01 1.82249025e-01 2.08284616e-01 0. 0. 0.
      0. 1.04142308e-01 5.07693708e-01 1.30177885e-02 0. 0. 0. 0. 0. 0.
      0. 0. 0. 0. 0. 0. 0. 0. 0. 0. 0. 0. 0. 0. 0. 0. 0. 0. 0. 0. 0. 0.
      0. 0. 0. 0. 0. 5.20711541e-02 3.77515823e-01 3.90533656e-02 0. 0.
      0. 0. 1.69231251e-01 1.30177870e-01 0. 0. 0. 0. 0. 0. 0. 0. 0. 0.
      0. 0. 0. 0. 0. 0. 0. 0. 0. 0. 0. 0. 0. 0. 0. 0. 0. 0. 0. 0. 0. 0.
      0. 0. 1.30177885e-02 0. 0. 0. 0. 0. 0. 0. 0. 0. 0. 0. 0. 0. 0. 0.
      0. 0. 0. 0. 0. 0. 0. 0. 0. 0. 0. 0. 0. 0. 0. 0. 0. 0. 0. 0. 0. 0.
      0. 0. 0. 0. 0. 0. 4.55878854e-01 1.26633018e-01 0. 0.
      2.53266022e-02 0. 2.53266022e-02 1.26633018e-01 1.01306409e-01
      1.01306409e-01 5.06532043e-02 2.53266022e-02 0. 2.53266022e-02
      1.26633018e-01 4.81205434e-01 5.06532043e-02 0. 0. 0. 0. 0. 0. 0.
      7.59798065e-02 2.53266022e-02 2.53266022e-02 5.06532043e-02 0. 0.
      0. 7.59798065e-02 5.06532043e-02 2.53266022e-02 0. 0. 0. 0. 0.
      2.53266022e-02 0. 0. 0. 0. 0. 0. 0. 0. 7.59798065e-02
      5.06532043e-02 0. 0. 0. 0. 0. 2.53266022e-02 7.59798065e-02 0. 0.
      0. 0. 0. 0. 2.53266022e-02 0. 0. 0. 0. 0. 0. 0. 0. 2.53266022e-02
      0. 0. 0. 0. 0. 0. 1.26633018e-01 0. 0. 0. 0. 0. 0. 0. 0.
      2.53266022e-02 0. 0. 2.53266022e-02 0. 0. 0. 0. 5.06532043e-02 0.
      0. 2.53266022e-02 0. 0. 2.53266022e-02 0. 0. 0. 0. 0. 0. 0. 0. 0.
      1.26633018e-01 0. 0. 2.53266022e-02 0. 0. 0. 0. 7.59798065e-02 0.
      2.53266022e-02 0. 5.06532043e-02 2.53266022e-02 7.59798065e-02
      7.59798065e-02 5.06532043e-02 5.06532043e-02 0. 5.06532043e-02
      2.53266022e-02 2.53266022e-02 0. 1.01306409e-01 5.06532043e-02 0.
      0. 0. 0. 0. 0. 1.77286208e-01 0. 0. 0. 0. 2.53266022e-02 0. 0. 0.
      0. 0. 0. 0. 0. 0. 0. 2.53266022e-02 2.53266022e-02 0. 0. 0. 0. 0.
      0. 0. 0. 0. 0. 0. 0. 0. 0. 0. 1.26633018e-01 7.59798065e-02 0. 0.
      0. 0. 0. 0. 0. 0. 0. 0. 2.53266022e-02 0. 0. 0. 0. 2.53266022e-02
      0. 7.59798065e-02 2.53266022e-02 0. 2.53266022e-02 0.
      2.53266022e-02 0. 0. 0. 0. 0. 0. 0. 0. 0. 2.53266022e-02 0. 0. 0.
      0. 0. 0. 0. 0. 0. 0. 2.53266022e-02 2.53266022e-02 0.
      1.26633018e-01 5.06532043e-02 0. 0. 5.06532043e-02 0. 0.
      2.53266022e-02 5.06532043e-02 0. 0. 0. 0. 5.06532043e-02
      2.53266022e-02 1.26633018e-01 3.29245836e-01 1.01306409e-01 0.
      2.53266022e-02 7.59798065e-02 7.59798065e-02 2.53266022e-02
      1.01306409e-01 1.51959613e-01 7.59798065e-02 2.53266022e-02
      2.53266022e-02 5.06532043e-02 2.53266022e-02 7.59798065e-02
      2.78592616e-01</_>
    <_>
      4.06854421e-01 6.12743914e-01 6.77506030e-01 7.10043192e-01
      2.07817510e-01 0. 0. 0. 0. 8.65906291e-03 6.23452544e-01 0. 0. 0.
      0. 0. 0. 0. 0. 0. 0. 0. 0. 0. 0. 0. 0. 0. 0. 0. 0. 0. 0. 0. 0. 0.
      0. 0. 0. 0. 0. 0. 0. 0. 0. 0. 2.51112819e-01 2.59771887e-02 0. 0.
      0. 0. 8.65906291e-03 8.65906291e-03 0. 0. 0. 0. 0. 0. 0. 0. 0. 0.
      0. 0. 0. 0. 0. 0. 0. 0. 0. 0. 0. 0. 0. 0. 0. 0. 0. 0. 0. 0. 0. 0.
      0. 0. 0. 0. 0. 0. 0. 0. 0. 0. 0. 0. 0. 0. 0. 0. 0. 0. 0. 0. 0. 0.
      0. 0. 0. 0. 0. 0. 0. 0. 0. 0. 0. 0. 0. 0. 0. 0. 0. 0. 0. 0. 0. 0.
      0. 0. 0. 0. 0. 0. 0. 0. 0. 0. 0. 0. 0. 0. 0. 0. 0. 0. 0. 0. 0. 0.
      0. 0. 0. 0. 0. 0. 0. 0. 0. 0. 0. 0. 0. 0. 0. 0. 0. 0. 0. 0. 0. 0.
      0. 0. 0. 0. 0. 0. 0. 0. 0. 0. 0. 0. 0. 0. 0. 0. 0. 0. 0. 0. 0. 0.
      0. 0. 0. 0. 0. 0. 0. 0. 0. 0. 0. 0. 0. 0. 0. 0. 0. 0. 0. 0. 0. 0.
      0. 2.37670362e-01 2.97087952e-02 1.18835181e-01 2.97087952e-02
      5.94175905e-02 0. 0. 2.97087952e-02 5.94175905e-02 2.97087952e-02
      0. 0. 8.91263857e-02 0. 0. 0. 0. 0. 0. 0. 0. 0. 0. 0.
      8.91263857e-02 0. 2.97087952e-02 2.97087952e-02 2.97087952e-02 0.
      8.91263857e-02 0. 1.18835181e-01 0. 0. 0. 2.97087952e-02 0. 0. 0.
      0. 0. 0. 0. 0. 0. 0. 2.97087952e-02 0. 2.97087952e-02 0. 0. 0. 0.
      0. 0. 1.18835181e-01 0. 0. 0. 2.97087952e-02 0. 0. 0. 0.
      8.91263857e-02 0. 0. 0. 0. 2.97087952e-02 0. 0. 0. 0. 0. 0. 0.
      5.94175905e-02 0. 0. 0. 2.97087952e-02 0. 0. 0. 0. 0. 0. 0. 0. 0.
      0. 0. 0. 5.94175905e-02 1.18835181e-01 0. 2.97087952e-02 0. 0. 0.
      0. 0. 0. 0. 0. 0. 0. 0. 0. 2.97087952e-02 5.94175905e-02 0. 0. 0.
      2.97087952e-02 0. 0. 0. 2.07961559e-01 5.94175905e-02 0.
      5.94175905e-02 8.91263857e-02 5.94175905e-02 5.94175905e-02
      5.94175905e-02 8.91263857e-02 5.94175905e-02 5.94175905e-02
      2.97087952e-02 0. 2.97087952e-02 0. 2.97087952e-02 0. 0. 0. 0.
      2.97087952e-02 0. 0. 5.94175905e-02 0. 0. 0. 2.97087952e-02 0. 0.
      0. 2.97087952e-02 0. 0. 0. 0. 0. 0. 0. 8.91263857e-02 0.
      2.97087952e-02 0. 0. 0. 0. 0. 0. 0. 0. 0. 0. 0. 0. 0.
      5.94175905e-02 2.97087952e-02 0. 0. 0. 0. 0. 0. 0. 0. 0. 0.
      8.91263857e-02 0. 2.97087952e-02 0. 0. 1.18835181e-01 0.
      2.97087952e-02 8.91263857e-02 2.97087952e-02 0. 5.94175905e-02
      1.48543984e-01 0. 0. 0. 0. 5.94175905e-02 0. 2.97087952e-02
      2.97087952e-02 0. 2.97087952e-02 0. 2.97087952e-02 0. 0.
      2.97087952e-02 2.97087952e-02 0. 2.97087952e-02 0. 0. 0.
      2.97087952e-02 0. 5.94175905e-02 1.18835181e-01 4.15923119e-01 0.
      8.91263857e-02 2.97087952e-02 5.94175905e-02 0. 5.94175905e-02
      5.94175905e-02 0. 0. 2.97087952e-02 0. 0. 0. 5.94175905e-02
      8.91263857e-02 1.48543984e-01 0. 0. 0. 0. 2.97087952e-02
      1.48543984e-01 2.97087952e-02 8.91263857e-02 0. 1.18835181e-01
      2.97087952e-02 2.97087952e-02 5.94175905e-02 5.94175935e-01</_>
    <_>
      4.55113828e-01 5.48194170e-01 7.01679766e-01 2.35612281e-02
      2.70954132e-01 0. 0. 0. 0. 0. 8.77655745e-01 0. 0. 0. 0. 0. 0. 0.
      0. 0. 0. 0. 0. 0. 0. 0. 0. 0. 0. 0. 0. 0. 0. 0. 0. 0. 0. 0. 0. 0.
      0. 0. 0. 0. 0. 0. 3.94650578e-01 0. 0. 0. 0. 0. 0. 0. 0. 0. 0. 0.
      0. 0. 0. 0. 0. 0. 0. 0. 0. 0. 0. 0. 0. 0. 0. 0. 0. 0. 0. 0. 0. 0.
      0. 0. 0. 0. 0. 0. 0. 0. 0. 0. 0. 0. 0. 0. 0. 0. 0. 0. 0. 0. 0. 0.
      0. 0. 0. 0. 0. 0. 0. 0. 0. 0. 0. 0. 0. 0. 0. 0. 0. 0. 0. 0. 0. 0.
      0. 0. 0. 0. 0. 0. 0. 0. 0. 0. 0. 0. 0. 0. 0. 0. 0. 0. 0. 0. 0. 0.
      0. 0. 0. 0. 0. 0. 0. 0. 0. 0. 0. 0. 0. 0. 0. 0. 0. 0. 0. 0. 0. 0.
      0. 0. 0. 0. 0. 0. 0. 0. 0. 0. 0. 0. 0. 0. 0. 0. 0. 0. 0. 0. 0. 0.
      0. 0. 0. 0. 0. 0. 0. 0. 0. 0. 0. 0. 0. 0. 0. 0. 0. 0. 0. 0. 0. 0.
      0. 0. 0. 0. 0. 0. 0. 2.86221623e-01 2.60201469e-02 1.30100727e-01
      5.20402938e-02 5.20402938e-02 0. 1.30100727e-01 5.20402938e-02
      7.80604407e-02 0. 5.20402938e-02 0. 7.80604407e-02 0.
      2.60201469e-02 0. 2.60201469e-02 0. 0. 0. 0. 0. 0. 0.
      5.20402938e-02 0. 0. 0. 7.80604407e-02 5.20402938e-02
      5.20402938e-02 1.30100727e-01 2.60201469e-02 0. 2.60201469e-02
      2.60201469e-02 5.20402938e-02 0. 5.20402938e-02 0. 5.20402938e-02
      0. 0. 0. 0. 0. 5.20402938e-02 0. 5.20402938e-02 2.60201469e-02 0.
      2.60201469e-02 0. 0. 0. 0. 1.04080588e-01 0. 0. 0. 1.04080588e-01
      0. 1.30100727e-01 1.56120881e-01 2.60201469e-02 2.60201469e-02 0.
      0. 0. 0. 0. 0. 0. 0. 0. 0. 0. 0. 0. 2.60201469e-02 0. 0. 0. 0. 0.
      0. 0. 0. 0. 0. 0. 0. 2.60201469e-02 0. 2.60201469e-02
      2.60201469e-02 0. 0. 0. 0. 0. 0. 2.60201469e-02 2.60201469e-02 0.
      0. 0. 0. 0. 0. 0. 2.60201469e-02 5.20402938e-02 0. 0. 0. 0. 0. 0.
      2.60201469e-02 7.80604407e-02 5.20402938e-02 0. 2.60201469e-02
      1.04080588e-01 0. 1.30100727e-01 7.80604407e-02 1.30100727e-01
      2.60201469e-02 0. 1.56120881e-01 0. 2.60201469e-02 2.60201469e-02
      1.56120881e-01 2.60201469e-02 0. 0. 0. 0. 0. 5.20402938e-02
      2.60201469e-02 0. 0. 0. 0. 0. 0. 0. 7.80604407e-02 2.60201469e-02
      2.60201469e-02 0. 2.60201469e-02 0. 2.60201469e-02 2.60201469e-02
      5.20402938e-02 0. 0. 0. 0. 2.60201469e-02 0. 0. 2.60201469e-02 0.
      0. 0. 0. 0. 0. 0. 0. 0. 0. 0. 2.60201469e-02 0. 0. 0.
      2.60201469e-02 0. 0. 0. 0. 5.20402938e-02 2.60201469e-02 0.
      1.04080588e-01 5.20402938e-02 5.20402938e-02 0. 2.08161175e-01 0.
      0. 5.20402938e-02 2.60201454e-01 0. 0. 0. 0. 5.20402938e-02 0. 0.
      2.60201469e-02 0. 2.60201469e-02 0. 0. 0. 0. 0. 2.60201469e-02 0.
      0. 0. 0. 0. 0. 0. 1.56120881e-01 0. 0. 0. 5.20402938e-02 0.
      2.60201469e-02 0. 5.20402938e-02 0. 0. 0. 0. 0. 0. 0.
      2.60201469e-02 1.04080588e-01 0. 0. 2.60201469e-02 0. 0.
      2.60201469e-02 7.80604407e-02 2.60201469e-02 0. 0. 0.
      1.04080588e-01 1.30100727e-01 5.20402938e-02 6.24483526e-01</_>
    <_>
      4.91105825e-01 5.63324869e-01 6.64439738e-01 0. 0. 0. 0. 0. 0. 0.
      0. 0. 0. 0. 0. 0. 0. 0. 0. 0. 0. 0. 0. 0. 0. 0. 0. 0. 0. 0. 0. 0.
      0. 0. 0. 0. 0. 0. 0. 0. 0. 0. 0. 0. 0. 0. 7.63005674e-01
      3.66242737e-01 0. 0. 0. 0. 0. 1.52601138e-01 3.05202268e-02 0. 0.
      0. 0. 0. 0. 0. 0. 0. 0. 0. 0. 0. 0. 0. 0. 0. 0. 0. 0. 0. 0. 0. 0.
      0. 0. 0. 0. 1.01734092e-02 0. 0. 0. 0. 0. 2.95028865e-01
      6.10404536e-02 0. 0. 0. 0. 0. 6.10404536e-02 1.52601138e-01
      1.01734092e-02 0. 0. 0. 0. 0. 0. 0. 0. 0. 0. 0. 0. 0. 0. 0. 0. 0.
      0. 0. 0. 0. 0. 0. 0. 0. 0. 0. 0. 0. 0. 0. 0. 0. 0. 8.13872740e-02
      0. 0. 0. 0. 0. 1.11907497e-01 3.45895886e-01 0. 0. 0. 0. 0. 0. 0.
      0. 0. 0. 0. 0. 0. 0. 0. 0. 0. 0. 0. 0. 0. 0. 0. 0. 0. 0. 0. 0. 0.
      0. 0. 0. 0. 0. 0. 5.08670434e-02 0. 0. 0. 0. 0. 1.01734092e-02 0.
      0. 0. 0. 0. 0. 0. 0. 0. 0. 0. 0. 0. 0. 0. 0. 0. 0. 0. 0. 0. 0. 0.
      0. 0. 0. 0. 0. 0. 0. 0. 0. 0. 0. 0. 0. 2.10271195e-01
      9.34538618e-02 0. 0. 0. 0. 4.67269309e-02 9.34538618e-02
      7.00903982e-02 2.33634654e-02 0. 9.34538618e-02 0. 0.
      1.16817325e-01 6.54177010e-01 0. 0. 0. 0. 0. 0. 0. 0.
      2.33634654e-02 0. 0. 0. 4.67269309e-02 0. 2.33634654e-02
      7.00903982e-02 2.33634654e-02 0. 0. 0. 0. 0. 0. 0. 0. 0. 0. 0. 0.
      0. 0. 0. 4.67269309e-02 0. 0. 0. 0. 0. 0. 0. 4.67269309e-02
      2.33634654e-02 0. 2.33634654e-02 0. 0. 0. 2.33634654e-02
      7.00903982e-02 2.33634654e-02 0. 0. 0. 0. 2.33634654e-02 0.
      4.67269309e-02 0. 0. 0. 0. 0. 2.33634654e-02 2.33634654e-02 0. 0.
      0. 0. 0. 0. 0. 0. 0. 2.33634654e-02 0. 0. 0. 0. 2.33634654e-02 0.
      4.67269309e-02 0. 0. 0. 0. 0. 0. 0. 4.67269309e-02 0. 0. 0.
      2.33634654e-02 0. 2.33634654e-02 0. 7.00903982e-02 0. 0. 0.
      2.33634654e-02 0. 0. 0. 1.40180796e-01 2.33634654e-02 0. 0.
      2.33634654e-02 2.33634654e-02 4.67269309e-02 1.86907724e-01
      1.16817325e-01 4.67269309e-02 0. 2.33634654e-02 0. 0. 0.
      2.56998122e-01 0. 0. 0. 0. 0. 2.33634654e-02 0. 1.63544253e-01
      4.67269309e-02 0. 0. 2.33634654e-02 2.33634654e-02 0. 0. 0. 0. 0.
      0. 0. 0. 2.33634654e-02 2.33634654e-02 0. 2.33634654e-02 0. 0. 0.
      0. 0. 0. 0. 0. 0. 0. 0. 0. 0. 0. 0. 4.67269309e-02 4.67269309e-02
      0. 0. 0. 0. 0. 0. 0. 0. 0. 0. 0. 0. 2.33634654e-02 2.33634654e-02
      9.34538618e-02 7.00903982e-02 0. 1.16817325e-01 2.33634654e-02 0.
      0. 4.67269309e-02 0. 0. 0. 4.67269309e-02 0. 0. 4.67269309e-02
      2.33634654e-02 0. 0. 0. 4.67269309e-02 0. 0. 0. 2.33634654e-02 0.
      0. 0. 2.33634654e-02 0. 0. 0. 2.33634654e-02 1.40180796e-01
      7.00903982e-02 0. 4.67269309e-02 0. 0. 2.33634654e-02
      2.33634654e-02 4.67269309e-02 0. 0. 0. 0. 0. 0. 0. 1.86907724e-01
      2.33634654e-02 2.33634654e-02 1.63544253e-01 2.33634654e-02 0.
      2.33634654e-02 1.40180796e-01 9.34538618e-02 2.33634654e-02 0.
      7.00903982e-02 7.00903982e-02 0. 4.67269309e-02 3.03725064e-01</_>
    <_>
      4.92248565e-01 5.53235292e-01 6.72028363e-01 0. 0. 0. 0. 0. 0. 0.
      0. 0. 0. 0. 0. 0. 0. 0. 0. 0. 0. 0. 0. 0. 0. 0. 0. 0. 0. 0. 0. 0.
      0. 0. 0. 0. 0. 0. 0. 0. 0. 0. 0. 0. 0. 0. 0. 0. 0. 0. 0. 0. 0. 0.
      0. 0. 0. 0. 0. 0. 0. 0. 0. 0. 0. 0. 0. 0. 0. 0. 0. 0. 0. 0. 0. 0.
      0. 0. 0. 0. 0. 0. 0. 0. 0. 0. 0. 0. 0. 0. 0. 0. 0. 0. 0. 0. 0. 0.
      0. 0. 0. 0. 0. 0. 0. 0. 0. 0. 0. 0. 0. 0. 0. 0. 0. 0. 0. 0. 0. 0.
      0. 0. 0. 0. 0. 0. 0. 0. 0. 0. 0. 0. 0. 3.32758687e-02
      3.32758687e-02 0. 0. 0. 0. 6.65517375e-02 5.76781750e-01 0. 0. 0.
      0. 0. 0. 0. 0. 0. 0. 0. 0. 0. 0. 0. 0. 0. 0. 0. 0. 0. 0. 0. 0. 0.
      0. 0. 0. 0. 0. 0. 0. 0. 0. 2.21839137e-02 7.87528872e-01 0. 0. 0.
      0. 0. 1.99655220e-01 0. 0. 0. 0. 0. 0. 0. 0. 0. 0. 0. 0. 0. 0. 0.
      0. 0. 0. 0. 0. 0. 0. 0. 0. 0. 0. 0. 0. 0. 0. 0. 0. 0. 0. 0.
      1.10919569e-02 3.36816519e-01 1.12272173e-01 0. 7.48481154e-02
      3.74240577e-02 0. 3.74240577e-02 2.61968404e-01 2.24544346e-01
      3.74240577e-02 0. 1.12272173e-01 7.48481154e-02 0. 1.12272173e-01
      2.61968404e-01 7.48481154e-02 0. 3.74240577e-02 0. 0. 0. 0. 0.
      3.74240577e-02 0. 0. 0. 0. 0. 0. 7.48481154e-02 0. 0. 0. 0. 0. 0.
      0. 3.74240577e-02 3.74240577e-02 0. 0. 0. 0. 0. 0. 0.
      7.48481154e-02 3.74240577e-02 0. 0. 0. 0. 0. 0. 3.74240577e-02 0.
      0. 0. 0. 0. 0. 7.48481154e-02 0. 0. 0. 0. 0. 0. 0. 0.
      3.74240577e-02 0. 0. 0. 3.74240577e-02 0. 3.74240577e-02
      3.74240577e-02 0. 0. 0. 0. 0. 0. 0. 0. 3.74240577e-02 0. 0. 0. 0.
      0. 0. 7.48481154e-02 0. 0. 0. 0. 0. 0. 0. 0. 0. 0. 0. 0. 0. 0. 0.
      7.48481154e-02 7.48481154e-02 0. 0. 0. 0. 0. 0. 3.74240577e-02
      7.48481154e-02 0. 0. 0. 3.74240577e-02 0. 3.74240577e-02
      2.24544346e-01 4.49088693e-01 3.74240577e-02 0. 0. 3.74240577e-02
      0. 0. 1.12272173e-01 1.12272173e-01 0. 0. 3.74240577e-02 0. 0.
      3.74240577e-02 2.24544346e-01 7.48481154e-02 0. 3.74240577e-02 0.
      0. 0. 0. 0. 3.74240577e-02 0. 0. 0. 0. 0. 0. 3.74240577e-02 0. 0.
      0. 0. 0. 0. 0. 3.74240577e-02 0. 0. 0. 0. 0. 0. 0. 0.
      1.12272173e-01 0. 0. 0. 0. 0. 0. 0. 3.74240577e-02 0. 0. 0. 0.
      3.74240577e-02 0. 3.74240577e-02 0. 0. 0. 0. 0. 0. 0.
      7.48481154e-02 0. 0. 0. 0. 0. 0. 0. 0. 0. 0. 0. 0. 0. 0. 0. 0. 0.
      0. 0. 0. 0. 0. 3.74240577e-02 0. 3.74240577e-02 0. 0. 0.
      3.74240577e-02 0. 0. 0. 0. 0. 0. 0. 3.74240577e-02 0. 0.
      1.12272173e-01 3.74240577e-01 3.74240577e-02 0. 0. 3.74240577e-02
      3.74240577e-02 7.48481154e-02 3.74240577e-02 7.48481154e-02 0. 0.
      0. 3.74240577e-02 3.74240577e-02 3.74240577e-02 1.87120289e-01</_>
    <_>
      4.97331738e-01 5.57880819e-01 6.64402127e-01 0. 0. 0. 0. 0. 0. 0.
      0. 0. 0. 0. 0. 0. 0. 0. 0. 0. 0. 0. 0. 0. 0. 0. 0. 0. 0. 0. 0. 0.
      0. 0. 0. 0. 0. 0. 0. 0. 0. 0. 0. 0. 0. 0. 0. 0. 0. 0. 0. 0. 0. 0.
      0. 0. 0. 0. 0. 0. 0. 0. 0. 0. 0. 0. 0. 0. 0. 0. 0. 0. 0. 0. 0. 0.
      0. 0. 0. 0. 0. 0. 0. 0. 0. 0. 0. 0. 0. 0. 9.42306593e-03
      9.42306593e-03 0. 0. 0. 0. 0. 1.03653729e-01 0. 0. 0. 0. 0. 0. 0.
      0. 0. 0. 0. 0. 0. 0. 0. 0. 0. 0. 0. 0. 0. 0. 0. 0. 0. 0. 0. 0. 0.
      0. 0. 0. 0. 0. 9.42306593e-03 1.69615194e-01 6.59614578e-02 0. 0.
      0. 0. 9.42306593e-03 6.50191545e-01 0. 0. 0. 0. 0. 0. 0. 0. 0. 0.
      0. 0. 0. 0. 0. 0. 0. 0. 0. 0. 0. 0. 0. 0. 0. 0. 0. 0. 0. 0. 0. 0.
      0. 0. 1.60192117e-01 6.03076220e-01 0. 0. 0. 0. 0. 3.10961187e-01
      0. 0. 0. 0. 0. 0. 0. 0. 0. 0. 0. 0. 0. 0. 0. 0. 0. 0. 0. 0. 0. 0.
      0. 0. 0. 0. 0. 0. 0. 0. 0. 0. 0. 0. 0. 2.16730520e-01
      4.34524089e-01 2.41402276e-02 4.82804552e-02 7.24206865e-02 0. 0.
      0. 1.20701134e-01 2.41402268e-01 2.41402276e-02 2.41402276e-02
      2.41402276e-02 2.41402276e-02 0. 2.41402276e-02 2.89682746e-01
      7.24206865e-02 0. 0. 0. 0. 0. 0. 0. 7.24206865e-02 0. 0.
      2.41402276e-02 0. 0. 0. 2.41402276e-02 0. 0. 0. 2.41402276e-02 0.
      0. 0. 0. 0. 0. 0. 0. 0. 0. 0. 0. 4.82804552e-02 0. 0.
      2.41402276e-02 0. 0. 0. 0. 2.41402276e-02 0. 0. 0. 0. 0. 0.
      4.82804552e-02 2.41402276e-02 0. 0. 0. 0. 0. 0. 2.41402276e-02
      4.82804552e-02 0. 0. 0. 0. 0. 0. 2.41402276e-02 0. 0. 0. 0. 0. 0.
      0. 0. 0. 0. 0. 0. 0. 0. 0. 4.82804552e-02 4.82804552e-02 0. 0. 0.
      0. 0. 0. 7.24206865e-02 4.82804552e-02 0. 0. 0. 0. 0. 0.
      2.41402276e-02 1.20701134e-01 0. 0. 0. 0. 0. 2.41402276e-02 0.
      1.93121821e-01 4.82804552e-02 0. 0. 4.82804552e-02 0.
      4.82804552e-02 4.10383880e-01 2.17262045e-01 7.24206865e-02 0.
      4.82804552e-02 0. 0. 2.41402276e-02 7.24206865e-02 1.20701134e-01
      7.24206865e-02 0. 0. 2.41402276e-02 0. 0. 1.93121821e-01
      9.65609103e-02 0. 0. 0. 0. 0. 0. 0. 4.82804552e-02 0. 0. 0. 0. 0.
      0. 0. 0. 0. 0. 0. 0. 0. 0. 0. 0. 0. 0. 0. 0. 0. 0. 0.
      4.82804552e-02 2.41402276e-02 0. 0. 0. 0. 0. 0. 7.24206865e-02 0.
      0. 0. 2.41402276e-02 0. 0. 4.82804552e-02 4.82804552e-02 0. 0.
      2.41402276e-02 2.41402276e-02 0. 0. 9.65609103e-02 2.41402276e-02
      0. 0. 0. 0. 0. 0. 7.24206865e-02 0. 0. 0. 0. 0. 0. 0. 0. 0. 0. 0.
      0. 0. 0. 0. 2.41402276e-02 7.24206865e-02 0. 0. 0. 0. 0. 0.
      1.44841373e-01 0. 0. 0. 0. 0. 0. 0. 7.24206865e-02 2.65542507e-01
      7.24206865e-02 2.41402276e-02 0. 4.82804552e-02 7.24206865e-02
      4.82804552e-02 1.20701134e-01 9.65609103e-02 0. 0. 2.41402276e-02
      4.82804552e-02 0. 7.24206865e-02 2.65542507e-01</_>
    <_>
      4.91747111e-01 5.58874071e-01 6.67715907e-01 0. 0. 0. 0. 0. 0. 0.
      0. 0. 0. 0. 0. 0. 0. 0. 0. 0. 0. 0. 0. 0. 0. 0. 0. 0. 0. 0. 0. 0.
      0. 0. 0. 0. 0. 0. 0. 0. 0. 0. 0. 0. 0. 0. 0. 0. 0. 0. 0. 0. 0. 0.
      3.65666784e-02 0. 0. 0. 0. 0. 0. 0. 0. 0. 0. 0. 0. 0. 0. 0. 0. 0.
      0. 0. 0. 0. 0. 0. 0. 0. 0. 0. 0. 0. 0. 0. 0. 0. 0. 0.
      7.31333569e-02 2.74250079e-02 0. 0. 0. 0. 0. 1.55408368e-01 0. 0.
      0. 0. 0. 0. 0. 0. 0. 0. 0. 0. 0. 0. 0. 0. 0. 0. 0. 0. 0. 0. 0. 0.
      0. 0. 0. 0. 0. 0. 0. 0. 0. 0. 0. 2.10258394e-01 1.55408368e-01 0.
      0. 0. 0. 6.39916807e-02 4.75366801e-01 0. 0. 0. 0. 0. 0. 0. 0. 0.
      0. 0. 0. 0. 0. 0. 0. 0. 0. 0. 0. 0. 0. 0. 0. 0. 0. 0. 0. 0. 0. 0.
      0. 0. 0. 3.65666784e-02 6.49058521e-01 0. 0. 0. 0. 0.
      4.75366801e-01 0. 0. 0. 0. 0. 0. 0. 0. 0. 0. 0. 0. 0. 0. 0. 0. 0.
      0. 0. 0. 0. 0. 0. 0. 0. 0. 0. 0. 0. 0. 0. 0. 0. 0. 0.
      1.46266714e-01 3.62936467e-01 6.40476122e-02 0. 2.13492047e-02
      2.13492047e-02 0. 4.26984094e-02 6.40476122e-02 3.41587275e-01
      4.26984094e-02 0. 2.13492047e-02 1.06746025e-01 0. 4.26984094e-02
      3.62936467e-01 2.13492047e-02 0. 0. 0. 0. 0. 4.26984094e-02
      2.13492047e-02 2.13492047e-02 0. 0. 0. 4.26984094e-02 0. 0.
      6.40476122e-02 4.26984094e-02 0. 0. 0. 0. 0. 0. 0. 0. 0. 0. 0. 0.
      0. 0. 4.26984094e-02 4.26984094e-02 0. 0. 0. 0. 0. 4.26984094e-02
      0. 6.40476122e-02 2.13492047e-02 2.13492047e-02 0. 8.53968188e-02
      2.13492047e-02 2.13492047e-02 6.40476122e-02 0. 0. 0. 0. 0. 0. 0.
      2.13492047e-02 4.26984094e-02 0. 0. 0. 2.13492047e-02 0. 0.
      2.13492047e-02 0. 0. 0. 0. 0. 0. 0. 0. 0. 0. 0. 0. 2.13492047e-02
      0. 0. 0. 0. 0. 0. 0. 2.13492047e-02 0. 0. 2.13492047e-02 0. 0. 0.
      0. 0. 0. 0. 4.26984094e-02 1.06746025e-01 0. 2.13492047e-02 0.
      2.13492047e-02 0. 0. 8.53968188e-02 1.28095224e-01 0. 0. 0.
      8.53968188e-02 0. 4.26984094e-02 2.34841257e-01 3.41587275e-01
      6.40476122e-02 0. 2.13492047e-02 2.13492047e-02 0. 2.13492047e-02
      2.77539670e-01 8.53968188e-02 0. 0. 2.13492047e-02 2.13492047e-02
      0. 2.13492047e-02 6.40476122e-02 4.26984094e-02 0. 0. 0. 0. 0. 0.
      0. 6.40476122e-02 0. 0. 2.13492047e-02 0. 0. 0. 4.26984094e-02 0.
      0. 0. 0. 0. 0. 0. 0. 0. 0. 0. 0. 0. 0. 0. 0. 6.40476122e-02 0. 0.
      2.13492047e-02 0. 0. 2.13492047e-02 2.13492047e-02 0. 0. 0. 0. 0.
      0. 0. 6.40476122e-02 2.13492047e-02 0. 0. 0. 0. 0. 0.
      4.26984094e-02 6.40476122e-02 0. 0. 0. 0. 0. 0. 2.13492047e-02 0.
      0. 0. 0. 0. 0. 0. 2.13492047e-02 0. 0. 0. 0. 0. 0. 0. 0.
      4.26984094e-02 2.13492047e-02 0. 0. 0. 2.13492047e-02
      2.13492047e-02 8.53968188e-02 0. 0. 0. 2.13492047e-02 0. 0.
      2.13492047e-02 0. 3.41587275e-01 4.26984094e-02 0. 4.26984094e-02
      2.13492047e-02 0. 0. 6.40476122e-02 8.53968188e-02 2.13492047e-02
      2.13492047e-02 0. 6.40476122e-02 0. 4.26984094e-02 2.56190449e-01</_>
    <_>
      4.78831232e-01 5.71657240e-01 6.66279674e-01 2.52600849e-01
      3.50381821e-01 0. 0. 0. 0. 0. 5.54092169e-01 0. 0. 0. 0. 0. 0. 0.
      0. 0. 0. 0. 0. 0. 0. 0. 0. 0. 0. 0. 0. 0. 0. 0. 0. 0. 0. 0. 0. 0.
      0. 0. 0. 0. 0. 0. 6.43724740e-01 2.52600849e-01 0. 0. 0. 0. 0.
      1.62968278e-01 0. 0. 0. 0. 0. 0. 0. 0. 0. 0. 0. 0. 0. 0. 0. 0. 0.
      0. 0. 0. 0. 0. 0. 0. 0. 0. 0. 0. 0. 0. 0. 0. 0. 0. 0.
      4.07420695e-02 0. 0. 0. 0. 0. 0. 0. 0. 0. 0. 0. 0. 0. 0. 0. 0. 0.
      0. 0. 0. 0. 0. 0. 0. 0. 0. 0. 0. 0. 0. 0. 0. 0. 0. 0. 0. 0. 0. 0.
      0. 0. 0. 0. 0. 0. 0. 0. 0. 0. 0. 0. 0. 0. 0. 0. 0. 0. 0. 0. 0. 0.
      0. 0. 0. 0. 0. 0. 0. 0. 0. 0. 0. 0. 0. 0. 0. 0. 0. 0. 0. 0. 0. 0.
      0. 0. 0. 0. 0. 0. 0. 0. 0. 0. 0. 0. 0. 0. 0. 0. 0. 0. 0. 0. 0. 0.
      0. 0. 0. 0. 0. 0. 0. 0. 0. 0. 0. 0. 0. 0. 0. 0. 0. 0. 0. 0. 0. 0.
      0. 0. 3.32298875e-01 9.49425325e-02 2.37356331e-02 7.12068975e-02
      4.74712662e-02 0. 4.74712662e-02 4.74712662e-02 4.74712662e-02 0.
      4.74712662e-02 2.37356331e-02 2.37356331e-02 2.37356331e-02
      9.49425325e-02 1.18678167e-01 1.18678167e-01 2.37356331e-02 0.
      7.12068975e-02 2.37356331e-02 0. 2.37356331e-02 0. 2.37356331e-02
      0. 0. 0. 4.74712662e-02 0. 7.12068975e-02 7.12068975e-02 0.
      2.37356331e-02 0. 0. 0. 0. 0. 0. 0. 0. 0. 0. 0. 0. 0.
      2.37356331e-02 4.74712662e-02 0. 0. 2.37356331e-02 0. 0. 0.
      4.74712662e-02 0. 2.37356331e-02 0. 0. 0. 2.37356331e-02
      4.74712662e-02 2.37356331e-02 0. 0. 0. 0. 2.37356331e-02 0. 0. 0.
      2.37356331e-02 0. 2.37356331e-02 0. 0. 0. 2.37356331e-02 0. 0. 0.
      0. 0. 0. 0. 2.37356331e-02 0. 0. 0. 0. 0. 4.74712662e-02 0.
      2.37356331e-02 2.37356331e-02 4.74712662e-02 0. 2.37356331e-02 0.
      0. 0. 4.74712662e-02 0. 2.37356331e-02 0. 0. 0. 0. 0.
      2.37356331e-02 2.37356331e-02 4.74712662e-02 0. 0. 2.37356331e-02
      2.37356331e-02 0. 0. 2.37356331e-02 4.74712662e-02 0. 0. 0.
      2.37356331e-02 0. 4.74712662e-02 2.13620692e-01 9.49425325e-02
      7.12068975e-02 0. 2.37356331e-02 0. 2.37356331e-02 2.37356331e-02
      4.74712662e-02 7.12068975e-02 0. 0. 0. 4.74712662e-02
      2.37356331e-02 2.37356331e-02 7.12068975e-02 0. 0. 0. 0. 0. 0. 0.
      2.37356331e-02 2.37356331e-02 2.37356331e-02 0. 0. 0. 0.
      2.37356331e-02 9.49425325e-02 2.37356331e-02 9.49425325e-02 0. 0.
      0. 0. 0. 0. 0. 0. 0. 0. 0. 0. 0. 0. 4.74712662e-02 0. 0.
      4.74712662e-02 0. 0. 0. 0. 0. 0. 0. 2.37356331e-02 2.37356331e-02
      0. 0. 7.12068975e-02 2.37356331e-02 7.12068975e-02 0.
      4.74712662e-02 2.37356331e-02 0. 0. 4.74712662e-02 0.
      2.37356331e-02 0. 0. 0. 0. 2.37356331e-02 4.74712662e-02 0. 0. 0.
      0. 0. 2.37356331e-02 0. 0. 0. 2.37356331e-02 0. 0. 2.37356331e-02
      2.37356331e-02 2.37356331e-02 2.37356331e-02 2.37356335e-01
      4.03505772e-01 0. 7.12068975e-02 0. 2.37356331e-02 0.
      4.74712662e-02 2.37356331e-02 2.37356331e-02 0. 2.37356331e-02 0.
      2.37356331e-02 0. 1.18678167e-01 1.89885065e-01 1.42413795e-01 0.
      1.18678167e-01 0. 0. 0. 9.49425325e-02 2.37356331e-02
      7.12068975e-02 0. 2.37356331e-02 2.37356331e-02 1.18678167e-01
      7.12068975e-02 5.45919538e-01</_>
    <_>
      4.74424660e-01 5.98191261e-01 6.45823896e-01 1.47774205e-01
      4.56756622e-01 0. 0. 0. 0. 0. 3.76152515e-01 2.68680360e-02 0. 0.
      0. 0. 0. 1.34340180e-02 0. 0. 0. 0. 0. 0. 0. 0. 0. 0. 0. 0. 0. 0.
      0. 0. 0. 0. 0. 0. 0. 0. 0. 0. 0. 0. 0. 0. 2.68680364e-01
      8.06041136e-02 0. 0. 0. 0. 0. 4.43322599e-01 0. 0. 0. 0. 0. 0.
      1.34340180e-02 0. 0. 0. 0. 0. 0. 0. 0. 0. 0. 0. 0. 0. 0. 0. 0. 0.
      0. 0. 0. 0. 0. 0. 0. 0. 0. 0. 0. 4.29888576e-01 9.40381289e-02 0.
      0. 0. 0. 2.68680360e-02 2.82114387e-01 4.03020568e-02 0. 0. 0. 0.
      0. 4.03020568e-02 0. 0. 0. 0. 0. 0. 0. 0. 0. 0. 0. 0. 0. 0. 0. 0.
      0. 0. 0. 0. 0. 0. 0. 0. 0. 0. 0. 0. 2.68680364e-01 4.03020568e-02
      0. 0. 0. 0. 0. 1.34340180e-02 0. 0. 0. 0. 0. 0. 0. 0. 0. 0. 0. 0.
      0. 0. 0. 0. 0. 0. 0. 0. 0. 0. 0. 0. 0. 0. 0. 0. 0. 0. 0. 0. 0. 0.
      0. 1.34340180e-02 1.34340180e-02 0. 0. 0. 0. 0. 1.34340180e-02 0.
      0. 0. 0. 0. 0. 0. 0. 0. 0. 0. 0. 0. 0. 0. 0. 0. 0. 0. 0. 0. 0. 0.
      0. 0. 0. 0. 0. 0. 0. 0. 0. 0. 0. 0. 0. 2.27502063e-01 0.
      1.51668042e-01 1.01112030e-01 7.58340210e-02 2.52780076e-02
      2.52780076e-02 5.05560152e-02 2.52780076e-02 0. 0. 0.
      2.52780076e-02 0. 1.76946059e-01 1.26390040e-01 2.52780076e-02 0.
      0. 0. 0. 0. 2.52780076e-02 0. 5.05560152e-02 0. 0. 0.
      1.01112030e-01 2.52780076e-02 2.78058082e-01 7.58340210e-02
      1.51668042e-01 0. 0. 0. 0. 0. 0. 0. 0. 0. 0. 0. 7.58340210e-02 0.
      2.52780076e-02 0. 5.05560152e-02 0. 0. 2.52780076e-02
      2.52780076e-02 0. 0. 0. 7.58340210e-02 0. 0. 0. 1.51668042e-01
      5.05560152e-02 1.01112030e-01 5.05560152e-02 0. 2.52780076e-02 0.
      0. 0. 0. 2.52780076e-02 0. 0. 0. 0. 0. 0. 0. 0. 0. 0. 0. 0. 0. 0.
      0. 0. 0. 0. 0. 0. 0. 0. 0. 0. 0. 7.58340210e-02 0. 2.52780076e-02
      0. 0. 0. 5.05560152e-02 0. 0. 0. 0. 0. 0. 0. 2.52780076e-02 0. 0.
      0. 2.52780076e-02 0. 0. 0. 0. 0. 2.52780076e-02 0. 0. 0. 0. 0.
      5.05560152e-02 0. 0. 7.58340210e-02 2.52780076e-02 5.05560152e-02
      0. 0. 0. 2.52780076e-02 0. 0. 0. 0. 2.52780076e-02 0. 0.
      1.01112030e-01 0. 0. 0. 0. 0. 0. 0. 0. 0. 0. 0. 2.52780076e-02 0.
      5.05560152e-02 5.05560152e-02 5.05560152e-02 2.52780076e-02 0. 0.
      0. 0. 0. 0. 0. 0. 0. 0. 0. 2.52780076e-02 0. 0. 0. 0.
      2.52780076e-02 0. 0. 0. 0. 0. 2.52780076e-02 0. 2.52780076e-02 0.
      0. 0. 5.05560152e-02 0. 0. 0. 1.51668042e-01 0. 4.29726124e-01 0.
      2.52780076e-02 0. 1.01112030e-01 0. 0. 0. 0. 0. 0. 0. 0. 0.
      2.52780076e-02 0. 2.52780076e-02 0. 0. 0. 0. 0. 2.52780076e-02 0.
      5.05560152e-02 0. 0. 2.52780076e-02 1.26390040e-01 5.05560152e-02
      4.04448122e-01 0. 1.26390040e-01 2.52780076e-02 2.52780076e-02 0.
      5.05560152e-02 0. 0. 0. 0. 0. 0. 0. 2.52780076e-02 5.05560152e-02
      5.05560152e-02 0. 1.01112030e-01 0. 0. 0. 0. 2.52780076e-02 0. 0.
      0. 5.05560152e-02 5.05560152e-02 2.52780076e-02 4.29726124e-01</_>
    <_>
      4.28935766e-01 6.01622283e-01 6.73843265e-01 1.13227703e-01
      7.07673132e-02 0. 0. 0. 0. 0. 6.51059330e-01 0. 0. 0. 0. 0. 0. 0.
      0. 0. 0. 0. 0. 0. 0. 0. 0. 0. 0. 0. 0. 0. 0. 0. 0. 0. 0. 0. 0. 0.
      0. 0. 0. 0. 0. 0. 7.21826613e-01 5.66138513e-02 0. 0. 0. 0. 0.
      1.83995023e-01 0. 0. 0. 0. 0. 0. 0. 0. 0. 0. 0. 0. 0. 0. 0. 0. 0.
      0. 0. 0. 0. 0. 0. 0. 0. 0. 0. 0. 0. 0. 0. 0. 0. 0. 0.
      1.41534628e-02 0. 0. 0. 0. 0. 0. 0. 0. 0. 0. 0. 0. 0. 0. 0. 0. 0.
      0. 0. 0. 0. 0. 0. 0. 0. 0. 0. 0. 0. 0. 0. 0. 0. 0. 0. 0. 0. 0. 0.
      0. 0. 0. 0. 0. 0. 0. 0. 0. 0. 0. 0. 0. 0. 0. 0. 0. 0. 0. 0. 0. 0.
      0. 0. 0. 0. 0. 0. 0. 0. 0. 0. 0. 0. 0. 0. 0. 0. 0. 0. 0. 0. 0. 0.
      0. 0. 0. 0. 0. 0. 0. 0. 0. 0. 0. 0. 0. 0. 0. 0. 0. 0. 0. 0. 0. 0.
      0. 0. 0. 0. 0. 0. 0. 0. 0. 0. 0. 0. 0. 0. 0. 0. 0. 0. 0. 0. 0. 0.
      0. 0. 1.92450091e-01 9.62250456e-02 0. 4.81125228e-02 0. 0.
      4.81125228e-02 9.62250456e-02 0. 0. 0. 0. 4.81125228e-02 0. 0.
      4.81125228e-02 0. 0. 0. 0. 0. 0. 0. 0. 4.81125228e-02 0. 0. 0.
      1.44337565e-01 0. 4.81125228e-02 0. 4.81125228e-02 1.44337565e-01
      0. 0. 0. 0. 4.81125228e-02 0. 4.81125228e-02 0. 0. 0. 0. 0. 0. 0.
      1.44337565e-01 0. 0. 0. 0. 0. 4.81125228e-02 4.81125228e-02 0.
      4.81125228e-02 4.81125228e-02 0. 2.40562618e-01 4.81125228e-02 0.
      4.81125228e-02 1.44337565e-01 4.81125228e-02 0. 0. 4.81125228e-02
      0. 0. 0. 0. 0. 0. 0. 0. 0. 0. 0. 0. 4.81125228e-02 4.81125228e-02
      0. 0. 0. 0. 0. 0. 0. 0. 0. 0. 0. 0. 0. 0. 0. 0. 0. 0. 0. 0. 0. 0.
      0. 0. 0. 4.81125228e-02 0. 0. 4.81125228e-02 0. 0. 0. 0. 0. 0. 0.
      0. 0. 4.81125228e-02 0. 0. 0. 0. 4.81125228e-02 4.81125228e-02
      4.81125228e-02 4.81125228e-02 4.81125228e-02 1.92450091e-01 0. 0.
      0. 4.81125228e-02 0. 9.62250456e-02 0. 0. 0. 0. 0. 0. 0. 0. 0. 0.
      0. 0. 0. 0. 0. 0. 0. 0. 0. 0. 4.81125228e-02 0. 4.81125228e-02
      4.81125228e-02 0. 0. 0. 0. 0. 0. 0. 0. 0. 0. 0. 0. 0. 0. 0. 0.
      9.62250456e-02 0. 0. 0. 0. 0. 0. 0. 0. 4.81125228e-02 0.
      4.81125228e-02 0. 0. 4.81125228e-02 9.62250456e-02 0.
      9.62250456e-02 0. 0. 4.81125228e-02 4.81125228e-02 0. 0. 0.
      4.81125228e-02 4.81125228e-02 0. 0. 4.81125228e-02 0. 0. 0. 0.
      4.81125228e-02 0. 0. 0. 0. 0. 0. 4.81125228e-02 0. 0.
      4.81125228e-02 1.44337565e-01 4.81125228e-02 5.29237747e-01
      4.81125228e-02 1.44337565e-01 0. 9.62250456e-02 0. 1.92450091e-01
      0. 4.81125228e-02 0. 0. 0. 0. 0. 4.81125228e-02 4.81125228e-02
      9.62250456e-02 0. 9.62250456e-02 0. 0. 0. 4.81125228e-02 0.
      4.81125228e-02 0. 1.44337565e-01 0. 1.44337565e-01 0.
      4.33012694e-01</_>
    <_>
      4.45531458e-01 5.40817261e-01 7.13455319e-01 0. 0. 0. 0. 0. 0. 0.
      9.02362049e-01 0. 0. 0. 0. 0. 0. 0. 0. 0. 0. 0. 0. 0. 0. 0. 0. 0.
      0. 0. 0. 0. 0. 0. 0. 0. 0. 0. 0. 0. 0. 0. 0. 0. 0. 0.
      4.30978894e-01 0. 0. 0. 0. 0. 0. 0. 0. 0. 0. 0. 0. 0. 0. 0. 0. 0.
      0. 0. 0. 0. 0. 0. 0. 0. 0. 0. 0. 0. 0. 0. 0. 0. 0. 0. 0. 0. 0. 0.
      0. 0. 0. 0. 0. 0. 0. 0. 0. 0. 0. 0. 0. 0. 0. 0. 0. 0. 0. 0. 0. 0.
      0. 0. 0. 0. 0. 0. 0. 0. 0. 0. 0. 0. 0. 0. 0. 0. 0. 0. 0. 0. 0. 0.
      0. 0. 0. 0. 0. 0. 0. 0. 0. 0. 0. 0. 0. 0. 0. 0. 0. 0. 0. 0. 0. 0.
      0. 0. 0. 0. 0. 0. 0. 0. 0. 0. 0. 0. 0. 0. 0. 0. 0. 0. 0. 0. 0. 0.
      0. 0. 0. 0. 0. 0. 0. 0. 0. 0. 0. 0. 0. 0. 0. 0. 0. 0. 0. 0. 0. 0.
      0. 0. 0. 0. 0. 0. 0. 0. 0. 0. 0. 0. 0. 0. 0. 0. 0. 0. 0. 0. 0. 0.
      0. 2.56600112e-01 0. 1.92450076e-01 1.28300056e-01 0. 0.
      6.41500279e-02 0. 6.41500279e-02 0. 6.41500279e-02 0. 0. 0.
      6.41500279e-02 0. 6.41500279e-02 0. 0. 0. 0. 0. 0. 0. 0. 0.
      6.41500279e-02 0. 0. 0. 3.84900153e-01 1.92450076e-01
      1.28300056e-01 0. 0. 0. 0. 0. 0. 0. 1.28300056e-01 0. 0. 0.
      1.28300056e-01 0. 0. 0. 0. 0. 0. 1.28300056e-01 0. 0.
      6.41500279e-02 0. 1.92450076e-01 0. 0. 0. 3.20750147e-01 0.
      1.28300056e-01 6.41500279e-02 0. 0. 0. 6.41500279e-02 0. 0. 0. 0.
      0. 0. 0. 0. 0. 0. 0. 0. 0. 0. 0. 0. 0. 0. 0. 0. 0. 0. 0. 0.
      6.41500279e-02 0. 0. 0. 1.28300056e-01 0. 0. 0. 0. 0. 0. 0. 0. 0.
      0. 0. 6.41500279e-02 0. 0. 0. 6.41500279e-02 0. 0. 0. 0. 0. 0. 0.
      0. 0. 0. 0. 1.28300056e-01 6.41500279e-02 1.92450076e-01
      6.41500279e-02 6.41500279e-02 0. 0. 1.28300056e-01 0.
      6.41500279e-02 6.41500279e-02 0. 6.41500279e-02 0. 0. 0. 0. 0. 0.
      0. 0. 0. 0. 0. 0. 0. 0. 0. 6.41500279e-02 6.41500279e-02 0. 0. 0.
      0. 0. 0. 0. 6.41500279e-02 0. 6.41500279e-02 0. 0. 0. 0. 0. 0. 0.
      0. 0. 0. 0. 0. 6.41500279e-02 0. 0. 0. 6.41500279e-02 0. 0. 0. 0.
      0. 0. 0. 0. 0. 0. 0. 0. 6.41500279e-02 6.41500279e-02
      6.41500279e-02 0. 0. 0. 0. 6.41500279e-02 0. 0. 0. 1.28300056e-01
      0. 6.41500279e-02 6.41500279e-02 0. 0. 0. 0. 0. 0. 0. 0. 0. 0. 0.
      0. 6.41500279e-02 0. 0. 2.56600112e-01 0. 6.41500279e-02 0. 0. 0.
      6.41500279e-02 6.41500279e-02 0. 0. 0. 0. 0. 0. 0. 0.
      1.28300056e-01 0. 0. 0. 0. 0. 0. 0. 0. 6.41500279e-02
      2.56600112e-01 0. 0. 1.92450076e-01 6.41500279e-02 0.
      1.92450076e-01</_>
    <_>
      3.37644100e-01 5.16435981e-01 7.86949992e-01 2.17288639e-02
      5.86679339e-01 0. 0. 0. 0. 0. 6.30137026e-01 1.95559785e-01 0. 0.
      0. 0. 0. 0. 0. 0. 0. 0. 0. 0. 0. 0. 0. 0. 0. 0. 0. 0. 0. 0. 0. 0.
      0. 0. 0. 0. 0. 0. 0. 0. 0. 0. 1.08644322e-01 4.56306159e-01 0. 0.
      0. 0. 0. 0. 0. 0. 0. 0. 0. 0. 0. 0. 0. 0. 0. 0. 0. 0. 0. 0. 0. 0.
      0. 0. 0. 0. 0. 0. 0. 0. 0. 0. 0. 0. 0. 0. 0. 0. 0. 0. 0. 0. 0. 0.
      0. 0. 0. 0. 0. 0. 0. 0. 0. 0. 0. 0. 0. 0. 0. 0. 0. 0. 0. 0. 0. 0.
      0. 0. 0. 0. 0. 0. 0. 0. 0. 0. 0. 0. 0. 0. 0. 0. 0. 0. 0. 0. 0. 0.
      0. 0. 0. 0. 0. 0. 0. 0. 0. 0. 0. 0. 0. 0. 0. 0. 0. 0. 0. 0. 0. 0.
      0. 0. 0. 0. 0. 0. 0. 0. 0. 0. 0. 0. 0. 0. 0. 0. 0. 0. 0. 0. 0. 0.
      0. 0. 0. 0. 0. 0. 0. 0. 0. 0. 0. 0. 0. 0. 0. 0. 0. 0. 0. 0. 0. 0.
      0. 0. 0. 0. 0. 0. 0. 0. 0. 0. 0. 0. 0. 0. 0. 1.45864993e-01
      7.29324967e-02 0. 0. 0. 0. 0. 0. 0. 0. 7.29324967e-02 0.
      7.29324967e-02 0. 7.29324967e-02 1.45864993e-01 0. 0. 0.
      7.29324967e-02 0. 0. 0. 0. 2.18797490e-01 0. 0. 7.29324967e-02 0.
      0. 7.29324967e-02 0. 0. 0. 0. 0. 0. 0. 0. 0. 0. 0. 0. 0. 0. 0. 0.
      0. 0. 7.29324967e-02 0. 0. 7.29324967e-02 0. 0. 0. 0. 0.
      7.29324967e-02 0. 0. 7.29324967e-02 0. 0. 7.29324967e-02 0. 0. 0.
      0. 0. 0. 0. 0. 0. 0. 0. 0. 0. 1.45864993e-01 7.29324967e-02 0.
      7.29324967e-02 0. 0. 0. 0. 0. 0. 7.29324967e-02 0. 0. 0. 0. 0. 0.
      7.29324967e-02 0. 7.29324967e-02 0. 0. 0. 0. 1.45864993e-01 0. 0.
      0. 0. 0. 0. 0. 7.29324967e-02 0. 0. 7.29324967e-02 0.
      7.29324967e-02 0. 0. 7.29324967e-02 7.29324967e-02 0. 0.
      7.29324967e-02 7.29324967e-02 0. 0. 7.29324967e-02 7.29324967e-02
      0. 7.29324967e-02 0. 7.29324967e-02 0. 0. 0. 0. 0. 0.
      7.29324967e-02 0. 0. 0. 0. 0. 7.29324967e-02 7.29324967e-02 0. 0.
      0. 0. 0. 0. 0. 0. 0. 0. 0. 0. 0. 0. 0. 0. 0. 0. 0. 0. 0. 0. 0. 0.
      0. 0. 0. 0. 0. 0. 1.45864993e-01 0. 0. 0. 0. 0. 0. 0. 0.
      7.29324967e-02 0. 0. 0. 0. 0. 7.29324967e-02 0. 7.29324967e-02 0.
      0. 7.29324967e-02 0. 0. 0. 0. 0. 0. 0. 0. 0. 0. 7.29324967e-02 0.
      0. 0. 7.29324967e-02 0. 0. 0. 0. 0. 0. 0. 7.29324967e-02 0. 0. 0.
      1.45864993e-01 1.45864993e-01 0. 0. 0. 0. 0. 1.45864993e-01 0.
      7.29324967e-02 0. 0. 0. 7.29324967e-02 0. 0. 2.18797490e-01
      1.45864993e-01 2.18797490e-01 7.29324967e-02 1.45864993e-01 0.
      7.29324967e-02 0. 2.18797490e-01 1.45864993e-01 7.29324967e-02 0.
      1.45864993e-01 1.45864993e-01 1.45864993e-01 1.45864993e-01
      5.10527492e-01</_>
    <_>
      4.63285685e-01 5.48369169e-01 6.96173668e-01 0. 2.54082214e-02 0.
      0. 0. 0. 0. 2.54082214e-02 1.27041101e-01 0. 0. 0. 0. 0. 0. 0. 0.
      0. 0. 0. 0. 0. 0. 0. 0. 0. 0. 0. 0. 0. 0. 0. 0. 0. 0. 0. 0. 0. 0.
      0. 0. 0. 0. 1.27041107e-02 2.66786337e-01 3.81123312e-02 0. 0. 0.
      0. 8.89287740e-02 2.41378099e-01 0. 0. 0. 0. 0. 0. 0. 0. 0. 0. 0.
      0. 0. 0. 0. 0. 0. 0. 0. 0. 0. 0. 0. 0. 0. 0. 0. 0. 0. 0. 0. 0. 0.
      0. 0. 5.84389091e-01 1.27041107e-02 0. 0. 0. 0. 1.52449325e-01
      2.92194545e-01 0. 0. 0. 0. 0. 0. 0. 0. 0. 0. 0. 0. 0. 0. 0. 0. 0.
      0. 0. 0. 0. 0. 0. 0. 0. 0. 0. 0. 0. 0. 0. 0. 0. 0. 0.
      4.82756197e-01 2.54082214e-02 0. 0. 0. 0. 2.03265771e-01
      2.54082203e-01 0. 0. 0. 0. 0. 0. 0. 0. 0. 0. 0. 0. 0. 0. 0. 0. 0.
      0. 0. 0. 0. 0. 0. 0. 0. 0. 0. 0. 0. 0. 0. 0. 0. 0. 2.54082214e-02
      2.28673995e-01 0. 0. 0. 0. 0. 1.27041107e-02 0. 0. 0. 0. 0. 0. 0.
      0. 0. 0. 0. 0. 0. 0. 0. 0. 0. 0. 0. 0. 0. 0. 0. 0. 0. 0. 0. 0. 0.
      0. 0. 0. 0. 0. 0. 2.54082214e-02 5.08304238e-01 2.82391254e-02
      2.82391254e-02 1.97673872e-01 8.47173780e-02 0. 1.41195625e-01
      2.82391254e-02 2.25913003e-01 2.82391254e-02 0. 0. 1.41195625e-01
      2.82391254e-02 2.82391254e-02 5.64782508e-02 2.82391254e-02 0. 0.
      2.82391254e-02 0. 0. 0. 2.82391254e-02 1.12956502e-01 0. 0. 0.
      2.82391254e-02 2.82391254e-02 5.64782508e-02 8.47173780e-02
      8.47173780e-02 5.64782508e-02 0. 0. 0. 0. 0. 0. 0. 0. 0. 0.
      2.82391254e-02 0. 0. 0. 0. 2.82391254e-02 2.82391254e-02 0. 0. 0.
      0. 2.82391254e-02 1.69434756e-01 0. 0. 0. 1.12956502e-01 0.
      8.47173780e-02 1.97673872e-01 2.82391254e-02 0. 0. 0.
      2.82391254e-02 0. 0. 0. 5.64782508e-02 0. 0. 0. 0. 0.
      2.82391254e-02 0. 0. 0. 0. 0. 0. 0. 0. 0. 0. 0. 0. 0. 0. 0. 0. 0.
      1.41195625e-01 0. 0. 0. 0. 0. 0. 5.64782508e-02 5.64782508e-02 0.
      0. 0. 5.64782508e-02 2.82391254e-02 2.82391254e-02 0. 0. 0. 0.
      2.82391254e-02 0. 0. 0. 0. 1.69434756e-01 5.64782508e-02 0.
      2.82391254e-02 2.54152119e-01 5.64782508e-02 1.41195625e-01
      1.12956502e-01 8.47173780e-02 2.82391254e-02 2.82391254e-02
      8.47173780e-02 2.82391254e-02 0. 5.64782508e-02 8.47173780e-02
      5.64782508e-02 0. 0. 8.47173780e-02 0. 0. 0. 1.41195625e-01 0. 0.
      0. 2.82391254e-02 0. 0. 0. 2.82391254e-02 2.82391254e-02 0. 0. 0.
      0. 0. 0. 8.47173780e-02 0. 0. 0. 8.47173780e-02 0. 0. 0. 0. 0. 0.
      0. 0. 0. 0. 0. 0. 0. 0. 0. 0. 0. 0. 0. 5.64782508e-02
      2.82391254e-02 0. 0. 2.82391254e-02 0. 0. 0. 1.41195625e-01
      1.41195625e-01 0. 0. 1.41195625e-01 0. 5.64782508e-02 0.
      8.47173780e-02 2.82391254e-02 2.82391254e-02 0. 0. 0. 0. 0.
      1.41195625e-01 0. 0. 0. 0. 0. 0. 0. 0. 0. 0. 0. 2.82391254e-02 0.
      0. 0. 2.82391254e-02 2.82391254e-02 8.47173780e-02 0. 0. 0. 0. 0.
      0. 0. 0. 0. 0. 0. 2.82391254e-02 0. 2.82391254e-02 2.82391254e-02
      8.47173780e-02 0. 8.47173780e-02 2.82391254e-02 0. 2.82391254e-02
      1.41195625e-01 0. 2.82391254e-02 0. 2.82391254e-02 0.
      1.12956502e-01 0. 2.54152119e-01</_>
    <_>
      4.18681234e-01 5.23315907e-01 7.42190301e-01 0. 0. 0. 0. 0. 0. 0.
      0. 1.16953067e-02 0. 0. 0. 0. 0. 0. 0. 0. 0. 0. 0. 0. 0. 0. 0. 0.
      0. 0. 0. 0. 0. 0. 0. 0. 0. 0. 0. 0. 0. 0. 0. 0. 0. 0. 0.
      2.33906120e-01 1.40343681e-01 0. 0. 0. 0. 4.67812270e-02
      6.54937148e-01 0. 0. 0. 0. 0. 0. 0. 0. 0. 0. 0. 0. 0. 0. 0. 0. 0.
      0. 0. 0. 0. 0. 0. 0. 0. 0. 0. 0. 0. 0. 0. 0. 0. 0. 0.
      5.49679399e-01 1.40343681e-01 0. 0. 0. 0. 2.33906135e-02
      3.97640407e-01 0. 0. 0. 0. 0. 0. 0. 0. 0. 0. 0. 0. 0. 0. 0. 0. 0.
      0. 0. 0. 0. 0. 0. 0. 0. 0. 0. 0. 0. 0. 0. 0. 0. 0. 0.
      1.16953060e-01 0. 0. 0. 0. 0. 1.16953067e-02 0. 0. 0. 0. 0. 0. 0.
      0. 0. 0. 0. 0. 0. 0. 0. 0. 0. 0. 0. 0. 0. 0. 0. 0. 0. 0. 0. 0. 0.
      0. 0. 0. 0. 0. 0. 0. 0. 0. 0. 0. 0. 0. 0. 0. 0. 0. 0. 0. 0. 0. 0.
      0. 0. 0. 0. 0. 0. 0. 0. 0. 0. 0. 0. 0. 0. 0. 0. 0. 0. 0. 0. 0. 0.
      0. 0. 0. 0. 0. 0. 1.11847095e-01 0. 0. 0. 2.79617738e-02
      2.79617738e-02 5.59235476e-02 1.11847095e-01 2.23694190e-01
      5.59235476e-02 0. 0. 8.38853195e-02 0. 5.59235476e-02
      1.11847095e-01 0. 0. 0. 0. 0. 0. 0. 5.59235476e-02 2.79617738e-02
      0. 0. 2.79617738e-02 0. 0. 0. 8.38853195e-02 0. 0. 0. 0. 0. 0. 0.
      0. 2.79617738e-02 0. 0. 0. 2.79617738e-02 0. 0. 0. 5.59235476e-02
      0. 0. 0. 0. 0. 0. 0. 2.79617738e-02 2.79617738e-02 0. 0. 0. 0. 0.
      8.38853195e-02 0. 0. 0. 0. 0. 0. 0. 0. 5.59235476e-02 0. 0. 0.
      2.79617738e-02 2.79617738e-02 0. 5.59235476e-02 0. 0. 0. 0. 0. 0.
      0. 0. 0. 0. 0. 0. 0. 0. 0. 0. 0. 0. 0. 0. 0. 0. 0. 0.
      5.59235476e-02 0. 0. 0. 0. 0. 0. 0. 5.59235476e-02 0. 0.
      2.79617738e-02 0. 0. 2.79617738e-02 5.59235476e-02 3.63503069e-01
      5.59235476e-02 0. 2.79617738e-02 8.38853195e-02 0. 8.38853195e-02
      2.79617727e-01 8.38853195e-02 0. 0. 1.11847095e-01 2.79617738e-02
      2.79617738e-02 5.59235476e-02 2.79617727e-01 0. 0. 0. 0.
      2.79617738e-02 0. 0. 2.23694190e-01 0. 0. 0. 0. 0. 0. 0. 0. 0. 0.
      0. 0. 0. 0. 0. 0. 0. 0. 0. 0. 0. 0. 0. 2.79617738e-02 0. 0. 0. 0.
      0. 0. 0. 2.79617738e-02 0. 0. 0. 2.79617738e-02 0. 2.79617738e-02
      0. 8.38853195e-02 0. 0. 0. 0. 0. 0. 0. 1.67770639e-01
      5.59235476e-02 0. 0. 0. 0. 0. 0. 5.59235476e-02 0. 0. 0. 0. 0. 0.
      0. 0. 0. 0. 0. 0. 0. 0. 0. 5.59235476e-02 0. 0. 0. 0. 0. 0. 0.
      8.38853195e-02 0. 0. 0. 0. 0. 0. 0. 2.79617738e-02 0. 0. 0. 0.
      2.79617738e-02 0. 2.79617738e-02 8.38853195e-02 3.07579517e-01
      2.79617738e-02 0. 8.38853195e-02 2.79617738e-02 0. 0.
      3.35541278e-01 1.11847095e-01 0. 0. 0. 0. 0. 2.79617738e-02
      4.19426620e-01</_>
    <_>
      4.33184147e-01 5.48957825e-01 7.14840353e-01 0. 3.42059471e-02
      1.14019820e-02 0. 0. 0. 0. 1.14019820e-02 2.28039641e-02 0. 0. 0.
      0. 0. 0. 0. 0. 0. 0. 0. 0. 0. 0. 0. 0. 0. 0. 0. 0. 0. 0. 0. 0. 0.
      0. 0. 0. 0. 0. 0. 0. 0. 0. 7.29726851e-01 1.93833694e-01
      2.28039641e-02 0. 0. 0. 0. 7.98138753e-02 2.50843614e-01
      1.14019819e-01 0. 0. 0. 0. 0. 6.84118941e-02 0. 0. 0. 0. 0. 0. 0.
      0. 0. 0. 0. 0. 0. 0. 0. 0. 0. 0. 0. 0. 0. 0. 0. 0. 0. 0. 0.
      7.98138753e-02 1.48225769e-01 1.14019820e-02 0. 0. 0. 0.
      1.14019820e-02 5.01687229e-01 3.42059471e-02 0. 0. 0. 0. 0.
      3.42059471e-02 0. 0. 0. 0. 0. 0. 0. 0. 0. 0. 0. 0. 0. 0. 0. 0. 0.
      0. 0. 0. 0. 0. 0. 0. 0. 0. 0. 0. 1.02617845e-01 0. 0. 0. 0. 0.
      6.84118941e-02 2.05235690e-01 0. 0. 0. 0. 0. 0. 0. 0. 0. 0. 0. 0.
      0. 0. 0. 0. 0. 0. 0. 0. 0. 0. 0. 0. 0. 0. 0. 0. 0. 0. 0. 0. 0. 0.
      0. 2.28039641e-02 0. 0. 0. 0. 0. 0. 0. 0. 0. 0. 0. 0. 0. 0. 0. 0.
      0. 0. 0. 0. 0. 0. 0. 0. 0. 0. 0. 0. 0. 0. 0. 0. 0. 0. 0. 0. 0. 0.
      0. 0. 0. 0. 3.97253036e-01 8.51256549e-02 0. 0. 0. 2.83752177e-02
      5.67504354e-02 1.41876087e-01 5.67504354e-02 2.83752177e-02 0.
      8.51256549e-02 5.67504354e-02 0. 5.67504354e-02 3.40502620e-01
      2.83752177e-02 0. 0. 0. 0. 0. 0. 0. 8.51256549e-02 0. 0. 0.
      2.83752177e-02 0. 1.98626518e-01 2.83752177e-02 8.51256549e-02 0.
      2.83752177e-02 0. 2.83752177e-02 0. 0. 0. 2.83752177e-02 0. 0. 0.
      0. 0. 0. 2.83752177e-02 2.83752177e-02 0. 0. 5.67504354e-02 0. 0.
      0. 2.83752177e-02 2.83752177e-02 0. 0. 2.83752177e-02
      5.67504354e-02 0. 5.67504354e-02 5.67504354e-02 1.13500871e-01 0.
      0. 2.83752177e-02 0. 0. 0. 0. 5.67504354e-02 0. 0. 2.83752177e-02
      0. 0. 0. 0. 0. 2.83752177e-02 0. 0. 0. 0. 0. 0. 5.67504354e-02 0.
      0. 0. 0. 0. 0. 2.83752177e-02 1.13500871e-01 0. 2.83752177e-02 0.
      0. 0. 0. 0. 2.83752177e-02 2.83752177e-02 0. 0. 0. 0. 0. 0.
      5.67504354e-02 5.67504354e-02 0. 2.83752177e-02 0. 0. 0. 0.
      2.55376965e-01 8.51256549e-02 0. 2.83752177e-02 0. 2.83752177e-02
      2.83752177e-02 1.41876087e-01 1.98626518e-01 2.83752177e-02 0.
      5.67504354e-02 0. 0. 0. 1.98626518e-01 0. 0. 0. 0. 0. 0.
      2.83752177e-02 1.13500871e-01 5.67504354e-02 2.83752177e-02 0. 0.
      0. 0. 0. 2.83752177e-02 0. 0. 0. 0. 0. 0. 0. 2.83752177e-02
      2.83752177e-02 0. 0. 0. 0. 0. 0. 0. 2.83752177e-02 0. 0. 0. 0. 0.
      0. 0. 0. 0. 0. 2.83752177e-02 8.51256549e-02 0. 2.83752177e-02 0.
      2.83752177e-02 0. 0. 0. 0. 0. 0. 5.67504354e-02 1.41876087e-01
      5.67504354e-02 0. 0. 0. 2.83752177e-02 0. 0. 0. 2.83752177e-02 0.
      0. 0. 0. 0. 0. 2.83752177e-02 0. 0. 0. 0. 0. 0. 2.83752177e-02 0.
      0. 0. 0. 2.83752177e-02 0. 0. 8.51256549e-02 1.13500871e-01
      5.67504354e-02 0. 0. 0. 2.83752177e-02 0. 2.83752177e-02 0. 0. 0.
      0. 0. 0. 2.83752177e-02 5.67504354e-02 2.83752173e-01
      1.41876087e-01 2.83752177e-02 8.51256549e-02 2.83752177e-02 0.
      5.67504354e-02 5.67504354e-02 1.13500871e-01 1.13500871e-01
      2.83752177e-02 1.98626518e-01 2.83752177e-02 2.83752177e-02
      8.51256549e-02 3.12127382e-01</_>
    <_>
      3.92182529e-01 5.25999010e-01 7.54664123e-01 3.94777954e-01
      7.06927955e-01 0. 0. 0. 0. 0. 3.85597080e-01 0. 0. 0. 0. 0. 0. 0.
      0. 0. 0. 0. 0. 0. 0. 0. 0. 0. 0. 0. 0. 0. 0. 0. 0. 0. 0. 0. 0. 0.
      0. 0. 0. 0. 0. 0. 2.29522064e-01 3.67235273e-01 0. 0. 0. 0. 0.
      5.50852939e-02 0. 0. 0. 0. 0. 0. 0. 0. 0. 0. 0. 0. 0. 0. 0. 0. 0.
      0. 0. 0. 0. 0. 0. 0. 0. 0. 0. 0. 0. 0. 0. 0. 0. 0. 0.
      5.50852939e-02 4.59044091e-02 0. 0. 0. 0. 0. 0. 0. 0. 0. 0. 0. 0.
      0. 0. 0. 0. 0. 0. 0. 0. 0. 0. 0. 0. 0. 0. 0. 0. 0. 0. 0. 0. 0. 0.
      0. 0. 0. 0. 0. 0. 0. 0. 0. 0. 0. 0. 0. 0. 0. 0. 0. 0. 0. 0. 0. 0.
      0. 0. 0. 0. 0. 0. 0. 0. 0. 0. 0. 0. 0. 0. 0. 0. 0. 0. 0. 0. 0. 0.
      0. 0. 0. 0. 0. 0. 0. 0. 0. 0. 0. 0. 0. 0. 0. 0. 0. 0. 0. 0. 0. 0.
      0. 0. 0. 0. 0. 0. 0. 0. 0. 0. 0. 0. 0. 0. 0. 0. 0. 0. 0. 0. 0. 0.
      0. 0. 0. 0. 0. 0. 4.94215548e-01 5.20226881e-02 1.30056724e-01 0.
      2.60113440e-02 0. 5.20226881e-02 5.20226881e-02 7.80340284e-02 0.
      5.20226881e-02 0. 7.80340284e-02 2.60113440e-02 5.20226881e-02 0.
      5.20226881e-02 2.60113440e-02 0. 0. 0. 0. 0. 2.60113440e-02
      1.04045376e-01 0. 0. 2.60113440e-02 2.60113440e-02 2.60113440e-02
      2.60113440e-02 2.60113440e-02 5.20226881e-02 0. 2.60113440e-02 0.
      2.60113440e-02 0. 0. 0. 0. 0. 0. 0. 5.20226881e-02 2.60113440e-02
      2.60113440e-02 0. 2.60113440e-02 0. 0. 2.60113440e-02
      2.60113440e-02 0. 0. 0. 5.20226881e-02 2.60113440e-02
      2.60113440e-02 2.60113440e-02 5.20226881e-02 0. 2.60113440e-02
      7.80340284e-02 2.60113440e-02 0. 2.60113440e-02 0. 2.60113440e-02
      0. 2.60113440e-02 0. 5.20226881e-02 0. 0. 0. 0. 0. 2.60113440e-02
      0. 0. 0. 0. 0. 0. 0. 0. 0. 5.20226881e-02 0. 0. 0. 0.
      2.60113440e-02 2.60113440e-02 0. 0. 2.60113440e-02 0. 0.
      2.60113440e-02 0. 0. 2.60113440e-02 5.20226881e-02 0. 0. 0. 0. 0.
      2.60113440e-02 5.20226881e-02 2.60113440e-02 0. 2.60113440e-02 0.
      2.60113440e-02 0. 0. 5.20226881e-02 0. 2.60113440e-02 0.
      7.80340284e-02 5.20226881e-02 2.60113440e-02 5.20226881e-02
      5.20226881e-02 2.60113440e-02 0. 7.80340284e-02 1.30056724e-01 0.
      2.60113440e-02 0. 5.20226881e-02 2.60113440e-02 0. 0.
      2.60113440e-02 0. 2.60113440e-02 0. 2.60113440e-02 0. 0. 0.
      5.20226881e-02 0. 0. 0. 5.20226881e-02 0. 0. 0. 0. 0.
      2.60113440e-02 2.60113440e-02 1.04045376e-01 0. 0. 0. 0. 0. 0. 0.
      0. 0. 0. 0. 0. 0. 0. 0. 0. 0. 0. 0. 0. 0. 0. 0. 5.20226881e-02 0.
      2.60113440e-02 0. 2.60113440e-02 5.20226881e-02 5.20226881e-02
      2.60113440e-02 7.80340284e-02 1.30056724e-01 0. 2.60113440e-02
      2.60113440e-02 0. 2.60113440e-02 0. 1.04045376e-01 0. 0. 0. 0. 0.
      0. 0. 5.20226881e-02 0. 0. 0. 2.60113440e-02 0. 0. 0.
      2.60113440e-02 5.20226881e-02 0. 0. 2.60113440e-02 0. 0.
      2.60113440e-02 1.30056724e-01 5.20226881e-02 0. 0. 0.
      2.60113440e-02 0. 5.20226881e-02 7.80340284e-02 2.60113440e-02 0.
      0. 0. 0. 0. 2.60113440e-02 1.04045376e-01 1.30056724e-01
      7.80340284e-02 0. 7.80340284e-02 5.20226881e-02 2.60113440e-02 0.
      7.80340284e-02 2.60113440e-02 0. 0. 5.20226881e-02 7.80340284e-02
      1.04045376e-01 7.80340284e-02 6.50283575e-01</_>
    <_>
      4.36393797e-01 5.29736817e-01 7.27282226e-01 7.39344954e-02
      8.44965637e-01 0. 0. 0. 0. 0. 2.95737982e-01 0. 0. 0. 0. 0. 0. 0.
      0. 0. 0. 0. 0. 0. 0. 0. 0. 0. 0. 0. 0. 0. 0. 0. 0. 0. 0. 0. 0. 0.
      0. 0. 0. 0. 0. 0. 3.80234569e-01 2.11241409e-01 0. 0. 0. 0. 0.
      5.28103523e-02 0. 0. 0. 0. 0. 0. 0. 0. 0. 0. 0. 0. 0. 0. 0. 0. 0.
      0. 0. 0. 0. 0. 0. 0. 0. 0. 0. 0. 0. 0. 0. 0. 0. 0. 0.
      3.16862129e-02 1.05620716e-02 0. 0. 0. 0. 0. 0. 0. 0. 0. 0. 0. 0.
      0. 0. 0. 0. 0. 0. 0. 0. 0. 0. 0. 0. 0. 0. 0. 0. 0. 0. 0. 0. 0. 0.
      0. 0. 0. 0. 0. 0. 0. 0. 0. 0. 0. 0. 0. 0. 0. 0. 0. 0. 0. 0. 0. 0.
      0. 0. 0. 0. 0. 0. 0. 0. 0. 0. 0. 0. 0. 0. 0. 0. 0. 0. 0. 0. 0. 0.
      0. 0. 0. 0. 0. 0. 0. 0. 0. 0. 0. 0. 0. 0. 0. 0. 0. 0. 0. 0. 0. 0.
      0. 0. 0. 0. 0. 0. 0. 0. 0. 0. 0. 0. 0. 0. 0. 0. 0. 0. 0. 0. 0. 0.
      0. 0. 0. 0. 0. 0. 3.18788365e-02 0. 1.27515346e-01 1.59394175e-01
      3.18788365e-02 3.18788365e-02 3.18788365e-02 0. 3.18788365e-02 0.
      0. 0. 3.18788365e-02 0. 1.27515346e-01 0. 3.18788365e-02 0. 0. 0.
      0. 0. 3.18788365e-02 0. 0. 0. 0. 3.18788365e-02 2.55030692e-01 0.
      2.86909521e-01 3.18788365e-02 6.37576729e-02 0. 3.18788365e-02
      3.18788365e-02 3.18788365e-02 0. 0. 0. 6.37576729e-02 0. 0. 0. 0.
      0. 0. 0. 3.18788365e-02 0. 3.18788365e-02 0. 0. 0. 0. 0.
      3.18788365e-02 3.18788365e-02 3.18788365e-02 0. 2.55030692e-01 0.
      3.18788350e-01 0. 3.18788365e-02 0. 0. 0. 0. 0. 0. 0. 0. 0. 0. 0.
      0. 0. 0. 0. 3.18788365e-02 0. 0. 0. 0. 0. 0. 0. 3.18788365e-02 0.
      0. 0. 3.18788365e-02 6.37576729e-02 3.18788365e-02 0.
      3.18788365e-02 0. 0. 6.37576729e-02 0. 0. 0. 0. 0. 0. 0. 0. 0. 0.
      0. 0. 0. 0. 0. 0. 0. 0. 0. 0. 0. 0. 0. 0. 3.18788365e-02
      3.18788365e-02 0. 6.37576729e-02 3.18788365e-02 6.37576729e-02 0.
      6.37576729e-02 0. 0. 0. 0. 0. 0. 0. 0. 0. 0. 0. 0. 0. 0. 0. 0. 0.
      0. 0. 0. 0. 0. 0. 0. 0. 3.18788365e-02 0. 0. 0. 0. 0. 0. 0. 0. 0.
      0. 0. 0. 0. 3.18788365e-02 0. 0. 0. 0. 0. 0. 0. 0. 0. 0. 0. 0. 0.
      3.18788365e-02 0. 0. 0. 3.18788365e-02 0. 9.56365094e-02
      6.37576729e-02 1.27515346e-01 0. 2.23151863e-01 0. 3.18788365e-02
      0. 3.18788365e-02 0. 0. 0. 3.18788365e-02 0. 0. 0. 9.56365094e-02
      0. 0. 0. 3.18788365e-02 0. 0. 0. 0. 0. 3.18788365e-02 0. 0.
      3.18788365e-02 1.27515346e-01 6.37576729e-02 2.86909521e-01
      6.37576729e-02 1.91273019e-01 0. 1.59394175e-01 0. 0. 0.
      6.37576729e-02 0. 0. 0. 0. 0. 6.37576729e-02 0. 6.37576729e-02
      3.18788365e-02 3.18788365e-02 0. 9.56365094e-02 0. 0. 0.
      3.18788365e-02 0. 0. 0. 0. 0. 1.27515346e-01 6.37576729e-02
      5.10061383e-01</_>
    <_>
      4.76233959e-01 5.58777809e-01 6.78946614e-01 0. 0. 0. 0. 0. 0. 0.
      8.25516507e-03 0. 0. 0. 0. 0. 0. 0. 0. 0. 0. 0. 0. 0. 0. 0. 0. 0.
      0. 0. 0. 0. 0. 0. 0. 0. 0. 0. 0. 0. 0. 0. 0. 0. 0. 0.
      1.98123962e-01 9.24578428e-01 0. 0. 0. 0. 0. 2.88930774e-01 0. 0.
      0. 0. 0. 0. 0. 0. 0. 0. 0. 0. 0. 0. 0. 0. 0. 0. 0. 0. 0. 0. 0. 0.
