<?xml version="1.0"?>
<opencv_storage>
<opencv_ml_svm>
  <format>3</format>
  <svmType>C_SVC</svmType>
  <kernel>
    <type>RBF</type>
    <gamma>5.0625000000000009e-01</gamma></kernel>
  <C>2.5000000000000000e+00</C>
  <term_criteria><iterations>100</iterations></term_criteria>
  <var_count>475</var_count>
  <class_count>2</class_count>
  <class_labels type_id="opencv-matrix">
    <rows>2</rows>
    <cols>1</cols>
    <dt>i</dt>
    <data>
      1 2</data></class_labels>
  <sv_total>150</sv_total>
  <support_vectors>
    <_>
      6.49695933e-01 5.39832592e-01 5.35234451e-01 6.94997907e-01 0. 0.
      0. 0. 0. 0. 0. 0. 0. 0. 0. 0. 0. 0. 0. 0. 0. 0. 0. 0. 0. 0. 0. 0.
      0. 0. 0. 0. 0. 0. 0. 0. 0. 0. 0. 1.54443964e-01 2.80807223e-02 0.
      0. 0. 0. 3.51008996e-02 6.80957496e-01 0. 0. 0. 0. 0. 0. 0. 0. 0.
      0. 0. 0. 0. 0. 0. 0. 0. 0. 0. 0. 0. 0. 0. 0. 0. 0. 0. 0. 0. 0. 0.
      0. 0. 0. 0. 1.26363248e-01 7.02018058e-03 0. 0. 0. 0. 0.
      3.51008996e-02 1.40403612e-02 0. 0. 0. 0. 0. 0. 0. 0. 0. 0. 0. 0.
      0. 0. 0. 0. 0. 0. 0. 0. 0. 0. 0. 0. 0. 0. 0. 0. 0. 0. 0. 0. 0. 0.
      0. 0. 0. 0. 0. 0. 0. 9.82825235e-02 7.02018058e-03 0. 0. 0. 0. 0.
      0. 0. 0. 0. 0. 0. 0. 0. 0. 0. 0. 0. 0. 0. 0. 0. 0. 0. 0. 0. 0. 0.
      0. 0. 0. 0. 0. 0. 0. 0. 0. 0. 0. 0. 0. 0. 1.40403612e-02 0. 0. 0.
      0. 0. 0. 0. 0. 0. 0. 0. 0. 0. 0. 0. 0. 0. 0. 0. 0. 0. 0. 0. 0. 0.
      0. 0. 0. 0. 0. 0. 0. 0. 0. 0. 0. 0. 0. 0. 0. 0. 0. 7.02018058e-03
      3.08301002e-01 2.56917495e-02 5.13834991e-02 0. 7.70752504e-02
      2.56917495e-02 5.13834991e-02 1.28458753e-01 1.28458753e-01 0. 0.
      0. 5.13834991e-02 0. 7.70752504e-02 3.85376245e-01 0. 0. 0. 0. 0.
      2.56917495e-02 0. 0. 2.56917495e-02 0. 0. 2.56917495e-02
      5.13834991e-02 2.56917495e-02 1.02766998e-01 2.56917495e-02
      5.13834991e-02 0. 0. 0. 0. 0. 0. 0. 2.56917495e-02 0. 0.
      2.56917495e-02 2.56917495e-02 0. 0. 0. 2.56917495e-02 0. 0. 0. 0.
      2.56917495e-02 0. 0. 1.28458753e-01 0. 2.56917495e-02 0.
      1.02766998e-01 0. 2.56917495e-02 1.54150501e-01 5.13834991e-02
      5.13834991e-02 0. 2.56917495e-02 0. 0. 0. 2.56917495e-02
      7.70752504e-02 0. 0. 0. 0. 0. 2.56917495e-02 2.56917495e-02 0. 0.
      0. 0. 0. 0. 0. 0. 0. 0. 0. 0. 0. 0. 2.56917495e-02 2.56917495e-02
      2.56917495e-02 0. 0. 2.56917495e-02 0. 0. 0. 2.56917495e-02 0. 0.
      0. 0. 0. 0. 0. 0. 2.56917495e-02 0. 2.56917495e-02 0. 0. 0. 0.
      2.56917495e-02 1.54150501e-01 2.56917495e-02 0. 5.13834991e-02
      2.56917495e-02 5.13834991e-02 2.56917495e-02 7.70752504e-02
      5.13834991e-02 1.02766998e-01 2.56917495e-02 5.13834991e-02 0. 0.
      0. 2.05533996e-01 0. 0. 2.56917495e-02 2.56917495e-02
      5.13834991e-02 2.56917495e-02 0. 2.82609254e-01 0. 0. 0. 0. 0. 0.
      2.56917495e-02 2.56917495e-02 0. 0. 0. 0. 0. 0. 0. 5.13834991e-02
      0. 0. 0. 2.56917495e-02 0. 0. 0. 0. 0. 0. 0. 0. 0. 0. 0.
      1.02766998e-01 2.56917495e-02 2.56917495e-02 0. 0. 0. 0. 0. 0. 0.
      0. 0. 2.56917495e-02 2.56917495e-02 0. 0. 7.70752504e-02
      5.13834991e-02 1.02766998e-01 0. 7.70752504e-02 0. 0.
      2.56917495e-02 5.13834991e-02 2.56917495e-02 0. 2.56917495e-02
      2.56917495e-02 0. 0. 0. 5.13834991e-02 2.56917495e-02
      2.56917495e-02 0. 0. 0. 0. 0. 2.56917495e-02 0. 2.56917495e-02 0.
      2.56917495e-02 2.56917495e-02 0. 5.13834991e-02 2.56917495e-02
      5.13834991e-02 1.54150501e-01 0. 1.28458753e-01 0. 2.56917495e-02
      0. 2.56917495e-02 2.56917495e-02 2.56917495e-02 0. 0. 0. 0.
      2.56917495e-02 1.28458753e-01 1.02766998e-01 1.28458753e-01
      2.56917495e-02 5.13834991e-02 2.56917495e-02 2.56917495e-02
      2.56917495e-02 1.02766998e-01 7.70752504e-02 2.56917495e-02 0.
      7.70752504e-02 2.56917495e-02 1.02766998e-01 5.13834991e-02
      4.88143235e-01</_>
    <_>
      3.70261490e-01 6.84450626e-01 6.28039718e-01 0. 0. 0. 0. 0. 0. 0.
      0. 0. 0. 0. 0. 0. 0. 2.64361594e-02 0. 0. 0. 0. 0. 0. 0. 0. 0. 0.
      0. 0. 0. 0. 0. 0. 0. 0. 0. 0. 0. 0. 0. 0. 0. 0. 0. 0. 0. 0. 0. 0.
      0. 0. 0. 9.83425200e-01 0. 0. 0. 0. 0. 1.74478665e-01
      3.70106250e-02 0. 0. 0. 0. 0. 0. 0. 0. 0. 0. 0. 0. 0. 0. 0. 0. 0.
      0. 0. 0. 0. 0. 0. 0. 0. 0. 0. 0. 0. 0. 0. 0. 0. 0. 1.05744647e-02
      1.58616975e-02 0. 0. 0. 0. 0. 0. 0. 0. 0. 0. 0. 0. 0. 0. 0. 0. 0.
      0. 0. 0. 0. 0. 0. 0. 0. 0. 0. 0. 0. 0. 0. 0. 0. 0. 0. 0. 0. 0. 0.
      0. 0. 0. 0. 0. 0. 0. 0. 0. 0. 0. 0. 0. 0. 0. 0. 0. 0. 0. 0. 0. 0.
      0. 0. 0. 0. 0. 0. 0. 0. 0. 0. 0. 0. 0. 0. 0. 0. 0. 0. 0. 0. 0. 0.
      0. 0. 0. 0. 0. 0. 0. 0. 0. 0. 0. 0. 0. 0. 0. 0. 0. 0. 0. 0. 0. 0.
      0. 0. 0. 0. 0. 0. 0. 0. 0. 0. 0. 0. 0. 0. 0. 0. 0. 2.99604088e-01
      5.44734709e-02 1.36183679e-01 8.17102045e-02 2.72367354e-02 0. 0.
      5.44734709e-02 2.72367354e-02 0. 2.72367354e-02 0. 2.72367354e-02
      0. 1.08946942e-01 2.72367354e-02 5.44734709e-02 0. 0. 0. 0. 0. 0.
      0. 8.17102045e-02 0. 1.08946942e-01 0. 0. 2.72367354e-02
      1.08946942e-01 8.17102045e-02 5.44734709e-02 0. 0. 0.
      5.44734709e-02 0. 0. 0. 2.72367354e-02 0. 0. 0. 2.72367354e-02 0.
      5.44734709e-02 2.72367354e-02 1.08946942e-01 0. 0. 2.72367354e-02
      0. 2.72367354e-02 0. 2.72367354e-02 2.72367354e-02 0. 0.
      2.72367354e-02 1.36183679e-01 2.72367354e-02 5.44734709e-02
      8.17102045e-02 5.44734709e-02 0. 0. 0. 0. 0. 2.72367354e-02 0.
      2.72367354e-02 0. 0. 0. 0. 0. 0. 0. 0. 0. 0. 2.72367354e-02 0. 0.
      0. 0. 0. 0. 0. 0. 2.72367354e-02 0. 2.72367354e-02 5.44734709e-02
      2.72367354e-02 0. 0. 0. 2.72367354e-02 0. 2.72367354e-02
      2.72367354e-02 0. 0. 0. 0. 0. 0. 2.72367354e-02 0. 8.17102045e-02
      2.72367354e-02 0. 0. 2.72367354e-02 0. 0. 0. 8.17102045e-02
      2.72367354e-02 0. 8.17102045e-02 8.17102045e-02 0. 8.17102045e-02
      5.44734709e-02 2.72367354e-02 8.17102045e-02 0. 1.08946942e-01 0.
      0. 0. 2.72367354e-02 0. 0. 0. 0. 0. 0. 0. 1.08946942e-01 0.
      2.72367354e-02 0. 0. 0. 0. 0. 0. 0. 2.72367354e-02 2.72367354e-02
      2.72367354e-02 0. 2.72367354e-02 2.72367354e-02 2.72367354e-02
      5.44734709e-02 2.72367354e-02 2.72367354e-02 0. 0. 0. 0. 0. 0. 0.
      0. 0. 0. 0. 0. 0. 0. 0. 0. 0. 0. 0. 0. 5.44734709e-02 0. 0. 0.
      2.72367354e-02 0. 5.44734709e-02 0. 5.44734709e-02 2.72367354e-02
      0. 2.72367354e-02 5.44734709e-02 2.72367354e-02 0. 2.72367354e-02
      5.44734709e-02 0. 0. 0. 0. 0. 0. 0. 8.17102045e-02 0.
      2.72367354e-02 2.72367354e-02 5.44734709e-02 0. 0. 0. 0. 0. 0. 0.
      2.72367354e-02 2.72367354e-02 0. 0. 1.36183679e-01 5.44734709e-02
      1.36183679e-01 0. 5.44734709e-02 2.72367354e-02 0. 2.72367354e-02
      0. 0. 2.72367354e-02 0. 2.72367354e-02 2.72367354e-02 0. 0. 0.
      2.72367354e-02 0. 0. 1.08946942e-01 0. 0. 0. 1.08946942e-01
      8.17102045e-02 1.36183679e-01 0. 5.44734709e-02 5.44734709e-02
      1.08946942e-01 1.63420409e-01 7.08155096e-01</_>
    <_>
      3.86499137e-01 6.75624669e-01 6.27813399e-01 0. 0. 0. 0. 0. 0. 0.
      0. 0. 0. 0. 0. 0. 0. 0. 0. 0. 0. 0. 0. 0. 0. 0. 0. 0. 0. 0. 0. 0.
      0. 0. 0. 0. 0. 0. 0. 0. 0. 0. 0. 0. 0. 0. 0. 0. 0. 0. 0. 0. 0.
      8.56800191e-03 0. 0. 0. 0. 0. 7.71120191e-02 5.05512118e-01 0. 0.
      0. 0. 0. 0. 0. 0. 0. 0. 0. 0. 0. 0. 0. 0. 0. 0. 0. 0. 0. 0. 0. 0.
      0. 0. 0. 0. 0. 0. 0. 0. 0. 0. 0. 8.48232210e-01 0. 0. 0. 0. 0.
      1.37088031e-01 8.56800191e-03 0. 0. 0. 0. 0. 0. 0. 0. 0. 0. 0. 0.
      0. 0. 0. 0. 0. 0. 0. 0. 0. 0. 0. 0. 0. 0. 0. 0. 0. 0. 0. 0. 0. 0.
      0. 8.56800191e-03 0. 0. 0. 0. 0. 0. 0. 0. 0. 0. 0. 0. 0. 0. 0. 0.
      0. 0. 0. 0. 0. 0. 0. 0. 0. 0. 0. 0. 0. 0. 0. 0. 0. 0. 0. 0. 0. 0.
      0. 0. 0. 0. 0. 0. 0. 0. 0. 0. 0. 0. 0. 0. 0. 0. 0. 0. 0. 0. 0. 0.
      0. 0. 0. 0. 0. 0. 0. 0. 0. 0. 0. 0. 0. 0. 0. 0. 0. 0. 0.
      4.06017393e-01 0. 1.84553355e-01 7.38213435e-02 3.69106717e-02 0.
      7.38213435e-02 3.69106717e-02 1.47642687e-01 0. 0. 7.38213435e-02
      1.84553355e-01 3.69106717e-02 1.84553355e-01 2.21464038e-01 0. 0.
      0. 0. 0. 0. 0. 3.69106717e-02 7.38213435e-02 3.69106717e-02 0.
      7.38213435e-02 3.69106717e-02 0. 3.69106717e-02 7.38213435e-02
      1.84553355e-01 0. 0. 3.69106717e-02 0. 0. 0. 0. 3.69106717e-02 0.
      0. 0. 0. 3.69106717e-02 0. 0. 3.69106717e-02 0. 0. 0. 0. 0.
      3.69106717e-02 0. 1.84553355e-01 0. 3.69106717e-02 3.69106717e-02
      7.38213435e-02 0. 0. 1.10732019e-01 0. 0. 0. 0. 0. 0. 0.
      3.69106717e-02 0. 0. 0. 0. 0. 0. 0. 0. 0. 0. 0. 0. 0. 0. 0. 0. 0.
      0. 0. 0. 0. 0. 0. 3.69106717e-02 7.38213435e-02 0. 3.69106717e-02
      3.69106717e-02 3.69106717e-02 0. 7.38213435e-02 0. 0. 0. 0. 0. 0.
      0. 3.69106717e-02 0. 3.69106717e-02 0. 0. 3.69106717e-02
      3.69106717e-02 0. 3.69106717e-02 0. 7.38213435e-02 3.69106717e-02
      0. 0. 7.38213435e-02 0. 3.69106717e-02 2.21464038e-01
      7.38213435e-02 7.38213435e-02 3.69106717e-02 1.47642687e-01 0.
      3.69106717e-02 0. 3.69106717e-02 0. 0. 0. 0. 0. 7.38213435e-02
      3.69106717e-02 1.10732019e-01 3.69106717e-02 0. 0. 0. 0. 0.
      3.69106717e-02 3.69106717e-02 0. 0. 0. 0. 3.69106717e-02 0. 0.
      1.10732019e-01 0. 0. 0. 0. 0. 0. 0. 0. 0. 0. 0. 0. 0. 0. 0. 0. 0.
      0. 0. 0. 0. 0. 0. 3.69106717e-02 0. 0. 0. 0. 0. 0. 0.
      1.10732019e-01 7.38213435e-02 3.69106717e-02 0. 1.10732019e-01 0.
      3.69106717e-02 3.69106717e-02 7.38213435e-02 0. 0. 0.
      3.69106717e-02 7.38213435e-02 3.69106717e-02 3.69106717e-02
      3.69106717e-02 0. 0. 0. 0. 0. 0. 0. 0. 0. 3.69106717e-02 0. 0. 0.
      0. 0. 1.47642687e-01 3.69106717e-02 1.10732019e-01 0.
      3.69106717e-02 3.69106717e-02 0. 0. 0. 0. 3.69106717e-02 0. 0. 0.
      0. 0. 0. 0. 3.69106717e-02 3.69106717e-02 0. 0. 3.69106717e-02 0.
      0. 7.38213435e-02 1.47642687e-01 0. 3.69106717e-02 3.69106717e-02
      7.38213435e-02 3.69106717e-02 4.79838729e-01</_>
    <_>
      3.79615366e-01 6.70443773e-01 6.37492955e-01 0. 0. 0. 0. 0. 0. 0.
      0. 0. 0. 0. 0. 0. 0. 0. 0. 0. 0. 0. 0. 0. 0. 0. 0. 0. 0. 0. 0. 0.
      0. 0. 0. 0. 0. 0. 0. 0. 0. 0. 0. 0. 0. 0. 0. 0. 0. 0. 0. 0. 0.
      9.05906260e-01 0. 0. 0. 0. 0. 3.31191540e-01 2.04559490e-01 0. 0.
      0. 0. 0. 0. 0. 0. 0. 0. 0. 0. 0. 0. 0. 0. 0. 0. 0. 0. 0. 0. 0. 0.
      0. 0. 0. 0. 0. 0. 0. 0. 0. 0. 1.94818564e-02 1.65595770e-01 0. 0.
      0. 0. 0. 0. 0. 0. 0. 0. 0. 0. 0. 0. 0. 0. 0. 0. 0. 0. 0. 0. 0. 0.
      0. 0. 0. 0. 0. 0. 0. 0. 0. 0. 0. 0. 0. 0. 0. 0. 0. 0. 0. 0. 0. 0.
      0. 0. 0. 0. 0. 0. 0. 0. 0. 0. 0. 0. 0. 0. 0. 0. 0. 0. 0. 0. 0. 0.
      0. 0. 0. 0. 0. 0. 0. 0. 0. 0. 0. 0. 0. 0. 0. 0. 0. 0. 0. 0. 0. 0.
      0. 0. 0. 0. 0. 0. 0. 0. 0. 0. 0. 0. 0. 0. 0. 0. 0. 0. 0. 0. 0. 0.
      0. 0. 0. 0. 0. 0. 0. 0. 0. 0. 7.57554024e-02 3.78777012e-02
      7.57554024e-02 7.57554024e-02 3.78777012e-02 0. 1.13633104e-01
      3.78777012e-02 3.78777012e-02 0. 0. 3.78777012e-02 0. 0.
      7.57554024e-02 7.57554024e-02 0. 0. 3.78777012e-02 0. 0. 0. 0. 0.
      3.78777012e-02 3.78777012e-02 0. 0. 3.78777012e-02 0.
      3.78777012e-02 1.51510805e-01 7.57554024e-02 0. 0. 0. 0. 0.
      3.78777012e-02 0. 3.78777012e-02 0. 0. 0. 3.78777012e-02 0. 0. 0.
      0. 0. 0. 0. 0. 0. 0. 0. 1.89388514e-01 0. 0. 0. 1.51510805e-01 0.
      7.57554024e-02 3.78777012e-02 7.57554024e-02 3.78777012e-02 0.
      3.78777012e-02 0. 0. 0. 0. 0. 0. 0. 0. 0. 0. 0. 0. 0. 0. 0. 0. 0.
      0. 0. 0. 0. 0. 0. 0. 3.78777012e-02 3.78777012e-02 3.78777012e-02
      0. 3.78777012e-02 3.78777012e-02 3.78777012e-02 0. 0. 0.
      3.78777012e-02 0. 0. 0. 3.78777012e-02 0. 3.78777012e-02 0. 0. 0.
      0. 0. 0. 0. 0. 0. 0. 0. 7.57554024e-02 0. 0. 0. 7.57554024e-02
      1.13633104e-01 1.13633104e-01 1.51510805e-01 3.78777012e-02
      3.78777012e-02 0. 3.78777012e-02 0. 0. 0. 0. 0. 0. 0.
      3.78777012e-02 0. 0. 0. 3.78777012e-02 0. 0. 0. 0. 0. 0. 0.
      3.78777012e-02 0. 3.78777012e-02 0. 0. 0. 3.78777012e-02 0.
      7.57554024e-02 0. 0. 0. 0. 0. 0. 0. 0. 0. 0. 0. 0. 0. 0. 0. 0. 0.
      3.78777012e-02 0. 3.78777012e-02 0. 0. 0. 0. 0. 0. 0. 0.
      3.78777012e-02 3.78777012e-02 3.78777012e-02 7.57554024e-02
      3.78777012e-02 1.13633104e-01 0. 3.03021610e-01 3.78777012e-02 0.
      0. 0. 0. 0. 0. 0. 0. 0. 7.57554024e-02 3.78777012e-02
      3.78777012e-02 0. 0. 0. 3.78777012e-02 0. 0. 3.78777012e-02 0. 0.
      0. 3.78777012e-02 0. 0. 0. 1.51510805e-01 7.57554024e-02 0. 0.
      1.51510805e-01 0. 0. 0. 3.78777012e-02 0. 3.78777012e-02 0.
      3.78777012e-02 3.78777012e-02 0. 0. 3.78777012e-02 0.
      7.57554024e-02 0. 1.13633104e-01 3.78777012e-02 3.78777012e-02 0.
      2.27266207e-01 0. 1.51510805e-01 0. 1.51510805e-01 7.57554024e-02
      1.13633104e-01 3.78777012e-02 6.43920898e-01</_>
    <_>
      3.31166148e-01 6.90830946e-01 6.42714202e-01 0. 0. 0. 0. 0. 0. 0.
      0. 0. 0. 0. 0. 0. 0. 0. 0. 0. 0. 0. 0. 0. 0. 0. 0. 0. 0. 0. 0. 0.
      0. 0. 0. 0. 0. 0. 0. 0. 0. 0. 0. 0. 0. 0. 0. 0. 0. 0. 0. 0. 0. 0.
      0. 0. 0. 0. 0. 0. 9.73010659e-01 0. 0. 0. 0. 0. 1.31487921e-01 0.
      0. 0. 0. 0. 0. 0. 0. 0. 0. 0. 0. 0. 0. 0. 0. 0. 0. 0. 0. 0. 0. 0.
      0. 0. 0. 0. 0. 0. 1.57785505e-01 0. 0. 0. 0. 0. 1.05190337e-01 0.
      0. 0. 0. 0. 0. 0. 0. 0. 0. 0. 0. 0. 0. 0. 0. 0. 0. 0. 0. 0. 0. 0.
      0. 0. 0. 0. 0. 0. 0. 0. 0. 0. 0. 0. 0. 0. 0. 0. 0. 0. 0. 0. 0. 0.
      0. 0. 0. 0. 0. 0. 0. 0. 0. 0. 0. 0. 0. 0. 0. 0. 0. 0. 0. 0. 0. 0.
      0. 0. 0. 0. 0. 0. 0. 0. 0. 0. 0. 0. 0. 0. 0. 0. 0. 0. 0. 0. 0. 0.
      0. 0. 0. 0. 0. 0. 0. 0. 0. 0. 0. 0. 0. 0. 0. 0. 0. 0. 0. 0. 0. 0.
      0. 0. 0. 0. 0. 3.16227764e-01 0. 0. 0. 0. 1.05409257e-01 0. 0. 0.
      0. 0. 1.05409257e-01 0. 0. 0. 0. 0. 0. 0. 0. 0. 0. 0. 0. 0. 0. 0.
      0. 0. 0. 2.10818514e-01 0. 0. 0. 0. 0. 1.05409257e-01 0. 0. 0.
      1.05409257e-01 0. 0. 0. 0. 0. 0. 0. 0. 0. 0. 0. 0. 0. 0.
      1.05409257e-01 1.05409257e-01 0. 0. 0. 1.05409257e-01 0. 0. 0. 0.
      0. 0. 0. 0. 0. 0. 1.05409257e-01 0. 0. 0. 0. 0. 0. 0. 0. 0. 0. 0.
      0. 0. 0. 0. 0. 0. 1.05409257e-01 0. 0. 0. 0. 0. 0. 0. 0. 0. 0. 0.
      0. 1.05409257e-01 0. 0. 0. 0. 0. 1.05409257e-01 0. 1.05409257e-01
      0. 0. 0. 0. 0. 0. 0. 1.05409257e-01 0. 1.05409257e-01
      1.05409257e-01 0. 1.05409257e-01 0. 2.10818514e-01 0. 0. 0.
      1.05409257e-01 1.05409257e-01 0. 0. 0. 0. 0. 0. 0. 0. 0.
      1.05409257e-01 0. 0. 1.05409257e-01 0. 1.05409257e-01 0. 0. 0. 0.
      0. 0. 0. 0. 0. 0. 0. 1.05409257e-01 0. 0. 0. 0. 0. 0. 0. 0. 0.
      1.05409257e-01 0. 0. 0. 0. 0. 0. 0. 0. 0. 0. 0. 0. 0.
      1.05409257e-01 0. 0. 0. 0. 0. 0. 1.05409257e-01 0. 0.
      1.05409257e-01 0. 1.05409257e-01 0. 0. 0. 0. 0. 3.16227764e-01 0.
      0. 0. 0. 0. 0. 0. 0. 0. 1.05409257e-01 0. 0. 0. 0. 0. 0. 0. 0. 0.
      1.05409257e-01 1.05409257e-01 0. 0. 1.05409257e-01 0. 0. 0.
      2.10818514e-01 0. 0. 0. 1.05409257e-01 0. 0. 0. 0. 0. 0. 0.
      1.05409257e-01 0. 1.05409257e-01 0. 0. 0. 0. 0. 0. 1.05409257e-01
      0. 0. 0. 0. 0. 0. 5.27046263e-01</_>
    <_>
      4.01220500e-01 6.64964676e-01 6.29955590e-01 0. 0. 0. 0. 0. 0. 0.
      0. 0. 0. 0. 0. 0. 0. 0. 0. 0. 0. 0. 0. 0. 0. 0. 0. 0. 0. 0. 0. 0.
      0. 0. 0. 0. 0. 0. 0. 0. 0. 0. 0. 0. 0. 0. 0. 0. 0. 0. 0. 0. 0. 0.
      0. 0. 0. 0. 0. 1.45910934e-01 4.15284961e-01 0. 0. 0. 0. 0. 0. 0.
      0. 0. 0. 0. 0. 0. 0. 0. 0. 0. 0. 0. 0. 0. 0. 0. 0. 0. 0. 0. 0. 0.
      0. 0. 0. 0. 0. 0. 8.97913396e-01 0. 0. 0. 0. 0. 0. 0. 0. 0. 0. 0.
      0. 0. 0. 0. 0. 0. 0. 0. 0. 0. 0. 0. 0. 0. 0. 0. 0. 0. 0. 0. 0. 0.
      0. 0. 0. 0. 0. 0. 0. 0. 0. 0. 0. 0. 0. 0. 0. 0. 0. 0. 0. 0. 0. 0.
      0. 0. 0. 0. 0. 0. 0. 0. 0. 0. 0. 0. 0. 0. 0. 0. 0. 0. 0. 0. 0. 0.
      0. 0. 0. 0. 0. 0. 0. 0. 0. 0. 0. 0. 0. 0. 0. 0. 0. 0. 0. 0. 0. 0.
      0. 0. 0. 0. 0. 0. 0. 0. 0. 0. 0. 0. 0. 0. 0. 0. 0. 0. 0. 0. 0. 0.
      0. 2.90700942e-01 0. 9.69003141e-02 0. 4.84501570e-02 0. 0. 0. 0.
      9.69003141e-02 0. 0. 0. 0. 0. 0. 0. 0. 0. 0. 0. 0. 0. 0. 0. 0. 0.
      0. 4.84501570e-02 0. 0. 0. 1.93800628e-01 0. 0. 4.84501570e-02
      4.84501570e-02 0. 0. 0. 0. 0. 0. 4.84501570e-02 4.84501570e-02 0.
      4.84501570e-02 0. 0. 0. 4.84501570e-02 0. 4.84501570e-02 0. 0. 0.
      4.84501570e-02 0. 0. 0. 4.84501570e-02 0. 4.84501570e-02 0. 0. 0.
      4.84501570e-02 9.69003141e-02 0. 0. 0. 0. 4.84501570e-02
      4.84501570e-02 0. 0. 4.84501570e-02 0. 0. 0. 0. 0. 0. 0. 0. 0.
      4.84501570e-02 0. 0. 0. 0. 0. 4.84501570e-02 0. 0. 4.84501570e-02
      9.69003141e-02 0. 9.69003141e-02 0. 0. 0. 0. 0. 0. 4.84501570e-02
      0. 0. 0. 0. 0. 4.84501570e-02 0. 4.84501570e-02 0. 0.
      4.84501570e-02 0. 0. 0. 9.69003141e-02 0. 0. 4.84501570e-02
      4.84501570e-02 1.45350471e-01 0. 4.84501570e-02 0. 4.84501570e-02
      0. 0. 0. 4.84501570e-02 0. 1.93800628e-01 9.69003141e-02 0. 0. 0.
      0. 0. 0. 4.84501570e-02 0. 0. 0. 4.84501570e-02 0. 0. 0. 0. 0. 0.
      0. 0. 0. 0. 0. 0. 0. 4.84501570e-02 0. 0. 0. 0. 0. 0. 0. 0. 0. 0.
      0. 0. 0. 0. 4.84501570e-02 0. 0. 0. 0. 0. 0. 0. 0. 0. 0. 0.
      4.84501570e-02 4.84501570e-02 4.84501570e-02 9.69003141e-02
      4.84501570e-02 4.84501570e-02 0. 9.69003141e-02 0. 0. 0. 0. 0. 0.
      0. 0. 0. 0. 0. 4.84501570e-02 4.84501570e-02 4.84501570e-02 0.
      1.45350471e-01 0. 0. 0. 4.84501570e-02 0. 4.84501570e-02 0.
      4.84501570e-02 0. 0. 0. 4.84501570e-02 4.84501570e-02
      9.69003141e-02 0. 9.69003141e-02 4.84501570e-02 0. 4.84501570e-02
      0. 0. 0. 0. 4.84501570e-02 0. 0. 4.84501570e-02 4.84501570e-02
      2.90700942e-01 9.69003141e-02 4.84501570e-02 0. 0. 4.84501570e-02
      0. 4.84501570e-02 4.84501570e-02 9.69003141e-02 0. 2.90700942e-01
      4.84501570e-02 1.93800628e-01 4.84501570e-02 5.81401885e-01</_>
    <_>
      4.24257487e-01 6.50650978e-01 6.29808605e-01 0. 0. 0. 0. 0. 0. 0.
      0. 0. 0. 0. 0. 0. 0. 0. 0. 0. 0. 0. 0. 0. 0. 0. 0. 0. 0. 0. 0. 0.
      0. 0. 0. 0. 0. 0. 0. 0. 0. 0. 0. 0. 0. 0. 0. 0. 0. 0. 0. 0. 0.
      3.64312753e-02 0. 0. 0. 0. 0. 2.42875181e-02 9.10781920e-02 0. 0.
      0. 0. 0. 0. 0. 0. 0. 0. 0. 0. 0. 0. 0. 0. 0. 0. 0. 0. 0. 0. 0. 0.
      0. 0. 0. 0. 0. 0. 0. 0. 0. 0. 0. 9.89716291e-01 0. 0. 0. 0. 0.
      9.10781920e-02 4.25031558e-02 0. 0. 0. 0. 0. 0. 0. 0. 0. 0. 0. 0.
      0. 0. 0. 0. 0. 0. 0. 0. 0. 0. 0. 0. 0. 0. 0. 0. 0. 0. 0. 0. 0. 0.
      0. 1.21437591e-02 0. 0. 0. 0. 0. 0. 0. 0. 0. 0. 0. 0. 0. 0. 0. 0.
      0. 0. 0. 0. 0. 0. 0. 0. 0. 0. 0. 0. 0. 0. 0. 0. 0. 0. 0. 0. 0. 0.
      0. 0. 0. 0. 0. 0. 0. 0. 0. 0. 0. 0. 0. 0. 0. 0. 0. 0. 0. 0. 0. 0.
      0. 0. 0. 0. 0. 0. 0. 0. 0. 0. 0. 0. 0. 0. 0. 0. 0. 0. 0.
      4.70870942e-01 0. 1.68168187e-01 1.68168187e-01 1.00900918e-01 0.
      3.36336382e-02 6.72672763e-02 0. 6.72672763e-02 0. 0. 0. 0.
      6.72672763e-02 6.72672763e-02 1.34534553e-01 0. 3.36336382e-02 0.
      3.36336382e-02 0. 0. 0. 0. 6.72672763e-02 6.72672763e-02
      3.36336382e-02 6.72672763e-02 3.36336382e-02 1.00900918e-01
      6.72672763e-02 0. 6.72672763e-02 0. 0. 0. 3.36336382e-02 0.
      3.36336382e-02 0. 0. 0. 0. 0. 0. 0. 0. 3.36336382e-02 0. 0. 0. 0.
      0. 0. 0. 0. 3.36336382e-02 0. 0. 1.00900918e-01 0. 1.00900918e-01
      6.72672763e-02 0. 3.36336382e-02 3.36336382e-02 0. 3.36336382e-02
      0. 0. 0. 6.72672763e-02 0. 0. 0. 6.72672763e-02 0. 6.72672763e-02
      0. 3.36336382e-02 0. 0. 0. 0. 0. 0. 0. 0. 0. 0. 0. 0. 0. 0. 0.
      3.36336382e-02 0. 3.36336382e-02 3.36336382e-02 6.72672763e-02 0.
      3.36336382e-02 0. 0. 0. 3.36336382e-02 0. 0. 0. 0. 0.
      3.36336382e-02 3.36336382e-02 0. 3.36336382e-02 0. 0. 0. 0.
      1.68168187e-01 0. 0. 0. 3.36336382e-02 3.36336382e-02
      3.36336382e-02 3.36336382e-02 6.72672763e-02 3.36336382e-02 0.
      6.72672763e-02 0. 3.36336382e-02 3.36336382e-02 6.72672763e-02
      3.36336382e-02 0. 0. 0. 0. 0. 6.72672763e-02 0. 0. 0. 0.
      6.72672763e-02 0. 0. 0. 0. 0. 3.36336382e-02 0. 0. 0. 0.
      3.36336382e-02 6.72672763e-02 3.36336382e-02 1.00900918e-01 0. 0.
      0. 0. 0. 0. 0. 0. 0. 0. 0. 0. 0. 0. 0. 6.72672763e-02
      3.36336382e-02 3.36336382e-02 3.36336382e-02 0. 3.36336382e-02
      3.36336382e-02 0. 3.36336382e-02 0. 0. 3.36336382e-02
      6.72672763e-02 3.36336382e-02 6.72672763e-02 3.36336382e-02
      3.36336382e-02 0. 1.00900918e-01 3.36336382e-02 0. 3.36336382e-02
      6.72672763e-02 0. 3.36336382e-02 0. 0. 0. 0. 3.36336382e-02
      6.72672763e-02 3.36336382e-02 0. 0. 3.36336382e-02 0. 0.
      3.36336382e-02 0. 0. 0. 1.00900918e-01 0. 0. 0. 0. 2.01801836e-01
      6.72672763e-02 1.68168187e-01 0. 3.36336382e-02 0. 0.
      3.36336382e-02 1.00900918e-01 6.72672763e-02 0. 0. 0. 0.
      3.36336382e-02 0. 6.72672763e-02 3.36336382e-02 6.72672763e-02
      3.36336382e-02 3.36336382e-02 3.36336382e-02 0. 0. 1.00900918e-01
      0. 6.72672763e-02 0. 1.00900918e-01 3.36336382e-02 1.00900918e-01
      6.72672763e-02 5.38138211e-01</_>
    <_>
      5.69225430e-01 5.71832776e-01 5.90753555e-01 0. 0. 0. 0. 0. 0. 0.
      0. 0. 0. 0. 0. 0. 0. 0. 0. 0. 0. 0. 0. 0. 0. 0. 0. 0. 0. 0. 0. 0.
      0. 0. 0. 0. 0. 0. 0. 0. 0. 0. 0. 0. 0. 0. 0. 0. 0. 0. 0. 0. 0. 0.
      0. 0. 0. 0. 0. 0. 0. 0. 0. 0. 0. 0. 0. 0. 0. 0. 0. 0. 0. 0. 0. 0.
      0. 0. 0. 0. 0. 0. 0. 0. 0. 0. 0. 0. 0. 0. 0. 0. 0. 0. 0. 0. 0. 0.
      0. 0. 0. 0. 0. 0. 0. 0. 0. 0. 0. 0. 0. 0. 0. 0. 0. 0. 0. 0. 0. 0.
      0. 0. 0. 0. 0. 0. 0. 0. 0. 0. 0. 0. 0. 2.62935441e-02 0. 0. 0. 0.
      0. 5.25870882e-02 0. 0. 0. 0. 0. 0. 0. 0. 0. 0. 0. 0. 0. 0. 0. 0.
      0. 0. 0. 0. 0. 0. 0. 0. 0. 0. 0. 0. 0. 0. 0. 0. 0. 0. 0.
      2.71699965e-01 1.66525781e-01 0. 0. 0. 0. 0. 6.13516010e-02 0. 0.
      0. 0. 0. 0. 0. 0. 0. 0. 0. 0. 0. 0. 0. 0. 0. 0. 0. 0. 0. 0. 0. 0.
      0. 0. 0. 0. 2.62935441e-02 1.05174176e-01 0. 0. 0. 0. 0.
      9.37803030e-01 1.95998386e-01 0. 0. 0. 0. 0. 0. 2.44997982e-02
      7.34993964e-02 0. 0. 0. 0. 0. 0. 2.44997982e-02 0. 0. 0. 0. 0. 0.
      0. 0. 0. 0. 0. 0. 0. 0. 0. 2.44997982e-02 0. 0. 0. 0. 0. 0. 0. 0.
      2.44997982e-02 0. 0. 0. 0. 0. 0. 0. 9.79991928e-02 0. 0. 0. 0. 0.
      0. 2.44997982e-02 0. 0. 2.44997982e-02 0. 0. 0. 0. 0.
      2.44997982e-02 0. 0. 0. 0. 0. 0. 0. 4.89995964e-02 0. 0. 0. 0. 0.
      0. 0. 0. 0. 0. 0. 0. 0. 0. 0. 0. 0. 0. 0. 0. 0. 0. 2.44997982e-02
      1.22498989e-01 0. 0. 0. 0. 0. 0. 0. 0. 0. 0. 0. 0. 0. 0. 0.
      9.79991928e-02 2.44997982e-02 0. 0. 0. 0. 0. 0. 3.91996771e-01 0.
      0. 4.89995964e-02 2.44997982e-02 0. 0. 2.44997982e-02
      1.22498989e-01 2.44997982e-02 2.44997982e-02 0. 4.89995964e-02
      2.44997982e-02 4.89995964e-02 5.87995172e-01 1.46998793e-01 0. 0.
      0. 0. 0. 0. 9.79991928e-02 2.44997982e-02 0. 0. 0. 0. 0. 0.
      2.44997982e-02 2.44997982e-02 0. 0. 0. 0. 0. 0. 2.44997982e-02 0.
      0. 0. 0. 0. 0. 0. 0. 0. 0. 0. 0. 0. 0. 0. 0. 0. 0. 0. 0. 0. 0. 0.
      0. 0. 0. 0. 0. 0. 0. 0. 0. 1.22498989e-01 0. 0. 4.89995964e-02 0.
      0. 0. 4.89995964e-02 2.44997982e-02 0. 0. 0. 0. 0. 0. 0. 0. 0. 0.
      2.44997982e-02 0. 0. 0. 0. 0. 0. 0. 2.44997982e-02 0. 0. 0.
      2.44997982e-02 1.22498989e-01 9.79991928e-02 0. 0. 0. 0. 0.
      2.44997982e-02 2.44997982e-02 0. 0. 0. 0. 0. 0. 2.44997982e-02
      1.95998386e-01 2.20498189e-01 0. 1.71498582e-01 2.44997982e-02 0.
      0. 9.79991928e-02 3.91996771e-01 9.79991928e-02 0. 2.44997982e-02
      2.44997982e-02 2.44997982e-02 2.44997982e-02 1.22498989e-01</_>
    <_>
      5.76259255e-01 5.76259255e-01 5.79526246e-01 0. 0. 0. 0. 0. 0. 0.
      0. 0. 0. 0. 0. 0. 0. 0. 0. 0. 0. 0. 0. 0. 0. 0. 0. 0. 0. 0. 0. 0.
      0. 0. 0. 0. 0. 0. 0. 0. 0. 0. 0. 0. 0. 0. 0. 0. 0. 0. 0. 0. 0. 0.
      0. 0. 0. 0. 0. 0. 0. 0. 0. 0. 0. 0. 0. 0. 0. 0. 0. 0. 0. 0. 0. 0.
      0. 0. 0. 0. 0. 0. 0. 0. 0. 0. 0. 0. 0. 0. 0. 0. 0. 0. 0. 0. 0. 0.
      0. 0. 0. 0. 0. 0. 0. 0. 0. 0. 0. 0. 0. 0. 0. 0. 0. 0. 0. 0. 0. 0.
      0. 0. 0. 0. 0. 0. 0. 0. 0. 0. 0. 0. 4.65070968e-03 0. 0. 0. 0. 0.
      0. 4.65070968e-03 0. 0. 0. 0. 0. 0. 0. 0. 0. 0. 0. 0. 0. 0. 0. 0.
      0. 0. 0. 0. 0. 0. 0. 0. 0. 0. 0. 0. 0. 0. 0. 0. 0. 0. 0.
      4.65070968e-03 4.65070968e-03 0. 0. 0. 0. 9.30141937e-03
      4.65070968e-03 0. 0. 0. 0. 0. 0. 0. 0. 0. 0. 0. 0. 0. 0. 0. 0. 0.
      0. 0. 0. 0. 0. 0. 0. 0. 0. 0. 0. 0. 0. 0. 0. 0. 0. 0.
      9.99902606e-01 1.62922919e-01 4.65494059e-02 2.32747030e-02
      2.32747030e-02 0. 0. 0. 6.98241070e-02 9.30988118e-02 0. 0. 0.
      2.32747030e-02 0. 1.16373517e-01 5.35318196e-01 2.32747030e-02 0.
      0. 0. 0. 0. 0. 2.32747030e-02 0. 0. 0. 0. 4.65494059e-02 0.
      2.56021738e-01 3.49120557e-01 0. 0. 0. 0. 0. 0. 0. 2.32747030e-02
      0. 0. 0. 0. 0. 0. 0. 0. 4.65494059e-02 0. 0. 0. 0. 0. 0. 0.
      4.65494059e-02 0. 0. 0. 0. 0. 1.62922919e-01 9.30988118e-02 0.
      2.32747030e-02 0. 0. 0. 0. 0. 0. 0. 0. 0. 2.32747030e-02 0. 0. 0.
      6.98241070e-02 0. 0. 0. 0. 0. 0. 0. 0. 0. 0. 0. 0. 0. 0.
      2.32747030e-02 0. 2.32747030e-02 2.32747030e-02 0. 0. 0. 0. 0. 0.
      0. 0. 0. 0. 2.32747030e-02 0. 0. 2.32747030e-02 1.16373517e-01 0.
      0. 0. 0. 0. 0. 0. 9.30988118e-02 0. 0. 0. 4.65494059e-02 0.
      6.98241070e-02 1.39648214e-01 4.65494059e-02 0. 0. 0.
      2.32747030e-02 0. 0. 9.30988118e-02 9.30988118e-02 2.32747030e-02
      0. 4.65494059e-02 2.32747030e-02 2.32747030e-02 2.32747030e-02
      6.98241070e-02 2.32747030e-02 2.32747030e-02 0. 0. 0. 0. 0. 0.
      2.32747030e-02 0. 0. 0. 0. 0. 0. 6.98241070e-02 0. 0. 0.
      2.32747030e-02 0. 0. 0. 0. 0. 0. 0. 0. 0. 0. 0. 0. 0.
      2.32747030e-02 0. 0. 0. 0. 0. 4.65494059e-02 2.32747030e-02 0. 0.
      0. 0. 0. 0. 2.32747030e-02 0. 2.32747030e-02 0. 2.32747030e-02 0.
      0. 0. 0. 0. 0. 0. 2.32747030e-02 0. 0. 2.32747030e-02 0.
      2.32747030e-02 0. 0. 0. 0. 0. 0. 0. 0. 0. 0. 0. 0. 0.
      2.32747030e-02 2.32747030e-02 4.65494059e-02 6.98241070e-02 0.
      2.32747030e-02 0. 0. 2.32747030e-02 0. 0. 0. 0. 0. 0. 0. 0.
      6.98241070e-02 1.39648214e-01 2.32747030e-02 0. 4.65494059e-02
      4.65494059e-02 0. 0. 6.98241070e-02 6.98241070e-02 2.32747030e-02
      0. 4.65494059e-02 6.98241070e-02 6.98241070e-02 4.65494059e-02
      5.12043476e-01</_>
    <_>
      5.72464466e-01 5.74913323e-01 5.84601581e-01 0. 0. 0. 0. 0. 0. 0.
      0. 0. 0. 0. 0. 0. 0. 0. 0. 0. 0. 0. 0. 0. 0. 0. 0. 0. 0. 0. 0. 0.
      0. 0. 0. 0. 0. 0. 0. 0. 0. 0. 0. 0. 0. 0. 0. 0. 0. 0. 0. 0. 0. 0.
      0. 0. 0. 0. 0. 0. 0. 0. 0. 0. 0. 0. 0. 0. 0. 0. 0. 0. 0. 0. 0. 0.
      0. 0. 0. 0. 0. 0. 0. 0. 0. 0. 0. 0. 0. 0. 0. 0. 0. 0. 0. 0. 0. 0.
      0. 0. 0. 0. 0. 0. 0. 0. 0. 0. 0. 0. 0. 0. 0. 0. 0. 0. 0. 0. 0. 0.
      0. 0. 0. 0. 0. 0. 0. 0. 0. 0. 0. 0. 0. 0. 0. 0. 0. 0. 0.
      8.72373208e-03 0. 0. 0. 0. 0. 0. 0. 0. 0. 0. 0. 0. 0. 0. 0. 0. 0.
      0. 0. 0. 0. 0. 0. 0. 0. 0. 0. 0. 0. 4.36186604e-03 0. 0. 0. 0. 0.
      1.74474642e-02 3.92567962e-02 0. 0. 0. 0. 4.36186604e-03
      1.74474642e-02 0. 0. 0. 0. 0. 0. 0. 0. 0. 0. 0. 0. 0. 0. 0. 0. 0.
      0. 0. 0. 0. 0. 0. 0. 0. 0. 0. 0. 0. 0. 0. 0. 0. 0. 0.
      9.98867333e-01 2.22871259e-01 2.02610232e-02 2.02610232e-02 0. 0.
      0. 2.02610232e-02 2.02610232e-02 1.41827166e-01 0. 0. 0. 0. 0.
      4.05220464e-02 3.44437391e-01 0. 0. 0. 0. 0. 0. 0. 0. 0. 0. 0. 0.
      0. 0. 2.02610232e-02 0. 4.05220464e-02 0. 0. 0. 0. 0. 0. 0. 0. 0.
      0. 0. 0. 0. 2.02610232e-02 0. 2.02610232e-02 2.02610232e-02 0.
      2.02610232e-02 0. 0. 0. 0. 4.05220464e-02 0. 2.02610232e-02 0.
      2.02610232e-02 0. 1.21566139e-01 2.02610232e-02 0. 0. 0. 0. 0. 0.
      0. 0. 2.02610232e-02 0. 0. 0. 0. 0. 0. 0. 0. 0. 0. 0. 0. 0. 0. 0.
      2.02610232e-02 0. 0. 0. 0. 0. 0. 0. 2.02610232e-02 0. 0. 0. 0. 0.
      0. 0. 2.02610232e-02 2.02610232e-02 0. 0. 0. 0. 2.02610232e-02 0.
      6.07830696e-02 0. 0. 0. 0. 0. 0. 0. 2.22871259e-01 2.02610232e-02
      2.02610232e-02 6.07830696e-02 4.05220464e-02 0. 4.05220464e-02
      6.07830696e-02 1.41827166e-01 2.02610232e-02 0. 4.05220464e-02 0.
      0. 0. 1.01305112e-01 1.21566139e-01 0. 0. 0. 2.02610232e-02 0. 0.
      4.05220464e-02 0. 0. 0. 0. 0. 0. 0. 0. 2.02610232e-02 0.
      2.02610232e-02 0. 0. 0. 0. 0. 0. 0. 0. 2.02610232e-02 0. 0. 0. 0.
      0. 0. 0. 0. 0. 0. 0. 0. 4.05220464e-02 0. 0. 0. 0. 0. 0. 0.
      2.02610232e-02 4.05220464e-02 0. 0. 0. 0. 0. 0. 0. 4.05220464e-02
      0. 8.10440928e-02 0. 0. 0. 1.01305112e-01 0. 0. 2.02610232e-02 0.
      0. 0. 0. 2.02610232e-02 2.02610232e-02 0. 0. 0. 0. 0. 0. 0.
      2.02610232e-02 2.02610232e-02 0. 2.02610232e-02 0. 0. 0.
      6.07830696e-02 0. 0. 0. 8.10440928e-02 0. 0. 0. 4.05220464e-02
      4.05220464e-02 0. 0. 0. 4.05220464e-02 0. 4.05220464e-02 0.
      5.67308664e-01 4.05220464e-02 4.05220464e-02 2.02610232e-02
      4.05220464e-02 0. 4.05220464e-02 1.41827166e-01 4.05220449e-01
      4.05220464e-02 0. 4.05220464e-02 1.01305112e-01 2.02610232e-02
      1.41827166e-01 2.83654332e-01</_>
    <_>
      3.87393385e-01 5.22979975e-01 7.59222150e-01 0. 0. 0. 0. 0. 0. 0.
      0. 0. 0. 0. 0. 0. 0. 0. 0. 0. 0. 0. 0. 0. 0. 0. 0. 0. 0. 0. 0. 0.
      0. 0. 0. 0. 0. 0. 0. 0. 0. 0. 0. 0. 0. 0. 0. 0. 0. 0. 0. 0. 0. 0.
      0. 9.69731901e-03 0. 0. 0. 0. 0. 9.69731901e-03 0. 0. 0. 0. 0. 0.
      0. 0. 0. 0. 0. 0. 0. 0. 0. 0. 0. 0. 0. 0. 0. 0. 0. 0. 0. 0. 0. 0.
      3.87892760e-02 7.75785521e-02 0. 0. 0. 0. 0. 4.16984737e-01
      9.01850700e-01 0. 0. 0. 0. 0. 0. 0. 0. 0. 0. 0. 0. 0. 0. 0. 0. 0.
      0. 0. 0. 0. 0. 0. 0. 0. 0. 0. 0. 0. 0. 0. 0. 0. 0. 6.78812340e-02
      1.93946380e-02 0. 0. 0. 0. 9.69731901e-03 0. 0. 0. 0. 0. 0. 0. 0.
      0. 0. 0. 0. 0. 0. 0. 0. 0. 0. 0. 0. 0. 0. 0. 0. 0. 0. 0. 0. 0. 0.
      0. 0. 0. 0. 0. 0. 0. 0. 0. 0. 0. 0. 0. 0. 0. 0. 0. 0. 0. 0. 0. 0.
      0. 0. 0. 0. 0. 0. 0. 0. 0. 0. 0. 0. 0. 0. 0. 0. 0. 0. 0. 0. 0. 0.
      0. 0. 0. 0. 0. 8.39181393e-02 0. 0. 2.09795348e-02 0. 0. 0.
      2.09795348e-02 4.19590697e-02 0. 0. 0. 0. 0. 0. 0. 0. 0. 0. 0. 0.
      0. 0. 0. 0. 2.09795348e-02 0. 0. 0. 0. 0. 0. 0. 0. 0. 0. 0. 0. 0.
      0. 0. 0. 0. 0. 0. 0. 0. 0. 2.09795348e-02 0. 0. 0. 0. 0. 0. 0. 0.
      0. 0. 0. 0. 0. 0. 0. 4.19590697e-02 0. 0. 0. 0. 0. 0. 0.
      2.09795348e-02 0. 0. 0. 0. 0. 0. 0. 0. 0. 0. 0. 0. 0. 0. 0. 0. 0.
      0. 0. 0. 0. 0. 2.09795348e-02 6.29386008e-02 0. 0. 2.09795348e-02
      0. 0. 0. 0. 2.09795348e-02 0. 0. 0. 0. 0. 0. 0. 1.04897678e-01 0.
      0. 0. 0. 0. 0. 0. 1.04897678e-01 0. 0. 4.19590697e-02 0. 0. 0.
      4.19590697e-02 1.46856740e-01 4.19590697e-02 0. 2.09795348e-02 0.
      0. 0. 4.19590697e-02 0. 0. 0. 0. 0. 0. 0. 2.09795348e-02 0. 0. 0.
      2.09795348e-02 0. 0. 0. 2.09795348e-02 4.19590697e-02 0. 0. 0. 0.
      0. 0. 0. 0. 0. 0. 0. 0. 0. 0. 0. 0. 0. 0. 0. 0. 0. 0. 0.
      2.09795348e-02 0. 0. 0. 0. 0. 0. 2.09795348e-02 0. 0. 0. 0.
      2.09795348e-02 0. 0. 0. 8.39181393e-02 0. 0. 0. 0. 0. 0. 0.
      4.19590697e-02 2.09795348e-02 0. 0. 0. 0. 0. 0. 0. 0. 0. 0. 0. 0.
      0. 0. 0. 0. 0. 0. 0. 0. 2.09795348e-02 0. 1.04897678e-01
      2.09795348e-02 0. 0. 0. 0. 0. 4.19590697e-02 2.09795348e-02 0. 0.
      0. 2.09795348e-02 0. 0. 4.19590697e-02 8.60160947e-01
      2.30774879e-01 0. 2.09795348e-02 2.09795348e-02 0. 0.
      1.46856740e-01 1.46856740e-01 8.39181393e-02 0. 4.19590697e-02 0.
      0. 4.19590697e-02 2.30774879e-01</_>
    <_>
      5.87903678e-01 5.64234912e-01 5.79662204e-01 0. 0. 0. 0. 0. 0. 0.
      0. 0. 0. 0. 0. 0. 0. 0. 0. 0. 0. 0. 0. 0. 0. 0. 0. 0. 0. 0. 0. 0.
      0. 0. 0. 0. 0. 0. 0. 0. 0. 0. 0. 0. 0. 0. 0. 0. 0. 0. 0. 0. 0. 0.
      0. 0. 0. 0. 0. 0. 0. 0. 0. 0. 0. 0. 0. 0. 0. 0. 0. 0. 0. 0. 0. 0.
      0. 0. 0. 0. 0. 0. 0. 0. 0. 0. 0. 0. 0. 0. 0. 0. 0. 0. 0. 0. 0. 0.
      0. 0. 0. 0. 0. 0. 0. 0. 0. 0. 0. 0. 0. 0. 0. 0. 0. 0. 0. 0. 0. 0.
      0. 0. 0. 0. 0. 0. 0. 0. 0. 0. 0. 0. 8.78843814e-02 2.19710954e-02
      0. 0. 0. 0. 0. 1.46473963e-02 0. 0. 0. 0. 0. 0. 0. 0. 0. 0. 0. 0.
      0. 0. 0. 0. 0. 0. 0. 0. 0. 0. 0. 0. 0. 0. 0. 0. 5.85895851e-02
      3.66184898e-02 0. 0. 0. 0. 0. 9.30109739e-01 5.85895851e-02 0. 0.
      0. 0. 0. 0. 0. 0. 0. 0. 0. 0. 0. 0. 0. 0. 0. 0. 0. 0. 0. 0. 0. 0.
      0. 0. 0. 0. 0. 0. 0. 0. 0. 0. 1.39150262e-01 1.46473959e-01 0. 0.
      0. 0. 0. 2.78300524e-01 1.10756166e-01 4.43024673e-02 0.
      2.21512336e-02 4.43024673e-02 0. 2.21512336e-02 8.86049345e-02
      4.43024673e-02 0. 0. 0. 4.43024673e-02 2.21512336e-02 0.
      4.43024673e-02 0. 0. 0. 0. 0. 0. 0. 0. 0. 0. 0. 0. 0. 0. 0. 0.
      6.64537027e-02 0. 0. 0. 0. 0. 0. 0. 0. 0. 0. 0. 2.21512336e-02 0.
      0. 0. 0. 0. 0. 4.43024673e-02 0. 0. 0. 0. 8.86049345e-02 0.
      2.21512336e-02 0. 2.21512336e-02 0. 0. 2.21512336e-02
      6.64537027e-02 0. 0. 0. 0. 0. 0. 0. 2.21512336e-02 0. 0. 0. 0. 0.
      0. 0. 0. 0. 0. 0. 0. 0. 0. 0. 0. 0. 0. 0. 0. 0. 0. 0.
      6.64537027e-02 0. 0. 0. 0. 0. 0. 2.21512336e-02 2.21512336e-02 0.
      0. 0. 2.21512336e-02 0. 0. 0. 2.21512333e-01 0. 0. 0. 0. 0. 0. 0.
      5.75932086e-01 4.43024673e-02 0. 0. 8.86049345e-02 0. 0.
      4.43024673e-02 6.64537027e-02 2.21512336e-02 0. 1.32907405e-01 0.
      0. 0. 1.99361101e-01 0. 0. 0. 2.21512336e-02 0. 0. 0.
      2.21512336e-02 0. 0. 0. 2.21512336e-02 0. 0. 0. 0. 0. 0. 0.
      2.21512336e-02 0. 0. 0. 0. 0. 0. 0. 0. 0. 0. 0. 0. 0. 0. 0. 0. 0.
      0. 0. 0. 0. 0. 0. 0. 0. 0. 0. 2.21512336e-02 0. 2.21512336e-02 0.
      0. 0. 0. 0. 0. 8.86049345e-02 6.64537027e-02 4.43024673e-02
      1.32907405e-01 2.21512336e-02 0. 0. 1.10756166e-01 0. 0. 0. 0.
      2.21512336e-02 0. 2.21512336e-02 6.64537027e-02 0. 2.21512336e-02
      0. 0. 0. 0. 0. 4.43024673e-02 0. 0. 0. 0. 0. 0. 0. 2.21512336e-02
      1.55058637e-01 1.99361101e-01 2.21512336e-02 4.43024673e-02 0. 0.
      0. 1.55058637e-01 4.43024673e-02 0. 0. 2.21512336e-02
      2.21512336e-02 0. 0. 4.43024673e-02 3.98722202e-01 8.86049345e-02
      0. 6.64537027e-02 0. 2.21512336e-02 2.21512336e-02 6.64537027e-02
      3.10117275e-01 8.86049345e-02 0. 1.10756166e-01 4.43024673e-02
      2.21512336e-02 2.21512336e-02 1.99361101e-01</_>
    <_>
      5.39542079e-01 5.77911377e-01 6.12301230e-01 0. 0. 0. 0. 0. 0. 0.
      0. 0. 0. 0. 0. 0. 0. 0. 0. 0. 0. 0. 0. 0. 0. 0. 0. 0. 0. 0. 0. 0.
      0. 0. 0. 0. 0. 0. 0. 0. 0. 0. 0. 0. 0. 0. 0. 0. 0. 0. 0. 0. 0. 0.
      0. 0. 0. 0. 0. 0. 0. 0. 0. 0. 0. 0. 0. 0. 0. 0. 0. 0. 0. 0. 0. 0.
      0. 0. 0. 0. 0. 0. 0. 0. 0. 0. 0. 0. 0. 0. 5.34045883e-02
      1.33511471e-02 0. 0. 0. 0. 2.26969495e-01 2.67022941e-02
      1.33511471e-02 0. 0. 0. 2.67022941e-02 4.00534421e-02 0. 0. 0. 0.
      0. 0. 0. 0. 0. 0. 0. 0. 0. 0. 0. 0. 0. 0. 0. 0. 0. 0. 0. 0. 0. 0.
      0. 0. 2.13618353e-01 2.13618353e-01 4.00534421e-02 0. 0. 0.
      1.33511471e-02 2.26969495e-01 2.67022941e-02 0. 0. 0. 0. 0. 0. 0.
      0. 0. 0. 0. 0. 0. 0. 0. 0. 0. 0. 0. 0. 0. 0. 0. 0. 0. 0. 0. 0. 0.
      0. 0. 0. 0. 0. 3.87183249e-01 6.67557344e-02 0. 0. 0. 0. 0.
      2.67022941e-02 0. 0. 0. 0. 0. 0. 0. 0. 0. 0. 0. 0. 0. 0. 0. 0. 0.
      0. 0. 0. 0. 0. 0. 0. 0. 0. 0. 0. 0. 1.33511471e-02 0. 0. 0. 0. 0.
      8.01068842e-01 3.26035619e-01 3.62261795e-02 3.62261795e-02
      3.62261795e-02 0. 0. 3.62261795e-02 1.08678535e-01 1.81130901e-01
      7.24523589e-02 3.62261795e-02 7.24523589e-02 7.24523589e-02 0.
      1.08678535e-01 2.89809436e-01 3.62261795e-02 3.62261795e-02
      3.62261795e-02 0. 0. 0. 0. 0. 7.24523589e-02 3.62261795e-02 0. 0.
      0. 0. 0. 1.08678535e-01 7.24523589e-02 3.62261795e-02 0. 0. 0. 0.
      0. 3.62261795e-02 0. 0. 0. 0. 0. 0. 0. 0. 1.08678535e-01 0. 0. 0.
      0. 0. 0. 0. 2.17357069e-01 3.62261795e-02 0. 3.62261795e-02
      1.44904718e-01 0. 3.62261795e-02 0. 0. 0. 0. 0. 3.62261795e-02 0.
      0. 0. 0. 0. 0. 0. 0. 0. 0. 7.24523589e-02 3.62261795e-02 0. 0. 0.
      0. 0. 3.62261795e-02 0. 0. 0. 0. 0. 0. 0. 0. 0. 7.24523589e-02 0.
      3.62261795e-02 0. 0. 0. 0. 3.62261795e-02 0. 0. 0. 0. 0. 0. 0. 0.
      2.53583252e-01 0. 0. 0. 0. 0. 0. 0. 1.44904718e-01 3.62261795e-02
      3.62261795e-02 0. 1.81130901e-01 0. 0. 1.44904718e-01
      2.17357069e-01 3.62261795e-02 0. 0. 0. 0. 3.62261795e-02
      3.62261795e-02 3.62261795e-02 0. 0. 0. 3.62261795e-02 0. 0.
      7.24523589e-02 3.62261795e-02 0. 0. 3.62261795e-02 3.62261795e-02
      0. 0. 0. 0. 0. 0. 0. 0. 0. 0. 0. 0. 0. 0. 0. 0. 0. 0. 0. 0. 0. 0.
      0. 0. 0. 0. 0. 0. 3.62261795e-02 0. 3.62261795e-02 0. 0. 0. 0.
      3.62261795e-02 0. 0. 0. 0. 0. 0. 3.62261795e-02 7.24523589e-02
      3.62261795e-02 0. 3.62261795e-02 0. 0. 0. 0. 0. 0. 0. 0. 0. 0. 0.
      3.62261795e-02 0. 0. 0. 0. 0. 0. 0. 0. 0. 0. 3.62261795e-02 0.
      3.62261795e-02 0. 0. 0. 3.62261802e-01 1.08678535e-01 0.
      3.62261795e-02 0. 0. 0. 0. 0. 3.62261795e-02 0. 0. 0. 0.
      3.62261795e-02 7.24523589e-02 1.81130901e-01 2.53583252e-01 0.
      7.24523589e-02 3.62261795e-02 0. 3.62261795e-02 1.08678535e-01
      1.08678535e-01 1.44904718e-01 0. 3.62261795e-02 7.24523589e-02
      7.24523589e-02 0. 2.53583252e-01</_>
    <_>
      5.40557802e-01 5.79194963e-01 6.10188842e-01 0. 0. 0. 0. 0. 0. 0.
      0. 0. 0. 0. 0. 0. 0. 0. 0. 0. 0. 0. 0. 0. 0. 0. 0. 0. 0. 0. 0. 0.
      0. 0. 0. 0. 0. 0. 0. 0. 0. 0. 0. 0. 0. 0. 0. 2.53775232e-02 0. 0.
      0. 0. 0. 0. 0. 0. 0. 0. 0. 0. 1.14198856e-01 0. 0. 0. 0. 0. 0. 0.
      0. 0. 0. 0. 0. 0. 0. 0. 0. 0. 0. 0. 0. 0. 0. 0. 0. 0. 0. 0. 0.
      2.53775232e-02 1.01510093e-01 0. 0. 0. 0. 0. 2.41086468e-01
      2.53775232e-02 0. 0. 0. 0. 0. 1.26887616e-02 0. 0. 0. 0. 0. 0. 0.
      0. 0. 0. 0. 0. 0. 0. 0. 0. 0. 0. 0. 0. 0. 0. 0. 0. 0. 0. 0. 0.
      1.52265146e-01 2.15708941e-01 0. 0. 0. 0. 0. 2.66463995e-01
      1.26887616e-02 0. 0. 0. 0. 0. 0. 0. 0. 0. 0. 0. 0. 0. 0. 0. 0. 0.
      0. 0. 0. 0. 0. 0. 0. 0. 0. 0. 0. 6.34438023e-02 0. 0. 0. 0. 0.
      5.96371830e-01 1.39576375e-01 0. 0. 0. 0. 0. 7.61325732e-02 0. 0.
      0. 0. 0. 0. 0. 0. 0. 0. 0. 0. 0. 0. 0. 0. 0. 0. 0. 0. 0. 0. 0. 0.
      0. 0. 0. 0. 0. 6.34438023e-02 0. 0. 0. 0. 0. 6.21749282e-01
      1.50196671e-01 0. 1.87745839e-02 5.63237518e-02 0. 1.87745839e-02
      0. 5.63237518e-02 1.12647504e-01 0. 0. 3.75491679e-02 0.
      1.87745839e-02 7.50983357e-02 3.56717110e-01 0. 0. 0. 0. 0. 0. 0.
      0. 3.75491679e-02 1.87745839e-02 0. 0. 5.63237518e-02 0.
      3.75491679e-02 7.50983357e-02 0. 1.87745839e-02 0. 0. 0. 0. 0. 0.
      0. 0. 0. 0. 0. 0. 0. 0. 1.12647504e-01 0. 0. 1.87745839e-02 0. 0.
      0. 0. 3.75491679e-02 0. 0. 1.87745839e-02 0. 0. 1.87745839e-02
      3.75491679e-02 0. 0. 0. 0. 0. 0. 0. 0. 0. 0. 0. 0. 0. 0. 0.
      3.75491679e-02 0. 0. 0. 0. 0. 0. 0. 0. 0. 0. 0. 0. 0. 0.
      1.87745839e-02 0. 5.63237518e-02 0. 0. 0. 0. 0. 0. 1.87745839e-02
      0. 0. 0. 0. 0. 0. 0. 0. 1.31422088e-01 0. 0. 0. 0. 0. 0. 0.
      7.50983357e-02 1.87745839e-02 0. 0. 1.87745839e-02 1.87745839e-02
      1.87745839e-02 1.87745839e-02 7.50983357e-02 1.87745839e-02
      1.87745839e-02 0. 0. 1.87745839e-02 1.87745839e-02 3.75491679e-02
      0. 3.75491679e-02 0. 0. 0. 0. 1.87745839e-02 7.50983357e-02 0.
      3.75491679e-02 0. 0. 0. 0. 0. 0. 0. 0. 0. 0. 0. 0. 0. 0. 0. 0. 0.
      0. 0. 0. 0. 0. 0. 0. 0. 0. 0. 0. 0. 1.87745839e-02 0. 0. 0. 0. 0.
      0. 0. 0. 1.87745839e-02 1.87745839e-02 0. 0. 1.87745839e-02 0. 0.
      1.87745839e-02 0. 0. 0. 0. 0. 0. 0. 1.87745839e-02 0. 0. 0. 0. 0.
      0. 1.87745839e-02 0. 0. 0. 0. 0. 0. 0. 0. 0. 0. 0. 0. 0. 0. 0. 0.
      3.75491679e-02 2.25295007e-01 7.50983357e-02 0. 0. 1.87745839e-02
      0. 0. 0. 0. 0. 0. 0. 0. 0. 0. 0. 7.50983357e-01 2.81618774e-01 0.
      1.87745839e-02 0. 0. 0. 1.87745839e-02 1.87745839e-01
      5.63237518e-02 0. 0. 1.87745839e-02 0. 1.87745839e-02
      5.63237518e-02</_>
    <_>
      5.52545607e-01 5.45175970e-01 6.30457342e-01 0. 2.03185633e-01 0.
      0. 0. 0. 0. 1.01592816e-01 0. 0. 0. 0. 0. 0. 0. 0. 0. 0. 0. 0. 0.
      0. 0. 0. 0. 0. 0. 0. 0. 0. 0. 0. 0. 0. 0. 0. 0. 0. 0. 0. 0. 0. 0.
      4.23303396e-01 2.20117778e-01 0. 0. 0. 0. 0. 1.69321373e-02 0. 0.
      0. 0. 0. 0. 0. 0. 0. 0. 0. 0. 0. 0. 0. 0. 0. 0. 0. 0. 0. 0. 0. 0.
      0. 0. 0. 0. 0. 6.77285492e-02 0. 0. 0. 0. 0. 3.89439166e-01
      1.86253503e-01 0. 0. 0. 0. 0. 1.69321373e-02 0. 0. 0. 0. 0. 0. 0.
      0. 0. 0. 0. 0. 0. 0. 0. 0. 0. 0. 0. 0. 0. 0. 0. 0. 0. 0. 0. 0. 0.
      1.69321358e-01 0. 0. 0. 0. 0. 6.77285433e-01 3.38642746e-02 0. 0.
      0. 0. 0. 3.38642746e-02 3.38642746e-02 0. 0. 0. 0. 0. 0. 0. 0. 0.
      0. 0. 0. 0. 0. 0. 0. 0. 0. 0. 0. 0. 0. 0. 0. 0. 0. 0. 0.
      3.38642746e-02 0. 0. 0. 0. 0. 1.18524954e-01 1.52389228e-01 0. 0.
      0. 0. 0. 0. 0. 0. 0. 0. 0. 0. 0. 0. 0. 0. 0. 0. 0. 0. 0. 0. 0. 0.
      0. 0. 0. 0. 0. 0. 0. 0. 0. 0. 0. 0. 0. 0. 0. 0. 0. 0.
      3.76621783e-02 0. 0. 0. 0. 0. 1.88310891e-02 0. 0. 0. 0. 0. 0. 0.
      0. 1.88310891e-02 1.88310891e-02 0. 0. 1.88310891e-02
      3.76621783e-02 0. 0. 0. 0. 0. 0. 0. 3.76621783e-02 0.
      2.82466352e-01 3.76621783e-02 1.88310891e-02 0. 0. 0. 0. 0. 0. 0.
      0. 1.88310891e-02 0. 0. 0. 0. 0. 0. 0. 0. 0. 0. 0. 0. 0. 0.
      3.76621783e-02 0. 0. 0. 0. 1.88310891e-02 3.76621783e-02 0. 0. 0.
      0. 0. 0. 0. 0. 0. 0. 0. 0. 0. 0. 0. 0. 0. 0. 0. 0. 0. 0. 0. 0. 0.
      0. 0. 0. 0. 0. 0. 0. 0. 0. 0. 0. 0. 0. 0. 0. 0. 0. 0. 0. 0. 0. 0.
      0. 0. 2.25973070e-01 0. 1.88310891e-02 0. 0. 0. 0. 0.
      6.96750283e-01 0. 1.88310891e-02 0. 1.31817624e-01 0.
      1.12986535e-01 0. 1.88310891e-02 0. 0. 0. 1.88310891e-02 0. 0. 0.
      0. 0. 0. 0. 0. 0. 0. 0. 0. 0. 0. 0. 0. 0. 0. 0. 0. 0. 0. 0. 0. 0.
      0. 0. 0. 0. 0. 0. 0. 0. 0. 0. 0. 0. 0. 0. 0. 0. 0. 0. 0. 0. 0. 0.
      0. 0. 0. 1.88310891e-02 0. 0. 0. 1.88310891e-02 0. 3.76621783e-02
      0. 0. 0. 0. 0. 0. 0. 0. 0. 0. 0. 0. 0. 0. 0. 0. 0. 0. 0. 0. 0.
      1.88310891e-02 0. 0. 0. 0. 0. 0. 0. 0. 0. 0. 0. 1.88310891e-02 0.
      1.88310891e-02 0. 0. 0. 0. 0. 0. 0. 0. 0. 0. 0. 0. 0. 0.
      4.70777214e-01 7.53243566e-02 0. 0. 0. 0. 0. 0. 2.82466352e-01
      3.76621783e-02 0. 3.76621783e-02 1.31817624e-01 1.88310891e-02
      3.76621783e-02 9.41554457e-02</_>
    <_>
      4.24292296e-01 5.27607739e-01 7.35938966e-01 0. 0. 0. 0. 0. 0. 0.
      0. 0. 0. 0. 0. 0. 0. 0. 0. 0. 0. 0. 0. 0. 0. 0. 0. 0. 0. 0. 0. 0.
      0. 0. 0. 0. 0. 0. 0. 0. 0. 0. 0. 0. 0. 0. 0. 7.06665264e-03
      2.11999584e-02 0. 0. 0. 0. 0. 3.53332639e-01 2.82666106e-02 0. 0.
      0. 0. 0. 0. 0. 0. 0. 0. 0. 0. 0. 0. 0. 0. 0. 0. 0. 0. 0. 0. 0. 0.
      0. 0. 0. 0. 0. 0. 0. 0. 0. 0. 1.69599667e-01 3.67465943e-01 0. 0.
      0. 0. 1.41333053e-02 8.33865047e-01 0. 0. 0. 0. 0. 0. 0. 0. 0. 0.
      0. 0. 0. 0. 0. 0. 0. 0. 0. 0. 0. 0. 0. 0. 0. 0. 0. 0. 0. 0. 0. 0.
      0. 0. 0. 1.05999798e-01 1.41333053e-02 0. 0. 0. 0. 0.
      7.06665264e-03 0. 0. 0. 0. 0. 0. 0. 0. 0. 0. 0. 0. 0. 0. 0. 0. 0.
      0. 0. 0. 0. 0. 0. 0. 0. 0. 0. 0. 0. 0. 0. 0. 0. 0. 4.23999168e-02
      3.53332609e-02 0. 0. 0. 0. 0. 0. 0. 0. 0. 0. 0. 0. 0. 0. 0. 0. 0.
      0. 0. 0. 0. 0. 0. 0. 0. 0. 0. 0. 0. 0. 0. 0. 0. 0. 0. 0. 0. 0. 0.
      0. 0. 0. 1.55172884e-01 0. 8.86702165e-02 2.21675541e-02 0.
      2.21675541e-02 0. 1.99507982e-01 1.10837772e-01 0. 0. 0.
      8.86702165e-02 0. 1.10837772e-01 3.32513303e-01 0. 0. 0. 0. 0. 0.
      0. 2.21675541e-02 6.65026605e-02 0. 0. 0. 6.65026605e-02
      2.21675541e-02 8.86702165e-02 1.33005321e-01 4.43351083e-02 0. 0.
      0. 0. 0. 0. 0. 0. 0. 0. 0. 0. 0. 0. 0. 6.65026605e-02 0.
      2.21675541e-02 0. 0. 0. 0. 2.21675541e-02 8.86702165e-02
      2.21675541e-02 0. 0. 2.21675541e-02 0. 6.65026605e-02
      6.65026605e-02 2.21675541e-02 0. 0. 0. 0. 0. 2.21675541e-02 0. 0.
      0. 0. 0. 0. 0. 2.21675541e-02 2.21675541e-02 0. 0. 0. 0. 0. 0. 0.
      0. 0. 0. 0. 0. 0. 0. 0. 0. 0. 0. 0. 0. 0. 0. 0. 0. 2.21675541e-02
      0. 0. 0. 0. 0. 2.21675541e-02 2.21675541e-02 8.86702165e-02 0.
      2.21675541e-02 0. 0. 0. 2.21675541e-02 0. 2.88178205e-01
      2.21675541e-02 0. 0. 2.21675545e-01 0. 2.21675541e-02
      6.65026605e-02 4.43351083e-02 2.21675541e-02 0. 1.77340433e-01 0.
      0. 4.43351083e-02 2.21675545e-01 0. 0. 0. 0. 0. 2.21675541e-02
      4.43351083e-02 3.10345769e-01 0. 0. 0. 0. 0. 0. 0. 0.
      2.21675541e-02 0. 0. 0. 0. 0. 0. 0. 0. 0. 0. 0. 0. 0. 0. 0. 0. 0.
      0. 0. 0. 0. 0. 0. 0. 0. 0. 0. 0. 0. 0. 0. 2.21675541e-02
      2.21675541e-02 0. 2.21675541e-02 0. 0. 0. 0. 6.65026605e-02
      1.33005321e-01 2.21675541e-02 1.33005321e-01 0. 0. 0.
      4.43351083e-02 0. 2.21675541e-02 0. 0. 0. 0. 0. 1.10837772e-01
      2.21675541e-02 0. 0. 2.21675541e-02 0. 0. 0. 0. 0. 0. 0. 0. 0.
      2.21675541e-02 0. 4.43351083e-02 2.21675545e-01 8.86702165e-02
      2.21675541e-02 2.21675541e-02 0. 0. 0. 4.43351083e-02 0. 0. 0. 0.
      0. 0. 0. 2.21675541e-02 3.10345769e-01 1.55172884e-01
      2.21675541e-02 8.86702165e-02 0. 0. 0. 4.43351083e-02
      1.77340433e-01 1.33005321e-01 0. 2.21675541e-02 1.33005321e-01
      2.21675541e-02 0. 2.66010642e-01</_>
    <_>
      3.54599744e-01 5.04661322e-01 7.87131548e-01 0. 2.26382855e-02 0.
      0. 0. 0. 0. 4.52765711e-02 2.82978565e-01 0. 0. 0. 0. 0. 0. 0. 0.
      0. 0. 0. 0. 0. 0. 0. 0. 0. 0. 0. 0. 0. 0. 0. 0. 0. 0. 0. 0. 0. 0.
      0. 0. 0. 0. 0. 3.05616856e-01 2.15063706e-01 0. 0. 0. 0. 0.
      7.58382618e-01 3.16935986e-01 0. 0. 0. 0. 0. 0. 0. 0. 0. 0. 0. 0.
      0. 0. 0. 0. 0. 0. 0. 0. 0. 0. 0. 0. 0. 0. 0. 0. 0. 0. 0. 0. 0. 0.
      6.79148585e-02 2.15063706e-01 0. 0. 0. 0. 0. 2.26382852e-01 0. 0.
      0. 0. 0. 0. 0. 0. 0. 0. 0. 0. 0. 0. 0. 0. 0. 0. 0. 0. 0. 0. 0. 0.
      0. 0. 0. 0. 0. 0. 0. 0. 0. 0. 0. 0. 0. 0. 0. 0. 0. 0. 0. 0. 0. 0.
      0. 0. 0. 0. 0. 0. 0. 0. 0. 0. 0. 0. 0. 0. 0. 0. 0. 0. 0. 0. 0. 0.
      0. 0. 0. 0. 0. 0. 0. 0. 0. 0. 0. 0. 0. 0. 0. 0. 0. 0. 0. 0. 0. 0.
      0. 0. 0. 0. 0. 0. 0. 0. 0. 0. 0. 0. 0. 0. 0. 0. 0. 0. 0. 0. 0. 0.
      0. 0. 0. 0. 0. 0. 0. 0. 0. 0. 0. 0. 0. 0. 0. 0. 8.61429051e-02 0.
      0. 0. 0. 0. 0. 3.44571620e-02 3.44571620e-01 0. 0. 0. 0. 0. 0. 0.
      0. 0. 0. 0. 0. 0. 0. 1.03371486e-01 1.03371486e-01 0. 0. 0. 0. 0.
      0. 0. 0. 0. 0. 0. 0. 0. 0. 0. 0. 0. 0. 0. 0. 0. 0. 0. 0.
      1.72285810e-02 0. 0. 0. 5.16857430e-02 0. 8.61429051e-02
      5.16857430e-02 0. 0. 0. 0. 0. 0. 0. 0. 0. 0. 0. 0. 0. 0.
      1.72285810e-02 0. 0. 0. 0. 0. 0. 0. 0. 0. 0. 0. 0. 0. 0. 0. 0. 0.
      0. 0. 0. 1.72285810e-02 0. 0. 0. 0. 0. 0. 0. 0. 0. 0. 0. 0.
      6.89143240e-02 0. 0. 0. 0. 0. 0. 0. 3.27343047e-01 0. 0. 0.
      2.58428723e-01 0. 1.72285810e-02 5.16857430e-02 0. 1.72285810e-02
      0. 1.20600067e-01 0. 0. 0. 2.75657296e-01 0. 0. 0. 0. 0. 0. 0.
      2.06742972e-01 0. 0. 0. 0. 0. 0. 0. 0. 0. 0. 0. 0. 0. 0. 0. 0. 0.
      0. 0. 0. 0. 0. 0. 0. 0. 0. 0. 0. 0. 0. 0. 0. 0. 0. 0. 0. 0. 0. 0.
      0. 0. 0. 0. 0. 0. 0. 0. 0. 0. 1.72285810e-02 0. 3.44571620e-02 0.
      0. 0. 1.20600067e-01 0. 0. 0. 0. 0. 0. 0. 3.44571620e-02 0. 0. 0.
      0. 0. 0. 0. 0. 0. 0. 0. 0. 0. 0. 0. 1.72285810e-02 0.
      1.72285810e-02 0. 5.16857430e-02 0. 0. 0. 0. 0. 0. 0. 0. 0.
      1.72285810e-02 0. 1.72285810e-02 6.54686093e-01 8.61429051e-02
      1.72285810e-02 5.16857430e-02 0. 0. 0. 5.16857430e-02
      2.41200134e-01 0. 0. 0. 1.72285810e-02 0. 0. 3.44571620e-02</_>
    <_>
      5.72624087e-01 5.64710498e-01 5.94309449e-01 0. 0. 0. 0. 0. 0. 0.
      0. 0. 0. 0. 0. 0. 0. 0. 0. 0. 0. 0. 0. 0. 0. 0. 0. 0. 0. 0. 0. 0.
      0. 0. 0. 0. 0. 0. 0. 0. 0. 0. 0. 0. 0. 0. 0. 0. 0. 0. 0. 0. 0. 0.
      0. 0. 0. 0. 0. 0. 0. 0. 0. 0. 0. 0. 0. 0. 0. 0. 0. 0. 0. 0. 0. 0.
      0. 0. 0. 0. 0. 0. 0. 0. 0. 0. 0. 0. 0. 5.51267574e-03
      1.65380277e-02 0. 0. 0. 0. 0. 1.65380277e-02 1.10253515e-02 0. 0.
      0. 0. 0. 0. 0. 0. 0. 0. 0. 0. 0. 0. 0. 0. 0. 0. 0. 0. 0. 0. 0. 0.
      0. 0. 0. 0. 0. 0. 0. 0. 0. 0. 2.75633782e-02 1.21278867e-01 0. 0.
      0. 0. 0. 1.65380277e-02 0. 0. 0. 0. 0. 0. 0. 0. 0. 0. 0. 0. 0. 0.
      0. 0. 0. 0. 0. 0. 0. 0. 0. 0. 0. 0. 0. 0. 5.51267574e-03
      2.20507029e-02 0. 0. 0. 0. 0. 9.81256306e-01 1.04740836e-01 0. 0.
      0. 0. 0. 5.51267574e-03 0. 0. 0. 0. 0. 0. 0. 0. 0. 0. 0. 0. 0. 0.
      0. 0. 0. 0. 0. 0. 0. 0. 0. 0. 0. 0. 0. 0. 6.06394336e-02
      5.51267564e-02 0. 0. 0. 0. 0. 4.96140830e-02 2.02464566e-01 0. 0.
      4.49921265e-02 2.24960633e-02 0. 2.24960633e-02 2.24960633e-02
      1.12480313e-01 0. 2.24960633e-02 2.24960633e-02 0. 0.
      2.02464566e-01 3.59937012e-01 0. 0. 0. 0. 0. 0. 0. 0.
      8.99842530e-02 0. 2.24960633e-02 0. 6.74881935e-02 0.
      1.34976387e-01 8.99842530e-02 1.12480313e-01 0. 0. 0. 0. 0. 0. 0.
      0. 0. 0. 0. 0. 0. 2.24960633e-02 0. 8.99842530e-02 0. 0. 0.
      2.24960633e-02 0. 0. 2.24960633e-02 2.47456700e-01 2.24960633e-02
      2.24960633e-02 0. 4.04929131e-01 0. 0. 2.24960633e-02
      4.49921265e-02 0. 0. 0. 0. 0. 0. 2.24960633e-02 0. 0. 0. 0. 0. 0.
      0. 0. 0. 0. 0. 0. 0. 0. 0. 0. 2.24960633e-02 0. 0. 0. 0. 0. 0. 0.
      6.74881935e-02 0. 2.24960633e-02 0. 0. 0. 0. 0. 2.24960633e-02 0.
      2.24960633e-02 0. 0. 0. 2.24960633e-02 2.24960633e-02
      1.12480313e-01 0. 0. 0. 2.24960633e-02 0. 2.24960633e-02 0.
      3.14944893e-01 4.49921265e-02 0. 0. 2.02464566e-01 2.24960633e-02
      6.74881935e-02 1.57472447e-01 6.74881935e-02 6.74881935e-02 0.
      2.24960633e-02 0. 0. 0. 4.49921265e-02 0. 0. 2.24960633e-02 0.
      2.24960633e-02 0. 2.24960633e-02 4.49921265e-02 0. 0. 0. 0. 0. 0.
      0. 2.24960633e-02 0. 0. 0. 0. 2.24960633e-02 0. 0. 8.99842530e-02
      0. 2.24960633e-02 0. 0. 0. 0. 0. 2.24960633e-02 0. 0. 0. 0. 0. 0.
      0. 0. 0. 0. 0. 0. 0. 0. 0. 2.24960633e-02 2.24960633e-02 0. 0. 0.
      2.24960633e-02 0. 0. 4.49921265e-02 4.49921265e-02 4.49921265e-02
      0. 2.24960633e-02 0. 0. 0. 0. 0. 0. 0. 0. 0. 0. 0. 2.24960633e-02
      2.24960633e-02 0. 0. 0. 0. 0. 0. 0. 0. 0. 0. 0. 2.24960633e-02 0.
      0. 0. 1.34976387e-01 3.37440938e-01 0. 2.24960633e-02 0. 0. 0.
      4.49921265e-02 4.49921265e-02 0. 0. 4.49921265e-02 0. 0. 0.
      2.24960633e-02 2.02464566e-01 1.12480313e-01 0. 1.12480313e-01 0.
      4.49921265e-02 0. 6.74881935e-02 6.74881935e-02 4.49921265e-02 0.
      2.24960633e-02 6.74881935e-02 4.49921265e-02 8.99842530e-02
      1.34976387e-01</_>
    <_>
      4.30237651e-01 5.17403424e-01 7.39722371e-01 0. 7.88745731e-02 0.
      0. 0. 0. 0. 6.83579624e-01 0. 0. 0. 0. 0. 0. 0. 0. 0. 0. 0. 0. 0.
      0. 0. 0. 0. 0. 0. 0. 0. 0. 0. 0. 0. 0. 0. 0. 0. 0. 0. 0. 0. 0. 0.
      5.17066658e-01 4.99538988e-01 0. 0. 0. 0. 0. 2.62915250e-02
      8.76384154e-02 0. 0. 0. 0. 0. 0. 0. 0. 0. 0. 0. 0. 0. 0. 0. 0. 0.
      0. 0. 0. 0. 0. 0. 0. 0. 0. 0. 0. 3.50553654e-02 0. 0. 0. 0. 0. 0.
      0. 0. 0. 0. 0. 0. 0. 0. 0. 0. 0. 0. 0. 0. 0. 0. 0. 0. 0. 0. 0. 0.
      0. 0. 0. 0. 0. 0. 0. 0. 0. 0. 0. 0. 0. 0. 0. 0. 0. 0. 0. 0. 0. 0.
      0. 0. 0. 0. 0. 0. 0. 0. 0. 0. 0. 0. 0. 0. 0. 0. 0. 0. 0. 0. 0. 0.
      0. 0. 0. 0. 0. 0. 0. 0. 0. 0. 0. 0. 0. 0. 0. 0. 0. 0. 0. 0. 0. 0.
      0. 0. 0. 0. 0. 0. 0. 0. 0. 0. 0. 0. 0. 0. 0. 0. 0. 0. 0. 0. 0. 0.
      0. 0. 0. 0. 0. 0. 0. 0. 0. 0. 0. 0. 0. 0. 0. 0. 0. 0. 0.
      6.25815392e-02 0. 0. 0. 0. 0. 4.17210273e-02 0. 0. 0. 0. 0.
      2.08605137e-02 0. 2.08605137e-02 0. 0. 0. 0. 0. 0. 0. 0. 0.
      2.08605137e-02 0. 0. 0. 0. 0. 0. 0. 4.17210273e-02 2.08605137e-02
      0. 0. 2.08605137e-02 0. 0. 0. 0. 0. 0. 0. 2.08605137e-02 0. 0. 0.
      4.17210273e-02 0. 0. 2.08605137e-02 0. 0. 0. 0. 1.87744617e-01
      2.08605137e-02 2.08605137e-02 0. 4.17210281e-01 0. 4.17210273e-02
      2.08605137e-02 0. 0. 0. 0. 0. 0. 0. 0. 0. 0. 0. 0. 0. 0. 0. 0. 0.
      0. 0. 0. 0. 0. 0. 0. 2.08605137e-02 0. 0. 0. 0. 0. 0. 0.
      1.46023601e-01 2.08605137e-02 0. 0. 0. 0. 0. 0. 0. 0. 0. 0. 0. 0.
      0. 0. 4.17210273e-02 0. 6.25815392e-02 2.08605137e-02 0. 0. 0. 0.
      1.46023601e-01 0. 0. 0. 2.08605140e-01 0. 2.08605137e-02 0. 0.
      2.08605137e-02 0. 6.25815392e-02 0. 0. 0. 0. 0. 0. 0. 0. 0. 0. 0.
      0. 0. 0. 0. 0. 0. 0. 0. 0. 0. 0. 0. 0. 0. 2.08605137e-02 0. 0. 0.
      0. 0. 0. 0. 0. 0. 0. 0. 0. 0. 0. 0. 0. 0. 0. 0. 0. 0. 0. 0. 0. 0.
      0. 0. 2.08605137e-02 0. 0. 0. 2.08605137e-02 0. 0. 4.17210273e-02
      1.66884109e-01 2.08605137e-02 5.84094405e-01 0. 0. 0.
      4.17210273e-02 0. 0. 0. 0. 0. 0. 0. 2.08605137e-02 4.17210273e-02
      4.17210273e-02 0. 2.08605137e-02 0. 0. 0. 0. 0. 4.17210273e-02 0.
      0. 0. 0. 2.08605137e-02 8.34420547e-02 8.34420547e-02
      2.92047203e-01 2.08605137e-02 2.92047203e-01 0. 0. 0.
      2.08605137e-02 0. 2.08605137e-02 0. 2.08605137e-02 0.
      4.17210273e-02 0. 0. 0. 1.25163078e-01 0. 8.34420547e-02 0. 0. 0.
      2.08605137e-02 2.08605137e-02 2.08605137e-02 2.08605137e-02
      1.04302570e-01 6.25815392e-02 8.34420547e-02 0. 2.50326157e-01</_>
    <_>
      5.23624420e-01 5.50554276e-01 6.50159597e-01 0. 0. 0. 0. 0. 0. 0.
      0. 1.33038023e-02 0. 0. 0. 0. 0. 0. 0. 0. 0. 0. 0. 0. 0. 0. 0. 0.
      0. 0. 0. 0. 0. 0. 0. 0. 0. 0. 0. 0. 0. 0. 0. 0. 0. 0. 0.
      5.32152094e-02 5.32152094e-02 0. 0. 0. 0. 1.33038023e-02
      1.19734220e-01 2.92683631e-01 0. 0. 0. 0. 0. 6.65190071e-02
      1.33038023e-02 0. 0. 0. 0. 0. 0. 0. 0. 0. 0. 0. 0. 0. 0. 0. 0. 0.
      0. 0. 0. 0. 0. 0. 0. 0. 0. 2.79379845e-01 1.46341816e-01
      1.46341816e-01 0. 0. 0. 0. 3.99114080e-02 9.31266099e-02 0. 0. 0.
      0. 0. 0. 0. 0. 0. 0. 0. 0. 0. 0. 0. 0. 0. 0. 0. 0. 0. 0. 0. 0. 0.
      0. 0. 0. 5.32152094e-02 0. 0. 0. 0. 0. 6.51886284e-01
      2.52772242e-01 0. 0. 0. 0. 0. 2.66076047e-02 0. 0. 0. 0. 0. 0. 0.
      0. 0. 0. 0. 0. 0. 0. 0. 0. 0. 0. 0. 0. 0. 0. 0. 0. 0. 0. 0. 0. 0.
      3.99114080e-02 0. 0. 0. 0. 0. 4.12417859e-01 1.46341816e-01 0. 0.
      0. 0. 0. 1.33038023e-02 0. 0. 0. 0. 0. 0. 0. 0. 0. 0. 0. 0. 0. 0.
      0. 0. 0. 0. 0. 0. 0. 0. 0. 0. 0. 0. 0. 0. 1.33038023e-02
      3.99114080e-02 0. 0. 0. 0. 0. 2.66076028e-01 1.72203481e-01 0.
      2.87005790e-02 5.74011579e-02 2.87005790e-02 0. 5.74011579e-02
      5.74011579e-02 1.14802316e-01 0. 0. 2.87005790e-02 5.74011579e-02
      0. 1.14802316e-01 1.14802316e-01 5.74011579e-02 0. 0. 0. 0. 0.
      2.87005790e-02 0. 8.61017406e-02 0. 0. 2.87005790e-02
      1.43502891e-01 0. 8.61017406e-02 8.61017406e-02 1.14802316e-01 0.
      0. 0. 2.87005790e-02 0. 0. 0. 5.74011579e-02 0. 0. 0. 0. 0. 0. 0.
      8.61017406e-02 2.87005790e-02 0. 0. 0. 0. 0. 0. 2.58305222e-01
      2.87005790e-02 2.87005790e-02 2.87005790e-02 1.43502891e-01 0.
      1.43502891e-01 8.61017406e-02 8.61017406e-02 2.87005790e-02 0. 0.
      0. 0. 0. 0. 0. 0. 0. 0. 0. 0. 2.87005790e-02 0. 0. 0. 0. 0. 0. 0.
      0. 0. 2.87005790e-02 0. 0. 0. 0. 0. 0. 0. 1.72203481e-01 0.
      2.87005790e-02 0. 0. 0. 0. 0. 0. 0. 0. 2.87005790e-02
      5.74011579e-02 0. 0. 0. 1.43502891e-01 0. 0. 0. 0. 0. 0. 0.
      3.15706372e-01 0. 0. 0. 3.44406962e-01 2.87005790e-02
      2.87005790e-02 2.87005790e-02 5.74011579e-02 2.87005790e-02 0.
      8.61017406e-02 0. 0. 0. 8.61017406e-02 0. 0. 0. 2.87005790e-02 0.
      0. 2.87005790e-02 1.43502891e-01 0. 0. 0. 0. 0. 0. 0. 0.
      2.87005790e-02 0. 0. 0. 0. 0. 0. 8.61017406e-02 0. 0. 0.
      2.87005790e-02 0. 0. 0. 0. 0. 0. 0. 0. 0. 0. 0. 0. 0.
      2.87005790e-02 0. 2.87005790e-02 0. 0. 0. 0. 0. 0. 0. 0. 0. 0. 0.
      0. 1.14802316e-01 0. 8.61017406e-02 1.72203481e-01 0. 0. 0.
      1.43502891e-01 0. 2.87005790e-02 0. 0. 0. 0. 0. 5.74011579e-02 0.
      0. 0. 0. 0. 0. 0. 0. 0. 2.87005790e-02 0. 0. 0. 0. 0.
      5.74011579e-02 1.14802316e-01 1.43502891e-01 0. 1.43502891e-01
      2.87005790e-02 0. 0. 8.61017406e-02 0. 0. 0. 0. 0. 0. 0.
      2.87005790e-02 1.14802316e-01 5.74011579e-02 0. 1.14802316e-01 0.
      0. 0. 8.61017406e-02 1.72203481e-01 2.00904056e-01 0. 0.
      1.14802316e-01 2.00904056e-01 2.87005790e-02 2.87005782e-01</_>
    <_>
      5.58255613e-01 5.56801617e-01 6.15079343e-01 0. 0. 0. 0. 0. 0. 0.
      0. 0. 0. 0. 0. 0. 0. 0. 0. 0. 0. 0. 0. 0. 0. 0. 0. 0. 0. 0. 0. 0.
      0. 0. 0. 0. 0. 0. 0. 0. 0. 0. 0. 0. 0. 0. 6.88250065e-02
      1.29046887e-01 0. 0. 0. 0. 0. 0. 0. 0. 0. 0. 0. 0. 0. 0. 0. 0. 0.
      0. 0. 0. 0. 0. 0. 0. 0. 0. 0. 0. 0. 0. 0. 0. 0. 0. 0.
      8.60312581e-03 0. 0. 0. 0. 0. 5.41996896e-01 3.69934410e-01 0. 0.
      0. 0. 0. 0. 0. 0. 0. 0. 0. 0. 0. 0. 0. 0. 0. 0. 0. 0. 0. 0. 0. 0.
      0. 0. 0. 0. 0. 0. 0. 0. 0. 0. 0. 1.72062516e-02 0. 0. 0. 0. 0.
      7.31265664e-01 1.11840636e-01 0. 0. 0. 0. 0. 8.60312581e-03 0. 0.
      0. 0. 0. 0. 0. 0. 0. 0. 0. 0. 0. 0. 0. 0. 0. 0. 0. 0. 0. 0. 0. 0.
      0. 0. 0. 0. 0. 0. 0. 0. 0. 0. 0. 1.72062516e-02 0. 0. 0. 0. 0. 0.
      0. 0. 0. 0. 0. 0. 0. 0. 0. 0. 0. 0. 0. 0. 0. 0. 0. 0. 0. 0. 0. 0.
      0. 0. 0. 0. 0. 0. 0. 0. 0. 0. 0. 0. 0. 0. 0. 3.50165397e-01
      4.66887206e-02 0. 9.33774412e-02 4.66887206e-02 2.33443603e-02
      2.33443603e-02 1.16721801e-01 1.86754882e-01 4.66887206e-02 0. 0.
      2.33443603e-02 0. 4.66887206e-02 2.56787956e-01 2.33443603e-02
      2.33443603e-02 0. 0. 0. 0. 0. 2.33443603e-02 0. 0. 0. 0. 0. 0. 0.
      9.33774412e-02 2.33443603e-02 0. 0. 0. 2.33443603e-02 0. 0.
      2.33443603e-02 0. 0. 2.33443603e-02 0. 0. 0. 0. 0. 2.33443603e-02
      2.33443603e-02 0. 0. 0. 0. 0. 2.33443603e-02 0. 0. 2.33443603e-02
      0. 0. 0. 0. 0. 0. 0. 0. 0. 0. 0. 0. 2.33443603e-02 2.33443603e-02
      0. 0. 0. 0. 0. 2.33443603e-02 4.66887206e-02 0. 0. 0. 0. 0. 0. 0.
      0. 2.33443603e-02 2.33443603e-02 0. 0. 0. 0. 0. 0. 2.33443603e-02
      0. 0. 2.33443603e-02 0. 0. 0. 0. 2.33443603e-02 0. 0. 0. 0. 0.
      2.33443603e-02 4.66887206e-02 1.40066162e-01 0. 0. 2.33443603e-02
      2.33443603e-02 0. 2.33443603e-02 7.00330809e-02 4.66887206e-02 0.
      0. 4.66887206e-02 0. 2.33443603e-02 0. 2.80132324e-01
      1.86754882e-01 2.33443603e-02 0. 0. 2.33443603e-02 0. 0.
      4.66887206e-02 9.33774412e-02 0. 2.33443603e-02 2.33443603e-02
      2.33443603e-02 0. 0. 2.80132324e-01 2.33443603e-02 0. 0. 0. 0. 0.
      2.33443603e-02 0. 2.33443603e-02 0. 0. 2.33443603e-02 0.
      2.33443603e-02 0. 0. 2.33443603e-02 2.33443603e-02 0. 0. 0. 0. 0.
      0. 2.33443603e-02 0. 0. 0. 0. 0. 0. 0. 2.33443603e-02
      2.33443603e-02 0. 2.33443603e-02 0. 0. 0. 0. 0. 0. 0. 0. 0. 0. 0.
      0. 0. 0. 0. 0. 0. 0. 0. 9.33774412e-02 4.66887206e-02 0. 0. 0. 0.
      0. 2.33443603e-02 2.33443603e-02 0. 0. 0. 0. 0. 0. 0. 0. 0. 0. 0.
      0. 0. 0. 0. 4.66887206e-02 2.33443603e-02 0. 0. 0. 0. 0.
      4.66887206e-02 7.00330809e-02 0. 0. 0. 2.33443603e-02 0. 0. 0. 0.
      7.00330809e-02 2.33443603e-02 0. 4.66887206e-02 7.00330809e-02 0.
      7.00330809e-02 2.10099250e-01 9.33774412e-02 9.33774412e-02
      2.33443603e-02 4.66887206e-02 4.66887206e-02 2.33443603e-02
      4.66887206e-02 6.06953382e-01</_>
    <_>
      3.74893725e-01 4.95865345e-01 7.83308506e-01 5.37373662e-01
      6.44848347e-01 0. 0. 0. 0. 0. 5.04304469e-01 7.44055808e-02 0. 0.
      0. 0. 0. 0. 0. 0. 0. 0. 0. 0. 0. 0. 0. 0. 0. 0. 0. 0. 0. 0. 0. 0.
      0. 0. 0. 0. 0. 0. 0. 0. 0. 0. 1.65345743e-02 1.81880310e-01 0. 0.
      0. 0. 0. 1.65345743e-02 0. 0. 0. 0. 0. 0. 0. 0. 0. 0. 0. 0. 0. 0.
      0. 0. 0. 0. 0. 0. 0. 0. 0. 0. 0. 0. 0. 0. 0. 0. 0. 0. 0. 0. 0.
      8.26728716e-03 4.13364321e-02 0. 0. 0. 0. 0. 8.26728716e-03 0. 0.
      0. 0. 0. 0. 0. 0. 0. 0. 0. 0. 0. 0. 0. 0. 0. 0. 0. 0. 0. 0. 0. 0.
      0. 0. 0. 0. 0. 0. 0. 0. 0. 0. 0. 8.26728716e-03 0. 0. 0. 0. 0. 0.
      0. 0. 0. 0. 0. 0. 0. 0. 0. 0. 0. 0. 0. 0. 0. 0. 0. 0. 0. 0. 0. 0.
      0. 0. 0. 0. 0. 0. 0. 0. 0. 0. 0. 0. 0. 0. 0. 0. 0. 0. 0. 0. 0. 0.
      0. 0. 0. 0. 0. 0. 0. 0. 0. 0. 0. 0. 0. 0. 0. 0. 0. 0. 0. 0. 0. 0.
      0. 0. 0. 0. 0. 0. 0. 0. 0. 0. 0. 0. 0. 0. 4.30630632e-02
      4.30630632e-02 0. 6.45945966e-02 4.30630632e-02 0. 0. 0. 0. 0.
      4.30630632e-02 0. 4.30630632e-02 0. 1.29189193e-01 8.61261263e-02
      2.15315316e-02 0. 2.15315316e-02 0. 0. 0. 0. 0. 0. 0. 0.
      2.15315316e-02 6.45945966e-02 0. 3.66036028e-01 6.45945966e-02 0.
      0. 0. 0. 0. 0. 0. 0. 0. 2.15315316e-02 0. 0. 0. 0. 0. 0. 0. 0. 0.
      0. 2.15315316e-02 0. 2.15315316e-02 2.15315316e-02 2.15315316e-02
      0. 2.15315316e-02 0. 8.61261263e-02 4.30630632e-02 4.30630632e-02
      4.30630632e-02 0. 0. 0. 0. 2.15315316e-02 0. 0. 0. 0. 0.
      2.15315316e-02 0. 0. 0. 0. 2.15315316e-02 0. 0. 0. 0. 0. 0. 0. 0.
      0. 0. 0. 0. 0. 0. 0. 0. 0. 0. 0. 0. 0. 0. 0. 0. 0. 0. 0. 0.
      2.15315316e-02 0. 2.15315316e-02 2.15315316e-02 2.15315316e-02 0.
      0. 0. 0. 0. 0. 0. 1.07657656e-01 0. 0. 0. 1.29189193e-01 0.
      4.30630632e-02 2.15315316e-02 2.15315316e-02 2.15315316e-02 0.
      1.07657656e-01 0. 0. 0. 0. 0. 0. 0. 0. 0. 0. 0. 0. 0. 0. 0. 0.
      2.15315316e-02 0. 0. 0. 0. 0. 0. 0. 0. 0. 2.15315316e-02
      6.45945966e-02 0. 0. 0. 0. 0. 0. 0. 0. 0. 0. 0. 0. 0. 0. 0.
      4.30630632e-02 0. 0. 0. 0. 0. 0. 0. 0. 2.15315316e-02 0. 0. 0. 0.
      0. 2.15315316e-02 2.15315316e-02 6.45945966e-02 6.45945966e-02
      2.15315316e-02 8.61261263e-02 2.15315316e-02 0. 0. 1.07657656e-01
      2.15315316e-02 0. 0. 0. 0. 0. 0. 4.30630632e-02 0. 0. 0. 0. 0.
      2.15315316e-02 0. 2.15315316e-02 0. 2.15315316e-02 0.
      2.15315316e-02 0. 0. 2.15315316e-02 0. 2.58378386e-01
      4.30630624e-01 0. 6.45945966e-02 2.15315316e-02 1.07657656e-01 0.
      2.15315316e-02 0. 0. 0. 0. 0. 4.30630632e-02 0. 6.45945966e-02
      3.22972983e-01 3.66036028e-01 0. 1.07657656e-01 0. 2.15315316e-02
      0. 6.45945966e-02 1.07657656e-01 2.15315316e-02 0. 0.
      6.45945966e-02 4.30630632e-02 2.15315316e-02 4.09099102e-01</_>
    <_>
      6.07948780e-01 5.60293436e-01 5.62556326e-01 0. 0. 0. 0. 0. 0. 0.
      0. 0. 0. 0. 0. 0. 0. 0. 0. 0. 0. 0. 0. 0. 0. 0. 0. 0. 0. 0. 0. 0.
      0. 0. 0. 0. 0. 0. 0. 0. 0. 0. 0. 0. 0. 0. 0. 0. 0. 0. 0. 0. 0. 0.
      0. 0. 0. 0. 0. 0. 0. 0. 0. 0. 0. 0. 0. 0. 0. 0. 0. 0. 0. 0. 0. 0.
      0. 0. 0. 0. 0. 0. 0. 0. 0. 0. 0. 0. 0. 0. 0. 0. 0. 0. 0. 0. 0. 0.
      0. 0. 0. 0. 0. 0. 0. 0. 0. 0. 0. 0. 0. 0. 0. 0. 0. 0. 0. 0. 0. 0.
      0. 0. 0. 0. 0. 0. 0. 0. 0. 0. 0. 0. 4.19157356e-01 0. 0. 0. 0. 0.
      0. 0. 0. 0. 0. 0. 0. 0. 0. 0. 0. 0. 0. 0. 0. 0. 0. 0. 0. 0. 0. 0.
      0. 0. 0. 0. 0. 0. 0. 0. 3.77928793e-01 1.37428641e-02 0. 0. 0. 0.
      1.37428641e-02 8.24571908e-01 0. 0. 0. 0. 0. 0. 0. 0. 0. 0. 0. 0.
      0. 0. 0. 0. 0. 0. 0. 0. 0. 0. 0. 0. 0. 0. 0. 0. 0. 0. 0. 0. 0. 0.
      0. 3.43571603e-02 0. 0. 0. 0. 0. 0. 0. 1.50704300e-02
      3.01408600e-02 0. 3.01408600e-02 0. 0. 0. 0. 1.50704300e-02 0. 0.
      0. 0. 0. 1.05493009e-01 3.31549466e-01 0. 0. 0. 0. 0. 0. 0. 0.
      4.52112891e-02 0. 0. 1.50704300e-02 4.52112891e-02 0.
      2.41126880e-01 6.02817200e-02 1.50704300e-02 0. 0. 0. 0. 0. 0. 0.
      0. 0. 0. 0. 0. 0. 0. 0. 3.01408600e-02 0. 1.50704300e-02 0. 0. 0.
      0. 0. 7.53521472e-02 0. 0. 0. 0. 0. 1.50704300e-02 1.50704300e-02
      0. 0. 0. 0. 0. 0. 0. 0. 0. 0. 0. 0. 0. 0. 0. 0. 0. 0. 0. 0. 0. 0.
      0. 0. 0. 0. 0. 0. 0. 0. 1.50704300e-02 0. 1.50704300e-02 0. 0. 0.
      0. 0. 0. 0. 0. 0. 0. 0. 0. 0. 0. 0. 1.50704294e-01 0. 0. 0. 0. 0.
      0. 0. 9.04225782e-02 0. 0. 0. 0. 0. 4.52112891e-02 1.50704300e-02
      0. 0. 0. 0. 0. 0. 0. 3.01408600e-02 0. 0. 0. 0. 0. 0. 0.
      3.01408600e-02 0. 1.50704300e-02 0. 0. 0. 0. 0. 0. 0. 0. 0. 0. 0.
      1.50704300e-02 0. 3.01408600e-02 1.50704300e-02 0. 0. 0. 0. 0. 0.
      1.50704300e-02 0. 0. 0. 0. 0. 0. 0. 0. 0. 0. 0. 0. 0. 0. 0. 0. 0.
      0. 0. 0. 0. 0. 0. 0. 1.50704300e-02 1.50704300e-02 0. 0. 0.
      1.50704300e-02 0. 3.01408600e-02 0. 0. 0. 0. 1.50704300e-02 0. 0.
      1.50704300e-02 0. 0. 0. 0. 0. 0. 0. 0. 0. 0. 0. 0. 0. 0.
      1.50704300e-02 1.50704300e-02 1.35633871e-01 2.26056457e-01 0.
      6.02817200e-02 0. 0. 0. 3.01408600e-02 0. 0. 0. 0. 1.50704300e-02
      0. 0. 3.01408600e-02 7.08310187e-01 3.91831189e-01 0.
      4.52112891e-02 1.50704300e-02 3.01408600e-02 0. 0. 1.50704294e-01
      1.50704300e-02 0. 0. 3.01408600e-02 0. 1.50704300e-02
      7.53521472e-02</_>
    <_>
      6.06521606e-01 5.57288170e-01 5.67063808e-01 0. 0. 0. 0. 0. 0. 0.
      0. 0. 0. 0. 0. 0. 0. 0. 0. 0. 0. 0. 0. 0. 0. 0. 0. 0. 0. 0. 0. 0.
      0. 0. 0. 0. 0. 0. 0. 0. 0. 0. 0. 0. 0. 0. 0. 0. 0. 0. 0. 0. 0. 0.
      0. 0. 0. 0. 0. 0. 0. 0. 0. 0. 0. 0. 0. 0. 0. 0. 0. 0. 0. 0. 0. 0.
      0. 0. 0. 0. 0. 0. 0. 0. 0. 0. 0. 0. 0. 9.39686671e-02
      6.26457715e-03 0. 0. 0. 0. 0. 6.26457715e-03 0. 0. 0. 0. 0. 0. 0.
      0. 0. 0. 0. 0. 0. 0. 0. 0. 0. 0. 0. 0. 0. 0. 0. 0. 0. 0. 0. 0.
      1.25291543e-02 5.01166172e-02 0. 0. 0. 0. 0. 9.89803255e-01 0. 0.
      0. 0. 0. 0. 0. 0. 0. 0. 0. 0. 0. 0. 0. 0. 0. 0. 0. 0. 0. 0. 0. 0.
      0. 0. 0. 0. 0. 0. 0. 0. 0. 0. 0. 6.89103529e-02 0. 0. 0. 0. 0.
      6.26457715e-03 6.26457706e-02 0. 0. 0. 0. 0. 0. 0. 0. 0. 0. 0. 0.
      0. 0. 0. 0. 0. 0. 0. 0. 0. 0. 0. 0. 0. 0. 0. 0. 0. 0. 0. 0. 0. 0.
      0. 0. 0. 0. 0. 0. 0. 0. 0. 1.22580856e-01 0. 0. 3.50231007e-02 0.
      0. 0. 0. 3.50231007e-02 0. 0. 1.75115503e-02 0. 0. 1.75115503e-02
      0. 1.75115503e-02 0. 0. 0. 0. 0. 0. 0. 0. 0. 0. 0. 0. 0. 0. 0.
      3.50231007e-02 1.75115503e-02 0. 0. 0. 0. 0. 0. 0. 0. 0. 0. 0. 0.
      0. 0. 0. 1.75115503e-02 0. 0. 0. 0. 0. 0. 1.75115503e-02 0. 0. 0.
      0. 0. 0. 0. 0. 0. 0. 0. 0. 0. 0. 0. 0. 0. 0. 0. 1.75115503e-02 0.
      0. 0. 0. 0. 0. 0. 0. 0. 0. 0. 0. 0. 0. 0. 0. 0. 0. 0.
      7.00462013e-02 0. 0. 0. 0. 0. 0. 0. 1.75115503e-02 0. 0.
      1.75115503e-02 1.75115503e-02 0. 0. 0. 8.75577480e-02 0. 0. 0. 0.
      0. 3.50231007e-02 0. 2.97696352e-01 0. 1.75115503e-02
      1.75115503e-02 0. 0. 1.75115503e-02 3.50231007e-02 5.25346510e-02
      0. 1.75115503e-02 0. 0. 0. 0. 0. 0. 0. 0. 0. 0. 0. 0. 0. 0.
      1.75115503e-02 0. 0. 0. 0. 0. 0. 0. 1.75115503e-02 0.
      1.75115503e-02 0. 0. 0. 0. 0. 1.75115503e-02 0. 0. 0. 0. 0. 0. 0.
      0. 0. 0. 0. 0. 0. 0. 3.50231007e-02 0. 0. 0. 0. 0. 0. 0. 0.
      1.75115503e-02 0. 0. 0. 0. 0. 0. 5.25346510e-02 1.75115503e-02
      1.75115503e-02 0. 0. 0. 0. 0. 0. 1.75115503e-02 0. 0.
      1.75115503e-02 0. 0. 3.50231007e-02 0. 0. 0. 3.50231007e-02 0. 0.
      0. 0. 1.75115503e-02 1.75115503e-02 0. 0. 0. 0. 0. 0.
      1.05069302e-01 5.25346510e-02 0. 7.00462013e-02 0. 0. 0.
      1.75115503e-02 0. 0. 1.75115503e-02 0. 0. 1.75115503e-02
      1.75115503e-02 1.75115503e-02 8.40554416e-01 1.22580856e-01
      1.75115503e-02 7.00462013e-02 1.75115503e-02 1.75115503e-02
      3.50231007e-02 7.00462013e-02 1.22580856e-01 5.25346510e-02
      1.75115503e-02 1.05069302e-01 7.00462013e-02 5.25346510e-02
      3.50231007e-02 2.62673259e-01</_>
    <_>
      5.49645603e-01 5.48619151e-01 6.30005360e-01 0. 9.79310274e-03 0.
      0. 0. 0. 0. 1.46896541e-01 9.79310274e-03 0. 0. 0. 0. 0. 0. 0. 0.
      0. 0. 0. 0. 0. 0. 0. 0. 0. 0. 0. 0. 0. 0. 0. 0. 0. 0. 0. 0. 0. 0.
      0. 0. 0. 0. 2.44827569e-01 4.50482756e-01 0. 0. 0. 0. 0.
      1.07724130e-01 4.89655137e-02 0. 0. 0. 0. 0. 0. 0. 0. 0. 0. 0. 0.
      0. 0. 0. 0. 0. 0. 0. 0. 0. 0. 0. 0. 0. 0. 0. 0. 9.79310274e-03 0.
      0. 0. 0. 0. 3.03586185e-01 1.86068952e-01 0. 0. 0. 0. 0. 0. 0. 0.
      0. 0. 0. 0. 0. 0. 0. 0. 0. 0. 0. 0. 0. 0. 0. 0. 0. 0. 0. 0. 0. 0.
      0. 0. 0. 0. 9.79310274e-03 4.89655137e-02 0. 0. 0. 0. 0.
      7.54068911e-01 2.93793082e-02 0. 0. 0. 0. 0. 0. 0. 0. 0. 0. 0. 0.
      0. 0. 0. 0. 0. 0. 0. 0. 0. 0. 0. 0. 0. 0. 0. 0. 0. 0. 0. 0. 0. 0.
      2.93793082e-02 0. 0. 0. 0. 0. 9.79310274e-03 3.91724110e-02 0. 0.
      0. 0. 0. 0. 0. 0. 0. 0. 0. 0. 0. 0. 0. 0. 0. 0. 0. 0. 0. 0. 0. 0.
      0. 0. 0. 0. 0. 0. 0. 0. 0. 0. 0. 0. 0. 0. 0. 0. 0. 0. 0.
      2.81982422e-01 0. 4.69970703e-02 4.69970703e-02 2.34985352e-02 0.
      2.34985352e-02 2.34985352e-02 7.04956055e-02 0. 0. 0. 0.
      2.34985352e-02 2.34985352e-02 0. 2.34985352e-02 0. 2.34985352e-02
      0. 0. 0. 0. 0. 2.34985352e-02 2.34985352e-02 0. 2.34985352e-02
      4.69970703e-02 0. 5.16967773e-01 2.34985352e-02 9.39941406e-02
      2.34985352e-02 0. 0. 2.34985352e-02 0. 0. 0. 0. 0. 0. 0. 0.
      2.34985352e-02 4.69970703e-02 0. 9.39941406e-02 0. 2.34985352e-02
      0. 0. 0. 0. 0. 1.87988281e-01 7.04956055e-02 0. 0. 2.58483887e-01
      0. 1.17492676e-01 4.69970703e-02 0. 2.34985352e-02 2.34985352e-02
      0. 0. 0. 2.34985352e-02 0. 0. 0. 0. 0. 2.34985352e-02 0.
      2.34985352e-02 0. 0. 0. 0. 0. 0. 0. 2.34985352e-02 0. 0. 0. 0. 0.
      0. 0. 2.34985352e-02 0. 2.34985352e-02 0. 0. 0. 0. 0.
      2.34985352e-02 0. 0. 0. 0. 0. 0. 0. 2.34985352e-02 0.
      4.69970703e-02 0. 0. 4.69970703e-02 0. 0. 0. 0. 2.34985352e-02 0.
      0. 0. 1.87988281e-01 0. 7.04956055e-02 4.69970703e-02 0.
      2.34985352e-02 0. 9.39941406e-02 0. 0. 0. 1.17492676e-01 0. 0. 0.
      0. 0. 0. 0. 9.39941406e-02 0. 0. 0. 0. 0. 0. 0. 0. 0. 0. 0. 0.
      2.34985352e-02 0. 0. 2.34985352e-02 0. 0. 0. 0. 0. 0. 0. 0. 0. 0.
      0. 0. 0. 0. 0. 0. 0. 0. 0. 0. 0. 0. 0. 0. 0. 0. 0. 0. 0.
      2.34985352e-02 0. 2.34985352e-02 0. 9.39941406e-02 2.34985352e-02
      3.52478027e-01 0. 0. 2.34985352e-02 1.87988281e-01 0. 0. 0. 0. 0.
      0. 0. 4.69970703e-02 0. 0. 0. 2.34985352e-02 0. 0. 0.
      2.34985352e-02 0. 0. 0. 0. 0. 0. 0. 4.69970703e-02 1.17492676e-01
      1.40991211e-01 0. 1.64489746e-01 0. 2.34985352e-02 0.
      7.04956055e-02 0. 2.34985352e-02 0. 0. 2.34985352e-02 0. 0.
      4.69970703e-02 1.64489746e-01 1.40991211e-01 0. 0. 2.34985352e-02
      0. 0. 7.04956055e-02 9.39941406e-02 4.69970703e-02 0.
      7.04956055e-02 7.04956055e-02 7.04956055e-02 2.34985352e-02
      2.81982422e-01</_>
    <_>
      4.01013821e-01 5.07567883e-01 7.62602627e-01 0. 6.92601144e-01 0.
      0. 0. 0. 0. 6.78466439e-01 1.41347172e-02 0. 0. 0. 0. 0. 0. 0. 0.
      0. 0. 0. 0. 0. 0. 0. 0. 0. 0. 0. 0. 0. 0. 0. 0. 0. 0. 0. 0. 0. 0.
      0. 0. 0. 0. 2.40290180e-01 4.24041525e-02 0. 0. 0. 0. 0.
      7.06735859e-03 0. 0. 0. 0. 0. 0. 0. 0. 0. 0. 0. 0. 0. 0. 0. 0. 0.
      0. 0. 0. 0. 0. 0. 0. 0. 0. 0. 0. 0. 0. 0. 0. 0. 0. 0.
      1.41347172e-02 0. 0. 0. 0. 0. 0. 0. 0. 0. 0. 0. 0. 0. 0. 0. 0. 0.
      0. 0. 0. 0. 0. 0. 0. 0. 0. 0. 0. 0. 0. 0. 0. 0. 0. 0. 0. 0. 0. 0.
      0. 0. 0. 0. 0. 0. 0. 0. 0. 0. 0. 0. 0. 0. 0. 0. 0. 0. 0. 0. 0. 0.
      0. 0. 0. 0. 0. 0. 0. 0. 0. 0. 0. 0. 0. 0. 0. 0. 0. 0. 0. 0. 0. 0.
      0. 0. 0. 0. 0. 0. 0. 0. 0. 0. 0. 0. 0. 0. 0. 0. 0. 0. 0. 0. 0. 0.
      0. 0. 0. 0. 0. 0. 0. 0. 0. 0. 0. 0. 0. 0. 0. 0. 0. 0. 0. 0. 0. 0.
      0. 0. 9.99063849e-02 2.49765962e-02 0. 2.49765962e-02
      7.49297887e-02 0. 7.49297887e-02 2.49765962e-02 0. 0.
      2.49765962e-02 0. 2.49765962e-02 0. 7.49297887e-02 1.24882981e-01
      2.49765962e-02 0. 2.49765962e-02 2.49765962e-02 2.49765962e-02 0.
      0. 0. 0. 0. 0. 0. 7.49297887e-02 0. 3.49672347e-01 1.49859577e-01
      2.49765962e-02 2.49765962e-02 2.49765962e-02 2.49765962e-02 0. 0.
      0. 2.49765962e-02 0. 0. 0. 0. 0. 0. 2.49765962e-02 2.49765962e-02
      2.49765962e-02 0. 0. 0. 0. 0. 0. 2.49765962e-02 0. 0.
      2.49765962e-02 0. 7.49297887e-02 0. 7.49297887e-02 7.49297887e-02
      2.49765962e-02 0. 2.49765962e-02 0. 0. 0. 0. 0. 0. 0. 0. 0. 0. 0.
      2.49765962e-02 2.49765962e-02 4.99531925e-02 0. 0. 0. 0. 0. 0. 0.
      0. 0. 0. 0. 0. 0. 7.49297887e-02 0. 2.49765962e-02 2.49765962e-02
      0. 0. 0. 0. 0. 0. 0. 0. 0. 0. 0. 0. 0. 2.49765962e-02
      9.99063849e-02 0. 4.99531925e-02 0. 2.49765962e-02 0. 0. 0. 0.
      2.49765962e-02 0. 0. 7.49297887e-02 0. 7.49297887e-02
      1.24882981e-01 0. 0. 0. 7.49297887e-02 2.49765962e-02
      2.49765962e-02 2.49765962e-02 4.99531925e-02 0. 0. 0. 0. 0. 0. 0.
      0. 0. 0. 0. 0. 0. 0. 0. 0. 0. 0. 0. 0. 0. 2.49765962e-02
      2.49765962e-02 4.99531925e-02 0. 0. 0. 0. 0. 0. 0. 0. 0. 0. 0. 0.
      0. 0. 0. 0. 0. 0. 0. 0. 0. 0. 0. 0. 0. 2.49765962e-02 0. 0. 0.
      2.49765962e-02 2.49765962e-02 1.24882981e-01 0. 4.99531925e-02 0.
      9.99063849e-02 0. 0. 0. 1.24882981e-01 0. 0. 0. 2.49765962e-02 0.
      0. 0. 4.99531925e-02 0. 0. 0. 2.49765962e-02 0. 0. 0. 0. 0. 0. 0.
      2.49765962e-02 0. 2.49765962e-02 0. 1.49859577e-01 2.49765962e-02
      4.99531925e-02 2.49765962e-02 1.74836174e-01 0. 0. 0.
      7.49297887e-02 2.49765962e-02 2.49765962e-02 0. 0. 0. 0.
      2.49765962e-02 2.49765962e-02 3.99625540e-01 9.99063849e-02 0.
      1.49859577e-01 0. 4.99531925e-02 0. 2.49765962e-02 1.49859577e-01
      4.99531925e-02 7.49297887e-02 7.49297887e-02 4.99531925e-02
      1.49859577e-01 9.99063849e-02 5.74461699e-01</_>
    <_>
      5.28890073e-01 5.00524759e-01 6.85383201e-01 9.79577899e-01
      1.06863044e-01 0. 0. 0. 0. 0. 7.12420270e-02 1.18736718e-02 0. 0.
      0. 0. 0. 0. 0. 0. 0. 0. 0. 0. 0. 0. 0. 0. 0. 0. 0. 0. 0. 0. 0. 0.
      0. 0. 0. 1.78105067e-02 1.18736718e-02 0. 0. 0. 0. 0.
      1.42484054e-01 5.34315221e-02 5.93683589e-03 0. 0. 0. 0.
      1.18736718e-02 0. 0. 0. 0. 0. 0. 0. 0. 0. 0. 0. 0. 0. 0. 0. 0. 0.
      0. 0. 0. 0. 0. 0. 0. 0. 0. 0. 0. 0. 0. 0. 0. 0. 0. 0. 0. 0. 0. 0.
      0. 0. 0. 0. 0. 0. 0. 0. 0. 0. 0. 0. 0. 0. 0. 0. 0. 0. 0. 0. 0. 0.
      0. 0. 0. 0. 0. 0. 0. 0. 0. 0. 0. 0. 0. 0. 0. 0. 0. 0. 0. 0. 0. 0.
      0. 0. 0. 0. 0. 0. 0. 0. 0. 0. 0. 0. 0. 0. 0. 0. 0. 0. 0. 0. 0. 0.
      0. 0. 0. 0. 0. 0. 0. 0. 0. 0. 0. 0. 0. 0. 0. 0. 0. 0. 0. 0. 0. 0.
      0. 0. 0. 0. 0. 0. 0. 0. 0. 0. 0. 0. 0. 0. 0. 0. 0. 0. 0. 0. 0. 0.
      0. 0. 0. 0. 0. 0. 0. 0. 0. 0. 0. 0. 0. 0. 0. 0. 3.79868597e-02 0.
      1.89934298e-02 1.89934298e-02 0. 0. 0. 0. 1.89934298e-02 0. 0. 0.
      0. 0. 3.79868597e-02 0. 0. 0. 0. 0. 0. 0. 0. 0. 5.69802895e-02 0.
      0. 0. 1.32954001e-01 0. 1.13960579e-01 1.89934298e-02
      7.59737194e-02 0. 3.79868597e-02 0. 0. 0. 0. 0. 3.79868597e-02 0.
      0. 0. 0. 0. 0. 0. 3.79868597e-02 0. 1.89934298e-02 0. 0. 0.
      3.79868597e-02 1.89934298e-02 1.70940876e-01 0. 1.89934298e-02 0.
      4.93829191e-01 0. 2.46914595e-01 0. 0. 0. 0. 0. 0. 0. 0. 0. 0. 0.
      0. 0. 0. 0. 0. 0. 1.89934298e-02 0. 0. 0. 0. 0. 0. 0. 0. 0. 0. 0.
      0. 0. 1.89934298e-02 0. 3.79868597e-02 0. 0. 0. 0. 0. 0. 0.
      1.89934298e-02 0. 0. 0. 0. 0. 0. 0. 9.49671492e-02 0. 0. 0. 0. 0.
      1.89934298e-02 0. 2.65908003e-01 0. 0. 0. 2.08927721e-01
      1.89934298e-02 1.89934298e-02 3.79868597e-02 0. 0. 0. 0. 0. 0. 0.
      0. 0. 0. 0. 0. 0. 0. 0. 0. 0. 0. 0. 0. 0. 0. 0. 0. 0. 0. 0. 0.
      3.79868597e-02 0. 0. 3.79868597e-02 1.89934298e-02 1.89934298e-02
      0. 0. 0. 0. 0. 0. 0. 0. 0. 0. 0. 0. 0. 0. 0. 0. 0. 1.89934298e-02
      0. 0. 0. 0. 0. 0. 0. 0. 1.89934298e-02 0. 0. 1.89934298e-02 0. 0.
      0. 3.79868597e-02 0. 0. 0. 0. 0. 1.89934298e-02 0. 0. 0. 0. 0. 0.
      1.89934298e-02 0. 0. 0. 0. 0. 0. 0. 1.89934298e-02 3.79868597e-02
      0. 1.89934298e-02 3.79868597e-02 3.79868597e-02 0. 7.59737194e-02
      0. 2.84901440e-01 1.89934298e-02 9.49671492e-02 0. 0. 0. 0.
      1.89934298e-02 1.89934298e-02 0. 1.89934298e-02 0. 0. 0.
      1.89934298e-02 1.89934298e-02 5.69802895e-02 0. 0. 0.
      1.89934298e-02 0. 3.79868597e-02 3.79868597e-02 5.69802895e-02 0.
      1.89934298e-02 1.51947439e-01 1.13960579e-01 7.59737194e-02
      5.69802880e-01</_>
    <_>
      4.99407649e-01 5.96713901e-01 6.28111839e-01 5.59189796e-01
      8.98697898e-02 0. 0. 0. 0. 9.98553168e-03 2.49638289e-01 0. 0. 0.
      0. 0. 0. 0. 0. 0. 0. 0. 0. 0. 0. 0. 0. 0. 0. 0. 0. 0. 0. 0. 0. 0.
      0. 0. 0. 0. 0. 0. 0. 0. 0. 0. 6.69030666e-01 8.98697898e-02 0. 0.
      0. 0. 9.98553168e-03 1.79739580e-01 0. 0. 0. 0. 0. 0. 0. 0. 0. 0.
      0. 0. 0. 0. 0. 0. 0. 0. 0. 0. 0. 0. 0. 0. 0. 0. 0. 0. 0. 0. 0. 0.
      0. 0. 0. 2.49638289e-01 8.98697898e-02 0. 0. 0. 0. 0.
      1.79739580e-01 0. 0. 0. 0. 0. 0. 0. 0. 0. 0. 0. 0. 0. 0. 0. 0. 0.
      0. 0. 0. 0. 0. 0. 0. 0. 0. 0. 0. 0. 0. 0. 0. 0. 0. 0.
      1.59768507e-01 0. 0. 0. 0. 0. 0. 1.99710634e-02 0. 0. 0. 0. 0. 0.
      0. 0. 0. 0. 0. 0. 0. 0. 0. 0. 0. 0. 0. 0. 0. 0. 0. 0. 0. 0. 0. 0.
      0. 0. 0. 0. 0. 0. 0. 9.98553168e-03 0. 0. 0. 0. 0. 0. 0. 0. 0. 0.
      0. 0. 0. 0. 0. 0. 0. 0. 0. 0. 0. 0. 0. 0. 0. 0. 0. 0. 0. 0. 0. 0.
      0. 0. 0. 0. 0. 0. 0. 0. 0. 0. 0. 1.99836925e-01 5.70962653e-02
      2.85481326e-02 2.85481326e-02 2.85481326e-02 0. 8.56443942e-02
      2.85481326e-02 1.14192531e-01 2.85481326e-02 2.85481326e-02
      5.70962653e-02 2.85481326e-02 0. 5.70962653e-02 8.56443942e-02
      5.70962653e-02 5.70962653e-02 0. 0. 2.85481326e-02 0. 0. 0.
      2.85481326e-02 0. 2.85481326e-02 2.85481326e-02 0. 0.
      5.70962653e-02 8.56443942e-02 2.85481326e-02 0. 0. 0. 0. 0. 0.
      2.85481326e-02 2.85481326e-02 0. 0. 0. 2.85481326e-02 0.
      2.85481326e-02 0. 1.14192531e-01 0. 0. 0. 2.85481326e-02 0.
      2.85481326e-02 0. 1.71288788e-01 2.85481326e-02 2.85481326e-02 0.
      1.14192531e-01 2.85481326e-02 2.85481326e-02 0. 2.85481326e-02
      2.85481326e-02 2.85481326e-02 2.85481326e-02 0. 0. 2.85481326e-02
      0. 5.70962653e-02 0. 0. 0. 2.85481326e-02 0. 2.85481326e-02
      5.70962653e-02 0. 0. 0. 2.85481326e-02 0. 0. 0. 0. 0. 0. 0. 0. 0.
      0. 0. 0. 8.56443942e-02 0. 0. 0. 0. 0. 2.85481326e-02
      2.85481326e-02 5.70962653e-02 0. 0. 0. 0. 0. 0. 2.85481326e-02
      1.14192531e-01 0. 2.85481326e-02 0. 2.85481326e-02 0.
      5.70962653e-02 0. 2.28385061e-01 0. 0. 0. 2.56933182e-01 0.
      2.85481326e-02 1.71288788e-01 8.56443942e-02 1.42740667e-01
      2.85481326e-02 2.85481326e-02 0. 0. 0. 8.56443942e-02
      2.85481326e-02 0. 0. 0. 0. 0. 0. 0. 0. 0. 0. 0. 0. 0. 0.
      2.85481326e-02 0. 0. 0. 2.85481326e-02 2.85481326e-02 0. 0.
      5.70962653e-02 2.85481326e-02 0. 0. 5.70962653e-02 0. 0. 0. 0. 0.
      0. 0. 0. 0. 0. 0. 0. 2.85481326e-02 0. 0. 2.85481326e-02 0. 0. 0.
      0. 0. 0. 0. 0. 2.85481326e-02 0. 0. 8.56443942e-02 2.85481326e-02
      5.70962653e-02 0. 5.70962653e-02 2.85481326e-02 0. 0.
      2.85481326e-02 0. 0. 0. 2.85481326e-02 0. 0. 0. 2.85481326e-02
      2.85481326e-02 5.70962653e-02 0. 2.85481326e-02 0. 0. 0.
      2.85481326e-02 5.70962653e-02 0. 0. 0. 0. 0. 0. 1.14192531e-01
      1.42740667e-01 1.14192531e-01 0. 2.85481326e-02 0. 0.
      2.85481326e-02 8.56443942e-02 2.85481326e-02 2.85481326e-02 0. 0.
      0. 0. 5.70962653e-02 1.14192531e-01 1.42740667e-01 1.42740667e-01
      0. 1.14192531e-01 2.85481326e-02 5.70962653e-02 2.85481326e-02
      8.56443942e-02 2.85481326e-02 1.42740667e-01 2.85481326e-02
      1.42740667e-01 1.14192531e-01 1.71288788e-01 1.14192531e-01
      5.70962667e-01</_>
    <_>
      4.28799540e-01 5.19227624e-01 7.39279211e-01 0. 5.01370393e-02 0.
      0. 0. 0. 0. 9.31116462e-01 0. 0. 0. 0. 0. 0. 0. 0. 0. 0. 0. 0. 0.
      0. 0. 0. 0. 0. 0. 0. 0. 0. 0. 0. 0. 0. 0. 0. 0. 0. 0. 0. 0. 0. 0.
      3.50959271e-01 7.87867755e-02 0. 0. 0. 0. 0. 1.43248681e-02 0. 0.
      0. 0. 0. 0. 0. 0. 0. 0. 0. 0. 0. 0. 0. 0. 0. 0. 0. 0. 0. 0. 0. 0.
      0. 0. 0. 0. 7.16243405e-03 7.16243405e-03 0. 0. 0. 0. 0.
      2.86497362e-02 0. 0. 0. 0. 0. 0. 0. 0. 0. 0. 0. 0. 0. 0. 0. 0. 0.
      0. 0. 0. 0. 0. 0. 0. 0. 0. 0. 0. 0. 0. 0. 0. 0. 0. 0. 0. 0. 0. 0.
      0. 0. 0. 0. 0. 0. 0. 0. 0. 0. 0. 0. 0. 0. 0. 0. 0. 0. 0. 0. 0. 0.
      0. 0. 0. 0. 0. 0. 0. 0. 0. 0. 0. 0. 0. 0. 0. 0. 0. 0. 0. 0. 0. 0.
      0. 0. 0. 0. 0. 0. 0. 0. 0. 0. 0. 0. 0. 0. 0. 0. 0. 0. 0. 0. 0. 0.
      0. 0. 0. 0. 0. 0. 0. 0. 0. 0. 0. 0. 0. 0. 0. 0. 0. 0. 0. 0. 0. 0.
      0. 0. 0. 0. 2.45959479e-02 0. 0. 0. 2.45959479e-02 2.45959479e-02
      0. 0. 0. 0. 0. 0. 0. 2.45959479e-02 0. 0. 0. 0. 0. 0. 0. 0.
      2.45959479e-02 0. 2.45959479e-02 0. 2.45959479e-02 0.
      2.45959476e-01 2.45959479e-02 2.45959479e-02 0. 0. 2.45959479e-02
      0. 0. 0. 0. 0. 0. 2.45959479e-02 0. 0. 0. 0. 0. 1.22979738e-01 0.
      0. 0. 0. 0. 0. 0. 1.22979738e-01 0. 0. 0. 0. 0. 4.91918959e-02
      7.37878457e-02 2.45959479e-02 0. 0. 0. 0. 0. 0. 0. 0. 0. 0. 0.
      2.45959479e-02 0. 0. 0. 0. 0. 0. 0. 0. 0. 0. 0. 2.45959479e-02 0.
      0. 0. 0. 0. 0. 2.45959479e-02 7.37878457e-02 0. 0. 0.
      2.45959479e-02 0. 0. 0. 0. 0. 0. 0. 0. 0. 0. 0. 7.37878457e-02 0.
      0. 2.45959479e-02 0. 0. 0. 0. 2.45959476e-01 0. 0. 0.
      1.47575691e-01 0. 1.22979738e-01 0. 0. 0. 0. 7.37878457e-02 0. 0.
      0. 0. 0. 0. 0. 0. 0. 2.45959479e-02 0. 2.45959479e-02
      2.45959479e-02 0. 0. 0. 0. 0. 0. 0. 0. 0. 0. 0. 0. 0.
      2.45959479e-02 4.91918959e-02 0. 2.45959479e-02 0. 0. 0. 0. 0. 0.
      0. 0. 0. 0. 0. 0. 0. 2.45959479e-02 0. 0. 0. 0. 0. 0. 0. 0.
      2.45959479e-02 0. 0. 2.45959479e-02 2.45959479e-02 0. 0. 0.
      7.37878457e-02 2.45959479e-02 0. 2.45959479e-02 0. 2.45959479e-02
      0. 0. 0. 2.45959479e-02 0. 0. 0. 0. 0. 4.91918959e-02 0. 0. 0. 0.
      0. 0. 0. 0. 0. 0. 0. 0. 0. 0. 0. 2.45959479e-02 1.72171637e-01
      2.95151383e-01 2.45959479e-02 1.22979738e-01 2.45959479e-02 0. 0.
      9.83837917e-02 0. 0. 0. 2.45959479e-02 0. 0. 0. 2.45959479e-02
      2.70555437e-01 1.72171637e-01 2.45959479e-02 1.72171637e-01 0.
      4.91918959e-02 0. 7.37878457e-02 1.72171637e-01 9.83837917e-02 0.
      7.37878457e-02 4.91918959e-02 1.22979738e-01 4.91918959e-02
      6.39494658e-01</_>
    <_>
      5.77451169e-01 5.57411671e-01 5.96525311e-01 0. 0. 0. 0. 0. 0. 0.
      0. 0. 0. 0. 0. 0. 0. 0. 0. 0. 0. 0. 0. 0. 0. 0. 0. 0. 0. 0. 0. 0.
      0. 0. 0. 0. 0. 0. 0. 0. 0. 0. 0. 0. 0. 0. 1.10858204e-02
      6.65149242e-02 0. 0. 0. 0. 0. 1.10858204e-02 2.21716408e-02 0. 0.
      0. 0. 0. 0. 0. 0. 0. 0. 0. 0. 0. 0. 0. 0. 0. 0. 0. 0. 0. 0. 0. 0.
      0. 0. 0. 0. 2.21716408e-02 0. 0. 0. 0. 0. 1.88458934e-01
      1.66287318e-01 0. 0. 0. 0. 0. 4.43432815e-02 1.10858204e-02 0. 0.
      0. 0. 0. 0. 0. 0. 0. 0. 0. 0. 0. 0. 0. 0. 0. 0. 0. 0. 0. 0. 0. 0.
      0. 0. 0. 6.65149242e-02 6.65149242e-02 0. 0. 0. 0. 0.
      9.09037292e-01 1.66287318e-01 0. 0. 0. 0. 0. 0. 0. 0. 0. 0. 0. 0.
      0. 0. 0. 0. 0. 0. 0. 0. 0. 0. 0. 0. 0. 0. 0. 0. 0. 0. 0. 0. 0. 0.
      1.44115672e-01 3.32574621e-02 0. 0. 0. 0. 0. 2.10630581e-01 0. 0.
      0. 0. 0. 0. 0. 0. 0. 0. 0. 0. 0. 0. 0. 0. 0. 0. 0. 0. 0. 0. 0. 0.
      0. 0. 0. 0. 0. 0. 0. 0. 0. 0. 0. 0. 0. 0. 0. 0. 0. 0. 0.
      1.60185218e-01 2.66975351e-02 2.66975351e-02 0. 0. 0.
      5.33950701e-02 5.33950701e-02 2.66975351e-02 0. 0. 2.66975351e-02
      8.00926089e-02 0. 8.00926089e-02 2.66975351e-02 2.66975351e-02 0.
      2.66975351e-02 0. 0. 0. 0. 0. 1.06790140e-01 0. 0. 0.
      1.86882749e-01 0. 1.33487672e-01 5.33950701e-02 0. 0. 0. 0. 0. 0.
      0. 0. 0. 0. 0. 0. 0. 0. 0. 0. 1.06790140e-01 5.33950701e-02 0. 0.
      0. 0. 0. 0. 2.40277812e-01 0. 2.66975351e-02 0. 3.47067952e-01 0.
      2.13580281e-01 5.33950701e-02 2.66975351e-02 0. 0. 2.66975351e-02
      0. 0. 0. 0. 0. 0. 0. 0. 0. 0. 2.66975351e-02 0. 0. 0. 0. 0. 0. 0.
      0. 0. 0. 0. 0. 0. 0. 0. 2.66975351e-02 0. 2.66975351e-02 0.
      2.66975351e-02 0. 0. 0. 0. 0. 0. 0. 0. 0. 0. 0. 0. 0.
      1.86882749e-01 0. 0. 0. 0. 0. 0. 0. 1.86882749e-01 0. 0. 0.
      5.33950701e-02 0. 2.66975351e-02 0. 5.33950701e-02 0. 0.
      5.33950701e-02 0. 5.33950701e-02 0. 5.33950701e-02 0. 0. 0. 0. 0.
      0. 2.66975351e-02 0. 0. 0. 0. 0. 0. 0. 0. 0. 0. 0. 0. 0. 0. 0. 0.
      2.66975351e-02 2.66975351e-02 0. 0. 0. 0. 0. 0. 2.66975351e-02 0.
      0. 0. 0. 0. 0. 0. 0. 2.66975351e-02 0. 0. 0. 0. 0. 0. 0. 0. 0. 0.
      0. 0. 0. 0. 0. 2.66975351e-02 2.66975351e-02 0. 8.00926089e-02 0.
      0. 0. 8.00926089e-02 0. 0. 0. 0. 0. 0. 0. 0. 0. 0. 0. 0. 0. 0. 0.
      0. 0. 0. 0. 0. 2.66975351e-02 0. 0. 0. 2.66975343e-01
      5.33950686e-01 0. 2.66975351e-02 0. 0. 0. 0. 0. 0. 0. 0. 0.
      2.66975351e-02 0. 5.33950701e-02 3.73765498e-01 1.06790140e-01
      2.66975351e-02 0. 0. 0. 0. 2.66975351e-02 8.00926089e-02
      8.00926089e-02 2.66975351e-02 2.66975351e-02 2.66975351e-02
      5.33950701e-02 2.66975351e-02 5.33950701e-02</_>
    <_>
      5.81458926e-01 5.56316853e-01 5.93647301e-01 0. 3.94549035e-02 0.
      0. 0. 0. 0. 5.91823570e-02 0. 0. 0. 0. 0. 0. 0. 0. 0. 0. 0. 0. 0.
      0. 0. 0. 0. 0. 0. 0. 0. 0. 0. 0. 0. 0. 0. 0. 0. 0. 0. 0. 0. 0. 0.
      8.54856297e-02 5.26065379e-02 0. 0. 0. 0. 0. 0. 0. 0. 0. 0. 0. 0.
      0. 0. 0. 0. 0. 0. 0. 0. 0. 0. 0. 0. 0. 0. 0. 0. 0. 0. 0. 0. 0. 0.
      0. 1.97274517e-02 0. 0. 0. 0. 0. 3.15639228e-01 4.60307188e-02 0.
      0. 0. 0. 0. 0. 0. 0. 0. 0. 0. 0. 0. 0. 0. 0. 0. 0. 0. 0. 0. 0. 0.
      0. 0. 0. 0. 0. 0. 0. 0. 0. 0. 0. 3.28790843e-02 9.86372679e-02 0.
      0. 0. 0. 0. 9.33766067e-01 0. 0. 0. 0. 0. 0. 0. 0. 0. 0. 0. 0. 0.
      0. 0. 0. 0. 0. 0. 0. 0. 0. 0. 0. 0. 0. 0. 0. 0. 0. 0. 0. 0. 0. 0.
      0. 0. 0. 0. 0. 0. 0. 0. 0. 0. 0. 0. 0. 0. 0. 0. 0. 0. 0. 0. 0. 0.
      0. 0. 0. 0. 0. 0. 0. 0. 0. 0. 0. 0. 0. 0. 0. 0. 0. 0. 0. 0. 0. 0.
      0. 0. 0. 0. 0. 0. 0. 1.18900523e-01 0. 1.18900523e-01
      5.09573668e-02 3.39715779e-02 0. 5.09573668e-02 5.09573668e-02 0.
      0. 0. 0. 0. 0. 1.69857889e-01 6.79431558e-02 0. 0. 0. 0. 0. 0. 0.
      0. 1.69857889e-02 0. 1.69857889e-02 0. 1.69857889e-02 0.
      1.01914734e-01 2.37801045e-01 1.52872100e-01 0. 3.39715779e-02 0.
      0. 0. 1.69857889e-02 0. 0. 0. 0. 0. 1.69857889e-02 0.
      1.69857889e-02 0. 1.69857889e-02 0. 1.69857889e-02 0. 0. 0.
      1.69857889e-02 0. 0. 0. 0. 0. 1.01914734e-01 0. 1.35886312e-01
      5.09573668e-02 0. 0. 0. 0. 0. 0. 0. 0. 0. 0. 0. 0. 0. 0. 0. 0. 0.
      0. 0. 0. 0. 0. 0. 0. 0. 0. 0. 0. 0. 0. 0. 0. 1.69857889e-02 0.
      3.39715779e-02 0. 0. 0. 1.69857889e-02 0. 0. 0. 0. 0. 0. 0.
      1.69857889e-02 0. 1.69857889e-02 0. 0. 0. 0. 0. 0. 0.
      3.39715779e-02 0. 0. 0. 0. 0. 0. 1.69857889e-02 0. 0. 0.
      3.39715779e-02 0. 0. 0. 6.79431558e-02 0. 0. 0. 0. 0. 0. 0.
      6.79431558e-02 0. 0. 0. 0. 0. 0. 0. 1.69857889e-02 0.
      1.69857889e-02 0. 0. 0. 0. 0. 1.69857889e-01 0. 1.69857889e-02 0.
      1.69857889e-02 0. 0. 0. 0. 0. 0. 0. 0. 0. 0. 0. 0. 0.
      1.69857889e-02 0. 0. 0. 0. 0. 0. 0. 0. 0. 0. 0. 0. 0.
      6.79431558e-02 0. 5.09573668e-02 0. 7.81346321e-01 0. 0. 0.
      1.01914734e-01 0. 0. 0. 0. 0. 0. 0. 6.79431558e-02 0. 0. 0. 0. 0.
      0. 0. 0. 0. 0. 0. 1.69857889e-02 1.69857889e-02 0. 1.69857889e-02
      3.39715779e-02 3.39715779e-02 1.86843678e-01 3.39715779e-02
      1.52872100e-01 0. 0. 0. 0. 0. 0. 0. 0. 0. 0. 0. 1.69857889e-02
      1.69857889e-02 6.79431558e-02 0. 1.69857889e-02 0. 0. 0.
      1.69857889e-02 6.79431558e-02 3.39715779e-02 0. 1.69857889e-02 0.
      1.01914734e-01 1.69857889e-02 2.03829467e-01</_>
    <_>
      4.90271240e-01 4.97698158e-01 7.15493321e-01 9.77789462e-01
      2.07549646e-01 0. 0. 0. 0. 0. 0. 0. 0. 0. 0. 0. 0. 0. 0. 0. 0. 0.
      0. 0. 0. 0. 0. 0. 0. 0. 0. 0. 0. 0. 0. 0. 0. 0. 0. 0.
      9.22442880e-03 0. 0. 0. 0. 0. 2.76732855e-02 0. 0. 0. 0. 0. 0. 0.
      0. 0. 0. 0. 0. 0. 0. 0. 0. 0. 0. 0. 0. 0. 0. 0. 0. 0. 0. 0. 0. 0.
      0. 0. 0. 0. 0. 0. 0. 0. 0. 0. 0. 0. 0. 0. 0. 0. 0. 0. 0. 0. 0. 0.
      0. 0. 0. 0. 0. 0. 0. 0. 0. 0. 0. 0. 0. 0. 0. 0. 0. 0. 0. 0. 0. 0.
      0. 0. 0. 0. 0. 0. 0. 0. 0. 0. 0. 0. 0. 0. 0. 0. 0. 0. 0. 0. 0. 0.
      0. 0. 0. 0. 0. 0. 0. 0. 0. 0. 0. 0. 0. 0. 0. 0. 0. 0. 0. 0. 0. 0.
      0. 0. 0. 0. 0. 0. 0. 0. 0. 0. 0. 0. 0. 0. 0. 0. 0. 0. 0. 0. 0. 0.
      0. 0. 0. 0. 0. 0. 0. 0. 0. 0. 0. 0. 0. 0. 0. 0. 0. 0. 0. 0. 0. 0.
      0. 0. 0. 0. 0. 0. 0. 0. 0. 0. 0. 2.69069113e-02 1.34534556e-02
      1.34534556e-02 0. 0. 0. 1.34534556e-02 1.34534556e-02
      2.69069113e-02 0. 0. 0. 0. 0. 0. 0. 1.34534556e-02 0. 0.
      1.34534556e-02 0. 0. 0. 0. 0. 1.34534556e-02 0. 0. 1.34534556e-02
      0. 3.76696765e-01 0. 4.03603688e-02 0. 4.03603688e-02 0.
      1.34534556e-02 0. 0. 0. 0. 0. 0. 0. 0. 1.34534556e-02
      1.34534556e-02 1.34534556e-02 0. 0. 0. 0. 0. 0. 0. 0.
      2.69069113e-02 0. 0. 0. 5.38138226e-02 1.34534556e-02
      2.15255290e-01 5.38138226e-02 0. 0. 0. 0. 0. 0. 1.34534556e-02 0.
      0. 0. 0. 0. 0. 0. 0. 0. 0. 0. 0. 0. 0. 0. 0. 0. 0. 0. 0. 0. 0. 0.
      0. 0. 1.34534556e-02 0. 2.69069113e-02 0. 0. 0. 0. 0. 0. 0. 0. 0.
      0. 0. 0. 0. 0. 0. 0. 0. 0. 0. 0. 0. 0. 0. 0. 0. 1.34534556e-02 0.
      1.07627645e-01 1.34534556e-02 0. 0. 0. 0. 0. 0. 0. 0. 0. 0. 0. 0.
      0. 0. 0. 0. 0. 0. 0. 0. 0. 0. 0. 0. 0. 0. 0. 0. 2.69069113e-02 0.
      0. 0. 0. 0. 0. 0. 0. 0. 0. 1.34534556e-02 0. 0. 0. 0. 0. 0. 0.
      1.34534556e-02 0. 0. 0. 0. 0. 0. 0. 0. 0. 0. 0. 0. 1.34534556e-02
      0. 0. 2.69069113e-02 0. 2.69069113e-02 0. 1.07627645e-01 0. 0. 0.
      0. 0. 0. 0. 0. 0. 0. 0. 0. 0. 0. 0. 4.03603688e-02 0. 0. 0. 0. 0.
      0. 0. 0. 0. 0. 1.34534556e-02 1.47988006e-01 5.38138226e-02
      2.95976013e-01 2.69069113e-02 3.76696765e-01 0. 1.34534556e-02 0.
      6.72672763e-02 0. 0. 0. 0. 0. 1.34534556e-02 0. 5.38138226e-02 0.
      1.34534556e-02 1.34534556e-02 6.72672763e-02 0. 0. 0. 0. 0.
      5.38138226e-02 0. 4.03603688e-02 2.69069113e-02 8.07207376e-02
      1.34534556e-02 6.99579716e-01</_>
    <_>
      5.70218563e-01 5.55514753e-01 6.05189264e-01 0. 0. 0. 0. 0. 0. 0.
      0. 0. 0. 0. 0. 0. 0. 0. 0. 0. 0. 0. 0. 0. 0. 0. 0. 0. 0. 0. 0. 0.
      0. 0. 0. 0. 0. 0. 0. 0. 0. 0. 0. 0. 0. 0. 0. 5.51214479e-02 0. 0.
      0. 0. 0. 4.28722352e-02 0. 0. 0. 0. 0. 0. 0. 0. 0. 0. 0. 0. 0. 0.
      0. 0. 0. 0. 0. 0. 0. 0. 0. 0. 0. 0. 0. 0. 0. 0. 0. 0. 0. 0. 0.
      9.79936779e-01 7.34952614e-02 0. 0. 0. 0. 0. 0. 0. 0. 0. 0. 0. 0.
      0. 0. 0. 0. 0. 0. 0. 0. 0. 0. 0. 0. 0. 0. 0. 0. 0. 0. 0. 0. 0. 0.
      6.12460542e-03 1.71488941e-01 0. 0. 0. 0. 0. 0. 0. 0. 0. 0. 0. 0.
      0. 0. 0. 0. 0. 0. 0. 0. 0. 0. 0. 0. 0. 0. 0. 0. 0. 0. 0. 0. 0. 0.
      0. 0. 0. 0. 0. 0. 0. 0. 0. 0. 0. 0. 0. 0. 0. 0. 0. 0. 0. 0. 0. 0.
      0. 0. 0. 0. 0. 0. 0. 0. 0. 0. 0. 0. 0. 0. 0. 0. 0. 0. 0. 0. 0. 0.
      0. 0. 0. 0. 0. 0. 0. 0. 0. 0. 0. 0. 0. 0. 2.15315316e-02
      2.15315316e-02 4.30630632e-02 6.45945966e-02 2.15315316e-02
      2.15315316e-02 6.45945966e-02 8.61261263e-02 2.15315316e-02 0. 0.
      0. 2.15315316e-02 0. 1.07657656e-01 4.52162176e-01 0. 0. 0. 0.
      4.30630632e-02 0. 0. 0. 2.15315316e-02 0. 0. 0. 6.45945966e-02 0.
      1.50720716e-01 2.36846849e-01 0. 0. 0. 0. 2.15315316e-02 0. 0. 0.
      2.15315316e-02 0. 0. 0. 0. 0. 0. 0. 0. 0. 0. 0. 0. 2.15315316e-02
      0. 0. 0. 0. 0. 0. 4.30630632e-02 0. 2.79909909e-01 6.45945966e-02
      0. 0. 0. 0. 0. 0. 0. 0. 0. 0. 0. 0. 0. 0. 0. 2.15315316e-02 0. 0.
      0. 0. 0. 0. 0. 0. 0. 0. 0. 0. 0. 0. 4.30630632e-02 0. 0. 0. 0. 0.
      0. 0. 0. 0. 0. 0. 0. 0. 0. 0. 0. 0. 0. 0. 0. 0. 0. 0. 0. 0. 0. 0.
      0. 0. 0. 0. 2.15315316e-02 6.45945966e-02 2.15315316e-02
      2.15315316e-02 2.15315316e-02 1.93783790e-01 0. 0. 2.15315316e-02
      4.09099102e-01 0. 0. 0. 2.15315316e-02 0. 0. 0. 4.09099102e-01 0.
      0. 0. 0. 0. 0. 0. 0. 0. 0. 0. 0. 0. 2.15315316e-02 0.
      1.07657656e-01 0. 0. 0. 0. 0. 0. 0. 0. 0. 0. 0. 0. 0. 0. 0. 0. 0.
      0. 0. 0. 0. 0. 0. 0. 0. 0. 0. 0. 0. 0. 0. 1.29189193e-01 0.
      2.15315316e-02 0. 1.50720716e-01 0. 0. 2.15315316e-02
      2.79909909e-01 0. 0. 0. 0. 0. 0. 0. 1.50720716e-01 0. 0. 0. 0. 0.
      0. 0. 0. 0. 0. 0. 0. 0. 0. 0. 8.61261263e-02 0. 4.30630632e-02 0.
      1.50720716e-01 0. 0. 0. 4.30630632e-02 0. 0. 0. 0. 0. 0. 0.
      6.45945966e-02 0. 4.30630632e-02 0. 0. 0. 0. 0. 2.15315316e-02 0.
      0. 0. 0. 0. 0. 2.15315316e-02 1.29189193e-01</_>
    <_>
      5.56645274e-01 5.74239433e-01 6.00329161e-01 0. 0. 0. 0. 0. 0. 0.
      0. 0. 0. 0. 0. 0. 0. 0. 0. 0. 0. 0. 0. 0. 0. 0. 0. 0. 0. 0. 0. 0.
      0. 0. 0. 0. 0. 0. 0. 0. 0. 0. 0. 0. 0. 0. 0. 0. 0. 0. 0. 0. 0.
      1.38250310e-02 0. 0. 0. 0. 0. 0. 1.38250310e-02 0. 0. 0. 0. 0. 0.
      0. 0. 0. 0. 0. 0. 0. 0. 0. 0. 0. 0. 0. 0. 0. 0. 0. 0. 0. 0. 0. 0.
      0. 2.76500620e-02 0. 0. 0. 0. 0. 8.29501897e-02 2.76500620e-02 0.
      0. 0. 0. 0. 2.76500620e-02 0. 0. 0. 0. 0. 0. 0. 0. 0. 0. 0. 0. 0.
      0. 0. 0. 0. 0. 0. 0. 0. 0. 0. 0. 0. 0. 0. 0. 1.24425285e-01
      8.29501897e-02 0. 0. 0. 0. 0. 1.52075350e-01 2.76500620e-02 0. 0.
      0. 0. 0. 0. 0. 0. 0. 0. 0. 0. 0. 0. 0. 0. 0. 0. 0. 0. 0. 0. 0. 0.
      0. 0. 0. 0. 5.53001240e-02 0. 0. 0. 0. 0. 4.42400992e-01
      1.24425285e-01 0. 0. 0. 0. 0. 1.24425285e-01 0. 0. 0. 0. 0. 0. 0.
      0. 0. 0. 0. 0. 0. 0. 0. 0. 0. 0. 0. 0. 0. 0. 0. 0. 0. 0. 0. 0.
      1.38250310e-02 5.53001240e-02 0. 0. 0. 0. 0. 8.43326926e-01
      5.70214450e-01 1.14042893e-01 3.80142964e-02 7.60285929e-02 0.
      3.80142964e-02 0. 7.60285929e-02 1.52057186e-01 7.60285929e-02
      1.14042893e-01 3.80142964e-02 7.60285929e-02 0. 1.52057186e-01
      1.52057186e-01 0. 0. 0. 0. 0. 0. 3.80142964e-02 0. 1.14042893e-01
      0. 7.60285929e-02 0. 0. 0. 3.80142964e-02 1.90071478e-01 0.
      3.80142964e-02 0. 0. 3.80142964e-02 0. 0. 7.60285929e-02 0. 0.
      3.80142964e-02 0. 0. 0. 0. 0. 1.14042893e-01 0. 0. 0. 0. 0. 0. 0.
      3.80142964e-02 0. 0. 3.80142964e-02 0. 0. 0. 1.14042893e-01
      3.80142964e-02 0. 0. 0. 0. 0. 0. 0. 3.80142964e-02 0. 0. 0.
      7.60285929e-02 0. 0. 0. 0. 0. 0. 0. 0. 0. 0. 0. 0. 0. 0. 0. 0. 0.
      0. 0. 7.60285929e-02 0. 0. 3.80142964e-02 3.80142964e-02 0. 0. 0.
      3.80142964e-02 0. 0. 0. 0. 0. 0. 0. 1.90071478e-01 0. 0. 0.
      3.80142964e-02 0. 0. 0. 7.60285929e-02 0. 0. 0. 0. 0.
      1.52057186e-01 1.14042893e-01 2.28085786e-01 0. 0. 3.80142964e-02
      3.80142964e-02 7.60285929e-02 3.80142964e-02 1.52057186e-01 0. 0.
      3.80142964e-02 0. 0. 3.80142964e-02 3.80142964e-02 7.60285929e-02
      0. 0. 0. 0. 0. 0. 0. 0. 0. 3.80142964e-02 0. 3.80142964e-02 0. 0.
      0. 0. 3.80142964e-02 0. 0. 0. 0. 0. 0. 0. 0. 0. 0. 0. 0. 0. 0. 0.
      0. 0. 0. 0. 3.80142964e-02 0. 0. 0. 0. 0. 0. 0. 0. 0. 0. 0.
      3.80142964e-02 3.80142964e-02 0. 0. 0. 0. 0. 3.80142964e-02 0. 0.
      0. 0. 0. 0. 3.80142964e-02 3.80142964e-02 3.80142964e-02 0. 0. 0.
      0. 0. 0. 0. 0. 0. 0. 0. 0. 0. 0. 7.60285929e-02 7.60285929e-02 0.
      0. 0. 0. 0. 0. 7.60285929e-02 7.60285929e-02 3.80142964e-02 0. 0.
      0. 0. 3.80142964e-02 0. 1.52057186e-01 7.60285929e-02 0.
      1.14042893e-01 0. 0. 3.80142964e-02 0. 1.52057186e-01
      3.80142964e-02 0. 3.80142964e-02 7.60285929e-02 0. 3.80142964e-02
      3.80142957e-01</_>
    <_>
      3.70774120e-01 5.17003953e-01 7.71513760e-01 0. 7.20358133e-01 0.
      0. 0. 0. 0. 6.38291955e-01 0. 0. 0. 0. 0. 0. 0. 0. 0. 0. 0. 0. 0.
      0. 0. 0. 0. 0. 0. 0. 0. 0. 0. 0. 0. 0. 0. 0. 0. 0. 0. 0. 0. 0. 0.
      6.38291985e-02 2.18842968e-01 0. 0. 0. 0. 0. 5.47107421e-02 0. 0.
      0. 0. 0. 0. 0. 0. 0. 0. 0. 0. 0. 0. 0. 0. 0. 0. 0. 0. 0. 0. 0. 0.
      0. 0. 0. 0. 0. 0. 0. 0. 0. 0. 0. 1.36776865e-01 0. 0. 0. 0. 0. 0.
      0. 0. 0. 0. 0. 0. 0. 0. 0. 0. 0. 0. 0. 0. 0. 0. 0. 0. 0. 0. 0. 0.
      0. 0. 0. 0. 0. 0. 0. 0. 0. 0. 0. 0. 0. 0. 0. 0. 0. 0. 0. 0. 0. 0.
      0. 0. 0. 0. 0. 0. 0. 0. 0. 0. 0. 0. 0. 0. 0. 0. 0. 0. 0. 0. 0. 0.
      0. 0. 0. 0. 0. 0. 0. 0. 0. 0. 0. 0. 0. 0. 0. 0. 0. 0. 0. 0. 0. 0.
      0. 0. 0. 0. 0. 0. 0. 0. 0. 0. 0. 0. 0. 0. 0. 0. 0. 0. 0. 0. 0. 0.
      0. 0. 0. 0. 0. 0. 0. 0. 0. 0. 0. 0. 0. 3.85830142e-02 0. 0. 0.
      1.92915071e-02 0. 0. 0. 0. 0. 0. 0. 0. 0. 0. 0. 1.92915071e-02 0.
      0. 1.92915071e-02 0. 0. 0. 0. 0. 0. 1.92915071e-02 0.
      5.78745231e-02 0. 6.55911267e-01 1.92915071e-02 0. 0. 0. 0. 0. 0.
      0. 0. 0. 0. 0. 0. 0. 0. 1.92915071e-02 0. 3.85830142e-02 0. 0. 0.
      0. 0. 0. 0. 1.73623562e-01 0. 0. 0. 2.50789583e-01 1.92915071e-02
      3.27955633e-01 1.92915071e-02 1.92915071e-02 0. 0. 0. 0. 0. 0. 0.
      0. 0. 0. 0. 0. 0. 0. 0. 0. 0. 0. 0. 0. 0. 0. 0. 0. 0. 0. 0. 0. 0.
      1.92915071e-02 0. 0. 0. 0. 0. 0. 0. 1.92915071e-02 0. 0. 0. 0. 0.
      0. 0. 0. 0. 1.92915071e-02 0. 0. 0. 0. 0. 0. 0. 1.92915071e-02
      1.92915071e-02 0. 0. 7.71660283e-02 3.85830142e-02 7.71660283e-02
      0. 1.92915071e-02 0. 0. 1.92915071e-02 0. 0. 0. 0. 0. 0. 0. 0. 0.
      0. 0. 0. 1.92915071e-02 0. 0. 0. 0. 0. 0. 0. 0. 0. 0. 0. 0. 0. 0.
      3.85830142e-02 0. 0. 0. 0. 0. 0. 0. 1.92915071e-02 0. 0. 0. 0. 0.
      0. 0. 0. 0. 0. 0. 0. 0. 0. 0. 0. 0. 0. 0. 0. 0. 0. 0. 0. 0. 0. 0.
      3.85830142e-02 0. 0. 0. 1.92915071e-02 0. 0. 0. 0. 0. 0. 0. 0. 0.
      0. 0. 0. 0. 0. 0. 0. 0. 0. 0. 0. 0. 0. 0. 7.71660283e-02
      1.35040551e-01 3.85830142e-02 1.92915071e-02 7.71660283e-02 0. 0.
      0. 5.78745231e-02 0. 1.92915071e-02 0. 0. 0. 0. 0. 1.92915071e-02
      1.92915071e-02 3.85830142e-02 0. 1.35040551e-01 1.92915071e-02 0.
      0. 0. 2.31498092e-01 9.64575335e-02 0. 5.78745231e-02
      1.15749046e-01 7.71660283e-02 1.92915071e-02 4.43704665e-01</_>
    <_>
      5.80803752e-01 5.43481350e-01 6.06048763e-01 9.82342780e-01 0. 0.
      0. 0. 0. 0. 0. 0. 0. 0. 0. 0. 0. 0. 0. 0. 0. 0. 0. 0. 0. 0. 0. 0.
      0. 0. 0. 0. 0. 0. 0. 0. 0. 0. 0. 0. 0. 0. 0. 0. 0. 0.
      1.54456407e-01 6.17825659e-03 0. 0. 0. 0. 0. 0. 0. 0. 0. 0. 0. 0.
      0. 0. 0. 0. 0. 0. 0. 0. 0. 0. 0. 0. 0. 0. 0. 0. 0. 0. 0. 0. 0. 0.
      6.17825659e-03 6.17825659e-03 0. 0. 0. 0. 0. 1.05030358e-01 0. 0.
      0. 0. 0. 0. 0. 0. 0. 0. 0. 0. 0. 0. 0. 0. 0. 0. 0. 0. 0. 0. 0. 0.
      0. 0. 0. 0. 0. 0. 0. 0. 0. 0. 0. 0. 0. 0. 0. 0. 0. 0. 0. 0. 0. 0.
      0. 0. 0. 0. 0. 0. 0. 0. 0. 0. 0. 0. 0. 0. 0. 0. 0. 0. 0. 0. 0. 0.
      0. 0. 0. 0. 0. 0. 0. 0. 0. 0. 0. 0. 0. 0. 0. 0. 0. 0. 0. 0. 0. 0.
      0. 0. 0. 0. 0. 0. 0. 0. 0. 0. 0. 0. 0. 0. 0. 0. 0. 0. 0. 0. 0. 0.
      0. 0. 0. 0. 0. 0. 0. 0. 0. 0. 0. 0. 0. 0. 0. 0. 0. 8.07792395e-02
      2.01948099e-02 2.01948099e-02 2.01948099e-02 2.01948099e-02 0.
      8.07792395e-02 2.01948099e-02 0. 0. 2.01948099e-02 0.
      2.01948099e-02 0. 6.05844297e-02 2.01948099e-02 0. 0. 0. 0.
      2.01948099e-02 0. 2.01948099e-02 0. 1.00974053e-01 0. 0. 0.
      1.00974053e-01 4.03896198e-02 4.84675437e-01 2.01948099e-02 0. 0.
      2.01948099e-02 2.01948099e-02 2.01948099e-02 0. 0. 0. 0. 0. 0. 0.
      0. 2.01948099e-02 0. 0. 2.01948099e-02 0. 0. 0. 0. 0. 0. 0.
      6.05844297e-02 2.01948099e-02 0. 0. 1.21168859e-01 2.01948099e-02
      2.22142905e-01 6.05844297e-02 0. 0. 0. 0. 2.01948099e-02 0. 0. 0.
      0. 0. 0. 0. 2.01948099e-02 0. 0. 0. 0. 0. 0. 0. 0. 0.
      2.01948099e-02 0. 0. 0. 0. 0. 0. 0. 2.01948099e-02 2.01948099e-02
      0. 0. 0. 0. 0. 0. 0. 0. 0. 2.01948099e-02 0. 0. 0. 0.
      4.03896198e-02 2.01948099e-02 4.03896198e-02 0. 2.01948099e-02 0.
      0. 0. 0. 2.01948099e-02 2.01948099e-02 0. 0. 2.01948099e-02
      2.01948099e-02 0. 2.01948099e-02 4.03896198e-02 2.01948099e-02 0.
      0. 8.07792395e-02 0. 0. 0. 0. 0. 0. 0. 0. 0. 0. 0. 2.01948099e-02
      0. 0. 0. 0. 0. 2.01948099e-02 0. 0. 0. 4.03896198e-02 0.
      2.01948099e-02 2.01948099e-02 0. 0. 6.05844297e-02 2.01948099e-02
      0. 0. 2.01948099e-02 2.01948099e-02 0. 0. 0. 0. 0. 0. 0. 0. 0. 0.
      4.03896198e-02 2.01948099e-02 0. 0. 0. 0. 0. 0. 0. 0. 0. 0.
      2.01948099e-02 2.01948099e-02 0. 0. 6.05844297e-02 2.01948099e-02
      2.01948099e-02 0. 4.03896198e-02 0. 0. 0. 0. 2.01948099e-02 0. 0.
      0. 0. 0. 0. 4.03896198e-02 0. 0. 0. 0. 0. 0. 0. 2.01948099e-02 0.
      0. 0. 0. 2.01948099e-02 0. 0. 8.07792395e-02 4.03896198e-02 0. 0.
      0. 2.01948099e-02 0. 2.01948099e-02 0. 2.01948099e-02 0. 0. 0. 0.
      2.01948099e-02 0. 0. 0. 0. 0. 0. 2.01948099e-02 0. 0.
      2.01948099e-02 4.03896198e-02 4.03896198e-02 2.01948099e-02
      2.01948099e-02 4.03896198e-02 4.03896198e-02 6.05844297e-02
      7.67402768e-01</_>
    <_>
      5.64167082e-01 5.63231945e-01 6.03726208e-01 2.95828655e-02
      1.97219104e-02 0. 0. 0. 0. 0. 3.94438207e-02 0. 0. 0. 0. 0. 0. 0.
      0. 0. 0. 0. 0. 0. 0. 0. 0. 0. 0. 0. 0. 0. 0. 0. 0. 0. 0. 0. 0. 0.
      9.86095518e-03 0. 0. 0. 0. 0. 1.38053373e-01 1.97219104e-02 0. 0.
      0. 0. 0. 4.93047722e-02 0. 0. 0. 0. 0. 0. 0. 0. 0. 0. 0. 0. 0. 0.
      0. 0. 0. 0. 0. 0. 0. 0. 0. 0. 0. 0. 0. 0. 0. 0. 0. 0. 0. 0. 0.
      2.07080051e-01 1.38053373e-01 0. 0. 0. 0. 0. 7.88876414e-02 0. 0.
      0. 0. 0. 0. 0. 0. 0. 0. 0. 0. 0. 0. 0. 0. 0. 0. 0. 0. 0. 0. 0. 0.
      0. 0. 0. 0. 9.86095518e-03 1.47914335e-01 0. 0. 0. 0. 0.
      8.67763996e-01 2.26801977e-01 0. 0. 0. 0. 0. 5.91657311e-02 0. 0.
      0. 0. 0. 0. 0. 0. 0. 0. 0. 0. 0. 0. 0. 0. 0. 0. 0. 0. 0. 0. 0. 0.
      0. 0. 0. 0. 1.97219104e-02 1.97219104e-02 0. 0. 0. 0. 0.
      2.76106745e-01 9.86095518e-03 0. 0. 0. 0. 0. 0. 0. 0. 0. 0. 0. 0.
      0. 0. 0. 0. 0. 0. 0. 0. 0. 0. 0. 0. 0. 0. 0. 0. 0. 0. 0. 0. 0. 0.
      0. 0. 0. 0. 0. 0. 0. 0. 3.92232269e-01 2.80165914e-02
      2.80165914e-02 0. 8.40497762e-02 0. 5.60331829e-02 2.80165914e-02
      1.96116135e-01 5.60331829e-02 5.60331829e-02 5.60331829e-02
      8.40497762e-02 2.80165914e-02 2.80165914e-02 2.80165911e-01
      2.80165914e-02 0. 0. 2.80165914e-02 0. 0. 2.80165914e-02
      2.80165914e-02 1.12066366e-01 0. 0. 2.80165914e-02 2.80165914e-02
      0. 1.12066366e-01 5.60331829e-02 1.40082955e-01 0. 0. 0.
      2.80165914e-02 0. 2.80165914e-02 0. 0. 0. 0. 0. 2.80165914e-02 0.
      0. 0. 2.80165914e-02 0. 0. 0. 5.60331829e-02 0. 0. 5.60331829e-02
      2.80165914e-02 5.60331829e-02 0. 0. 3.92232269e-01 0.
      8.40497762e-02 1.40082955e-01 2.80165914e-02 2.80165914e-02
      2.80165914e-02 0. 0. 0. 0. 2.80165914e-02 0. 0. 0. 2.80165914e-02
      0. 0. 0. 2.80165914e-02 0. 0. 0. 0. 0. 0. 0. 0. 0. 0. 0. 0. 0. 0.
      2.80165914e-02 2.80165914e-02 8.40497762e-02 0. 0. 0. 0. 0. 0. 0.
      0. 0. 0. 0. 0. 0. 0. 2.80165914e-02 2.80165914e-02 0.
      2.80165914e-02 0. 0. 0. 2.80165914e-02 0. 5.60331829e-02 0.
      2.80165914e-02 0. 1.40082955e-01 2.80165914e-02 2.80165914e-02
      5.60331829e-02 2.80165914e-02 2.80165914e-02 2.80165914e-02
      5.60331829e-02 2.80165914e-02 0. 0. 5.60331829e-02 5.60331829e-02
      0. 0. 2.80165914e-02 2.80165914e-02 0. 0. 1.12066366e-01
