<?xml version="1.0"?>
<opencv_storage>
<opencv_ml_svm>
  <format>3</format>
  <svmType>C_SVC</svmType>
  <kernel>
    <type>RBF</type>
    <gamma>3.3750000000000002e-02</gamma></kernel>
  <C>1.2500000000000000e+01</C>
  <term_criteria><iterations>100</iterations></term_criteria>
  <var_count>475</var_count>
  <class_count>2</class_count>
  <class_labels type_id="opencv-matrix">
    <rows>2</rows>
    <cols>1</cols>
    <dt>i</dt>
    <data>
      1 2</data></class_labels>
  <sv_total>73</sv_total>
  <support_vectors>
    <_>
      4.23985690e-01 5.62701643e-01 7.09649861e-01 0. 0. 0. 0. 0. 0. 0.
      3.55565310e-01 2.07413092e-01 0. 0. 0. 0. 0. 0. 0. 0. 0. 0. 0. 0.
      0. 0. 0. 0. 0. 0. 0. 0. 0. 0. 0. 0. 0. 0. 0. 0. 0. 0. 0. 0. 0. 0.
      0. 2.66673982e-01 0. 0. 0. 0. 0. 4.44456667e-01 3.25934857e-01 0.
      0. 0. 0. 0. 0. 0. 0. 0. 0. 0. 0. 0. 0. 0. 0. 0. 0. 0. 0. 0. 0. 0.
      0. 0. 0. 0. 0. 0. 0. 0. 0. 0. 0. 0. 3.55565310e-01 0. 0. 0. 0. 0.
      2.96304405e-01 2.96304405e-01 0. 0. 0. 0. 0. 0. 0. 0. 0. 0. 0. 0.
      0. 0. 0. 0. 0. 0. 0. 0. 0. 0. 0. 0. 0. 0. 0. 0. 0. 0. 0. 0. 0. 0.
      0. 3.85195762e-01 0. 0. 0. 0. 0. 5.92608862e-02 2.96304431e-02 0.
      0. 0. 0. 0. 0. 0. 0. 0. 0. 0. 0. 0. 0. 0. 0. 0. 0. 0. 0. 0. 0. 0.
      0. 0. 0. 0. 0. 0. 0. 0. 0. 0. 0. 0. 2.96304431e-02 0. 0. 0. 0. 0.
      0. 0. 0. 0. 0. 0. 0. 0. 0. 0. 0. 0. 0. 0. 0. 0. 0. 0. 0. 0. 0. 0.
      0. 0. 0. 0. 0. 0. 0. 0. 0. 0. 0. 0. 0. 0. 0. 1.10769756e-01 0.
      5.53848781e-02 0. 0. 0. 0. 1.10769756e-01 5.53848781e-02 0. 0. 0.
      0. 0. 1.10769756e-01 2.76924402e-01 0. 0. 0. 0. 5.53848781e-02 0.
      5.53848781e-02 0. 1.10769756e-01 0. 0. 0. 0. 0. 1.66154638e-01
      1.10769756e-01 0. 0. 0. 0. 0. 0. 0. 0. 0. 0. 0. 0. 0. 0. 0. 0. 0.
      0. 0. 0. 0. 0. 0. 0. 5.53848781e-02 0. 0. 5.53848781e-02
      1.10769756e-01 0. 5.53848781e-02 5.53848781e-02 0. 0. 0. 0. 0. 0.
      0. 0. 0. 0. 0. 0. 5.53848781e-02 0. 0. 0. 0. 0. 0. 0. 0. 0. 0. 0.
      0. 0. 5.53848781e-02 0. 0. 0. 0. 0. 1.66154638e-01 0. 0. 0. 0. 0.
      0. 5.53848781e-02 0. 0. 0. 0. 0. 0. 0. 0. 5.53848781e-02 0. 0. 0.
      0. 0. 0. 0. 1.66154638e-01 0. 0. 0. 1.10769756e-01 0.
      1.10769756e-01 5.53848781e-02 0. 5.53848781e-02 0. 0. 0. 0. 0. 0.
      0. 0. 0. 0. 0. 0. 0. 1.66154638e-01 0. 0. 0. 5.53848781e-02 0. 0.
      0. 0. 0. 0. 0. 0. 0. 0. 0. 5.53848781e-02 0. 0. 0. 0. 0. 0. 0. 0.
      0. 0. 0. 0. 0. 0. 0. 0. 0. 0. 0. 0. 0. 0. 5.53848781e-02 0. 0. 0.
      0. 0. 0. 0. 0. 0. 5.53848781e-02 0. 0. 0. 0. 0. 0. 5.53848781e-02
      0. 0. 0. 0. 0. 0. 0. 5.53848781e-02 0. 0. 0. 0. 0. 0. 0. 0. 0. 0.
      0. 0. 0. 0. 0. 0. 5.53848781e-02 1.66154638e-01 0. 5.53848781e-02
      0. 0. 0. 5.53848781e-02 5.53848781e-02 0. 0. 0. 0. 0. 0. 0.
      6.64618552e-01 2.21539512e-01 0. 0. 0. 0. 0. 5.53848781e-02
      1.10769756e-01 1.10769756e-01 0. 0. 1.10769756e-01 5.53848781e-02
      5.53848781e-02 2.76924402e-01</_>
    <_>
      4.36454505e-01 5.74078441e-01 6.92777991e-01 0. 0. 0. 0. 0. 0. 0.
      0. 0. 0. 0. 0. 0. 0. 0. 0. 0. 0. 0. 0. 0. 0. 0. 0. 0. 0. 0. 0. 0.
      0. 0. 0. 0. 0. 0. 0. 0. 0. 0. 0. 0. 0. 0. 0. 3.42845954e-02 0. 0.
      0. 0. 0. 3.42845954e-02 6.85691908e-02 0. 0. 0. 0. 0.
      8.57114792e-02 1.19996078e-01 0. 0. 0. 0. 0. 0. 0. 0. 0. 0. 0. 0.
      0. 0. 0. 0. 0. 0. 0. 0. 0. 0. 0. 0. 0. 0. 0. 0. 1.02853782e-01 0.
      0. 0. 0. 0. 1.19996078e-01 8.39972556e-01 0. 0. 0. 0. 0.
      1.71422977e-02 0. 0. 0. 0. 0. 0. 0. 0. 0. 0. 0. 0. 0. 0. 0. 0. 0.
      0. 0. 0. 0. 0. 0. 0. 0. 0. 0. 0. 0. 3.94272834e-01 0. 0. 0. 0. 0.
      2.57134467e-01 1.37138382e-01 0. 0. 0. 0. 0. 0. 0. 0. 0. 0. 0. 0.
      0. 0. 0. 0. 0. 0. 0. 0. 0. 0. 0. 0. 0. 0. 0. 0. 0. 0. 0. 0. 0. 0.
      0. 0. 0. 0. 0. 0. 0. 0. 0. 0. 0. 0. 0. 0. 0. 0. 0. 0. 0. 0. 0. 0.
      0. 0. 0. 0. 0. 0. 0. 0. 0. 0. 0. 0. 0. 0. 0. 0. 0. 0. 0. 0. 0. 0.
      2.15979695e-01 1.07989848e-01 0. 5.39949238e-02 5.39949238e-02 0.
      0. 0. 0. 0. 5.39949238e-02 0. 5.39949238e-02 0. 5.39949238e-02
      1.07989848e-01 5.39949238e-02 0. 1.61984771e-01 0. 0. 0. 0. 0.
      5.39949238e-02 0. 5.39949238e-02 0. 0. 0. 2.69974619e-01
      5.39949238e-02 2.15979695e-01 0. 0. 0. 0. 0. 0. 0. 0. 0.
      5.39949238e-02 0. 0. 0. 0. 5.39949238e-02 0. 0. 0. 0. 0. 0. 0. 0.
      1.61984771e-01 0. 0. 0. 1.61984771e-01 0. 2.69974619e-01 0.
      5.39949238e-02 0. 5.39949238e-02 0. 0. 0. 0. 5.39949238e-02 0.
      5.39949238e-02 0. 0. 0. 0. 0. 0. 5.39949238e-02 0. 0. 0. 0. 0. 0.
      0. 0. 0. 0. 0. 0. 0. 0. 1.07989848e-01 1.61984771e-01 0. 0. 0. 0.
      0. 5.39949238e-02 0. 0. 0. 0. 0. 0. 0. 5.39949238e-02 0.
      1.61984771e-01 0. 0. 0. 5.39949238e-02 0. 0. 0. 1.61984771e-01
      5.39949238e-02 5.39949238e-02 5.39949238e-02 5.39949238e-02
      5.39949238e-02 5.39949238e-02 0. 5.39949238e-02 0. 0. 0. 0. 0. 0.
      0. 0. 0. 5.39949238e-02 0. 0. 0. 0. 0. 0. 0. 0. 0. 0. 0. 0. 0.
      5.39949238e-02 0. 0. 0. 0. 0. 0. 0. 0. 5.39949238e-02 0. 0. 0.
      5.39949238e-02 0. 0. 0. 0. 0. 0. 0. 0. 0. 0. 0. 5.39949238e-02 0.
      0. 0. 0. 0. 0. 5.39949238e-02 0. 0. 0. 5.39949238e-02 0. 0. 0. 0.
      0. 0. 5.39949238e-02 0. 0. 0. 0. 0. 0. 0. 0. 0. 5.39949238e-02 0.
      1.07989848e-01 0. 0. 0. 0. 0. 0. 0. 0. 0. 0. 5.39949238e-02 0.
      5.39949238e-02 0. 0. 5.39949238e-02 1.61984771e-01 2.15979695e-01
      0. 0. 0. 5.39949238e-02 0. 1.07989848e-01 0. 0. 0. 0. 0. 0. 0.
      1.61984771e-01 0. 0. 0. 5.39949238e-02 0. 0. 0. 5.39949238e-02
      1.07989848e-01 1.07989848e-01 1.07989848e-01 5.39949238e-02
      5.39949238e-02 2.69974619e-01 1.61984771e-01 4.31959391e-01</_>
    <_>
      3.81822765e-01 6.05099022e-01 6.98617637e-01 0. 0. 0. 0. 0. 0. 0.
      0. 0. 0. 0. 0. 0. 0. 0. 0. 0. 0. 0. 0. 0. 0. 0. 0. 0. 0. 0. 0. 0.
      0. 0. 0. 0. 0. 0. 0. 0. 0. 0. 0. 0. 0. 0. 0. 0. 0. 0. 0. 0. 0. 0.
      0. 0. 0. 0. 0. 0. 0. 2.42519438e-01 0. 0. 0. 0. 0. 0. 0. 0. 0. 0.
      0. 0. 0. 0. 0. 0. 0. 0. 0. 0. 0. 0. 0. 0. 0. 0. 0. 0. 0. 0. 0. 0.
      0. 0. 0. 9.46980655e-01 0. 0. 0. 0. 0. 2.07873806e-01 0. 0. 0. 0.
      0. 0. 0. 0. 0. 0. 0. 0. 0. 0. 0. 0. 0. 0. 0. 0. 0. 0. 0. 0. 0. 0.
      0. 0. 0. 0. 0. 0. 0. 0. 0. 3.46456356e-02 0. 0. 0. 0. 0. 0. 0. 0.
      0. 0. 0. 0. 0. 0. 0. 0. 0. 0. 0. 0. 0. 0. 0. 0. 0. 0. 0. 0. 0. 0.
      0. 0. 0. 0. 0. 0. 0. 0. 0. 0. 0. 0. 0. 0. 0. 0. 0. 0. 0. 0. 0. 0.
      0. 0. 0. 0. 0. 0. 0. 0. 0. 0. 0. 0. 0. 0. 0. 0. 0. 0. 0. 0. 0. 0.
      0. 0. 0. 0. 0. 9.03507918e-02 4.51753959e-02 4.51753959e-02 0. 0.
      0. 0. 0. 4.51753959e-02 0. 0. 0. 0. 0. 9.03507918e-02 0. 0. 0.
      4.51753959e-02 0. 0. 0. 0. 0. 4.51753959e-02 0. 0. 0. 0.
      4.51753959e-02 0. 4.51753959e-02 4.06578571e-01 4.51753959e-02
      9.03507918e-02 0. 0. 0. 0. 0. 4.51753959e-02 0. 0. 0. 0. 0. 0. 0.
      0. 0. 0. 0. 0. 0. 0. 0. 1.80701584e-01 0. 4.51753959e-02 0.
      9.03507918e-02 4.51753959e-02 1.35526180e-01 0. 4.51753959e-02 0.
      0. 0. 0. 0. 0. 0. 0. 0. 0. 0. 0. 0. 4.51753959e-02 0. 0. 0. 0. 0.
      0. 0. 0. 0. 0. 0. 0. 0. 0. 0. 4.51753959e-02 0. 1.35526180e-01 0.
      0. 0. 4.51753959e-02 0. 0. 0. 0. 0. 0. 0. 0. 0. 4.51753959e-02 0.
      4.51753959e-02 0. 4.51753959e-02 0. 0. 0. 0. 0. 4.51753959e-02 0.
      0. 0. 1.35526180e-01 0. 0. 0. 4.51753959e-02 0. 0. 4.51753959e-02
      0. 0. 0. 0. 0. 0. 0. 0. 0. 0. 0. 0. 0. 0. 0. 4.51753959e-02 0. 0.
      0. 0. 0. 0. 0. 0. 0. 0. 0. 4.51753959e-02 0. 0. 0. 4.51753959e-02
      0. 0. 0. 0. 0. 0. 0. 0. 0. 0. 0. 0. 4.51753959e-02 0. 0. 0. 0. 0.
      0. 0. 0. 0. 0. 0. 0. 4.51753959e-02 0. 0. 0. 4.51753959e-02 0.
      1.35526180e-01 0. 0. 0. 1.35526180e-01 0. 0. 0. 0. 0. 0. 0.
      4.51753959e-02 0. 0. 0. 0. 0. 0. 0. 0. 0. 0. 0. 0. 0. 0.
      4.51753959e-02 4.51753959e-02 2.25876987e-01 4.96929348e-01 0.
      2.71052361e-01 0. 4.51753959e-02 4.51753959e-02 0. 0. 0. 0. 0. 0.
      0. 0. 4.51753959e-02 4.51753959e-02 4.51753959e-02 0. 0. 0. 0. 0.
      0. 4.51753959e-02 1.35526180e-01 0. 9.03507918e-02 4.51753959e-02
      2.71052361e-01 0. 3.61403167e-01</_>
    <_>
      3.17663580e-01 6.38222396e-01 7.01257348e-01 0. 0. 0. 0. 0. 0. 0.
      0. 0. 0. 0. 0. 0. 0. 0. 3.68792824e-02 0. 0. 0. 0. 0.
      3.68792824e-02 0. 0. 0. 0. 0. 0. 0. 0. 0. 0. 0. 0. 0. 0. 0. 0. 0.
      0. 0. 0. 0. 0. 0. 0. 0. 0. 0. 0. 0. 0. 0. 0. 0. 0. 0.
      8.85102808e-01 1.29077494e-01 0. 0. 0. 0. 0. 0. 0. 0. 0. 0. 0. 0.
      0. 0. 0. 0. 0. 0. 0. 0. 0. 0. 0. 0. 0. 0. 0. 0. 0. 0. 0. 0. 0. 0.
      3.68792824e-02 4.42551404e-01 0. 0. 0. 0. 0. 0. 0. 0. 0. 0. 0. 0.
      0. 0. 0. 0. 0. 0. 0. 0. 0. 0. 0. 0. 0. 0. 0. 0. 0. 0. 0. 0. 0. 0.
      0. 0. 0. 0. 0. 0. 0. 0. 0. 0. 0. 0. 0. 0. 0. 0. 0. 0. 0. 0. 0. 0.
      0. 0. 0. 0. 0. 0. 0. 0. 0. 0. 0. 0. 0. 0. 0. 0. 0. 0. 0. 0. 0. 0.
      0. 0. 0. 0. 0. 0. 0. 0. 0. 0. 0. 0. 0. 0. 0. 0. 0. 0. 0. 0. 0. 0.
      0. 0. 0. 0. 0. 0. 0. 0. 0. 0. 0. 0. 0. 0. 0. 0. 0. 0. 0. 0. 0.
      5.51317856e-02 0. 0. 5.51317856e-02 0. 0. 0. 0. 0. 0. 0. 0. 0. 0.
      0. 0. 0. 0. 0. 0. 0. 0. 0. 0. 0. 0. 0. 0. 5.51317856e-02 0. 0. 0.
      1.10263571e-01 0. 0. 0. 5.51317856e-02 0. 0. 0. 0. 0. 0. 0. 0. 0.
      0. 0. 1.10263571e-01 0. 0. 0. 0. 0. 0. 0. 1.10263571e-01 0. 0. 0.
      5.51317856e-02 0. 0. 0. 0. 0. 0. 5.51317856e-02 5.51317856e-02 0.
      0. 0. 5.51317856e-02 0. 0. 0. 0. 0. 0. 0. 0. 0. 0. 0. 0. 0. 0. 0.
      0. 0. 0. 0. 0. 0. 0. 0. 1.10263571e-01 0. 5.51317856e-02 0. 0. 0.
      0. 0. 0. 0. 0. 0. 0. 0. 0. 0. 2.20527142e-01 0. 0. 0. 0. 0. 0. 0.
      3.30790699e-01 0. 0. 0. 1.65395349e-01 0. 0. 0. 5.51317856e-02
      5.51317856e-02 0. 0. 0. 0. 0. 0. 5.51317856e-02 0. 0. 0. 0. 0. 0.
      0. 0. 0. 0. 0. 0. 0. 0. 0. 0. 0. 0. 0. 0. 0. 0. 0. 0. 0. 0. 0. 0.
      0. 0. 0. 0. 0. 0. 0. 0. 0. 0. 0. 0. 0. 0. 0. 0. 0. 0. 0. 0. 0. 0.
      0. 0. 0. 0. 0. 0. 5.51317856e-02 5.51317856e-02 5.51317856e-02 0.
      0. 0. 0. 0. 0. 0. 0. 0. 0. 5.51317856e-02 0. 0. 0. 0.
      5.51317856e-02 0. 0. 0. 0. 0. 5.51317856e-02 0. 0. 0. 0. 0.
      5.51317856e-02 1.65395349e-01 2.20527142e-01 0. 5.51317856e-02 0.
      0. 0. 5.51317856e-02 0. 0. 0. 0. 5.51317856e-02 0. 0.
      1.10263571e-01 6.06449664e-01 1.65395349e-01 0. 5.51317856e-02 0.
      0. 0. 0. 5.51317856e-02 2.75658935e-01 5.51317856e-02
      5.51317856e-02 2.75658935e-01 5.51317856e-02 0. 2.20527142e-01</_>
    <_>
      5.06844759e-01 5.62907040e-01 6.52873755e-01 0. 0. 0. 0. 0. 0. 0.
      0. 0. 0. 0. 0. 0. 0. 0. 0. 0. 0. 0. 0. 0. 0. 0. 0. 0. 0. 0. 0. 0.
      0. 0. 0. 0. 0. 0. 0. 0. 0. 0. 0. 0. 0. 0. 0. 0. 0. 0. 0. 0. 0. 0.
      1.42900897e-02 0. 0. 0. 0. 0. 0. 0. 0. 0. 0. 0. 0. 0. 0. 0. 0. 0.
      0. 0. 0. 0. 0. 0. 0. 0. 0. 0. 0. 0. 0. 0. 0. 0. 0. 0.
      5.71603589e-02 0. 0. 0. 0. 0. 8.57405439e-02 0. 0. 0. 0. 0. 0. 0.
      0. 0. 0. 0. 0. 0. 0. 0. 0. 0. 0. 0. 0. 0. 0. 0. 0. 0. 0. 0. 0. 0.
      0. 0. 0. 0. 0. 0. 0. 4.71572965e-01 0. 0. 0. 0. 0. 8.71695459e-01
      7.14504495e-02 0. 0. 0. 0. 0. 0. 0. 0. 0. 0. 0. 0. 0. 0. 0. 0. 0.
      0. 0. 0. 0. 0. 0. 0. 0. 0. 0. 0. 0. 0. 0. 0. 0. 0. 0.
      4.28702720e-02 0. 0. 0. 0. 0. 0. 0. 0. 0. 0. 0. 0. 0. 0. 0. 0. 0.
      0. 0. 0. 0. 0. 0. 0. 0. 0. 0. 0. 0. 0. 0. 0. 0. 0. 0. 0. 0. 0. 0.
      0. 0. 0. 2.14115098e-01 5.35287745e-02 0. 0. 0. 5.35287745e-02
      5.35287745e-02 2.67643869e-01 1.60586327e-01 0. 1.07057549e-01 0.
      1.07057549e-01 0. 5.35287745e-02 4.28230196e-01 1.60586327e-01
      5.35287745e-02 0. 0. 0. 0. 5.35287745e-02 0. 5.35287745e-02
      5.35287745e-02 1.07057549e-01 1.07057549e-01 0. 0. 0.
      2.67643869e-01 5.35287745e-02 0. 0. 0. 0. 0. 0. 0. 0. 0. 0. 0. 0.
      0. 0. 5.35287745e-02 5.35287745e-02 5.35287745e-02 0. 0. 0. 0.
      5.35287745e-02 0. 5.35287745e-02 0. 0. 0. 0. 5.35287745e-02
      5.35287745e-02 5.35287745e-02 0. 0. 0. 0. 0. 0. 0. 0. 0. 0. 0. 0.
      0. 0. 5.35287745e-02 1.07057549e-01 0. 0. 0. 0. 0. 0. 0. 0. 0. 0.
      0. 0. 0. 0. 1.07057549e-01 0. 0. 0. 0. 0. 0. 0. 0. 0. 0. 0. 0. 0.
      5.35287745e-02 0. 5.35287745e-02 0. 5.35287745e-02 0. 0. 0. 0. 0.
      0. 0. 0. 0. 0. 0. 0. 0. 0. 1.07057549e-01 0. 5.35287745e-02 0.
      1.07057549e-01 0. 0. 0. 5.35287745e-02 0. 0. 0. 5.35287745e-02 0.
      0. 0. 2.67643869e-01 0. 5.35287745e-02 0. 5.35287745e-02 0. 0.
      5.35287745e-02 0. 0. 0. 0. 0. 0. 0. 0. 5.35287745e-02 0. 0. 0. 0.
      0. 0. 0. 0. 0. 0. 0. 0. 0. 0. 0. 0. 0. 0. 0. 5.35287745e-02 0. 0.
      0. 0. 0. 0. 5.35287745e-02 0. 5.35287745e-02 0. 0. 5.35287745e-02
      0. 0. 0. 0. 0. 0. 0. 0. 0. 0. 0. 0. 0. 0. 0. 0. 0. 0. 0. 0. 0. 0.
      0. 0. 0. 0. 0. 0. 0. 0. 0. 1.07057549e-01 0. 5.35287745e-02 0. 0.
      5.35287745e-02 1.07057549e-01 0. 5.35287745e-02 0. 0. 0. 0.
      5.35287745e-02 0. 0. 2.14115098e-01 3.21172655e-01 5.35287745e-02
      0. 0. 0. 5.35287745e-02 1.07057549e-01 1.07057549e-01 0. 0. 0. 0.
      5.35287745e-02 0. 5.35287745e-02 3.21172655e-01</_>
    <_>
      5.01874626e-01 5.61983168e-01 6.57492816e-01 0. 0. 0. 0. 0. 0. 0.
      0. 0. 0. 0. 0. 0. 0. 0. 0. 0. 0. 0. 0. 0. 0. 0. 0. 0. 0. 0. 0. 0.
      0. 0. 0. 0. 0. 0. 0. 0. 0. 0. 0. 0. 0. 0. 0. 0. 0. 0. 0. 0. 0. 0.
      0. 0. 0. 0. 0. 0. 0. 0. 0. 0. 0. 0. 0. 0. 0. 0. 0. 0. 0. 0. 0. 0.
      0. 0. 0. 0. 0. 0. 0. 0. 0. 0. 0. 0. 0. 0. 1.35681340e-02 0. 0. 0.
      0. 0. 1.35681340e-02 0. 0. 0. 0. 0. 0. 0. 0. 0. 0. 0. 0. 0. 0. 0.
      0. 0. 0. 0. 0. 0. 0. 0. 0. 0. 0. 0. 0. 0. 0. 0. 0. 0. 0. 0. 0.
      1.89953879e-01 0. 0. 0. 0. 0. 9.22633111e-01 3.12067091e-01 0. 0.
      0. 0. 0. 0. 0. 0. 0. 0. 0. 0. 0. 0. 0. 0. 0. 0. 0. 0. 0. 0. 0. 0.
      0. 0. 0. 0. 0. 0. 0. 0. 0. 0. 0. 1.22113213e-01 0. 0. 0. 0. 0. 0.
      0. 0. 0. 0. 0. 0. 0. 0. 0. 0. 0. 0. 0. 0. 0. 0. 0. 0. 0. 0. 0. 0.
      0. 0. 0. 0. 0. 0. 0. 0. 0. 0. 0. 0. 0. 0. 2.62071222e-01 0.
      1.04828484e-01 1.04828484e-01 1.57242730e-01 0. 0. 0.
      1.04828484e-01 5.24142422e-02 0. 5.24142422e-02 0. 0.
      1.04828484e-01 2.62071222e-01 0. 0. 0. 0. 0. 0. 5.24142422e-02 0.
      5.24142422e-02 0. 5.24142422e-02 0. 5.24142422e-02 0. 0.
      1.04828484e-01 5.24142422e-02 5.24142422e-02 0. 0. 0. 0. 0. 0. 0.
      0. 0. 0. 0. 0. 5.24142422e-02 0. 0. 0. 0. 0. 0. 0. 0. 0. 0. 0. 0.
      0. 0. 0. 1.04828484e-01 1.04828484e-01 1.04828484e-01 0. 0. 0. 0.
      0. 0. 5.24142422e-02 0. 0. 0. 0. 0. 0. 0. 0. 5.24142422e-02 0. 0.
      0. 0. 0. 0. 0. 0. 0. 0. 0. 0. 0. 0. 0. 0. 0. 0. 0. 0. 0. 0. 0. 0.
      0. 0. 0. 0. 0. 0. 0. 5.24142422e-02 0. 0. 0. 5.24142422e-02 0. 0.
      0. 0. 0. 0. 0. 5.24142422e-02 0. 0. 5.24142422e-02 1.04828484e-01
      1.57242730e-01 0. 1.04828484e-01 0. 5.24142422e-02 0.
      5.24142422e-02 0. 0. 5.24142422e-02 0. 0. 0. 0. 5.24142422e-02 0.
      0. 0. 5.24142422e-02 0. 0. 0. 5.24142422e-02 0. 0. 0. 0. 0. 0. 0.
      1.57242730e-01 0. 5.24142422e-02 0. 0. 0. 0. 0. 0. 0. 0. 0. 0. 0.
      0. 0. 0. 5.24142422e-02 0. 0. 0. 0. 0. 0. 0. 0. 0. 0.
      5.24142422e-02 0. 0. 0. 5.24142422e-02 1.04828484e-01 0. 0. 0. 0.
      0. 0. 5.24142422e-02 0. 0. 0. 0. 0. 0. 0. 0. 0. 0. 0. 0. 0. 0. 0.
      0. 0. 5.24142422e-02 0. 0. 0. 0. 0. 1.57242730e-01 2.09656969e-01
      2.09656969e-01 0. 4.19313937e-01 0. 5.24142422e-02 5.24142422e-02
      1.04828484e-01 0. 0. 0. 0. 5.24142422e-02 0. 0. 0. 1.04828484e-01
      2.62071222e-01 0. 5.24142422e-02 0. 5.24142422e-02 0.
      1.04828484e-01 5.24142422e-02 5.24142422e-02 0. 5.24142422e-02
      5.24142422e-02 0. 5.24142422e-02 4.19313937e-01</_>
    <_>
      3.87140930e-01 5.98982751e-01 7.00957596e-01 0. 0. 0. 0. 0. 0. 0.
      0. 0. 0. 0. 0. 0. 0. 0. 0. 0. 0. 0. 0. 0. 0. 0. 0. 0. 0. 0. 0. 0.
      0. 0. 0. 0. 0. 0. 0. 0. 0. 0. 0. 0. 0. 0. 0. 0. 0. 0. 0. 0. 0. 0.
      4.32945043e-02 0. 0. 0. 0. 0. 4.76239562e-01 1.73178017e-01 0. 0.
      0. 0. 0. 0. 0. 0. 0. 0. 0. 0. 0. 0. 0. 0. 0. 0. 0. 0. 0. 0. 0. 0.
      0. 0. 0. 0. 0. 0. 0. 0. 0. 0. 0. 8.44242811e-01 0. 0. 0. 0. 0. 0.
      0. 0. 0. 0. 0. 0. 0. 0. 0. 0. 0. 0. 0. 0. 0. 0. 0. 0. 0. 0. 0. 0.
      0. 0. 0. 0. 0. 0. 0. 1.29883513e-01 0. 0. 0. 0. 0. 1.08236261e-01
      0. 0. 0. 0. 0. 0. 0. 0. 0. 0. 0. 0. 0. 0. 0. 0. 0. 0. 0. 0. 0. 0.
      0. 0. 0. 0. 0. 0. 0. 0. 0. 0. 0. 0. 0. 0. 0. 0. 0. 0. 0. 0. 0. 0.
      0. 0. 0. 0. 0. 0. 0. 0. 0. 0. 0. 0. 0. 0. 0. 0. 0. 0. 0. 0. 0. 0.
      0. 0. 0. 0. 0. 0. 0. 0. 0. 0. 0. 0. 0. 1.98679850e-01 0.
      6.62266165e-02 0. 0. 0. 0. 0. 0. 0. 0. 0. 0. 0. 0. 0. 0. 0. 0. 0.
      0. 0. 0. 0. 0. 0. 0. 0. 6.62266165e-02 0. 0. 0. 6.62266165e-02 0.
      6.62266165e-02 0. 0. 0. 0. 0. 0. 1.32453233e-01 0. 0. 0. 0. 0. 0.
      0. 6.62266165e-02 0. 0. 0. 0. 0. 6.62266165e-02 0. 0. 0. 0.
      6.62266165e-02 0. 0. 0. 1.32453233e-01 1.32453233e-01 0. 0.
      6.62266165e-02 0. 0. 0. 0. 0. 0. 0. 0. 0. 0. 0. 1.98679850e-01 0.
      0. 0. 0. 0. 0. 0. 0. 0. 0. 0. 0. 0. 0. 0. 6.62266165e-02
      6.62266165e-02 0. 0. 0. 0. 0. 0. 0. 0. 0. 0. 0. 0. 0. 0. 0. 0.
      6.62266165e-02 0. 0. 0. 0. 0. 6.62266165e-02 0. 0. 0. 0. 0.
      6.62266165e-02 0. 0. 1.32453233e-01 0. 0. 0. 0. 0. 0. 0. 0. 0. 0.
      0. 0. 0. 0. 0. 0. 0. 0. 0. 0. 0. 0. 0. 0. 6.62266165e-02 0. 0. 0.
      0. 0. 0. 1.98679850e-01 0. 0. 0. 0. 0. 0. 0. 0. 0. 0. 0. 0. 0.
      6.62266165e-02 0. 6.62266165e-02 0. 0. 0. 0. 0. 0. 0. 0. 0. 0. 0.
      0. 0. 0. 1.32453233e-01 0. 0. 1.32453233e-01 0. 0. 0.
      6.62266165e-02 0. 0. 0. 0. 0. 0. 0. 0. 0. 6.62266165e-02 0.
      6.62266165e-02 0. 0. 0. 0. 0. 0. 6.62266165e-02 6.62266165e-02 0.
      6.62266165e-02 0. 1.32453233e-01 2.64906466e-01 5.29812932e-01 0.
      1.32453233e-01 0. 0. 6.62266165e-02 0. 0. 6.62266165e-02
      6.62266165e-02 0. 0. 0. 0. 0. 6.62266165e-02 1.98679850e-01
      6.62266165e-02 6.62266165e-02 0. 6.62266165e-02 0. 0. 0.
      1.98679850e-01 0. 2.64906466e-01 0. 6.62266165e-02 0.
      3.31133068e-01</_>
    <_>
      4.89122748e-01 5.54032087e-01 6.73652291e-01 0. 0. 0. 0. 0. 0. 0.
      0. 0. 0. 0. 0. 0. 0. 0. 0. 0. 0. 0. 0. 0. 0. 0. 0. 0. 0. 0. 0. 0.
      0. 0. 0. 0. 0. 0. 0. 0. 0. 0. 0. 0. 0. 0. 0. 5.78435846e-02 0. 0.
      0. 0. 0. 1.44608961e-02 4.33826894e-02 0. 0. 0. 0. 0. 0. 0. 0. 0.
      0. 0. 0. 0. 0. 0. 0. 0. 0. 0. 0. 0. 0. 0. 0. 0. 0. 0. 0. 0. 0. 0.
      0. 0. 0. 0. 1.44608960e-01 0. 0. 0. 0. 0. 1.01226270e-01
      4.33826894e-02 0. 0. 0. 0. 0. 0. 0. 0. 0. 0. 0. 0. 0. 0. 0. 0. 0.
      0. 0. 0. 0. 0. 0. 0. 0. 0. 0. 0. 0. 0. 0. 0. 0. 0. 0.
      9.68880057e-01 0. 0. 0. 0. 0. 1.44608960e-01 4.33826894e-02 0. 0.
      0. 0. 0. 0. 0. 0. 0. 0. 0. 0. 0. 0. 0. 0. 0. 0. 0. 0. 0. 0. 0. 0.
      0. 0. 0. 0. 0. 0. 0. 0. 0. 0. 0. 0. 0. 0. 0. 0. 0. 0. 0. 0. 0. 0.
      0. 0. 0. 0. 0. 0. 0. 0. 0. 0. 0. 0. 0. 0. 0. 0. 0. 0. 0. 0. 0. 0.
      0. 0. 0. 0. 0. 0. 0. 0. 0. 0. 2.69679934e-01 6.74199834e-02
      6.74199834e-02 6.74199834e-02 0. 0. 0. 0. 1.34839967e-01 0. 0. 0.
      6.74199834e-02 0. 1.34839967e-01 6.74199834e-02 6.74199834e-02
      6.74199834e-02 0. 0. 0. 0. 0. 0. 1.34839967e-01 0. 0. 0.
      1.34839967e-01 0. 0. 2.69679934e-01 0. 0. 0. 0. 0. 0.
      6.74199834e-02 0. 0. 0. 0. 0. 0. 0. 6.74199834e-02 0.
      6.74199834e-02 0. 0. 0. 6.74199834e-02 0. 0. 6.74199834e-02 0. 0.
      0. 0. 0. 0. 6.74199834e-02 6.74199834e-02 6.74199834e-02 0. 0. 0.
      0. 0. 0. 0. 0. 0. 0. 0. 0. 0. 6.74199834e-02 0. 0. 6.74199834e-02
      0. 0. 0. 0. 0. 0. 0. 0. 0. 0. 0. 0. 0. 0. 0. 0. 0. 0. 0. 0. 0. 0.
      0. 0. 0. 0. 0. 0. 0. 6.74199834e-02 0. 0. 0. 0. 0. 0. 0. 0.
      2.02259958e-01 0. 0. 0. 6.74199834e-02 6.74199834e-02
      1.34839967e-01 6.74199834e-02 0. 6.74199834e-02 0. 6.74199834e-02
      0. 0. 0. 2.69679934e-01 0. 0. 0. 0. 6.74199834e-02 0.
      6.74199834e-02 2.02259958e-01 0. 0. 0. 0. 0. 0. 0. 0. 0. 0. 0. 0.
      0. 0. 0. 6.74199834e-02 6.74199834e-02 1.34839967e-01 0. 0. 0. 0.
      0. 0. 0. 0. 0. 0. 6.74199834e-02 0. 0. 0. 0. 6.74199834e-02 0. 0.
      0. 0. 0. 0. 0. 0. 0. 0. 0. 0. 0. 1.34839967e-01 6.74199834e-02
      2.02259958e-01 0. 0. 0. 0. 0. 1.34839967e-01 0. 0. 0. 0.
      6.74199834e-02 0. 0. 6.74199834e-02 0. 0. 0. 6.74199834e-02 0. 0.
      0. 0. 0. 0. 0. 0. 0. 0. 0. 0. 2.69679934e-01 6.74199834e-02 0.
      6.74199834e-02 0. 0. 0. 3.37099910e-01 6.74199834e-02 0. 0. 0. 0.
      0. 0. 0. 6.74199834e-02 2.69679934e-01 0. 1.34839967e-01 0. 0. 0.
      1.34839967e-01 6.74199834e-02 6.74199834e-02 0. 1.34839967e-01 0.
      0. 1.34839967e-01 6.74199834e-02</_>
    <_>
      5.04994869e-01 5.63804805e-01 6.53532147e-01 0. 0. 0. 0. 0. 0. 0.
      0. 0. 0. 0. 0. 0. 0. 0. 0. 0. 0. 0. 0. 0. 0. 0. 0. 0. 0. 0. 0. 0.
      0. 0. 0. 0. 0. 0. 0. 0. 0. 0. 0. 0. 0. 0. 0. 0. 0. 0. 0. 0. 0. 0.
      0. 0. 0. 0. 0. 0. 0. 0. 0. 0. 0. 0. 0. 0. 0. 0. 0. 0. 0. 0. 0. 0.
      0. 0. 0. 0. 0. 0. 0. 0. 0. 0. 0. 0. 0. 0. 0. 0. 0. 0. 0. 0. 0. 0.
      0. 0. 0. 0. 0. 0. 0. 0. 0. 0. 0. 0. 0. 0. 0. 0. 0. 0. 0. 0. 0. 0.
      0. 0. 0. 0. 0. 0. 0. 0. 0. 0. 0. 0. 0. 1.31786600e-01 0. 0. 0. 0.
      0. 9.06032860e-01 3.29466462e-01 0. 0. 0. 0. 0. 0. 0. 0. 0. 0. 0.
      0. 0. 0. 0. 0. 0. 0. 0. 0. 0. 0. 0. 0. 0. 0. 0. 0. 0. 0. 0. 0. 0.
      0. 0. 2.30626538e-01 0. 0. 0. 0. 0. 0. 0. 0. 0. 0. 0. 0. 0. 0. 0.
      0. 0. 0. 0. 0. 0. 0. 0. 0. 0. 0. 0. 0. 0. 0. 0. 0. 0. 0. 0. 0. 0.
      0. 0. 0. 0. 0. 1.24273956e-01 1.24273956e-01 0. 0. 0. 0. 0. 0. 0.
      0. 0. 0. 6.21369779e-02 0. 3.72821867e-01 6.21369779e-02
      6.21369779e-02 1.24273956e-01 0. 0. 0. 0. 0. 0. 1.24273956e-01 0.
      0. 0. 0. 0. 0. 1.24273956e-01 6.21369779e-02 0. 0. 0. 0. 0. 0. 0.
      0. 0. 0. 0. 0. 0. 0. 0. 1.24273956e-01 0. 0. 0. 6.21369779e-02 0.
      0. 0. 0. 6.21369779e-02 0. 0. 2.48547912e-01 0. 1.24273956e-01 0.
      6.21369779e-02 0. 0. 0. 0. 0. 0. 0. 0. 0. 0. 0. 0. 0. 0.
      6.21369779e-02 0. 0. 0. 0. 0. 0. 0. 0. 0. 0. 0. 6.21369779e-02 0.
      0. 0. 0. 6.21369779e-02 0. 0. 0. 0. 0. 0. 0. 0. 0. 0. 0.
      6.21369779e-02 0. 0. 0. 6.21369779e-02 0. 0. 0. 0. 0. 0. 0.
      6.21369779e-02 0. 0. 6.21369779e-02 0. 0. 0. 6.21369779e-02
      1.86410934e-01 0. 0. 1.24273956e-01 0. 0. 0. 1.24273956e-01 0. 0.
      0. 0. 0. 0. 0. 6.21369779e-02 6.21369779e-02 0. 0. 0. 0. 0. 0. 0.
      0. 0. 0. 0. 0. 0. 0. 0. 0. 6.21369779e-02 0. 0. 0. 0. 0. 0. 0. 0.
      0. 0. 0. 0. 0. 0. 6.21369779e-02 1.24273956e-01 0. 6.21369779e-02
      0. 0. 0. 0. 0. 0. 0. 0. 0. 6.21369779e-02 0. 0. 0. 0. 0. 0. 0. 0.
      0. 6.21369779e-02 0. 6.21369779e-02 0. 0. 0. 6.21369779e-02 0. 0.
      0. 0. 0. 0. 0. 0. 0. 0. 0. 0. 0. 0. 0. 0. 0. 0. 2.48547912e-01
      1.24273956e-01 0. 1.24273956e-01 0. 0. 0. 0. 0. 0. 0. 0. 0. 0. 0.
      6.21369779e-02 1.24273956e-01 3.10684890e-01 0. 1.24273956e-01
      1.86410934e-01 0. 0. 0. 2.48547912e-01 3.10684890e-01 0. 0.
      1.86410934e-01 1.24273956e-01 1.24273956e-01 1.86410934e-01</_>
    <_>
      5.06738603e-01 5.67667782e-01 6.48821473e-01 0. 0. 0. 0. 0. 0. 0.
      0. 0. 0. 0. 0. 0. 0. 0. 0. 0. 0. 0. 0. 0. 0. 0. 0. 0. 0. 0. 0. 0.
      0. 0. 0. 0. 0. 0. 0. 0. 0. 0. 0. 0. 0. 0. 0. 0. 0. 0. 0. 0. 0. 0.
      0. 0. 0. 0. 0. 0. 0. 0. 0. 0. 0. 0. 0. 0. 0. 0. 0. 0. 0. 0. 0. 0.
      0. 0. 0. 0. 0. 0. 0. 0. 0. 0. 0. 0. 0. 0. 0. 0. 0. 0. 0. 0. 0.
      1.45864980e-02 0. 0. 0. 0. 0. 0. 0. 0. 0. 0. 0. 0. 0. 0. 0. 0. 0.
      0. 0. 0. 0. 0. 0. 0. 0. 0. 0. 0. 0. 0. 0. 0. 0. 0. 0.
      7.29324892e-02 0. 0. 0. 0. 0. 8.02257419e-01 3.20902973e-01 0. 0.
      0. 0. 0. 0. 0. 0. 0. 0. 0. 0. 0. 0. 0. 0. 0. 0. 0. 0. 0. 0. 0. 0.
      0. 0. 0. 0. 0. 0. 0. 0. 0. 0. 4.37594950e-02 4.95940924e-01 0. 0.
      0. 0. 0. 0. 0. 0. 0. 0. 0. 0. 0. 0. 0. 0. 0. 0. 0. 0. 0. 0. 0. 0.
      0. 0. 0. 0. 0. 0. 0. 0. 0. 0. 0. 0. 0. 0. 0. 0. 0. 0.
      2.56494582e-01 0. 0. 5.12989163e-02 0. 0. 0. 2.05195665e-01
      2.56494582e-01 0. 0. 0. 5.12989163e-02 0. 5.12989163e-02
      1.53896749e-01 5.12989163e-02 0. 5.12989163e-02 0. 0. 0. 0. 0. 0.
      0. 0. 0. 0. 0. 5.12989163e-02 5.12989163e-02 0. 0. 0. 0. 0. 0. 0.
      0. 0. 0. 0. 0. 0. 5.12989163e-02 0. 0. 1.02597833e-01 0. 0. 0. 0.
      0. 5.12989163e-02 0. 0. 0. 5.12989163e-02 0. 0. 0. 1.02597833e-01
      5.12989163e-02 0. 0. 0. 0. 0. 0. 5.12989163e-02 0. 0. 0. 0. 0. 0.
      0. 0. 0. 0. 0. 0. 0. 0. 0. 0. 0. 0. 0. 0. 0. 0. 0. 5.12989163e-02
      0. 5.12989163e-02 0. 0. 0. 0. 0. 0. 0. 5.12989163e-02 0. 0. 0. 0.
      0. 0. 0. 1.53896749e-01 0. 0. 0. 0. 0. 5.12989163e-02 0.
      1.02597833e-01 1.02597833e-01 5.12989163e-02 0. 1.02597833e-01 0.
      0. 0. 1.02597833e-01 5.12989163e-02 0. 1.53896749e-01 0. 0. 0.
      2.56494582e-01 5.12989163e-02 0. 0. 0. 0. 0. 0. 3.59092414e-01 0.
      0. 0. 1.02597833e-01 0. 0. 0. 0. 5.12989163e-02 0. 0. 0. 0. 0. 0.
      0. 0. 0. 0. 0. 0. 0. 0. 0. 5.12989163e-02 0. 0. 0. 0. 0. 0. 0.
      5.12989163e-02 0. 0. 0. 0. 0. 0. 0. 0. 0. 0. 5.12989163e-02 0.
      5.12989163e-02 0. 0. 1.02597833e-01 5.12989163e-02 0.
      1.02597833e-01 0. 0. 5.12989163e-02 0. 0. 0. 0. 0. 0. 0. 0.
      1.02597833e-01 0. 0. 0. 0. 0. 0. 0. 0. 5.12989163e-02 0. 0. 0. 0.
      0. 0. 5.12989163e-02 5.12989163e-02 1.53896749e-01 0.
      2.05195665e-01 0. 0. 0. 2.56494582e-01 0. 0. 0. 0. 5.12989163e-02
      5.12989163e-02 0. 5.12989163e-02 3.59092414e-01 5.12989163e-02 0.
      1.02597833e-01 0. 0. 0. 5.12989163e-02 1.53896749e-01
      5.12989163e-02 0. 0. 0. 0. 5.12989163e-02 2.56494582e-01</_>
    <_>
      4.90544468e-01 5.50298512e-01 6.75675690e-01 0. 0. 0. 0. 0. 0. 0.
      0. 0. 0. 0. 0. 0. 0. 0. 0. 0. 0. 0. 0. 0. 0. 0. 0. 0. 0. 0. 0. 0.
      0. 0. 0. 0. 0. 0. 0. 0. 0. 0. 0. 0. 0. 0. 0. 0. 0. 0. 0. 0. 0. 0.
      0. 0. 0. 0. 0. 0. 0. 0. 0. 0. 0. 0. 0. 0. 0. 0. 0. 0. 0. 0. 0. 0.
      0. 0. 0. 0. 0. 0. 0. 0. 0. 0. 0. 0. 0. 0. 8.12176391e-02 0. 0. 0.
      0. 0. 8.12176391e-02 2.43652940e-01 0. 0. 0. 0. 0. 0. 0. 0. 0. 0.
      0. 0. 0. 0. 0. 0. 0. 0. 0. 0. 0. 0. 0. 0. 0. 0. 0. 0. 0. 0. 0. 0.
      0. 0. 0. 9.25881147e-01 0. 0. 0. 0. 0. 2.11165875e-01
      1.46191761e-01 0. 0. 0. 0. 0. 0. 0. 0. 0. 0. 0. 0. 0. 0. 0. 0. 0.
      0. 0. 0. 0. 0. 0. 0. 0. 0. 0. 0. 0. 0. 0. 0. 0. 0. 0.
      6.49741143e-02 0. 0. 0. 0. 0. 0. 0. 0. 0. 0. 0. 0. 0. 0. 0. 0. 0.
      0. 0. 0. 0. 0. 0. 0. 0. 0. 0. 0. 0. 0. 0. 0. 0. 0. 0. 0. 0. 0. 0.
      0. 0. 0. 4.25328702e-01 7.08881170e-02 0. 0. 0. 7.08881170e-02 0.
      7.08881170e-02 0. 0. 7.08881170e-02 7.08881170e-02 0. 0.
      7.08881170e-02 7.08881170e-02 7.08881170e-02 0. 0. 7.08881170e-02
      0. 0. 0. 7.08881170e-02 0. 0. 0. 0. 0. 1.41776234e-01
      1.41776234e-01 7.08881170e-02 7.08881170e-02 0. 0. 0. 0. 0. 0. 0.
      7.08881170e-02 0. 7.08881170e-02 0. 0. 0. 0. 0. 1.41776234e-01 0.
      0. 0. 0. 0. 0. 0. 0. 0. 0. 0. 0. 0. 0. 0. 7.08881170e-02
      7.08881170e-02 7.08881170e-02 0. 0. 0. 7.08881170e-02 0. 0. 0. 0.
      0. 0. 0. 0. 0. 0. 0. 0. 0. 0. 0. 0. 0. 0. 0. 0. 0. 0. 0. 0.
      7.08881170e-02 7.08881170e-02 0. 0. 7.08881170e-02 0. 0. 0. 0. 0.
      0. 0. 0. 0. 0. 0. 0. 7.08881170e-02 0. 0. 0. 0. 0. 0. 0. 0. 0.
      7.08881170e-02 7.08881170e-02 0. 0. 1.41776234e-01 0.
      2.12664351e-01 0. 7.08881170e-02 7.08881170e-02 0. 0. 0.
      7.08881170e-02 7.08881170e-02 0. 0. 0. 7.08881170e-02 0. 0.
      7.08881170e-02 0. 0. 0. 0. 0. 0. 0. 7.08881170e-02 0. 0.
      7.08881170e-02 0. 0. 0. 0. 0. 0. 0. 0. 0. 0. 0. 0. 0. 0. 0. 0. 0.
      0. 0. 0. 0. 0. 0. 0. 0. 0. 0. 0. 7.08881170e-02 0. 0. 0. 0. 0.
      7.08881170e-02 0. 0. 7.08881170e-02 7.08881170e-02 0.
      7.08881170e-02 0. 0. 0. 0. 0. 0. 0. 1.41776234e-01 0. 0. 0.
      7.08881170e-02 0. 0. 0. 0. 0. 7.08881170e-02 0. 0. 0. 0. 0. 0. 0.
      0. 0. 7.08881170e-02 7.08881170e-02 2.12664351e-01 0.
      7.08881170e-02 0. 0. 0. 1.41776234e-01 7.08881170e-02
      7.08881170e-02 0. 7.08881170e-02 7.08881170e-02 0. 0.
      7.08881170e-02 2.83552468e-01 1.41776234e-01 0. 7.08881170e-02 0.
      0. 0. 3.54440570e-01 0. 7.08881170e-02 0. 7.08881170e-02
      2.12664351e-01 7.08881170e-02 0. 2.83552468e-01</_>
    <_>
      4.19853717e-01 5.74261785e-01 7.02813148e-01 0. 0. 0. 0. 0. 0. 0.
      0. 0. 0. 0. 0. 0. 0. 0. 0. 0. 0. 0. 0. 0. 0. 0. 0. 0. 0. 0. 0. 0.
      0. 0. 0. 0. 0. 0. 0. 0. 0. 0. 0. 0. 0. 0. 0. 0. 0. 0. 0. 0. 0. 0.
      1.03540652e-01 0. 0. 0. 0. 0. 1.38054207e-01 1.20797426e-01 0. 0.
      0. 0. 0. 0. 0. 0. 0. 0. 0. 0. 0. 0. 0. 0. 0. 0. 0. 0. 0. 0. 0. 0.
      0. 0. 0. 0. 1.20797426e-01 0. 0. 0. 0. 0. 1.72567759e-02
      8.97352338e-01 0. 0. 0. 0. 0. 3.45135517e-02 0. 0. 0. 0. 0. 0. 0.
      0. 0. 0. 0. 0. 0. 0. 0. 0. 0. 0. 0. 0. 0. 0. 0. 0. 0. 0. 0. 0. 0.
      2.76108414e-01 0. 0. 0. 0. 0. 2.24338084e-01 8.62838775e-02 0. 0.
      0. 0. 0. 0. 0. 0. 0. 0. 0. 0. 0. 0. 0. 0. 0. 0. 0. 0. 0. 0. 0. 0.
      0. 0. 0. 0. 0. 0. 0. 0. 0. 0. 0. 1.72567759e-02 0. 0. 0. 0. 0. 0.
      0. 0. 0. 0. 0. 0. 0. 0. 0. 0. 0. 0. 0. 0. 0. 0. 0. 0. 0. 0. 0. 0.
      0. 0. 0. 0. 0. 0. 0. 0. 0. 0. 0. 0. 0. 0. 4.00818825e-01
      1.14519663e-01 5.72598316e-02 0. 5.72598316e-02 0. 5.72598316e-02
      0. 0. 5.72598316e-02 0. 5.72598316e-02 0. 0. 1.14519663e-01
      5.72598316e-02 0. 0. 5.72598316e-02 5.72598316e-02 0. 0. 0. 0. 0.
      0. 5.72598316e-02 0. 0. 0. 1.14519663e-01 1.14519663e-01
      1.14519663e-01 1.14519663e-01 5.72598316e-02 0. 5.72598316e-02 0.
      0. 0. 5.72598316e-02 0. 0. 0. 0. 0. 0. 5.72598316e-02 0. 0. 0. 0.
      0. 0. 0. 0. 0. 0. 0. 0. 0. 0. 0. 0. 1.14519663e-01 0. 0.
      5.72598316e-02 0. 0. 0. 5.72598316e-02 0. 0. 0. 5.72598316e-02 0.
      0. 0. 0. 0. 0. 0. 0. 0. 0. 0. 0. 0. 0. 0. 0. 0. 0. 0. 0. 0. 0. 0.
      5.72598316e-02 5.72598316e-02 0. 5.72598316e-02 0. 0. 0. 0. 0. 0.
      0. 0. 0. 0. 0. 0. 0. 0. 0. 0. 0. 0. 0. 0. 0. 0. 0. 0. 0. 0.
      5.72598316e-02 0. 1.14519663e-01 0. 0. 0. 1.14519663e-01 0. 0. 0.
      0. 0. 0. 0. 0. 0. 0. 0. 1.14519663e-01 0. 5.72598316e-02 0. 0. 0.
      0. 0. 0. 0. 5.72598316e-02 0. 5.72598316e-02 0. 5.72598316e-02 0.
      1.71779498e-01 0. 0. 0. 5.72598316e-02 0. 0. 0. 0. 0. 0. 0. 0. 0.
      0. 0. 0. 0. 0. 0. 0. 0. 0. 0. 0. 0. 0. 0. 0. 1.14519663e-01
      2.86299169e-01 0. 2.86299169e-01 0. 5.72598316e-02 0.
      1.14519663e-01 0. 0. 0. 0. 0. 0. 0. 0. 0. 0. 0. 5.72598316e-02 0.
      0. 0. 0. 0. 0. 0. 0. 0. 5.72598316e-02 0. 3.43558997e-01 0.
      5.72598316e-02 5.72598316e-02 1.14519663e-01 0. 5.72598316e-02 0.
      5.72598316e-02 0. 5.72598316e-02 0. 1.14519663e-01 0. 0.
      5.72598316e-02 2.29039326e-01 0. 0. 0. 0. 0. 0. 0. 5.72598316e-02
      0. 5.72598316e-02 0. 0. 0. 1.14519663e-01 0. 4.00818825e-01</_>
    <_>
      1.72730163e-01 7.05250859e-01 6.87594056e-01 0. 0. 0. 0. 0. 0. 0.
      0. 0. 0. 0. 0. 0. 0. 9.95570660e-01 0. 0. 0. 0. 0. 6.86600506e-02
      5.14950342e-02 0. 0. 0. 0. 0. 0. 0. 0. 0. 0. 0. 0. 0. 0. 0. 0. 0.
      0. 0. 0. 0. 0. 0. 0. 0. 0. 0. 0. 3.43300253e-02 0. 0. 0. 0. 0. 0.
      1.71650127e-02 0. 0. 0. 0. 0. 0. 0. 0. 0. 0. 0. 0. 0. 0. 0. 0. 0.
      0. 0. 0. 0. 0. 0. 0. 0. 0. 0. 0. 0. 0. 0. 0. 0. 0. 0. 0. 0. 0. 0.
      0. 0. 0. 0. 0. 0. 0. 0. 0. 0. 0. 0. 0. 0. 0. 0. 0. 0. 0. 0. 0. 0.
      0. 0. 0. 0. 0. 0. 0. 0. 0. 0. 0. 0. 0. 0. 0. 0. 0. 0. 0. 0. 0. 0.
      0. 0. 0. 0. 0. 0. 0. 0. 0. 0. 0. 0. 0. 0. 0. 0. 0. 0. 0. 0. 0. 0.
      0. 0. 0. 0. 0. 0. 0. 0. 0. 0. 0. 0. 0. 0. 0. 0. 0. 0. 0. 0. 0. 0.
      0. 0. 0. 0. 0. 0. 0. 0. 0. 0. 0. 0. 0. 0. 0. 0. 0. 0. 0. 0. 0. 0.
      0. 0. 0. 0. 0. 0. 0. 0. 0. 2.63117403e-01 0. 1.75411597e-01 0. 0.
      0. 8.77057984e-02 0. 0. 0. 0. 0. 0. 0. 8.77057984e-02
      8.77057984e-02 0. 0. 0. 0. 0. 0. 0. 0. 0. 0. 0. 0. 1.75411597e-01
      0. 0. 0. 8.77057984e-02 0. 0. 8.77057984e-02 0. 0. 0. 0. 0. 0. 0.
      0. 0. 0. 0. 0. 0. 0. 0. 0. 0. 0. 0. 0. 8.77057984e-02 0. 0. 0.
      8.77057984e-02 8.77057984e-02 2.63117403e-01 8.77057984e-02 0. 0.
      0. 0. 0. 0. 0. 0. 0. 0. 0. 0. 0. 0. 0. 0. 0. 0. 0. 0. 0. 0. 0. 0.
      0. 0. 0. 0. 0. 0. 0. 0. 0. 0. 1.75411597e-01 0. 0. 0. 0. 0. 0. 0.
      0. 0. 0. 0. 0. 0. 8.77057984e-02 0. 0. 0. 0. 0. 0. 0. 0. 0. 0. 0.
      8.77057984e-02 0. 1.75411597e-01 8.77057984e-02 8.77057984e-02 0.
      0. 8.77057984e-02 0. 0. 0. 8.77057984e-02 0. 0. 0. 0. 0. 0. 0.
      8.77057984e-02 0. 0. 0. 0. 0. 0. 0. 0. 8.77057984e-02 0. 0. 0. 0.
      0. 0. 0. 0. 0. 0. 0. 0. 0. 0. 0. 0. 0. 0. 0. 0. 0. 0. 0.
      8.77057984e-02 0. 0. 0. 0. 0. 0. 0. 0. 0. 0. 0. 0. 0. 0.
      8.77057984e-02 0. 0. 0. 1.75411597e-01 0. 0. 0. 8.77057984e-02
      8.77057984e-02 0. 0. 0. 0. 8.77057984e-02 0. 0. 0. 0. 0. 0. 0. 0.
      0. 0. 0. 0. 0. 0. 0. 8.77057984e-02 0. 8.77057984e-02
      2.63117403e-01 2.63117403e-01 0. 3.50823194e-01 8.77057984e-02 0.
      0. 8.77057984e-02 0. 0. 0. 8.77057984e-02 0. 0. 0. 0.
      8.77057984e-02 1.75411597e-01 0. 2.63117403e-01 0. 0. 0.
      8.77057984e-02 1.75411597e-01 8.77057984e-02 0. 0. 8.77057984e-02
      0. 8.77057984e-02 2.63117403e-01</_>
    <_>
      3.93329829e-01 6.00701332e-01 6.96024060e-01 0. 0. 0. 0. 0. 0. 0.
      0. 0. 0. 0. 0. 0. 0. 0. 0. 0. 0. 0. 0. 0. 0. 0. 0. 0. 0. 0. 0. 0.
      0. 0. 0. 0. 0. 0. 0. 0. 0. 0. 0. 0. 0. 0. 0. 0. 0. 0. 0. 0. 0. 0.
      1.07820230e-02 0. 0. 0. 0. 0. 3.77370805e-01 0. 0. 0. 0. 0. 0. 0.
      0. 0. 0. 0. 0. 0. 0. 0. 0. 0. 0. 0. 0. 0. 0. 0. 0. 0. 0. 0. 0. 0.
      0. 0. 0. 0. 0. 0. 1.07820228e-01 9.05689955e-01 0. 0. 0. 0. 0.
      6.46921396e-02 0. 0. 0. 0. 0. 0. 0. 0. 0. 0. 0. 0. 0. 0. 0. 0. 0.
      0. 0. 0. 0. 0. 0. 0. 0. 0. 0. 0. 0. 1.29384279e-01 0. 0. 0. 0. 0.
      6.46921396e-02 2.15640459e-02 0. 0. 0. 0. 0. 0. 0. 0. 0. 0. 0. 0.
      0. 0. 0. 0. 0. 0. 0. 0. 0. 0. 0. 0. 0. 0. 0. 0. 0. 0. 0. 0. 0. 0.
      0. 0. 0. 0. 0. 0. 0. 0. 0. 0. 0. 0. 0. 0. 0. 0. 0. 0. 0. 0. 0. 0.
      0. 0. 0. 0. 0. 0. 0. 0. 0. 0. 0. 0. 0. 0. 0. 0. 0. 0. 0. 0. 0. 0.
      3.41431677e-01 0. 8.53579193e-02 4.26789597e-02 1.28036886e-01 0.
      0. 8.53579193e-02 0. 0. 0. 4.26789597e-02 0. 0. 0. 0.
      4.26789597e-02 0. 0. 0. 0. 0. 0. 0. 0. 0. 0. 0. 0. 0. 0. 0.
      4.26789597e-02 0. 0. 0. 0. 0. 0. 0. 0. 0. 0. 0. 0. 0. 0. 0. 0. 0.
      0. 0. 0. 0. 0. 0. 2.13394791e-01 0. 0. 0. 0. 0. 0. 0.
      1.70715839e-01 4.26789597e-02 0. 0. 4.26789597e-02 0. 0. 0.
      4.26789597e-02 4.26789597e-02 0. 0. 0. 0. 0. 0. 0. 0. 0. 0. 0. 0.
      0. 0. 0. 0. 0. 0. 0. 0. 0. 0. 1.28036886e-01 0. 0. 0. 0. 0. 0. 0.
      1.28036886e-01 4.26789597e-02 0. 0. 1.28036886e-01 0. 0. 0. 0. 0.
      0. 4.26789597e-02 4.26789597e-02 0. 0. 0. 4.69468564e-01 0. 0. 0.
      1.28036886e-01 4.26789597e-02 0. 8.53579193e-02 1.70715839e-01
      4.26789597e-02 4.26789597e-02 1.28036886e-01 0. 0. 4.26789597e-02
      1.70715839e-01 0. 0. 0. 0. 0. 0. 0. 0. 0. 0. 0. 4.26789597e-02 0.
      0. 0. 8.53579193e-02 0. 0. 0. 0. 0. 0. 0. 0. 4.26789597e-02 0. 0.
      4.26789597e-02 0. 0. 0. 4.26789597e-02 0. 0. 0. 0. 0. 0. 0. 0. 0.
      0. 0. 0. 0. 0. 0. 0. 0. 8.53579193e-02 0. 8.53579193e-02 0. 0. 0.
      8.53579193e-02 1.70715839e-01 4.26789597e-02 8.53579193e-02
      8.53579193e-02 8.53579193e-02 0. 0. 2.13394791e-01 4.26789597e-02
      4.26789597e-02 0. 0. 0. 0. 4.26789597e-02 8.53579193e-02 0. 0. 0.
      1.28036886e-01 0. 0. 0. 4.26789597e-02 0. 0. 0. 0. 0. 0. 0. 0.
      1.28036886e-01 1.28036886e-01 0. 1.28036886e-01 0. 4.26789597e-02
      4.26789597e-02 0. 4.26789597e-02 0. 0. 0. 0. 0. 0. 4.26789597e-02
      8.53579193e-02 1.28036886e-01 0. 1.70715839e-01 0. 0. 0. 0.
      4.26789597e-02 8.53579193e-02 4.26789597e-02 1.70715839e-01 0. 0.
      4.26789597e-02 2.56073773e-01</_>
    <_>
      4.25534993e-01 5.49511135e-01 7.18997538e-01 0. 0. 0. 0. 0. 0. 0.
      0. 0. 0. 0. 0. 0. 0. 0. 0. 0. 0. 0. 0. 0. 0. 0. 0. 0. 0. 0. 0. 0.
      0. 0. 0. 0. 0. 0. 0. 0. 0. 0. 0. 0. 0. 0. 0. 0. 0. 0. 0. 0. 0. 0.
      1.82696015e-01 0. 0. 0. 0. 0. 1.46156818e-01 0. 0. 0. 0. 0. 0. 0.
      0. 0. 0. 0. 0. 0. 0. 0. 0. 0. 0. 0. 0. 0. 0. 0. 0. 0. 0. 0. 0. 0.
      1.27887204e-01 1.09617613e-01 0. 0. 0. 0. 5.48088066e-02
      6.75975263e-01 0. 0. 0. 0. 0. 0. 0. 0. 0. 0. 0. 0. 0. 0. 0. 0. 0.
      0. 0. 0. 0. 0. 0. 0. 0. 0. 0. 0. 0. 0. 0. 0. 0. 0. 0.
      6.75975263e-01 0. 0. 0. 0. 0. 0. 0. 0. 0. 0. 0. 0. 0. 0. 0. 0. 0.
      0. 0. 0. 0. 0. 0. 0. 0. 0. 0. 0. 0. 0. 0. 0. 0. 0. 0. 0. 0. 0. 0.
      0. 0. 0. 0. 0. 0. 0. 0. 0. 0. 0. 0. 0. 0. 0. 0. 0. 0. 0. 0. 0. 0.
      0. 0. 0. 0. 0. 0. 0. 0. 0. 0. 0. 0. 0. 0. 0. 0. 0. 0. 0. 0. 0. 0.
      0. 0. 8.52630660e-02 0. 0. 2.84210220e-02 2.84210220e-02 0. 0.
      1.13684088e-01 0. 0. 0. 0. 0. 0. 1.13684088e-01 1.70526132e-01 0.
      0. 2.84210220e-02 0. 0. 0. 0. 0. 0. 0. 0. 0. 0. 0. 1.42105103e-01
      8.52630660e-02 2.84210220e-02 0. 0. 0. 0. 0. 0. 0. 0. 0. 0. 0. 0.
      0. 0. 0. 0. 0. 0. 0. 0. 0. 0. 0. 0. 0. 0. 0. 0. 0. 5.68420440e-02
      2.84210220e-02 0. 0. 0. 0. 0. 0. 2.84210220e-02 2.84210220e-02 0.
      0. 0. 0. 0. 0. 0. 0. 0. 0. 0. 0. 0. 0. 0. 2.84210220e-02 0. 0. 0.
      0. 0. 0. 0. 0. 0. 0. 0. 0. 0. 0. 0. 0. 0. 0. 0. 0. 0. 0. 0. 0. 0.
      0. 0. 0. 0. 0. 0. 0. 0. 0. 0. 0. 0. 0. 0. 0. 0. 2.84210220e-02 0.
      1.13684088e-01 0. 0. 0. 5.68420440e-02 0. 0. 0. 2.84210220e-02 0.
      0. 0. 1.13684088e-01 0. 0. 0. 0. 0. 0. 0. 0. 0. 2.84210220e-02 0.
      0. 0. 0. 0. 5.68420440e-02 2.84210220e-02 0. 0. 0. 0. 0. 0. 0. 0.
      0. 0. 0. 0. 0. 0. 0. 0. 0. 0. 0. 0. 0. 0. 0. 0. 0. 0. 0. 0. 0. 0.
      0. 5.68420440e-02 5.68420440e-02 0. 1.70526132e-01 0. 0. 0.
      2.84210220e-02 0. 0. 0. 0. 0. 0. 0. 0. 0. 0. 0. 0. 0. 0. 0. 0. 0.
      0. 0. 0. 0. 0. 0. 0. 2.84210220e-02 8.81051660e-01 0.
      1.98947161e-01 0. 0. 0. 0. 0. 0. 0. 0. 0. 0. 0. 0. 0.
      5.68420440e-02 0. 8.52630660e-02 0. 0. 0. 0. 0. 0. 0.
      2.84210220e-02 0. 0. 0. 2.84210220e-02</_>
    <_>
      2.18940556e-01 6.95933759e-01 6.83916092e-01 0. 0. 0. 0. 0. 0. 0.
      0. 6.43489435e-02 0. 0. 0. 0. 3.21744718e-02 9.97408688e-01 0. 0.
      0. 0. 0. 0. 0. 0. 0. 0. 0. 0. 0. 0. 0. 0. 0. 0. 0. 0. 0. 0. 0. 0.
      0. 0. 0. 0. 0. 0. 0. 0. 0. 0. 0. 0. 0. 0. 0. 0. 0. 0. 0. 0. 0. 0.
      0. 0. 0. 0. 0. 0. 0. 0. 0. 0. 0. 0. 0. 0. 0. 0. 0. 0. 0. 0. 0. 0.
      0. 0. 0. 0. 0. 0. 0. 0. 0. 0. 0. 0. 0. 0. 0. 0. 0. 0. 0. 0. 0. 0.
      0. 0. 0. 0. 0. 0. 0. 0. 0. 0. 0. 0. 0. 0. 0. 0. 0. 0. 0. 0. 0. 0.
      0. 0. 0. 0. 0. 0. 0. 0. 0. 0. 0. 0. 0. 0. 0. 0. 0. 0. 0. 0. 0. 0.
      0. 0. 0. 0. 0. 0. 0. 0. 0. 0. 0. 0. 0. 0. 0. 0. 0. 0. 0. 0. 0. 0.
      0. 0. 0. 0. 0. 0. 0. 0. 0. 0. 0. 0. 0. 0. 0. 0. 0. 0. 0. 0. 0. 0.
      0. 0. 0. 0. 0. 0. 0. 0. 0. 0. 0. 0. 0. 0. 0. 0. 0. 0. 0. 0. 0. 0.
      0. 0. 0. 0. 0. 0. 0. 0. 0. 0. 0. 0. 0. 0. 0. 0. 0. 0. 0. 0. 0. 0.
      1.23091489e-01 0. 0. 0. 1.23091489e-01 0. 0. 0. 0. 6.15457416e-01
      1.23091489e-01 0. 0. 0. 0. 0. 0. 0. 0. 0. 0. 0. 0. 0. 0. 0. 0. 0.
      0. 0. 0. 0. 0. 0. 0. 0. 0. 0. 0. 0. 0. 2.46182978e-01 0. 0.
      1.23091489e-01 0. 0. 0. 0. 0. 0. 0. 0. 0. 0. 0. 0. 0. 0. 0. 0. 0.
      0. 0. 0. 0. 0. 0. 0. 0. 0. 0. 0. 0. 0. 0. 0. 0. 1.23091489e-01 0.
      0. 0. 0. 0. 0. 0. 0. 0. 0. 0. 0. 1.23091489e-01 0. 0. 0. 0. 0. 0.
      0. 0. 1.23091489e-01 0. 0. 1.23091489e-01 0. 2.46182978e-01
      1.23091489e-01 0. 0. 0. 1.23091489e-01 0. 0. 0. 0. 0. 0. 0. 0. 0.
      0. 0. 0. 0. 0. 0. 0. 0. 0. 0. 0. 0. 0. 0. 1.23091489e-01 0. 0. 0.
      0. 0. 0. 0. 0. 0. 0. 0. 0. 0. 0. 0. 1.23091489e-01 0. 0. 0. 0. 0.
      0. 0. 0. 0. 0. 0. 0. 0. 0. 0. 0. 0. 0. 0. 1.23091489e-01 0. 0.
      1.23091489e-01 0. 0. 0. 0. 0. 0. 0. 0. 0. 0. 0. 0. 1.23091489e-01
      0. 0. 0. 0. 0. 0. 0. 0. 0. 0. 0. 1.23091489e-01 1.23091489e-01 0.
      0. 2.46182978e-01 0. 0. 0. 0. 0. 0. 0. 1.23091489e-01 0. 0. 0. 0.
      0. 0. 0. 0. 1.23091489e-01 0. 0. 0. 0. 0. 0. 0. 0. 0. 0. 0. 0.
      1.23091489e-01 0. 3.69274467e-01</_>
    <_>
      4.82628167e-01 5.50257921e-01 6.81385517e-01 0. 0. 0. 0. 0. 0. 0.
      0. 0. 0. 0. 0. 0. 0. 0. 0. 0. 0. 0. 0. 0. 0. 0. 0. 0. 0. 0. 0. 0.
      0. 0. 0. 0. 0. 0. 0. 0. 0. 0. 0. 0. 0. 0. 0. 0. 0. 0. 0. 0. 0. 0.
      1.06594302e-02 0. 0. 0. 0. 0. 0. 0. 0. 0. 0. 0. 0. 0. 0. 0. 0. 0.
      0. 0. 0. 0. 0. 0. 0. 0. 0. 0. 0. 0. 0. 0. 0. 0. 0. 0.
      3.19782905e-02 1.06594302e-02 0. 0. 0. 0. 2.13188604e-02
      1.81210294e-01 0. 0. 0. 0. 0. 0. 0. 0. 0. 0. 0. 0. 0. 0. 0. 0. 0.
      0. 0. 0. 0. 0. 0. 0. 0. 0. 0. 0. 0. 0. 0. 0. 0. 0. 0.
      9.80667591e-01 1.06594302e-02 0. 0. 0. 0. 4.26377207e-02
      4.26377207e-02 0. 0. 0. 0. 0. 0. 0. 0. 0. 0. 0. 0. 0. 0. 0. 0. 0.
      0. 0. 0. 0. 0. 0. 0. 0. 0. 0. 0. 0. 0. 0. 0. 0. 0. 0. 0. 0. 0. 0.
      0. 0. 0. 0. 0. 0. 0. 0. 0. 0. 0. 0. 0. 0. 0. 0. 0. 0. 0. 0. 0. 0.
      0. 0. 0. 0. 0. 0. 0. 0. 0. 0. 0. 0. 0. 0. 0. 0. 0. 3.14054370e-01
      0. 1.57027185e-01 5.23423925e-02 0. 0. 5.23423925e-02
      5.23423925e-02 5.23423925e-02 0. 0. 5.23423925e-02 0. 0. 0.
      1.57027185e-01 0. 0. 0. 0. 0. 0. 5.23423925e-02 0. 1.04684785e-01
      0. 0. 0. 0. 0. 1.04684785e-01 1.57027185e-01 5.23423925e-02 0. 0.
      0. 0. 0. 0. 0. 0. 0. 0. 0. 0. 0. 0. 0. 1.04684785e-01 0. 0. 0. 0.
      0. 0. 0. 1.04684785e-01 0. 0. 0. 1.04684785e-01 0. 5.23423925e-02
      1.04684785e-01 5.23423925e-02 0. 0. 0. 0. 0. 0. 0. 5.23423925e-02
      0. 0. 0. 0. 0. 0. 0. 0. 0. 0. 0. 0. 0. 0. 0. 5.23423925e-02 0. 0.
      0. 0. 0. 0. 0. 1.04684785e-01 0. 0. 0. 0. 0. 0. 0. 5.23423925e-02
      0. 0. 0. 0. 0. 0. 0. 1.57027185e-01 0. 0. 0. 0. 0. 0. 0. 0. 0. 0.
      5.23423925e-02 0. 0. 0. 5.23423925e-02 1.57027185e-01
      1.04684785e-01 0. 5.23423925e-02 0. 0. 0. 1.57027185e-01
      5.23423925e-02 5.23423925e-02 0. 0. 0. 0. 0. 1.04684785e-01 0.
      5.23423925e-02 0. 0. 0. 0. 0. 0. 0. 0. 0. 0. 0. 0. 0.
      1.04684785e-01 0. 5.23423925e-02 0. 0. 0. 5.23423925e-02 0. 0. 0.
      0. 0. 0. 0. 0. 0. 0. 0. 5.23423925e-02 0. 0. 0. 0. 0.
      5.23423925e-02 5.23423925e-02 0. 0. 0. 0. 0. 0. 0. 5.23423925e-02
      1.04684785e-01 0. 2.09369570e-01 0. 0. 5.23423925e-02
      5.23423925e-02 0. 0. 0. 0. 0. 0. 0. 5.23423925e-02 0. 0. 0. 0. 0.
      0. 0. 0. 0. 0. 0. 0. 0. 0. 0. 1.04684785e-01 3.14054370e-01
      2.61711955e-01 0. 2.61711955e-01 0. 0. 0. 2.09369570e-01 0.
      5.23423925e-02 0. 0. 0. 0. 0. 0. 2.61711955e-01 1.57027185e-01 0.
      5.23423925e-02 5.23423925e-02 5.23423925e-02 0. 1.04684785e-01
      5.23423925e-02 1.57027185e-01 0. 5.23423925e-02 1.04684785e-01 0.
      0. 2.61711955e-01</_>
    <_>
      3.29419047e-01 4.02188748e-01 8.54240775e-01 0. 0. 1.33061577e-02
      0. 0. 0. 0. 0. 2.66123153e-02 1.33061577e-02 0. 0. 0. 0. 0. 0. 0.
      0. 0. 0. 0. 0. 0. 0. 0. 0. 0. 0. 0. 0. 0. 0. 0. 0. 0. 0. 0. 0. 0.
      0. 0. 0. 0. 0. 5.32246307e-02 9.97961760e-01 0. 0. 0. 0. 0.
      1.33061577e-02 0. 0. 0. 0. 0. 0. 0. 0. 0. 0. 0. 0. 0. 0. 0. 0. 0.
      0. 0. 0. 0. 0. 0. 0. 0. 0. 0. 0. 0. 0. 0. 0. 0. 0. 0. 0. 0. 0. 0.
      0. 0. 0. 0. 0. 0. 0. 0. 0. 0. 0. 0. 0. 0. 0. 0. 0. 0. 0. 0. 0. 0.
      0. 0. 0. 0. 0. 0. 0. 0. 0. 0. 0. 0. 0. 0. 0. 0. 0. 0. 0. 0. 0. 0.
      0. 0. 0. 0. 0. 0. 0. 0. 0. 0. 0. 0. 0. 0. 0. 0. 0. 0. 0. 0. 0. 0.
      0. 0. 0. 0. 0. 0. 0. 0. 0. 0. 0. 0. 0. 0. 0. 0. 0. 0. 0. 0. 0. 0.
      0. 0. 0. 0. 0. 0. 0. 0. 0. 0. 0. 0. 0. 0. 0. 0. 0. 0. 0. 0. 0. 0.
      0. 0. 0. 0. 0. 0. 0. 0. 0. 0. 0. 0. 0. 0. 0. 6.13139346e-02 0. 0.
      0. 6.13139346e-02 0. 0. 0. 6.13139346e-02 0. 0. 0. 0. 0.
      6.13139346e-02 0. 0. 0. 0. 0. 0. 0. 0. 0. 0. 0. 0. 6.13139346e-02
      0. 0. 6.13139346e-02 6.13139346e-02 6.13139346e-02 0. 0. 0. 0. 0.
      0. 0. 0. 0. 0. 0. 0. 0. 0. 0. 1.22627869e-01 0. 0. 0. 0. 0. 0. 0.
      1.22627869e-01 6.13139346e-02 0. 0. 6.13139346e-02 0.
      3.06569666e-01 0. 0. 0. 0. 0. 0. 0. 0. 0. 0. 0. 0. 0. 0. 0.
      6.13139346e-02 0. 0. 0. 0. 0. 0. 0. 0. 0. 0. 0. 0. 0. 0. 0. 0. 0.
      6.13139346e-02 0. 0. 0. 0. 0. 0. 0. 6.13139346e-02 0. 0. 0. 0. 0.
      0. 0. 6.13139346e-02 6.13139346e-02 6.13139346e-02 0. 0. 0.
      6.13139346e-02 0. 1.22627869e-01 0. 0. 0. 1.83941811e-01 0.
      1.22627869e-01 0. 1.83941811e-01 0. 0. 6.13139346e-02 0. 0. 0. 0.
      0. 0. 0. 0. 0. 0. 0. 0. 0. 0. 0. 0. 0. 0. 0. 0. 0. 0. 0. 0. 0. 0.
      6.13139346e-02 6.13139346e-02 0. 0. 0. 0. 0. 0. 0. 0. 0. 0. 0. 0.
      0. 0. 0. 0. 0. 6.13139346e-02 0. 0. 0. 0. 0. 0. 0. 6.13139346e-02
      0. 0. 0. 0. 0. 6.13139346e-02 0. 0. 0. 6.13139346e-02
      6.13139346e-02 0. 0. 0. 0. 0. 0. 0. 6.13139346e-02 0. 0. 0. 0. 0.
      0. 0. 0. 0. 0. 0. 0. 0. 0. 0. 0. 0. 0. 0. 3.67883623e-01 0. 0.
      6.13139346e-02 0. 0. 0. 0. 0. 0. 0. 0. 0. 0. 0. 0. 3.06569666e-01
      6.13139346e-02 0. 1.83941811e-01 0. 0. 0. 0. 3.06569666e-01
      6.13139346e-02 6.13139346e-02 6.13139346e-02 1.83941811e-01
      1.22627869e-01 1.22627869e-01 4.90511477e-01</_>
    <_>
      2.70934731e-01 4.79970694e-01 8.34399521e-01 0. 2.03447118e-02
      2.03447118e-01 0. 0. 0. 0. 6.10341355e-02 7.12064922e-01
      1.83102414e-01 0. 0. 0. 4.06894237e-02 2.03447118e-02 0. 0. 0. 0.
      0. 0. 0. 0. 0. 0. 0. 0. 0. 0. 0. 0. 0. 0. 0. 0. 0. 0. 0. 0. 0. 0.
      0. 0. 0. 2.03447118e-02 5.08617818e-01 0. 0. 0. 0. 3.05170685e-01
      2.44136542e-01 0. 0. 0. 0. 0. 0. 0. 0. 0. 0. 0. 0. 0. 0. 0. 0. 0.
      0. 0. 0. 0. 0. 0. 0. 0. 0. 0. 0. 0. 0. 0. 0. 0. 0. 0. 0. 0. 0. 0.
      0. 0. 0. 0. 0. 0. 0. 0. 0. 0. 0. 0. 0. 0. 0. 0. 0. 0. 0. 0. 0. 0.
      0. 0. 0. 0. 0. 0. 0. 0. 0. 0. 0. 0. 0. 0. 0. 0. 0. 0. 0. 0. 0. 0.
      0. 0. 0. 0. 0. 0. 0. 0. 0. 0. 0. 0. 0. 0. 0. 0. 0. 0. 0. 0. 0. 0.
      0. 0. 0. 0. 0. 0. 0. 0. 0. 0. 0. 0. 0. 0. 0. 0. 0. 0. 0. 0. 0. 0.
      0. 0. 0. 0. 0. 0. 0. 0. 0. 0. 0. 0. 0. 0. 0. 0. 0. 0. 0. 0. 0. 0.
      0. 0. 0. 0. 0. 0. 0. 0. 0. 0. 0. 0. 0. 0. 0. 4.44554240e-02 0. 0.
      0. 0. 0. 4.44554240e-02 0. 0. 0. 0. 0. 4.44554240e-02 0. 0. 0. 0.
      0. 0. 0. 0. 0. 0. 0. 0. 0. 0. 0. 8.89108479e-02 0. 4.00098801e-01
      1.33366272e-01 1.33366272e-01 0. 4.44554240e-02 0. 0. 0. 0. 0. 0.
      0. 0. 0. 0. 0. 4.44554240e-02 0. 0. 0. 4.44554240e-02 0. 0. 0. 0.
      0. 8.89108479e-02 0. 0. 0. 1.77821696e-01 4.44554240e-02
      4.44554240e-02 8.89108479e-02 0. 0. 0. 0. 0. 0. 0. 0.
      4.44554240e-02 0. 0. 0. 0. 0. 4.44554240e-02 0. 0. 0. 0. 0. 0. 0.
      0. 0. 0. 0. 0. 0. 0. 0. 0. 0. 0. 0. 0. 0. 0. 0. 0. 0. 0. 0. 0. 0.
      0. 0. 4.44554240e-02 0. 4.44554240e-02 0. 0. 0. 0. 0. 0. 0.
      8.89108479e-02 0. 0. 0. 0. 0. 8.89108479e-02 0. 8.89108479e-02
      4.44554240e-02 0. 4.44554240e-02 0. 0. 0. 4.44554240e-02
      4.44554240e-02 0. 0. 0. 0. 0. 0. 4.44554240e-02 0. 0. 0. 0. 0. 0.
      0. 0. 0. 0. 0. 0. 0. 0. 0. 0. 0. 0. 0. 0. 0. 0. 0. 0. 0. 0. 0. 0.
      0. 0. 0. 0. 0. 0. 0. 0. 0. 0. 0. 0. 0. 4.44554240e-02 0. 0. 0. 0.
      0. 8.89108479e-02 0. 4.44554240e-02 0. 1.33366272e-01 0. 0. 0. 0.
      0. 0. 0. 0. 0. 0. 0. 4.44554240e-02 0. 0. 0. 0. 0. 0. 0. 0. 0. 0.
      0. 0. 0. 0. 0. 2.66732544e-01 8.89108479e-02 3.11187983e-01 0.
      2.22277120e-01 8.89108479e-02 4.44554240e-02 0. 0. 0. 0. 0. 0. 0.
      0. 4.44554240e-02 8.89108479e-02 3.55643392e-01 4.44554240e-02 0.
      4.44554240e-02 0. 0. 0. 0. 1.33366272e-01 1.33366272e-01 0.
      4.44554240e-02 0. 2.22277120e-01 0. 4.44554240e-01</_>
    <_>
      3.88538986e-01 5.31110227e-01 7.52967000e-01 0. 0. 0. 0. 0. 0. 0.
      0. 0. 0. 0. 0. 0. 0. 0. 1.53591884e-02 0. 0. 0. 0. 0. 0. 0. 0. 0.
      0. 0. 0. 0. 0. 0. 0. 0. 0. 0. 0. 0. 0. 0. 0. 0. 0. 0. 0. 0. 0. 0.
      0. 0. 0. 3.07183769e-02 1.53591886e-01 7.67959431e-02 0. 0. 0. 0.
      0. 0. 0. 0. 0. 0. 0. 0. 0. 0. 0. 0. 0. 0. 0. 0. 0. 0. 0. 0. 0. 0.
      0. 0. 0. 0. 0. 0. 0. 0. 0. 4.60775681e-02 0. 0. 0. 0. 0.
      9.82988060e-01 3.07183769e-02 0. 0. 0. 0. 0. 0. 0. 0. 0. 0. 0. 0.
      0. 0. 0. 0. 0. 0. 0. 0. 0. 0. 0. 0. 0. 0. 0. 0. 0. 0. 0. 0. 0. 0.
      0. 0. 0. 0. 0. 0. 0. 0. 0. 0. 0. 0. 0. 0. 0. 0. 0. 0. 0. 0. 0. 0.
      0. 0. 0. 0. 0. 0. 0. 0. 0. 0. 0. 0. 0. 0. 0. 0. 0. 0. 0. 0. 0. 0.
      0. 0. 0. 0. 0. 0. 0. 0. 0. 0. 0. 0. 0. 0. 0. 0. 0. 0. 0. 0. 0. 0.
      0. 0. 0. 0. 0. 0. 0. 0. 0. 0. 0. 0. 0. 0. 0. 0. 0. 0. 0. 0.
      8.26898217e-02 0. 0. 0. 0. 0. 0. 1.24034733e-01 0. 0. 0. 0. 0. 0.
      2.06724554e-01 8.26898217e-02 0. 0. 0. 0. 0. 0. 0. 0.
      4.13449109e-02 0. 0. 0. 8.26898217e-02 0. 8.26898217e-02 0. 0. 0.
      0. 0. 0. 0. 0. 0. 0. 0. 0. 0. 0. 0. 0. 0. 0. 0. 0. 0. 0. 0. 0. 0.
      4.13449109e-02 0. 0. 0. 3.30759287e-01 0. 2.06724554e-01 0. 0. 0.
      0. 0. 0. 0. 0. 0. 0. 0. 0. 0. 0. 0. 4.13449109e-02 0. 0. 0. 0. 0.
      0. 0. 0. 0. 0. 0. 0. 0. 0. 0. 0. 0. 0. 0. 0. 0. 0. 0. 0. 0. 0. 0.
      0. 0. 0. 0. 0. 0. 0. 0. 0. 0. 0. 0. 0. 0. 0. 0. 0. 0.
      8.26898217e-02 0. 4.13449109e-02 0. 0. 4.13449109e-02 0.
      3.72104198e-01 0. 0. 0. 0. 0. 0. 0. 0. 0. 0. 0. 4.13449109e-02 0.
      0. 0. 0. 0. 0. 0. 0. 0. 0. 0. 0. 0. 0. 0. 4.13449109e-02 0. 0. 0.
      0. 0. 0. 0. 0. 0. 0. 0. 0. 0. 0. 0. 0. 0. 0. 0. 0. 0. 0. 0. 0. 0.
      0. 0. 0. 0. 0. 0. 4.13449109e-02 0. 0. 0. 7.02863455e-01 0. 0. 0.
      1.24034733e-01 0. 0. 0. 0. 0. 0. 0. 4.13449109e-02 0. 0. 0. 0. 0.
      0. 0. 0. 0. 0. 0. 0. 0. 0. 0. 0. 0. 4.13449109e-02 4.13449109e-02
      1.65379643e-01 4.13449109e-02 0. 0. 1.65379643e-01 0. 0. 0. 0. 0.
      0. 0. 4.13449109e-02 0. 0. 0. 4.13449109e-02 0. 0. 0. 0. 0. 0. 0.
      4.13449109e-02 0. 0. 0. 1.65379643e-01</_>
    <_>
      2.35403165e-01 7.11814284e-01 6.61744416e-01 0. 0. 0. 0. 0. 0.
      2.06724554e-02 8.47570717e-01 0. 0. 0. 0. 0. 1.24034740e-01
      3.92776668e-01 0. 0. 0. 0. 0. 0. 0. 0. 0. 0. 0. 0. 0. 0. 0. 0. 0.
      0. 0. 0. 0. 0. 0. 0. 0. 0. 0. 0. 0. 0. 0. 0. 0. 0. 0.
      3.30759287e-01 0. 0. 0. 0. 0. 4.13449109e-02 2.06724554e-02 0. 0.
      0. 0. 0. 0. 0. 0. 0. 0. 0. 0. 0. 0. 0. 0. 0. 0. 0. 0. 0. 0. 0. 0.
      0. 0. 0. 0. 0. 0. 0. 0. 0. 0. 0. 0. 0. 0. 0. 0. 0. 0. 0. 0. 0. 0.
      0. 0. 0. 0. 0. 0. 0. 0. 0. 0. 0. 0. 0. 0. 0. 0. 0. 0. 0. 0. 0. 0.
      0. 0. 0. 0. 0. 0. 0. 0. 0. 0. 0. 0. 0. 0. 0. 0. 0. 0. 0. 0. 0. 0.
      0. 0. 0. 0. 0. 0. 0. 0. 0. 0. 0. 0. 0. 0. 0. 0. 0. 0. 0. 0. 0. 0.
      0. 0. 0. 0. 0. 0. 0. 0. 0. 0. 0. 0. 0. 0. 0. 0. 0. 0. 0. 0. 0. 0.
      0. 0. 0. 0. 0. 0. 0. 0. 0. 0. 0. 0. 0. 0. 0. 0. 0. 0. 0. 0. 0. 0.
      0. 0. 6.37576729e-02 0. 0. 6.37576729e-02 0. 0. 0. 0.
      1.27515346e-01 0. 0. 0. 6.37576729e-02 0. 6.37576729e-02
      1.27515346e-01 6.37576729e-02 0. 0. 0. 0. 0. 0. 0. 6.37576729e-02
      6.37576729e-02 0. 0. 6.37576729e-02 0. 4.46303725e-01
      4.46303725e-01 6.37576729e-02 0. 0. 0. 0. 0. 0. 0. 0. 0. 0. 0. 0.
      0. 0. 0. 6.37576729e-02 0. 0. 0. 0. 0. 0. 0. 1.27515346e-01 0.
      6.37576729e-02 0. 0. 0. 2.55030692e-01 0. 6.37576729e-02 0. 0. 0.
      0. 0. 0. 0. 0. 0. 0. 0. 0. 0. 0. 0. 0. 0. 0. 0. 0. 0. 0. 0.
      6.37576729e-02 0. 0. 0. 1.27515346e-01 0. 0. 0. 6.37576729e-02 0.
      0. 0. 0. 0. 0. 0. 6.37576729e-02 0. 0. 0. 0. 0. 0. 6.37576729e-02
      6.37576729e-02 6.37576729e-02 0. 0. 0. 0. 0. 0. 6.37576729e-02
      6.37576729e-02 0. 0. 1.27515346e-01 0. 1.27515346e-01 0.
      1.91273019e-01 6.37576729e-02 0. 1.27515346e-01 0. 0.
      6.37576729e-02 1.27515346e-01 0. 6.37576729e-02 0. 0. 0. 0. 0.
      6.37576729e-02 0. 0. 0. 0. 0. 0. 0. 0. 0. 0. 0. 0. 0. 0.
      6.37576729e-02 6.37576729e-02 0. 0. 0. 0. 0. 0. 0. 0. 0. 0. 0. 0.
      0. 0. 0. 0. 0. 0. 0. 0. 0. 0. 0. 0. 0. 6.37576729e-02 0. 0. 0. 0.
      0. 0. 0. 6.37576729e-02 0. 0. 0. 0. 0. 0. 0. 0. 0. 0. 0. 0. 0. 0.
      0. 0. 0. 0. 0. 0. 0. 0. 0. 0. 0. 0. 0. 0. 0. 0. 1.27515346e-01 0.
      0. 0. 0. 0. 0. 0. 0. 6.37576729e-02 0. 0. 0. 0. 0. 0.
      3.18788350e-01 1.27515346e-01 0. 0. 0. 0. 0. 1.27515346e-01
      6.37576729e-02 0. 0. 1.27515346e-01 1.27515346e-01 0. 0.
      2.55030692e-01</_>
    <_>
      4.68647748e-01 5.79038560e-01 6.67145908e-01 0. 0. 0. 0. 0. 0. 0.
      0. 0. 0. 0. 0. 0. 0. 0. 0. 0. 0. 0. 0. 0. 0. 0. 0. 0. 0. 0. 0. 0.
      0. 0. 0. 0. 0. 0. 0. 0. 0. 0. 0. 0. 0. 0. 0. 0. 0. 0. 0. 0. 0. 0.
      0. 0. 0. 0. 0. 0. 0. 0. 0. 0. 0. 0. 0. 0. 0. 0. 0. 0. 0. 0. 0. 0.
      0. 0. 0. 0. 0. 0. 0. 0. 0. 0. 0. 0. 0. 0. 1.49906343e-02 0. 0. 0.
      0. 0. 1.64896980e-01 2.39850149e-01 0. 0. 0. 0. 0. 0. 0. 0. 0. 0.
      0. 0. 0. 0. 0. 0. 0. 0. 0. 0. 0. 0. 0. 0. 0. 0. 0. 0. 0. 0. 0. 0.
      0. 0. 0. 5.09681582e-01 0. 0. 0. 0. 0. 8.09494257e-01 0. 0. 0. 0.
      0. 0. 0. 0. 0. 0. 0. 0. 0. 0. 0. 0. 0. 0. 0. 0. 0. 0. 0. 0. 0. 0.
      0. 0. 0. 0. 0. 0. 0. 0. 0. 0. 0. 0. 0. 0. 0. 0. 0. 0. 0. 0. 0. 0.
      0. 0. 0. 0. 0. 0. 0. 0. 0. 0. 0. 0. 0. 0. 0. 0. 0. 0. 0. 0. 0. 0.
      0. 0. 0. 0. 0. 0. 0. 0. 0. 6.30566627e-02 3.15283313e-02
      3.15283313e-02 6.30566627e-02 0. 0. 3.15283313e-02 0. 0. 0. 0. 0.
      0. 0. 6.30566627e-02 9.45849940e-02 0. 0. 0. 0. 0. 0. 0. 0. 0. 0.
      0. 0. 0. 0. 6.30566597e-01 6.30566627e-02 6.30566627e-02 0. 0. 0.
      0. 0. 0. 0. 0. 0. 0. 0. 3.15283313e-02 0. 0. 0. 0. 0. 0. 0. 0. 0.
      0. 0. 3.15283313e-02 0. 0. 0. 6.30566627e-02 0. 9.45849940e-02
      3.15283313e-02 0. 0. 0. 0. 0. 0. 0. 0. 0. 0. 0. 0. 0. 0. 0. 0. 0.
      0. 0. 0. 0. 0. 0. 0. 0. 0. 0. 0. 0. 0. 3.15283313e-02 0. 0.
      3.15283313e-02 3.15283313e-02 0. 0. 0. 0. 0. 0. 0. 0. 0. 0. 0. 0.
      0. 0. 0. 3.15283313e-02 0. 0. 0. 0. 0. 0. 0. 0. 0. 3.15283313e-02
      0. 0. 0. 3.15283313e-02 0. 0. 6.30566627e-02 0. 0. 0.
      3.15283313e-02 0. 0. 0. 0. 0. 0. 0. 1.57641649e-01 0. 0. 0.
      3.15283313e-02 0. 0. 0. 3.15283313e-02 0. 0. 0. 0. 0. 0. 0. 0. 0.
      0. 0. 0. 0. 0. 0. 0. 0. 0. 0. 0. 0. 0. 0. 0. 0. 0. 0. 0. 0. 0. 0.
      0. 0. 0. 0. 0. 3.15283313e-02 0. 0. 3.15283313e-02 0. 0. 0.
      9.45849940e-02 0. 0. 0. 6.30566627e-02 0. 0. 0. 0. 0. 0. 0. 0. 0.
      0. 0. 0. 0. 0. 0. 0. 0. 0. 0. 0. 0. 0. 0. 0. 9.45849940e-02
      4.72924978e-01 3.15283313e-02 4.41396654e-01 0. 0. 0.
      3.15283313e-02 0. 0. 0. 0. 0. 0. 0. 3.15283313e-02 6.30566627e-02
      2.52226651e-01 0. 0. 0. 0. 0. 0. 3.15283313e-02 3.15283313e-02 0.
      0. 0. 0. 3.15283313e-02 3.15283313e-02</_>
    <_>
      3.86380523e-01 5.39886773e-01 7.47818410e-01 0. 4.10910733e-02 0.
      0. 0. 0. 0. 0. 1.84909821e-01 0. 0. 0. 0. 0. 6.16366081e-02 0. 0.
      0. 0. 0. 0. 0. 0. 0. 0. 0. 0. 0. 0. 0. 0. 0. 0. 0. 0. 0. 0. 0. 0.
      0. 0. 0. 0. 0. 4.93092865e-01 0. 0. 0. 0. 0. 1.64364293e-01
      8.01275849e-01 0. 0. 0. 0. 0. 0. 0. 0. 0. 0. 0. 0. 0. 0. 0. 0. 0.
      0. 0. 0. 0. 0. 0. 0. 0. 0. 0. 0. 0. 0. 0. 0. 0. 0. 0.
      1.64364293e-01 0. 0. 0. 0. 0. 1.43818751e-01 0. 0. 0. 0. 0. 0. 0.
      0. 0. 0. 0. 0. 0. 0. 0. 0. 0. 0. 0. 0. 0. 0. 0. 0. 0. 0. 0. 0. 0.
      0. 0. 0. 0. 0. 0. 0. 2.05455367e-02 0. 0. 0. 0. 0. 0. 0. 0. 0. 0.
      0. 0. 0. 0. 0. 0. 0. 0. 0. 0. 0. 0. 0. 0. 0. 0. 0. 0. 0. 0. 0. 0.
      0. 0. 0. 0. 0. 0. 0. 0. 0. 0. 0. 0. 0. 0. 0. 0. 0. 0. 0. 0. 0. 0.
      0. 0. 0. 0. 0. 0. 0. 0. 0. 0. 0. 0. 0. 0. 0. 0. 0. 0. 0. 0. 0. 0.
      0. 0. 0. 0. 0. 0. 0. 0. 0. 2.16612145e-01 0. 5.41530363e-02 0.
      5.41530363e-02 0. 5.41530363e-02 5.41530363e-02 5.41530363e-02 0.
      0. 5.41530363e-02 0. 0. 5.41530363e-02 2.16612145e-01 0. 0. 0. 0.
      0. 0. 0. 0. 0. 0. 0. 0. 5.41530363e-02 0. 0. 0. 0. 0. 0. 0. 0. 0.
      0. 0. 0. 0. 0. 0. 0. 0. 0. 0. 5.41530363e-02 0. 0. 0. 0. 0. 0. 0.
      0. 0. 0. 0. 0. 5.41530363e-02 1.62459105e-01 0. 0. 0. 0.
      5.41530363e-02 0. 0. 0. 5.41530363e-02 0. 0. 0. 0. 0. 0. 0. 0. 0.
      0. 0. 0. 0. 0. 0. 0. 0. 0. 0. 5.41530363e-02 0. 0. 0. 0. 0. 0. 0.
      0. 0. 0. 0. 0. 5.41530363e-02 0. 0. 0. 0. 0. 5.41530363e-02
      1.08306073e-01 5.41530363e-02 0. 0. 0. 0. 0. 0. 0. 0. 0. 0. 0. 0.
      0. 0. 5.41530363e-02 1.08306073e-01 5.41530363e-02 0.
      1.08306073e-01 1.08306073e-01 0. 0. 5.41530363e-02 0.
      1.08306073e-01 0. 0. 0. 0. 0. 1.62459105e-01 0. 0. 0. 0. 0. 0. 0.
      5.41530363e-02 0. 0. 0. 0. 0. 0. 0. 5.41530363e-02 0.
      5.41530363e-02 0. 5.41530363e-02 0. 0. 0. 0. 0. 0. 0. 0. 0. 0. 0.
      0. 5.41530363e-02 0. 0. 0. 0. 0. 0. 0. 0. 0. 0. 0. 0. 0. 0. 0.
      5.41530363e-02 1.08306073e-01 0. 5.41530363e-02 5.41530363e-02 0.
      0. 5.41530363e-02 0. 0. 0. 0. 0. 0. 0. 1.08306073e-01 0. 0. 0. 0.
      0. 0. 0. 0. 0. 0. 0. 0. 0. 0. 0. 5.41530363e-02 2.70765185e-01
      4.33224291e-01 0. 1.62459105e-01 0. 0. 0. 1.08306073e-01 0. 0.
      5.41530363e-02 0. 0. 0. 0. 1.08306073e-01 0. 3.24918211e-01 0.
      5.41530363e-02 5.41530363e-02 0. 5.41530363e-02 1.08306073e-01 0.
      0. 0. 5.41530363e-02 5.41530363e-02 5.41530363e-02 0.
      4.87377316e-01</_>
    <_>
      2.87730813e-01 5.83647966e-01 7.59319484e-01 7.76576638e-01
      1.51001006e-01 0. 0. 0. 0. 0. 5.39289296e-01 2.15715721e-01 0. 0.
      0. 0. 0. 0. 0. 0. 0. 0. 0. 0. 0. 0. 0. 0. 0. 0. 0. 0. 0. 0. 0. 0.
      0. 0. 0. 0. 0. 0. 0. 0. 0. 0. 2.15715729e-02 1.07857861e-01 0. 0.
      0. 0. 0. 1.51001006e-01 4.31431457e-02 0. 0. 0. 0. 0. 0. 0. 0. 0.
      0. 0. 0. 0. 0. 0. 0. 0. 0. 0. 0. 0. 0. 0. 0. 0. 0. 0. 0. 0. 0. 0.
      0. 0. 0. 0. 0. 0. 0. 0. 0. 0. 0. 0. 0. 0. 0. 0. 0. 0. 0. 0. 0. 0.
      0. 0. 0. 0. 0. 0. 0. 0. 0. 0. 0. 0. 0. 0. 0. 0. 0. 0. 0. 0. 0. 0.
      0. 0. 0. 0. 0. 0. 0. 0. 0. 0. 0. 0. 0. 0. 0. 0. 0. 0. 0. 0. 0. 0.
      0. 0. 0. 0. 0. 0. 0. 0. 0. 0. 0. 0. 0. 0. 0. 0. 0. 0. 0. 0. 0. 0.
      0. 0. 0. 0. 0. 0. 0. 0. 0. 0. 0. 0. 0. 0. 0. 0. 0. 0. 0. 0. 0. 0.
      0. 0. 0. 0. 0. 0. 0. 0. 0. 0. 0. 0. 0. 0. 0. 0. 0. 0. 0. 0. 0. 0.
      0. 4.31531854e-02 0. 0. 0. 4.31531854e-02 0. 0. 0. 1.29459560e-01
      0. 0. 0. 4.31531854e-02 0. 0. 0. 0. 0. 0. 0. 0. 0. 0.
      4.31531854e-02 0. 0. 0. 0. 4.31531854e-02 0. 1.29459560e-01
      1.29459560e-01 4.31531854e-02 0. 0. 0. 0. 0. 0. 0. 0. 0. 0. 0. 0.
      0. 0. 0. 0. 0. 0. 0. 0. 0. 0. 0. 1.72612742e-01 0. 0. 0.
      3.88378680e-01 0. 4.31531847e-01 0. 0. 0. 0. 0. 0. 0. 0. 0. 0. 0.
      0. 0. 0. 0. 0. 0. 0. 0. 0. 0. 0. 0. 0. 0. 0. 0. 0. 0. 0. 0. 0. 0.
      0. 0. 0. 0. 0. 0. 0. 0. 0. 0. 0. 0. 0. 0. 0. 0. 4.31531854e-02 0.
      0. 0. 4.31531854e-02 0. 0. 0. 1.29459560e-01 0. 0. 0.
      1.72612742e-01 0. 8.63063708e-02 0. 0. 0. 0. 0. 0. 0. 0. 0. 0. 0.
      0. 0. 0. 0. 0. 0. 0. 0. 4.31531854e-02 0. 0. 0. 0. 0. 0. 0. 0. 0.
      0. 0. 0. 0. 0. 0. 0. 0. 0. 0. 0. 0. 0. 0. 0. 0. 0. 0. 0. 0. 0. 0.
      0. 0. 0. 0. 0. 0. 0. 0. 0. 0. 0. 4.31531854e-02 0. 4.31531854e-02
      0. 4.31531854e-02 0. 0. 0. 0. 0. 0. 0. 0. 0. 0. 0. 0.
      4.31531854e-02 0. 0. 0. 0. 0. 0. 0. 0. 0. 0. 0. 0. 0. 0. 0. 0.
      4.31531854e-02 0. 3.45225483e-01 0. 4.31531854e-02 0. 0. 0. 0. 0.
      0. 0. 0. 0. 0. 0. 0. 8.63063708e-02 8.63063708e-02 0. 0.
      4.31531854e-02 0. 0. 0. 1.29459560e-01 8.63063708e-02 0. 0.
      8.63063708e-02 4.31531854e-02 1.29459560e-01 5.60991406e-01</_>
    <_>
      4.05283511e-01 5.32263160e-01 7.43263960e-01 0. 0. 0. 0. 0. 0. 0.
      0. 0. 1.43858837e-02 0. 0. 0. 0. 0. 0. 0. 0. 0. 0. 0. 0. 0. 0. 0.
      0. 0. 0. 0. 0. 0. 0. 0. 0. 0. 0. 0. 0. 0. 0. 0. 0. 0. 0. 0.
      1.43858837e-02 0. 0. 0. 0. 0. 2.01402366e-01 1.43858837e-02 0. 0.
      0. 0. 0. 0. 0. 0. 0. 0. 0. 0. 0. 0. 0. 0. 0. 0. 0. 0. 0. 0. 0. 0.
      0. 0. 0. 0. 0. 0. 0. 0. 0. 0. 1.43858837e-02 2.87717674e-02 0. 0.
      0. 0. 0. 9.78240073e-01 0. 0. 0. 0. 0. 0. 0. 0. 0. 0. 0. 0. 0. 0.
      0. 0. 0. 0. 0. 0. 0. 0. 0. 0. 0. 0. 0. 0. 0. 0. 0. 0. 0. 0. 0. 0.
      2.87717674e-02 0. 0. 0. 0. 0. 0. 0. 0. 0. 0. 0. 0. 0. 0. 0. 0. 0.
      0. 0. 0. 0. 0. 0. 0. 0. 0. 0. 0. 0. 0. 0. 0. 0. 0. 0. 0. 0. 0. 0.
      0. 0. 0. 0. 0. 0. 0. 0. 0. 0. 0. 0. 0. 0. 0. 0. 0. 0. 0. 0. 0. 0.
      0. 0. 0. 0. 0. 0. 0. 0. 0. 0. 0. 0. 0. 0. 0. 0. 0. 0. 0. 0. 0. 0.
      0. 3.53553407e-02 0. 1.06066018e-01 7.07106814e-02 0. 0. 0. 0. 0.
      0. 0. 0. 0. 0. 0. 0. 0. 0. 0. 0. 0. 0. 0. 0. 0. 0. 0. 0.
      7.07106814e-02 0. 0. 0. 0. 0. 0. 0. 0. 0. 0. 0. 0. 0. 0. 0. 0. 0.
      0. 0. 0. 0. 0. 0. 0. 0. 0. 0. 2.12132037e-01 0. 0. 0.
      3.88908744e-01 0. 3.53553407e-02 0. 0. 0. 0. 0. 0. 0. 0. 0. 0. 0.
      0. 0. 0. 0. 0. 0. 0. 0. 0. 0. 0. 0. 0. 0. 0. 0. 0. 0. 0. 0. 0. 0.
      7.07106814e-02 0. 3.53553407e-02 0. 0. 0. 0. 0. 0. 0. 0. 0. 0. 0.
      0. 0. 0. 0. 0. 0. 0. 0. 0. 0. 7.07106814e-02 0. 0. 0.
      3.53553414e-01 0. 1.06066018e-01 0. 0. 0. 0. 3.53553407e-02 0. 0.
      0. 3.53553407e-02 0. 0. 0. 0. 0. 0. 0. 3.53553407e-02 0. 0. 0. 0.
      0. 0. 0. 0. 0. 0. 0. 0. 0. 0. 0. 0. 0. 0. 0. 3.53553407e-02 0. 0.
      0. 0. 0. 0. 0. 0. 0. 0. 0. 0. 0. 0. 0. 0. 0. 0. 0. 0. 0. 0. 0. 0.
      0. 0. 0. 0. 0. 3.53553407e-02 0. 7.42462158e-01 0. 0. 0.
      2.12132037e-01 0. 0. 0. 0. 0. 0. 3.53553407e-02 3.53553407e-02 0.
      0. 0. 0. 0. 0. 0. 0. 0. 0. 0. 0. 0. 0. 0. 0. 0. 7.07106814e-02
      3.53553407e-02 1.06066018e-01 0. 0. 0. 7.07106814e-02 0. 0. 0. 0.
      3.53553407e-02 0. 0. 3.53553407e-02 0. 0. 0. 0. 0. 0. 0. 0. 0. 0.
      0. 0. 0. 0. 3.53553407e-02 3.53553407e-02</_>
    <_>
      4.51366156e-01 5.56688786e-01 6.97399616e-01 0. 0. 0. 0. 0. 0. 0.
      0. 0. 0. 0. 0. 0. 0. 0. 0. 0. 0. 0. 0. 0. 0. 0. 0. 0. 0. 0. 0. 0.
      0. 0. 0. 0. 0. 0. 0. 0. 0. 0. 0. 0. 0. 0. 0. 0. 0. 0. 0. 0. 0. 0.
      1.59964170e-02 0. 0. 0. 0. 0. 0. 0. 0. 0. 0. 0. 0. 0. 0. 0. 0. 0.
      0. 0. 0. 0. 0. 0. 0. 0. 0. 0. 0. 0. 0. 0. 0. 0. 0. 0.
      3.19928341e-02 1.59964170e-02 0. 0. 0. 0. 0. 4.31903273e-01 0. 0.
      0. 0. 0. 0. 0. 0. 0. 0. 0. 0. 0. 0. 0. 0. 0. 0. 0. 0. 0. 0. 0. 0.
      0. 0. 0. 0. 0. 0. 0. 0. 0. 0. 0. 7.83824444e-01 3.83914024e-01 0.
      0. 0. 0. 2.23949835e-01 0. 0. 0. 0. 0. 0. 0. 0. 0. 0. 0. 0. 0. 0.
      0. 0. 0. 0. 0. 0. 0. 0. 0. 0. 0. 0. 0. 0. 0. 0. 0. 0. 0. 0. 0. 0.
      0. 0. 0. 0. 0. 0. 0. 0. 0. 0. 0. 0. 0. 0. 0. 0. 0. 0. 0. 0. 0. 0.
      0. 0. 0. 0. 0. 0. 0. 0. 0. 0. 0. 0. 0. 0. 0. 0. 0. 0. 0. 0. 0.
      5.90281337e-02 0. 0. 0. 0. 0. 2.95140669e-02 0. 0. 0. 0. 0. 0. 0.
      5.90281337e-02 0. 0. 0. 2.95140669e-02 0. 0. 0. 0. 0. 0. 0.
      2.95140669e-02 0. 2.95140669e-02 0. 2.36112535e-01 2.95140669e-02
      8.85422006e-02 0. 2.95140669e-02 0. 0. 0. 0. 0. 0. 0. 0. 0. 0. 0.
      2.95140669e-02 0. 0. 0. 0. 0. 0. 0. 2.95140669e-02 0. 0. 0. 0. 0.
      1.18056267e-01 0. 3.83682877e-01 5.90281337e-02 0. 0. 0. 0. 0. 0.
      0. 0. 0. 0. 0. 0. 0. 0. 0. 0. 0. 0. 0. 0. 0. 0. 0. 0. 0. 0. 0. 0.
      0. 0. 0. 0. 0. 0. 2.95140669e-02 0. 0. 0. 0. 0. 0. 0. 0. 0. 0. 0.
      2.95140669e-02 0. 0. 0. 2.95140669e-02 0. 0. 0. 0. 0.
      5.90281337e-02 0. 0. 0. 0. 0. 0. 2.95140669e-02 0. 0. 0. 0. 0. 0.
      0. 0. 0. 0. 0. 0. 0. 0. 0. 0. 0. 0. 0. 0. 0. 0. 0. 0. 0. 0. 0. 0.
      0. 0. 0. 2.95140669e-02 0. 0. 0. 0. 0. 0. 0. 0. 0. 0. 0. 0. 0. 0.
      0. 0. 0. 0. 0. 0. 0. 0. 0. 0. 0. 0. 0. 0. 0. 0. 0. 5.90281337e-02
      0. 0. 0. 1.18056267e-01 0. 0. 0. 0. 0. 0. 0. 0. 0. 0. 0. 0. 0. 0.
      0. 0. 0. 0. 0. 0. 0. 0. 0. 0. 0. 0. 0. 2.95140669e-02
      5.90281337e-02 4.72225070e-01 2.95140669e-02 4.13196921e-01 0. 0.
      0. 0. 0. 0. 0. 0. 0. 0. 0. 0. 0. 8.85422006e-02 0. 2.95140669e-02
      0. 0. 2.95140669e-02 0. 0. 0. 0. 2.95140669e-02 2.95140669e-02 0.
      8.85422006e-02 5.60767293e-01</_>
    <_>
      3.72355282e-01 3.10912251e-01 8.74462724e-01 9.20836866e-01
      3.73312265e-01 1.11993670e-01 0. 0. 0. 0. 0. 0. 0. 0. 0. 0. 0. 0.
      0. 0. 0. 0. 0. 0. 0. 0. 0. 0. 0. 0. 0. 0. 0. 0. 0. 0. 0. 0. 0. 0.
      0. 0. 0. 0. 0. 0. 1.24437409e-02 0. 0. 0. 0. 0. 0. 0. 0. 0. 0. 0.
      0. 0. 0. 0. 0. 0. 0. 0. 0. 0. 0. 0. 0. 0. 0. 0. 0. 0. 0. 0. 0. 0.
      0. 0. 0. 0. 0. 0. 0. 0. 0. 0. 0. 0. 0. 0. 0. 0. 0. 0. 0. 0. 0. 0.
      0. 0. 0. 0. 0. 0. 0. 0. 0. 0. 0. 0. 0. 0. 0. 0. 0. 0. 0. 0. 0. 0.
      0. 0. 0. 0. 0. 0. 0. 0. 0. 0. 0. 0. 0. 0. 0. 0. 0. 0. 0. 0. 0. 0.
      0. 0. 0. 0. 0. 0. 0. 0. 0. 0. 0. 0. 0. 0. 0. 0. 0. 0. 0. 0. 0. 0.
      0. 0. 0. 0. 0. 0. 0. 0. 0. 0. 0. 0. 0. 0. 0. 0. 0. 0. 0. 0. 0. 0.
      0. 0. 0. 0. 0. 0. 0. 0. 0. 0. 0. 0. 0. 0. 0. 0. 0. 0. 0. 0. 0. 0.
      0. 0. 0. 0. 0. 0. 0. 2.95140669e-02 0. 0. 2.95140669e-02 0. 0. 0.
      0. 2.95140669e-02 0. 0. 0. 5.90281337e-02 0. 5.90281337e-02
      2.36112535e-01 0. 0. 0. 0. 0. 0. 0. 0. 2.95140669e-02 0. 0. 0. 0.
      0. 2.95140669e-02 0. 0. 0. 0. 0. 0. 0. 0. 0. 0. 0. 0. 0. 0. 0. 0.
      0. 0. 0. 0. 0. 0. 0. 0. 0. 0. 0. 0. 0. 0. 0. 8.85422006e-02
      8.85422006e-02 0. 0. 0. 0. 0. 0. 0. 0. 0. 0. 0. 0. 0. 0. 0. 0. 0.
      0. 0. 0. 0. 0. 0. 0. 0. 0. 0. 0. 0. 0. 0. 0. 2.95140669e-02 0. 0.
      0. 0. 0. 0. 0. 0. 0. 0. 0. 0. 0. 0. 0. 0. 0. 0. 0. 0. 0. 0.
      2.95140669e-02 0. 0. 0. 0. 2.95140669e-02 0. 8.85422006e-02
      2.95140669e-02 0. 0. 0. 0. 0. 0. 0. 0. 0. 0. 0. 0. 0. 0. 0.
      1.18056267e-01 0. 0. 0. 0. 0. 0. 0. 0. 2.95140669e-02 0. 0. 0. 0.
      0. 2.95140669e-02 2.95140669e-02 2.95140669e-02 0. 0. 0. 0. 0. 0.
      0. 0. 0. 0. 0. 0. 0. 0. 0. 0. 0. 0. 0. 0. 0. 0. 0. 0. 0. 0. 0.
      2.95140669e-02 0. 0. 2.95140669e-02 0. 0. 0. 0. 0. 0. 0. 0. 0. 0.
      0. 0. 0. 0. 0. 0. 0. 0. 0. 0. 0. 0. 0. 0. 0. 0. 0. 0. 0. 0. 0. 0.
      8.85422006e-02 8.85422006e-02 0. 2.95140669e-02 0. 0. 0. 0. 0. 0.
      0. 0. 0. 0. 0. 0. 6.78823531e-01 3.83682877e-01 2.95140669e-02
      2.95140669e-02 0. 0. 2.95140669e-02 0. 5.90281337e-02
      1.47570342e-01 0. 0. 8.85422006e-02 0. 5.90281337e-02
      4.72225070e-01</_>
    <_>
      4.91754979e-01 3.81441057e-01 7.82738626e-01 9.97296274e-01
      7.34849870e-02 0. 0. 0. 0. 0. 0. 0. 0. 0. 0. 0. 0. 0. 0. 0. 0. 0.
      0. 0. 0. 0. 0. 0. 0. 0. 0. 0. 0. 0. 0. 0. 0. 0. 0. 0. 0. 0. 0. 0.
      0. 0. 0. 0. 0. 0. 0. 0. 0. 0. 0. 0. 0. 0. 0. 0. 0. 0. 0. 0. 0. 0.
      0. 0. 0. 0. 0. 0. 0. 0. 0. 0. 0. 0. 0. 0. 0. 0. 0. 0. 0. 0. 0. 0.
      0. 0. 0. 0. 0. 0. 0. 0. 0. 0. 0. 0. 0. 0. 0. 0. 0. 0. 0. 0. 0. 0.
      0. 0. 0. 0. 0. 0. 0. 0. 0. 0. 0. 0. 0. 0. 0. 0. 0. 0. 0. 0. 0. 0.
      0. 0. 0. 0. 0. 0. 0. 0. 0. 0. 0. 0. 0. 0. 0. 0. 0. 0. 0. 0. 0. 0.
      0. 0. 0. 0. 0. 0. 0. 0. 0. 0. 0. 0. 0. 0. 0. 0. 0. 0. 0. 0. 0. 0.
      0. 0. 0. 0. 0. 0. 0. 0. 0. 0. 0. 0. 0. 0. 0. 0. 0. 0. 0. 0. 0. 0.
      0. 0. 0. 0. 0. 0. 0. 0. 0. 0. 0. 0. 0. 0. 0. 0. 0. 0. 0. 0. 0.
      4.21824530e-02 0. 0. 0. 0. 0. 4.21824530e-02 4.21824530e-02
      8.43649060e-02 0. 0. 0. 8.43649060e-02 0. 8.43649060e-02
      4.21824515e-01 0. 0. 0. 0. 0. 0. 0. 0. 0. 0. 0. 0. 0. 0.
      4.21824530e-02 3.37459624e-01 0. 0. 0. 0. 0. 0. 0. 0. 0. 0. 0. 0.
      0. 0. 4.21824530e-02 0. 0. 0. 0. 0. 0. 0. 0. 0. 0. 0. 0.
      4.21824530e-02 0. 4.21824530e-02 4.21824530e-02 1.68729812e-01 0.
      0. 0. 0. 0. 0. 0. 0. 0. 0. 0. 0. 0. 0. 0. 0. 0. 0. 0. 0. 0. 0. 0.
      0. 0. 0. 0. 0. 0. 0. 0. 8.43649060e-02 0. 0. 0. 0. 0. 0. 0. 0. 0.
      0. 0. 0. 0. 0. 0. 8.43649060e-02 0. 0. 0. 0. 0. 0. 0. 0. 0. 0. 0.
      0. 0. 0. 0. 8.43649060e-02 4.21824530e-02 0. 0. 0. 0. 0.
      4.21824530e-02 4.21824530e-02 1.26547366e-01 0. 0. 0.
      4.21824530e-02 0. 0. 2.53094733e-01 0. 0. 0. 0. 0. 0. 0. 0. 0.
      4.21824530e-02 0. 0. 4.21824530e-02 0. 4.21824530e-02
      2.10912257e-01 0. 0. 0. 0. 0. 0. 0. 0. 0. 0. 0. 0. 0. 0. 0. 0. 0.
      0. 0. 0. 0. 0. 0. 8.43649060e-02 4.21824530e-02 0. 0. 0. 0. 0. 0.
      4.21824530e-02 4.21824530e-02 0. 0. 0. 0. 0. 0. 4.21824530e-02
      4.21824530e-02 0. 0. 0. 0. 0. 0. 4.21824530e-02 0. 0. 0. 0. 0. 0.
      0. 0. 0. 0. 0. 0. 0. 0. 0. 1.68729812e-01 8.43649060e-02
      4.21824530e-02 0. 0. 4.21824530e-02 0. 0. 0. 8.43649060e-02 0. 0.
      0. 0. 0. 0. 1.26547366e-01 4.21824530e-02 4.21824530e-02 0. 0. 0.
      0. 0. 4.21824530e-02 0. 0. 0. 0. 0. 0. 0. 6.32736802e-01</_>
    <_>
      3.28807414e-01 5.23513973e-01 7.86014557e-01 2.85957545e-01
      6.43404484e-01 2.38297954e-02 0. 0. 0. 0. 6.19574726e-01
      2.85957545e-01 0. 0. 0. 0. 0. 0. 0. 0. 0. 0. 0. 0. 0. 0. 0. 0. 0.
      0. 0. 0. 0. 0. 0. 0. 0. 0. 0. 0. 0. 0. 0. 0. 0. 0. 2.38297954e-02
      1.66808560e-01 2.38297954e-02 0. 0. 0. 0. 0. 9.53191817e-02 0. 0.
      0. 0. 0. 0. 0. 0. 0. 0. 0. 0. 0. 0. 0. 0. 0. 0. 0. 0. 0. 0. 0. 0.
      0. 0. 0. 0. 0. 0. 0. 0. 0. 0. 0. 0. 0. 0. 0. 0. 0. 0. 0. 0. 0. 0.
      0. 0. 0. 0. 0. 0. 0. 0. 0. 0. 0. 0. 0. 0. 0. 0. 0. 0. 0. 0. 0. 0.
      0. 0. 0. 0. 0. 0. 0. 0. 0. 0. 0. 0. 0. 0. 0. 0. 0. 0. 0. 0. 0. 0.
      0. 0. 0. 0. 0. 0. 0. 0. 0. 0. 0. 0. 0. 0. 0. 0. 0. 0. 0. 0. 0. 0.
      0. 0. 0. 0. 0. 0. 0. 0. 0. 0. 0. 0. 0. 0. 0. 0. 0. 0. 0. 0. 0. 0.
      0. 0. 0. 0. 0. 0. 0. 0. 0. 0. 0. 0. 0. 0. 0. 0. 0. 0. 0. 0. 0. 0.
      0. 0. 0. 0. 0. 0. 0. 0. 0. 0. 4.14157696e-02 4.14157696e-02 0. 0.
      8.28315392e-02 4.14157696e-02 0. 0. 0. 0. 0. 0. 1.65663078e-01
      4.14157696e-02 0. 0. 0. 0. 0. 0. 0. 0. 0. 0. 0. 0. 1.65663078e-01
      0. 4.55573469e-01 2.89910376e-01 4.14157696e-02 0. 0. 0. 0. 0. 0.
      0. 0. 0. 0. 0. 0. 0. 0. 0. 0. 4.14157696e-02 0. 0. 0. 0. 0. 0.
      8.28315392e-02 0. 0. 0. 3.31326157e-01 0. 6.21236563e-01
      8.28315392e-02 4.14157696e-02 0. 0. 0. 0. 0. 0. 0. 0. 0. 0. 0. 0.
      0. 0. 0. 0. 0. 0. 0. 0. 0. 0. 0. 0. 0. 0. 0. 0. 0. 0. 0. 0. 0. 0.
      0. 0. 0. 0. 0. 0. 0. 0. 0. 0. 0. 0. 0. 0. 0. 0. 0. 0. 0. 0. 0. 0.
      0. 0. 0. 2.07078844e-01 0. 8.28315392e-02 1.24247313e-01 0. 0. 0.
      4.14157696e-02 0. 0. 0. 0. 0. 0. 0. 0. 0. 0. 0. 8.28315392e-02 0.
      0. 0. 0. 0. 0. 0. 0. 0. 0. 0. 0. 0. 0. 0. 8.28315392e-02 0. 0. 0.
      0. 0. 0. 0. 0. 0. 0. 0. 0. 0. 0. 0. 0. 0. 0. 0. 0. 0. 0. 0. 0. 0.
      0. 0. 0. 0. 0. 0. 0. 0. 0. 0. 0. 0. 0. 0. 0. 0. 0. 0. 0. 0. 0. 0.
      8.28315392e-02 4.14157696e-02 0. 0. 0. 0. 0. 4.14157696e-02 0. 0.
      0. 0. 0. 0. 0. 0. 0. 0. 0. 0. 0. 0. 0. 0. 8.28315392e-02 0. 0. 0.
      0. 0. 0. 0. 4.14157696e-02 0. 0. 0. 0. 0. 0. 0. 0. 4.14157696e-02
      0. 0. 0. 0. 8.28315392e-02 4.14157696e-02 1.24247313e-01</_>
    <_>
      4.20763612e-01 5.33674300e-01 7.33586907e-01 0. 0. 0. 0. 0. 0. 0.
      0. 1.44897113e-02 0. 0. 0. 0. 0. 0. 0. 0. 0. 0. 0. 0. 0. 0. 0. 0.
      0. 0. 0. 0. 0. 0. 0. 0. 0. 0. 0. 0. 0. 0. 0. 0. 0. 0. 0. 0.
      4.34691347e-02 0. 0. 0. 0. 5.79588450e-02 1.01427980e-01 0. 0. 0.
      0. 0. 0. 0. 0. 0. 0. 0. 0. 0. 0. 0. 0. 0. 0. 0. 0. 0. 0. 0. 0. 0.
      0. 0. 0. 0. 0. 0. 0. 0. 0. 0. 0. 7.24485517e-02 0. 0. 0. 0.
      4.34691347e-02 9.85300362e-01 2.89794225e-02 0. 0. 0. 0. 0. 0. 0.
      0. 0. 0. 0. 0. 0. 0. 0. 0. 0. 0. 0. 0. 0. 0. 0. 0. 0. 0. 0. 0. 0.
      0. 0. 0. 0. 0. 0. 7.24485517e-02 0. 0. 0. 0. 0. 1.44897113e-02 0.
      0. 0. 0. 0. 0. 0. 0. 0. 0. 0. 0. 0. 0. 0. 0. 0. 0. 0. 0. 0. 0. 0.
      0. 0. 0. 0. 0. 0. 0. 0. 0. 0. 0. 0. 0. 0. 0. 0. 0. 0. 0. 0. 0. 0.
      0. 0. 0. 0. 0. 0. 0. 0. 0. 0. 0. 0. 0. 0. 0. 0. 0. 0. 0. 0. 0. 0.
      0. 0. 0. 0. 0. 0. 0. 0. 0. 0. 0. 4.49466594e-02 0. 1.79786637e-01
      4.49466594e-02 0. 0. 0. 0. 0. 0. 0. 0. 0. 0. 0. 0. 0. 0. 0. 0. 0.
      0. 0. 0. 0. 0. 0. 0. 0. 0. 3.59573275e-01 8.98933187e-02
      1.79786637e-01 0. 8.98933187e-02 0. 4.49466594e-02 0. 0. 0. 0. 0.
      0. 0. 4.49466594e-02 0. 0. 0. 0. 0. 0. 0. 0. 0. 0. 0. 0. 0. 0. 0.
      8.98933187e-02 4.49466594e-02 4.49466594e-02 0. 4.49466594e-02 0.
      0. 0. 4.49466594e-02 0. 0. 0. 0. 0. 0. 0. 0. 0. 0. 0. 0. 0. 0. 0.
      0. 0. 0. 0. 0. 0. 0. 0. 0. 0. 0. 0. 4.49466594e-02 0. 0. 0. 0. 0.
      0. 0. 0. 0. 0. 0. 0. 0. 0. 0. 0. 0. 0. 0. 0. 0. 0. 0. 0. 0. 0. 0.
      4.49466594e-02 0. 0. 0. 4.49466594e-02 0. 0. 1.79786637e-01 0. 0.
      0. 4.49466594e-02 0. 4.49466594e-02 0. 4.49466594e-02 0. 0. 0.
      4.04519945e-01 0. 0. 0. 0. 0. 0. 0. 0. 0. 0. 0. 0. 0. 0. 0. 0. 0.
      0. 0. 8.98933187e-02 0. 0. 0. 0. 0. 0. 0. 0. 0. 0. 0. 0. 0. 0. 0.
      0. 0. 0. 0. 0. 0. 0. 0. 0. 0. 4.49466594e-02 0. 4.49466594e-02 0.
      8.98933187e-02 4.49466594e-02 5.84306598e-01 0. 0. 0.
      8.98933187e-02 0. 0. 0. 0. 0. 0. 0. 2.69679964e-01 0. 0. 0. 0. 0.
      0. 0. 0. 0. 0. 0. 0. 0. 0. 0. 0. 4.49466594e-02 1.79786637e-01 0.
      1.79786637e-01 4.49466594e-02 4.49466594e-02 0. 0. 0. 0. 0. 0. 0.
      0. 0. 0. 0. 8.98933187e-02 0. 4.49466594e-02 0. 0. 0. 0. 0.
      4.49466594e-02 4.49466594e-02 0. 4.49466594e-02 8.98933187e-02 0.
      1.34839982e-01</_>
    <_>
      2.18905717e-01 5.75436890e-01 7.88005531e-01 9.59757566e-01
      2.71629512e-01 0. 0. 0. 0. 0. 6.33802116e-02 1.81086324e-02 0. 0.
      0. 0. 0. 0. 0. 0. 0. 0. 0. 0. 0. 0. 0. 0. 0. 0. 0. 0. 0. 0. 0. 0.
      0. 0. 0. 0. 0. 0. 0. 0. 0. 0. 2.71629486e-02 0. 0. 0. 0. 0. 0. 0.
      0. 0. 0. 0. 0. 0. 0. 0. 0. 0. 0. 0. 0. 0. 0. 0. 0. 0. 0. 0. 0. 0.
      0. 0. 0. 0. 0. 0. 0. 0. 0. 0. 0. 0. 0. 0. 0. 0. 0. 0. 0. 0. 0. 0.
      0. 0. 0. 0. 0. 0. 0. 0. 0. 0. 0. 0. 0. 0. 0. 0. 0. 0. 0. 0. 0. 0.
      0. 0. 0. 0. 0. 0. 0. 0. 0. 0. 0. 0. 0. 0. 0. 0. 0. 0. 0. 0. 0. 0.
      0. 0. 0. 0. 0. 0. 0. 0. 0. 0. 0. 0. 0. 0. 0. 0. 0. 0. 0. 0. 0. 0.
      0. 0. 0. 0. 0. 0. 0. 0. 0. 0. 0. 0. 0. 0. 0. 0. 0. 0. 0. 0. 0. 0.
      0. 0. 0. 0. 0. 0. 0. 0. 0. 0. 0. 0. 0. 0. 0. 0. 0. 0. 0. 0. 0. 0.
      0. 0. 0. 0. 0. 0. 0. 0. 0. 0. 0. 9.21442658e-02 3.07147559e-02
      3.07147559e-02 6.14295118e-02 0. 0. 0. 3.07147559e-02
      9.21442658e-02 0. 3.07147559e-02 0. 3.07147559e-02 0.
      6.14295118e-02 0. 0. 0. 0. 0. 0. 0. 0. 0. 0. 0. 0. 0.
      3.07147559e-02 3.07147559e-02 3.07147559e-02 0. 0. 0. 0. 0. 0. 0.
      0. 0. 0. 0. 0. 0. 0. 0. 0. 0. 0. 0. 0. 0. 0. 0. 0. 0.
      3.07147559e-02 0. 0. 0. 3.07147559e-02 0. 0. 0. 0. 0. 0. 0. 0. 0.
      0. 0. 0. 0. 0. 0. 0. 0. 0. 3.07147559e-02 0. 0. 0. 0. 0. 0. 0. 0.
      0. 0. 0. 0. 0. 0. 0. 0. 0. 0. 0. 0. 0. 0. 3.07147559e-02 0. 0. 0.
      0. 0. 0. 0. 0. 0. 3.07147559e-02 3.07147559e-02 0. 0. 0. 0. 0. 0.
      9.21442658e-02 0. 0. 0. 3.07147559e-02 3.07147559e-02 0.
      3.07147559e-02 1.84288532e-01 0. 0. 6.14295118e-02 0.
      3.07147559e-02 0. 3.07147559e-02 6.14295118e-02 0. 0. 0.
      3.07147559e-02 0. 3.07147559e-02 9.21442658e-02 0. 0. 0. 0. 0. 0.
      0. 0. 0. 3.07147559e-02 0. 0. 0. 0. 0. 3.07147559e-02 0. 0. 0.
      3.07147559e-02 0. 0. 0. 0. 0. 0. 0. 0. 0. 0. 0. 0. 0. 0. 0. 0. 0.
      0. 0. 0. 0. 3.07147559e-02 0. 3.07147559e-02 3.07147559e-02 0. 0.
      0. 6.14295118e-02 6.14295118e-02 0. 1.84288532e-01 0. 0. 0.
      6.14295118e-02 0. 0. 0. 3.07147559e-02 0. 6.14295118e-02
      3.07147559e-02 6.14295118e-02 0. 0. 0. 0. 0. 0. 0. 3.07147559e-02
      3.07147559e-02 0. 0. 0. 0. 0. 0. 0. 3.07147559e-02 0. 0.
      2.15003297e-01 0. 3.07147559e-02 0. 9.21442658e-02 0.
      3.07147559e-02 0. 0. 3.07147559e-02 0. 0. 6.14295118e-02
      1.53573781e-01 2.45718047e-01 3.07147559e-02 3.07147559e-02
      3.07147559e-02 0. 0. 1.84288532e-01 2.15003297e-01 3.07147559e-02
      0. 1.22859024e-01 0. 0. 0. 7.67868876e-01</_>
    <_>
      5.12936294e-01 5.64893305e-01 6.46368325e-01 0. 0. 0. 0. 0. 0. 0.
      1.05153985e-01 0. 0. 0. 0. 0. 0. 0. 0. 0. 0. 0. 0. 0. 0. 0. 0. 0.
      0. 0. 0. 0. 0. 0. 0. 0. 0. 0. 0. 0. 0. 0. 0. 0. 0. 0.
      1.84019476e-01 7.88654909e-02 0. 0. 0. 0. 0. 1.31442472e-01
      5.25769927e-02 0. 0. 0. 0. 0. 0. 0. 0. 0. 0. 0. 0. 0. 0. 0. 0. 0.
      0. 0. 0. 0. 0. 0. 0. 0. 0. 0. 0. 0. 0. 0. 0. 0. 0. 6.30923927e-01
      4.46904421e-01 0. 0. 0. 0. 0. 2.10307971e-01 2.62884963e-02 0. 0.
      0. 0. 0. 0. 0. 0. 0. 0. 0. 0. 0. 0. 0. 0. 0. 0. 0. 0. 0. 0. 0. 0.
      0. 0. 0. 0. 0. 0. 0. 0. 0. 0. 3.94327462e-01 3.41750443e-01
      5.25769927e-02 0. 0. 0. 0. 1.05153985e-01 0. 0. 0. 0. 0. 0. 0. 0.
      0. 0. 0. 0. 0. 0. 0. 0. 0. 0. 0. 0. 0. 0. 0. 0. 0. 0. 0. 0. 0. 0.
      0. 0. 0. 0. 0. 0. 0. 0. 0. 0. 0. 0. 0. 0. 0. 0. 0. 0. 0. 0. 0. 0.
      0. 0. 0. 0. 0. 0. 0. 0. 0. 0. 0. 0. 0. 0. 0. 0. 0. 0. 0. 0. 0. 0.
      0. 0. 0. 0. 0. 1.90476194e-01 4.76190485e-02 0. 0. 0. 0. 0.
      9.52380970e-02 4.76190485e-02 0. 4.76190485e-02 0. 0. 0.
      4.76190485e-02 2.85714298e-01 4.76190485e-02 4.76190485e-02 0. 0.
      0. 0. 0. 0. 0. 0. 0. 0. 0. 0. 0. 4.76190485e-02 0. 0. 0. 0. 0. 0.
      0. 0. 4.76190485e-02 0. 0. 0. 0. 0. 0. 0. 0. 0. 0. 0. 0. 0. 0.
      4.76190485e-02 0. 0. 0. 0. 0. 0. 0. 0. 1.42857149e-01
      4.76190485e-02 0. 0. 0. 0. 0. 0. 0. 0. 0. 0. 4.76190485e-02 0. 0.
      0. 0. 0. 0. 0. 0. 0. 0. 0. 0. 0. 0. 0. 0. 0. 0. 0. 0. 0. 0. 0. 0.
      0. 0. 0. 4.76190485e-02 0. 0. 0. 0. 0. 0. 0. 0. 0. 0. 0. 0. 0. 0.
      0. 0. 0. 0. 0. 0. 0. 0. 4.76190485e-02 4.28571433e-01 0. 0.
      9.52380970e-02 0. 4.76190485e-02 0. 3.33333343e-01 4.76190485e-02
      0. 0. 0. 0. 0. 0. 0. 4.76190485e-02 0. 0. 0. 0. 0. 0. 0. 0. 0. 0.
      0. 0. 0. 0. 0. 0. 0. 0. 0. 0. 0. 0. 0. 0. 0. 0. 4.76190485e-02 0.
      0. 0. 0. 9.52380970e-02 0. 0. 0. 0. 0. 0. 0. 0. 0. 0. 0. 0. 0. 0.
      0. 9.52380970e-02 4.76190485e-02 0. 9.52380970e-02 0. 0. 0.
      1.42857149e-01 0. 0. 0. 0. 0. 0. 0. 0. 0. 0. 0. 0. 0. 0. 0.
      4.76190485e-02 0. 0. 0. 0. 0. 0. 0. 0. 1.42857149e-01
      2.38095239e-01 0. 9.52380970e-02 0. 0. 0. 0. 0. 4.76190485e-02 0.
      0. 0. 0. 0. 4.76190485e-02 4.28571433e-01 2.38095239e-01 0.
      4.76190485e-02 4.76190485e-02 0. 9.52380970e-02 2.38095239e-01
      9.52380970e-02 0. 0. 9.52380970e-02 0. 0. 4.76190485e-02
      1.90476194e-01</_>
    <_>
      5.79720378e-01 4.47513700e-01 6.80922806e-01 9.82787490e-01
      3.33148316e-02 0. 0. 0. 0. 0. 1.66574158e-02 0. 0. 0. 0. 0. 0. 0.
      0. 0. 0. 0. 0. 0. 0. 0. 0. 0. 0. 0. 0. 0. 0. 0. 0. 0. 0. 0. 0.
      1.66574158e-02 9.99444947e-02 0. 0. 0. 0. 0. 1.49916738e-01 0. 0.
      0. 0. 0. 0. 0. 0. 0. 0. 0. 0. 0. 0. 0. 0. 0. 0. 0. 0. 0. 0. 0. 0.
      0. 0. 0. 0. 0. 0. 0. 0. 0. 0. 0. 0. 0. 0. 0. 0. 0. 0. 0. 0. 0. 0.
      0. 0. 0. 0. 0. 0. 0. 0. 0. 0. 0. 0. 0. 0. 0. 0. 0. 0. 0. 0. 0. 0.
      0. 0. 0. 0. 0. 0. 0. 0. 0. 0. 0. 0. 0. 0. 0. 0. 0. 0. 0. 0. 0. 0.
      0. 0. 0. 0. 0. 0. 0. 0. 0. 0. 0. 0. 0. 0. 0. 0. 0. 0. 0. 0. 0. 0.
      0. 0. 0. 0. 0. 0. 0. 0. 0. 0. 0. 0. 0. 0. 0. 0. 0. 0. 0. 0. 0. 0.
      0. 0. 0. 0. 0. 0. 0. 0. 0. 0. 0. 0. 0. 0. 0. 0. 0. 0. 0. 0. 0. 0.
      0. 0. 0. 0. 0. 0. 0. 0. 0. 0. 0. 0. 0. 0. 0. 0. 7.25476220e-02 0.
      0. 7.25476220e-02 0. 0. 0. 0. 0. 0. 0. 0. 0. 0. 0. 0. 0. 0. 0. 0.
      0. 0. 0. 0. 0. 0. 0. 0. 0. 0. 0. 0. 0. 0. 0. 0. 0. 0.
      7.25476220e-02 0. 0. 0. 7.25476220e-02 0. 0. 0. 7.25476220e-02 0.
      7.25476220e-02 0. 0. 0. 0. 0. 7.25476220e-02 0. 1.45095244e-01 0.
      0. 0. 7.25476220e-02 0. 7.25476220e-02 2.17642874e-01
      7.25476220e-02 0. 0. 0. 0. 0. 0. 0. 0. 0. 0. 0. 0. 0. 0. 0. 0. 0.
      0. 0. 0. 0. 0. 0. 0. 0. 0. 0. 0. 0. 0. 7.25476220e-02
      7.25476220e-02 7.25476220e-02 0. 0. 0. 0. 0. 0. 7.25476220e-02
      7.25476220e-02 0. 0. 0. 0. 0. 0. 7.25476220e-02 0. 0.
      7.25476220e-02 0. 0. 0. 0. 3.62738103e-01 0. 0. 0. 1.45095244e-01
      0. 7.25476220e-02 7.25476220e-02 7.25476220e-02 7.25476220e-02 0.
      1.45095244e-01 0. 0. 0. 2.90190488e-01 0. 0. 0. 7.25476220e-02 0.
      0. 0. 0. 0. 0. 0. 0. 0. 0. 0. 7.25476220e-02 0. 0. 0. 0. 0. 0. 0.
      7.25476220e-02 0. 0. 0. 0. 0. 0. 0. 0. 0. 0. 0. 0. 0. 0. 0. 0. 0.
      0. 0. 0. 0. 0. 0. 0. 0. 0. 0. 0. 0. 0. 7.25476220e-02
      1.45095244e-01 0. 0. 0. 1.45095244e-01 0. 0. 0. 7.25476220e-02 0.
      0. 0. 0. 0. 0. 0. 1.45095244e-01 0. 0. 0. 0. 0. 0. 0. 0. 0. 0. 0.
      0. 0. 0. 0. 2.17642874e-01 7.25476220e-02 1.45095244e-01 0. 0.
      7.25476220e-02 0. 0. 1.45095244e-01 0. 0. 0. 0. 0. 0. 0. 0.
      7.25476220e-02 7.25476220e-02 0. 7.25476220e-02 0. 0. 0.
      1.45095244e-01 7.25476220e-02 2.17642874e-01 0. 7.25476220e-02 0.
      1.45095244e-01 0. 5.07833362e-01</_>
    <_>
      4.41660136e-01 4.14764166e-01 7.95554519e-01 9.96123791e-01
      8.66194591e-02 0. 0. 0. 0. 0. 0. 0. 0. 0. 0. 0. 0. 0. 0. 0. 0. 0.
      0. 0. 0. 0. 0. 0. 0. 0. 0. 0. 0. 0. 0. 0. 0. 0. 0. 0.
      1.08274324e-02 0. 0. 0. 0. 0. 1.08274324e-02 0. 0. 0. 0. 0. 0. 0.
      0. 0. 0. 0. 0. 0. 0. 0. 0. 0. 0. 0. 0. 0. 0. 0. 0. 0. 0. 0. 0. 0.
      0. 0. 0. 0. 0. 0. 0. 0. 0. 0. 0. 0. 0. 0. 0. 0. 0. 0. 0. 0. 0. 0.
      0. 0. 0. 0. 0. 0. 0. 0. 0. 0. 0. 0. 0. 0. 0. 0. 0. 0. 0. 0. 0. 0.
      0. 0. 0. 0. 0. 0. 0. 0. 0. 0. 0. 0. 0. 0. 0. 0. 0. 0. 0. 0. 0. 0.
      0. 0. 0. 0. 0. 0. 0. 0. 0. 0. 0. 0. 0. 0. 0. 0. 0. 0. 0. 0. 0. 0.
      0. 0. 0. 0. 0. 0. 0. 0. 0. 0. 0. 0. 0. 0. 0. 0. 0. 0. 0. 0. 0. 0.
      0. 0. 0. 0. 0. 0. 0. 0. 0. 0. 0. 0. 0. 0. 0. 0. 0. 0. 0. 0. 0. 0.
      0. 0. 0. 0. 0. 0. 0. 0. 0. 0. 0. 0. 0. 0. 3.38255055e-02 0. 0. 0.
      6.76510110e-02 0. 0. 0. 0. 0. 0. 6.76510110e-02 2.36778542e-01 0.
      0. 0. 3.38255055e-02 0. 0. 0. 0. 0. 0. 0. 0. 3.38255055e-02 0.
      3.38255055e-02 6.76510110e-02 0. 0. 0. 3.38255055e-02 0. 0. 0. 0.
      0. 0. 0. 0. 0. 0. 0. 0. 0. 0. 3.38255055e-02 0. 0. 0. 0. 0.
      3.38255055e-02 0. 0. 0. 0. 0. 6.76510110e-02 3.38255055e-02
      3.38255055e-02 0. 0. 0. 0. 0. 0. 0. 0. 0. 0. 0. 0. 0. 0. 0. 0. 0.
      0. 0. 0. 0. 0. 0. 0. 0. 0. 0. 0. 0. 0. 0. 0. 0. 0. 0. 0. 0. 0. 0.
      3.38255055e-02 0. 0. 0. 0. 0. 0. 0. 6.76510110e-02 0. 0. 0. 0. 0.
      0. 0. 3.38255048e-01 0. 3.38255055e-02 0. 1.01476520e-01 0. 0.
      3.38255055e-02 0. 0. 0. 3.38255055e-02 0. 0. 0. 1.35302022e-01 0.
      0. 0. 0. 0. 0. 0. 3.72080564e-01 0. 0. 0. 0. 0. 0. 0. 0. 0. 0. 0.
      0. 0. 0. 0. 1.35302022e-01 0. 0. 0. 0. 0. 0. 0. 3.38255055e-02 0.
      0. 0. 0. 0. 0. 0. 0. 0. 0. 0. 0. 0. 0. 0. 0. 0. 0. 0. 0. 0. 0. 0.
      1.01476520e-01 0. 0. 0. 6.76510110e-02 0. 0. 0. 3.38255055e-02 0.
      0. 0. 0. 0. 0. 0. 6.76510110e-02 0. 0. 0. 0. 0. 0. 0. 0. 0. 0. 0.
      0. 0. 0. 0. 1.01476520e-01 3.38255055e-02 0. 0. 0. 0. 0. 0. 0. 0.
      0. 0. 0. 0. 0. 0. 1.35302022e-01 0. 0. 0. 0. 3.38255055e-02 0. 0.
      0. 0. 0. 0. 0. 0. 0. 0. 7.44161129e-01</_>
    <_>
      3.46714467e-01 3.93450230e-01 8.51461112e-01 8.72558117e-01
      4.84754533e-01 0. 0. 0. 0. 0. 0. 1.61584839e-02 0. 0. 0. 0. 0. 0.
      0. 0. 0. 0. 0. 0. 0. 0. 0. 0. 0. 0. 0. 0. 0. 0. 0. 0. 0. 0. 0. 0.
      0. 0. 0. 0. 0. 0. 3.23169678e-02 4.84754518e-02 0. 0. 0. 0. 0. 0.
      0. 0. 0. 0. 0. 0. 0. 0. 0. 0. 0. 0. 0. 0. 0. 0. 0. 0. 0. 0. 0. 0.
      0. 0. 0. 0. 0. 0. 0. 0. 0. 0. 0. 0. 0. 0. 0. 0. 0. 0. 0. 0. 0. 0.
      0. 0. 0. 0. 0. 0. 0. 0. 0. 0. 0. 0. 0. 0. 0. 0. 0. 0. 0. 0. 0. 0.
      0. 0. 0. 0. 0. 0. 0. 0. 0. 0. 0. 0. 0. 0. 0. 0. 0. 0. 0. 0. 0. 0.
      0. 0. 0. 0. 0. 0. 0. 0. 0. 0. 0. 0. 0. 0. 0. 0. 0. 0. 0. 0. 0. 0.
      0. 0. 0. 0. 0. 0. 0. 0. 0. 0. 0. 0. 0. 0. 0. 0. 0. 0. 0. 0. 0. 0.
      0. 0. 0. 0. 0. 0. 0. 0. 0. 0. 0. 0. 0. 0. 0. 0. 0. 0. 0. 0. 0. 0.
      0. 0. 0. 0. 0. 0. 0. 0. 0. 0. 0. 0. 0. 0. 0. 5.05076274e-02 0. 0.
      5.05076274e-02 0. 0. 0. 0. 5.05076274e-02 0. 3.03045750e-01
      3.53553385e-01 0. 0. 0. 0. 0. 0. 0. 0. 0. 0. 0. 0. 0. 0. 0.
      1.51522875e-01 0. 0. 0. 0. 0. 0. 0. 0. 0. 0. 0. 0. 0. 0. 0. 0. 0.
      0. 0. 0. 0. 0. 0. 0. 5.05076274e-02 0. 0. 0. 0. 0. 5.05076274e-02
      1.51522875e-01 0. 0. 0. 0. 0. 0. 0. 0. 0. 0. 0. 0. 0. 0. 0. 0. 0.
      0. 0. 0. 0. 0. 0. 0. 0. 0. 0. 0. 0. 0. 1.01015255e-01 0. 0. 0. 0.
      0. 0. 0. 0. 0. 0. 0. 0. 0. 5.05076274e-02 0. 5.05076274e-02 0.
      5.05076274e-02 0. 0. 0. 5.05076274e-02 0. 0. 0. 1.51522875e-01 0.
      0. 0. 5.05076274e-02 0. 5.05076274e-02 5.05076274e-02
      1.01015255e-01 0. 0. 1.01015255e-01 0. 0. 0. 5.05076274e-02 0. 0.
      0. 0. 0. 5.05076274e-02 0. 1.01015255e-01 0. 0. 0. 0. 0. 0. 0. 0.
      0. 0. 0. 0. 0. 0. 0. 0. 0. 0. 0. 0. 0. 0. 0. 0. 0. 0. 0. 0. 0. 0.
      0. 0. 0. 0. 0. 0. 0. 0. 0. 0. 5.05076274e-02 0. 0. 0. 0. 0. 0. 0.
      0. 5.05076274e-02 0. 0. 0. 0. 0. 5.05076274e-02 0. 0. 0.
      5.05076274e-02 0. 0. 0. 1.01015255e-01 0. 0. 0. 0. 0. 0. 0. 0. 0.
      0. 0. 0. 0. 0. 0. 0. 1.01015255e-01 3.03045750e-01 0. 0. 0. 0.
      5.05076274e-02 5.05076274e-02 0. 0. 0. 0. 0. 0. 0. 5.05076274e-02
      4.04061019e-01 5.05076274e-02 0. 5.05076274e-02 0. 0. 0.
      1.01015255e-01 5.05076274e-02 0. 0. 5.05076274e-02 5.05076274e-02
      5.05076274e-02 1.01015255e-01 5.55583894e-01</_>
    <_>
      4.10612255e-01 4.97518927e-01 7.64115512e-01 0. 0. 0. 0. 0. 0. 0.
      7.14893863e-02 1.90638363e-01 0. 0. 0. 0. 0. 0. 0. 0. 0. 0. 0. 0.
      0. 0. 0. 0. 0. 0. 0. 0. 0. 0. 0. 0. 0. 0. 0. 0. 0. 0. 0. 0. 0. 0.
      0. 1.90638363e-01 3.57446939e-01 0. 0. 0. 0. 2.38297954e-02
      3.33617121e-01 7.14893863e-02 0. 0. 0. 0. 0. 0. 0. 0. 0. 0. 0. 0.
      0. 0. 0. 0. 0. 0. 0. 0. 0. 0. 0. 0. 0. 0. 0. 0. 0. 0. 0. 0. 0. 0.
      2.38297954e-01 3.81276727e-01 0. 0. 0. 0. 2.38297954e-02
      6.43404484e-01 2.38297954e-02 0. 0. 0. 0. 0. 0. 0. 0. 0. 0. 0. 0.
      0. 0. 0. 0. 0. 0. 0. 0. 0. 0. 0. 0. 0. 0. 0. 0. 0. 0. 0. 0. 0. 0.
      1.19148977e-01 2.14468166e-01 0. 0. 0. 0. 0. 0. 0. 0. 0. 0. 0. 0.
      0. 0. 0. 0. 0. 0. 0. 0. 0. 0. 0. 0. 0. 0. 0. 0. 0. 0. 0. 0. 0. 0.
      0. 0. 0. 0. 0. 0. 0. 0. 0. 0. 0. 0. 0. 0. 0. 0. 0. 0. 0. 0. 0. 0.
      0. 0. 0. 0. 0. 0. 0. 0. 0. 0. 0. 0. 0. 0. 0. 0. 0. 0. 0. 0. 0. 0.
      0. 0. 0. 0. 0. 0. 7.47957602e-02 0. 2.24387288e-01 0. 0. 0. 0. 0.
      0. 0. 0. 0. 0. 0. 3.73978801e-02 0. 0. 0. 0. 0. 0. 0. 0. 0.
      3.73978801e-02 0. 0. 0. 7.47957602e-02 0. 3.36580932e-01
      3.73978801e-02 5.60968220e-01 0. 7.47957602e-02 0. 0. 0. 0. 0. 0.
      0. 0. 0. 0. 0. 0. 0. 7.47957602e-02 0. 0. 0. 0. 0. 0. 0.
      1.49591520e-01 0. 0. 0. 1.49591520e-01 0. 3.73978801e-02 0. 0. 0.
      0. 0. 0. 0. 0. 0. 3.73978801e-02 0. 0. 0. 0. 0. 0. 0. 0. 0. 0. 0.
      0. 0. 0. 0. 0. 0. 0. 0. 3.73978801e-02 0. 0. 0. 1.12193644e-01 0.
      0. 0. 0. 0. 0. 0. 0. 0. 0. 0. 0. 0. 0. 0. 1.12193644e-01 0. 0. 0.
      0. 0. 3.73978801e-02 0. 1.12193644e-01 0. 0. 0. 7.47957602e-02 0.
      0. 0. 3.73978801e-02 0. 0. 0. 0. 0. 0. 0. 0. 0. 0. 0. 0. 0. 0. 0.
      0. 0. 0. 0. 0. 0. 0. 0. 0. 0. 0. 0. 0. 0. 0. 0. 0. 0. 0. 0. 0. 0.
      0. 0. 3.73978801e-02 0. 0. 0. 0. 0. 0. 0. 0. 0. 0. 0. 0. 0. 0. 0.
      0. 0. 0. 0. 0. 0. 0. 0. 3.73978801e-02 3.73978801e-02 0.
      3.73978801e-02 0. 0. 0. 0. 0. 0. 0. 0. 0. 0. 0. 0. 0. 0. 0. 0. 0.
      0. 0. 0. 3.73978801e-02 0. 0. 0. 0. 0. 3.73978801e-02 0.
      1.12193644e-01 2.99183041e-01 0. 1.86989397e-01 0. 0. 0.
      3.73978801e-02 0. 0. 0. 0. 0. 0. 0. 3.73978801e-02 1.49591520e-01
      1.86989397e-01 0. 3.73978801e-02 0. 0. 0. 0. 3.73978801e-02
      1.49591520e-01 0. 0. 7.47957602e-02 3.36580932e-01 0.
      2.24387288e-01</_>
    <_>
      4.14021909e-01 5.20305097e-01 7.46906042e-01 9.62770522e-01
      2.07178459e-01 0. 0. 0. 0. 0. 9.74957496e-02 0. 0. 0. 0. 0. 0. 0.
      0. 0. 0. 0. 0. 0. 0. 0. 0. 0. 0. 0. 0. 0. 0. 0. 0. 0. 0. 0. 0. 0.
      0. 0. 0. 0. 0. 0. 1.34056658e-01 4.87478748e-02 0. 0. 0. 0. 0.
      1.21869687e-02 0. 0. 0. 0. 0. 0. 0. 0. 0. 0. 0. 0. 0. 0. 0. 0. 0.
      0. 0. 0. 0. 0. 0. 0. 0. 0. 0. 0. 0. 0. 0. 0. 0. 0. 0. 0.
      1.21869687e-02 0. 0. 0. 0. 0. 0. 0. 0. 0. 0. 0. 0. 0. 0. 0. 0. 0.
      0. 0. 0. 0. 0. 0. 0. 0. 0. 0. 0. 0. 0. 0. 0. 0. 0. 0. 0. 0. 0. 0.
      0. 0. 0. 0. 0. 0. 0. 0. 0. 0. 0. 0. 0. 0. 0. 0. 0. 0. 0. 0. 0. 0.
      0. 0. 0. 0. 0. 0. 0. 0. 0. 0. 0. 0. 0. 0. 0. 0. 0. 0. 0. 0. 0. 0.
      0. 0. 0. 0. 0. 0. 0. 0. 0. 0. 0. 0. 0. 0. 0. 0. 0. 0. 0. 0. 0. 0.
      0. 0. 0. 0. 0. 0. 0. 0. 0. 0. 0. 0. 0. 0. 0. 0. 0. 0. 0. 0. 0. 0.
      0. 1.98272645e-01 0. 0. 0. 0. 0. 1.98272645e-01 4.95681614e-02
      4.95681614e-02 0. 0. 4.95681614e-02 0. 0. 0. 4.95681614e-02
      4.95681614e-02 0. 0. 0. 0. 0. 0. 0. 0. 0. 0. 0. 0. 0. 0.
      4.95681614e-02 4.95681614e-02 0. 0. 4.95681614e-02 0. 0. 0.
      4.95681614e-02 0. 4.95681614e-02 0. 0. 0. 0. 0. 0. 4.95681614e-02
      0. 0. 0. 0. 0. 0. 0. 0. 0. 0. 0. 4.95681614e-02 0. 0.
      1.48704484e-01 4.95681614e-02 0. 0. 0. 0. 0. 4.95681614e-02 0. 0.
      4.95681614e-02 0. 0. 0. 0. 0. 0. 0. 0. 0. 0. 0. 0. 0. 0. 0. 0. 0.
      0. 0. 0. 0. 0. 4.95681614e-02 0. 4.95681614e-02 4.95681614e-02 0.
      0. 0. 4.95681614e-02 4.95681614e-02 4.95681614e-02 0. 0.
      4.95681614e-02 0. 0. 0. 0. 0. 4.95681614e-02 0. 0. 0. 0. 0. 0. 0.
      0. 0. 9.91363227e-02 0. 0. 4.95681614e-02 1.98272645e-01
      2.97408968e-01 9.91363227e-02 9.91363227e-02 0. 0. 0.
      1.98272645e-01 9.91363227e-02 0. 0. 0. 0. 0. 0. 4.95681614e-02 0.
      4.95681614e-02 0. 4.95681614e-02 0. 0. 0. 0. 0. 0. 0.
      9.91363227e-02 0. 0. 0. 4.95681614e-02 0. 9.91363227e-02 0. 0. 0.
      0. 0. 0. 0. 0. 0. 0. 0. 0. 0. 0. 0. 0. 0. 0. 0. 0. 0.
      4.95681614e-02 0. 0. 0. 0. 0. 0. 0. 9.91363227e-02 4.95681614e-02
      0. 0. 4.95681614e-02 0. 0. 4.95681614e-02 4.95681614e-02 0. 0. 0.
      0. 0. 0. 0. 9.91363227e-02 0. 0. 0. 0. 0. 0. 0. 0. 0. 0. 0.
      4.95681614e-02 0. 0. 0. 1.98272645e-01 9.91363227e-02 0. 0.
      4.95681614e-02 0. 0. 0. 9.91363227e-02 0. 4.95681614e-02 0. 0.
      4.95681614e-02 0. 0. 4.95681614e-02 9.91363227e-02 9.91363227e-02
      4.95681614e-02 4.95681614e-02 4.95681614e-02 0. 0. 2.47840807e-01
      0. 1.48704484e-01 4.95681614e-02 9.91363227e-02 1.48704484e-01
      4.95681614e-02 0. 5.94817936e-01</_>
    <_>
      5.53631365e-01 4.61889952e-01 6.92928553e-01 4.73684222e-01
      8.77192974e-01 0. 0. 0. 0. 0. 0. 0. 0. 0. 0. 0. 0. 0. 0. 0. 0. 0.
      0. 0. 0. 0. 0. 0. 0. 0. 0. 0. 0. 0. 0. 0. 0. 0. 0. 0.
      7.01754391e-02 0. 0. 0. 0. 0. 3.50877196e-02 0. 0. 0. 0. 0. 0. 0.
      0. 0. 0. 0. 0. 0. 0. 0. 0. 0. 0. 0. 0. 0. 0. 0. 0. 0. 0. 0. 0. 0.
      0. 0. 0. 0. 0. 0. 0. 0. 0. 0. 0. 0. 0. 0. 0. 0. 0. 0. 0. 0. 0. 0.
      0. 0. 0. 0. 0. 0. 0. 0. 0. 0. 0. 0. 0. 0. 0. 0. 0. 0. 0. 0. 0. 0.
      0. 0. 0. 0. 0. 0. 0. 0. 0. 0. 0. 0. 0. 0. 0. 0. 0. 0. 0. 0. 0. 0.
      0. 0. 0. 0. 0. 0. 0. 0. 0. 0. 0. 0. 0. 0. 0. 0. 0. 0. 0. 0. 0. 0.
      0. 0. 0. 0. 0. 0. 0. 0. 0. 0. 0. 0. 0. 0. 0. 0. 0. 0. 0. 0. 0. 0.
      0. 0. 0. 0. 0. 0. 0. 0. 0. 0. 0. 0. 0. 0. 0. 0. 0. 0. 0. 0. 0. 0.
      0. 0. 0. 0. 0. 0. 0. 0. 0. 0. 0. 0. 0. 1.22859024e-01 0. 0. 0. 0.
      0. 0. 0. 0. 0. 0. 0. 4.91436094e-01 0. 0. 0. 0. 0. 0. 0. 0. 0. 0.
      0. 6.14295118e-02 0. 6.14295118e-02 0. 2.45718047e-01
      6.14295118e-02 0. 6.14295118e-02 0. 0. 6.14295118e-02 0. 0. 0. 0.
      0. 0. 0. 0. 0. 0. 0. 0. 0. 0. 0. 0. 0. 0. 0. 0. 0. 0.
      6.14295118e-02 1.22859024e-01 0. 3.07147563e-01 1.22859024e-01 0.
      0. 0. 0. 0. 0. 0. 0. 0. 0. 0. 0. 0. 0. 0. 0. 0. 0. 0. 0. 0. 0. 0.
      0. 0. 0. 0. 0. 0. 0. 0. 0. 0. 0. 0. 0. 0. 0. 0. 0. 0. 0. 0. 0. 0.
      0. 0. 0. 0. 0. 0. 0. 0. 0. 0. 0. 6.14295118e-02 0. 0. 0.
      6.14295118e-02 0. 1.84288532e-01 0. 0. 6.14295118e-02 0. 0. 0. 0.
      0. 1.22859024e-01 0. 0. 0. 0. 0. 0. 0. 6.14295118e-02 0. 0. 0. 0.
      0. 0. 0. 0. 0. 0. 0. 0. 0. 0. 0. 1.84288532e-01 6.14295118e-02 0.
      0. 0. 0. 0. 0. 0. 0. 0. 0. 0. 0. 0. 0. 0. 0. 0. 0. 0. 0. 0. 0. 0.
      0. 0. 0. 0. 0. 6.14295118e-02 0. 6.14295118e-02 0. 6.14295118e-02
      0. 1.22859024e-01 0. 0. 0. 1.84288532e-01 0. 0. 0. 0. 0. 0. 0.
      1.22859024e-01 0. 0. 0. 0. 0. 0. 0. 0. 0. 6.14295118e-02 0. 0. 0.
      0. 6.14295118e-02 2.45718047e-01 2.45718047e-01 1.22859024e-01 0.
      6.14295118e-02 0. 0. 0. 1.22859024e-01 0. 0. 0. 0. 0. 0.
      6.14295118e-02 1.22859024e-01 0. 0. 0. 6.14295118e-02 0. 0. 0. 0.
      6.14295118e-02 0. 0. 0. 1.22859024e-01 1.22859024e-01
      6.14295118e-02 3.68577063e-01</_>
    <_>
      1.95137098e-01 5.88421822e-01 7.84653664e-01 9.92094755e-01
      1.19051382e-01 0. 0. 0. 0. 0. 3.96837927e-02 0. 0. 0. 0. 0. 0. 0.
      0. 0. 0. 0. 0. 0. 0. 0. 0. 0. 0. 0. 0. 0. 0. 0. 0. 0. 0. 0. 0. 0.
      0. 0. 0. 0. 0. 0. 0. 0. 0. 0. 0. 0. 0. 0. 0. 0. 0. 0. 0. 0. 0. 0.
      0. 0. 0. 0. 0. 0. 0. 0. 0. 0. 0. 0. 0. 0. 0. 0. 0. 0. 0. 0. 0. 0.
      0. 0. 0. 0. 0. 0. 0. 0. 0. 0. 0. 0. 0. 0. 0. 0. 0. 0. 0. 0. 0. 0.
      0. 0. 0. 0. 0. 0. 0. 0. 0. 0. 0. 0. 0. 0. 0. 0. 0. 0. 0. 0. 0. 0.
      0. 0. 0. 0. 0. 0. 0. 0. 0. 0. 0. 0. 0. 0. 0. 0. 0. 0. 0. 0. 0. 0.
      0. 0. 0. 0. 0. 0. 0. 0. 0. 0. 0. 0. 0. 0. 0. 0. 0. 0. 0. 0. 0. 0.
      0. 0. 0. 0. 0. 0. 0. 0. 0. 0. 0. 0. 0. 0. 0. 0. 0. 0. 0. 0. 0. 0.
      0. 0. 0. 0. 0. 0. 0. 0. 0. 0. 0. 0. 0. 0. 0. 0. 0. 0. 0. 0. 0. 0.
      0. 0. 0. 4.47661467e-02 0. 4.47661467e-02 0. 0. 0. 0. 0. 0. 0. 0.
      0. 0. 0. 1.34298444e-01 8.95322934e-02 0. 0. 0. 0. 0. 0. 0. 0. 0.
      0. 0. 0. 1.34298444e-01 0. 8.95322934e-02 0. 0. 0. 0. 0. 0. 0. 0.
      0. 0. 0. 0. 0. 0. 0. 0. 0. 4.47661467e-02 0. 0. 0. 4.47661467e-02
      0. 0. 0. 2.23830730e-01 4.47661467e-02 0. 0. 4.47661459e-01 0.
      1.79064587e-01 4.47661467e-02 0. 0. 0. 0. 0. 0. 0. 0. 0. 0. 0. 0.
      0. 0. 0. 0. 0. 0. 4.47661467e-02 0. 0. 4.47661467e-02 0. 0.
      4.47661467e-02 0. 0. 0. 0. 0. 4.47661467e-02 0. 0. 0. 0. 0. 0. 0.
      0. 0. 0. 0. 0. 0. 0. 0. 4.47661467e-02 0. 4.47661467e-02 0. 0.
      4.47661467e-02 0. 0. 0. 0. 8.95322934e-02 0. 0. 0. 0. 0.
      2.23830730e-01 4.47661467e-02 0. 0. 0. 4.47661467e-02 0. 0. 0. 0.
      0. 0. 0. 0. 0. 0. 0. 0. 0. 0. 0. 0. 0. 0. 0. 0. 0. 0. 0. 0. 0. 0.
      0. 0. 4.47661467e-02 0. 0. 0. 0. 0. 0. 0. 0. 0. 0. 0. 0. 0. 0. 0.
      0. 0. 0. 0. 0. 0. 0. 0. 0. 0. 0. 4.47661467e-02 0. 0.
      4.47661467e-02 0. 0. 0. 0. 0. 0. 0. 0. 0. 0. 0. 0. 0. 0. 0. 0.
      4.47661467e-02 0. 0. 0. 0. 0. 0. 4.47661467e-02 0. 0. 0. 0. 0. 0.
      0. 0. 4.47661467e-02 0. 0. 0. 0. 0. 0. 0. 4.47661467e-02 0. 0. 0.
      4.47661467e-02 4.47661467e-02 0. 0. 4.47661467e-02 8.95322934e-02
      0. 0. 0. 0. 0. 0. 0. 8.95322934e-02 0. 0. 0. 8.95322934e-02
      4.47661467e-02 1.34298444e-01 7.16258347e-01</_>
    <_>
      3.80298376e-01 6.22994661e-01 6.83557391e-01 9.92536128e-01
      1.19582666e-02 0. 0. 0. 0. 2.39165332e-02 1.07624404e-01 0. 0. 0.
      0. 0. 1.19582666e-02 0. 0. 0. 0. 0. 0. 0. 0. 0. 0. 0. 0. 0. 0. 0.
      0. 0. 0. 0. 0. 0. 0. 0. 0. 0. 0. 0. 0. 0. 1.19582666e-02 0. 0. 0.
      0. 0. 0. 4.78330664e-02 0. 0. 0. 0. 0. 0. 0. 0. 0. 0. 0. 0. 0. 0.
      0. 0. 0. 0. 0. 0. 0. 0. 0. 0. 0. 0. 0. 0. 0. 0. 0. 0. 0. 0. 0. 0.
      0. 0. 0. 0. 0. 0. 0. 0. 0. 0. 0. 0. 0. 0. 0. 0. 0. 0. 0. 0. 0. 0.
      0. 0. 0. 0. 0. 0. 0. 0. 0. 0. 0. 0. 0. 0. 0. 0. 0. 0. 0. 0. 0. 0.
      0. 0. 0. 0. 0. 0. 0. 0. 0. 0. 0. 0. 0. 0. 0. 0. 0. 0. 0. 0. 0. 0.
      0. 0. 0. 0. 0. 0. 0. 0. 0. 0. 0. 0. 0. 0. 0. 0. 0. 0. 0. 0. 0. 0.
      0. 0. 0. 0. 0. 0. 0. 0. 0. 0. 0. 0. 0. 0. 0. 0. 0. 0. 0. 0. 0. 0.
      0. 0. 0. 0. 0. 0. 0. 0. 0. 0. 0. 0. 0. 0. 0. 0. 0. 0. 0.
      1.96827129e-01 4.92067821e-02 4.92067821e-02 1.47620350e-01
      4.92067821e-02 0. 0. 4.92067821e-02 4.92067821e-02 0. 0.
      9.84135643e-02 0. 0. 9.84135643e-02 9.84135643e-02 0. 0. 0. 0. 0.
      0. 0. 0. 0. 0. 0. 0. 0. 0. 0. 0. 1.47620350e-01 0. 4.92067821e-02
      0. 0. 0. 0. 0. 0. 0. 0. 0. 0. 0. 4.92067821e-02 0. 0. 0. 0. 0. 0.
      0. 4.92067821e-02 0. 0. 0. 0. 0. 0. 0. 0. 9.84135643e-02
      4.92067821e-02 0. 0. 0. 4.92067821e-02 0. 0. 4.92067821e-02 0. 0.
      0. 0. 0. 0. 0. 0. 0. 0. 0. 0. 0. 0. 0. 0. 0. 0. 0. 0. 0. 0. 0. 0.
      4.92067821e-02 0. 0. 4.92067821e-02 0. 0. 0. 0. 0. 0. 0. 0. 0. 0.
      0. 0. 0. 0. 0. 0. 0. 0. 0. 0. 0. 0. 0. 0. 4.92067821e-02 0.
      9.84135643e-02 0. 9.84135643e-02 4.92067821e-02 0. 4.92067821e-02
      0. 0. 0. 0. 0. 0. 0. 0. 0. 0. 0. 4.92067821e-02 0. 0. 0.
      4.92067821e-02 0. 0. 0. 4.92067821e-02 0. 0. 0. 0. 0. 0. 0.
      4.92067821e-02 0. 4.92067821e-02 0. 0. 0. 0. 0. 0. 0. 0. 0. 0. 0.
      0. 0. 0. 0. 0. 0. 0. 0. 0. 0. 0. 0. 0. 0. 0. 4.92067821e-02 0. 0.
      9.84135643e-02 4.92067821e-02 0. 0. 2.46033907e-01 4.92067821e-02
      0. 0. 1.47620350e-01 0. 0. 0. 0. 0. 0. 0. 1.47620350e-01 0. 0. 0.
      0. 0. 0. 0. 0. 0. 4.92067821e-02 0. 0. 0. 0. 0. 0. 0.
      2.95240700e-01 0. 4.42861050e-01 0. 4.92067821e-02 0.
      4.92067821e-02 0. 4.92067821e-02 0. 0. 0. 0. 0. 9.84135643e-02 0.
      0. 0. 4.92067821e-02 0. 0. 0. 9.84135643e-02 0. 9.84135643e-02 0.
      0. 9.84135643e-02 4.92067821e-02 4.92067821e-02 5.90481400e-01</_>
    <_>
      3.99950981e-01 5.64177573e-01 7.22317755e-01 0. 0. 0. 0. 0. 0. 0.
      0. 5.48913144e-02 0. 0. 0. 0. 0. 0. 0. 0. 0. 0. 0. 0. 0. 0. 0. 0.
      0. 0. 0. 0. 0. 0. 0. 0. 0. 0. 0. 0. 0. 0. 0. 0. 0. 0. 0. 0.
      3.65942083e-02 0. 0. 0. 0. 0. 3.84239197e-01 0. 0. 0. 0. 0.
      2.01268151e-01 1.82971042e-02 0. 0. 0. 0. 0. 0. 0. 0. 0. 0. 0. 0.
      0. 0. 0. 0. 0. 0. 0. 0. 0. 0. 0. 0. 0. 0. 0. 0. 2.56159455e-01
      9.14855227e-02 0. 0. 0. 0. 1.09782629e-01 8.41666877e-01 0. 0. 0.
      0. 0. 0. 0. 0. 0. 0. 0. 0. 0. 0. 0. 0. 0. 0. 0. 0. 0. 0. 0. 0. 0.
      0. 0. 0. 0. 0. 0. 0. 0. 0. 0. 1.09782629e-01 1.82971042e-02 0. 0.
      0. 0. 0. 1.82971042e-02 0. 0. 0. 0. 0. 0. 0. 0. 0. 0. 0. 0. 0. 0.
      0. 0. 0. 0. 0. 0. 0. 0. 0. 0. 0. 0. 0. 0. 0. 0. 0. 0. 0. 0. 0. 0.
      0. 0. 0. 0. 0. 0. 0. 0. 0. 0. 0. 0. 0. 0. 0. 0. 0. 0. 0. 0. 0. 0.
      0. 0. 0. 0. 0. 0. 0. 0. 0. 0. 0. 0. 0. 0. 0. 0. 0. 0. 0. 0.
      3.67194027e-01 0. 1.22398011e-01 1.22398011e-01 6.11990057e-02 0.
      6.11990057e-02 0. 6.11990057e-02 0. 0. 0. 0. 0. 6.11990057e-02
      6.11990057e-02 1.83597013e-01 0. 0. 0. 0. 0. 0. 0. 6.11990057e-02
      0. 0. 0. 6.11990057e-02 0. 1.22398011e-01 1.22398011e-01
      6.11990057e-02 0. 6.11990057e-02 6.11990057e-02 0. 6.11990057e-02
      0. 0. 0. 0. 6.11990057e-02 0. 6.11990057e-02 0. 0. 0. 0. 0. 0. 0.
      0. 0. 0. 0. 6.11990057e-02 0. 6.11990057e-02 0. 6.11990057e-02 0.
      0. 6.11990057e-02 0. 0. 0. 0. 0. 0. 0. 0. 0. 0. 0. 0. 0. 0. 0. 0.
      0. 0. 0. 0. 0. 0. 0. 0. 0. 0. 0. 0. 0. 0. 0. 0. 3.05995017e-01 0.
      0. 0. 0. 0. 0. 0. 0. 0. 0. 0. 0. 0. 0. 0. 0. 0. 0. 6.11990057e-02
      0. 0. 0. 0. 1.22398011e-01 0. 0. 0. 6.11990057e-02 6.11990057e-02
      6.11990057e-02 0. 1.22398011e-01 1.22398011e-01 0. 6.11990057e-02
      0. 0. 0. 6.11990057e-02 0. 0. 0. 0. 0. 6.11990057e-02 0.
      6.11990057e-02 0. 0. 0. 0. 0. 0. 0. 0. 0. 0. 0. 0. 0. 0. 0.
      6.11990057e-02 6.11990057e-02 6.11990057e-02 0. 0. 0. 0. 0. 0. 0.
      0. 0. 0. 0. 0. 0. 0. 0. 0. 0. 0. 0. 0. 0. 6.11990057e-02 0. 0. 0.
      0. 0. 0. 0. 6.11990057e-02 6.11990057e-02 1.22398011e-01
      6.11990057e-02 1.83597013e-01 6.11990057e-02 0. 0. 6.11990057e-02
      0. 0. 0. 0. 0. 0. 0. 0. 0. 0. 6.11990057e-02 0. 0. 0. 0. 0. 0.
      6.11990057e-02 0. 0. 0. 6.11990057e-02 0. 1.22398011e-01
      1.22398011e-01 1.22398011e-01 0. 1.22398011e-01 6.11990057e-02 0.
      0. 6.11990057e-02 0. 0. 0. 0. 0. 0. 0. 6.11990057e-02 0.
      6.11990057e-02 0. 0. 0. 0. 0. 1.83597013e-01 6.11990057e-02
      6.11990057e-02 0. 2.44796023e-01 0. 3.67194027e-01 0.
      3.67194027e-01</_>
    <_>
      4.38874155e-01 5.73874712e-01 6.91416860e-01 0. 0. 0. 0. 0. 0. 0.
      0. 0. 0. 0. 0. 0. 0. 0. 0. 0. 0. 0. 0. 0. 0. 0. 0. 0. 0. 0. 0. 0.
      0. 0. 0. 0. 0. 0. 0. 0. 0. 0. 0. 0. 0. 0. 0. 0. 0. 0. 0. 0. 0. 0.
      1.18170701e-01 0. 0. 0. 0. 0. 3.93902324e-02 0. 0. 0. 0. 0. 0. 0.
      0. 0. 0. 0. 0. 0. 0. 0. 0. 0. 0. 0. 0. 0. 0. 0. 0. 0. 0. 0. 0. 0.
      9.84755754e-02 1.96951162e-02 0. 0. 0. 0. 3.15121859e-01
      7.68109500e-01 0. 0. 0. 0. 0. 1.96951162e-02 0. 0. 0. 0. 0. 0. 0.
      0. 0. 0. 0. 0. 0. 0. 0. 0. 0. 0. 0. 0. 0. 0. 0. 0. 0. 0. 0. 0. 0.
      3.74207199e-01 0. 0. 0. 0. 0. 3.54512095e-01 1.37865812e-01 0. 0.
      0. 0. 0. 0. 0. 0. 0. 0. 0. 0. 0. 0. 0. 0. 0. 0. 0. 0. 0. 0. 0. 0.
      0. 0. 0. 0. 0. 0. 0. 0. 0. 0. 0. 0. 0. 0. 0. 0. 0. 0. 0. 0. 0. 0.
      0. 0. 0. 0. 0. 0. 0. 0. 0. 0. 0. 0. 0. 0. 0. 0. 0. 0. 0. 0. 0. 0.
      0. 0. 0. 0. 0. 0. 0. 0. 0. 0. 2.64999479e-01 5.29998951e-02
      1.58999681e-01 1.05999790e-01 1.05999790e-01 0. 5.29998951e-02
      1.05999790e-01 0. 0. 5.29998951e-02 5.29998951e-02 0. 0.
      5.29998951e-02 0. 5.29998951e-02 0. 0. 0. 0. 0. 5.29998951e-02 0.
      1.05999790e-01 0. 0. 0. 1.05999790e-01 0. 0. 5.29998951e-02
      5.29998951e-02 0. 5.29998951e-02 5.29998951e-02 0. 0. 0. 0. 0. 0.
      0. 0. 0. 0. 0. 0. 1.58999681e-01 0. 0. 0. 0. 0. 0. 0.
      2.11999580e-01 0. 0. 0. 2.64999479e-01 0. 1.58999681e-01
      5.29998951e-02 0. 0. 0. 0. 0. 0. 0. 0. 0. 0. 0. 0. 1.05999790e-01
      0. 0. 0. 0. 0. 0. 0. 0. 0. 0. 0. 0. 0. 0. 0. 0. 0. 0. 0. 0. 0. 0.
      0. 0. 0. 0. 0. 0. 0. 0. 0. 0. 0. 0. 0. 3.70999277e-01 0. 0. 0. 0.
      0. 0. 0. 2.64999479e-01 0. 0. 0. 3.17999363e-01 0. 5.29998951e-02
      0. 5.29998951e-02 0. 0. 5.29998951e-02 0. 0. 0. 5.29998951e-02 0.
      5.29998951e-02 0. 5.29998951e-02 0. 0. 0. 1.05999790e-01 0. 0. 0.
      0. 0. 0. 0. 5.29998951e-02 0. 0. 0. 0. 0. 0. 0. 0. 0.
      5.29998951e-02 0. 0. 0. 0. 0. 5.29998951e-02 0. 0. 5.29998951e-02
      0. 0. 0. 0. 5.29998951e-02 0. 0. 0. 0. 0. 0. 0. 0. 0. 0. 0. 0. 0.
      0. 0. 0. 5.29998951e-02 1.58999681e-01 0. 1.58999681e-01 0. 0. 0.
      1.05999790e-01 0. 0. 0. 0. 0. 0. 0. 5.29998951e-02 0. 0. 0. 0. 0.
      0. 0. 0. 5.29998951e-02 0. 0. 0. 0. 0. 0. 2.64999479e-01
      5.29998951e-02 5.29998951e-02 0. 1.58999681e-01 0. 0.
      5.29998951e-02 0. 0. 0. 0. 0. 0. 5.29998951e-02 0. 5.29998951e-02
      1.05999790e-01 0. 0. 5.29998951e-02 0. 0. 0. 0. 2.64999479e-01 0.
      0. 0. 1.05999790e-01 0. 0. 1.05999790e-01</_>
    <_>
      3.71497512e-01 6.05715275e-01 7.03632414e-01 9.92171943e-01
      5.16756177e-02 0. 0. 0. 0. 0. 1.13686368e-01 0. 0. 0. 0. 0. 0. 0.
      0. 0. 0. 0. 0. 0. 0. 0. 0. 0. 0. 0. 0. 0. 0. 0. 0. 0. 0. 0. 0. 0.
      0. 0. 0. 0. 0. 0. 0. 0. 0. 0. 0. 0. 0. 0. 0. 0. 0. 0. 0. 0. 0. 0.
      0. 0. 0. 0. 0. 0. 0. 0. 0. 0. 0. 0. 0. 0. 0. 0. 0. 0. 0. 0. 0. 0.
      0. 0. 0. 0. 0. 0. 0. 0. 0. 0. 0. 0. 0. 0. 0. 0. 0. 0. 0. 0. 0. 0.
      0. 0. 0. 0. 0. 0. 0. 0. 0. 0. 0. 0. 0. 0. 0. 0. 0. 0. 0. 0. 0. 0.
      0. 0. 0. 0. 0. 0. 0. 0. 0. 0. 0. 0. 0. 0. 0. 0. 0. 0. 0. 0. 0. 0.
      0. 0. 0. 0. 0. 0. 0. 0. 0. 0. 0. 0. 0. 0. 0. 0. 0. 0. 0. 0. 0. 0.
      0. 0. 0. 0. 0. 0. 0. 0. 0. 0. 0. 0. 0. 0. 0. 0. 0. 0. 0. 0. 0. 0.
      0. 0. 0. 0. 0. 0. 0. 0. 0. 0. 0. 0. 0. 0. 0. 0. 0. 0. 0. 0. 0. 0.
      0. 0. 0. 0. 0. 0. 0. 0. 0. 4.36852016e-02 8.73704031e-02
      1.74740806e-01 4.36852016e-02 0. 0. 4.36852016e-02 0.
      4.36852016e-02 2.18426004e-01 0. 0. 0. 0. 0. 0. 0. 0.
      8.73704031e-02 0. 0. 0. 4.36852016e-02 4.36852016e-02
      4.36852016e-02 0. 0. 0. 0. 0. 0. 0. 0. 0. 0. 0. 0. 0. 0. 0. 0. 0.
