<?xml version="1.0"?>
<opencv_storage>
<opencv_ml_svm>
  <format>3</format>
  <svmType>C_SVC</svmType>
  <kernel>
    <type>RBF</type>
    <gamma>5.0625000000000009e-01</gamma></kernel>
  <C>1.0000000000000001e-01</C>
  <term_criteria><iterations>100</iterations></term_criteria>
  <var_count>475</var_count>
  <class_count>2</class_count>
  <class_labels type_id="opencv-matrix">
    <rows>2</rows>
    <cols>1</cols>
    <dt>i</dt>
    <data>
      1 2</data></class_labels>
  <sv_total>200</sv_total>
  <support_vectors>
    <_>
      6.60599172e-01 6.13096535e-01 4.33268100e-01 2.96174437e-02 0. 0.
      0. 0. 0. 0. 0. 0. 0. 0. 0. 0. 0. 0. 0. 0. 0. 0. 0. 0. 0. 0. 0. 0.
      0. 0. 0. 0. 0. 0. 0. 0. 0. 0. 0. 2.96174437e-02 0. 0. 0. 0. 0.
      2.36939549e-01 8.88523310e-02 0. 0. 0. 0. 0. 0. 0. 0. 0. 0. 0. 0.
      0. 0. 0. 0. 0. 0. 0. 0. 0. 0. 0. 0. 0. 0. 0. 0. 0. 0. 0. 0. 0. 0.
      2.96174437e-02 2.96174437e-02 0. 0. 0. 0. 3.85026783e-01
      3.85026783e-01 5.92348874e-02 0. 0. 0. 0. 0. 0. 0. 0. 0. 0. 0. 0.
      0. 0. 0. 0. 0. 0. 0. 0. 0. 0. 0. 0. 0. 0. 0. 0. 0. 0. 0. 0. 0.
      5.92348874e-02 2.96174437e-02 1.18469775e-01 0. 0. 0. 0.
      2.96174437e-02 2.96174437e-01 0. 0. 0. 0. 0. 0. 0. 0. 0. 0. 0. 0.
      0. 0. 0. 0. 0. 0. 0. 0. 0. 0. 0. 0. 0. 0. 0. 0. 0. 0. 0. 0. 0. 0.
      0. 2.96174437e-02 2.96174437e-02 0. 0. 0. 0. 5.92348874e-02
      2.66557008e-01 2.96174437e-02 0. 0. 0. 0. 0. 0. 0. 0. 0. 0. 0. 0.
      0. 0. 0. 0. 0. 0. 0. 0. 0. 0. 0. 0. 0. 0. 0. 0. 0. 0. 0. 0. 0. 0.
      1.48087218e-01 0. 0. 0. 0. 0. 2.96174437e-02 6.51583791e-01
      2.96174437e-02 2.53583252e-01 3.62261795e-02 0. 0. 3.62261795e-02
      3.62261795e-02 0. 3.62261795e-02 7.24523589e-02 7.24523589e-02 0.
      1.44904718e-01 0. 0. 0. 7.24523604e-01 3.62261795e-02
      3.62261795e-02 0. 0. 0. 0. 0. 3.62261795e-02 0. 0. 0. 0. 0. 0. 0.
      3.62261795e-02 0. 0. 0. 0. 0. 0. 0. 0. 0. 0. 0. 0. 0. 0. 0. 0. 0.
      0. 0. 0. 0. 0. 0. 0. 0. 0. 0. 0. 0. 0. 0. 0. 0. 0. 0. 0. 0. 0. 0.
      0. 0. 0. 0. 0. 0. 0. 3.62261795e-02 1.08678535e-01 0. 0. 0. 0. 0.
      0. 0. 0. 0. 0. 0. 0. 0. 0. 0. 3.62261795e-02 0. 0. 0. 0. 0. 0. 0.
      0. 0. 0. 0. 0. 0. 0. 0. 0. 3.62261795e-02 0. 0. 0. 0. 0. 0.
      3.62261795e-02 0. 0. 0. 0. 0. 0. 3.62261795e-02 1.08678535e-01
      1.08678535e-01 3.62261795e-02 0. 7.24523589e-02 0. 0. 0.
      7.24523589e-02 3.62261795e-02 0. 3.62261795e-02 0. 0. 0.
      3.62261795e-02 3.62261795e-02 0. 3.62261795e-02 0. 0. 0. 0. 0. 0.
      0. 0. 0. 0. 0. 0. 0. 0. 0. 0. 0. 0. 0. 0. 0. 0. 0. 0. 0. 0. 0. 0.
      0. 0. 1.08678535e-01 0. 0. 0. 0. 0. 0. 0. 0. 0. 0. 0. 0. 0.
      3.62261795e-02 0. 0. 3.62261795e-02 0. 7.24523589e-02 0. 0. 0. 0.
      0. 0. 0. 0. 0. 0. 0. 0. 0. 0. 0. 0. 0. 0. 0. 0. 0. 0. 0. 0. 0. 0.
      0. 0. 0. 0. 0. 0. 0. 0. 0. 0. 0. 0. 0. 0. 0. 0. 0. 1.44904718e-01
      3.98487985e-01 0. 0. 0. 1.08678535e-01 0. 1.08678535e-01 0.
      3.62261795e-02 0. 0. 0. 0. 0. 0. 2.89809436e-01</_>
    <_>
      5.74640691e-01 5.67140818e-01 5.90033412e-01 0. 0. 0. 0. 0. 0. 0.
      0. 0. 0. 0. 0. 0. 0. 0. 0. 0. 0. 0. 0. 0. 0. 0. 0. 0. 0. 0. 0. 0.
      0. 0. 0. 0. 0. 0. 0. 0. 0. 0. 0. 0. 0. 0. 0. 0. 0. 0. 0. 0. 0. 0.
      0. 0. 0. 0. 0. 0. 0. 0. 0. 0. 0. 0. 0. 0. 0. 0. 0. 0. 0. 0. 0. 0.
      0. 0. 0. 0. 0. 0. 0. 0. 0. 0. 0. 0. 0. 0. 0. 0. 0. 0. 0. 0. 0. 0.
      0. 0. 0. 0. 0. 0. 0. 0. 0. 0. 0. 0. 0. 0. 0. 0. 0. 0. 0. 0. 0. 0.
      0. 0. 0. 0. 0. 0. 0. 0. 0. 0. 0. 0. 4.09530103e-02 4.09530103e-02
      0. 0. 0. 0. 0. 0. 0. 0. 0. 0. 0. 0. 0. 0. 0. 0. 0. 0. 0. 0. 0. 0.
      0. 0. 0. 0. 0. 0. 0. 0. 0. 0. 0. 0. 0. 6.14295155e-02 0. 0. 0. 0.
      0. 5.52865624e-01 1.22859031e-01 0. 0. 0. 0. 0. 2.04765052e-02 0.
      0. 0. 0. 0. 0. 0. 0. 0. 0. 0. 0. 0. 0. 0. 0. 0. 0. 0. 0. 0. 0. 0.
      0. 0. 0. 0. 0. 2.04765052e-02 2.04765052e-02 0. 0. 0. 0. 0.
      8.19060147e-01 3.39275569e-01 8.48188922e-02 0. 8.48188922e-02
      8.48188922e-02 0. 0. 0. 8.48188922e-02 0. 8.48188922e-02 0.
      8.48188922e-02 0. 2.54456669e-01 8.48188922e-02 8.48188922e-02 0.
      0. 0. 0. 0. 0. 0. 2.54456669e-01 0. 0. 0. 1.69637784e-01 0.
      2.54456669e-01 8.48188922e-02 1.69637784e-01 0. 0. 0. 0. 0. 0. 0.
      0. 0. 0. 0. 0. 0. 0. 0. 8.48188922e-02 0. 8.48188922e-02 0. 0. 0.
      0. 0. 1.69637784e-01 0. 0. 0. 1.69637784e-01 0. 1.69637784e-01
      8.48188922e-02 8.48188922e-02 8.48188922e-02 0. 0. 0. 0. 0. 0. 0.
      0. 0. 0. 0. 0. 0. 0. 0. 0. 0. 0. 0. 0. 0. 0. 0. 0. 0. 0. 0. 0. 0.
      0. 0. 0. 0. 0. 0. 0. 0. 8.48188922e-02 0. 0. 8.48188922e-02 0. 0.
      0. 0. 0. 1.69637784e-01 0. 0. 0. 0. 0. 0. 0. 3.39275569e-01 0. 0.
      8.48188922e-02 8.48188922e-02 0. 8.48188922e-02 0. 8.48188922e-02
      8.48188922e-02 0. 1.69637784e-01 0. 0. 0. 1.69637784e-01 0. 0. 0.
      0. 0. 0. 0. 0. 0. 0. 0. 0. 0. 0. 0. 0. 0. 0. 0. 0. 0. 0. 0.
      8.48188922e-02 0. 0. 0. 0. 0. 0. 8.48188922e-02 0. 0. 0. 0. 0. 0.
      0. 0. 0. 0. 0. 0. 0. 0. 0. 0. 0. 0. 0. 0. 0. 0. 0. 0. 0. 0.
      8.48188922e-02 0. 8.48188922e-02 0. 0. 0. 8.48188922e-02 0.
      8.48188922e-02 0. 0. 8.48188922e-02 0. 0. 8.48188922e-02 0. 0. 0.
      0. 0. 0. 0. 0. 0. 0. 0. 0. 0. 0. 0. 0. 8.48188922e-02
      8.48188922e-02 0. 8.48188922e-02 0. 0. 0. 8.48188922e-02 0.
      8.48188922e-02 0. 0. 0. 0. 0. 8.48188922e-02 8.48188922e-02
      8.48188922e-02 0. 0. 0. 0. 0. 0. 2.54456669e-01 0. 0. 0. 0.
      8.48188922e-02 0. 8.48188922e-02</_>
    <_>
      6.29950345e-01 5.26174784e-01 5.71229100e-01 9.42154944e-01 0. 0.
      0. 0. 0. 0. 0. 0. 0. 0. 0. 0. 0. 0. 0. 0. 0. 0. 0. 0. 0. 0. 0. 0.
      0. 0. 0. 0. 0. 0. 0. 0. 0. 0. 0. 9.42154974e-02 7.06616268e-02 0.
      0. 0. 0. 0. 3.06200385e-01 0. 0. 0. 0. 0. 0. 0. 0. 0. 0. 0. 0. 0.
      0. 0. 0. 0. 0. 0. 0. 0. 0. 0. 0. 0. 0. 0. 0. 0. 0. 0. 0. 0. 0. 0.
      1.17769372e-02 2.35538743e-02 0. 0. 0. 0. 0. 5.88846840e-02 0. 0.
      0. 0. 0. 0. 0. 0. 0. 0. 0. 0. 0. 0. 0. 0. 0. 0. 0. 0. 0. 0. 0. 0.
      0. 0. 0. 0. 0. 0. 0. 0. 0. 0. 0. 2.35538743e-02 0. 0. 0. 0. 0. 0.
      0. 0. 0. 0. 0. 0. 0. 0. 0. 0. 0. 0. 0. 0. 0. 0. 0. 0. 0. 0. 0. 0.
      0. 0. 0. 0. 0. 0. 0. 0. 0. 0. 0. 0. 0. 0. 0. 0. 0. 0. 0. 0. 0. 0.
      0. 0. 0. 0. 0. 0. 0. 0. 0. 0. 0. 0. 0. 0. 0. 0. 0. 0. 0. 0. 0. 0.
      0. 0. 0. 0. 0. 0. 0. 0. 0. 0. 0. 0. 0. 0. 0. 0. 0. 0. 0. 0. 0.
      1.55043423e-01 0. 0. 0. 0. 0. 0. 3.10086831e-02 2.17060775e-01 0.
      3.10086831e-02 3.10086831e-02 0. 0. 0. 6.20173693e-01
      3.10086831e-02 0. 0. 0. 0. 0. 0. 0. 3.10086831e-02 0. 0.
      3.10086831e-02 0. 0. 0. 0. 0. 0. 0. 0. 0. 0. 0. 0. 0. 0. 0. 0. 0.
      0. 0. 0. 0. 0. 0. 0. 0. 0. 0. 0. 0. 0. 0. 0. 0. 0. 0. 0.
      3.10086831e-02 0. 0. 0. 0. 0. 0. 0. 0. 0. 0. 0. 0. 0. 0.
      6.20173663e-02 0. 0. 0. 0. 0. 0. 0. 0. 0. 0. 0. 0. 0. 0. 0. 0. 0.
      0. 0. 0. 0. 0. 0. 0. 0. 0. 0. 0. 0. 0. 0. 3.10086831e-02
      3.10086831e-02 0. 0. 0. 0. 0. 0. 0. 9.30260494e-02 0. 0. 0. 0. 0.
      0. 1.86052099e-01 1.55043423e-01 3.10086831e-02 0. 0.
      6.20173663e-02 0. 0. 0. 6.20173663e-02 0. 0. 3.10086831e-02 0. 0.
      3.10086831e-02 9.30260494e-02 3.10086831e-02 0. 0. 0. 0. 0. 0.
      3.10086831e-02 0. 0. 0. 0. 0. 0. 0. 0. 0. 0. 0. 0. 0. 0. 0. 0. 0.
      0. 0. 0. 0. 0. 0. 0. 0. 0. 0. 0. 0. 0. 0. 0. 0. 3.10086831e-02 0.
      0. 0. 0. 0. 0. 0. 0. 0. 0. 0. 0. 0. 0. 0. 0. 0. 0. 0. 0.
      3.10086831e-02 0. 0. 0. 0. 0. 0. 0. 0. 0. 0. 0. 0. 0. 0. 0. 0.
      3.10086831e-02 0. 0. 0. 0. 0. 0. 0. 0. 3.10086831e-02 0. 0. 0.
      3.10086831e-02 0. 0. 0. 4.34121549e-01 0. 0. 0. 0. 0.
      3.10086831e-02 2.48069465e-01 1.55043423e-01 3.10086831e-02 0. 0.
      0. 0. 0. 4.03112888e-01</_>
    <_>
      6.53794527e-01 5.26663184e-01 5.43303430e-01 7.43679464e-01 0. 0.
      0. 0. 0. 0. 0. 0. 0. 0. 0. 0. 0. 0. 0. 0. 0. 0. 0. 0. 0. 0. 0. 0.
      0. 0. 0. 0. 0. 0. 0. 0. 0. 0. 0. 1.48735896e-01 0. 0. 0. 0. 0.
      3.71839739e-02 6.50719523e-01 0. 0. 0. 0. 0. 0. 0. 0. 0. 0. 0. 0.
      0. 0. 0. 0. 0. 0. 0. 0. 0. 0. 0. 0. 0. 0. 0. 0. 0. 0. 0. 0. 0. 0.
      0. 0. 0. 0. 0. 0. 0. 0. 0. 0. 0. 0. 0. 0. 0. 0. 0. 0. 0. 0. 0. 0.
      0. 0. 0. 0. 0. 0. 0. 0. 0. 0. 0. 0. 0. 0. 0. 0. 0. 0. 0. 0. 0. 0.
      0. 0. 0. 0. 0. 0. 0. 0. 0. 0. 0. 0. 0. 0. 0. 0. 0. 0. 0. 0. 0. 0.
      0. 0. 0. 0. 0. 0. 0. 0. 0. 0. 0. 0. 0. 0. 0. 0. 0. 0. 0. 0. 0. 0.
      0. 0. 0. 0. 0. 0. 0. 0. 0. 0. 0. 0. 0. 0. 0. 0. 0. 0. 0. 0. 0. 0.
      0. 0. 0. 0. 0. 0. 0. 0. 0. 0. 0. 0. 0. 0. 0. 0. 0. 0. 0. 0. 0. 0.
      0. 0. 0. 0. 0. 0. 8.69565234e-02 0. 0. 0. 0. 0. 0. 0.
      4.34782617e-02 0. 0. 4.34782617e-02 0. 0. 0. 4.78260875e-01 0. 0.
      0. 0. 0. 0. 0. 0. 0. 0. 0. 0. 0. 0. 0. 0. 0. 0. 0. 0. 0. 0. 0. 0.
      0. 0. 0. 0. 0. 0. 0. 0. 0. 0. 0. 0. 0. 0. 0. 0. 0. 0. 0. 0. 0. 0.
      0. 0. 4.34782617e-02 0. 0. 0. 0. 0. 0. 0. 0. 4.34782617e-02 0. 0.
      0. 0. 0. 0. 0. 0. 0. 0. 0. 0. 0. 0. 0. 0. 0. 0. 0. 0. 0. 0. 0. 0.
      0. 0. 0. 0. 0. 0. 4.34782617e-02 0. 0. 0. 0. 0. 0. 0.
      4.34782617e-02 0. 0. 0. 0. 0. 0. 4.34782617e-02 0. 0. 0. 0. 0. 0.
      0. 8.69565234e-02 2.60869563e-01 0. 0. 0. 0. 0. 0. 8.69565234e-02
      1.73913047e-01 1.73913047e-01 0. 4.34782617e-02 0. 0. 0.
      2.17391312e-01 0. 0. 0. 0. 0. 0. 0. 0. 0. 0. 0. 0. 0. 0. 0.
      4.34782617e-02 0. 0. 0. 0. 0. 0. 0. 0. 0. 0. 0. 0. 0. 0. 0. 0.
      4.34782617e-02 0. 0. 0. 0. 0. 0. 4.34782617e-02 0. 0. 0. 0. 0. 0.
      0. 8.69565234e-02 4.34782617e-02 0. 0. 0. 0. 0. 0. 0. 0. 0. 0. 0.
      0. 0. 0. 4.34782617e-02 0. 0. 0. 0. 0. 0. 0. 0. 0. 0. 0. 0. 0. 0.
      0. 0. 0. 0. 0. 0. 0. 0. 0. 4.34782617e-02 0. 4.34782617e-02 0. 0.
      0. 0. 0. 4.34782617e-02 6.52173936e-01 4.34782617e-02 0.
      4.34782617e-02 0. 0. 0. 2.17391312e-01 0. 0. 0. 8.69565234e-02
      4.34782617e-02 0. 4.34782617e-02 2.17391312e-01</_>
    <_>
      5.95634222e-01 5.58970153e-01 5.76864183e-01 4.50029790e-01 0. 0.
      0. 0. 0. 0. 0. 0. 0. 0. 0. 0. 0. 0. 0. 0. 0. 0. 0. 0. 0. 0. 0. 0.
      0. 0. 0. 0. 0. 0. 0. 0. 0. 0. 0. 1.17399074e-01 5.86995371e-02 0.
      0. 0. 0. 0. 8.80492985e-01 5.86995371e-02 0. 0. 0. 0. 0. 0. 0. 0.
      0. 0. 0. 0. 0. 0. 0. 0. 0. 0. 0. 0. 0. 0. 0. 0. 0. 0. 0. 0. 0. 0.
      0. 0. 0. 0. 0. 3.91330235e-02 0. 0. 0. 0. 0. 0. 0. 0. 0. 0. 0. 0.
      0. 0. 0. 0. 0. 0. 0. 0. 0. 0. 0. 0. 0. 0. 0. 0. 0. 0. 0. 0. 0. 0.
      0. 0. 0. 0. 0. 0. 0. 0. 0. 0. 0. 0. 0. 0. 0. 0. 0. 0. 0. 0. 0. 0.
      0. 0. 0. 0. 0. 0. 0. 0. 0. 0. 0. 0. 0. 0. 0. 0. 0. 0. 0. 0. 0. 0.
      0. 0. 0. 0. 0. 0. 0. 0. 0. 0. 0. 0. 0. 0. 0. 0. 0. 0. 0. 0. 0. 0.
      0. 0. 0. 0. 0. 0. 0. 0. 0. 0. 0. 0. 0. 0. 0. 0. 0. 0. 0. 0. 0. 0.
      0. 0. 0. 0. 0. 0. 0. 0. 0. 0. 0. 0. 0. 0. 0. 0. 0. 0. 0. 0. 0. 0.
      0. 0. 0. 0. 0. 0. 4.24859300e-02 0. 0. 0. 0. 0. 0. 0. 0. 0. 0. 0.
      0. 1.69943720e-01 0. 1.27457798e-01 4.24859300e-02 0. 0. 0. 0. 0.
      0. 0. 0. 0. 0. 0. 0. 0. 0. 0. 0. 0. 0. 0. 0. 0. 0. 0. 0. 0. 0. 0.
      0. 3.39887440e-01 0. 1.69943720e-01 4.24859300e-02 0. 0. 0. 0. 0.
      0. 0. 4.24859300e-02 0. 0. 0. 0. 0. 0. 0. 0. 0. 0. 0. 0. 0. 0. 0.
      0. 0. 0. 0. 0. 0. 0. 0. 0. 0. 0. 0. 0. 0. 0. 0. 0. 0. 0. 0. 0. 0.
      0. 0. 0. 0. 0. 0. 0. 0. 0. 0. 0. 0. 0. 0. 0. 4.24859300e-02 0. 0.
      4.24859300e-02 0. 0. 0. 0. 0. 0. 0. 4.24859300e-02 0. 0. 0. 0. 0.
      0. 0. 4.24859300e-02 0. 0. 0. 0. 0. 0. 0. 0. 0. 0. 0. 0. 0. 0. 0.
      4.24859300e-02 0. 0. 0. 0. 0. 0. 0. 0. 0. 0. 0. 0. 0. 0. 0. 0. 0.
      0. 0. 0. 0. 0. 0. 0. 0. 0. 0. 0. 0. 0. 0. 4.24859300e-02 0.
      1.69943720e-01 0. 5.09831190e-01 0. 0. 0. 4.24859300e-02 0.
      4.24859300e-02 0. 0. 0. 0. 0. 8.49718601e-02 0. 4.24859300e-02 0.
      0. 0. 0. 0. 0. 0. 0. 0. 0. 0. 0. 0. 4.24859300e-02 0.
      6.37288928e-01 0. 2.12429643e-01 0. 0. 0. 1.27457798e-01 0. 0. 0.
      0. 0. 0. 0. 8.49718601e-02 0. 4.24859300e-02 0. 0. 0. 0. 0. 0. 0.
      4.24859300e-02 0. 4.24859300e-02 0. 0. 4.24859300e-02
      8.49718601e-02</_>
    <_>
      5.99335194e-01 5.31784713e-01 5.98332942e-01 1. 0. 0. 0. 0. 0. 0.
      0. 0. 0. 0. 0. 0. 0. 0. 0. 0. 0. 0. 0. 0. 0. 0. 0. 0. 0. 0. 0. 0.
      0. 0. 0. 0. 0. 0. 0. 0. 0. 0. 0. 0. 0. 0. 0. 0. 0. 0. 0. 0. 0. 0.
      0. 0. 0. 0. 0. 0. 0. 0. 0. 0. 0. 0. 0. 0. 0. 0. 0. 0. 0. 0. 0. 0.
      0. 0. 0. 0. 0. 0. 0. 0. 0. 0. 0. 0. 0. 0. 0. 0. 0. 0. 0. 0. 0. 0.
      0. 0. 0. 0. 0. 0. 0. 0. 0. 0. 0. 0. 0. 0. 0. 0. 0. 0. 0. 0. 0. 0.
      0. 0. 0. 0. 0. 0. 0. 0. 0. 0. 0. 0. 0. 0. 0. 0. 0. 0. 0. 0. 0. 0.
      0. 0. 0. 0. 0. 0. 0. 0. 0. 0. 0. 0. 0. 0. 0. 0. 0. 0. 0. 0. 0. 0.
      0. 0. 0. 0. 0. 0. 0. 0. 0. 0. 0. 0. 0. 0. 0. 0. 0. 0. 0. 0. 0. 0.
      0. 0. 0. 0. 0. 0. 0. 0. 0. 0. 0. 0. 0. 0. 0. 0. 0. 0. 0. 0. 0. 0.
      0. 0. 0. 0. 0. 0. 0. 0. 0. 0. 0. 2.13686917e-02 0. 0. 0. 0. 0. 0.
      0. 0. 0. 0. 0. 0. 0. 0. 2.13686917e-02 0. 0. 0. 0. 0. 0. 0. 0.
      2.13686917e-02 0. 0. 0. 4.27373834e-02 0. 0. 0. 0. 0. 0. 0. 0. 0.
      0. 0. 0. 0. 0. 0. 0. 0. 0. 0. 0. 0. 0. 0. 0. 0. 0. 0. 0. 0. 0. 0.
      0. 0. 0. 0. 0. 0. 0. 0. 0. 0. 0. 0. 0. 0. 0. 0. 0. 0. 0. 0. 0. 0.
      0. 0. 0. 0. 0. 0. 0. 0. 0. 0. 0. 0. 0. 0. 0. 0. 0. 0. 0. 0. 0. 0.
      0. 0. 0. 0. 0. 0. 0. 0. 0. 0. 0. 0. 0. 0. 0. 2.13686917e-02 0. 0.
      0. 0. 2.13686917e-02 0. 0. 6.41060770e-02 2.13686917e-02 0. 0.
      2.13686917e-02 0. 0. 0. 6.41060770e-02 0. 0. 0. 0. 0. 0. 0.
      2.13686917e-02 0. 0. 0. 0. 0. 0. 0. 0. 0. 0. 0. 0. 0. 0. 0.
      2.13686917e-02 0. 0. 0. 0. 0. 0. 0. 0. 2.13686917e-02 0. 0. 0. 0.
      0. 0. 0. 0. 0. 0. 0. 0. 0. 0. 0. 0. 0. 0. 0. 2.13686917e-02 0.
      2.13686917e-02 0. 4.27373834e-02 2.13686917e-02 0. 2.13686917e-02
      0. 0. 0. 0. 4.27373834e-02 0. 0. 0. 0. 0. 0. 6.41060770e-02 0. 0.
      0. 0. 0. 0. 0. 0. 0. 0. 0. 0. 0. 0. 0. 2.13686917e-02 0.
      4.27373834e-02 0. 2.13686917e-02 0. 0. 0. 4.27373834e-02 0.
      2.13686917e-02 0. 0. 0. 0. 0. 8.54747668e-02 0. 6.41060770e-02 0.
      6.41060770e-02 0. 0. 0. 1.28212154e-01 0. 2.13686917e-02 0.
      1.06843457e-01 0. 2.13686917e-02 4.27373834e-02 9.61591125e-01</_>
    <_>
      5.94862759e-01 5.37818491e-01 5.97402394e-01 1. 0. 0. 0. 0. 0. 0.
      0. 0. 0. 0. 0. 0. 0. 0. 0. 0. 0. 0. 0. 0. 0. 0. 0. 0. 0. 0. 0. 0.
      0. 0. 0. 0. 0. 0. 0. 0. 0. 0. 0. 0. 0. 0. 0. 0. 0. 0. 0. 0. 0. 0.
      0. 0. 0. 0. 0. 0. 0. 0. 0. 0. 0. 0. 0. 0. 0. 0. 0. 0. 0. 0. 0. 0.
      0. 0. 0. 0. 0. 0. 0. 0. 0. 0. 0. 0. 0. 0. 0. 0. 0. 0. 0. 0. 0. 0.
      0. 0. 0. 0. 0. 0. 0. 0. 0. 0. 0. 0. 0. 0. 0. 0. 0. 0. 0. 0. 0. 0.
      0. 0. 0. 0. 0. 0. 0. 0. 0. 0. 0. 0. 0. 0. 0. 0. 0. 0. 0. 0. 0. 0.
      0. 0. 0. 0. 0. 0. 0. 0. 0. 0. 0. 0. 0. 0. 0. 0. 0. 0. 0. 0. 0. 0.
      0. 0. 0. 0. 0. 0. 0. 0. 0. 0. 0. 0. 0. 0. 0. 0. 0. 0. 0. 0. 0. 0.
      0. 0. 0. 0. 0. 0. 0. 0. 0. 0. 0. 0. 0. 0. 0. 0. 0. 0. 0. 0. 0. 0.
      0. 0. 0. 0. 0. 0. 0. 0. 0. 0. 0. 3.30409296e-02 0. 0. 0. 0. 0. 0.
      0. 6.60818592e-02 0. 0. 0. 0. 0. 9.91227925e-02 6.60818592e-02 0.
      0. 0. 0. 0. 0. 0. 0. 3.30409296e-02 0. 0. 0. 9.91227925e-02 0.
      3.30409296e-02 1.65204644e-01 0. 0. 0. 3.30409296e-02 0. 0. 0. 0.
      0. 0. 0. 0. 0. 0. 0. 0. 0. 0. 0. 0. 0. 0. 0. 0. 3.30409296e-02 0.
      0. 0. 6.60818592e-02 0. 0. 1.32163718e-01 0. 0. 0. 0. 0. 0. 0. 0.
      0. 0. 0. 0. 0. 0. 3.30409296e-02 0. 0. 0. 0. 0. 0. 0. 0. 0. 0. 0.
      0. 0. 0. 0. 3.30409296e-02 0. 0. 0. 3.30409296e-02 0. 0. 0. 0. 0.
      0. 0. 0. 0. 0. 0. 0. 0. 0. 0. 0. 0. 0. 0. 0. 0. 3.30409296e-02 0.
      0. 0. 3.30409296e-02 0. 9.91227925e-02 1.65204644e-01
      3.30409296e-02 0. 0. 0. 3.30409296e-02 0. 0. 0. 0. 3.30409296e-02
      0. 3.30409296e-02 0. 0. 3.30409296e-02 1.32163718e-01 0. 0. 0. 0.
      0. 0. 0. 0. 0. 0. 0. 0. 0. 0. 0. 3.30409296e-02 0. 0. 0.
      3.30409296e-02 0. 0. 0. 0. 0. 0. 0. 0. 0. 0. 0. 0. 0. 0. 0. 0. 0.
      0. 0. 0. 0. 0. 0. 0. 0. 0. 9.91227925e-02 2.31286511e-01 0. 0. 0.
      0. 0. 0. 0. 0. 0. 0. 0. 0. 0. 0. 0. 0. 0. 0. 0. 0. 0. 0. 0. 0. 0.
      0. 0. 0. 3.30409296e-02 0. 0. 3.30409296e-02 0. 0. 0.
      3.30409296e-02 3.30409296e-02 0. 0. 0. 3.30409296e-02 0. 0. 0. 0.
      0. 0. 0. 3.30409296e-02 0. 3.30409296e-02 0. 0. 0. 0.
      6.60818592e-02 6.60818592e-02 3.30409296e-02 0. 3.30409296e-02
      3.30409296e-02 3.30409296e-02 1.65204644e-01 8.59064162e-01</_>
    <_>
      5.91889560e-01 5.42917013e-01 5.95741391e-01 1. 0. 0. 0. 0. 0. 0.
      0. 0. 0. 0. 0. 0. 0. 0. 0. 0. 0. 0. 0. 0. 0. 0. 0. 0. 0. 0. 0. 0.
      0. 0. 0. 0. 0. 0. 0. 0. 0. 0. 0. 0. 0. 0. 0. 0. 0. 0. 0. 0. 0. 0.
      0. 0. 0. 0. 0. 0. 0. 0. 0. 0. 0. 0. 0. 0. 0. 0. 0. 0. 0. 0. 0. 0.
      0. 0. 0. 0. 0. 0. 0. 0. 0. 0. 0. 0. 0. 0. 0. 0. 0. 0. 0. 0. 0. 0.
      0. 0. 0. 0. 0. 0. 0. 0. 0. 0. 0. 0. 0. 0. 0. 0. 0. 0. 0. 0. 0. 0.
      0. 0. 0. 0. 0. 0. 0. 0. 0. 0. 0. 0. 0. 0. 0. 0. 0. 0. 0. 0. 0. 0.
      0. 0. 0. 0. 0. 0. 0. 0. 0. 0. 0. 0. 0. 0. 0. 0. 0. 0. 0. 0. 0. 0.
      0. 0. 0. 0. 0. 0. 0. 0. 0. 0. 0. 0. 0. 0. 0. 0. 0. 0. 0. 0. 0. 0.
      0. 0. 0. 0. 0. 0. 0. 0. 0. 0. 0. 0. 0. 0. 0. 0. 0. 0. 0. 0. 0. 0.
      0. 0. 0. 0. 0. 0. 0. 0. 0. 0. 0. 3.89544703e-02 3.89544703e-02 0.
      0. 0. 0. 7.79089406e-02 3.89544703e-02 3.89544703e-02
      3.89544703e-02 0. 0. 3.89544703e-02 0. 3.89544703e-02
      3.89544703e-02 0. 0. 0. 0. 0. 0. 0. 0. 3.89544703e-02 0. 0. 0. 0.
      0. 0. 7.79089406e-02 0. 0. 0. 0. 0. 0. 0. 0. 0. 0. 0.
      3.89544703e-02 0. 0. 0. 0. 0. 0. 0. 0. 0. 0. 0. 0. 0. 0. 0. 0. 0.
      0. 0. 7.79089406e-02 0. 0. 0. 0. 0. 0. 0. 0. 0. 0. 0. 0. 0. 0. 0.
      0. 0. 0. 0. 0. 0. 0. 0. 0. 0. 0. 0. 0. 0. 0. 0. 0. 0. 0. 0. 0. 0.
      0. 0. 0. 0. 0. 0. 0. 0. 0. 3.89544703e-02 0. 0. 0. 0. 0. 0. 0. 0.
      3.89544703e-02 3.89544703e-02 0. 0. 0. 3.89544703e-02 0.
      3.89544703e-02 3.89544703e-02 7.79089406e-02 7.79089406e-02 0. 0.
      0. 0. 0. 7.79089406e-02 2.33726829e-01 0. 3.89544703e-02
      3.89544703e-02 0. 0. 0. 3.89544703e-02 0. 0. 0. 3.89544703e-02 0.
      0. 0. 3.89544703e-02 0. 0. 0. 0. 0. 0. 0. 3.89544703e-02 0. 0. 0.
      0. 0. 0. 0. 0. 3.89544703e-02 0. 0. 0. 0. 0. 0. 0. 3.89544703e-02
      0. 0. 0. 0. 0. 0. 0. 0. 0. 0. 0. 0. 0. 0. 1.16863415e-01
      3.89544703e-02 3.89544703e-02 0. 0. 0. 0. 0. 7.79089406e-02 0. 0.
      0. 0. 0. 0. 0. 1.16863415e-01 0. 0. 0. 0. 0. 0. 0. 0. 0. 0. 0. 0.
      0. 0. 0. 1.55817881e-01 3.89544703e-02 0. 0. 0. 0. 0. 0.
      3.89544703e-02 0. 0. 0. 0. 0. 0. 3.89544703e-02 7.79089406e-02
      1.55817881e-01 0. 0. 0. 0. 0. 0. 7.79089406e-02 1.16863415e-01
      1.16863415e-01 0. 7.79089406e-02 0. 3.89544703e-02 3.89544703e-02
      8.56998324e-01</_>
    <_>
      5.96128106e-01 5.37113547e-01 5.96774876e-01 1. 0. 0. 0. 0. 0. 0.
      0. 0. 0. 0. 0. 0. 0. 0. 0. 0. 0. 0. 0. 0. 0. 0. 0. 0. 0. 0. 0. 0.
      0. 0. 0. 0. 0. 0. 0. 0. 0. 0. 0. 0. 0. 0. 0. 0. 0. 0. 0. 0. 0. 0.
      0. 0. 0. 0. 0. 0. 0. 0. 0. 0. 0. 0. 0. 0. 0. 0. 0. 0. 0. 0. 0. 0.
      0. 0. 0. 0. 0. 0. 0. 0. 0. 0. 0. 0. 0. 0. 0. 0. 0. 0. 0. 0. 0. 0.
      0. 0. 0. 0. 0. 0. 0. 0. 0. 0. 0. 0. 0. 0. 0. 0. 0. 0. 0. 0. 0. 0.
      0. 0. 0. 0. 0. 0. 0. 0. 0. 0. 0. 0. 0. 0. 0. 0. 0. 0. 0. 0. 0. 0.
      0. 0. 0. 0. 0. 0. 0. 0. 0. 0. 0. 0. 0. 0. 0. 0. 0. 0. 0. 0. 0. 0.
      0. 0. 0. 0. 0. 0. 0. 0. 0. 0. 0. 0. 0. 0. 0. 0. 0. 0. 0. 0. 0. 0.
      0. 0. 0. 0. 0. 0. 0. 0. 0. 0. 0. 0. 0. 0. 0. 0. 0. 0. 0. 0. 0. 0.
      0. 0. 0. 0. 0. 0. 0. 0. 0. 0. 0. 2.80056018e-02 2.80056018e-02
      2.80056018e-02 0. 0. 0. 0. 0. 5.60112037e-02 0. 0. 2.80056018e-02
      0. 0. 2.80056018e-02 2.80056018e-02 2.80056018e-02 0. 0. 0. 0. 0.
      0. 0. 0. 0. 0. 0. 0. 0. 5.60112037e-02 0. 2.80056018e-02 0. 0. 0.
      0. 0. 0. 0. 0. 0. 0. 0. 0. 0. 0. 0. 0. 0. 0. 0. 0. 0. 0. 0.
      2.80056018e-02 0. 0. 0. 8.40168074e-02 0. 2.80056018e-02
      8.40168074e-02 0. 0. 0. 0. 0. 0. 0. 0. 0. 0. 0. 0. 0. 0. 0.
      5.60112037e-02 0. 0. 0. 0. 0. 0. 0. 0. 0. 0. 0. 0. 0. 0. 0. 0. 0.
      0. 0. 0. 0. 0. 0. 0. 0. 0. 0. 0. 0. 0. 0. 0. 0. 0. 0. 0. 0. 0. 0.
      0. 0. 0. 0. 2.80056018e-02 2.80056018e-02 0. 5.60112037e-02
      5.60112037e-02 1.12022407e-01 0. 0. 8.40168074e-02 0. 0. 0.
      2.80056018e-02 8.40168074e-02 5.60112037e-02 0. 2.80056018e-02 0.
      0. 0. 1.40028015e-01 0. 0. 0. 0. 0. 0. 0. 0. 2.80056018e-02 0. 0.
      0. 0. 0. 0. 2.80056018e-02 0. 0. 0. 0. 0. 0. 0. 0. 0. 0. 0. 0. 0.
      0. 0. 2.80056018e-02 2.80056018e-02 2.80056018e-02 0. 0. 0. 0. 0.
      0. 2.80056018e-02 0. 0. 0. 2.80056018e-02 0. 0. 5.60112037e-02 0.
      0. 0. 2.80056018e-02 2.80056018e-02 0. 0. 1.12022407e-01
      2.80056018e-02 0. 0. 0. 0. 0. 0. 5.60112037e-02 0. 0. 0. 0. 0. 0.
      0. 0. 0. 0. 0. 0. 0. 0. 0. 5.60112037e-02 5.60112037e-02
      2.80056018e-02 0. 0. 0. 0. 0. 5.60112037e-02 2.80056018e-02 0. 0.
      0. 0. 0. 0. 1.12022407e-01 1.96039215e-01 0. 0. 2.80056018e-02 0.
      2.80056018e-02 0. 8.40168074e-02 5.60112037e-02 5.60112037e-02 0.
      0. 0. 0. 5.60112037e-02 8.96179259e-01</_>
    <_>
      5.67825079e-01 5.80073416e-01 5.84028661e-01 0. 0. 0. 0. 0. 0. 0.
      0. 0. 0. 0. 0. 0. 0. 0. 0. 0. 0. 0. 0. 0. 0. 0. 0. 0. 0. 0. 0. 0.
      0. 0. 0. 0. 0. 0. 0. 0. 0. 0. 0. 0. 0. 0. 9.67309475e-01
      2.54555121e-02 0. 0. 0. 0. 0. 8.90942886e-02 0. 0. 0. 0. 0. 0. 0.
      0. 0. 0. 0. 0. 0. 0. 0. 0. 0. 0. 0. 0. 0. 0. 0. 0. 0. 0. 0. 0. 0.
      2.54555121e-02 0. 0. 0. 0. 0. 2.29099616e-01 0. 0. 0. 0. 0. 0. 0.
      0. 0. 0. 0. 0. 0. 0. 0. 0. 0. 0. 0. 0. 0. 0. 0. 0. 0. 0. 0. 0. 0.
      0. 0. 0. 0. 0. 0. 0. 0. 0. 0. 0. 0. 0. 5.09110242e-02 0. 0. 0. 0.
      0. 0. 0. 0. 0. 0. 0. 0. 0. 0. 0. 0. 0. 0. 0. 0. 0. 0. 0. 0. 0. 0.
      0. 0. 0. 0. 0. 0. 0. 0. 0. 0. 0. 0. 0. 0. 0. 0. 0. 0. 0. 0. 0. 0.
      0. 0. 0. 0. 0. 0. 0. 0. 0. 0. 0. 0. 0. 0. 0. 0. 0. 0. 0. 0. 0. 0.
      0. 0. 0. 0. 0. 0. 0. 0. 0. 0. 0. 0. 0. 0. 0. 0. 4.88095321e-02 0.
      0. 0. 0. 0. 0. 0. 7.32143000e-02 0. 0. 0. 7.32143000e-02 0.
      2.44047660e-02 0. 0. 0. 2.44047660e-02 0. 0. 0. 0. 0. 0. 0. 0. 0.
      0. 0. 0. 0. 4.88095321e-02 0. 0. 0. 0. 0. 0. 0. 0. 0. 0. 0. 0. 0.
      0. 0. 0. 0. 0. 0. 0. 0. 0. 0. 2.44047660e-02 0. 0. 0.
      7.32143000e-02 0. 0. 0. 0. 0. 0. 0. 0. 0. 0. 0. 0. 0. 0. 0. 0. 0.
      0. 0. 0. 0. 0. 0. 0. 0. 0. 0. 0. 0. 0. 0. 0. 0. 0. 0.
      2.44047660e-02 0. 0. 0. 0. 0. 0. 0. 0. 0. 0. 0. 0. 0. 0. 0. 0. 0.
      0. 0. 0. 0. 0. 2.44047660e-02 7.56547749e-01 0. 0. 2.44047660e-02
      1.70833364e-01 2.44047660e-02 2.44047660e-02 9.76190642e-02
      4.88095321e-02 0. 0. 0. 0. 0. 0. 0. 7.32143000e-02 0. 0. 0. 0. 0.
      0. 0. 0. 0. 0. 0. 0. 0. 0. 0. 0. 0. 0. 0. 0. 0. 0. 0. 0. 0. 0. 0.
      0. 0. 0. 0. 0. 0. 0. 0. 0. 0. 0. 0. 0. 0. 0. 0. 0. 0. 0. 0. 0. 0.
      0. 0. 0. 0. 0. 0. 0. 0. 0. 0. 0. 0. 0. 0. 0. 0. 0. 0. 0. 0. 0. 0.
      0. 0. 0. 0. 0. 0. 0. 0. 0. 0. 0. 0. 0. 2.44047660e-02 0. 0. 0. 0.
      0. 0. 0. 0. 0. 0. 0. 0. 0. 0. 0. 0. 0. 0. 2.44047660e-02 0. 0. 0.
      0. 0. 0. 0. 5.12500107e-01 2.44047660e-02 0. 0. 4.88095321e-02
      4.88095321e-02 2.44047660e-02 2.92857200e-01</_>
    <_>
      6.24059021e-01 5.65570652e-01 5.39147675e-01 0. 0. 0. 0. 0. 0. 0.
      0. 0. 0. 0. 0. 0. 0. 0. 0. 0. 0. 0. 0. 0. 0. 0. 0. 0. 0. 0. 0. 0.
      0. 0. 0. 0. 0. 0. 0. 0. 0. 0. 0. 0. 0. 0. 0. 0. 0. 0. 0. 0. 0. 0.
      0. 0. 0. 0. 0. 0. 0. 0. 0. 0. 0. 0. 0. 0. 0. 0. 0. 0. 0. 0. 0. 0.
      0. 0. 0. 0. 0. 0. 0. 0. 0. 0. 0. 0. 0. 0. 0. 0. 0. 0. 0. 0. 0. 0.
      0. 0. 0. 0. 0. 0. 0. 0. 0. 0. 0. 0. 0. 0. 0. 0. 0. 0. 0. 0. 0. 0.
      0. 0. 0. 0. 0. 0. 0. 0. 0. 0. 0. 0. 4.06249970e-01 0. 0. 0. 0. 0.
      0. 0. 0. 0. 0. 0. 0. 0. 0. 0. 0. 0. 0. 0. 0. 0. 0. 0. 0. 0. 0. 0.
      0. 0. 0. 0. 0. 0. 0. 0. 4.68750000e-01 0. 0. 0. 0. 0.
      2.81250000e-01 4.68750000e-01 0. 0. 0. 0. 0. 0. 0. 0. 0. 0. 0. 0.
      0. 0. 0. 0. 0. 0. 0. 0. 0. 0. 0. 0. 0. 0. 0. 0. 0. 0. 0. 0. 0. 0.
      0. 5.62500000e-01 0. 0. 0. 0. 0. 0. 0. 0. 0. 0. 0. 0. 0. 0. 0. 0.
      0. 0. 0. 0. 0. 0. 0. 0. 0. 0. 0. 0. 0. 0. 0. 0. 0. 0. 0.
      3.84047702e-02 0. 0. 0. 1.15214311e-01 0. 3.84047702e-02
      3.84047702e-02 0. 0. 0. 0. 0. 0. 0. 0. 0. 0. 0. 0. 0. 0. 0. 0. 0.
      0. 0. 0. 0. 0. 0. 0. 7.68095404e-02 0. 0. 3.84047702e-02 0. 0. 0.
      0. 0. 0. 0. 0. 0. 0. 0. 0. 0. 0. 0. 0. 0. 0. 0. 0. 0. 0. 0. 0. 0.
      0. 0. 0. 0. 0. 0. 0. 3.84047702e-02 0. 0. 0. 0. 0. 0. 0. 0. 0. 0.
      0. 0. 0. 0. 0. 3.84047702e-02 0. 0. 0. 0. 0. 0. 3.84047702e-02
      2.68833399e-01 0. 0. 0. 0. 0. 0. 3.84047702e-02 8.06500196e-01 0.
      0. 3.84047702e-02 0. 0. 0. 3.84047687e-01 0. 0. 0. 0. 0. 0. 0. 0.
      0. 0. 0. 0. 0. 0. 0. 0. 0. 0. 0. 0. 0. 0. 0. 0. 3.84047702e-02 0.
      0. 0. 0. 0. 0. 0. 0. 0. 0. 0. 0. 0. 0. 0. 0. 0. 0. 0. 0. 0. 0. 0.
      0. 0. 0. 0. 0. 0. 0. 0. 0. 3.84047702e-02 0. 3.84047702e-02 0. 0.
      0. 0. 0. 0. 0. 0. 0. 0. 0. 0. 0. 0. 0. 0. 0. 0. 0. 0. 0. 0. 0. 0.
      0. 0. 0. 0. 3.84047702e-02 7.68095404e-02 0. 7.68095404e-02 0. 0.
      0. 0. 0. 0. 0. 0. 0. 0. 0. 0. 0. 0. 0. 0. 0. 0. 0. 2.68833399e-01
      7.68095404e-02 0. 0. 0. 0. 0. 0. 3.84047702e-02</_>
    <_>
      5.94870508e-01 5.45204461e-01 5.90661526e-01 9.99130189e-01 0. 0.
      0. 0. 0. 1.20377131e-02 1.20377131e-02 0. 0. 0. 0. 0. 0. 0. 0. 0.
      0. 0. 0. 0. 0. 0. 0. 0. 0. 0. 0. 0. 0. 0. 0. 0. 0. 0. 0. 0.
      1.20377131e-02 0. 0. 0. 0. 0. 3.61131392e-02 0. 0. 0. 0. 0. 0. 0.
      0. 0. 0. 0. 0. 0. 0. 0. 0. 0. 0. 0. 0. 0. 0. 0. 0. 0. 0. 0. 0. 0.
      0. 0. 0. 0. 0. 0. 0. 0. 0. 0. 0. 0. 0. 0. 0. 0. 0. 0. 0. 0. 0. 0.
      0. 0. 0. 0. 0. 0. 0. 0. 0. 0. 0. 0. 0. 0. 0. 0. 0. 0. 0. 0. 0. 0.
      0. 0. 0. 0. 0. 0. 0. 0. 0. 0. 0. 0. 0. 0. 0. 0. 0. 0. 0. 0. 0. 0.
      0. 0. 0. 0. 0. 0. 0. 0. 0. 0. 0. 0. 0. 0. 0. 0. 0. 0. 0. 0. 0. 0.
      0. 0. 0. 0. 0. 0. 0. 0. 0. 0. 0. 0. 0. 0. 0. 0. 0. 0. 0. 0. 0. 0.
      0. 0. 0. 0. 0. 0. 0. 0. 0. 0. 0. 0. 0. 0. 0. 0. 0. 0. 0. 0. 0. 0.
      0. 0. 0. 0. 0. 0. 0. 0. 0. 0. 0. 4.70881611e-02 0. 4.70881611e-02
      0. 0. 0. 0. 4.70881611e-02 0. 0. 0. 0. 0. 0. 1.88352644e-01
      2.35440806e-01 0. 0. 0. 0. 0. 0. 0. 4.70881611e-02 4.70881611e-02
      0. 0. 0. 4.70881611e-02 0. 1.88352644e-01 1.88352644e-01 0. 0. 0.
      0. 0. 0. 0. 0. 0. 0. 0. 0. 0. 0. 0. 0. 0. 0. 0. 0. 0. 0. 0. 0. 0.
      0. 0. 0. 0. 0. 0. 9.41763222e-02 4.70881611e-02 0. 0. 0. 0. 0. 0.
      0. 4.70881611e-02 0. 0. 0. 0. 0. 0. 0. 0. 0. 0. 0. 0. 0. 0. 0. 0.
      0. 0. 0. 0. 0. 0. 4.70881611e-02 0. 0. 0. 0. 0. 0. 0. 0.
      4.70881611e-02 0. 0. 0. 0. 0. 0. 4.70881611e-02 4.70881611e-02 0.
      0. 0. 0. 0. 0. 0. 0. 0. 0. 0. 0. 0. 0. 1.88352644e-01
      4.70881611e-02 0. 0. 0. 0. 0. 0. 0. 0. 0. 0. 0. 4.70881611e-02 0.
      0. 9.41763222e-02 0. 0. 0. 0. 0. 0. 0. 0. 4.70881611e-02 0. 0. 0.
      0. 0. 0. 0. 4.70881611e-02 0. 0. 0. 0. 0. 0. 0. 0. 0. 0. 0. 0. 0.
      0. 0. 0. 0. 0. 0. 0. 0. 0. 0. 0. 0. 0. 0. 4.70881611e-02 0. 0.
      4.70881611e-02 0. 0. 0. 0. 0. 0. 0. 0. 0. 0. 0. 0. 0. 0. 0. 0. 0.
      0. 0. 0. 0. 0. 0. 0. 0. 0. 0. 0. 0. 0. 0. 9.41763222e-02
      1.88352644e-01 6.59234285e-01 0. 0. 0. 0. 0. 0. 0. 4.70881611e-02
      0. 0. 0. 0. 4.70881611e-02 1.41264483e-01 0. 2.35440806e-01 0. 0.
      0. 4.70881611e-02 0. 1.88352644e-01 0. 4.70881611e-02 0. 0. 0.
      4.70881611e-02 4.70881611e-02 3.76705289e-01</_>
    <_>
      5.93729556e-01 5.36715329e-01 5.99517882e-01 1. 0. 0. 0. 0. 0. 0.
      0. 0. 0. 0. 0. 0. 0. 0. 0. 0. 0. 0. 0. 0. 0. 0. 0. 0. 0. 0. 0. 0.
      0. 0. 0. 0. 0. 0. 0. 0. 0. 0. 0. 0. 0. 0. 0. 0. 0. 0. 0. 0. 0. 0.
      0. 0. 0. 0. 0. 0. 0. 0. 0. 0. 0. 0. 0. 0. 0. 0. 0. 0. 0. 0. 0. 0.
      0. 0. 0. 0. 0. 0. 0. 0. 0. 0. 0. 0. 0. 0. 0. 0. 0. 0. 0. 0. 0. 0.
      0. 0. 0. 0. 0. 0. 0. 0. 0. 0. 0. 0. 0. 0. 0. 0. 0. 0. 0. 0. 0. 0.
      0. 0. 0. 0. 0. 0. 0. 0. 0. 0. 0. 0. 0. 0. 0. 0. 0. 0. 0. 0. 0. 0.
      0. 0. 0. 0. 0. 0. 0. 0. 0. 0. 0. 0. 0. 0. 0. 0. 0. 0. 0. 0. 0. 0.
      0. 0. 0. 0. 0. 0. 0. 0. 0. 0. 0. 0. 0. 0. 0. 0. 0. 0. 0. 0. 0. 0.
      0. 0. 0. 0. 0. 0. 0. 0. 0. 0. 0. 0. 0. 0. 0. 0. 0. 0. 0. 0. 0. 0.
      0. 0. 0. 0. 0. 0. 0. 0. 0. 0. 0. 1.17800012e-01 0. 5.89000061e-02
      2.94500031e-02 0. 0. 0. 0. 0. 0. 0. 0. 0. 0. 0. 0. 0. 0. 0. 0. 0.
      0. 0. 0. 2.94500031e-02 0. 0. 0. 0. 0. 0. 0. 1.17800012e-01 0. 0.
      0. 0. 0. 0. 0. 0. 0. 0. 0. 0. 0. 0. 0. 2.94500031e-02 0. 0. 0. 0.
      0. 0. 0. 0. 2.94500031e-02 0. 0. 2.94500031e-02 0. 1.47250012e-01
      0. 2.94500031e-02 0. 0. 0. 0. 0. 0. 0. 0. 0. 0. 0. 0. 0. 0. 0. 0.
      0. 0. 2.94500031e-02 0. 0. 0. 0. 0. 0. 0. 0. 0. 0. 0. 0.
      5.89000061e-02 0. 2.94500031e-02 0. 0. 0. 0. 0. 0. 0. 0. 0. 0. 0.
      0. 0. 0. 0. 0. 0. 0. 0. 0. 0. 0. 0. 0. 0. 2.94500031e-02
      2.94500031e-02 0. 2.94500031e-02 2.94500031e-02 0. 0.
      2.94500031e-02 0. 2.94500031e-02 2.94500031e-02 0. 0. 0. 0. 0. 0.
      0. 0. 0. 0. 0. 0. 0. 0. 0. 0. 0. 0. 0. 0. 0. 0. 0. 0.
      2.94500031e-02 2.94500031e-02 2.94500031e-02 0. 0. 0. 0. 0. 0. 0.
      0. 0. 0. 0. 0. 0. 0. 0. 0. 0. 0. 0. 0. 2.94500031e-02 0. 0. 0. 0.
      2.94500031e-02 0. 0. 0. 2.94500031e-02 2.94500031e-02
      2.94500031e-02 0. 2.94500031e-02 0. 0. 0. 1.17800012e-01 0. 0. 0.
      0. 0. 0. 0. 2.94500031e-02 0. 0. 0. 0. 0. 0. 0. 0. 0. 0. 0. 0. 0.
      2.94500031e-02 0. 8.83500129e-02 2.94500031e-02 1.17800012e-01
      5.89000061e-02 2.06150025e-01 0. 2.94500031e-02 2.94500031e-02
      8.83500129e-02 0. 2.94500031e-02 0. 0. 0. 0. 5.89000061e-02
      5.89000061e-02 0. 2.94500031e-02 0. 8.83500129e-02 0.
      2.94500031e-02 0. 2.94500031e-02 0. 2.94500031e-02 0.
      5.89000061e-02 5.89000061e-02 1.47250012e-01 2.94500031e-02
      8.83500099e-01</_>
    <_>
      5.59318125e-01 5.68989336e-01 6.02838576e-01 1. 0. 0. 0. 0. 0. 0.
      0. 0. 0. 0. 0. 0. 0. 0. 0. 0. 0. 0. 0. 0. 0. 0. 0. 0. 0. 0. 0. 0.
      0. 0. 0. 0. 0. 0. 0. 0. 0. 0. 0. 0. 0. 0. 0. 0. 0. 0. 0. 0. 0. 0.
      0. 0. 0. 0. 0. 0. 0. 0. 0. 0. 0. 0. 0. 0. 0. 0. 0. 0. 0. 0. 0. 0.
      0. 0. 0. 0. 0. 0. 0. 0. 0. 0. 0. 0. 0. 0. 0. 0. 0. 0. 0. 0. 0. 0.
      0. 0. 0. 0. 0. 0. 0. 0. 0. 0. 0. 0. 0. 0. 0. 0. 0. 0. 0. 0. 0. 0.
      0. 0. 0. 0. 0. 0. 0. 0. 0. 0. 0. 0. 0. 0. 0. 0. 0. 0. 0. 0. 0. 0.
      0. 0. 0. 0. 0. 0. 0. 0. 0. 0. 0. 0. 0. 0. 0. 0. 0. 0. 0. 0. 0. 0.
      0. 0. 0. 0. 0. 0. 0. 0. 0. 0. 0. 0. 0. 0. 0. 0. 0. 0. 0. 0. 0. 0.
      0. 0. 0. 0. 0. 0. 0. 0. 0. 0. 0. 0. 0. 0. 0. 0. 0. 0. 0. 0. 0. 0.
      0. 0. 0. 0. 0. 0. 0. 0. 0. 0. 0. 3.41195613e-02 0. 0.
      3.41195613e-02 0. 0. 0. 0. 6.82391226e-02 0. 0. 0. 3.41195613e-02
      0. 3.41195613e-02 3.07076037e-01 0. 0. 0. 0. 0. 0. 0. 0. 0. 0. 0.
      0. 0. 0. 0. 0. 0. 0. 0. 0. 0. 0. 0. 0. 0. 0. 0. 0. 0. 0. 0. 0. 0.
      0. 0. 0. 0. 0. 0. 0. 0. 0. 0. 0. 0. 0. 0. 3.41195613e-02 0. 0. 0.
      0. 0. 0. 0. 0. 0. 0. 0. 0. 0. 0. 0. 0. 0. 0. 0. 0. 0. 0. 0. 0. 0.
      0. 0. 0. 0. 0. 0. 0. 0. 0. 0. 0. 0. 0. 0. 0. 0. 0. 0. 0. 0. 0. 0.
      0. 0. 0. 0. 0. 0. 0. 0. 0. 0. 0. 0. 0. 0. 0. 0. 3.41195613e-02
      3.41195613e-02 3.41195613e-02 0. 0. 0. 0. 0. 6.82391226e-02
      1.02358684e-01 3.41195613e-02 0. 6.82391226e-02 0. 0. 0.
      4.43554282e-01 0. 0. 0. 0. 0. 0. 0. 0. 3.41195613e-02 0. 0. 0. 0.
      0. 0. 0. 0. 0. 0. 0. 0. 0. 0. 0. 0. 0. 0. 0. 0. 0. 0. 0. 0. 0. 0.
      0. 0. 0. 0. 0. 3.41195613e-02 0. 0. 0. 0. 0. 0. 0. 0. 0. 0. 0. 0.
      0. 0. 3.41195613e-02 3.41195613e-02 0. 0. 0. 0. 0. 0.
      3.41195613e-02 0. 0. 0. 0. 0. 0. 0. 0. 0. 0. 0. 0. 0. 0. 0. 0. 0.
      0. 0. 3.41195613e-02 0. 0. 0. 3.41195613e-02 0. 0. 0. 0. 0. 0. 0.
      3.41195613e-02 5.80032527e-01 3.41195613e-02 0. 0. 0. 0. 0.
      1.36478245e-01 1.02358684e-01 0. 0. 0. 0. 0. 0. 5.45912981e-01</_>
    <_>
      5.68193078e-01 5.77172637e-01 5.86539328e-01 0. 0. 0. 0. 0. 0. 0.
      0. 0. 0. 0. 0. 0. 0. 0. 0. 0. 0. 0. 0. 0. 0. 0. 0. 0. 0. 0. 0. 0.
      0. 0. 0. 0. 0. 0. 0. 0. 0. 0. 0. 0. 0. 0. 9.99954581e-01
      9.52337775e-03 0. 0. 0. 0. 0. 0. 0. 0. 0. 0. 0. 0. 0. 0. 0. 0. 0.
      0. 0. 0. 0. 0. 0. 0. 0. 0. 0. 0. 0. 0. 0. 0. 0. 0. 0. 0. 0. 0. 0.
      0. 0. 0. 0. 0. 0. 0. 0. 0. 0. 0. 0. 0. 0. 0. 0. 0. 0. 0. 0. 0. 0.
      0. 0. 0. 0. 0. 0. 0. 0. 0. 0. 0. 0. 0. 0. 0. 0. 0. 0. 0. 0. 0. 0.
      0. 0. 0. 0. 0. 0. 0. 0. 0. 0. 0. 0. 0. 0. 0. 0. 0. 0. 0. 0. 0. 0.
      0. 0. 0. 0. 0. 0. 0. 0. 0. 0. 0. 0. 0. 0. 0. 0. 0. 0. 0. 0. 0. 0.
      0. 0. 0. 0. 0. 0. 0. 0. 0. 0. 0. 0. 0. 0. 0. 0. 0. 0. 0. 0. 0. 0.
      0. 0. 0. 0. 0. 0. 0. 0. 0. 0. 0. 0. 0. 0. 0. 0. 0. 0. 0. 0. 0. 0.
      0. 0. 0. 0. 0. 0. 0. 0. 0. 0. 0. 0. 2.75240950e-02 0. 0.
      8.25722814e-02 0. 0. 0. 0. 0. 0. 0. 0. 0. 0. 0. 0. 0. 0. 0. 0. 0.
      0. 0. 0. 0. 0. 0. 0. 0. 0. 0. 0. 0. 0. 0. 0. 0. 0. 0. 0. 0. 0. 0.
      0. 5.50481901e-02 0. 0. 0. 2.75240950e-02 0. 8.25722814e-02
      2.75240950e-02 0. 0. 0. 0. 0. 0. 0. 0. 0. 0. 0. 0. 0. 0. 0. 0. 0.
      0. 0. 0. 0. 0. 0. 0. 0. 0. 0. 0. 0. 0. 0. 0. 0. 0. 0. 0. 0. 0. 0.
      0. 0. 0. 0. 0. 0. 0. 0. 0. 0. 0. 0. 0. 0. 0. 0. 0. 8.25722814e-02
      0. 0. 0. 0. 0. 8.25722814e-02 2.75240950e-02 0. 0. 0. 0. 0. 0. 0.
      8.25722814e-02 0. 0. 0. 0. 0. 0. 2.75240950e-02 1.65144563e-01 0.
      0. 0. 0. 0. 0. 0. 0. 0. 0. 0. 0. 0. 0. 0. 2.75240950e-02 0. 0. 0.
      0. 0. 0. 0. 0. 0. 0. 0. 0. 0. 0. 0. 0. 0. 0. 0. 0. 0. 0. 0. 0. 0.
      0. 0. 0. 0. 0. 0. 2.75240950e-02 0. 0. 0. 0. 0. 0. 0. 0. 0. 0. 0.
      0. 0. 0. 0. 1.10096380e-01 0. 0. 0. 0. 0. 0. 0. 0. 0. 0. 0. 0. 0.
      0. 0. 0. 8.25722814e-02 0. 0. 5.50481901e-02 0. 0. 0.
      2.75240950e-02 0. 0. 0. 0. 0. 0. 0. 2.75240950e-02 0.
      5.50481901e-02 0. 1.10096380e-01 0. 0. 0. 2.75240950e-02
      3.57813239e-01 1.37620479e-01 0. 5.50481901e-02 8.25722814e-02
      5.50481901e-02 5.50481901e-02 8.53246927e-01</_>
    <_>
      6.37604177e-01 5.67038238e-01 5.21467745e-01 0. 0. 0. 0. 0. 0. 0.
      0. 0. 0. 0. 0. 0. 0. 0. 0. 0. 0. 0. 0. 0. 0. 0. 0. 0. 0. 0. 0. 0.
      0. 0. 0. 0. 0. 0. 0. 0. 0. 0. 0. 0. 0. 0. 0. 0. 0. 0. 0. 0. 0. 0.
      0. 0. 0. 0. 0. 0. 0. 0. 0. 0. 0. 0. 0. 0. 0. 0. 0. 0. 0. 0. 0. 0.
      0. 0. 0. 0. 0. 0. 0. 0. 0. 0. 0. 0. 0. 6.91137373e-01 0. 0. 0. 0.
      0. 0. 0. 0. 0. 0. 0. 0. 0. 0. 0. 0. 0. 0. 0. 0. 0. 0. 0. 0. 0. 0.
      0. 0. 0. 0. 0. 0. 0. 0. 0. 7.22552717e-01 0. 0. 0. 0. 0.
      1.57076679e-02 0. 0. 0. 0. 0. 0. 0. 0. 0. 0. 0. 0. 0. 0. 0. 0. 0.
      0. 0. 0. 0. 0. 0. 0. 0. 0. 0. 0. 0. 0. 0. 0. 0. 0. 0. 0. 0. 0. 0.
      0. 0. 0. 0. 0. 0. 0. 0. 0. 0. 0. 0. 0. 0. 0. 0. 0. 0. 0. 0. 0. 0.
      0. 0. 0. 0. 0. 0. 0. 0. 0. 0. 0. 0. 0. 0. 0. 0. 0. 0. 0. 0. 0. 0.
      0. 0. 0. 0. 0. 0. 0. 0. 0. 0. 0. 3.25644799e-02 3.25644799e-02 0.
      0. 0. 0. 0. 0. 3.25644799e-02 0. 0. 0. 0. 0. 0. 0. 0. 0. 0. 0. 0.
      0. 0. 0. 0. 0. 0. 0. 0. 0. 0. 0. 0. 0. 0. 0. 0. 0. 0. 0. 0. 0. 0.
      0. 0. 0. 0. 0. 0. 0. 0. 0. 0. 0. 0. 0. 3.25644799e-02 0. 0. 0. 0.
      0. 0. 0. 0. 0. 0. 0. 0. 0. 0. 0. 0. 0. 0. 0. 0. 0. 0. 0. 0. 0. 0.
      0. 0. 0. 0. 0. 0. 0. 0. 0. 0. 0. 0. 0. 0. 0. 0. 0. 0. 0. 0. 0. 0.
      6.51289597e-02 0. 0. 0. 0. 0. 0. 0. 3.25644799e-02 0. 0. 0. 0. 0.
      3.25644799e-02 0. 1.95386887e-01 3.25644799e-02 0. 3.25644799e-02
      0. 0. 0. 8.46676469e-01 3.25644799e-02 0. 0. 0. 0. 0. 0.
      1.95386887e-01 0. 0. 0. 0. 0. 0. 0. 0. 0. 0. 0. 0. 0. 0. 0. 0. 0.
      0. 0. 0. 0. 0. 0. 0. 0. 0. 0. 0. 0. 0. 0. 0. 0. 0. 0. 0. 0. 0. 0.
      0. 0. 0. 0. 0. 0. 0. 0. 0. 0. 3.25644799e-02 0. 3.25644799e-02 0.
      0. 0. 1.30257919e-01 0. 0. 0. 0. 0. 0. 0. 6.51289597e-02 0. 0. 0.
      0. 0. 0. 0. 0. 0. 0. 0. 0. 0. 0. 0. 0. 6.51289597e-02
      3.25644799e-02 0. 3.25644799e-02 0. 0. 0. 1.62822396e-01 0. 0. 0.
      0. 0. 0. 0. 0. 6.51289597e-02 9.76934433e-02 0. 1.30257919e-01 0.
      0. 0. 2.27951363e-01 3.25644799e-02 0. 0. 0. 0. 3.25644799e-02 0.
      2.27951363e-01</_>
    <_>
      5.81376016e-01 5.71827233e-01 5.78805208e-01 9.99999940e-01 0. 0.
      0. 0. 0. 0. 0. 0. 0. 0. 0. 0. 0. 0. 0. 0. 0. 0. 0. 0. 0. 0. 0. 0.
      0. 0. 0. 0. 0. 0. 0. 0. 0. 0. 0. 0. 0. 0. 0. 0. 0. 0. 0. 0. 0. 0.
      0. 0. 0. 0. 0. 0. 0. 0. 0. 0. 0. 0. 0. 0. 0. 0. 0. 0. 0. 0. 0. 0.
      0. 0. 0. 0. 0. 0. 0. 0. 0. 0. 0. 0. 0. 0. 0. 0. 0. 0. 0. 0. 0. 0.
      0. 0. 0. 0. 0. 0. 0. 0. 0. 0. 0. 0. 0. 0. 0. 0. 0. 0. 0. 0. 0. 0.
      0. 0. 0. 0. 0. 0. 0. 0. 0. 0. 0. 0. 0. 0. 0. 0. 0. 0. 0. 0. 0. 0.
      0. 0. 0. 0. 0. 0. 0. 0. 0. 0. 0. 0. 0. 0. 0. 0. 0. 0. 0. 0. 0. 0.
      0. 0. 0. 0. 0. 0. 0. 0. 0. 0. 0. 0. 0. 0. 0. 0. 0. 0. 0. 0. 0. 0.
      0. 0. 0. 0. 0. 0. 0. 0. 0. 0. 0. 0. 0. 0. 0. 0. 0. 0. 0. 0. 0. 0.
      0. 0. 0. 0. 0. 0. 0. 0. 0. 0. 0. 0. 0. 0. 0. 0. 0. 0. 0. 0. 0. 0.
      0. 2.00643092e-02 0. 0. 0. 0. 0. 0. 3.00964653e-01 0. 0. 0. 0. 0.
      0. 0. 0. 0. 0. 0. 0. 0. 0. 0. 0. 0. 0. 0. 0. 0. 0. 0. 0. 0. 0. 0.
      0. 0. 0. 0. 0. 0. 0. 0. 0. 0. 0. 0. 0. 0. 0. 0. 0. 0. 0. 0. 0. 0.
      0. 0. 0. 0. 0. 0. 0. 0. 0. 0. 0. 0. 0. 0. 2.00643092e-02 0. 0. 0.
      0. 0. 0. 0. 0. 0. 0. 0. 0. 0. 0. 0. 0. 0. 0. 0. 0. 0. 0. 0. 0. 0.
      0. 0. 0. 0. 0. 0. 2.00643092e-02 0. 0. 0. 0. 0. 0. 0.
      2.00643092e-02 0. 0. 0. 0. 0. 0. 0. 4.01286185e-02 2.00643092e-02
      0. 0. 0. 0. 0. 0. 4.01286185e-02 4.01286185e-02 0. 0. 0. 0. 0. 0.
      9.22958255e-01 0. 0. 0. 0. 0. 0. 0. 0. 2.00643092e-02 0. 0. 0. 0.
      0. 0. 2.00643092e-02 0. 0. 0. 0. 0. 0. 0. 0. 0. 0. 0. 0. 0. 0. 0.
      0. 2.00643092e-02 0. 0. 0. 0. 0. 0. 0. 0. 0. 0. 0. 0. 0. 0. 0. 0.
      0. 0. 0. 0. 0. 0. 0. 0. 0. 0. 0. 0. 0. 0. 4.01286185e-02 0. 0. 0.
      0. 0. 0. 0. 0. 0. 0. 0. 0. 0. 0. 0. 0. 0. 0. 0. 0. 0. 0. 0. 0. 0.
      0. 0. 0. 0. 0. 0. 0. 1.80578783e-01 0. 0. 0. 0. 0. 2.00643092e-02
      2.00643092e-02 6.01929277e-02 2.00643092e-02 0. 0. 2.00643092e-02
      0. 0. 1.00321546e-01</_>
    <_>
      5.82460880e-01 6.02402210e-01 5.45757234e-01 1.58974871e-01 0. 0.
      0. 0. 0. 1.76638737e-02 0. 0. 0. 0. 0. 0. 0. 0. 0. 0. 0. 0. 0. 0.
      0. 0. 0. 0. 0. 0. 0. 0. 0. 0. 0. 0. 0. 0. 0. 7.06554949e-02 0. 0.
      0. 0. 0. 3.17949742e-01 8.12538207e-01 0. 0. 0. 0. 0.
      3.53277475e-02 0. 0. 0. 0. 0. 0. 0. 0. 0. 0. 0. 0. 0. 0. 0. 0. 0.
      0. 0. 0. 0. 0. 0. 0. 0. 0. 0. 0. 0. 3.53277475e-02 0. 0. 0. 0. 0.
      3.53277475e-02 3.70941371e-01 0. 0. 0. 0. 0. 0. 0. 0. 0. 0. 0. 0.
      0. 0. 0. 0. 0. 0. 0. 0. 0. 0. 0. 0. 0. 0. 0. 0. 0. 0. 0. 0. 0. 0.
      0. 0. 0. 0. 0. 0. 0. 1.76638737e-02 2.47294232e-01 0. 0. 0. 0. 0.
      0. 0. 0. 0. 0. 0. 0. 0. 0. 0. 0. 0. 0. 0. 0. 0. 0. 0. 0. 0. 0. 0.
      0. 0. 0. 0. 0. 0. 0. 0. 0. 0. 0. 0. 0. 0. 1.76638737e-02
      7.06554949e-02 0. 0. 0. 0. 0. 0. 0. 0. 0. 0. 0. 0. 0. 0. 0. 0. 0.
      0. 0. 0. 0. 0. 0. 0. 0. 0. 0. 0. 0. 0. 0. 0. 0. 0. 0. 0. 0. 0. 0.
      0. 0. 0. 0. 2.83157498e-01 0. 0. 4.71929163e-02 0. 0.
      9.43858325e-02 2.35964581e-01 1.41578749e-01 4.71929163e-02 0. 0.
      0. 0. 4.71929163e-02 1.88771665e-01 0. 0. 0. 0. 0. 0. 0. 0. 0. 0.
      0. 0. 4.71929163e-02 4.71929163e-02 0. 0. 0. 0. 0. 0. 0. 0. 0.
      4.71929163e-02 0. 0. 0. 0. 0. 0. 0. 0. 0. 4.71929163e-02 0. 0.
      4.71929163e-02 0. 0. 0. 4.71929163e-02 0. 0. 0. 4.71929163e-02 0.
      4.71929163e-02 9.43858325e-02 0. 0. 0. 4.71929163e-02
      4.71929163e-02 0. 0. 4.71929163e-02 0. 0. 0. 0. 0. 0. 0.
      4.71929163e-02 0. 0. 0. 0. 0. 0. 0. 0. 0. 0. 0. 0. 0. 0. 0. 0.
      4.71929163e-02 0. 0. 4.71929163e-02 0. 0. 0. 0. 0. 0. 0. 0. 0. 0.
      0. 0. 9.43858325e-02 4.71929163e-02 0. 0. 0. 0. 0. 0.
      1.41578749e-01 0. 0. 0. 0. 0. 1.41578749e-01 9.43858325e-02
      2.35964581e-01 1.41578749e-01 0. 1.41578749e-01 0. 0. 0.
      2.35964581e-01 0. 4.71929163e-02 0. 0. 0. 0. 4.71929163e-02
      1.88771665e-01 0. 0. 0. 0. 0. 0. 0. 0. 0. 0. 0. 0. 0. 0. 0.
      4.71929163e-02 0. 0. 0. 0. 0. 0. 0. 0. 0. 0. 0. 0. 0. 0. 0. 0. 0.
      0. 0. 0. 0. 0. 0. 0. 0. 0. 0. 0. 4.71929163e-02 0. 0. 0.
      9.43858325e-02 0. 0. 0. 0. 0. 0. 4.71929163e-02 0. 4.71929163e-02
      0. 4.71929163e-02 0. 0. 0. 0. 0. 0. 0. 0. 0. 0. 0. 0. 0. 0. 0. 0.
      0. 0. 0. 0. 1.41578749e-01 9.43858325e-02 4.71929163e-02 0. 0. 0.
      0. 9.43858325e-02 4.71929163e-02 0. 0. 0. 0. 0. 0. 9.43858325e-02
      4.71929163e-01 2.83157498e-01 0. 4.71929163e-02 4.71929163e-02 0.
      4.71929163e-02 1.88771665e-01 0. 4.71929163e-02 0. 0.
      9.43858325e-02 9.43858325e-02 9.43858325e-02 2.35964581e-01</_>
    <_>
      6.67342186e-01 5.19519806e-01 5.33623040e-01 0. 0. 0. 0. 0. 0. 0.
      0. 0. 0. 0. 0. 0. 0. 0. 0. 0. 0. 0. 0. 0. 0. 0. 0. 0. 0. 0. 0. 0.
      0. 0. 0. 0. 0. 0. 0. 1.83377370e-01 1.83377370e-01 0. 0. 0. 0. 0.
      9.65787470e-01 0. 0. 0. 0. 0. 0. 0. 0. 0. 0. 0. 0. 0. 0. 0. 0. 0.
      0. 0. 0. 0. 0. 0. 0. 0. 0. 0. 0. 0. 0. 0. 0. 0. 0. 0. 0. 0. 0. 0.
      0. 0. 0. 0. 0. 0. 0. 0. 0. 0. 0. 0. 0. 0. 0. 0. 0. 0. 0. 0. 0. 0.
      0. 0. 0. 0. 0. 0. 0. 0. 0. 0. 0. 0. 0. 0. 0. 0. 0. 0. 0. 0. 0. 0.
      0. 0. 0. 0. 0. 0. 0. 0. 0. 0. 0. 0. 0. 0. 0. 0. 0. 0. 0. 0. 0. 0.
      0. 0. 0. 0. 0. 0. 0. 0. 0. 0. 0. 0. 0. 0. 0. 0. 0. 0. 0. 0. 0. 0.
      0. 0. 0. 0. 0. 0. 0. 0. 0. 0. 0. 0. 0. 0. 0. 0. 0. 0. 0. 0. 0. 0.
      0. 0. 0. 0. 0. 0. 0. 0. 0. 0. 0. 0. 0. 0. 0. 0. 0. 0. 0. 0. 0. 0.
      0. 0. 3.55110429e-02 0. 0. 0. 0. 0. 3.55110429e-02 2.13066250e-01
      0. 0. 3.55110429e-02 0. 7.10220858e-02 3.55110429e-02
      4.26132500e-01 3.55110429e-02 0. 0. 0. 0. 0. 0. 0. 0. 0. 0. 0. 0.
      0. 0. 3.55110429e-02 0. 0. 0. 0. 0. 0. 0. 0. 0. 0. 0. 0. 0. 0. 0.
      0. 0. 0. 0. 0. 0. 0. 0. 0. 0. 0. 0. 0. 0. 0. 0. 3.55110429e-02 0.
      0. 0. 0. 0. 0. 0. 0. 0. 0. 0. 0. 0. 0. 0. 7.10220858e-02 0. 0. 0.
      0. 0. 0. 0. 0. 0. 0. 0. 0. 0. 0. 0. 0. 0. 0. 0. 0. 0. 0. 0. 0. 0.
      0. 0. 0. 0. 0. 0. 0. 0. 0. 0. 0. 0. 0. 0. 0. 3.55110429e-02 0. 0.
      0. 0. 0. 0. 1.06533125e-01 2.13066250e-01 0. 0. 3.55110429e-02
      7.10220858e-02 0. 0. 1.06533125e-01 2.13066250e-01 0. 0. 0.
      3.55110429e-02 0. 3.55110429e-02 6.39198780e-01 3.55110429e-02 0.
      0. 0. 0. 0. 0. 0. 0. 0. 0. 0. 0. 0. 0. 1.77555218e-01 0. 0. 0. 0.
      0. 0. 0. 0. 0. 0. 0. 0. 0. 0. 0. 0. 0. 0. 0. 0. 0. 0. 0. 0. 0. 0.
      0. 0. 0. 0. 0. 7.10220858e-02 3.55110429e-02 0. 0. 0. 0. 0. 0. 0.
      0. 0. 0. 0. 0. 0. 0. 0. 0. 0. 0. 0. 0. 0. 0. 0. 0. 0. 0. 0. 0. 0.
      0. 0. 0. 0. 0. 0. 0. 0. 0. 3.55110429e-02 0. 3.55110429e-02 0. 0.
      0. 0. 0. 7.10220858e-02 2.13066250e-01 3.55110429e-02 0. 0. 0.
      3.55110429e-02 0. 2.48577297e-01 3.55110429e-02 0. 0.
      3.55110429e-02 0. 0. 3.55110429e-02 2.48577297e-01</_>
    <_>
      6.23126507e-01 5.33913016e-01 5.71533203e-01 3.08157802e-01
      1.46741811e-02 0. 0. 0. 0. 0. 0. 0. 0. 0. 0. 0. 0. 0. 0. 0. 0. 0.
      0. 0. 0. 0. 0. 0. 0. 0. 0. 0. 0. 0. 0. 0. 0. 0. 0. 1.17393449e-01
      5.86967245e-02 0. 0. 0. 0. 0. 9.39147592e-01 0. 0. 0. 0. 0. 0. 0.
      0. 0. 0. 0. 0. 0. 0. 0. 0. 0. 0. 0. 0. 0. 0. 0. 0. 0. 0. 0. 0. 0.
      0. 0. 0. 0. 0. 0. 0. 1.46741811e-02 0. 0. 0. 0. 0. 7.33709037e-02
      0. 0. 0. 0. 0. 0. 0. 0. 0. 0. 0. 0. 0. 0. 0. 0. 0. 0. 0. 0. 0. 0.
      0. 0. 0. 0. 0. 0. 0. 0. 0. 0. 0. 0. 0. 0. 0. 0. 0. 0. 0. 0. 0. 0.
      0. 0. 0. 0. 0. 0. 0. 0. 0. 0. 0. 0. 0. 0. 0. 0. 0. 0. 0. 0. 0. 0.
      0. 0. 0. 0. 0. 0. 0. 0. 0. 0. 0. 0. 0. 0. 0. 0. 0. 0. 0. 0. 0. 0.
      0. 0. 0. 0. 0. 0. 0. 0. 0. 0. 0. 0. 0. 0. 0. 0. 0. 0. 0. 0. 0. 0.
      0. 0. 0. 0. 0. 0. 0. 0. 0. 0. 0. 0. 0. 0. 0. 0. 0. 0. 0.
      2.35339373e-01 3.92232276e-02 3.92232276e-02 0. 0. 0. 0.
      3.92232276e-02 3.92232276e-02 0. 0. 0. 0. 0. 0. 0. 0. 0. 0. 0. 0.
      0. 0. 3.92232276e-02 3.92232276e-02 0. 0. 0. 0. 0. 0.
      3.92232276e-02 7.84464553e-02 0. 0. 0. 0. 0. 0. 0. 0. 0. 0. 0. 0.
      0. 0. 0. 0. 0. 0. 0. 0. 0. 0. 0. 0. 0. 0. 0. 0. 0. 0. 0.
      7.84464553e-02 3.92232276e-02 0. 3.92232276e-02 0. 0. 0.
      3.92232276e-02 0. 0. 0. 0. 0. 0. 0. 7.84464553e-02 0. 0. 0. 0.
      3.92232276e-02 0. 0. 0. 0. 0. 0. 0. 0. 0. 0. 0. 0. 0. 0. 0. 0. 0.
      0. 0. 0. 3.92232276e-02 0. 3.92232276e-02 0. 0. 0. 3.92232276e-02
      7.84464553e-02 0. 0. 0. 0. 0. 0. 3.92232276e-02 0. 0. 0. 0. 0. 0.
      3.92232276e-02 0. 1.96116135e-01 0. 0. 3.92232276e-02 0. 0. 0. 0.
      1.17669687e-01 3.92232276e-02 3.92232276e-02 0. 0. 0. 0. 0. 0. 0.
      0. 3.92232276e-02 0. 0. 0. 3.92232276e-02 0. 0. 0. 0. 0. 0. 0. 0.
      0. 0. 0. 0. 0. 0. 0. 0. 0. 0. 0. 0. 0. 0. 0. 3.92232276e-02 0. 0.
      0. 0. 0. 0. 0. 7.84464553e-02 0. 3.92232276e-02 0. 0. 0. 0. 0. 0.
      3.92232276e-02 3.92232276e-02 0. 0. 0. 0. 3.92232276e-02 0.
      3.92232276e-02 0. 0. 0. 0. 0. 0. 0. 0. 0. 0. 0. 0. 0. 0. 0. 0. 0.
      0. 0. 0. 0. 0. 0. 3.92232276e-02 0. 0. 0. 0. 0. 0. 0. 0. 0. 0. 0.
      3.92232276e-02 0. 0. 7.84464553e-02 7.06018090e-01 3.92232276e-02
      0. 0. 7.84464553e-02 3.92232276e-02 3.92232276e-02 2.35339373e-01
      1.17669687e-01 0. 3.92232276e-02 3.92232276e-02 0. 3.92232276e-02
      7.84464553e-02 4.70678747e-01</_>
    <_>
      6.17817461e-01 5.31005085e-01 5.79944193e-01 9.99837697e-01 0. 0.
      0. 0. 0. 0. 0. 0. 0. 0. 0. 0. 0. 0. 0. 0. 0. 0. 0. 0. 0. 0. 0. 0.
      0. 0. 0. 0. 0. 0. 0. 0. 0. 0. 0. 1.80150941e-02 0. 0. 0. 0. 0. 0.
      0. 0. 0. 0. 0. 0. 0. 0. 0. 0. 0. 0. 0. 0. 0. 0. 0. 0. 0. 0. 0. 0.
      0. 0. 0. 0. 0. 0. 0. 0. 0. 0. 0. 0. 0. 0. 0. 0. 0. 0. 0. 0. 0. 0.
      0. 0. 0. 0. 0. 0. 0. 0. 0. 0. 0. 0. 0. 0. 0. 0. 0. 0. 0. 0. 0. 0.
      0. 0. 0. 0. 0. 0. 0. 0. 0. 0. 0. 0. 0. 0. 0. 0. 0. 0. 0. 0. 0. 0.
      0. 0. 0. 0. 0. 0. 0. 0. 0. 0. 0. 0. 0. 0. 0. 0. 0. 0. 0. 0. 0. 0.
      0. 0. 0. 0. 0. 0. 0. 0. 0. 0. 0. 0. 0. 0. 0. 0. 0. 0. 0. 0. 0. 0.
      0. 0. 0. 0. 0. 0. 0. 0. 0. 0. 0. 0. 0. 0. 0. 0. 0. 0. 0. 0. 0. 0.
      0. 0. 0. 0. 0. 0. 0. 0. 0. 0. 0. 0. 0. 0. 0. 0. 0. 0. 0. 0. 0. 0.
      2.77243480e-02 0. 0. 0. 0. 0. 0. 0. 0. 0. 0. 2.77243480e-02 0.
      2.77243480e-02 0. 0. 0. 0. 0. 0. 0. 0. 0. 0. 0. 0. 0. 0. 0.
      2.77243480e-02 0. 0. 0. 0. 0. 0. 0. 0. 0. 0. 0. 0. 0. 0. 0. 0. 0.
      0. 0. 0. 0. 0. 0. 8.31730440e-02 0. 0. 0. 2.77243480e-02 0.
      2.77243480e-02 0. 0. 0. 0. 0. 0. 0. 0. 0. 0. 0. 0. 0. 0. 0. 0. 0.
      0. 0. 0. 0. 0. 0. 0. 0. 0. 0. 0. 0. 0. 0. 0. 0. 0. 0.
      2.77243480e-02 0. 0. 0. 0. 0. 0. 0. 0. 0. 0. 0. 0. 0.
      8.31730440e-02 2.77243480e-02 0. 0. 0. 0. 0. 0. 8.31730440e-02 0.
      0. 0. 8.31730440e-02 0. 5.54486960e-02 5.54486960e-02 0. 0. 0. 0.
      0. 0. 0. 0. 2.77243480e-02 0. 0. 0. 0. 0. 0. 2.77243480e-02
      2.77243480e-02 0. 0. 0. 0. 0. 0. 0. 0. 0. 0. 0. 2.77243480e-02 0.
      0. 2.77243480e-02 0. 0. 2.77243480e-02 0. 0. 0. 0. 0. 0. 0. 0. 0.
      0. 0. 0. 0. 0. 0. 0. 0. 0. 0. 0. 0. 0. 0. 0. 0. 0. 0. 0. 0. 0. 0.
      0. 0. 0. 0. 0. 0. 2.77243480e-02 0. 0. 0. 0. 0. 0. 0. 0. 0. 0. 0.
      0. 0. 0. 0. 0. 0. 0. 0. 0. 0. 0. 0. 5.54486960e-02 5.54486960e-02
      0. 1.38621747e-01 0. 0. 0. 0. 2.77243480e-02 0. 0. 0. 0. 0. 0. 0.
      1.94070429e-01 0. 0. 5.54486960e-02 0. 0. 0. 2.77243480e-02
      2.49519140e-01 1.38621747e-01 2.77243480e-02 1.38621747e-01
      1.38621747e-01 0. 1.66346088e-01 8.59454811e-01</_>
    <_>
      6.11377120e-01 5.42604506e-01 5.76019406e-01 1. 0. 0. 0. 0. 0. 0.
      0. 0. 0. 0. 0. 0. 0. 0. 0. 0. 0. 0. 0. 0. 0. 0. 0. 0. 0. 0. 0. 0.
      0. 0. 0. 0. 0. 0. 0. 0. 0. 0. 0. 0. 0. 0. 0. 0. 0. 0. 0. 0. 0. 0.
      0. 0. 0. 0. 0. 0. 0. 0. 0. 0. 0. 0. 0. 0. 0. 0. 0. 0. 0. 0. 0. 0.
      0. 0. 0. 0. 0. 0. 0. 0. 0. 0. 0. 0. 0. 0. 0. 0. 0. 0. 0. 0. 0. 0.
      0. 0. 0. 0. 0. 0. 0. 0. 0. 0. 0. 0. 0. 0. 0. 0. 0. 0. 0. 0. 0. 0.
      0. 0. 0. 0. 0. 0. 0. 0. 0. 0. 0. 0. 0. 0. 0. 0. 0. 0. 0. 0. 0. 0.
      0. 0. 0. 0. 0. 0. 0. 0. 0. 0. 0. 0. 0. 0. 0. 0. 0. 0. 0. 0. 0. 0.
      0. 0. 0. 0. 0. 0. 0. 0. 0. 0. 0. 0. 0. 0. 0. 0. 0. 0. 0. 0. 0. 0.
      0. 0. 0. 0. 0. 0. 0. 0. 0. 0. 0. 0. 0. 0. 0. 0. 0. 0. 0. 0. 0. 0.
      0. 0. 0. 0. 0. 0. 0. 0. 0. 0. 0. 0. 0. 0. 0. 0. 0. 0. 0.
      4.03896198e-02 0. 0. 0. 0. 0. 0. 4.03896198e-02 0. 0. 0. 0. 0. 0.
      0. 0. 4.03896198e-02 0. 0. 0. 0. 0. 4.03896198e-02 4.03896198e-02
      0. 0. 0. 0. 0. 0. 0. 0. 0. 0. 0. 0. 0. 0. 0. 0. 0. 0. 0. 0. 0. 0.
      0. 0. 4.03896198e-02 0. 0. 0. 0. 0. 0. 8.07792395e-02 0. 0. 0. 0.
      0. 0. 0. 0. 4.03896198e-02 0. 0. 0. 0. 0. 0. 0. 0. 0. 0. 0. 0. 0.
      0. 0. 0. 0. 0. 0. 0. 0. 0. 0. 0. 0. 0. 0. 0. 0. 0. 0. 0. 0. 0. 0.
      0. 0. 4.03896198e-02 0. 0. 0. 0. 0. 0. 0. 0. 0. 1.21168859e-01 0.
      0. 0. 4.03896198e-02 0. 4.03896198e-02 8.07792395e-02
      8.07792395e-02 0. 0. 0. 0. 4.03896198e-02 4.03896198e-02
      4.03896198e-02 8.07792395e-02 0. 0. 4.03896198e-02 4.03896198e-02
      0. 0. 1.21168859e-01 0. 0. 0. 0. 0. 0. 0. 0. 0. 0. 0. 0.
      4.03896198e-02 0. 0. 0. 0. 0. 0. 0. 0. 0. 0. 0. 0. 0. 0. 0. 0. 0.
      0. 0. 0. 0. 0. 0. 0. 0. 0. 0. 4.03896198e-02 0. 0. 0. 0. 0. 0.
      8.07792395e-02 0. 0. 0. 0. 0. 0. 0. 0. 4.03896198e-02 0. 0. 0. 0.
      0. 0. 2.01948106e-01 0. 0. 0. 0. 0. 0. 0. 0. 0. 0. 0. 0. 0. 0. 0.
      0. 4.03896198e-02 0. 0. 0. 0. 0. 0. 8.07792395e-02 0. 0. 0. 0. 0.
      0. 0. 1.21168859e-01 1.61558479e-01 4.03896198e-02 0.
      1.21168859e-01 0. 0. 0. 8.07792395e-02 2.42337719e-01
      4.03896198e-02 0. 0. 1.21168859e-01 0. 4.03896198e-02
      8.48182023e-01</_>
    <_>
      6.80269837e-01 5.35550892e-01 5.00417948e-01 9.95987356e-01 0. 0.
      0. 0. 0. 0. 0. 0. 0. 0. 0. 0. 0. 0. 0. 0. 0. 0. 0. 0. 0. 0. 0. 0.
      0. 0. 0. 0. 0. 0. 0. 0. 0. 0. 0. 7.81166553e-02 0. 0. 0. 0. 0.
      1.95291638e-02 3.90583277e-02 0. 0. 0. 0. 0. 0. 0. 0. 0. 0. 0. 0.
      0. 0. 0. 0. 0. 0. 0. 0. 0. 0. 0. 0. 0. 0. 0. 0. 0. 0. 0. 0. 0. 0.
      0. 0. 0. 0. 0. 0. 0. 0. 0. 0. 0. 0. 0. 0. 0. 0. 0. 0. 0. 0. 0. 0.
      0. 0. 0. 0. 0. 0. 0. 0. 0. 0. 0. 0. 0. 0. 0. 0. 0. 0. 0. 0. 0. 0.
      0. 0. 0. 0. 0. 0. 0. 0. 0. 0. 0. 0. 0. 0. 0. 0. 0. 0. 0. 0. 0. 0.
      0. 0. 0. 0. 0. 0. 0. 0. 0. 0. 0. 0. 0. 0. 0. 0. 0. 0. 0. 0. 0. 0.
      0. 0. 0. 0. 0. 0. 0. 0. 0. 0. 0. 0. 0. 0. 0. 0. 0. 0. 0. 0. 0. 0.
      0. 0. 0. 0. 0. 0. 0. 0. 0. 0. 0. 0. 0. 0. 0. 0. 0. 0. 0. 0. 0. 0.
      0. 0. 0. 0. 0. 0. 2.50000000e-01 0. 5.00000007e-02 5.00000007e-02
      0. 0. 1.00000001e-01 0. 3.00000012e-01 5.00000007e-02 0.
      5.00000007e-02 1.00000001e-01 5.00000007e-02 1.00000001e-01
      1.50000006e-01 1.00000001e-01 0. 0. 0. 0. 0. 5.00000007e-02 0.
      5.00000007e-02 0. 5.00000007e-02 0. 1.00000001e-01 0.
      5.00000007e-02 5.00000007e-02 0. 0. 0. 0. 0. 0. 0. 0. 0. 0.
      5.00000007e-02 0. 0. 0. 0. 0. 5.00000007e-02 0. 0. 0.
      5.00000007e-02 0. 5.00000007e-02 0. 0. 0. 0. 0. 0. 0. 0.
      1.00000001e-01 0. 5.00000007e-02 0. 0. 0. 5.00000007e-02 0. 0. 0.
      0. 0. 0. 0. 0. 0. 0. 5.00000007e-02 0. 0. 0. 0. 0. 0. 0.
      5.00000007e-02 0. 0. 0. 0. 0. 0. 5.00000007e-02 0. 0. 0. 0. 0. 0.
      0. 1.00000001e-01 0. 0. 0. 0. 0. 5.00000007e-02 0. 0.
      2.00000003e-01 0. 0. 5.00000007e-02 0. 0. 5.00000007e-02
      5.00000007e-02 5.00000007e-02 5.00000007e-02 0. 1.00000001e-01 0.
      0. 1.50000006e-01 1.50000006e-01 5.00000007e-02 0. 0. 0. 0. 0. 0.
      0. 0. 0. 0. 5.00000007e-02 0. 0. 0. 1.50000006e-01 0. 0. 0. 0. 0.
      0. 0. 5.00000007e-02 0. 0. 0. 0. 0. 0. 5.00000007e-02
      5.00000007e-02 0. 0. 0. 0. 0. 0. 0. 0. 0. 0. 0. 0. 5.00000007e-02
      0. 0. 0. 5.00000007e-02 0. 0. 0. 0. 0. 0. 0. 5.00000007e-02 0. 0.
      0. 0. 0. 0. 1.50000006e-01 0. 5.00000007e-02 0. 0. 0. 0. 0. 0.
      5.00000007e-02 0. 0. 0. 0. 0. 0. 5.00000007e-02 0. 0. 0. 0. 0. 0.
      0. 5.00000007e-02 0. 0. 0. 5.00000007e-02 5.00000007e-02 0. 0. 0.
      1.00000001e-01 0. 0. 0. 0. 0. 0. 5.00000007e-02 0. 0. 0. 0. 0. 0.
      0. 0. 1.00000001e-01 0. 5.00000007e-02 5.00000007e-02 0. 0.
      1.00000001e-01 5.00000007e-02 2.00000003e-01 5.00000007e-02 0. 0.
      1.00000001e-01 5.00000007e-02 0. 6.50000036e-01</_>
    <_>
      6.09685957e-01 5.38648248e-01 5.81499040e-01 9.99999940e-01 0. 0.
      0. 0. 0. 0. 0. 0. 0. 0. 0. 0. 0. 0. 0. 0. 0. 0. 0. 0. 0. 0. 0. 0.
      0. 0. 0. 0. 0. 0. 0. 0. 0. 0. 0. 0. 0. 0. 0. 0. 0. 0. 0. 0. 0. 0.
      0. 0. 0. 0. 0. 0. 0. 0. 0. 0. 0. 0. 0. 0. 0. 0. 0. 0. 0. 0. 0. 0.
      0. 0. 0. 0. 0. 0. 0. 0. 0. 0. 0. 0. 0. 0. 0. 0. 0. 0. 0. 0. 0. 0.
      0. 0. 0. 0. 0. 0. 0. 0. 0. 0. 0. 0. 0. 0. 0. 0. 0. 0. 0. 0. 0. 0.
      0. 0. 0. 0. 0. 0. 0. 0. 0. 0. 0. 0. 0. 0. 0. 0. 0. 0. 0. 0. 0. 0.
      0. 0. 0. 0. 0. 0. 0. 0. 0. 0. 0. 0. 0. 0. 0. 0. 0. 0. 0. 0. 0. 0.
      0. 0. 0. 0. 0. 0. 0. 0. 0. 0. 0. 0. 0. 0. 0. 0. 0. 0. 0. 0. 0. 0.
      0. 0. 0. 0. 0. 0. 0. 0. 0. 0. 0. 0. 0. 0. 0. 0. 0. 0. 0. 0. 0. 0.
      0. 0. 0. 0. 0. 0. 0. 0. 0. 0. 0. 0. 0. 0. 0. 0. 0. 0. 0. 0. 0. 0.
      0. 5.36248907e-02 0. 0. 0. 0. 0. 0. 2.68124454e-02 0. 0. 0. 0. 0.
      0. 0. 0. 0. 0. 0. 0. 0. 0. 0. 0. 0. 0. 0. 0. 0. 0. 0. 0. 0. 0. 0.
      0. 0. 0. 0. 0. 0. 0. 0. 0. 0. 0. 0. 0. 0. 0. 0. 0. 0. 0. 0. 0.
      2.68124454e-02 0. 0. 0. 0. 0. 0. 0. 0. 0. 0. 0. 0. 0. 0. 0. 0. 0.
      0. 0. 0. 0. 0. 0. 0. 0. 0. 0. 0. 0. 0. 0. 0. 0. 0. 0. 0. 0. 0. 0.
      0. 0. 0. 0. 0. 0. 0. 0. 0. 0. 0. 0. 0. 0. 0. 2.68124454e-02
      2.68124454e-02 0. 0. 0. 0. 0. 0. 5.36248907e-02 1.34062231e-01 0.
      0. 2.68124454e-02 0. 0. 0. 0. 1.07249781e-01 0. 0. 0. 0. 0. 0. 0.
      0. 0. 0. 0. 0. 0. 0. 0. 0. 0. 0. 0. 0. 0. 0. 0. 0. 0. 0. 0. 0. 0.
      0. 0. 0. 0. 0. 0. 0. 0. 0. 0. 0. 0. 0. 0. 0. 0. 0. 0. 0. 0. 0.
      2.68124454e-02 0. 0. 0. 0. 2.68124454e-02 5.36248907e-02 0.
      5.36248907e-02 0. 0. 0. 0. 5.36248907e-02 0. 0. 0. 0. 0. 0.
      2.68124454e-02 0. 0. 0. 0. 0. 0. 0. 0. 0. 0. 0. 0. 0. 0. 0.
      2.68124454e-02 0. 2.68124454e-02 0. 8.04373324e-02 0. 0. 0.
      5.36248907e-02 0. 2.68124454e-02 0. 2.68124454e-02 0. 0. 0.
      2.68124454e-02 8.04373324e-02 1.34062231e-01 0. 1.07249781e-01 0.
      0. 0. 1.34062231e-01 1.34062231e-01 8.04373324e-02 0.
      1.34062231e-01 2.68124454e-02 8.04373324e-02 5.36248907e-02
      9.11623120e-01</_>
    <_>
      5.96368313e-01 5.40492654e-01 5.93475044e-01 9.99999940e-01 0. 0.
      0. 0. 0. 0. 0. 0. 0. 0. 0. 0. 0. 0. 0. 0. 0. 0. 0. 0. 0. 0. 0. 0.
      0. 0. 0. 0. 0. 0. 0. 0. 0. 0. 0. 0. 0. 0. 0. 0. 0. 0. 0. 0. 0. 0.
      0. 0. 0. 0. 0. 0. 0. 0. 0. 0. 0. 0. 0. 0. 0. 0. 0. 0. 0. 0. 0. 0.
      0. 0. 0. 0. 0. 0. 0. 0. 0. 0. 0. 0. 0. 0. 0. 0. 0. 0. 0. 0. 0. 0.
      0. 0. 0. 0. 0. 0. 0. 0. 0. 0. 0. 0. 0. 0. 0. 0. 0. 0. 0. 0. 0. 0.
      0. 0. 0. 0. 0. 0. 0. 0. 0. 0. 0. 0. 0. 0. 0. 0. 0. 0. 0. 0. 0. 0.
      0. 0. 0. 0. 0. 0. 0. 0. 0. 0. 0. 0. 0. 0. 0. 0. 0. 0. 0. 0. 0. 0.
      0. 0. 0. 0. 0. 0. 0. 0. 0. 0. 0. 0. 0. 0. 0. 0. 0. 0. 0. 0. 0. 0.
      0. 0. 0. 0. 0. 0. 0. 0. 0. 0. 0. 0. 0. 0. 0. 0. 0. 0. 0. 0. 0. 0.
      0. 0. 0. 0. 0. 0. 0. 0. 0. 0. 0. 0. 0. 0. 0. 4.02584858e-02 0. 0.
      0. 0. 0. 4.02584858e-02 0. 4.02584858e-02 0. 0. 0. 0. 0. 0.
      2.01292425e-01 0. 0. 0. 0. 0. 0. 0. 0. 8.05169716e-02 0. 0. 0.
      4.02584858e-02 0. 0. 4.02584858e-02 0. 0. 0. 0. 0. 0. 0. 0. 0. 0.
      0. 0. 0. 0. 0. 0. 0. 0. 0. 0. 0. 0. 0. 0. 0. 0. 0. 0. 0. 0. 0.
      4.02584858e-02 0. 0. 0. 0. 0. 0. 0. 0. 0. 0. 0. 0. 0. 0. 0. 0. 0.
      0. 0. 0. 0. 0. 0. 0. 0. 0. 0. 0. 0. 0. 0. 0. 0. 0. 0. 0. 0. 0. 0.
      0. 0. 0. 0. 0. 0. 0. 0. 0. 0. 0. 0. 0. 0. 0. 0. 0. 8.05169716e-02
      4.02584858e-02 0. 0. 8.05169716e-02 0. 4.02584858e-02
      1.61033943e-01 0. 0. 0. 0. 0. 0. 0. 2.01292425e-01 0. 0. 0. 0. 0.
      0. 0. 3.22067887e-01 0. 0. 0. 0. 0. 0. 0. 4.02584858e-02 0. 0. 0.
      0. 0. 0. 0. 8.05169716e-02 0. 0. 0. 0. 0. 0. 0. 0. 0. 0. 0. 0. 0.
      0. 0. 0. 0. 0. 0. 0. 0. 0. 0. 0. 8.05169716e-02 0. 0. 0. 0. 0. 0.
      4.02584858e-02 4.02584858e-02 4.02584858e-02 4.02584858e-02
      4.02584858e-02 0. 0. 0. 2.41550922e-01 0. 0. 0. 0. 0. 0. 0.
      1.20775461e-01 0. 0. 0. 0. 0. 0. 0. 0. 0. 0. 0. 0. 0. 0. 0.
      4.02584858e-02 0. 0. 0. 0. 0. 0. 0. 1.61033943e-01 4.02584858e-02
      0. 0. 4.02584858e-02 0. 0. 0. 8.05169716e-02 0. 8.05169716e-02 0.
      1.20775461e-01 0. 0. 0. 1.20775461e-01 2.41550922e-01
      1.61033943e-01 0. 1.20775461e-01 8.05169716e-02 0. 1.20775461e-01
      6.84394240e-01</_>
    <_>
      6.02419198e-01 5.53776681e-01 5.74823916e-01 1. 0. 0. 0. 0. 0. 0.
      0. 0. 0. 0. 0. 0. 0. 0. 0. 0. 0. 0. 0. 0. 0. 0. 0. 0. 0. 0. 0. 0.
      0. 0. 0. 0. 0. 0. 0. 0. 0. 0. 0. 0. 0. 0. 0. 0. 0. 0. 0. 0. 0. 0.
      0. 0. 0. 0. 0. 0. 0. 0. 0. 0. 0. 0. 0. 0. 0. 0. 0. 0. 0. 0. 0. 0.
      0. 0. 0. 0. 0. 0. 0. 0. 0. 0. 0. 0. 0. 0. 0. 0. 0. 0. 0. 0. 0. 0.
      0. 0. 0. 0. 0. 0. 0. 0. 0. 0. 0. 0. 0. 0. 0. 0. 0. 0. 0. 0. 0. 0.
      0. 0. 0. 0. 0. 0. 0. 0. 0. 0. 0. 0. 0. 0. 0. 0. 0. 0. 0. 0. 0. 0.
      0. 0. 0. 0. 0. 0. 0. 0. 0. 0. 0. 0. 0. 0. 0. 0. 0. 0. 0. 0. 0. 0.
      0. 0. 0. 0. 0. 0. 0. 0. 0. 0. 0. 0. 0. 0. 0. 0. 0. 0. 0. 0. 0. 0.
      0. 0. 0. 0. 0. 0. 0. 0. 0. 0. 0. 0. 0. 0. 0. 0. 0. 0. 0. 0. 0. 0.
      0. 0. 0. 0. 0. 0. 0. 0. 0. 0. 0. 0. 7.47435093e-02 0. 0. 0. 0. 0.
      0. 0. 0. 0. 0. 0. 0. 0. 1.49487019e-01 7.47435093e-02 0. 0. 0. 0.
      0. 0. 0. 0. 0. 0. 0. 7.47435093e-02 0. 0. 0. 0. 0. 0. 0. 0. 0. 0.
      0. 0. 0. 0. 0. 0. 0. 0. 0. 0. 0. 0. 0. 0. 0. 0. 0. 0. 0. 0. 0. 0.
      0. 0. 7.47435093e-02 0. 0. 0. 0. 0. 0. 0. 0. 0. 0. 0. 0. 0. 0. 0.
      0. 0. 0. 0. 0. 0. 0. 0. 0. 0. 0. 0. 0. 0. 0. 0. 0. 0. 0. 0. 0. 0.
      0. 0. 0. 0. 0. 0. 0. 0. 0. 0. 0. 0. 0. 0. 0. 0. 0. 0. 0. 0. 0. 0.
      0. 0. 0. 1.49487019e-01 7.47435093e-02 0. 0. 0. 1.49487019e-01 0.
      0. 0. 0. 0. 0. 0. 0. 0. 0. 0. 2.98974037e-01 0. 0. 0. 0. 0. 0. 0.
      0. 0. 0. 0. 0. 0. 0. 0. 1.49487019e-01 0. 0. 0. 0. 0. 0. 0. 0. 0.
      0. 0. 0. 0. 0. 0. 0. 0. 0. 0. 0. 0. 0. 0. 0. 0. 0. 0. 0. 0. 0.
      7.47435093e-02 0. 0. 0. 0. 0. 0. 0. 0. 0. 0. 0. 0. 0. 0. 0. 0. 0.
      0. 0. 0. 0. 0. 0. 0. 0. 0. 0. 0. 0. 0. 0. 0. 0. 0. 0. 0.
      1.49487019e-01 0. 0. 0. 1.49487019e-01 0. 0. 0. 0. 0. 0. 0. 0.
      7.47435093e-02 0. 0. 0. 0. 0. 0. 2.98974037e-01 2.24230528e-01
      1.49487019e-01 0. 7.47435093e-02 7.47435093e-02 0. 7.47435093e-02
      7.47435093e-01</_>
    <_>
      4.11390007e-01 5.23910761e-01 7.45839000e-01 1. 0. 0. 0. 0. 0. 0.
      0. 0. 0. 0. 0. 0. 0. 0. 0. 0. 0. 0. 0. 0. 0. 0. 0. 0. 0. 0. 0. 0.
      0. 0. 0. 0. 0. 0. 0. 0. 0. 0. 0. 0. 0. 0. 0. 0. 0. 0. 0. 0. 0. 0.
      0. 0. 0. 0. 0. 0. 0. 0. 0. 0. 0. 0. 0. 0. 0. 0. 0. 0. 0. 0. 0. 0.
      0. 0. 0. 0. 0. 0. 0. 0. 0. 0. 0. 0. 0. 0. 0. 0. 0. 0. 0. 0. 0. 0.
      0. 0. 0. 0. 0. 0. 0. 0. 0. 0. 0. 0. 0. 0. 0. 0. 0. 0. 0. 0. 0. 0.
      0. 0. 0. 0. 0. 0. 0. 0. 0. 0. 0. 0. 0. 0. 0. 0. 0. 0. 0. 0. 0. 0.
      0. 0. 0. 0. 0. 0. 0. 0. 0. 0. 0. 0. 0. 0. 0. 0. 0. 0. 0. 0. 0. 0.
      0. 0. 0. 0. 0. 0. 0. 0. 0. 0. 0. 0. 0. 0. 0. 0. 0. 0. 0. 0. 0. 0.
      0. 0. 0. 0. 0. 0. 0. 0. 0. 0. 0. 0. 0. 0. 0. 0. 0. 0. 0. 0. 0. 0.
      0. 0. 0. 0. 0. 0. 0. 0. 0. 0. 0. 0. 0. 4.41081077e-02 0. 0. 0. 0.
      0. 4.41081077e-02 0. 0. 0. 0. 0. 1.76432431e-01 4.41081077e-02 0.
      0. 0. 0. 0. 0. 0. 0. 0. 0. 0. 0. 0. 0. 4.41081077e-02
      4.41081077e-02 4.41081077e-02 0. 0. 0. 0. 0. 0. 0. 0. 0. 0. 0. 0.
      0. 0. 0. 0. 0. 0. 0. 0. 0. 0. 0. 0. 0. 0. 0. 0. 0. 3.08756769e-01
      1.32324323e-01 0. 0. 0. 0. 0. 0. 0. 0. 0. 0. 0. 0. 0. 0. 0. 0. 0.
      0. 0. 0. 0. 0. 0. 0. 0. 0. 0. 0. 0. 0. 0. 0. 0. 0. 0. 0. 0. 0. 0.
      0. 4.41081077e-02 0. 0. 0. 0. 0. 0. 0. 0. 0. 0. 0. 0. 0. 0. 0. 0.
      0. 0. 0. 4.41081077e-02 0. 4.41081077e-02 0. 0. 0. 0.
      4.41081077e-02 0. 0. 0. 8.82162154e-02 4.41081077e-02 0. 0. 0.
      4.41081077e-02 0. 4.41081077e-02 2.64648646e-01 0. 0. 0. 0. 0. 0.
      0. 0. 0. 0. 0. 0. 0. 0. 0. 8.82162154e-02 0. 0. 0. 0. 0. 0. 0. 0.
      0. 0. 0. 0. 0. 0. 0. 0. 0. 0. 0. 0. 0. 0. 0. 0. 0. 0. 0. 0. 0. 0.
      0. 8.82162154e-02 0. 0. 0. 0. 0. 0. 0. 0. 0. 0. 0. 0. 0. 0. 0.
      4.41081077e-02 0. 0. 0. 0. 0. 0. 0. 0. 0. 0. 0. 0. 0. 0. 0. 0. 0.
      0. 0. 0. 0. 0. 0. 4.41081077e-02 0. 0. 0. 0. 0. 0. 0.
      8.82162154e-02 0. 0. 0. 0. 0. 0. 0. 4.41081077e-02 8.82162154e-02
      4.41081077e-02 0. 4.41081077e-02 4.41081077e-02 0. 8.82162154e-02
      8.38054061e-01</_>
    <_>
      5.96543014e-01 5.56647539e-01 5.78169405e-01 3.86550099e-01 0. 0.
      0. 0. 0. 0. 0. 0. 0. 0. 0. 0. 0. 0. 0. 0. 0. 0. 0. 0. 0. 0. 0. 0.
      0. 0. 0. 0. 0. 0. 0. 0. 0. 0. 0. 0. 1.93275064e-02 0. 0. 0. 0. 0.
      5.60497642e-01 0. 0. 0. 0. 0. 0. 0. 0. 0. 0. 0. 0. 0. 0. 0. 0. 0.
      0. 0. 0. 0. 0. 0. 0. 0. 0. 0. 0. 0. 0. 0. 0. 0. 0. 0.
      3.86550128e-02 5.79825193e-02 0. 0. 0. 0. 0. 6.57135189e-01 0. 0.
      0. 0. 0. 0. 0. 0. 0. 0. 0. 0. 0. 0. 0. 0. 0. 0. 0. 0. 0. 0. 0. 0.
      0. 0. 0. 0. 0. 0. 0. 0. 0. 0. 0. 9.66375247e-02 7.73100257e-02 0.
      0. 0. 0. 0. 2.89912611e-01 0. 0. 0. 0. 0. 0. 0. 0. 0. 0. 0. 0. 0.
      0. 0. 0. 0. 0. 0. 0. 0. 0. 0. 0. 0. 0. 0. 0. 0. 0. 0. 0. 0. 0. 0.
      0. 0. 0. 0. 0. 0. 0. 0. 0. 0. 0. 0. 0. 0. 0. 0. 0. 0. 0. 0. 0. 0.
      0. 0. 0. 0. 0. 0. 0. 0. 0. 0. 0. 0. 0. 0. 0. 0. 0. 0. 0. 0. 0. 0.
      0. 0. 0. 0. 0. 0. 0. 0. 0. 8.30454826e-02 2.76818275e-02
      2.76818275e-02 0. 1.38409138e-01 5.53636551e-02 2.76818275e-02 0.
      0. 0. 0. 0. 8.30454826e-02 0. 0. 0. 0. 0. 0. 0. 0. 0.
      2.76818275e-02 0. 0. 0. 0. 0. 2.76818275e-02 0. 0. 0. 0. 0. 0. 0.
      0. 0. 0. 0. 0. 0. 2.76818275e-02 0. 0. 0. 0. 0. 0. 0. 0. 0. 0. 0.
      0. 0. 0. 0. 6.36682034e-01 0. 1.10727310e-01 0. 0. 0. 0. 0. 0. 0.
      2.76818275e-02 0. 0. 0. 0. 0. 0. 0. 0. 0. 0. 0. 0. 0. 0. 0. 0. 0.
      0. 0. 0. 0. 0. 0. 0. 0. 0. 0. 0. 0. 0. 0. 0. 0. 0. 0. 0. 0. 0. 0.
      0. 0. 0. 0. 0. 0. 0. 0. 0. 0. 0. 0. 0. 0. 0. 0. 0. 0. 0. 0. 0.
      8.30454826e-02 0. 0. 0. 1.66090965e-01 0. 0. 0. 0. 0. 0. 0.
      8.30454826e-02 0. 0. 0. 0. 0. 0. 0. 0. 0. 0. 0. 0. 0. 0. 0. 0. 0.
      0. 0. 0. 0. 0. 0. 0. 0. 0. 0. 0. 0. 0. 0. 0. 0. 0. 0. 0. 0. 0. 0.
      0. 0. 0. 0. 0. 0. 0. 0. 0. 0. 2.76818275e-02 0. 6.36682034e-01 0.
      0. 0. 8.30454826e-02 0. 0. 0. 0. 0. 0. 0. 1.38409138e-01 0. 0. 0.
      5.53636551e-02 0. 0. 0. 0. 0. 0. 0. 0. 0. 0. 0. 1.38409138e-01 0.
      0. 0. 1.10727310e-01 0. 0. 0. 2.76818275e-02 0. 0. 0. 0. 0. 0. 0.
      0. 0. 0. 0. 0. 0. 0. 0. 0. 0. 0. 0. 2.76818275e-02 0.
      1.10727310e-01 0. 1.38409138e-01</_>
    <_>
      5.36595285e-01 7.10050404e-01 4.55953807e-01 9.99999940e-01 0. 0.
      0. 0. 0. 0. 0. 0. 0. 0. 0. 0. 0. 0. 0. 0. 0. 0. 0. 0. 0. 0. 0. 0.
      0. 0. 0. 0. 0. 0. 0. 0. 0. 0. 0. 0. 0. 0. 0. 0. 0. 0. 0. 0. 0. 0.
      0. 0. 0. 0. 0. 0. 0. 0. 0. 0. 0. 0. 0. 0. 0. 0. 0. 0. 0. 0. 0. 0.
      0. 0. 0. 0. 0. 0. 0. 0. 0. 0. 0. 0. 0. 0. 0. 0. 0. 0. 0. 0. 0. 0.
      0. 0. 0. 0. 0. 0. 0. 0. 0. 0. 0. 0. 0. 0. 0. 0. 0. 0. 0. 0. 0. 0.
      0. 0. 0. 0. 0. 0. 0. 0. 0. 0. 0. 0. 0. 0. 0. 0. 0. 0. 0. 0. 0. 0.
      0. 0. 0. 0. 0. 0. 0. 0. 0. 0. 0. 0. 0. 0. 0. 0. 0. 0. 0. 0. 0. 0.
      0. 0. 0. 0. 0. 0. 0. 0. 0. 0. 0. 0. 0. 0. 0. 0. 0. 0. 0. 0. 0. 0.
      0. 0. 0. 0. 0. 0. 0. 0. 0. 0. 0. 0. 0. 0. 0. 0. 0. 0. 0. 0. 0. 0.
      0. 0. 0. 0. 0. 0. 0. 0. 0. 0. 0. 0. 0. 0. 0. 0. 5.61655946e-02
      5.61655946e-02 0. 0. 0. 0. 0. 0. 5.61655946e-02 0. 0. 0. 0.
      1.12331189e-01 1.12331189e-01 0. 0. 0. 0. 0. 0. 0. 0. 0. 0. 0. 0.
      0. 0. 0. 1.12331189e-01 0. 0. 0. 0. 0. 0. 0. 0. 0. 0. 0. 0. 0. 0.
      0. 0. 0. 0. 0. 0. 0. 0. 0. 0. 5.61655946e-02 0. 0. 0. 0. 0.
      5.61655946e-02 1.12331189e-01 0. 0. 0. 0. 0. 0. 0. 0. 0. 0. 0. 0.
      0. 0. 0. 5.61655946e-02 0. 0. 0. 0. 0. 0. 0. 0. 0. 0. 0. 0. 0. 0.
      0. 0. 0. 0. 0. 0. 0. 0. 0. 0. 0. 0. 0. 0. 0. 0. 0. 0. 0. 0. 0.
      5.61655946e-02 0. 0. 0. 0. 2.80827969e-01 0. 0. 0. 0. 0.
      1.12331189e-01 5.61655946e-02 0. 0. 0. 5.61655946e-02 0. 0. 0. 0.
      0. 5.61655946e-02 0. 0. 5.61655946e-02 0. 0. 1.12331189e-01 0. 0.
      0. 0. 0. 0. 0. 0. 0. 0. 0. 0. 0. 0. 0. 1.12331189e-01 0. 0. 0. 0.
      0. 0. 0. 5.61655946e-02 0. 0. 0. 0. 0. 0. 0. 0. 0. 0. 0. 0. 0. 0.
      0. 5.61655946e-02 0. 0. 0. 0. 0. 0. 0. 0. 0. 0. 0. 0. 0. 0. 0.
      1.12331189e-01 0. 0. 0. 0. 0. 0. 0. 5.61655946e-02 0. 0. 0. 0. 0.
      0. 0. 0. 0. 0. 0. 0. 0. 0. 0. 0. 1.12331189e-01 1.12331189e-01 0.
      1.12331189e-01 0. 0. 0. 5.61655946e-02 0. 0. 0. 0. 0. 0. 0.
      1.12331189e-01 5.61655946e-02 5.61655946e-02 0. 1.68496788e-01
      5.61655946e-02 0. 0. 5.61655946e-02 3.36993575e-01 1.12331189e-01
      0. 1.12331189e-01 5.61655946e-02 5.61655946e-02 5.61655946e-02
      7.30152726e-01</_>
    <_>
      5.51551700e-01 6.79003179e-01 4.84505266e-01 1. 0. 0. 0. 0. 0. 0.
      0. 0. 0. 0. 0. 0. 0. 0. 0. 0. 0. 0. 0. 0. 0. 0. 0. 0. 0. 0. 0. 0.
      0. 0. 0. 0. 0. 0. 0. 0. 0. 0. 0. 0. 0. 0. 0. 0. 0. 0. 0. 0. 0. 0.
      0. 0. 0. 0. 0. 0. 0. 0. 0. 0. 0. 0. 0. 0. 0. 0. 0. 0. 0. 0. 0. 0.
      0. 0. 0. 0. 0. 0. 0. 0. 0. 0. 0. 0. 0. 0. 0. 0. 0. 0. 0. 0. 0. 0.
      0. 0. 0. 0. 0. 0. 0. 0. 0. 0. 0. 0. 0. 0. 0. 0. 0. 0. 0. 0. 0. 0.
      0. 0. 0. 0. 0. 0. 0. 0. 0. 0. 0. 0. 0. 0. 0. 0. 0. 0. 0. 0. 0. 0.
      0. 0. 0. 0. 0. 0. 0. 0. 0. 0. 0. 0. 0. 0. 0. 0. 0. 0. 0. 0. 0. 0.
      0. 0. 0. 0. 0. 0. 0. 0. 0. 0. 0. 0. 0. 0. 0. 0. 0. 0. 0. 0. 0. 0.
      0. 0. 0. 0. 0. 0. 0. 0. 0. 0. 0. 0. 0. 0. 0. 0. 0. 0. 0. 0. 0. 0.
      0. 0. 0. 0. 0. 0. 0. 0. 0. 0. 0. 2.14422509e-01 5.36056273e-02
      5.36056273e-02 0. 0. 0. 5.36056273e-02 5.36056273e-02
      1.60816878e-01 5.36056273e-02 0. 0. 0. 0. 0. 1.60816878e-01 0. 0.
      0. 0. 0. 0. 0. 0. 0. 0. 0. 0. 0. 0. 0. 0. 0. 0. 0. 0. 0. 0. 0. 0.
      0. 0. 0. 0. 0. 0. 0. 0. 5.36056273e-02 0. 0. 0. 0. 0. 0. 0.
      1.07211255e-01 0. 0. 0. 0. 0. 0. 5.36056273e-02 0. 0. 0. 0. 0. 0.
      0. 5.36056273e-02 5.36056273e-02 0. 0. 0. 0. 0. 0. 0.
      5.36056273e-02 0. 0. 0. 0. 0. 0. 0. 0. 0. 0. 0. 0. 0.
      5.36056273e-02 0. 5.36056273e-02 0. 0. 5.36056273e-02 0. 0. 0. 0.
      0. 0. 0. 0. 0. 0. 5.36056273e-02 5.36056273e-02 1.07211255e-01 0.
      0. 0. 0. 0. 0. 0. 1.07211255e-01 0. 0. 5.36056273e-02
      5.36056273e-02 0. 0. 1.60816878e-01 2.14422509e-01 1.07211255e-01
      0. 1.07211255e-01 0. 0. 5.36056273e-02 2.14422509e-01 0. 0. 0. 0.
      0. 0. 0. 0. 5.36056273e-02 0. 0. 0. 0. 0. 0. 0. 0. 5.36056273e-02
      0. 0. 5.36056273e-02 0. 0. 1.07211255e-01 0. 0. 0. 5.36056273e-02
      0. 0. 0. 5.36056273e-02 0. 0. 0. 0. 0. 0. 0. 0. 0. 0. 0.
      5.36056273e-02 0. 0. 5.36056273e-02 0. 0. 0. 0. 0. 0. 0. 0. 0. 0.
      0. 0. 0. 0. 0. 0. 1.07211255e-01 5.36056273e-02 0. 0. 0. 0. 0. 0.
      1.07211255e-01 0. 0. 0. 0. 0. 0. 0. 0. 0. 0. 0. 0. 0. 0. 0.
      5.36056273e-02 2.68028140e-01 0. 0. 0. 0. 0. 5.36056273e-02
      1.60816878e-01 5.36056273e-02 0. 0. 0. 0. 0. 0. 1.07211255e-01
      5.36056273e-02 1.07211255e-01 5.36056273e-02 1.07211255e-01 0. 0.
      0. 2.14422509e-01 5.36056273e-02 0. 0. 0. 5.36056273e-02
      5.36056273e-02 5.36056273e-02 6.43267512e-01</_>
    <_>
      5.95835567e-01 5.66833973e-01 5.68928123e-01 0. 0. 0. 0. 0. 0. 0.
      0. 0. 0. 0. 0. 0. 0. 0. 0. 0. 0. 0. 0. 0. 0. 0. 0. 0. 0. 0. 0. 0.
      0. 0. 0. 0. 0. 0. 0. 0. 0. 0. 0. 0. 0. 0. 0. 0. 0. 0. 0. 0. 0. 0.
      0. 0. 0. 0. 0. 0. 0. 0. 0. 0. 0. 0. 0. 0. 0. 0. 0. 0. 0. 0. 0. 0.
      0. 0. 0. 0. 0. 0. 0. 0. 0. 0. 0. 0. 0. 6.51141584e-01 0. 0. 0. 0.
      0. 0. 0. 0. 0. 0. 0. 0. 0. 0. 0. 0. 0. 0. 0. 0. 0. 0. 0. 0. 0. 0.
      0. 0. 0. 0. 0. 0. 0. 0. 0. 1.81713924e-01 0. 0. 0. 0. 0. 0.
      7.26855695e-01 0. 0. 0. 0. 0. 0. 0. 0. 0. 0. 0. 0. 0. 0. 0. 0. 0.
      0. 0. 0. 0. 0. 0. 0. 0. 0. 0. 0. 0. 0. 0. 0. 0. 0. 0.
      1.21142618e-01 0. 0. 0. 0. 0. 0. 0. 0. 0. 0. 0. 0. 0. 0. 0. 0. 0.
      0. 0. 0. 0. 0. 0. 0. 0. 0. 0. 0. 0. 0. 0. 0. 0. 0. 0. 0. 0. 0. 0.
      0. 0. 0. 0. 0. 0. 0. 0. 0. 0. 0. 2.79836617e-02 0. 0. 0. 0. 0. 0.
      1.67901963e-01 5.59673235e-02 0. 0. 0. 0. 0. 0. 7.55558848e-01 0.
      0. 0. 0. 0. 0. 0. 0. 0. 0. 0. 0. 0. 0. 0. 1.11934647e-01 0. 0. 0.
      0. 0. 0. 0. 0. 0. 0. 0. 0. 0. 0. 0. 0. 0. 0. 0. 0. 0. 0. 0. 0. 0.
      0. 0. 0. 0. 0. 0. 0. 0. 0. 0. 0. 0. 0. 0. 0. 0. 0. 0. 0. 0. 0. 0.
      2.79836617e-02 0. 0. 0. 0. 0. 0. 0. 0. 0. 0. 0. 0. 0. 0. 0. 0. 0.
      0. 0. 0. 0. 0. 0. 0. 0. 0. 0. 0. 0. 0. 0. 0. 8.39509815e-02 0. 0.
      0. 0. 0. 0. 5.59673235e-02 1.67901963e-01 0. 0. 0. 0. 0. 0.
      8.39509815e-02 1.11934647e-01 0. 0. 5.59673235e-02 0. 0. 0.
      3.35803926e-01 1.11934647e-01 0. 0. 0. 0. 0. 0. 3.35803926e-01 0.
      0. 0. 0. 0. 0. 0. 0. 0. 0. 0. 0. 0. 0. 0. 0. 0. 0. 0. 0. 0. 0. 0.
      0. 0. 0. 0. 0. 0. 0. 0. 0. 0. 0. 0. 0. 0. 0. 0. 0. 0. 0. 0. 0. 0.
      0. 0. 0. 0. 0. 0. 0. 0. 0. 0. 8.39509815e-02 0. 0. 0. 0. 0. 0. 0.
      0. 0. 0. 0. 0. 0. 0. 0. 0. 0. 0. 0. 0. 0. 0. 0. 0. 2.79836617e-02
      0. 0. 0. 0. 0. 0. 0. 0. 0. 0. 0. 0. 0. 0. 0. 1.11934647e-01 0. 0.
      0. 0. 0. 0. 8.39509815e-02 2.23869294e-01 0. 0. 0. 0. 0. 0.
      8.39509815e-02</_>
    <_>
      5.86738467e-01 5.58335245e-01 5.86514831e-01 0. 0. 0. 0. 0. 0. 0.
      0. 0. 0. 0. 0. 0. 0. 0. 0. 0. 0. 0. 0. 0. 0. 0. 0. 0. 0. 0. 0. 0.
      0. 0. 0. 0. 0. 0. 0. 0. 0. 0. 0. 0. 0. 0. 9.92359519e-01 0. 0. 0.
      0. 0. 0. 0. 0. 0. 0. 0. 0. 0. 0. 0. 0. 0. 0. 0. 0. 0. 0. 0. 0. 0.
      0. 0. 0. 0. 0. 0. 0. 0. 0. 0. 6.84385896e-02 1.02657892e-01 0. 0.
      0. 0. 0. 0. 0. 0. 0. 0. 0. 0. 0. 0. 0. 0. 0. 0. 0. 0. 0. 0. 0. 0.
      0. 0. 0. 0. 0. 0. 0. 0. 0. 0. 0. 0. 0. 0. 0. 0. 0. 0. 0. 0. 0. 0.
      0. 0. 0. 0. 0. 0. 0. 0. 0. 0. 0. 0. 0. 0. 0. 0. 0. 0. 0. 0. 0. 0.
      0. 0. 0. 0. 0. 0. 0. 0. 0. 0. 0. 0. 0. 0. 0. 0. 0. 0. 0. 0. 0. 0.
      0. 0. 0. 0. 0. 0. 0. 0. 0. 0. 0. 0. 0. 0. 0. 0. 0. 0. 0. 0. 0. 0.
      0. 0. 0. 0. 0. 0. 0. 0. 0. 0. 0. 0. 0. 0. 0. 0. 0. 0. 0. 0. 0. 0.
      0. 2.98142403e-01 0. 0. 0. 0. 0. 0. 0. 1.49071202e-01 0. 0. 0. 0.
      0. 1.49071202e-01 0. 7.45356008e-02 0. 0. 0. 0. 0. 0. 0.
      7.45356008e-02 0. 0. 0. 7.45356008e-02 0. 7.45356008e-02 0. 0. 0.
      0. 7.45356008e-02 0. 0. 0. 0. 0. 0. 0. 0. 0. 0. 7.45356008e-02 0.
      2.98142403e-01 0. 0. 0. 0. 0. 0. 0. 1.49071202e-01 0.
      7.45356008e-02 0. 0. 0. 0. 0. 0. 0. 0. 0. 0. 0. 0. 0. 0. 0. 0. 0.
      0. 0. 0. 0. 0. 0. 0. 0. 0. 0. 0. 0. 0. 0. 0. 0. 0. 0. 0. 0. 0. 0.
      0. 0. 0. 0. 7.45356008e-02 0. 0. 0. 0. 0. 0. 0. 0. 0.
      1.49071202e-01 0. 0. 0. 0. 0. 7.45356008e-02 0. 7.45356008e-02 0.
      0. 0. 7.45356008e-02 0. 7.45356008e-02 0. 7.45356008e-02 0. 0. 0.
      0. 0. 0. 0. 0. 0. 0. 0. 0. 7.45356008e-02 0. 0. 0. 0. 0. 0. 0. 0.
      0. 0. 7.45356008e-02 0. 0. 0. 0. 0. 0. 0. 7.45356008e-02 0. 0. 0.
      0. 0. 0. 0. 0. 0. 0. 0. 0. 0. 0. 0. 0. 0. 0. 0. 0. 0. 0. 0. 0. 0.
      0. 0. 0. 0. 0. 0. 7.45356008e-02 1.49071202e-01 0. 7.45356008e-02
      0. 0. 0. 0. 0. 0. 0. 0. 0. 0. 0. 7.45356008e-02 0. 0. 0. 0. 0. 0.
      0. 0. 0. 0. 0. 0. 0. 0. 0. 0. 2.98142403e-01 3.72678012e-01 0.
      7.45356008e-02 0. 0. 0. 1.49071202e-01 0. 0. 0. 0. 0. 0. 0. 0.
      1.49071202e-01 2.23606795e-01 0. 7.45356008e-02 0. 0. 0. 0.
      7.45356008e-02 7.45356008e-02 0. 7.45356008e-02 2.23606795e-01
      7.45356008e-02 0. 4.47213590e-01</_>
    <_>
      6.16071641e-01 5.30817151e-01 5.81969857e-01 1. 0. 0. 0. 0. 0. 0.
      0. 0. 0. 0. 0. 0. 0. 0. 0. 0. 0. 0. 0. 0. 0. 0. 0. 0. 0. 0. 0. 0.
      0. 0. 0. 0. 0. 0. 0. 0. 0. 0. 0. 0. 0. 0. 0. 0. 0. 0. 0. 0. 0. 0.
      0. 0. 0. 0. 0. 0. 0. 0. 0. 0. 0. 0. 0. 0. 0. 0. 0. 0. 0. 0. 0. 0.
      0. 0. 0. 0. 0. 0. 0. 0. 0. 0. 0. 0. 0. 0. 0. 0. 0. 0. 0. 0. 0. 0.
      0. 0. 0. 0. 0. 0. 0. 0. 0. 0. 0. 0. 0. 0. 0. 0. 0. 0. 0. 0. 0. 0.
      0. 0. 0. 0. 0. 0. 0. 0. 0. 0. 0. 0. 0. 0. 0. 0. 0. 0. 0. 0. 0. 0.
      0. 0. 0. 0. 0. 0. 0. 0. 0. 0. 0. 0. 0. 0. 0. 0. 0. 0. 0. 0. 0. 0.
      0. 0. 0. 0. 0. 0. 0. 0. 0. 0. 0. 0. 0. 0. 0. 0. 0. 0. 0. 0. 0. 0.
      0. 0. 0. 0. 0. 0. 0. 0. 0. 0. 0. 0. 0. 0. 0. 0. 0. 0. 0. 0. 0. 0.
      0. 0. 0. 0. 0. 0. 0. 0. 0. 0. 0. 0. 0. 8.69565234e-02 0. 0. 0. 0.
      4.34782617e-02 0. 0. 0. 0. 0. 0. 0. 1.30434781e-01 0. 0. 0. 0. 0.
      0. 0. 0. 0. 0. 0. 0. 0. 0. 0. 0. 0. 4.34782617e-02 0. 0. 0. 0. 0.
      4.34782617e-02 0. 0. 0. 0. 0. 0. 0. 0. 0. 0. 0. 0. 0. 0. 0.
      4.34782617e-02 4.34782617e-02 0. 4.34782617e-02 0. 0. 0. 0. 0. 0.
      0. 0. 0. 0. 0. 0. 0. 0. 0. 0. 0. 0. 0. 0. 4.34782617e-02 0. 0. 0.
      0. 0. 0. 0. 0. 0. 0. 0. 0. 0. 0. 0. 0. 0. 0. 0. 0. 0. 0. 0. 0. 0.
      0. 0. 0. 0. 0. 0. 0. 0. 0. 4.34782617e-02 4.34782617e-02 0. 0. 0.
      0. 0. 0. 0. 0. 0. 0. 4.34782617e-02 4.34782617e-02 4.34782617e-02
      4.34782617e-02 0. 8.69565234e-02 0. 0. 0. 1.73913047e-01 0.
      4.34782617e-02 0. 8.69565234e-02 0. 0. 0. 1.30434781e-01 0. 0. 0.
      0. 0. 0. 0. 0. 4.34782617e-02 0. 0. 0. 0. 0. 0. 4.34782617e-02 0.
      0. 0. 4.34782617e-02 0. 0. 0. 0. 0. 0. 0. 0. 0. 0. 0. 0. 0. 0. 0.
      0. 0. 0. 0. 0. 4.34782617e-02 0. 0. 0. 0. 0. 0. 0. 0. 0. 0.
      8.69565234e-02 0. 0. 0. 8.69565234e-02 4.34782617e-02 0. 0.
      4.34782617e-02 0. 0. 0. 1.73913047e-01 0. 0. 0. 0. 0. 0. 0. 0. 0.
      0. 0. 0. 0. 0. 0. 4.34782617e-02 1.73913047e-01 4.34782617e-02 0.
      4.34782617e-02 0. 0. 0. 1.73913047e-01 4.34782617e-02 0. 0. 0. 0.
      0. 0. 1.30434781e-01 3.04347843e-01 8.69565234e-02 0.
      1.30434781e-01 0. 0. 0. 1.73913047e-01 2.17391312e-01
      4.34782617e-02 0. 0. 0. 4.34782617e-02 0. 7.39130437e-01</_>
    <_>
      5.97329140e-01 5.56899428e-01 5.77114284e-01 1. 0. 0. 0. 0. 0. 0.
      0. 0. 0. 0. 0. 0. 0. 0. 0. 0. 0. 0. 0. 0. 0. 0. 0. 0. 0. 0. 0. 0.
      0. 0. 0. 0. 0. 0. 0. 0. 0. 0. 0. 0. 0. 0. 0. 0. 0. 0. 0. 0. 0. 0.
      0. 0. 0. 0. 0. 0. 0. 0. 0. 0. 0. 0. 0. 0. 0. 0. 0. 0. 0. 0. 0. 0.
      0. 0. 0. 0. 0. 0. 0. 0. 0. 0. 0. 0. 0. 0. 0. 0. 0. 0. 0. 0. 0. 0.
      0. 0. 0. 0. 0. 0. 0. 0. 0. 0. 0. 0. 0. 0. 0. 0. 0. 0. 0. 0. 0. 0.
      0. 0. 0. 0. 0. 0. 0. 0. 0. 0. 0. 0. 0. 0. 0. 0. 0. 0. 0. 0. 0. 0.
      0. 0. 0. 0. 0. 0. 0. 0. 0. 0. 0. 0. 0. 0. 0. 0. 0. 0. 0. 0. 0. 0.
      0. 0. 0. 0. 0. 0. 0. 0. 0. 0. 0. 0. 0. 0. 0. 0. 0. 0. 0. 0. 0. 0.
      0. 0. 0. 0. 0. 0. 0. 0. 0. 0. 0. 0. 0. 0. 0. 0. 0. 0. 0. 0. 0. 0.
      0. 0. 0. 0. 0. 0. 0. 0. 0. 0. 0. 0. 0. 0. 0. 0. 0. 0. 0. 0. 0. 0.
      0. 0. 0. 0. 0. 0. 0. 0. 0. 0. 0. 0. 0. 0. 0. 0. 0. 0. 0. 0. 0. 0.
      0. 0. 0. 0. 0. 0. 0. 0. 0. 0. 0. 0. 0. 0. 0. 0. 6.83585927e-02 0.
      0. 0. 0. 0. 0. 0. 0. 6.83585927e-02 0. 0. 0. 2.73434371e-01 0. 0.
      0. 0. 0. 0. 0. 0. 0. 0. 0. 0. 0. 0. 0. 0. 0. 0. 0. 0. 0. 0. 0. 0.
      0. 0. 0. 0. 0. 0. 0. 0. 0. 0. 0. 0. 0. 0. 0. 0. 0. 0. 0. 0. 0. 0.
      0. 0. 0. 0. 0. 0. 0. 0. 0. 0. 0. 6.83585927e-02 0. 0. 0. 0. 0. 0.
      0. 0. 0. 0. 1.36717185e-01 0. 0. 0. 0. 0. 0. 0. 0. 0. 0. 0.
      2.73434371e-01 0. 0. 0. 0. 0. 0. 0. 0. 0. 0. 0. 0. 0. 0. 0. 0. 0.
      0. 0. 0. 0. 0. 0. 0. 0. 0. 0. 0. 0. 0. 0. 0. 0. 0. 0. 0. 0. 0. 0.
      0. 0. 0. 0. 0. 0. 0. 0. 6.83585927e-02 0. 0. 0. 0. 0. 0. 0. 0. 0.
      0. 0. 0. 0. 0. 0. 1.36717185e-01 0. 6.83585927e-02 0. 0. 0. 0. 0.
      0. 0. 0. 0. 0. 0. 0. 0. 0. 0. 0. 0. 1.36717185e-01 0. 0. 0.
      1.36717185e-01 0. 0. 0. 0. 0. 0. 0. 1.36717185e-01 0. 0. 0.
      6.83585927e-02 0. 0. 0. 0. 1.36717185e-01 1.36717185e-01 0.
      6.83585927e-02 6.83585927e-02 6.83585927e-02 6.83585927e-02
      8.20303082e-01</_>
    <_>
      7.01084912e-01 5.45937836e-01 4.58728552e-01 0. 0. 0. 0. 0. 0. 0.
      0. 0. 0. 0. 0. 0. 0. 0. 0. 0. 0. 0. 0. 0. 0. 0. 0. 0. 0. 0. 0. 0.
      0. 0. 0. 0. 0. 0. 0. 0. 0. 0. 0. 0. 0. 0. 0. 0. 0. 0. 0. 0. 0. 0.
      0. 0. 0. 0. 0. 0. 0. 0. 0. 0. 0. 0. 0. 0. 0. 0. 0. 0. 0. 0. 0. 0.
      0. 0. 0. 0. 0. 0. 0. 0. 0. 0. 0. 0. 0. 0. 0. 0. 0. 0. 0. 0. 0. 0.
      0. 0. 0. 0. 0. 0. 0. 0. 0. 0. 0. 0. 0. 0. 0. 0. 0. 0. 0. 0. 0. 0.
      0. 0. 0. 0. 0. 0. 0. 0. 0. 0. 0. 3.07219997e-02 0. 0. 0. 0. 0. 0.
      0. 0. 0. 0. 0. 0. 0. 0. 0. 0. 0. 0. 0. 0. 0. 0. 0. 0. 0. 0. 0. 0.
      0. 0. 0. 0. 0. 0. 0. 9.98465061e-01 4.60829996e-02 0. 0. 0. 0. 0.
      0. 0. 0. 0. 0. 0. 0. 0. 0. 0. 0. 0. 0. 0. 0. 0. 0. 0. 0. 0. 0. 0.
      0. 0. 0. 0. 0. 0. 0. 0. 0. 0. 0. 0. 0. 0. 0. 0. 0. 0. 0. 0. 0. 0.
      0. 5.22233009e-01 8.70388299e-02 8.70388299e-02 0. 0.
      8.70388299e-02 8.70388299e-02 8.70388299e-02 1.74077660e-01 0. 0.
      0. 2.61116505e-01 0. 0. 8.70388299e-02 0. 0. 0. 0. 0. 0. 0. 0. 0.
      8.70388299e-02 0. 0. 0. 0. 1.74077660e-01 0. 8.70388299e-02
      8.70388299e-02 0. 0. 0. 0. 0. 0. 0. 0. 0. 0. 0. 0. 0. 0. 0. 0. 0.
      0. 0. 0. 0. 0. 8.70388299e-02 0. 0. 0. 8.70388299e-02 0.
      1.74077660e-01 1.74077660e-01 0. 0. 8.70388299e-02 8.70388299e-02
      0. 0. 0. 0. 0. 0. 0. 0. 0. 0. 8.70388299e-02 0. 0. 0. 0. 0. 0. 0.
      0. 0. 0. 0. 0. 0. 0. 0. 0. 0. 0. 0. 8.70388299e-02 0. 0. 0. 0. 0.
      0. 0. 0. 0. 0. 0. 0. 0. 0. 0. 0. 0. 0. 0. 0. 0. 0. 0. 0. 0.
      1.74077660e-01 8.70388299e-02 8.70388299e-02 8.70388299e-02 0. 0.
      0. 8.70388299e-02 8.70388299e-02 0. 0. 0. 0. 0. 0. 8.70388299e-02
      0. 0. 0. 1.74077660e-01 8.70388299e-02 0. 0. 0. 0. 0. 0.
      8.70388299e-02 0. 0. 0. 0. 0. 0. 0. 0. 0. 0. 8.70388299e-02 0. 0.
      0. 0. 0. 0. 0. 0. 0. 0. 0. 0. 0. 8.70388299e-02 0. 0. 0. 0. 0. 0.
      0. 0. 0. 0. 0. 8.70388299e-02 0. 0. 0. 8.70388299e-02 0. 0.
      1.74077660e-01 0. 0. 0. 1.74077660e-01 0. 0. 0. 0. 0. 0. 0.
      8.70388299e-02 0. 0. 0. 8.70388299e-02 0. 0. 0. 8.70388299e-02 0.
      0. 0. 0. 0. 0. 0. 8.70388299e-02 0. 8.70388299e-02 0.
      8.70388299e-02 0. 0. 0. 8.70388299e-02 0. 0. 0. 0. 0. 0. 0.
      8.70388299e-02 8.70388299e-02 0. 0. 0. 0. 0. 8.70388299e-02 0. 0.
      1.74077660e-01 0. 8.70388299e-02 0. 1.74077660e-01 0.
      2.61116505e-01</_>
    <_>
      6.37539208e-01 5.47257423e-01 5.42266607e-01 6.53023124e-01
      9.79534760e-02 0. 0. 0. 0. 0. 3.26511562e-02 0. 0. 0. 0. 0. 0. 0.
      0. 0. 0. 0. 0. 0. 0. 0. 0. 0. 0. 0. 0. 0. 0. 0. 0. 0. 0. 0. 0.
      2.12232530e-01 1.63255781e-01 0. 0. 0. 0. 1.30604625e-01
      6.20371997e-01 0. 0. 0. 0. 0. 0. 0. 0. 0. 0. 0. 0. 0. 0. 0. 0. 0.
      0. 0. 0. 0. 0. 0. 0. 0. 0. 0. 0. 0. 0. 0. 0. 0. 0. 0.
      3.26511562e-02 0. 0. 0. 0. 0. 1.46930218e-01 0. 0. 0. 0. 0. 0. 0.
      0. 0. 0. 0. 0. 0. 0. 0. 0. 0. 0. 0. 0. 0. 0. 0. 0. 0. 0. 0. 0. 0.
      0. 0. 0. 0. 0. 0. 0. 1.46930218e-01 0. 0. 0. 0. 0. 0.
      2.12232530e-01 0. 0. 0. 0. 0. 0. 0. 0. 0. 0. 0. 0. 0. 0. 0. 0. 0.
      0. 0. 0. 0. 0. 0. 0. 0. 0. 0. 0. 0. 0. 0. 0. 0. 0. 0. 0. 0. 0. 0.
      0. 0. 0. 0. 0. 0. 0. 0. 0. 0. 0. 0. 0. 0. 0. 0. 0. 0. 0. 0. 0. 0.
      0. 0. 0. 0. 0. 0. 0. 0. 0. 0. 0. 0. 0. 0. 0. 0. 0. 0. 0. 0. 0. 0.
      0. 0. 0. 8.04084390e-02 2.68028136e-02 2.68028136e-02 0. 0. 0.
      2.68028136e-02 2.68028136e-02 0. 0. 0. 0. 5.36056273e-02 0.
      2.68028136e-02 0. 0. 0. 0. 0. 0. 0. 0. 0. 0. 0. 0. 0.
      1.34014070e-01 0. 1.34014070e-01 0. 0. 0. 1.07211255e-01
      2.68028136e-02 0. 0. 2.68028136e-02 0. 0. 0. 0. 0. 2.68028136e-02
      0. 0. 0. 0. 0. 0. 0. 0. 0. 0. 0. 5.36056273e-02 0. 0. 0.
      2.68028140e-01 0. 1.60816878e-01 2.68028136e-02 0. 0.
      2.68028136e-02 0. 0. 0. 0. 0. 0. 0. 0. 0. 0. 0. 0. 0. 0. 0. 0. 0.
      0. 0. 0. 0. 0. 0. 0. 0. 0. 0. 0. 0. 2.68028136e-02 0.
      2.68028136e-02 0. 0. 0. 0. 0. 0. 0. 0. 0. 0. 0. 0. 0. 0. 0. 0. 0.
      0. 0. 0. 0. 0. 0. 0. 0. 0. 0. 0. 0. 0. 2.68028136e-02 0.
      5.36056273e-02 0. 0. 0. 0. 0. 0. 0. 0. 0. 0. 0. 0. 0. 0. 0. 0. 0.
      0. 0. 0. 0. 0. 0. 0. 0. 0. 0. 2.68028136e-02 0. 0. 2.68028136e-02
      0. 0. 0. 0. 0. 0. 0. 0. 0. 0. 0. 0. 0. 0. 0. 0. 2.68028136e-02 0.
      0. 0. 0. 0. 0. 0. 0. 2.68028136e-02 0. 0. 0. 2.68028136e-02
      1.87619701e-01 0. 6.16464734e-01 0. 0. 0. 2.68028136e-02 0. 0. 0.
      0. 0. 0. 0. 2.68028136e-02 0. 2.68028136e-02 0. 0. 0.
      2.68028136e-02 0. 2.68028136e-02 0. 0. 0. 0. 0. 5.36056273e-02 0.
      2.14422509e-01 0. 1.07211255e-01 0. 4.55647826e-01 0.
      2.68028136e-02 0. 5.36056273e-02 0. 0. 0. 0. 0. 5.36056273e-02 0.
      0. 0. 0. 0. 2.68028136e-02 0. 0. 0. 2.68028136e-02 0. 0. 0.
      5.36056273e-02 0. 1.60816878e-01 0. 3.21633756e-01</_>
    <_>
      5.98579526e-01 5.40120602e-01 5.91584444e-01 1. 0. 0. 0. 0. 0. 0.
      0. 0. 0. 0. 0. 0. 0. 0. 0. 0. 0. 0. 0. 0. 0. 0. 0. 0. 0. 0. 0. 0.
      0. 0. 0. 0. 0. 0. 0. 0. 0. 0. 0. 0. 0. 0. 0. 0. 0. 0. 0. 0. 0. 0.
      0. 0. 0. 0. 0. 0. 0. 0. 0. 0. 0. 0. 0. 0. 0. 0. 0. 0. 0. 0. 0. 0.
      0. 0. 0. 0. 0. 0. 0. 0. 0. 0. 0. 0. 0. 0. 0. 0. 0. 0. 0. 0. 0. 0.
      0. 0. 0. 0. 0. 0. 0. 0. 0. 0. 0. 0. 0. 0. 0. 0. 0. 0. 0. 0. 0. 0.
      0. 0. 0. 0. 0. 0. 0. 0. 0. 0. 0. 0. 0. 0. 0. 0. 0. 0. 0. 0. 0. 0.
      0. 0. 0. 0. 0. 0. 0. 0. 0. 0. 0. 0. 0. 0. 0. 0. 0. 0. 0. 0. 0. 0.
      0. 0. 0. 0. 0. 0. 0. 0. 0. 0. 0. 0. 0. 0. 0. 0. 0. 0. 0. 0. 0. 0.
      0. 0. 0. 0. 0. 0. 0. 0. 0. 0. 0. 0. 0. 0. 0. 0. 0. 0. 0. 0. 0. 0.
      0. 0. 0. 0. 0. 0. 0. 0. 0. 0. 0. 2.40076836e-02 0. 0. 0. 0. 0. 0.
      0. 2.40076836e-02 0. 0. 0. 2.40076836e-02 0. 2.40076836e-02
      4.80153672e-02 0. 0. 0. 0. 0. 0. 0. 0. 0. 0. 0. 0. 0. 0.
      2.40076836e-02 0. 0. 0. 0. 0. 0. 0. 0. 0. 0. 0. 0. 0. 0. 0. 0. 0.
      0. 0. 0. 0. 0. 0. 0. 0. 4.80153672e-02 0. 0. 0. 0. 0. 0.
      2.40076836e-02 0. 0. 0. 0. 0. 0. 0. 0. 0. 0. 0. 0. 0. 0. 0. 0. 0.
      0. 0. 0. 0. 0. 0. 0. 0. 0. 0. 0. 0. 0. 0. 0. 2.40076836e-02 0. 0.
      0. 0. 0. 0. 0. 0. 0. 0. 0. 0. 0. 0. 0. 0. 0. 0. 0. 0. 0. 0. 0. 0.
      0. 0. 0. 0. 0. 2.40076836e-02 4.80153672e-02 2.40076836e-02 0. 0.
      9.60307345e-02 0. 0. 0. 2.40076836e-02 4.80153672e-02
      2.40076836e-02 0. 0. 0. 0. 2.40076836e-02 1.20038420e-01 0. 0. 0.
      0. 0. 0. 0. 0. 0. 0. 0. 2.40076836e-02 0. 0. 0. 0. 0. 0. 0. 0. 0.
      0. 0. 0. 0. 0. 0. 0. 0. 0. 0. 0. 0. 0. 0. 0. 0. 0. 0. 0. 0.
      2.40076836e-02 0. 0. 0. 0. 0. 4.80153672e-02 0. 2.40076836e-02 0.
      2.40076836e-02 0. 0. 0. 0. 0. 0. 0. 2.40076836e-02 0. 0. 0.
      7.20230490e-02 0. 0. 2.40076836e-02 0. 0. 0. 0. 0. 0. 0. 0. 0. 0.
      0. 0. 0. 4.80153672e-02 2.40076836e-02 0. 2.40076836e-02 0. 0. 0.
      4.80153672e-02 0. 0. 0. 2.40076836e-02 0. 0. 0. 4.80153672e-02
      4.80153672e-02 0. 0. 2.40076836e-02 0. 0. 0. 9.60307345e-02
      4.80153672e-02 4.80153672e-02 0. 2.40076836e-02 2.40076836e-02 0.
      2.40076836e-02 9.60307360e-01</_>
    <_>
      6.61705554e-01 5.27810156e-01 5.32505453e-01 9.90370929e-01 0. 0.
      0. 0. 0. 0. 0. 0. 0. 0. 0. 0. 0. 0. 0. 0. 0. 0. 0. 0. 0. 0. 0. 0.
      0. 0. 0. 0. 0. 0. 0. 0. 0. 0. 0. 1.38438955e-01 0. 0. 0. 0. 0. 0.
      0. 0. 0. 0. 0. 0. 0. 0. 0. 0. 0. 0. 0. 0. 0. 0. 0. 0. 0. 0. 0. 0.
      0. 0. 0. 0. 0. 0. 0. 0. 0. 0. 0. 0. 0. 0. 0. 0. 0. 0. 0. 0. 0. 0.
      0. 0. 0. 0. 0. 0. 0. 0. 0. 0. 0. 0. 0. 0. 0. 0. 0. 0. 0. 0. 0. 0.
      0. 0. 0. 0. 0. 0. 0. 0. 0. 0. 0. 0. 0. 0. 0. 0. 0. 0. 0. 0. 0. 0.
      0. 0. 0. 0. 0. 0. 0. 0. 0. 0. 0. 0. 0. 0. 0. 0. 0. 0. 0. 0. 0. 0.
      0. 0. 0. 0. 0. 0. 0. 0. 0. 0. 0. 0. 0. 0. 0. 0. 0. 0. 0. 0. 0. 0.
      0. 0. 0. 0. 0. 0. 0. 0. 0. 0. 0. 0. 0. 0. 0. 0. 0. 0. 0. 0. 0. 0.
      0. 0. 0. 0. 0. 0. 0. 0. 0. 0. 0. 0. 0. 0. 0. 0. 0. 0. 0.
      7.91807547e-02 0. 0. 0. 3.95903774e-02 0. 3.95903774e-02
      3.95903774e-02 7.91807547e-02 0. 0. 0. 0. 0. 3.95903774e-02 0. 0.
      0. 0. 0. 0. 0. 0. 0. 0. 0. 0. 0. 0. 0. 0. 0. 0. 0. 0. 0. 0. 0. 0.
      0. 0. 0. 0. 0. 0. 0. 0. 3.95903774e-02 3.95903774e-02 0. 0. 0. 0.
      0. 0. 0. 0. 0. 0. 0. 0. 0. 0. 0. 0. 0. 0. 0. 0. 0. 0. 0. 0. 0. 0.
      0. 0. 0. 0. 0. 0. 0. 0. 0. 0. 0. 0. 0. 0. 0. 0. 0. 0. 0. 0. 0. 0.
      0. 0. 0. 0. 0. 0. 0. 0. 3.95903774e-02 0. 0. 0. 0. 0. 0.
      7.91807547e-02 0. 0. 0. 0. 0. 0. 7.91807547e-02 3.95903774e-02
      3.95903774e-02 0. 0. 0. 0. 0. 1.97951883e-01 1.58361509e-01 0. 0.
      3.95903774e-02 0. 0. 3.95903774e-02 1.97951883e-01 3.95903774e-02
      0. 0. 3.95903774e-02 0. 0. 0. 1.18771136e-01 0. 0. 0. 0. 0. 0. 0.
      3.95903774e-02 0. 0. 0. 0. 0. 0. 0. 0. 0. 0. 0. 0. 0. 0. 0. 0. 0.
      0. 0. 0. 0. 0. 0. 0. 0. 0. 0. 0. 0. 0. 0. 0. 0. 0. 0. 0. 0. 0. 0.
      0. 3.95903774e-02 7.91807547e-02 0. 7.91807547e-02 0. 0. 0.
      1.58361509e-01 0. 0. 0. 0. 0. 0. 0. 3.95903774e-02 0. 0. 0. 0. 0.
      3.95903774e-02 0. 0. 0. 0. 0. 0. 0. 3.95903774e-02 0. 0.
      3.95903774e-02 0. 0. 1.18771136e-01 0. 0. 0. 7.91807547e-02
      3.95903774e-02 0. 0. 0. 0. 0. 3.95903774e-02 0. 7.91807547e-02 0.
      0. 1.18771136e-01 0. 0. 0. 1.97951883e-01 3.16723019e-01
      7.91807547e-02 0. 7.91807547e-02 3.95903774e-02 1.58361509e-01
      3.95903774e-02 7.52217174e-01</_>
    <_>
      5.78511536e-01 5.56231201e-01 5.96599698e-01 0. 0. 0. 0. 0. 0. 0.
      0. 0. 0. 0. 0. 0. 0. 0. 0. 0. 0. 0. 0. 0. 0. 0. 0. 0. 0. 0. 0. 0.
      0. 0. 0. 0. 0. 0. 0. 0. 0. 0. 0. 0. 0. 0. 2.48624608e-01
      1.14749819e-01 0. 0. 0. 0. 0. 0. 0. 0. 0. 0. 0. 0. 0. 0. 0. 0. 0.
      0. 0. 0. 0. 0. 0. 0. 0. 0. 0. 0. 0. 0. 0. 0. 0. 0. 0.
      2.86874563e-01 0. 0. 0. 0. 0. 9.17998552e-01 0. 0. 0. 0. 0. 0. 0.
      0. 0. 0. 0. 0. 0. 0. 0. 0. 0. 0. 0. 0. 0. 0. 0. 0. 0. 0. 0. 0. 0.
      0. 0. 0. 0. 0. 0. 0. 0. 0. 0. 0. 0. 0. 0. 0. 0. 0. 0. 0. 0. 0. 0.
      0. 0. 0. 0. 0. 0. 0. 0. 0. 0. 0. 0. 0. 0. 0. 0. 0. 0. 0. 0. 0. 0.
      0. 0. 0. 0. 0. 0. 0. 0. 0. 0. 0. 0. 0. 0. 0. 0. 0. 0. 0. 0. 0. 0.
      0. 0. 0. 0. 0. 0. 0. 0. 0. 0. 0. 0. 0. 0. 0. 0. 0. 0. 0. 0. 0. 0.
      0. 0. 0. 0. 0. 0. 0. 0. 0. 0. 0. 0. 0. 0. 4.22577113e-02
      4.22577113e-02 0. 0. 4.22577113e-02 0. 0. 0. 0. 0. 0. 0.
      8.45154226e-02 4.22577113e-02 4.22577113e-02 0. 0. 0. 0. 0. 0. 0.
      0. 0. 0. 0. 2.11288556e-01 0. 5.07092535e-01 4.22577113e-02
      1.26773134e-01 0. 4.22577113e-02 0. 0. 0. 0. 0. 0. 0. 0. 0.
      4.22577113e-02 0. 0. 0. 4.22577113e-02 0. 0. 0. 0. 0. 0. 0.
      4.22577113e-02 0. 4.22577113e-02 0. 6.33865654e-01 0.
      4.22577113e-01 4.22577113e-02 0. 0. 0. 0. 0. 0. 0. 0. 0. 0. 0. 0.
      0. 0. 0. 0. 0. 0. 0. 0. 0. 0. 0. 0. 0. 0. 0. 0. 0. 0. 0. 0. 0. 0.
      0. 0. 0. 0. 0. 0. 0. 0. 0. 0. 0. 0. 0. 0. 0. 0. 0. 0. 0. 0. 0. 0.
      0. 0. 0. 0. 0. 0. 4.22577113e-02 0. 0. 4.22577113e-02 0. 0. 0. 0.
      0. 8.45154226e-02 0. 4.22577113e-02 0. 0. 0. 0. 0. 0. 0. 0. 0. 0.
      0. 0. 0. 0. 0. 0. 0. 0. 0. 0. 0. 0. 0. 0. 0. 0. 0. 0. 0. 0. 0. 0.
      0. 0. 0. 0. 0. 0. 0. 0. 0. 0. 0. 0. 0. 0. 0. 0. 0. 0. 0. 0. 0. 0.
      0. 0. 0. 8.45154226e-02 0. 0. 0. 0. 0. 0. 0. 0. 0. 0. 0.
      4.22577113e-02 0. 0. 0. 0. 0. 0. 0. 0. 0. 0. 0. 0. 0.
      4.22577113e-02 0. 8.45154226e-02 8.45154226e-02 4.22577113e-02 0.
      1.26773134e-01 0. 0. 0. 0. 0. 0. 0. 0. 0. 0. 0. 0. 8.45154226e-02
      0. 0. 0. 0. 0. 0. 0. 0. 0. 0. 0. 4.22577113e-02 4.22577113e-02 0.
      8.45154226e-02</_>
    <_>
      5.90972960e-01 5.44968009e-01 5.94777822e-01 9.99999940e-01 0. 0.
      0. 0. 0. 0. 0. 0. 0. 0. 0. 0. 0. 0. 0. 0. 0. 0. 0. 0. 0. 0. 0. 0.
      0. 0. 0. 0. 0. 0. 0. 0. 0. 0. 0. 0. 0. 0. 0. 0. 0. 0. 0. 0. 0. 0.
      0. 0. 0. 0. 0. 0. 0. 0. 0. 0. 0. 0. 0. 0. 0. 0. 0. 0. 0. 0. 0. 0.
      0. 0. 0. 0. 0. 0. 0. 0. 0. 0. 0. 0. 0. 0. 0. 0. 0. 0. 0. 0. 0. 0.
      0. 0. 0. 0. 0. 0. 0. 0. 0. 0. 0. 0. 0. 0. 0. 0. 0. 0. 0. 0. 0. 0.
      0. 0. 0. 0. 0. 0. 0. 0. 0. 0. 0. 0. 0. 0. 0. 0. 0. 0. 0. 0. 0. 0.
      0. 0. 0. 0. 0. 0. 0. 0. 0. 0. 0. 0. 0. 0. 0. 0. 0. 0. 0. 0. 0. 0.
      0. 0. 0. 0. 0. 0. 0. 0. 0. 0. 0. 0. 0. 0. 0. 0. 0. 0. 0. 0. 0. 0.
      0. 0. 0. 0. 0. 0. 0. 0. 0. 0. 0. 0. 0. 0. 0. 0. 0. 0. 0. 0. 0. 0.
      0. 0. 0. 0. 0. 0. 0. 0. 0. 0. 0. 0. 0. 0. 0. 1.00503780e-01
      5.02518900e-02 0. 0. 5.02518900e-02 0. 0. 5.02518900e-02
      1.00503780e-01 0. 0. 0. 0. 0. 5.02518900e-02 2.51259446e-01 0. 0.
      0. 0. 0. 0. 5.02518900e-02 0. 5.02518900e-02 0. 0. 0. 0. 0. 0.
      1.00503780e-01 0. 0. 0. 0. 0. 0. 0. 0. 0. 0. 5.02518900e-02 0. 0.
      0. 0. 0. 0. 0. 0. 0. 0. 0. 0. 0. 0. 0. 0. 5.02518900e-02 0. 0. 0.
      0. 0. 0. 0. 0. 0. 0. 0. 0. 0. 0. 0. 0. 0. 0. 0. 0. 0. 0. 0. 0. 0.
      0. 0. 0. 0. 0. 0. 0. 0. 0. 0. 0. 0. 0. 0. 0. 0. 0. 0. 0. 0. 0. 0.
      0. 0. 0. 0. 5.02518900e-02 0. 0. 0. 0. 0. 0. 0. 0. 5.02518900e-02
      5.02518900e-02 0. 0. 5.02518900e-02 0. 0. 1.50755674e-01
      1.00503780e-01 0. 0. 1.00503780e-01 0. 0. 0. 1.00503780e-01 0. 0.
      0. 0. 5.02518900e-02 0. 5.02518900e-02 1.50755674e-01 0. 0. 0. 0.
      0. 0. 0. 5.02518900e-02 0. 0. 0. 5.02518900e-02 0. 0. 0.
      5.02518900e-02 0. 0. 0. 0. 0. 0. 0. 0. 0. 0. 0. 0. 0. 0. 0. 0. 0.
      5.02518900e-02 0. 0. 0. 0. 0. 0. 5.02518900e-02 0. 0. 0. 0.
      5.02518900e-02 0. 5.02518900e-02 5.02518900e-02 5.02518900e-02 0.
      0. 0. 5.02518900e-02 0. 0. 0. 0. 0. 0. 0. 0. 0. 5.02518900e-02 0.
      0. 0. 0. 0. 0. 0. 0. 0. 0. 0. 0. 0. 0. 0. 0. 1.00503780e-01
      5.02518900e-02 5.02518900e-02 5.02518900e-02 0. 0. 5.02518900e-02
      5.02518900e-02 0. 0. 0. 0. 5.02518900e-02 0. 0. 0. 1.00503780e-01
      1.50755674e-01 0. 1.50755674e-01 0. 5.02518900e-02 0.
      1.00503780e-01 2.01007560e-01 3.01511347e-01 0. 1.50755674e-01
      1.50755674e-01 0. 5.02518900e-02 7.03526437e-01</_>
    <_>
      5.96483290e-01 5.57784915e-01 5.77134073e-01 1. 0. 0. 0. 0. 0. 0.
      0. 0. 0. 0. 0. 0. 0. 0. 0. 0. 0. 0. 0. 0. 0. 0. 0. 0. 0. 0. 0. 0.
      0. 0. 0. 0. 0. 0. 0. 0. 0. 0. 0. 0. 0. 0. 0. 0. 0. 0. 0. 0. 0. 0.
      0. 0. 0. 0. 0. 0. 0. 0. 0. 0. 0. 0. 0. 0. 0. 0. 0. 0. 0. 0. 0. 0.
      0. 0. 0. 0. 0. 0. 0. 0. 0. 0. 0. 0. 0. 0. 0. 0. 0. 0. 0. 0. 0. 0.
      0. 0. 0. 0. 0. 0. 0. 0. 0. 0. 0. 0. 0. 0. 0. 0. 0. 0. 0. 0. 0. 0.
      0. 0. 0. 0. 0. 0. 0. 0. 0. 0. 0. 0. 0. 0. 0. 0. 0. 0. 0. 0. 0. 0.
      0. 0. 0. 0. 0. 0. 0. 0. 0. 0. 0. 0. 0. 0. 0. 0. 0. 0. 0. 0. 0. 0.
      0. 0. 0. 0. 0. 0. 0. 0. 0. 0. 0. 0. 0. 0. 0. 0. 0. 0. 0. 0. 0. 0.
      0. 0. 0. 0. 0. 0. 0. 0. 0. 0. 0. 0. 0. 0. 0. 0. 0. 0. 0. 0. 0. 0.
      0. 0. 0. 0. 0. 0. 0. 0. 0. 0. 0. 0. 0. 1.37794569e-01 0. 0. 0.
      4.59315218e-02 9.18630436e-02 0. 0. 0. 0. 0. 0. 4.59315218e-02 0.
      0. 0. 0. 0. 0. 0. 0. 0. 0. 0. 0. 0. 0. 0. 4.59315218e-02
      4.59315218e-02 1.37794569e-01 0. 9.18630436e-02 0. 0. 0. 0. 0. 0.
      0. 0. 0. 0. 0. 4.59315218e-02 0. 9.18630436e-02 0. 4.59315218e-02
      0. 0. 0. 0. 0. 0. 0. 4.59315218e-02 0. 1.37794569e-01 0.
      2.29657605e-01 4.59315218e-02 0. 0. 4.59315218e-02 0. 0. 0. 0. 0.
      0. 0. 0. 0. 0. 0. 0. 0. 0. 0. 0. 0. 0. 0. 0. 4.59315218e-02 0. 0.
      0. 0. 0. 0. 0. 0. 4.59315218e-02 0. 4.59315218e-02 0.
      4.59315218e-02 0. 0. 0. 0. 0. 0. 0. 0. 0. 0. 0. 4.59315218e-02 0.
      0. 0. 0. 0. 0. 0. 9.18630436e-02 4.59315218e-02 0. 0.
      9.18630436e-02 0. 4.59315218e-02 0. 4.59315218e-02 0. 0.
      4.59315218e-02 0. 0. 0. 9.18630436e-02 4.59315218e-02
      4.59315218e-02 0. 0. 0. 0. 0. 2.75589138e-01 0. 0. 0. 0. 0. 0. 0.
      0. 0. 0. 0. 0. 4.59315218e-02 0. 0. 9.18630436e-02 0. 0. 0. 0. 0.
      0. 0. 0. 0. 0. 0. 0. 0. 0. 4.59315218e-02 0. 0. 0. 0. 0. 0. 0. 0.
      0. 0. 0. 0. 0. 0. 0. 0. 0. 4.59315218e-02 0. 0. 9.18630436e-02 0.
      0. 0. 0. 0. 0. 0. 0. 0. 0. 4.59315218e-02 1.37794569e-01 0. 0. 0.
      0. 0. 0. 0. 0. 0. 0. 0. 0. 0. 4.59315218e-02 0. 9.18630436e-02 0.
      1.37794569e-01 0. 0. 0. 0. 0. 0. 0. 0. 0. 0. 0. 0. 0.
      4.59315218e-02 9.18630436e-02 9.18630436e-02 4.59315218e-02 0. 0.
      9.18630436e-02 0. 4.59315218e-02 2.75589138e-01 1.37794569e-01 0.
      1.37794569e-01 1.37794569e-01 9.18630436e-02 0. 6.88972831e-01</_>
    <_>
      6.08060062e-01 5.50070643e-01 5.72438002e-01 1. 0. 0. 0. 0. 0. 0.
      0. 0. 0. 0. 0. 0. 0. 0. 0. 0. 0. 0. 0. 0. 0. 0. 0. 0. 0. 0. 0. 0.
      0. 0. 0. 0. 0. 0. 0. 0. 0. 0. 0. 0. 0. 0. 0. 0. 0. 0. 0. 0. 0. 0.
      0. 0. 0. 0. 0. 0. 0. 0. 0. 0. 0. 0. 0. 0. 0. 0. 0. 0. 0. 0. 0. 0.
      0. 0. 0. 0. 0. 0. 0. 0. 0. 0. 0. 0. 0. 0. 0. 0. 0. 0. 0. 0. 0. 0.
      0. 0. 0. 0. 0. 0. 0. 0. 0. 0. 0. 0. 0. 0. 0. 0. 0. 0. 0. 0. 0. 0.
      0. 0. 0. 0. 0. 0. 0. 0. 0. 0. 0. 0. 0. 0. 0. 0. 0. 0. 0. 0. 0. 0.
      0. 0. 0. 0. 0. 0. 0. 0. 0. 0. 0. 0. 0. 0. 0. 0. 0. 0. 0. 0. 0. 0.
      0. 0. 0. 0. 0. 0. 0. 0. 0. 0. 0. 0. 0. 0. 0. 0. 0. 0. 0. 0. 0. 0.
      0. 0. 0. 0. 0. 0. 0. 0. 0. 0. 0. 0. 0. 0. 0. 0. 0. 0. 0. 0. 0. 0.
      0. 0. 0. 0. 0. 0. 0. 0. 0. 0. 0. 0. 0. 0. 7.14285746e-02 0. 0. 0.
      7.14285746e-02 0. 0. 0. 7.14285746e-02 0. 0. 7.14285746e-02
      2.14285731e-01 0. 0. 0. 0. 0. 0. 0. 0. 0. 0. 0. 0. 0. 0.
      7.14285746e-02 7.14285746e-02 0. 0. 0. 0. 0. 0. 0. 0. 0. 0. 0. 0.
      0. 0. 0. 0. 0. 0. 0. 0. 0. 0. 0. 0. 7.14285746e-02 0. 0. 0. 0. 0.
      0. 7.14285746e-02 0. 0. 0. 0. 0. 0. 0. 0. 0. 0. 0. 0. 0. 0. 0. 0.
      0. 0. 0. 0. 0. 0. 0. 0. 0. 0. 0. 0. 0. 0. 0. 0. 0. 0. 0. 0. 0. 0.
      0. 0. 0. 0. 0. 0. 0. 0. 0. 0. 7.14285746e-02 0. 0. 0. 0. 0. 0. 0.
      3.57142866e-01 0. 0. 0. 1.42857149e-01 0. 0. 1.42857149e-01 0.
      7.14285746e-02 0. 1.42857149e-01 0. 0. 0. 4.28571463e-01 0. 0. 0.
      0. 0. 0. 0. 3.57142866e-01 0. 0. 0. 0. 0. 0. 0. 0. 0. 0. 0. 0. 0.
      0. 0. 1.42857149e-01 7.14285746e-02 0. 0. 0. 0. 0. 0. 0. 0. 0. 0.
      0. 0. 0. 0. 0. 0. 0. 0. 0. 0. 0. 0. 1.42857149e-01 0. 0. 0. 0. 0.
      0. 0. 0. 0. 0. 0. 7.14285746e-02 0. 0. 0. 7.14285746e-02 0. 0. 0.
      7.14285746e-02 0. 0. 0. 2.14285731e-01 0. 0. 0. 0. 0. 0. 0. 0. 0.
      0. 0. 0. 0. 0. 0. 0. 1.42857149e-01 0. 0. 0. 0. 0. 0. 0. 0.
      7.14285746e-02 0. 0. 0. 0. 0. 0. 2.85714298e-01 7.14285746e-02 0.
      0. 0. 0. 0. 7.14285746e-02 1.42857149e-01 1.42857149e-01 0.
      7.14285746e-02 0. 7.14285746e-02 0. 3.57142866e-01</_>
    <_>
      6.17927253e-01 5.69478929e-01 5.42088211e-01 0. 0. 0. 0. 0. 0. 0.
      0. 0. 0. 0. 0. 0. 0. 0. 0. 0. 0. 0. 0. 0. 0. 0. 0. 0. 0. 0. 0. 0.
      0. 0. 0. 0. 0. 0. 0. 2.14373227e-02 0. 0. 0. 0. 0. 2.14373227e-02
      2.14373227e-02 0. 0. 0. 0. 0. 0. 0. 0. 0. 0. 0. 0. 0. 0. 0. 0. 0.
      0. 0. 0. 0. 0. 0. 0. 0. 0. 0. 0. 0. 0. 0. 0. 0. 0. 0.
      4.28746454e-02 0. 0. 0. 0. 0. 4.28746454e-02 6.43119663e-02 0. 0.
      0. 0. 0. 0. 0. 0. 0. 0. 0. 0. 0. 0. 0. 0. 0. 0. 0. 0. 0. 0. 0. 0.
      0. 0. 0. 0. 0. 0. 0. 0. 0. 0. 0. 1.28623933e-01 0. 0. 0. 0. 0.
      6.43119663e-02 3.64434481e-01 0. 0. 0. 0. 0. 0. 0. 0. 0. 0. 0. 0.
      0. 0. 0. 0. 0. 0. 0. 0. 0. 0. 0. 0. 0. 0. 0. 0. 0. 0. 0. 0. 0. 0.
      0. 1.28623933e-01 0. 0. 0. 0. 0. 6.43119663e-02 1.92935914e-01 0.
      0. 0. 0. 0. 2.14373227e-02 0. 0. 0. 0. 0. 0. 0. 0. 0. 0. 0. 0. 0.
      0. 0. 0. 0. 0. 0. 0. 0. 0. 0. 0. 0. 0. 0. 2.14373227e-02
      6.43119663e-02 2.14373216e-01 0. 0. 0. 0. 0. 1.71498582e-01
      8.36055577e-01 3.78516644e-01 5.40738069e-02 2.16295227e-01
      1.08147614e-01 0. 0. 0. 5.40738069e-02 1.08147614e-01 0. 0. 0. 0.
      0. 1.62221417e-01 2.16295227e-01 0. 0. 0. 0. 0. 0. 0.
      5.40738069e-02 5.40738069e-02 0. 0. 0. 5.40738069e-02 0.
      1.62221417e-01 5.40738069e-02 1.62221417e-01 0. 5.40738069e-02 0.
      0. 0. 0. 5.40738069e-02 5.40738069e-02 0. 0. 0. 0. 0. 0. 0.
      1.08147614e-01 0. 0. 0. 0. 0. 0. 0. 5.40738069e-02 0. 0. 0.
      1.08147614e-01 0. 0. 0. 1.08147614e-01 0. 0. 0. 0. 0. 0. 0. 0. 0.
      0. 0. 0. 0. 0. 5.40738069e-02 0. 0. 0. 0. 0. 0. 0. 0. 0. 0. 0. 0.
      0. 0. 0. 0. 5.40738069e-02 0. 5.40738069e-02 0. 0. 0. 0. 0. 0. 0.
      0. 0. 0. 0. 0. 5.40738069e-02 1.62221417e-01 0. 0. 0. 0. 0. 0.
      5.40738069e-02 1.08147614e-01 0. 0. 0. 5.40738069e-02 0.
      1.08147614e-01 5.40738069e-02 3.24442834e-01 5.40738069e-02 0.
      1.08147614e-01 0. 0. 0. 5.40738069e-02 5.40738069e-02
      5.40738069e-02 0. 0. 5.40738069e-02 5.40738069e-02 0. 0. 0. 0. 0.
      0. 0. 0. 0. 0. 0. 0. 0. 0. 0. 0. 0. 5.40738069e-02 0. 0. 0.
      5.40738069e-02 0. 0. 0. 0. 0. 0. 0. 0. 0. 0. 0. 0. 0. 0. 0. 0. 0.
      0. 0. 0. 0. 0. 0. 0. 0. 0. 0. 5.40738069e-02 5.40738069e-02
      1.08147614e-01 0. 1.08147614e-01 0. 0. 0. 1.08147614e-01 0.
      5.40738069e-02 0. 0. 0. 0. 0. 5.40738069e-02 0. 0. 0.
      5.40738069e-02 0. 0. 0. 0. 5.40738069e-02 0. 0. 0. 0.
      5.40738069e-02 0. 0. 0. 1.62221417e-01 5.40738069e-02
      1.62221417e-01 0. 0. 0. 0. 5.40738069e-02 0. 0. 0. 0. 0. 0. 0.
      3.24442834e-01 0. 0. 5.40738069e-02 0. 0. 0. 1.08147614e-01
      2.70369023e-01 0. 0. 5.40738069e-02 0. 5.40738069e-02 0.
      2.70369023e-01</_>
    <_>
      6.21028364e-01 5.79843581e-01 5.27356923e-01 9.78712022e-01 0. 0.
      0. 0. 0. 0. 0. 0. 0. 0. 0. 0. 0. 0. 0. 0. 0. 0. 0. 0. 0. 0. 0. 0.
      0. 0. 0. 0. 0. 0. 0. 0. 0. 0. 0. 1.15900114e-01 0. 0. 0. 0. 0.
      2.57555805e-02 1.67411268e-01 0. 0. 0. 0. 0. 0. 0. 0. 0. 0. 0. 0.
      0. 0. 0. 0. 0. 0. 0. 0. 0. 0. 0. 0. 0. 0. 0. 0. 0. 0. 0. 0. 0. 0.
      0. 0. 0. 0. 0. 0. 0. 0. 0. 0. 0. 0. 0. 0. 0. 0. 0. 0. 0. 0. 0. 0.
      0. 0. 0. 0. 0. 0. 0. 0. 0. 0. 0. 0. 0. 0. 0. 0. 0. 0. 0. 0. 0. 0.
      0. 0. 0. 0. 0. 0. 0. 0. 0. 0. 0. 0. 0. 0. 0. 0. 0. 0. 0. 0. 0. 0.
      0. 0. 0. 0. 0. 0. 0. 0. 0. 0. 0. 0. 0. 0. 0. 0. 0. 0. 0. 0. 0. 0.
      0. 0. 0. 0. 0. 0. 0. 0. 0. 0. 0. 0. 0. 0. 0. 0. 0. 0. 0. 0. 0. 0.
      0. 0. 0. 0. 0. 0. 0. 0. 0. 0. 0. 0. 0. 0. 0. 0. 0. 0. 0. 0. 0. 0.
      0. 0. 0. 0. 0. 0. 8.89108479e-02 0. 0. 0. 1.33366272e-01 0. 0.
      4.44554240e-02 1.77821696e-01 0. 4.44554240e-02 0. 0. 0.
      1.77821696e-01 1.33366272e-01 4.44554240e-02 4.44554240e-02
      4.44554240e-02 0. 8.89108479e-02 0. 0. 0. 0. 0. 4.44554240e-02
      4.44554240e-02 8.89108479e-02 0. 7.11286783e-01 1.33366272e-01
      4.44554240e-02 0. 0. 0. 0. 0. 0. 0. 0. 0. 0. 0. 0. 0. 0. 0. 0.
      4.44554240e-02 0. 0. 4.44554240e-02 0. 0. 0. 0. 0. 0. 0.
      1.77821696e-01 0. 3.55643392e-01 8.89108479e-02 0. 0. 0. 0. 0. 0.
      0. 0. 0. 0. 0. 0. 4.44554240e-02 0. 4.44554240e-02 0. 0. 0. 0. 0.
      0. 0. 0. 0. 0. 0. 0. 0. 0. 0. 0. 4.44554240e-02 0. 0. 0. 0. 0. 0.
      0. 0. 0. 0. 0. 0. 0. 0. 0. 0. 0. 0. 0. 0. 0. 0. 0. 0. 0. 0. 0. 0.
      4.44554240e-02 0. 8.89108479e-02 4.44554240e-02 0. 0. 0. 0. 0. 0.
      0. 4.44554240e-02 0. 0. 0. 0. 0. 0. 8.89108479e-02 4.44554240e-02
      0. 0. 0. 0. 0. 0. 0. 0. 0. 0. 0. 0. 0. 0. 4.44554240e-02 0. 0.
      4.44554240e-02 0. 0. 0. 0. 0. 0. 0. 0. 0. 0. 0. 0. 0. 0. 0. 0. 0.
      0. 0. 0. 0. 4.44554240e-02 0. 0. 0. 0. 0. 0. 0. 4.44554240e-02 0.
      0. 0. 0. 0. 0. 0. 0. 0. 0. 0. 0. 0. 0. 0. 0. 0. 0. 0. 0.
      4.44554240e-02 0. 0. 0. 0. 0. 0. 0. 0. 0. 0. 4.44554240e-02
      8.89108479e-02 1.33366272e-01 0. 0. 0. 0. 0. 0. 0. 0. 0. 0. 0. 0.
      4.44554240e-02 4.44554240e-02 0. 1.33366272e-01 0. 0. 0. 0. 0. 0.
      4.44554240e-02 0. 0. 0. 4.44554240e-02 4.44554240e-02
      4.44554240e-02 2.66732544e-01</_>
    <_>
      5.76997697e-01 5.44802368e-01 6.08493268e-01 9.69607234e-01
      8.31091926e-02 0. 0. 0. 0. 0. 0. 0. 0. 0. 0. 0. 0. 0. 0. 0. 0. 0.
      0. 0. 0. 0. 0. 0. 0. 0. 0. 0. 0. 0. 0. 0. 0. 0. 0. 0.
      5.54061309e-02 0. 0. 0. 0. 0. 2.21624523e-01 2.77030654e-02 0. 0.
      0. 0. 0. 0. 0. 0. 0. 0. 0. 0. 0. 0. 0. 0. 0. 0. 0. 0. 0. 0. 0. 0.
      0. 0. 0. 0. 0. 0. 0. 0. 0. 0. 0. 0. 0. 0. 0. 0. 0. 0. 0. 0. 0. 0.
      0. 0. 0. 0. 0. 0. 0. 0. 0. 0. 0. 0. 0. 0. 0. 0. 0. 0. 0. 0. 0. 0.
      0. 0. 0. 0. 0. 0. 0. 0. 0. 0. 0. 0. 0. 0. 0. 0. 0. 0. 0. 0. 0. 0.
      0. 0. 0. 0. 0. 0. 0. 0. 0. 0. 0. 0. 0. 0. 0. 0. 0. 0. 0. 0. 0. 0.
      0. 0. 0. 0. 0. 0. 0. 0. 0. 0. 0. 0. 0. 0. 0. 0. 0. 0. 0. 0. 0. 0.
      0. 0. 0. 0. 0. 0. 0. 0. 0. 0. 0. 0. 0. 0. 0. 0. 0. 0. 0. 0. 0. 0.
      0. 0. 0. 0. 0. 0. 0. 0. 0. 0. 0. 0. 0. 0. 0. 1.06600359e-01
      3.55334543e-02 0. 0. 3.55334543e-02 0. 0. 0. 0. 0. 0. 0.
      3.55334543e-02 0. 0. 0. 0. 0. 3.55334543e-02 0. 0. 0. 0. 0. 0. 0.
      0. 0. 0. 0. 0. 0. 3.55334543e-02 0. 0. 0. 0. 0. 0. 0. 0. 0. 0. 0.
      0. 0. 0. 0. 0. 0. 0. 3.55334543e-02 0. 0. 0. 0. 0. 0. 0. 0. 0. 0.
      0. 0. 0. 3.55334543e-02 0. 0. 0. 0. 0. 0. 0. 0. 0. 0. 0. 0. 0. 0.
      0. 0. 0. 0. 0. 0. 0. 0. 0. 0. 0. 0. 0. 0. 0. 0. 0. 3.55334543e-02
      0. 0. 0. 0. 0. 0. 3.55334543e-02 0. 0. 0. 0. 0. 0. 3.55334543e-02
      0. 0. 0. 3.55334543e-02 0. 0. 0. 0. 3.55334543e-02 0. 0.
      3.55334543e-02 3.55334543e-02 0. 0. 7.10669085e-02 3.55334543e-02
      7.10669085e-02 0. 3.55334543e-02 0. 0. 3.55334543e-02 0. 0. 0. 0.
      0. 0. 0. 0. 0. 0. 0. 0. 0. 0. 0. 0. 0. 0. 0. 0. 0. 0. 0. 0. 0. 0.
      3.55334543e-02 0. 0. 0. 0. 0. 0. 0. 0. 0. 0. 0. 0. 0. 0. 0. 0. 0.
      0. 0. 0. 0. 0. 0. 0. 0. 0. 0. 0. 0. 3.55334543e-02 1.06600359e-01
      7.10669085e-02 0. 1.42133817e-01 0. 0. 7.10669085e-02 0. 0. 0. 0.
      0. 3.55334543e-02 0. 0. 0. 0. 0. 0. 0. 0. 3.55334543e-02 0. 0. 0.
      3.55334543e-02 0. 0. 0. 0. 0. 3.55334543e-02 3.55334543e-02
      1.77667275e-01 0. 1.42133817e-01 3.55334543e-02 0. 0. 0. 0.
      3.55334543e-02 0. 0. 0. 3.55334543e-02 0. 3.55334543e-02
      7.10669085e-02 7.10669085e-02 0. 0. 0. 3.55334543e-02 0.
      1.42133817e-01 3.55334543e-02 3.55334543e-02 0. 1.42133817e-01 0.
      7.10669085e-02 3.55334543e-02 8.88336360e-01</_>
    <_>
      5.42357624e-01 5.69102466e-01 6.18037701e-01 2.05238890e-02 0. 0.
      0. 0. 0. 0. 6.15716651e-02 0. 0. 0. 0. 0. 0. 0. 0. 0. 0. 0. 0. 0.
      0. 0. 0. 0. 0. 0. 0. 0. 0. 0. 0. 0. 0. 0. 0. 0. 0. 0. 0. 0. 0. 0.
      9.23574924e-01 6.15716651e-02 0. 0. 0. 0. 0. 1.23143330e-01 0. 0.
      0. 0. 0. 0. 0. 0. 0. 0. 0. 0. 0. 0. 0. 0. 0. 0. 0. 0. 0. 0. 0. 0.
      0. 0. 0. 0. 0. 0. 0. 0. 0. 0. 0. 3.48906100e-01 4.10477780e-02 0.
      0. 0. 0. 0. 2.05238890e-02 0. 0. 0. 0. 0. 0. 0. 0. 0. 0. 0. 0. 0.
      0. 0. 0. 0. 0. 0. 0. 0. 0. 0. 0. 0. 0. 0. 0. 0. 0. 0. 0. 0. 0. 0.
      0. 0. 0. 0. 0. 0. 0. 0. 0. 0. 0. 0. 0. 0. 0. 0. 0. 0. 0. 0. 0. 0.
      0. 0. 0. 0. 0. 0. 0. 0. 0. 0. 0. 0. 0. 0. 0. 0. 0. 0. 0. 0. 0. 0.
      0. 0. 0. 0. 0. 0. 0. 0. 0. 0. 0. 0. 0. 0. 0. 0. 0. 0. 0. 0. 0. 0.
      0. 0. 0. 0. 0. 0. 0. 0. 0. 0. 0. 0. 0. 0. 0. 0. 0. 0. 0. 0. 0. 0.
      0. 0. 0. 5.45544736e-02 0. 0. 0. 0. 0. 0. 0. 0. 0. 5.45544736e-02
      0. 0. 0. 0. 0. 0. 0. 5.45544736e-02 0. 1.09108947e-01 0. 0. 0.
      1.63663417e-01 0. 3.81881326e-01 5.45544736e-02 0. 0. 0. 0. 0. 0.
      5.45544736e-02 0. 0. 0. 0. 0. 0. 0. 0. 0. 0. 0. 5.45544736e-02 0.
      0. 0. 0. 0. 0. 0. 0. 0. 2.18217894e-01 0. 2.72772372e-01 0. 0. 0.
      0. 0. 0. 0. 0. 0. 0. 0. 0. 0. 0. 0. 0. 0. 0. 0. 0. 0. 0. 0. 0. 0.
