<?xml version="1.0"?>
<opencv_storage>
<opencv_ml_svm>
  <format>3</format>
  <svmType>C_SVC</svmType>
  <kernel>
    <type>RBF</type>
    <gamma>5.0625000000000009e-01</gamma></kernel>
  <C>5.0000000000000000e-01</C>
  <term_criteria><iterations>100</iterations></term_criteria>
  <var_count>475</var_count>
  <class_count>2</class_count>
  <class_labels type_id="opencv-matrix">
    <rows>2</rows>
    <cols>1</cols>
    <dt>i</dt>
    <data>
      1 2</data></class_labels>
  <sv_total>67</sv_total>
  <support_vectors>
    <_>
      5.46393096e-01 5.61616182e-01 6.21322691e-01 0. 0. 0. 0. 0. 0. 0.
      0. 0. 0. 0. 0. 0. 0. 0. 0. 0. 0. 0. 0. 0. 0. 0. 0. 0. 0. 0. 0. 0.
      0. 0. 0. 0. 0. 0. 0. 0. 0. 0. 0. 0. 0. 0. 0. 0. 0. 0. 0. 0. 0. 0.
      0. 0. 0. 0. 0. 0. 0. 0. 0. 0. 0. 0. 0. 0. 0. 0. 0. 0. 0. 0. 0. 0.
      0. 0. 0. 0. 0. 0. 0. 0. 0. 0. 0. 0. 0. 0. 0. 0. 0. 0. 0. 0. 0. 0.
      0. 0. 0. 0. 0. 0. 0. 0. 0. 0. 0. 0. 0. 0. 0. 0. 0. 0. 0. 0. 0. 0.
      0. 0. 0. 0. 0. 0. 0. 0. 0. 0. 0. 0. 0. 1.49721399e-01 0. 0. 0. 0.
      0. 8.23467746e-02 0. 0. 0. 0. 0. 0. 0. 0. 0. 0. 0. 0. 0. 0. 0. 0.
      0. 0. 0. 0. 0. 0. 0. 0. 0. 0. 0. 0. 0. 3.36873159e-02 0. 0. 0. 0.
      0. 5.61455302e-02 1.04804978e-01 0. 0. 0. 0. 0. 3.36873159e-02 0.
      0. 0. 0. 0. 0. 0. 0. 0. 0. 0. 0. 0. 0. 0. 0. 0. 0. 0. 0. 0. 0. 0.
      0. 0. 0. 0. 0. 0. 0. 0. 0. 0. 0. 0. 9.76932168e-01 1.68971002e-01
      0. 3.07220016e-02 0. 9.21660066e-02 0. 6.14440031e-02 0.
      6.14440031e-02 0. 0. 1.53610008e-02 3.07220016e-02 0. 0. 0.
      4.60830033e-02 3.07220016e-02 0. 0. 1.53610008e-02 0. 0. 0.
      3.07220016e-02 0. 3.07220016e-02 0. 1.53610008e-02 0.
      4.60830033e-02 4.60830033e-02 1.53610008e-02 0. 0. 0. 0. 0. 0. 0.
      3.07220016e-02 3.07220016e-02 0. 0. 0. 0. 3.07220016e-02
      1.53610008e-02 9.21660066e-02 3.07220016e-02 1.53610008e-02 0.
      3.07220016e-02 0. 0. 0. 1.84332013e-01 1.53610008e-02
      3.07220016e-02 0. 4.60830033e-02 3.07220016e-02 4.60830033e-02
      4.60830033e-02 9.21660066e-02 0. 0. 0. 0. 0. 0. 3.07220016e-02
      4.60830033e-02 0. 0. 0. 0. 0. 0. 0. 0. 0. 0. 0. 0. 0. 0. 0.
      4.60830033e-02 0. 0. 0. 0. 0. 3.07220016e-02 0. 6.14440031e-02 0.
      0. 0. 1.53610008e-02 0. 0. 0. 0. 0. 0. 0. 0. 0. 4.60830033e-02 0.
      1.38249010e-01 0. 0. 0. 3.07220016e-02 0. 1.53610008e-02
      3.07220016e-02 5.68357050e-01 0. 4.60830033e-02 1.53610008e-02
      1.99693009e-01 1.53610008e-02 1.07527003e-01 9.21660066e-02
      1.53610008e-02 0. 7.68050030e-02 1.53610008e-02 3.07220016e-02 0.
      1.53610008e-02 1.53610008e-02 0. 0. 0. 0. 1.53610008e-02
      1.53610008e-02 0. 0. 1.53610008e-02 1.53610008e-02 0. 0. 0. 0. 0.
      1.53610008e-02 1.53610008e-02 1.53610008e-02 0. 0. 3.07220016e-02
      0. 1.53610008e-02 3.07220016e-02 0. 0. 0. 0. 0. 0. 0. 0. 0. 0. 0.
      0. 0. 0. 0. 0. 0. 1.53610008e-02 0. 0. 0. 0. 0. 0. 1.53610008e-02
      1.53610008e-02 1.53610008e-02 1.53610008e-02 1.53610008e-02
      1.53610008e-02 3.07220016e-02 7.68050030e-02 0. 0. 1.53610008e-02
      1.53610008e-02 0. 0. 3.07220016e-02 0. 3.07220016e-02 0. 0. 0. 0.
      0. 0. 3.07220016e-02 0. 0. 0. 0. 0. 0. 0. 0. 0. 0. 0. 0.
      1.53610008e-02 0. 3.07220016e-02 7.68050030e-02 0. 3.07220016e-02
      0. 0. 0. 0. 1.53610008e-02 1.53610008e-02 1.53610008e-02 0. 0. 0.
      1.53610008e-02 0. 0. 7.68050030e-02 7.68050030e-02 3.07220016e-02
      1.53610008e-02 3.07220016e-02 0. 3.07220016e-02 1.53610008e-02
      1.07527003e-01 1.53610006e-01 3.07220016e-02 1.53610008e-02
      3.07220016e-02 1.53610006e-01 4.60830033e-02 9.21660066e-02
      5.83718002e-01</_>
    <_>
      5.46490848e-01 5.67116916e-01 6.16219223e-01 0. 0. 0. 0. 0. 0. 0.
      0. 0. 0. 0. 0. 0. 0. 0. 0. 0. 0. 0. 0. 0. 0. 0. 0. 0. 0. 0. 0. 0.
      0. 0. 0. 0. 0. 0. 0. 0. 0. 0. 0. 0. 0. 0. 0. 0. 0. 0. 0. 0. 0. 0.
      0. 0. 0. 0. 0. 0. 0. 0. 0. 0. 0. 0. 0. 0. 0. 0. 0. 0. 0. 0. 0. 0.
      0. 0. 0. 0. 0. 0. 0. 0. 0. 0. 0. 0. 0. 0. 0. 0. 0. 0. 0. 0. 0. 0.
      0. 0. 0. 0. 0. 0. 0. 0. 0. 0. 0. 0. 0. 0. 0. 0. 0. 0. 0. 0. 0. 0.
      0. 0. 0. 0. 0. 0. 0. 0. 0. 0. 0. 0. 0. 4.41048900e-03 0. 0. 0. 0.
      0. 0. 4.41048900e-03 0. 0. 0. 0. 0. 0. 0. 0. 0. 0. 0. 0. 0. 0. 0.
      0. 0. 0. 0. 0. 0. 0. 0. 0. 0. 0. 0. 0. 0. 0. 0. 0. 0. 0.
      8.82097799e-03 4.18996438e-02 0. 0. 0. 0. 0. 1.32314675e-02 0. 0.
      0. 0. 0. 0. 0. 0. 0. 0. 0. 0. 0. 0. 0. 0. 0. 0. 0. 0. 0. 0. 0. 0.
      0. 0. 0. 0. 0. 0. 0. 0. 0. 0. 0. 9.98975813e-01 1.62503794e-01
      4.06259485e-02 8.12518969e-02 1.35419825e-02 2.70839650e-02 0.
      2.70839650e-02 4.06259485e-02 1.08335860e-01 0. 1.35419825e-02
      2.70839650e-02 4.06259485e-02 0. 0. 5.41679300e-02 1.35419825e-02
      1.35419825e-02 0. 1.35419825e-02 0. 0. 1.35419825e-02 0.
      4.06259485e-02 1.35419825e-02 0. 0. 2.70839650e-02 0.
      5.41679300e-02 4.06259485e-02 8.12518969e-02 1.35419825e-02
      4.06259485e-02 0. 1.35419825e-02 0. 0. 1.35419825e-02
      2.70839650e-02 0. 1.35419825e-02 0. 1.35419825e-02 0. 0. 0.
      2.70839650e-02 1.35419825e-02 0. 1.35419825e-02 0. 0. 0.
      1.35419825e-02 8.12518969e-02 2.70839650e-02 1.35419825e-02
      1.35419825e-02 9.47938785e-02 1.35419825e-02 9.47938785e-02
      6.77099153e-02 2.70839650e-02 0. 1.35419825e-02 0. 1.35419825e-02
      0. 2.70839650e-02 0. 2.70839650e-02 0. 0. 0. 1.35419825e-02 0. 0.
      1.35419825e-02 0. 0. 0. 0. 0. 0. 0. 0. 0. 1.35419825e-02
      1.35419825e-02 0. 1.35419825e-02 0. 1.35419825e-02 1.35419825e-02
      2.70839650e-02 0. 0. 1.35419825e-02 1.35419825e-02 0. 0. 0.
      1.35419825e-02 0. 0. 0. 4.06259485e-02 0. 1.35419825e-02 0.
      5.41679300e-02 0. 2.70839650e-02 5.41679300e-02 1.35419825e-02 0.
      0. 0. 2.16671720e-01 2.70839650e-02 1.35419825e-02 0.
      1.76045775e-01 0. 2.43755683e-01 8.12518969e-02 9.47938785e-02
      1.35419825e-02 0. 4.06259485e-02 2.70839650e-02 1.35419825e-02
      1.35419825e-02 1.76045775e-01 2.70839650e-02 2.70839650e-02
      2.70839650e-02 1.35419825e-02 1.35419825e-02 0. 4.06259485e-02
      5.41679300e-02 0. 0. 1.35419825e-02 1.35419825e-02 0. 0. 0.
      1.35419825e-02 1.35419825e-02 2.70839650e-02 0. 0. 1.35419825e-02
      0. 0. 6.77099153e-02 5.41679300e-02 0. 0. 1.35419825e-02 0. 0.
      1.35419825e-02 2.70839650e-02 0. 0. 0. 0. 0. 0. 0. 1.35419825e-02
      1.35419825e-02 1.35419825e-02 0. 0. 0. 0. 0. 0. 1.35419825e-02
      2.70839650e-02 0. 2.70839650e-02 2.70839650e-02 1.35419825e-02 0.
      5.41679300e-02 2.70839650e-02 0. 1.35419825e-02 0. 0.
      1.35419825e-02 0. 8.12518969e-02 1.35419825e-02 0. 1.35419825e-02
      1.35419825e-02 1.35419825e-02 0. 2.70839650e-02 1.08335860e-01 0.
      0. 0. 1.35419825e-02 0. 0. 0. 1.35419825e-02 0. 0. 0.
      2.70839650e-02 0. 0. 1.35419825e-02 9.47938785e-02 0.
      1.35419825e-02 1.35419825e-02 5.41679300e-02 0. 0. 0.
      1.21877842e-01 1.35419825e-02 1.35419825e-02 0. 0. 1.35419825e-02
      0. 1.35419825e-02 1.21877842e-01 2.70839650e-02 4.06259485e-02
      1.35419825e-02 9.47938785e-02 0. 1.35419825e-02 0. 8.12518969e-02
      1.48961812e-01 1.35419825e-02 2.70839650e-02 8.12518969e-02
      1.35419831e-01 1.76045775e-01 1.76045775e-01 6.90641105e-01</_>
    <_>
      4.98685122e-01 5.81187665e-01 6.43066108e-01 0. 0. 0. 0. 0. 0. 0.
      0. 0. 0. 0. 0. 0. 0. 0. 0. 0. 0. 0. 0. 0. 0. 0. 0. 0. 0. 0. 0. 0.
      0. 0. 0. 0. 0. 0. 0. 0. 0. 0. 0. 0. 0. 0. 0. 0. 0. 0. 0. 0. 0. 0.
      0. 0. 0. 0. 0. 0. 0. 0. 0. 0. 0. 0. 0. 0. 0. 0. 0. 0. 0. 0. 0. 0.
      0. 0. 0. 0. 0. 0. 0. 0. 0. 0. 0. 0. 0. 0. 0. 0. 0. 0. 0. 0. 0. 0.
      0. 0. 0. 0. 0. 0. 0. 0. 0. 0. 0. 0. 0. 0. 0. 0. 0. 0. 0. 0. 0. 0.
      0. 0. 0. 0. 0. 0. 0. 0. 0. 0. 0. 0. 0. 0. 0. 0. 0. 0. 0. 0.
      8.49323440e-03 0. 0. 0. 0. 0. 0. 0. 0. 0. 0. 0. 0. 0. 0. 0. 0. 0.
      0. 0. 0. 0. 0. 0. 0. 0. 0. 0. 0. 0. 0. 0. 0. 0. 0. 0.
      2.01006547e-01 0. 0. 0. 0. 0. 9.79553044e-01 0. 0. 0. 0. 0. 0. 0.
      0. 0. 0. 0. 0. 0. 0. 0. 0. 0. 0. 0. 0. 0. 0. 0. 0. 0. 0. 0. 0. 0.
      0. 0. 0. 0. 0. 0. 0. 1.80905133e-01 0. 0. 0. 1.29217952e-02 0. 0.
      0. 3.87653857e-02 0. 0. 0. 0. 0. 1.29217952e-02 0. 3.87653857e-02
      0. 0. 0. 0. 0. 0. 0. 6.46089762e-02 0. 0. 0. 0. 0. 2.58435905e-02
      1.29217952e-02 3.87653857e-02 0. 1.29217952e-02 0. 1.29217952e-02
      0. 0. 0. 1.29217952e-02 0. 0. 0. 0. 0. 0. 0. 6.46089762e-02
      2.58435905e-02 0. 0. 0. 0. 0. 0. 1.42139748e-01 2.58435905e-02
      2.58435905e-02 1.29217952e-02 2.58435905e-02 1.29217952e-02
      2.58435905e-02 2.58435905e-02 1.29217952e-02 0. 0. 1.29217952e-02
      2.58435905e-02 0. 0. 0. 1.29217952e-02 0. 0. 0. 0. 0. 0. 0. 0. 0.
      0. 0. 0. 0. 0. 0. 1.29217952e-02 0. 0. 1.29217952e-02 0. 0.
      1.29217952e-02 0. 5.16871810e-02 0. 2.58435905e-02 1.29217952e-02
      0. 0. 1.29217952e-02 0. 1.29217952e-02 0. 0. 0. 1.29217952e-02 0.
      0. 1.29217952e-02 1.67983338e-01 2.58435905e-02 0. 0.
      1.29217952e-02 0. 2.58435905e-02 0. 4.13497448e-01 1.29217952e-02
      3.87653857e-02 0. 1.93826929e-01 1.29217952e-02 9.04525667e-02
      6.46089762e-02 1.29217952e-02 0. 1.29217952e-02 0. 2.58435905e-02
      0. 1.29217952e-02 0. 0. 0. 0. 0. 0. 0. 1.29217952e-02 0.
      1.29217952e-02 0. 0. 0. 0. 0. 0. 0. 0. 1.29217952e-02 0. 0. 0. 0.
      1.29217952e-02 2.58435905e-02 1.29217952e-02 0. 0. 0. 0. 0. 0. 0.
      0. 0. 0. 0. 0. 0. 0. 0. 1.29217952e-02 1.29217952e-02 0. 0. 0. 0.
      0. 0. 2.58435905e-02 0. 0. 3.87653857e-02 1.29217952e-02
      1.29217952e-02 0. 2.58435905e-02 1.29217952e-02 1.29217952e-02 0.
      0. 2.58435905e-02 0. 0. 1.29217952e-02 0. 0. 0. 0. 0. 0. 0. 0.
      2.58435905e-02 0. 1.29217952e-02 1.29217952e-02 0. 0. 0.
      1.29217952e-02 2.58435905e-02 0. 0. 0. 0. 2.58435905e-02
      1.29217952e-02 2.58435905e-02 5.16871810e-02 2.58435905e-02
      1.29217952e-02 2.58435905e-02 0. 0. 0. 1.29217952e-02
      1.29217952e-02 2.58435905e-02 1.29217952e-02 1.29217952e-02
      2.58435905e-02 1.29217952e-02 0. 0. 3.23044896e-01 1.29217952e-01
      6.46089762e-02 6.46089762e-02 2.58435905e-02 0. 3.87653857e-02
      2.58435905e-02 4.13497448e-01 2.06748724e-01 1.29217952e-02
      5.16871810e-02 2.58435905e-01 6.46089762e-02 1.29217952e-01
      4.65184629e-01</_>
    <_>
      4.93454933e-01 5.81573665e-01 6.46741211e-01 0. 0. 0. 0. 0. 0. 0.
      0. 0. 0. 0. 0. 0. 0. 0. 0. 0. 0. 0. 0. 0. 0. 0. 0. 0. 0. 0. 0. 0.
      0. 0. 0. 0. 0. 0. 0. 0. 0. 0. 0. 0. 0. 0. 0. 0. 0. 0. 0. 0. 0. 0.
      0. 0. 0. 0. 0. 0. 0. 0. 0. 0. 0. 0. 0. 0. 0. 0. 0. 0. 0. 0. 0. 0.
      0. 0. 0. 0. 0. 0. 0. 0. 0. 0. 0. 0. 0. 0. 0. 0. 0. 0. 0. 0. 0. 0.
      0. 0. 0. 0. 0. 0. 0. 0. 0. 0. 0. 0. 0. 0. 0. 0. 0. 0. 0. 0. 0. 0.
      0. 0. 0. 0. 0. 0. 0. 0. 0. 0. 0. 0. 0. 0. 0. 0. 0. 0. 0. 0. 0. 0.
      0. 0. 0. 0. 0. 0. 0. 0. 0. 0. 0. 0. 0. 0. 0. 0. 0. 0. 0. 0. 0. 0.
      0. 0. 0. 0. 0. 0. 0. 0. 0. 0. 0. 0. 1.24678593e-02 0. 0. 0. 0. 0.
      9.99922335e-01 0. 0. 0. 0. 0. 0. 0. 0. 0. 0. 0. 0. 0. 0. 0. 0. 0.
      0. 0. 0. 0. 0. 0. 0. 0. 0. 0. 0. 0. 0. 0. 0. 0. 0. 0. 0.
      1.41118452e-01 0. 0. 0. 0. 0. 0. 0. 7.69736990e-02 1.28289498e-02
      0. 0. 1.28289498e-02 0. 1.28289498e-02 0. 1.28289498e-02
      2.56578997e-02 1.28289498e-02 0. 0. 0. 0. 0. 0. 0. 0. 0. 0. 0. 0.
      0. 2.56578997e-02 0. 0. 0. 0. 0. 0. 1.28289498e-02 0. 0. 0. 0. 0.
      0. 0. 0. 2.56578997e-02 0. 1.28289498e-02 0. 0. 0. 0.
      1.28289498e-02 2.56578997e-02 0. 0. 0. 0. 0. 0. 2.56578997e-02
      3.84868495e-02 0. 0. 0. 0. 0. 0. 0. 0. 0. 0. 0. 0. 0. 0. 0. 0. 0.
      0. 0. 1.28289498e-02 0. 0. 0. 0. 0. 1.28289498e-02 1.28289498e-02
      0. 0. 0. 2.56578997e-02 7.69736990e-02 0. 0. 0. 1.28289498e-02 0.
      0. 0. 1.28289498e-02 0. 0. 0. 0. 0. 0. 0. 1.15460545e-01 0. 0. 0.
      0. 0. 1.28289498e-02 1.28289498e-02 3.46381634e-01 5.13157994e-02
      3.84868495e-02 2.56578997e-02 1.66776344e-01 3.84868495e-02
      2.56578997e-02 6.41447455e-02 3.84868495e-02 1.28289498e-02 0. 0.
      0. 0. 0. 0. 5.13157994e-02 0. 1.28289498e-02 0. 1.28289498e-02 0.
      0. 0. 1.28289498e-02 0. 0. 0. 0. 0. 0. 0. 1.28289498e-02 0.
      1.28289498e-02 0. 0. 0. 0. 1.28289498e-02 0. 0. 0. 0. 0. 0. 0. 0.
      1.28289498e-02 0. 0. 0. 0. 0. 0. 0. 2.56578997e-02 0. 0. 0. 0. 0.
      0. 1.28289498e-02 1.28289498e-02 1.28289498e-02 0. 1.28289498e-02
      1.28289498e-02 1.28289498e-02 0. 2.56578997e-02 2.56578997e-02
      1.28289498e-02 1.28289498e-02 0. 0. 1.28289498e-02 0. 0.
      1.28289498e-02 1.28289498e-02 0. 0. 0. 0. 1.28289498e-02 0.
      5.13157994e-02 0. 1.28289498e-02 1.28289498e-02 0. 0. 0. 0.
      2.56578997e-02 1.28289498e-02 0. 0. 0. 0. 1.28289498e-02
      3.84868495e-02 1.02631599e-01 2.56578997e-02 2.56578997e-02
      2.56578997e-02 0. 0. 0. 0. 2.56578997e-02 1.28289498e-02
      1.28289498e-02 2.56578997e-02 1.28289498e-02 0. 1.28289498e-02
      2.56578997e-02 2.82236904e-01 7.69736990e-02 3.84868495e-02
      1.41118452e-01 2.56578997e-02 3.84868495e-02 1.28289498e-02
      7.69736990e-02 4.61842179e-01 1.28289491e-01 2.56578997e-02
      1.28289491e-01 1.41118452e-01 8.98026526e-02 1.41118452e-01
      5.90131700e-01</_>
    <_>
      4.85118210e-01 5.82984149e-01 6.51759028e-01 0. 0. 0. 0. 0. 0. 0.
      0. 0. 0. 0. 0. 0. 0. 0. 0. 0. 0. 0. 0. 0. 0. 0. 0. 0. 0. 0. 0. 0.
      0. 0. 0. 0. 0. 0. 0. 0. 0. 0. 0. 0. 0. 0. 0. 0. 0. 0. 0. 0. 0. 0.
      0. 0. 0. 0. 0. 0. 0. 0. 0. 0. 0. 0. 0. 0. 0. 0. 0. 0. 0. 0. 0. 0.
      0. 0. 0. 0. 0. 0. 0. 0. 0. 0. 0. 0. 0. 0. 0. 0. 0. 0. 0. 0. 0. 0.
      0. 0. 0. 0. 0. 0. 0. 0. 0. 0. 0. 0. 0. 0. 0. 0. 0. 0. 0. 0. 0. 0.
      0. 0. 0. 0. 0. 0. 0. 0. 0. 0. 0. 0. 0. 0. 0. 0. 0. 0. 0. 0.
      3.28408659e-01 0. 0. 0. 0. 0. 1.64204333e-02 0. 0. 0. 0. 0. 0. 0.
      0. 0. 0. 0. 0. 0. 0. 0. 0. 0. 0. 0. 0. 0. 0. 0. 0. 0. 0. 0. 0. 0.
      8.15548122e-01 0. 0. 0. 0. 0. 4.76192564e-01 0. 0. 0. 0. 0. 0. 0.
      0. 0. 0. 0. 0. 0. 0. 0. 0. 0. 0. 0. 0. 0. 0. 0. 0. 0. 0. 0. 0. 0.
      0. 0. 0. 0. 0. 0. 0. 2.39473745e-01 0. 1.99561454e-02
      3.99122909e-02 0. 0. 0. 0. 3.99122909e-02 0. 0. 0. 0. 0. 0.
      1.99561454e-02 5.98684363e-02 0. 0. 0. 0. 0. 0. 0. 3.99122909e-02
      0. 0. 0. 0. 0. 0. 3.99122909e-02 7.98245817e-02 0. 0. 0. 0. 0. 0.
      1.99561454e-02 0. 1.99561454e-02 0. 0. 1.99561454e-02 0. 0. 0.
      3.99122909e-02 1.99561454e-02 1.99561454e-02 1.99561454e-02
      1.99561454e-02 0. 0. 0. 9.97807235e-02 0. 1.99561454e-02
      1.99561454e-02 3.99122909e-02 0. 5.98684363e-02 5.98684363e-02
      3.99122909e-02 0. 1.99561454e-02 0. 0. 0. 0. 0. 0. 0.
      1.99561454e-02 0. 0. 0. 0. 0. 0. 0. 0. 0. 0. 0. 0. 0.
      3.99122909e-02 0. 0. 0. 1.99561454e-02 0. 1.99561454e-02 0.
      7.98245817e-02 0. 0. 1.99561454e-02 0. 0. 0. 0. 0. 0. 0. 0.
      1.99561454e-02 0. 1.99561454e-02 1.99561454e-02 1.19736873e-01
      1.99561454e-02 3.99122909e-02 0. 1.99561454e-02 0. 0. 0.
      1.99561447e-01 1.99561454e-02 3.99122909e-02 3.99122909e-02
      1.39693022e-01 3.99122909e-02 1.39693022e-01 9.97807235e-02
      5.98684363e-02 0. 0. 0. 0. 0. 0. 0. 0. 0. 0. 0. 1.99561454e-02 0.
      0. 0. 0. 3.99122909e-02 0. 0. 0. 0. 0. 0. 1.99561454e-02 0. 0. 0.
      0. 0. 1.99561454e-02 0. 1.99561454e-02 0. 0. 0. 0. 0. 0. 0. 0. 0.
      0. 0. 0. 0. 0. 0. 1.99561454e-02 0. 0. 0. 0. 0. 0. 0.
      1.99561454e-02 1.99561454e-02 1.99561454e-02 0. 3.99122909e-02 0.
      0. 0. 0. 0. 0. 0. 0. 0. 1.99561454e-02 0. 0. 1.99561454e-02
      1.99561454e-02 0. 0. 0. 0. 0. 1.99561454e-02 0. 0. 0. 0. 0. 0. 0.
      1.99561454e-02 1.99561454e-02 1.99561454e-02 0. 1.99561454e-02 0.
      0. 7.98245817e-02 1.39693022e-01 7.98245817e-02 0. 1.99561454e-02
      1.99561454e-02 1.99561454e-02 0. 1.99561454e-02 1.99561454e-02 0.
      0. 1.99561454e-02 3.99122909e-02 3.99122909e-02 0. 1.99561454e-02
      2.19517604e-01 2.19517604e-01 9.97807235e-02 1.19736873e-01 0.
      3.99122909e-02 0. 1.39693022e-01 1.79605305e-01 3.39254469e-01 0.
      1.59649163e-01 1.59649163e-01 2.19517604e-01 2.99342185e-01
      4.98903632e-01</_>
    <_>
      4.56025422e-01 5.86814344e-01 6.69096231e-01 0. 0. 0. 0. 0. 0. 0.
      0. 2.93655694e-03 0. 0. 0. 0. 0. 0. 0. 0. 0. 0. 0. 0. 0. 0. 0. 0.
      0. 0. 0. 0. 0. 0. 0. 0. 0. 0. 0. 0. 0. 0. 0. 0. 0. 0.
      2.93655694e-03 1.76193416e-02 0. 0. 0. 0. 0. 6.75408095e-02
      2.34924555e-02 0. 0. 0. 0. 0. 0. 0. 0. 0. 0. 0. 0. 0. 0. 0. 0. 0.
      0. 0. 0. 0. 0. 0. 0. 0. 0. 0. 0. 0. 0. 0. 0. 0. 0. 0.
      1.02779485e-01 0. 0. 0. 0. 0. 1.32145062e-01 8.51601511e-02 0. 0.
      0. 0. 0. 1.17462277e-02 0. 0. 0. 0. 0. 0. 0. 0. 0. 0. 0. 0. 0. 0.
      0. 0. 0. 0. 0. 0. 0. 0. 0. 0. 0. 0. 0. 0. 5.87311387e-03
      3.23021263e-02 0. 0. 0. 0. 0. 8.51601511e-02 9.74936903e-01 0. 0.
      0. 0. 0. 0. 0. 0. 0. 0. 0. 0. 0. 0. 0. 0. 0. 0. 0. 0. 0. 0. 0. 0.
      0. 0. 0. 0. 0. 0. 0. 0. 0. 0. 0. 1.76193416e-02 0. 0. 0. 0. 0. 0.
      0. 0. 0. 0. 0. 0. 0. 0. 0. 0. 0. 0. 0. 0. 0. 0. 0. 0. 0. 0. 0. 0.
      0. 0. 0. 0. 0. 0. 0. 0. 0. 0. 0. 0. 0. 0. 1.59045294e-01 0.
      9.35560558e-03 0. 1.87112112e-02 0. 9.35560558e-03 9.35560558e-03
      2.80668177e-02 0. 0. 0. 9.35560558e-03 0. 1.87112112e-02 0.
      9.35560558e-03 0. 0. 9.35560558e-03 0. 0. 0. 0. 9.35560558e-03 0.
      0. 0. 0. 0. 0. 9.35560558e-03 3.74224223e-02 9.35560558e-03 0.
      9.35560558e-03 9.35560558e-03 9.35560558e-03 0. 0. 0. 0. 0. 0.
      9.35560558e-03 0. 0. 0. 3.74224223e-02 1.87112112e-02 0.
      9.35560558e-03 0. 0. 0. 0. 1.87112112e-02 0. 0. 0. 0. 0. 0. 0.
      3.74224223e-02 0. 1.87112112e-02 2.80668177e-02 0. 0. 0.
      9.35560558e-03 9.35560558e-03 0. 0. 0. 0. 0. 0. 9.35560558e-03 0.
      0. 0. 0. 0. 0. 0. 0. 0. 0. 9.35560558e-03 0. 0. 0. 0.
      2.80668177e-02 8.42004493e-02 9.35560558e-03 0. 0. 0. 0. 0. 0.
      2.80668177e-02 0. 0. 0. 9.35560558e-03 0. 0. 1.87112112e-02
      9.35560539e-02 0. 1.87112112e-02 9.35560558e-03 9.35560558e-03 0.
      0. 1.87112112e-02 1.59045294e-01 0. 1.87112112e-02 9.35560558e-03
      3.74224223e-02 9.35560558e-03 0. 6.54892400e-02 7.48448446e-02
      4.67780270e-02 0. 9.35560558e-03 0. 0. 0. 3.74224223e-02
      1.87112112e-02 0. 0. 0. 9.35560558e-03 0. 0. 1.87112112e-02 0. 0.
      0. 1.87112112e-02 0. 0. 0. 0. 0. 9.35560558e-03 0. 9.35560558e-03
      9.35560558e-03 0. 0. 0. 0. 9.35560558e-03 9.35560558e-03 0. 0. 0.
      0. 0. 0. 0. 0. 0. 0. 0. 0. 0. 1.87112112e-02 9.35560558e-03 0.
      1.87112112e-02 0. 0. 0. 0. 0. 0. 0. 9.35560558e-03 0.
      1.87112112e-02 0. 2.80668177e-02 1.87112112e-02 5.61336353e-02 0.
      2.80668177e-02 9.35560558e-03 0. 0. 2.80668177e-02 9.35560558e-03
      1.87112112e-02 9.35560558e-03 9.35560558e-03 0. 0. 0.
      1.87112112e-02 1.87112112e-02 9.35560558e-03 9.35560558e-03
      9.35560558e-03 9.35560558e-03 0. 0. 9.35560558e-03 1.87112112e-02
      0. 0. 9.35560558e-03 9.35560558e-03 0. 0. 2.80668177e-02
      1.87112108e-01 1.40334085e-01 2.80668177e-02 6.54892400e-02 0.
      1.87112112e-02 1.87112112e-02 3.74224223e-02 0. 1.87112112e-02 0.
      9.35560558e-03 9.35560558e-03 9.35560558e-03 0. 2.80668177e-02
      6.73603594e-01 3.55513006e-01 2.80668177e-02 9.35560539e-02
      1.87112112e-02 9.35560558e-03 9.35560558e-03 7.48448446e-02
      2.99379379e-01 1.49689689e-01 0. 7.48448446e-02 6.54892400e-02
      7.48448446e-02 1.87112112e-02 3.27446193e-01</_>
    <_>
      4.43316966e-01 5.89809656e-01 6.74977481e-01 0. 5.69211785e-03 0.
      0. 0. 0. 0. 5.69211785e-03 5.69211785e-03 0. 0. 0. 0. 0. 0. 0. 0.
      0. 0. 0. 0. 0. 0. 0. 0. 0. 0. 0. 0. 0. 0. 0. 0. 0. 0. 0. 0. 0. 0.
      0. 0. 0. 0. 1.13842357e-02 1.02458119e-01 0. 0. 0. 0. 0.
      1.65071413e-01 8.53817686e-02 0. 0. 0. 0. 0. 5.69211785e-03 0. 0.
      0. 0. 0. 0. 0. 0. 0. 0. 0. 0. 0. 0. 0. 0. 0. 0. 0. 0. 0. 0. 0. 0.
      0. 0. 0. 0. 2.84605883e-02 7.39975348e-02 0. 0. 0. 0. 0.
      2.27684706e-01 2.33376831e-01 0. 0. 0. 0. 0. 5.12290597e-02 0. 0.
      0. 0. 0. 0. 0. 0. 0. 0. 0. 0. 0. 0. 0. 0. 0. 0. 0. 0. 0. 0. 0. 0.
      0. 0. 0. 0. 0. 5.69211766e-02 0. 0. 0. 0. 0. 5.29366970e-01
      7.45667458e-01 0. 0. 0. 0. 0. 0. 0. 0. 0. 0. 0. 0. 0. 0. 0. 0. 0.
      0. 0. 0. 0. 0. 0. 0. 0. 0. 0. 0. 0. 0. 0. 0. 0. 0. 0. 0. 0. 0. 0.
      0. 0. 0. 0. 0. 0. 0. 0. 0. 0. 0. 0. 0. 0. 0. 0. 0. 0. 0. 0. 0. 0.
      0. 0. 0. 0. 0. 0. 0. 0. 0. 0. 0. 0. 0. 0. 0. 0. 0. 1.90251991e-01
      0. 0. 9.51259956e-03 1.90251991e-02 9.51259956e-03 0.
      3.80503982e-02 1.90251991e-02 0. 0. 0. 0. 0. 9.51259956e-03
      9.51259956e-03 0. 0. 0. 0. 0. 0. 0. 0. 9.51259956e-03 0. 0. 0.
      9.51259956e-03 0. 0. 0. 2.85377987e-02 0. 9.51259956e-03 0. 0. 0.
      0. 0. 9.51259956e-03 0. 0. 0. 0. 0. 0. 0. 3.80503982e-02 0. 0. 0.
      0. 0. 0. 0. 3.80503982e-02 0. 9.51259956e-03 0. 1.90251991e-02 0.
      0. 9.51259956e-03 2.85377987e-02 0. 0. 0. 0. 0. 0. 0. 0. 0. 0. 0.
      0. 0. 0. 0. 0. 0. 0. 0. 0. 0. 0. 0. 1.90251991e-02 0. 0. 0. 0. 0.
      0. 0. 1.90251991e-02 9.51259956e-03 9.51259956e-03 0. 0. 0. 0. 0.
      0. 0. 0. 0. 9.51259956e-03 0. 0. 0. 2.18789786e-01 0.
      9.51259956e-03 0. 9.51259956e-03 0. 9.51259956e-03 9.51259956e-03
      7.32470155e-01 2.85377987e-02 9.51259956e-03 9.51259956e-03
      7.61007965e-02 9.51259956e-03 2.85377987e-02 2.85377987e-02
      5.70755973e-02 9.51259956e-03 0. 9.51259956e-03 0. 0. 0.
      1.14151195e-01 1.90251991e-02 0. 0. 0. 9.51259956e-03
      9.51259956e-03 0. 3.80503982e-02 1.90251991e-02 0. 9.51259956e-03
      0. 0. 0. 0. 1.90251991e-02 9.51259956e-03 0. 0. 0. 0. 0. 0. 0.
      9.51259956e-03 0. 0. 0. 0. 0. 0. 0. 9.51259956e-03 0. 0.
      9.51259956e-03 0. 0. 0. 0. 0. 0. 9.51259956e-03 0. 0. 0. 0.
      9.51259956e-03 9.51259956e-03 0. 0. 0. 0. 1.90251991e-02 0. 0.
      9.51259956e-03 9.51259956e-03 0. 0. 0. 0. 0. 9.51259956e-03
      9.51259956e-03 0. 0. 0. 0. 0. 9.51259956e-03 0. 0. 0. 0. 0. 0. 0.
      0. 0. 1.90251991e-02 0. 0. 1.90251991e-02 0. 0. 1.90251991e-02
      9.51259956e-03 1.90251991e-02 0. 0. 0. 0. 9.51259956e-03
      1.90251991e-02 9.51259956e-03 1.90251991e-02 0. 0. 0.
      9.51259956e-03 0. 9.51259956e-03 0. 1.71226799e-01 9.51259956e-02
      1.90251991e-02 2.85377987e-02 1.90251991e-02 0. 1.90251991e-02
      1.90251991e-02 5.13680398e-01 4.75629978e-02 1.90251991e-02
      2.85377987e-02 9.51259956e-02 9.51259956e-03 2.85377987e-02
      1.42688990e-01</_>
    <_>
      4.31856483e-01 5.89336514e-01 6.82775497e-01 0. 0. 0. 0. 0. 0. 0.
      0. 0. 0. 0. 0. 0. 0. 0. 0. 0. 0. 0. 0. 0. 0. 0. 0. 0. 0. 0. 0. 0.
      0. 0. 0. 0. 0. 0. 0. 0. 0. 0. 0. 0. 0. 0. 0. 0. 0. 0. 0. 0. 0. 0.
      0. 0. 0. 0. 0. 0. 0. 0. 0. 0. 0. 0. 0. 0. 0. 0. 0. 0. 0. 0. 0. 0.
      0. 0. 0. 0. 0. 0. 0. 0. 0. 0. 0. 0. 0. 0. 0. 0. 0. 0. 0. 0. 0.
      5.82736358e-03 0. 0. 0. 0. 0. 2.41835579e-01 8.74104537e-03 0. 0.
      0. 0. 0. 0. 0. 0. 0. 0. 0. 0. 0. 0. 0. 0. 0. 0. 0. 0. 0. 0. 0. 0.
      0. 0. 0. 0. 2.91368179e-03 0. 0. 0. 0. 0. 9.70255971e-01 0. 0. 0.
      0. 0. 0. 0. 0. 0. 0. 0. 0. 0. 0. 0. 0. 0. 0. 0. 0. 0. 0. 0. 0. 0.
      0. 0. 0. 0. 0. 0. 0. 0. 0. 0. 0. 0. 0. 0. 0. 0. 0. 0. 0. 0. 0. 0.
      0. 0. 0. 0. 0. 0. 0. 0. 0. 0. 0. 0. 0. 0. 0. 0. 0. 0. 0. 0. 0. 0.
      0. 0. 0. 0. 0. 0. 0. 0. 0. 0. 1.70127347e-01 1.30867185e-02
      3.92601565e-02 1.30867185e-02 0. 1.30867185e-02 1.30867185e-02
      1.30867185e-02 0. 1.30867185e-02 1.30867185e-02 1.30867185e-02 0.
      0. 2.61734370e-02 0. 2.61734370e-02 0. 0. 0. 0. 0. 0. 0.
      2.61734370e-02 0. 0. 1.30867185e-02 1.30867185e-02 1.30867185e-02
      2.61734370e-02 3.92601565e-02 1.30867185e-02 0. 2.61734370e-02
      1.30867185e-02 0. 0. 0. 0. 1.30867185e-02 0. 0. 0. 0. 0. 0. 0.
      1.30867185e-02 1.30867185e-02 0. 0. 0. 0. 0. 0. 3.92601565e-02
      1.30867185e-02 1.30867185e-02 0. 0. 0. 3.92601565e-02
      3.92601565e-02 2.61734370e-02 0. 0. 0. 0. 0. 0. 1.30867185e-02 0.
      1.30867185e-02 0. 0. 1.30867185e-02 0. 1.30867185e-02
      1.30867185e-02 0. 0. 0. 0. 0. 0. 0. 0. 0. 0. 0. 0. 0. 0. 0.
      2.61734370e-02 3.92601565e-02 0. 0. 0. 0. 0. 0. 0. 1.30867185e-02
      0. 0. 0. 1.30867185e-02 0. 1.30867185e-02 0. 7.85203129e-02 0. 0.
      0. 0. 1.30867185e-02 0. 3.92601565e-02 5.23468740e-02
      2.61734370e-02 0. 3.92601565e-02 0. 2.61734370e-02 5.23468740e-02
      1.30867183e-01 3.92601565e-02 2.61734370e-02 0. 3.92601565e-02 0.
      0. 0. 2.61734370e-02 0. 0. 0. 1.30867185e-02 1.30867185e-02 0.
      2.61734370e-02 3.92601565e-02 5.23468740e-02 0. 1.30867185e-02 0.
      0. 0. 0. 1.30867185e-02 1.30867185e-02 0. 0. 1.30867185e-02 0.
      1.30867185e-02 0. 6.54335916e-02 1.30867185e-02 1.30867185e-02 0.
      0. 0. 0. 0. 1.30867185e-02 0. 0. 0. 1.30867185e-02 0. 0. 0. 0.
      1.30867185e-02 0. 0. 1.30867185e-02 0. 1.30867185e-02
      1.30867185e-02 0. 1.30867185e-02 1.30867185e-02 0. 0.
      1.30867185e-02 0. 1.30867185e-02 1.04693748e-01 7.85203129e-02 0.
      2.61734370e-02 5.23468740e-02 0. 0. 0. 2.61734370e-02
      3.92601565e-02 2.61734370e-02 0. 1.30867185e-02 0. 0.
      1.30867185e-02 6.54335916e-02 1.30867185e-02 0. 0. 0. 0. 0. 0. 0.
      1.30867185e-02 0. 0. 2.61734370e-02 0. 0. 0. 1.04693748e-01
      9.16070268e-02 6.54335916e-02 0. 7.85203129e-02 1.30867185e-02 0.
      1.30867185e-02 3.92601565e-02 2.61734370e-02 1.30867185e-02 0.
      1.30867185e-02 0. 0. 3.92601565e-02 1.04693748e-01 1.30867183e-01
      6.54335916e-02 1.30867185e-02 1.30867183e-01 2.61734370e-02
      2.61734370e-02 0. 1.43953905e-01 1.70127347e-01 1.43953905e-01
      3.92601565e-02 1.96300775e-01 1.70127347e-01 5.23468740e-02
      9.16070268e-02 7.98289835e-01</_>
    <_>
      4.85552490e-01 5.79310834e-01 6.54704332e-01 0. 0. 0. 0. 0. 0. 0.
      0. 0. 0. 0. 0. 0. 0. 0. 0. 0. 0. 0. 0. 0. 0. 0. 0. 0. 0. 0. 0. 0.
      0. 0. 0. 0. 0. 0. 0. 0. 0. 0. 0. 0. 0. 0. 0. 0. 0. 0. 0. 0. 0. 0.
      0. 0. 0. 0. 0. 0. 0. 0. 0. 0. 0. 0. 0. 0. 0. 0. 0. 0. 0. 0. 0. 0.
      0. 0. 0. 0. 0. 0. 0. 0. 0. 0. 0. 0. 0. 0. 0. 0. 0. 0. 0. 0. 0.
      2.87678782e-02 0. 0. 0. 0. 0. 4.10969695e-03 0. 0. 0. 0. 0. 0. 0.
      0. 0. 0. 0. 0. 0. 0. 0. 0. 0. 0. 0. 0. 0. 0. 0. 0. 0. 0. 0. 0. 0.
      0. 0. 0. 0. 0. 0. 7.80842379e-02 6.04125500e-01 0. 0. 0. 0. 0. 0.
      0. 0. 0. 0. 0. 0. 0. 0. 0. 0. 0. 0. 0. 0. 0. 0. 0. 0. 0. 0. 0. 0.
      0. 0. 0. 0. 0. 0. 0. 7.89061844e-01 0. 0. 0. 0. 0. 7.39745498e-02
      0. 0. 0. 0. 0. 0. 0. 0. 0. 0. 0. 0. 0. 0. 0. 0. 0. 0. 0. 0. 0. 0.
      0. 0. 0. 0. 0. 0. 0. 0. 0. 0. 0. 0. 0. 0. 1.71948045e-01
      3.96803170e-02 0. 0. 0. 0. 0. 0. 5.29070906e-02 0. 0. 0.
      1.32267727e-02 0. 0. 0. 1.32267727e-02 1.32267727e-02
      1.32267727e-02 0. 0. 0. 0. 0. 2.64535453e-02 0. 1.32267727e-02 0.
      0. 0. 0. 1.32267727e-02 5.29070906e-02 0. 0. 0. 0. 0. 0. 0.
      1.32267727e-02 0. 0. 0. 0. 0. 0. 0. 7.93606341e-02 2.64535453e-02
      2.64535453e-02 0. 0. 0. 0. 0. 1.58721268e-01 1.32267727e-02 0.
      2.64535453e-02 9.25874114e-02 1.32267727e-02 1.32267727e-02 0.
      5.29070906e-02 0. 0. 0. 0. 0. 0. 0. 0. 0. 0. 0. 0. 0. 0. 0.
      1.32267727e-02 0. 0. 0. 0. 0. 0. 0. 1.32267727e-02 0. 0. 0.
      3.96803170e-02 0. 0. 1.32267727e-02 3.96803170e-02 0. 0. 0.
      1.32267727e-02 0. 2.64535453e-02 1.32267727e-02 1.32267727e-02 0.
      0. 0. 0. 0. 1.32267727e-02 0. 1.19040951e-01 1.32267727e-02
      1.32267727e-02 1.32267727e-02 0. 0. 1.32267727e-02 0.
      5.55524468e-01 5.29070906e-02 1.32267727e-02 2.64535453e-02
      2.64535457e-01 1.32267727e-02 1.32267728e-01 5.29070906e-02
      3.96803170e-02 0. 1.32267727e-02 0. 0. 0. 0. 0. 2.64535453e-02 0.
      0. 0. 0. 0. 0. 0. 0. 0. 0. 0. 1.32267727e-02 0. 0. 0. 0. 0. 0. 0.
      1.32267727e-02 0. 0. 0. 0. 1.32267727e-02 0. 0. 1.32267727e-02 0.
      0. 0. 1.32267727e-02 0. 0. 0. 0. 0. 0. 0. 0. 0. 0. 1.32267727e-02
      0. 0. 0. 0. 2.64535453e-02 1.32267727e-02 1.32267727e-02
      1.32267727e-02 1.32267727e-02 0. 0. 1.32267727e-02 3.96803170e-02
      0. 0. 0. 0. 0. 0. 0. 1.32267727e-02 0. 0. 0. 1.32267727e-02 0. 0.
      0. 0. 0. 0. 1.32267727e-02 0. 0. 0. 1.32267727e-02 3.96803170e-02
      0. 0. 0. 0. 0. 1.32267727e-02 3.96803170e-02 9.25874114e-02
      1.32267727e-02 2.64535453e-02 0. 0. 0. 1.32267727e-02
      1.32267727e-02 2.64535453e-02 0. 0. 0. 0. 0. 0. 2.64535453e-02
      2.24855140e-01 1.45494506e-01 0. 9.25874114e-02 3.96803170e-02 0.
      1.32267727e-02 2.64535453e-02 3.83576393e-01 6.61338642e-02
      5.29070906e-02 6.61338642e-02 1.85174823e-01 1.32267728e-01
      2.24855140e-01 3.57122868e-01</_>
    <_>
      4.24339861e-01 5.86110890e-01 6.90224349e-01 0. 0. 0. 0. 0. 0. 0.
      0. 0. 0. 0. 0. 0. 0. 0. 0. 0. 0. 0. 0. 0. 0. 0. 0. 0. 0. 0. 0. 0.
      0. 0. 0. 0. 0. 0. 0. 0. 0. 0. 0. 0. 0. 0. 0. 0. 0. 0. 0. 0. 0. 0.
      0. 0. 0. 0. 0. 0. 0. 0. 0. 0. 0. 0. 0. 0. 0. 0. 0. 0. 0. 0. 0. 0.
      0. 0. 0. 0. 0. 0. 0. 0. 0. 0. 0. 0. 0. 0. 0. 0. 0. 0. 0. 0. 0.
      2.07694545e-01 0. 0. 0. 0. 0. 9.20779049e-01 1.03847273e-02 0. 0.
      0. 0. 0. 0. 0. 0. 0. 0. 0. 0. 0. 0. 0. 0. 0. 0. 0. 0. 0. 0. 0. 0.
      0. 0. 0. 0. 1.35001451e-01 0. 0. 0. 0. 0. 3.01157087e-01 0. 0. 0.
      0. 0. 0. 0. 0. 0. 0. 0. 0. 0. 0. 0. 0. 0. 0. 0. 0. 0. 0. 0. 0. 0.
      0. 0. 0. 0. 0. 0. 0. 0. 0. 0. 0. 0. 0. 0. 0. 0. 0. 0. 0. 0. 0. 0.
      0. 0. 0. 0. 0. 0. 0. 0. 0. 0. 0. 0. 0. 0. 0. 0. 0. 0. 0. 0. 0. 0.
      0. 0. 0. 0. 0. 0. 0. 0. 0. 0. 8.04597735e-02 1.14942528e-02
      2.29885057e-02 3.44827585e-02 1.14942528e-02 0. 1.14942528e-02
      2.29885057e-02 2.29885057e-02 0. 2.29885057e-02 1.14942528e-02
      1.14942528e-02 0. 2.29885057e-02 1.14942528e-02 1.14942528e-02
      1.14942528e-02 2.29885057e-02 0. 0. 0. 0. 0. 0. 0. 0.
      2.29885057e-02 2.29885057e-02 0. 3.44827585e-02 6.89655170e-02
      1.14942528e-02 0. 1.14942528e-02 1.14942528e-02 0. 0. 0.
      1.14942528e-02 1.14942528e-02 0. 0. 0. 0. 0. 1.14942528e-02 0.
      5.74712642e-02 1.14942528e-02 0. 0. 1.14942528e-02 0. 0.
      1.14942528e-02 2.29885057e-02 3.44827585e-02 2.29885057e-02
      2.29885057e-02 3.44827585e-02 0. 4.59770113e-02 4.59770113e-02
      2.29885057e-02 0. 0. 0. 1.14942528e-02 0. 0. 0. 1.14942528e-02 0.
      0. 0. 1.14942528e-02 0. 1.14942528e-02 1.14942528e-02 0. 0. 0. 0.
      0. 0. 0. 1.14942528e-02 1.14942528e-02 0. 0. 2.29885057e-02 0. 0.
      1.14942528e-02 0. 2.29885057e-02 2.29885057e-02 0. 0.
      1.14942528e-02 0. 1.14942528e-02 1.14942528e-02 2.29885057e-02
      1.14942528e-02 2.29885057e-02 0. 0. 0. 0. 1.14942528e-02
      2.29885057e-02 1.14942528e-02 0. 1.14942528e-02 1.14942528e-02 0.
      0. 2.29885057e-02 8.04597735e-02 1.14942528e-02 0. 2.29885057e-02
      4.59770113e-02 1.14942528e-02 8.04597735e-02 6.89655170e-02
      4.59770113e-02 6.89655170e-02 1.14942528e-02 4.59770113e-02 0. 0.
      1.14942528e-02 3.44827585e-02 1.14942528e-02 1.14942528e-02 0.
      1.14942528e-02 1.14942528e-02 0. 1.14942528e-02 2.29885057e-02 0.
      0. 0. 0. 0. 0. 0. 0. 1.14942528e-02 0. 0. 2.29885057e-02 0.
      2.29885057e-02 1.14942528e-02 5.74712642e-02 0. 1.14942528e-02 0.
      3.44827585e-02 0. 0. 0. 0. 0. 0. 0. 0. 0. 0. 0. 1.14942528e-02
      2.29885057e-02 1.14942528e-02 1.14942528e-02 0. 1.14942528e-02 0.
      1.14942528e-02 1.14942528e-02 1.14942528e-02 0. 0. 0. 0.
      2.29885057e-02 1.14942528e-02 4.59770113e-02 4.59770113e-02
      6.89655170e-02 0. 4.59770113e-02 2.29885057e-02 1.14942528e-02 0.
      8.04597735e-02 1.14942528e-02 2.29885057e-02 0. 4.59770113e-02
      1.14942528e-02 0. 1.14942528e-02 1.14942528e-02 1.14942528e-02 0.
      0. 2.29885057e-02 0. 0. 0. 1.14942528e-02 1.14942528e-02
      1.14942528e-02 0. 0. 1.14942528e-02 0. 1.14942528e-02
      5.74712642e-02 1.26436785e-01 8.04597735e-02 0. 1.14942528e-01 0.
      1.14942528e-02 2.29885057e-02 4.59770113e-02 2.29885057e-02 0. 0.
      0. 1.14942528e-02 1.14942528e-02 3.44827585e-02 8.04597735e-02
      6.89655170e-02 6.89655170e-02 3.44827585e-02 6.89655170e-02
      1.14942528e-02 3.44827585e-02 1.14942528e-02 1.60919547e-01
      1.72413796e-01 1.03448272e-01 1.14942528e-02 9.19540226e-02
      4.59770113e-02 5.74712642e-02 9.19540226e-02 8.62068951e-01</_>
    <_>
      5.36336422e-01 5.59526861e-01 6.31880403e-01 0. 0. 0. 0. 0. 0. 0.
      0. 0. 0. 0. 0. 0. 0. 0. 0. 0. 0. 0. 0. 0. 0. 0. 0. 0. 0. 0. 0. 0.
      0. 0. 0. 0. 0. 0. 0. 0. 0. 0. 0. 0. 0. 0. 0. 0. 0. 0. 0. 0. 0. 0.
      0. 0. 0. 0. 0. 0. 0. 0. 0. 0. 0. 0. 0. 0. 0. 0. 0. 0. 0. 0. 0. 0.
      0. 0. 0. 0. 0. 0. 0. 0. 0. 0. 0. 0. 0. 0. 0. 0. 0. 0. 0. 0. 0. 0.
      0. 0. 0. 0. 0. 0. 0. 0. 0. 0. 0. 0. 0. 0. 0. 0. 0. 0. 0. 0. 0. 0.
      0. 0. 0. 0. 0. 0. 0. 0. 0. 0. 0. 0. 9.82994199e-01 1.83636278e-01
      0. 0. 0. 0. 0. 0. 0. 0. 0. 0. 0. 0. 0. 0. 0. 0. 0. 0. 0. 0. 0. 0.
      0. 0. 0. 0. 0. 0. 0. 0. 0. 0. 0. 0. 0. 0. 0. 0. 0. 0. 0. 0. 0. 0.
      0. 0. 0. 0. 0. 0. 0. 0. 0. 0. 0. 0. 0. 0. 0. 0. 0. 0. 0. 0. 0. 0.
      0. 0. 0. 0. 0. 0. 0. 0. 0. 0. 0. 0. 0. 0. 0. 0. 0. 0. 0.
      1.10732026e-01 1.23035582e-02 2.46071164e-02 4.92142327e-02
      1.23035582e-02 0. 2.46071164e-02 3.69106755e-02 3.69106755e-02 0.
      3.69106755e-02 1.23035582e-02 7.38213509e-02 0. 2.46071164e-02
      9.84284654e-02 0. 0. 0. 0. 1.23035582e-02 0. 0. 2.46071164e-02 0.
      0. 2.46071164e-02 1.23035582e-02 3.69106755e-02 0. 1.23035580e-01
      6.15177900e-02 1.23035582e-02 0. 1.23035582e-02 1.23035582e-02
      1.23035582e-02 0. 1.23035582e-02 0. 0. 0. 0. 0. 0. 0. 0.
      2.46071164e-02 4.92142327e-02 1.23035582e-02 0. 0. 1.23035582e-02
      0. 0. 0. 2.46071164e-02 1.23035582e-02 0. 1.23035582e-02
      4.92142327e-02 1.23035582e-02 1.47642702e-01 1.10732026e-01
      1.23035582e-02 0. 0. 0. 1.23035582e-02 0. 2.46071164e-02 0. 0. 0.
      0. 0. 1.23035582e-02 0. 1.23035582e-02 3.69106755e-02 0. 0. 0. 0.
      0. 0. 0. 0. 2.46071164e-02 0. 0. 0. 0. 0. 0. 2.46071164e-02
      2.46071164e-02 0. 1.23035582e-02 0. 3.69106755e-02 0. 0. 0. 0. 0.
      0. 0. 3.69106755e-02 1.23035582e-02 2.46071164e-02 0.
      3.69106755e-02 0. 1.23035582e-02 1.23035582e-02 0. 0. 0. 0. 0. 0.
      2.46071164e-02 1.23035582e-02 7.38213509e-02 2.46071164e-02
      6.15177900e-02 9.84284654e-02 2.46071164e-02 2.46071164e-02 0.
      1.23035582e-02 1.23035582e-02 2.46071164e-02 0. 2.46071164e-02 0.
      0. 1.23035582e-02 2.46071164e-02 0. 0. 1.23035582e-02
      1.10732026e-01 0. 2.46071164e-02 0. 3.69106755e-02 0. 0. 0. 0.
      2.46071164e-02 1.23035582e-02 1.23035582e-02 1.23035582e-02 0. 0.
      2.46071164e-02 8.61249045e-02 1.23035582e-02 2.46071164e-02 0. 0.
      0. 0. 1.23035582e-02 0. 1.23035582e-02 0. 0. 0. 0. 0. 0.
      2.46071164e-02 1.23035582e-02 3.69106755e-02 0. 1.23035582e-02 0.
      0. 0. 0. 2.46071164e-02 1.23035582e-02 1.23035582e-02 0. 0. 0. 0.
      9.84284654e-02 0. 2.46071164e-02 1.23035582e-02 4.92142327e-02
      1.23035582e-02 0. 1.23035582e-02 2.46071164e-02 0. 0. 0. 0. 0. 0.
      1.23035582e-02 1.59946263e-01 0. 0. 0. 0. 0. 0. 1.23035582e-02 0.
      0. 0. 0. 0. 1.23035582e-02 0. 1.23035582e-02 8.61249045e-02
      2.46071164e-02 4.92142327e-02 1.23035582e-02 2.46071164e-02 0. 0.
      2.46071164e-02 6.15177900e-02 1.23035582e-02 1.23035582e-02 0.
      1.23035582e-02 2.46071164e-02 0. 0. 7.38213509e-02 3.69106755e-02
      7.38213509e-02 0. 4.92142327e-02 0. 0. 2.46071164e-02
      1.10732026e-01 8.61249045e-02 6.15177900e-02 0. 9.84284654e-02
      1.10732026e-01 1.10732026e-01 9.84284654e-02 8.36641967e-01</_>
    <_>
      5.38703918e-01 5.52482724e-01 6.36051059e-01 0. 0. 0. 0. 0. 0. 0.
      0. 0. 0. 0. 0. 0. 0. 0. 0. 0. 0. 0. 0. 0. 0. 0. 0. 0. 0. 0. 0. 0.
      0. 0. 0. 0. 0. 0. 0. 0. 0. 0. 0. 0. 0. 0. 0. 0. 0. 0. 0. 0. 0. 0.
      0. 0. 0. 0. 0. 0. 0. 0. 0. 0. 0. 0. 0. 0. 0. 0. 0. 0. 0. 0. 0. 0.
      0. 0. 0. 0. 0. 0. 0. 0. 0. 0. 0. 0. 0. 0. 0. 0. 0. 0. 0. 0. 0. 0.
      0. 0. 0. 0. 0. 0. 0. 0. 0. 0. 0. 0. 0. 0. 0. 0. 0. 0. 0. 0. 0. 0.
      0. 0. 0. 0. 0. 0. 0. 0. 0. 0. 0. 0. 8.49788189e-01 5.27124286e-01
      0. 0. 0. 0. 0. 0. 0. 0. 0. 0. 0. 0. 0. 0. 0. 0. 0. 0. 0. 0. 0. 0.
      0. 0. 0. 0. 0. 0. 0. 0. 0. 0. 0. 0. 0. 0. 0. 0. 0. 0. 0. 0. 0. 0.
      0. 0. 0. 0. 0. 0. 0. 0. 0. 0. 0. 0. 0. 0. 0. 0. 0. 0. 0. 0. 0. 0.
      0. 0. 0. 0. 0. 0. 0. 0. 0. 0. 0. 0. 0. 0. 0. 0. 0. 0. 0.
      7.43294135e-02 1.06184874e-02 0. 0. 1.06184874e-02 0.
      2.12369747e-02 3.18554640e-02 2.12369747e-02 0. 2.12369747e-02
      1.06184874e-02 6.37109280e-02 0. 4.24739495e-02 5.30924350e-02
      2.12369747e-02 1.06184874e-02 0. 0. 0. 0. 0. 0. 7.43294135e-02 0.
      1.06184874e-02 1.06184874e-02 3.18554640e-02 0. 4.24739495e-02
      7.43294135e-02 3.18554640e-02 0. 2.12369747e-02 0. 0. 0. 0. 0.
      1.06184874e-02 0. 0. 0. 1.06184874e-02 0. 0. 0. 1.06184874e-02
      1.06184874e-02 0. 1.06184874e-02 1.06184874e-02 0. 1.06184874e-02
      0. 7.43294135e-02 2.12369747e-02 0. 1.06184874e-02 5.30924350e-02
      1.06184874e-02 5.30924350e-02 1.38040334e-01 0. 0. 0. 0. 0. 0. 0.
      0. 2.12369747e-02 0. 0. 0. 2.12369747e-02 0. 1.06184874e-02 0.
      1.06184874e-02 0. 0. 0. 0. 0. 0. 0. 1.06184874e-02 0. 0. 0. 0. 0.
      1.06184874e-02 1.06184874e-02 2.12369747e-02 0. 1.06184874e-02 0.
      3.18554640e-02 0. 0. 0. 0. 1.06184874e-02 0. 0. 2.12369747e-02 0.
      1.06184874e-02 1.06184874e-02 4.24739495e-02 0. 1.06184874e-02 0.
      2.12369747e-02 0. 0. 0. 3.18554640e-02 1.06184874e-02
      1.06184874e-02 2.12369747e-02 1.16803363e-01 1.06184874e-02
      1.27421856e-01 1.06184870e-01 3.18554640e-02 2.12369747e-02
      2.12369747e-02 0. 0. 0. 1.06184874e-02 3.18554640e-02 0.
      1.06184874e-02 2.12369747e-02 0. 2.12369747e-02 0. 3.18554640e-02
      7.43294135e-02 1.06184874e-02 0. 1.06184874e-02 1.06184874e-02 0.
      0. 1.06184874e-02 0. 2.12369747e-02 0. 0. 0. 0. 0. 2.12369747e-02
      8.49478990e-02 1.06184874e-02 0. 0. 0. 0. 0. 0. 0. 0. 0. 0. 0.
      1.06184874e-02 0. 0. 0. 1.06184874e-02 0. 0. 1.06184874e-02 0. 0.
      0. 2.12369747e-02 4.24739495e-02 1.06184874e-02 0. 0.
      1.06184874e-02 0. 2.12369747e-02 1.48658827e-01 2.12369747e-02 0.
      0. 2.12369747e-02 0. 0. 0. 1.06184874e-02 2.12369747e-02 0. 0. 0.
      0. 0. 0. 3.18554640e-02 0. 1.06184874e-02 0. 0. 0. 0. 0. 0. 0.
      2.12369747e-02 0. 0. 0. 0. 2.12369747e-02 6.37109280e-02
      1.06184874e-02 4.24739495e-02 2.12369747e-02 1.06184874e-02 0. 0.
      0. 1.06184874e-02 1.06184874e-02 0. 1.06184874e-02 0. 0. 0. 0.
      6.37109280e-02 3.18554640e-02 1.06184874e-02 1.06184874e-02
      2.12369747e-02 0. 1.06184874e-02 0. 3.18554640e-02 1.06184870e-01
      6.37109280e-02 0. 7.43294135e-02 1.38040334e-01 6.37109280e-02
      1.48658827e-01 8.70715976e-01</_>
    <_>
      4.95667189e-01 5.59487104e-01 6.64295256e-01 0. 0. 0. 0. 0. 0. 0.
      0. 0. 0. 0. 0. 0. 0. 0. 0. 0. 0. 0. 0. 0. 0. 0. 0. 0. 0. 0. 0. 0.
      0. 0. 0. 0. 0. 0. 0. 0. 0. 0. 0. 0. 0. 0. 0. 0. 0. 0. 0. 0. 0. 0.
      0. 0. 0. 0. 0. 0. 0. 0. 0. 0. 0. 0. 0. 0. 0. 0. 0. 0. 0. 0. 0. 0.
      0. 0. 0. 0. 0. 0. 0. 0. 0. 0. 0. 0. 0. 0. 0. 0. 0. 0. 0. 0. 0.
      1.33191338e-02 0. 0. 0. 0. 0. 0. 0. 0. 0. 0. 0. 0. 0. 0. 0. 0. 0.
      0. 0. 0. 0. 0. 0. 0. 0. 0. 0. 0. 0. 0. 0. 0. 0. 0. 0.
      9.83396053e-01 0. 0. 0. 0. 0. 1.79808304e-01 1.99787021e-02 0. 0.
      0. 0. 0. 0. 0. 0. 0. 0. 0. 0. 0. 0. 0. 0. 0. 0. 0. 0. 0. 0. 0. 0.
      0. 0. 0. 0. 0. 0. 0. 0. 0. 0. 4.43971111e-03 2.21985555e-03 0. 0.
      0. 0. 0. 0. 0. 0. 0. 0. 0. 0. 0. 0. 0. 0. 0. 0. 0. 0. 0. 0. 0. 0.
      0. 0. 0. 0. 0. 0. 0. 0. 0. 0. 0. 0. 0. 0. 0. 0. 0. 0.
      5.80119379e-02 8.28741957e-03 0. 0. 0. 0. 0. 8.28741957e-03
      2.48622596e-02 0. 8.28741957e-03 0. 3.31496783e-02 0.
      1.65748391e-02 8.28741957e-03 3.31496783e-02 1.65748391e-02
      8.28741957e-03 0. 0. 0. 0. 0. 2.48622596e-02 0. 0. 8.28741957e-03
      0. 0. 6.62993565e-02 0. 0. 0. 8.28741957e-03 0. 0. 0. 0. 0.
      8.28741957e-03 8.28741957e-03 0. 0. 1.65748391e-02 0. 0. 0.
      7.45867789e-02 0. 0. 8.28741957e-03 1.65748391e-02 0.
      8.28741957e-03 0. 1.90610647e-01 0. 1.65748391e-02 0.
      2.23760322e-01 0. 1.65748388e-01 8.28741957e-03 0. 0. 0. 0. 0. 0.
      0. 0. 1.65748391e-02 0. 8.28741957e-03 0. 0. 0. 0. 0. 0. 0. 0. 0.
      0. 0. 0. 0. 3.31496783e-02 0. 0. 0. 8.28741957e-03 0.
      8.28741957e-03 0. 1.65748391e-02 0. 0. 0. 0. 0. 0. 0.
      8.28741957e-03 0. 0. 0. 0. 0. 8.28741957e-03 8.28741957e-03
      7.45867789e-02 0. 8.28741957e-03 0. 1.65748391e-02 0.
      2.48622596e-02 0. 5.38682282e-01 0. 2.48622596e-02 8.28741957e-03
      2.81772256e-01 0. 1.82323232e-01 4.14370969e-02 1.65748391e-02 0.
      8.28741957e-03 0. 0. 0. 0. 8.28741957e-03 8.28741957e-03 0. 0. 0.
      0. 0. 8.28741957e-03 8.28741957e-03 0. 0. 0. 0. 0. 0. 0.
      8.28741957e-03 8.28741957e-03 0. 0. 0. 0. 0. 8.28741957e-03
      2.48622596e-02 0. 0. 0. 0. 0. 0. 0. 0. 0. 0. 0. 0. 0. 0. 0. 0.
      8.28741957e-03 0. 0. 0. 0. 0. 0. 0. 8.28741957e-03 8.28741957e-03
      0. 8.28741957e-03 1.65748391e-02 1.65748391e-02 0. 3.31496783e-02
      8.28741957e-03 1.65748391e-02 0. 0. 0. 0. 0. 1.65748391e-02
      8.28741957e-03 0. 0. 0. 0. 0. 0. 0. 0. 0. 0. 0. 0. 0. 0. 0.
      8.28741957e-03 0. 0. 1.65748391e-02 8.28741957e-03 0.
      8.28741957e-03 2.48622596e-02 1.65748391e-02 1.65748391e-02 0.
      2.48622596e-02 0. 0. 0. 8.28741957e-03 1.65748391e-02 0. 0. 0. 0.
      0. 1.65748391e-02 2.48622596e-02 7.45867789e-02 4.14370969e-02 0.
      3.31496783e-02 8.28741957e-03 8.28741957e-03 1.65748391e-02
      2.48622596e-02 3.14921945e-01 9.11616161e-02 1.65748391e-02
      8.28741938e-02 1.98898077e-01 3.31496783e-02 2.23760322e-01
      4.80670333e-01</_>
    <_>
      1.64954811e-01 5.09663820e-01 8.44412625e-01 1.13128901e-01
      9.92614806e-01 0. 0. 0. 0. 0. 4.37918305e-02 0. 0. 0. 0. 0. 0. 0.
      0. 0. 0. 0. 0. 0. 0. 0. 0. 0. 0. 0. 0. 0. 0. 0. 0. 0. 0. 0. 0. 0.
      0. 0. 0. 0. 0. 0. 0. 0. 0. 0. 0. 0. 0. 0. 0. 0. 0. 0. 0. 0. 0. 0.
      0. 0. 0. 0. 0. 0. 0. 0. 0. 0. 0. 0. 0. 0. 0. 0. 0. 0. 0. 0. 0. 0.
      0. 0. 0. 0. 0. 0. 0. 0. 0. 0. 0. 0. 0. 0. 0. 0. 0. 0. 0. 0. 0. 0.
      0. 0. 0. 0. 0. 0. 0. 0. 0. 0. 0. 0. 0. 0. 0. 0. 0. 0. 0. 0. 0. 0.
      0. 0. 0. 0. 0. 0. 0. 0. 0. 0. 0. 0. 0. 0. 0. 0. 0. 0. 0. 0. 0. 0.
      0. 0. 0. 0. 0. 0. 0. 0. 0. 0. 0. 0. 0. 0. 0. 0. 0. 0. 0. 0. 0. 0.
      0. 0. 0. 0. 0. 0. 0. 0. 0. 0. 0. 0. 0. 0. 0. 0. 0. 0. 0. 0. 0. 0.
      0. 0. 0. 0. 0. 0. 0. 0. 0. 0. 0. 0. 0. 0. 0. 0. 0. 0. 0. 0. 0. 0.
      0. 0. 0. 2.53571179e-02 2.53571179e-02 2.53571179e-02
      3.80356759e-02 1.26785589e-02 0. 5.07142358e-02 1.52142704e-01
      2.53571179e-02 0. 1.26785589e-02 0. 1.26785589e-02 1.26785589e-02
      1.39464155e-01 6.08570814e-01 0. 0. 0. 0. 0. 0. 2.53571179e-02
      1.26785589e-02 1.26785589e-02 0. 0. 0. 0. 0. 8.87499154e-02
      3.04285407e-01 1.26785589e-02 0. 0. 0. 1.26785589e-02 0. 0. 0. 0.
      0. 0. 0. 0. 0. 1.26785589e-02 2.53571179e-02 0. 0. 0. 0. 0. 0. 0.
      0. 0. 1.26785589e-02 0. 0. 1.26785589e-02 1.26785589e-02
      6.33927956e-02 7.60713518e-02 0. 0. 0. 0. 0. 0. 0. 0. 0. 0. 0. 0.
      0. 0. 0. 1.26785589e-02 0. 0. 0. 0. 0. 0. 0. 0. 1.26785589e-02 0.
      0. 0. 0. 0. 2.53571179e-02 0. 0. 0. 0. 0. 0. 0. 0. 0. 0. 0. 0. 0.
      0. 0. 0. 0. 0. 0. 0. 0. 0. 0. 0. 0. 0. 0. 0. 0. 0. 0.
      2.53571179e-02 3.80356759e-02 2.53571179e-02 1.26785589e-02 0.
      1.26785589e-02 1.26785589e-02 0. 1.26785589e-02 1.52142704e-01 0.
      1.26785589e-02 0. 0. 0. 1.26785589e-02 0. 3.80356759e-01 0. 0. 0.
      1.26785589e-02 0. 0. 0. 1.26785589e-02 0. 0. 0. 0. 0. 0.
      3.80356759e-02 2.02856943e-01 1.26785589e-02 0. 0. 1.26785589e-02
      0. 0. 0. 0. 0. 0. 0. 0. 0. 0. 0. 2.53571179e-02 0. 0. 0. 0. 0.
      1.26785589e-02 0. 0. 0. 0. 0. 1.26785589e-02 0. 0. 0.
      1.39464155e-01 1.26785589e-02 0. 0. 1.26785589e-02 0. 0. 0.
      1.26785589e-02 0. 0. 0. 0. 0. 0. 0. 1.14107028e-01 0. 0. 0. 0. 0.
      0. 0. 0. 0. 0. 0. 0. 0. 0. 0. 8.87499154e-02 0. 0. 0.
      2.53571179e-02 0. 0. 0. 3.80356759e-02 0. 0. 0. 0. 0. 0.
      1.26785589e-02 8.87499154e-02 0. 2.53571179e-02 0. 0.
      1.26785589e-02 0. 0. 1.26785589e-02 0. 0. 0. 0. 0. 0.
      3.80356759e-02 4.43749577e-01</_>
    <_>
      4.55137610e-01 5.74182570e-01 6.80561602e-01 0. 0. 0. 0. 0. 0. 0.
      0. 0. 0. 0. 0. 0. 0. 0. 0. 0. 0. 0. 0. 0. 0. 0. 0. 0. 0. 0. 0. 0.
      0. 0. 0. 0. 0. 0. 0. 0. 0. 0. 0. 0. 0. 0. 0. 0. 0. 0. 0. 0. 0. 0.
      0. 0. 0. 0. 0. 0. 0. 0. 0. 0. 0. 0. 0. 0. 0. 0. 0. 0. 0. 0. 0. 0.
      0. 0. 0. 0. 0. 0. 0. 0. 0. 0. 0. 0. 0. 0. 0. 0. 0. 0. 0. 0. 0.
      1.84361599e-02 0. 0. 0. 0. 0. 9.21807997e-03 0. 0. 0. 0. 0. 0. 0.
      0. 0. 0. 0. 0. 0. 0. 0. 0. 0. 0. 0. 0. 0. 0. 0. 0. 0. 0. 0. 0. 0.
      1.22907739e-02 3.07269348e-03 0. 0. 0. 0. 4.60904017e-02
      9.98625338e-01 0. 0. 0. 0. 0. 0. 0. 0. 0. 0. 0. 0. 0. 0. 0. 0. 0.
      0. 0. 0. 0. 0. 0. 0. 0. 0. 0. 0. 0. 0. 0. 0. 0. 0. 0.
      6.14538696e-03 0. 0. 0. 0. 0. 0. 0. 0. 0. 0. 0. 0. 0. 0. 0. 0. 0.
      0. 0. 0. 0. 0. 0. 0. 0. 0. 0. 0. 0. 0. 0. 0. 0. 0. 0. 0. 0. 0. 0.
      0. 0. 0. 2.79713452e-01 1.74820907e-02 6.99283630e-02 0.
      3.49641815e-02 0. 0. 1.74820907e-02 1.74820907e-02 0. 0. 0.
      3.49641815e-02 0. 1.74820907e-02 6.99283630e-02 0. 0. 0.
      1.74820907e-02 0. 0. 0. 0. 1.74820907e-02 0. 0. 0. 0. 0. 0.
      1.74820907e-02 5.24462722e-02 0. 0. 1.74820907e-02 0. 0. 0. 0.
      1.74820907e-02 0. 0. 0. 1.74820907e-02 1.74820907e-02 0. 0.
      3.49641815e-02 0. 1.74820907e-02 0. 0. 0. 0. 0. 1.04892544e-01
      3.49641815e-02 1.74820907e-02 0. 5.24462722e-02 0. 3.49641815e-02
      3.49641815e-02 6.99283630e-02 0. 0. 1.74820907e-02 1.74820907e-02
      0. 0. 1.74820907e-02 1.74820907e-02 0. 0. 1.74820907e-02 0. 0. 0.
      1.74820907e-02 0. 0. 0. 0. 0. 0. 0. 0. 1.74820907e-02 0. 0. 0.
      3.49641815e-02 0. 1.74820907e-02 1.74820907e-02 5.24462722e-02 0.
      1.74820907e-02 0. 1.74820907e-02 0. 0. 1.74820907e-02 0. 0. 0. 0.
      1.74820907e-02 0. 0. 1.74820907e-02 1.57338813e-01 0. 0. 0.
      1.74820907e-02 1.74820907e-02 0. 0. 5.76909006e-01 1.74820907e-02
      1.74820907e-02 0. 2.09785089e-01 1.74820907e-02 6.99283630e-02
      3.49641815e-02 1.74820907e-02 3.49641815e-02 1.74820907e-02
      1.74820907e-02 1.74820907e-02 3.49641815e-02 0. 1.74820900e-01 0.
      0. 1.74820907e-02 1.74820907e-02 1.74820907e-02 0. 1.74820907e-02
      1.74820907e-02 0. 0. 0. 1.74820907e-02 0. 0. 0. 0. 0.
      1.74820907e-02 0. 0. 0. 0. 1.74820907e-02 1.74820907e-02
      1.74820907e-02 0. 0. 0. 0. 0. 0. 0. 0. 0. 0. 0. 0. 0. 0. 0.
      1.74820907e-02 0. 0. 0. 0. 0. 0. 0. 3.49641815e-02 0.
      1.74820907e-02 1.74820907e-02 0. 3.49641815e-02 1.74820907e-02
      5.24462722e-02 6.99283630e-02 5.24462722e-02 1.74820907e-02
      1.74820907e-02 3.49641815e-02 0. 0. 8.74104500e-02 0.
      1.74820907e-02 0. 0. 0. 0. 0. 1.74820907e-02 1.74820907e-02
      1.74820907e-02 0. 0. 0. 0. 1.74820907e-02 0. 0. 1.74820907e-02
      1.74820907e-02 5.24462722e-02 0. 0. 0. 5.24462722e-02
      8.74104500e-02 1.22374639e-01 1.74820907e-02 1.22374639e-01
      1.74820907e-02 1.74820907e-02 0. 1.22374639e-01 5.24462722e-02 0.
      1.74820907e-02 1.74820907e-02 1.74820907e-02 0. 1.74820907e-02
      1.39856726e-01 1.04892544e-01 1.04892544e-01 3.49641815e-02
      1.22374639e-01 1.74820907e-02 1.74820907e-02 1.74820907e-02
      1.92303002e-01 1.22374639e-01 1.22374639e-01 3.49641815e-02
      8.74104500e-02 5.24462722e-02 8.74104500e-02 1.22374639e-01
      4.19570178e-01</_>
    <_>
      1.51398495e-01 5.14377236e-01 8.44093919e-01 1.05655298e-01
      9.94402826e-01 0. 0. 0. 0. 0. 0. 0. 0. 0. 0. 0. 0. 0. 0. 0. 0. 0.
      0. 0. 0. 0. 0. 0. 0. 0. 0. 0. 0. 0. 0. 0. 0. 0. 0. 0. 0. 0. 0. 0.
      0. 0. 0. 0. 0. 0. 0. 0. 0. 0. 0. 0. 0. 0. 0. 0. 0. 0. 0. 0. 0. 0.
      0. 0. 0. 0. 0. 0. 0. 0. 0. 0. 0. 0. 0. 0. 0. 0. 0. 0. 0. 0. 0. 0.
      0. 0. 0. 0. 0. 0. 0. 0. 0. 0. 0. 0. 0. 0. 0. 0. 0. 0. 0. 0. 0. 0.
      0. 0. 0. 0. 0. 0. 0. 0. 0. 0. 0. 0. 0. 0. 0. 0. 0. 0. 0. 0. 0. 0.
      0. 0. 0. 0. 0. 0. 0. 0. 0. 0. 0. 0. 0. 0. 0. 0. 0. 0. 0. 0. 0. 0.
      0. 0. 0. 0. 0. 0. 0. 0. 0. 0. 0. 0. 0. 0. 0. 0. 0. 0. 0. 0. 0. 0.
      0. 0. 0. 0. 0. 0. 0. 0. 0. 0. 0. 0. 0. 0. 0. 0. 0. 0. 0. 0. 0. 0.
      0. 0. 0. 0. 0. 0. 0. 0. 0. 0. 0. 0. 0. 0. 0. 0. 0. 0. 0. 0. 0.
      2.78099831e-02 1.39049916e-02 1.39049916e-02 0. 1.39049916e-02 0.
      1.39049916e-02 5.56199662e-02 1.39049916e-02 0. 0. 1.39049916e-02
      1.39049916e-02 0. 2.78099831e-02 6.95249587e-02 1.39049916e-02 0.
      0. 0. 0. 0. 0. 0. 1.39049916e-02 0. 0. 1.39049916e-02
      1.39049916e-02 0. 5.56199662e-02 1.11239932e-01 1.39049916e-02 0.
      1.39049916e-02 0. 0. 0. 1.39049916e-02 0. 0. 1.39049916e-02 0. 0.
      0. 0. 1.39049916e-02 1.39049916e-02 2.78099831e-02 0. 0. 0. 0. 0.
      0. 0. 1.39049917e-01 0. 0. 0. 6.95249587e-02 0. 4.17149737e-02
      5.56199662e-02 1.39049916e-02 0. 0. 1.39049916e-02 0. 0.
      1.39049916e-02 0. 0. 0. 0. 0. 0. 0. 0. 2.78099831e-02
      1.39049916e-02 0. 0. 0. 0. 0. 0. 0. 0. 0. 0. 0. 0. 0. 0. 0.
      2.78099831e-02 0. 0. 0. 0. 0. 0. 0. 1.39049916e-02 0. 0. 0. 0. 0.
      0. 0. 5.56199662e-02 1.39049916e-02 0. 0. 1.39049916e-02 0. 0. 0.
      6.53534591e-01 4.17149737e-02 1.39049916e-02 1.39049916e-02
      3.05909812e-01 1.39049916e-02 6.95249587e-02 4.17149737e-02
      1.39049916e-02 1.39049916e-02 0. 5.56199662e-02 0. 0.
      1.39049916e-02 8.34299475e-02 0. 0. 0. 1.39049916e-02 0. 0.
      1.39049916e-02 2.78099831e-02 0. 0. 0. 1.39049916e-02 0. 0. 0.
      1.39049916e-02 0. 0. 0. 0. 0. 0. 0. 5.56199662e-02 0. 0. 0. 0. 0.
      0. 0. 0. 0. 0. 0. 0. 0. 0. 0. 0. 0. 0. 0. 1.39049916e-02 0. 0. 0.
      1.39049916e-02 0. 0. 0. 0. 1.39049916e-02 0. 0. 5.56199662e-02 0.
      0. 0. 4.17149737e-02 0. 2.78099831e-02 0. 8.34299475e-02 0. 0. 0.
      0. 2.78099831e-02 0. 2.78099831e-02 1.11239932e-01 0. 0. 0.
      1.39049916e-02 0. 0. 0. 1.39049916e-02 0. 0. 0. 0. 0. 0. 0.
      5.56199662e-02 1.39049916e-02 0. 0. 4.17149737e-02 0. 0.
      1.39049916e-02 8.34299475e-02 0. 0. 0. 0. 2.78099831e-02 0. 0.
      8.34299475e-02 1.25144929e-01 6.95249587e-02 0. 5.56199662e-02 0.
      2.78099831e-02 0. 2.78099831e-02 3.61529768e-01 8.34299475e-02
      1.39049916e-02 1.39049917e-01 1.80764884e-01 5.56199662e-02
      6.95249587e-02 3.47624779e-01</_>
    <_>
      3.92525822e-01 5.79765677e-01 7.13999510e-01 0. 0. 0. 0. 0. 0. 0.
      0. 0. 0. 0. 0. 0. 0. 0. 0. 0. 0. 0. 0. 0. 0. 0. 0. 0. 0. 0. 0. 0.
      0. 0. 0. 0. 0. 0. 0. 0. 0. 0. 0. 0. 0. 0. 0. 1.16727995e-02 0. 0.
      0. 0. 0. 7.39277229e-02 2.33455986e-01 0. 0. 0. 0. 0.
      1.55637309e-01 1.55637320e-02 0. 0. 0. 0. 0. 0. 0. 0. 0. 0. 0. 0.
      0. 0. 0. 0. 0. 0. 0. 0. 0. 0. 0. 0. 0. 0. 0. 0. 3.50183994e-02 0.
      0. 0. 0. 0. 9.02696431e-01 3.15165579e-01 0. 0. 0. 0. 0. 0. 0. 0.
      0. 0. 0. 0. 0. 0. 0. 0. 0. 0. 0. 0. 0. 0. 0. 0. 0. 0. 0. 0. 0. 0.
      0. 0. 0. 0. 0. 0. 0. 0. 0. 0. 0. 3.89093300e-03 0. 0. 0. 0. 0. 0.
      0. 0. 0. 0. 0. 0. 0. 0. 0. 0. 0. 0. 0. 0. 0. 0. 0. 0. 0. 0. 0. 0.
      0. 0. 0. 0. 0. 0. 0. 0. 0. 0. 0. 0. 0. 0. 0. 0. 0. 0. 0. 0. 0. 0.
      0. 0. 0. 0. 0. 0. 0. 0. 0. 0. 0. 0. 0. 0. 0. 0. 0. 0. 0. 0. 0. 0.
      0. 0. 0. 0. 0. 0. 0. 6.28936291e-02 4.19290885e-02 0.
      3.14468145e-02 0. 1.04822721e-02 2.09645443e-02 1.04822721e-02 0.
      0. 1.04822721e-02 1.04822721e-02 0. 0. 1.04822721e-02
      3.14468145e-02 0. 1.04822721e-02 0. 0. 0. 0. 0. 0. 0.
      1.04822721e-02 0. 1.04822721e-02 0. 0. 0. 3.14468145e-02 0.
      1.04822721e-02 0. 0. 0. 0. 0. 1.04822721e-02 0. 0. 0. 0. 0. 0. 0.
      2.09645443e-02 1.04822721e-02 0. 0. 0. 0. 0. 0. 0. 1.04822721e-02
      0. 0. 0. 1.04822721e-02 0. 2.09645443e-02 1.04822721e-02
      1.04822721e-02 0. 0. 3.14468145e-02 0. 0. 1.04822721e-02 0. 0. 0.
      0. 0. 0. 0. 0. 1.04822721e-02 0. 0. 0. 0. 0. 0. 0. 0. 0. 0. 0. 0.
      0. 0. 1.04822721e-02 0. 0. 0. 1.04822721e-02 1.04822721e-02 0. 0.
      1.04822721e-02 0. 0. 0. 0. 1.04822721e-02 0. 0. 1.04822721e-02
      1.04822721e-02 2.09645443e-02 1.04822721e-02 0. 0. 0. 0.
      1.04822721e-02 0. 0. 0. 0. 1.04822721e-02 1.04822721e-02 0.
      1.04822721e-02 5.24113625e-02 4.19290885e-02 7.33759031e-02
      1.04822721e-02 1.25787258e-01 0. 1.04822721e-02 0. 1.36269540e-01
      0. 0. 0. 2.09645443e-02 0. 0. 0. 2.09645443e-02 0. 0. 0.
      1.04822721e-02 0. 0. 0. 0. 0. 0. 0. 0. 0. 0. 0. 3.14468145e-02
      1.04822721e-02 0. 0. 3.14468145e-02 0. 0. 0. 0. 0. 0.
      1.04822721e-02 0. 0. 0. 0. 0. 0. 0. 0. 0. 0. 0. 0. 0. 0.
      1.04822721e-02 0. 3.14468145e-02 0. 0. 0. 5.24113625e-02
      3.14468145e-02 1.04822725e-01 1.04822721e-02 1.99163169e-01
      1.04822721e-02 0. 1.04822721e-02 1.46751806e-01 0. 4.19290885e-02
      0. 1.04822721e-02 0. 0. 1.04822721e-02 5.24113625e-02 0.
      1.04822721e-02 0. 2.09645443e-02 0. 0. 0. 0. 0. 0. 0.
      3.14468145e-02 0. 1.04822721e-02 0. 6.28936291e-02 8.38581771e-02
      6.39418602e-01 0. 3.35432708e-01 1.04822721e-02 3.14468145e-02 0.
      1.25787258e-01 0. 1.04822721e-02 0. 2.09645443e-02 0. 0.
      1.04822721e-02 1.36269540e-01 4.19290885e-02 8.38581771e-02
      1.04822721e-02 1.15304992e-01 0. 1.04822721e-02 2.09645443e-02
      1.36269540e-01 4.19290885e-02 5.24113625e-02 1.04822721e-02
      7.33759031e-02 3.14468145e-02 9.43404511e-02 4.19290885e-02
      4.71702248e-01</_>
    <_>
      1.37897760e-01 5.23366332e-01 8.40875745e-01 4.38596718e-02
      9.99025822e-01 0. 0. 0. 0. 0. 4.87329671e-03 0. 0. 0. 0. 0. 0. 0.
      0. 0. 0. 0. 0. 0. 0. 0. 0. 0. 0. 0. 0. 0. 0. 0. 0. 0. 0. 0. 0. 0.
      0. 0. 0. 0. 0. 0. 0. 0. 0. 0. 0. 0. 0. 0. 0. 0. 0. 0. 0. 0. 0. 0.
      0. 0. 0. 0. 0. 0. 0. 0. 0. 0. 0. 0. 0. 0. 0. 0. 0. 0. 0. 0. 0. 0.
      0. 0. 0. 0. 0. 0. 0. 0. 0. 0. 0. 0. 0. 0. 0. 0. 0. 0. 0. 0. 0. 0.
      0. 0. 0. 0. 0. 0. 0. 0. 0. 0. 0. 0. 0. 0. 0. 0. 0. 0. 0. 0. 0. 0.
      0. 0. 0. 0. 0. 0. 0. 0. 0. 0. 0. 0. 0. 0. 0. 0. 0. 0. 0. 0. 0. 0.
      0. 0. 0. 0. 0. 0. 0. 0. 0. 0. 0. 0. 0. 0. 0. 0. 0. 0. 0. 0. 0. 0.
      0. 0. 0. 0. 0. 0. 0. 0. 0. 0. 0. 0. 0. 0. 0. 0. 0. 0. 0. 0. 0. 0.
      0. 0. 0. 0. 0. 0. 0. 0. 0. 0. 0. 0. 0. 0. 0. 0. 0. 0. 0. 0. 0. 0.
      0. 0. 0. 0. 0. 0. 2.25819368e-02 0. 0. 2.25819368e-02
      6.77458122e-02 2.25819368e-02 0. 0. 2.25819368e-02 0. 0.
      6.77458122e-02 1.12909682e-01 2.25819368e-02 0. 0. 0. 0. 0. 0. 0.
      0. 0. 0. 0. 2.25819368e-02 0. 2.25819368e-02 9.03277472e-02 0. 0.
      0. 0. 0. 0. 0. 0. 0. 0. 0. 0. 0. 0. 0. 0. 0. 0. 0. 0. 0. 0. 0. 0.
      0. 2.25819368e-02 0. 0. 0. 0. 0. 2.25819368e-02 0. 0. 0. 0. 0. 0.
      0. 0. 0. 0. 0. 0. 0. 0. 0. 0. 0. 0. 0. 0. 0. 0. 0. 0.
      2.25819368e-02 0. 0. 0. 0. 0. 0. 0. 4.51638736e-02 0. 0. 0. 0. 0.
      0. 0. 0. 0. 0. 0. 0. 0. 0. 0. 6.77458122e-02 0. 0. 0. 0. 0. 0. 0.
      1.12909682e-01 0. 0. 0. 2.25819368e-02 0. 0. 2.25819368e-02
      2.25819368e-02 0. 2.25819368e-02 6.77458122e-02 2.25819368e-02 0.
      0. 2.03237429e-01 2.25819368e-02 2.25819368e-02 0. 0. 0.
      2.25819368e-02 0. 1.58073559e-01 0. 0. 0. 0. 0. 0. 0. 0. 0. 0. 0.
      0. 0. 0. 0. 1.58073559e-01 0. 0. 0. 2.25819368e-02 0. 0. 0. 0. 0.
      0. 0. 0. 0. 0. 0. 0. 2.25819368e-02 2.25819368e-02 0. 0. 0. 0. 0.
      2.25819368e-02 0. 0. 0. 2.25819368e-02 0. 0. 2.25819368e-02 0.
      2.25819368e-02 4.51638736e-02 0. 6.77458122e-02 0. 2.25819368e-02
      0. 2.25819368e-02 0. 0. 0. 2.25819368e-02 0. 0. 0. 1.35491624e-01
      0. 0. 0. 0. 0. 0. 0. 0. 0. 0. 0. 0. 0. 0. 0. 2.25819368e-02
      1.80655494e-01 1.35491624e-01 0. 4.51638736e-02 0. 0. 0.
      1.12909682e-01 0. 2.25819368e-02 0. 2.25819368e-02 0. 0. 0.
      4.51638736e-02 5.87130368e-01 3.83892924e-01 2.25819368e-02
      6.77458122e-02 0. 2.25819368e-02 0. 1.12909682e-01 1.80655494e-01
      1.35491624e-01 0. 1.58073559e-01 9.03277472e-02 4.51638736e-02
      4.51638736e-02 3.83892924e-01</_>
    <_>
      1.10957146e-01 5.10549486e-01 8.52659225e-01 0. 9.99994874e-01 0.
      0. 0. 0. 0. 3.19487182e-03 0. 0. 0. 0. 0. 0. 0. 0. 0. 0. 0. 0. 0.
      0. 0. 0. 0. 0. 0. 0. 0. 0. 0. 0. 0. 0. 0. 0. 0. 0. 0. 0. 0. 0. 0.
      0. 0. 0. 0. 0. 0. 0. 0. 0. 0. 0. 0. 0. 0. 0. 0. 0. 0. 0. 0. 0. 0.
      0. 0. 0. 0. 0. 0. 0. 0. 0. 0. 0. 0. 0. 0. 0. 0. 0. 0. 0. 0. 0. 0.
      0. 0. 0. 0. 0. 0. 0. 0. 0. 0. 0. 0. 0. 0. 0. 0. 0. 0. 0. 0. 0. 0.
      0. 0. 0. 0. 0. 0. 0. 0. 0. 0. 0. 0. 0. 0. 0. 0. 0. 0. 0. 0. 0. 0.
      0. 0. 0. 0. 0. 0. 0. 0. 0. 0. 0. 0. 0. 0. 0. 0. 0. 0. 0. 0. 0. 0.
      0. 0. 0. 0. 0. 0. 0. 0. 0. 0. 0. 0. 0. 0. 0. 0. 0. 0. 0. 0. 0. 0.
      0. 0. 0. 0. 0. 0. 0. 0. 0. 0. 0. 0. 0. 0. 0. 0. 0. 0. 0. 0. 0. 0.
      0. 0. 0. 0. 0. 0. 0. 0. 0. 0. 0. 0. 0. 0. 0. 0. 0. 0. 0.
      3.29959318e-02 0. 3.29959318e-02 0. 0. 0. 4.94938977e-02
      3.29959318e-02 0. 0. 0. 0. 3.29959318e-02 0. 6.59918636e-02
      9.89877954e-02 0. 0. 0. 0. 1.64979659e-02 0. 0. 0. 0. 0.
      1.64979659e-02 1.64979659e-02 4.94938977e-02 1.64979659e-02
      2.30971515e-01 1.31983727e-01 1.64979659e-02 0. 0. 0.
      1.64979659e-02 0. 0. 0. 0. 0. 0. 0. 0. 0. 3.29959318e-02
      1.64979659e-02 4.94938977e-02 0. 0. 0. 0. 0. 3.29959318e-02
      1.64979659e-02 9.89877954e-02 0. 3.29959318e-02 1.64979659e-02
      1.64979666e-01 0. 1.97975591e-01 1.31983727e-01 0. 0. 0. 0. 0. 0.
      0. 0. 0. 0. 0. 0. 0. 0. 0. 0. 0. 0. 0. 0. 0. 0. 0. 0. 0. 0. 0. 0.
      1.64979659e-02 0. 0. 3.29959318e-02 1.64979659e-02 0. 0.
      1.64979659e-02 0. 0. 0. 0. 0. 0. 0. 0. 0. 0. 0. 0. 3.29959318e-02
      0. 1.64979659e-02 0. 0. 0. 0. 0. 1.64979666e-01 0. 0. 0.
      2.47469485e-01 0. 1.48481697e-01 8.24898332e-02 3.29959318e-02 0.
      0. 4.94938977e-02 0. 0. 0. 3.29959318e-02 0. 0. 0. 0. 0. 0. 0.
      3.29959318e-02 0. 0. 0. 0. 0. 0. 0. 0. 0. 0. 0. 0. 0. 0.
      1.64979659e-02 1.64979666e-01 0. 0. 0. 0. 0. 0. 0. 0. 0.
      1.64979659e-02 0. 0. 0. 0. 0. 1.64979659e-02 0. 1.64979659e-02 0.
      0. 1.64979659e-02 0. 0. 0. 0. 0. 0. 1.64979659e-02 0. 0. 0.
      1.31983727e-01 0. 1.64979659e-02 0. 0. 0. 0. 0. 3.29959318e-02
      1.64979659e-02 0. 0. 0. 0. 0. 1.64979659e-02 6.59918636e-02 0. 0.
      0. 0. 0. 0. 0. 0. 1.64979659e-02 0. 0. 0. 0. 0. 0. 3.29959318e-02
      0. 1.64979659e-02 0. 0. 0. 0. 0. 1.64979659e-02 0. 0. 0. 0. 0.
      1.64979659e-02 0. 1.64979659e-02 2.30971515e-01 8.24898332e-02
      3.29959318e-02 1.64979659e-02 1.64979659e-02 0. 0. 4.94938977e-02
      3.29959333e-01 8.24898332e-02 0. 4.94938977e-02 1.64979666e-01
      1.15485758e-01 1.64979666e-01 6.10424757e-01</_>
    <_>
      3.97125185e-01 5.82074881e-01 7.09563553e-01 0. 0. 0. 0. 0. 0. 0.
      0. 0. 0. 0. 0. 0. 0. 0. 0. 0. 0. 0. 0. 0. 0. 0. 0. 0. 0. 0. 0. 0.
      0. 0. 0. 0. 0. 0. 0. 0. 0. 0. 0. 0. 0. 0. 0. 0. 0. 0. 0. 0. 0. 0.
      1.29202437e-02 0. 0. 0. 0. 0. 3.23006092e-03 3.23006092e-03 0. 0.
      0. 0. 0. 0. 0. 0. 0. 0. 0. 0. 0. 0. 0. 0. 0. 0. 0. 0. 0. 0. 0. 0.
      0. 0. 0. 0. 3.23006092e-03 0. 0. 0. 0. 0. 2.90705487e-02
      8.91496837e-01 3.23006092e-03 0. 0. 0. 0. 4.19907957e-01
      1.42122686e-01 0. 0. 0. 0. 0. 0. 0. 0. 0. 0. 0. 0. 0. 0. 0. 0. 0.
      0. 0. 0. 0. 0. 0. 0. 0. 0. 0. 0. 3.23006092e-03 0. 0. 0. 0. 0.
      8.72116461e-02 6.46012183e-03 0. 0. 0. 0. 0. 0. 0. 0. 0. 0. 0. 0.
      0. 0. 0. 0. 0. 0. 0. 0. 0. 0. 0. 0. 0. 0. 0. 0. 0. 0. 0. 0. 0. 0.
      0. 0. 0. 0. 0. 0. 0. 0. 0. 0. 0. 0. 0. 0. 0. 0. 0. 0. 0. 0. 0. 0.
      0. 0. 0. 0. 0. 0. 0. 0. 0. 0. 0. 0. 0. 0. 0. 0. 0. 0. 0. 0. 0. 0.
      1.99476108e-01 1.17338886e-02 0. 2.34677773e-02 4.69355546e-02 0.
      2.34677773e-02 1.17338886e-02 3.52016650e-02 0. 0. 0. 0. 0.
      1.17338886e-02 2.34677773e-02 0. 1.17338886e-02 0. 0. 0. 0. 0. 0.
      1.17338886e-02 0. 0. 0. 2.34677773e-02 0. 0. 2.34677773e-02
      2.34677773e-02 1.17338886e-02 0. 1.17338886e-02 2.34677773e-02 0.
      0. 0. 2.34677773e-02 0. 0. 0. 0. 0. 1.17338886e-02 0. 0.
      1.17338886e-02 0. 0. 0. 0. 1.17338886e-02 0. 1.29072770e-01 0.
      1.17338886e-02 1.17338886e-02 2.34677773e-02 1.17338886e-02 0.
      1.17338886e-02 3.52016650e-02 0. 1.17338886e-02 1.17338886e-02
      1.17338886e-02 1.17338886e-02 0. 0. 0. 0. 0. 0. 2.34677773e-02 0.
      0. 0. 0. 0. 1.17338886e-02 0. 0. 0. 0. 0. 0. 0. 0. 0.
      1.17338886e-02 0. 1.17338886e-02 0. 4.69355546e-02 0. 0. 0.
      1.17338886e-02 0. 0. 0. 4.69355546e-02 0. 0. 0. 0. 0.
      1.17338886e-02 0. 1.17338888e-01 1.17338886e-02 2.34677773e-02 0.
      0. 0. 0. 1.17338886e-02 5.63226640e-01 1.17338886e-02
      1.17338886e-02 3.52016650e-02 1.76008329e-01 1.17338886e-02
      5.86694442e-02 1.17338886e-02 5.86694442e-02 4.69355546e-02
      2.34677773e-02 5.86694442e-02 0. 0. 0. 7.04033300e-02
      1.17338886e-02 0. 0. 1.17338886e-02 0. 0. 0. 2.34677773e-02 0.
      1.17338886e-02 0. 1.17338886e-02 0. 0. 1.17338886e-02
      1.17338886e-02 2.34677773e-02 0. 1.17338886e-02 0. 0. 0.
      1.17338886e-02 0. 1.17338886e-02 1.17338886e-02 0. 1.17338886e-02
      0. 0. 0. 0. 0. 0. 0. 0. 0. 0. 0. 1.17338886e-02 2.34677773e-02 0.
      1.17338886e-02 1.17338886e-02 0. 0. 0. 1.17338886e-02
      1.17338886e-02 0. 0. 2.34677773e-02 0. 0. 1.17338886e-02
      4.69355546e-02 7.04033300e-02 8.21372196e-02 0. 2.93347210e-01 0.
      0. 0. 1.87742218e-01 1.17338886e-02 1.17338886e-02 1.17338886e-02
      1.17338886e-02 0. 0. 0. 5.86694442e-02 1.17338886e-02 0.
      1.17338886e-02 1.17338886e-02 0. 0. 1.17338886e-02 2.34677773e-02
      1.17338886e-02 1.17338886e-02 0. 3.52016650e-02 0. 0. 0.
      3.52016650e-02 3.52016650e-02 1.29072770e-01 0. 2.34677777e-01
      1.17338886e-02 2.34677773e-02 0. 1.29072770e-01 1.17338886e-02
      1.17338886e-02 0. 0. 2.34677773e-02 1.17338886e-02 0.
      1.29072770e-01 1.29072770e-01 1.05604999e-01 1.17338886e-02
      1.29072770e-01 1.17338886e-02 1.17338886e-02 1.17338886e-02
      9.38711092e-02 9.38711092e-02 1.29072770e-01 1.17338886e-02
      1.17338888e-01 9.38711092e-02 4.69355546e-02 7.04033300e-02
      4.22419995e-01</_>
    <_>
      1.58214211e-01 4.70728427e-01 8.67976367e-01 0. 9.99999940e-01 0.
      0. 0. 0. 0. 0. 0. 0. 0. 0. 0. 0. 0. 0. 0. 0. 0. 0. 0. 0. 0. 0. 0.
      0. 0. 0. 0. 0. 0. 0. 0. 0. 0. 0. 0. 0. 0. 0. 0. 0. 0. 0. 0. 0. 0.
      0. 0. 0. 0. 0. 0. 0. 0. 0. 0. 0. 0. 0. 0. 0. 0. 0. 0. 0. 0. 0. 0.
      0. 0. 0. 0. 0. 0. 0. 0. 0. 0. 0. 0. 0. 0. 0. 0. 0. 0. 0. 0. 0. 0.
      0. 0. 0. 0. 0. 0. 0. 0. 0. 0. 0. 0. 0. 0. 0. 0. 0. 0. 0. 0. 0. 0.
      0. 0. 0. 0. 0. 0. 0. 0. 0. 0. 0. 0. 0. 0. 0. 0. 0. 0. 0. 0. 0. 0.
      0. 0. 0. 0. 0. 0. 0. 0. 0. 0. 0. 0. 0. 0. 0. 0. 0. 0. 0. 0. 0. 0.
      0. 0. 0. 0. 0. 0. 0. 0. 0. 0. 0. 0. 0. 0. 0. 0. 0. 0. 0. 0. 0. 0.
      0. 0. 0. 0. 0. 0. 0. 0. 0. 0. 0. 0. 0. 0. 0. 0. 0. 0. 0. 0. 0. 0.
      0. 0. 0. 0. 0. 0. 0. 0. 0. 0. 0. 0. 0. 0. 0. 9.42460075e-02 0. 0.
      1.57076679e-02 3.14153358e-02 0. 3.14153358e-02 4.71230038e-02
      3.14153358e-02 1.57076679e-02 3.14153358e-02 3.14153358e-02
      4.71230038e-02 1.57076679e-02 3.14153358e-02 1.09953672e-01
      1.57076679e-02 0. 1.57076679e-02 0. 0. 0. 0. 1.57076679e-02 0. 0.
      0. 0. 1.57076679e-02 3.14153358e-02 4.71230038e-02 9.42460075e-02
      0. 0. 0. 0. 1.57076679e-02 0. 0. 1.57076679e-02 0. 0. 0. 0.
      1.57076679e-02 0. 1.57076679e-02 7.85383433e-02 0. 1.57076679e-02
      0. 0. 0. 1.57076679e-02 0. 0. 3.14153358e-02 0. 0. 1.57076679e-02
      4.71230038e-02 0. 4.71230038e-02 1.09953672e-01 1.57076679e-02 0.
      1.57076679e-02 0. 0. 0. 3.14153358e-02 0. 0. 0. 0. 0. 0. 0. 0.
      1.57076679e-02 0. 0. 0. 0. 0. 0. 0. 0. 0. 0. 0. 0. 1.57076679e-02
      0. 1.57076679e-02 1.57076679e-02 1.57076679e-02 0. 0. 0.
      1.57076679e-02 0. 1.57076679e-02 0. 0. 0. 0. 0. 0. 0.
      1.57076679e-02 1.57076679e-02 0. 0. 0. 0. 0. 0. 3.14153358e-02 0.
      1.57076679e-02 0. 0. 1.57076679e-02 4.71230038e-02 1.57076679e-02
      4.71230038e-02 6.28306717e-02 4.71230038e-02 3.14153358e-02
      3.14153358e-02 9.42460075e-02 3.14153358e-02 0. 0. 1.72784343e-01
      1.57076679e-02 1.57076679e-02 0. 1.57076679e-02 0. 0. 0.
      1.57076687e-01 0. 0. 0. 1.57076679e-02 0. 0. 0. 0. 0. 0. 0. 0. 0.
      1.57076679e-02 1.57076679e-02 1.09953672e-01 0. 0. 0. 0. 0. 0. 0.
      1.57076679e-02 0. 1.57076679e-02 0. 0. 0. 0. 0. 1.57076679e-02 0.
      0. 0. 1.57076679e-02 0. 0. 0. 1.57076679e-02 0. 0. 0.
      3.14153358e-02 0. 0. 3.14153358e-02 1.09953672e-01 0. 0.
      1.57076679e-02 7.85383433e-02 0. 0. 0. 1.09953672e-01 0. 0. 0. 0.
      1.57076679e-02 0. 0. 1.41369015e-01 0. 0. 0. 1.57076679e-02 0. 0.
      0. 4.71230038e-02 0. 0. 0. 3.14153358e-02 1.57076679e-02 0. 0.
      7.85383433e-02 6.28306717e-02 1.57076679e-02 0. 4.71230038e-02
      1.57076679e-02 0. 0. 7.85383433e-02 1.57076679e-02 0. 0. 0.
      1.57076679e-02 0. 3.14153358e-02 1.25661343e-01 0. 1.57076679e-02
      0. 3.14153358e-02 0. 1.57076679e-02 0. 7.85383433e-02
      3.14153358e-02 3.14153358e-02 3.14153358e-02 0. 1.57076679e-02
      9.42460075e-02 1.57076679e-02 8.48214090e-01</_>
    <_>
      1.51955009e-01 4.90753651e-01 8.57945502e-01 0. 1. 0. 0. 0. 0. 0.
      0. 0. 0. 0. 0. 0. 0. 0. 0. 0. 0. 0. 0. 0. 0. 0. 0. 0. 0. 0. 0. 0.
      0. 0. 0. 0. 0. 0. 0. 0. 0. 0. 0. 0. 0. 0. 0. 0. 0. 0. 0. 0. 0. 0.
      0. 0. 0. 0. 0. 0. 0. 0. 0. 0. 0. 0. 0. 0. 0. 0. 0. 0. 0. 0. 0. 0.
      0. 0. 0. 0. 0. 0. 0. 0. 0. 0. 0. 0. 0. 0. 0. 0. 0. 0. 0. 0. 0. 0.
      0. 0. 0. 0. 0. 0. 0. 0. 0. 0. 0. 0. 0. 0. 0. 0. 0. 0. 0. 0. 0. 0.
      0. 0. 0. 0. 0. 0. 0. 0. 0. 0. 0. 0. 0. 0. 0. 0. 0. 0. 0. 0. 0. 0.
      0. 0. 0. 0. 0. 0. 0. 0. 0. 0. 0. 0. 0. 0. 0. 0. 0. 0. 0. 0. 0. 0.
      0. 0. 0. 0. 0. 0. 0. 0. 0. 0. 0. 0. 0. 0. 0. 0. 0. 0. 0. 0. 0. 0.
      0. 0. 0. 0. 0. 0. 0. 0. 0. 0. 0. 0. 0. 0. 0. 0. 0. 0. 0. 0. 0. 0.
      0. 0. 0. 0. 0. 0. 0. 0. 0. 0. 0. 4.47064601e-02 2.98043061e-02
      4.47064601e-02 4.47064601e-02 0. 0. 7.45107681e-02 1.49021531e-02
      0. 1.49021531e-02 1.49021531e-02 2.98043061e-02 2.98043061e-02 0.
      1.04315072e-01 1.49021536e-01 1.49021531e-02 0. 0. 0. 0. 0. 0. 0.
      0. 1.49021531e-02 0. 0. 1.49021531e-02 0. 0. 1.34119377e-01 0. 0.
      0. 0. 0. 1.49021531e-02 0. 0. 1.49021531e-02 0. 0. 0.
      1.49021531e-02 0. 1.49021531e-02 0. 0. 1.49021531e-02 0. 0. 0. 0.
      0. 0. 0. 0. 0. 0. 1.49021531e-02 0. 4.47064601e-02 1.49021531e-02
      0. 0. 0. 1.49021531e-02 1.49021531e-02 0. 0. 1.49021531e-02 0.
      1.49021531e-02 0. 0. 1.49021531e-02 0. 0. 1.49021531e-02 0. 0. 0.
      0. 0. 0. 0. 1.49021531e-02 0. 0. 0. 0. 0. 0. 0. 0. 1.49021531e-02
      0. 0. 1.49021531e-02 0. 0. 0. 2.98043061e-02 0. 0. 0. 0.
      1.49021531e-02 0. 0. 0. 0. 0. 0. 1.49021531e-02 0. 0. 0.
      2.98043061e-02 1.49021531e-02 0. 0. 0. 1.49021531e-02 0.
      1.49021531e-02 8.94129202e-02 0. 4.47064601e-02 0. 4.47064601e-02
      0. 2.98043061e-02 1.49021531e-02 1.34119377e-01 0. 0.
      1.49021531e-02 1.49021531e-02 0. 1.49021531e-02 1.49021531e-02
      2.23532289e-01 0. 0. 1.49021531e-02 1.49021531e-02 0. 0. 0.
      1.49021531e-02 1.49021531e-02 0. 0. 1.49021531e-02 1.49021531e-02
      0. 0. 1.63923681e-01 0. 1.49021531e-02 1.49021531e-02
      2.98043061e-02 0. 0. 0. 2.98043061e-02 0. 0. 1.49021531e-02 0. 0.
      1.49021531e-02 0. 2.98043061e-02 0. 1.49021531e-02 0.
      1.49021531e-02 0. 0. 0. 0. 1.49021531e-02 0. 0. 1.49021531e-02
      1.49021531e-02 1.49021531e-02 0. 1.19217224e-01 1.49021531e-02 0.
      0. 7.45107681e-02 0. 1.49021531e-02 0. 7.45107681e-02 0. 0. 0. 0.
      0. 1.49021531e-02 0. 1.04315072e-01 0. 0. 1.49021531e-02 0. 0. 0.
      0. 0. 0. 0. 0. 1.49021531e-02 0. 1.49021531e-02 1.49021531e-02
      1.04315072e-01 0. 0. 1.49021531e-02 2.98043061e-02 0.
      1.49021531e-02 1.49021531e-02 1.19217224e-01 0. 0. 0. 0. 0. 0. 0.
      2.53336608e-01 0. 0. 0. 0. 0. 0. 0. 7.45107681e-02 2.98043061e-02
      2.98043061e-02 1.49021531e-02 1.49021531e-02 2.98043061e-02 0.
      2.98043061e-02 8.19618404e-01</_>
    <_>
      8.44041929e-02 4.78620380e-01 8.73955607e-01 7.04130307e-02
      9.97517943e-01 0. 0. 0. 0. 0. 0. 0. 0. 0. 0. 0. 0. 0. 0. 0. 0. 0.
      0. 0. 0. 0. 0. 0. 0. 0. 0. 0. 0. 0. 0. 0. 0. 0. 0. 0. 0. 0. 0. 0.
      0. 0. 0. 0. 0. 0. 0. 0. 0. 0. 0. 0. 0. 0. 0. 0. 0. 0. 0. 0. 0. 0.
      0. 0. 0. 0. 0. 0. 0. 0. 0. 0. 0. 0. 0. 0. 0. 0. 0. 0. 0. 0. 0. 0.
      0. 0. 0. 0. 0. 0. 0. 0. 0. 0. 0. 0. 0. 0. 0. 0. 0. 0. 0. 0. 0. 0.
      0. 0. 0. 0. 0. 0. 0. 0. 0. 0. 0. 0. 0. 0. 0. 0. 0. 0. 0. 0. 0. 0.
      0. 0. 0. 0. 0. 0. 0. 0. 0. 0. 0. 0. 0. 0. 0. 0. 0. 0. 0. 0. 0. 0.
      0. 0. 0. 0. 0. 0. 0. 0. 0. 0. 0. 0. 0. 0. 0. 0. 0. 0. 0. 0. 0. 0.
      0. 0. 0. 0. 0. 0. 0. 0. 0. 0. 0. 0. 0. 0. 0. 0. 0. 0. 0. 0. 0. 0.
      0. 0. 0. 0. 0. 0. 0. 0. 0. 0. 0. 0. 0. 0. 0. 0. 0. 0. 0. 0. 0.
      2.51736678e-02 2.51736678e-02 0. 2.51736678e-02 1.25868339e-02 0.
      0. 3.77605036e-02 1.25868339e-02 3.77605036e-02 0. 1.25868339e-02
      0. 0. 0. 0. 2.51736678e-02 0. 0. 0. 0. 0. 0. 0. 0. 0. 0. 0. 0. 0.
      1.25868339e-02 1.25868339e-02 2.51736678e-02 1.25868339e-02 0. 0.
      0. 0. 0. 0. 0. 0. 0. 1.25868339e-02 1.25868339e-02 0.
      1.25868339e-02 1.25868339e-02 0. 0. 0. 0. 0. 0. 0. 0.
      1.25868339e-02 0. 0. 0. 0. 0. 0. 1.25868339e-02 0. 1.25868339e-02
      1.25868339e-02 0. 0. 0. 1.25868339e-02 0. 0. 0. 0. 0. 0. 0. 0. 0.
      0. 0. 0. 0. 0. 0. 0. 0. 0. 1.25868339e-02 0. 0. 0. 0. 0. 0.
      3.77605036e-02 0. 1.25868339e-02 1.25868339e-02 0. 0. 0. 0.
      1.25868339e-02 0. 0. 0. 0. 0. 0. 0. 0. 0. 0. 0. 0. 0.
      1.25868339e-02 0. 1.25868339e-02 0. 0. 1.25868339e-02 0. 0. 0.
      1.25868339e-02 5.03473356e-02 3.77605036e-02 2.51736678e-02
      1.63628846e-01 0. 0. 0. 3.77605036e-02 0. 0. 0. 0. 1.25868339e-02
      0. 0. 5.03473356e-02 0. 0. 0. 1.25868339e-02 0. 0. 0. 0. 0. 0. 0.
      0. 0. 0. 0. 1.25868339e-02 0. 0. 0. 2.51736678e-02 0. 0. 0. 0. 0.
      0. 0. 0. 0. 0. 0. 0. 0. 2.51736678e-02 0. 1.25868339e-02 0. 0. 0.
      0. 0. 0. 0. 2.51736678e-02 1.25868339e-02 0. 0. 1.25868339e-02
      6.29341677e-02 1.76215678e-01 2.51736678e-02 4.65712845e-01 0.
      1.25868339e-02 0. 1.13281503e-01 0. 0. 0. 2.51736678e-02
      1.25868339e-02 0. 1.25868339e-02 1.00694671e-01 0. 0. 0.
      2.51736678e-02 0. 0. 0. 1.25868339e-02 0. 0. 0. 0. 0. 0. 0.
      5.03473356e-02 6.29341677e-02 2.89497167e-01 1.25868339e-02
      4.02778685e-01 1.25868339e-02 2.51736678e-02 1.25868339e-02
      2.39149839e-01 0. 3.77605036e-02 1.25868339e-02 5.03473356e-02 0.
      1.25868339e-02 0. 2.13976175e-01 2.51736678e-02 3.77605036e-02 0.
      1.25868335e-01 0. 1.25868339e-02 0. 1.00694671e-01 0.
      7.55210072e-02 0. 1.00694671e-01 0. 3.77605036e-02 2.51736678e-02
      5.16060174e-01</_>
    <_>
      3.66164893e-01 5.78426898e-01 7.28934586e-01 0. 0. 0. 0. 0. 0. 0.
      0. 0. 0. 0. 0. 0. 0. 0. 0. 0. 0. 0. 0. 0. 0. 0. 0. 0. 0. 0. 0. 0.
      0. 0. 0. 0. 0. 0. 0. 0. 0. 0. 0. 0. 0. 0. 0. 0. 0. 0. 0. 0. 0. 0.
      0. 0. 0. 0. 0. 0. 0. 5.36311418e-02 0. 0. 0. 0. 0. 0. 0. 0. 0. 0.
      0. 0. 0. 0. 0. 0. 0. 0. 0. 0. 0. 0. 0. 0. 0. 0. 0. 0. 0. 0. 0. 0.
      0. 0. 0. 9.98560786e-01 0. 0. 0. 0. 0. 0. 0. 0. 0. 0. 0. 0. 0. 0.
      0. 0. 0. 0. 0. 0. 0. 0. 0. 0. 0. 0. 0. 0. 0. 0. 0. 0. 0. 0. 0. 0.
      0. 0. 0. 0. 0. 0. 0. 0. 0. 0. 0. 0. 0. 0. 0. 0. 0. 0. 0. 0. 0. 0.
      0. 0. 0. 0. 0. 0. 0. 0. 0. 0. 0. 0. 0. 0. 0. 0. 0. 0. 0. 0. 0. 0.
      0. 0. 0. 0. 0. 0. 0. 0. 0. 0. 0. 0. 0. 0. 0. 0. 0. 0. 0. 0. 0. 0.
      0. 0. 0. 0. 0. 0. 0. 0. 0. 0. 0. 0. 0. 0. 0. 0. 0. 0. 0.
      7.57387727e-02 2.16396488e-02 2.16396488e-02 3.24594751e-02
      4.32792976e-02 0. 1.08198244e-02 4.32792976e-02 3.24594751e-02 0.
      1.08198244e-02 1.08198244e-02 1.08198244e-02 1.08198244e-02
      6.49189502e-02 4.32792976e-02 1.08198244e-02 0. 0. 1.08198244e-02
      0. 0. 2.16396488e-02 0. 4.32792976e-02 0. 0. 0. 1.08198244e-02 0.
      1.08198244e-02 6.49189502e-02 3.24594751e-02 0. 0. 0. 0. 0.
      1.08198244e-02 0. 0. 0. 0. 0. 0. 0. 2.16396488e-02 3.24594751e-02
      0. 0. 1.08198244e-02 0. 0. 0. 0. 0. 3.24594751e-02 0. 0.
      1.08198244e-02 8.65585953e-02 0. 2.16396488e-02 1.08198240e-01
      2.16396488e-02 0. 0. 0. 0. 0. 0. 0. 1.08198244e-02 0. 0. 0. 0. 0.
      1.08198244e-02 0. 0. 0. 0. 0. 0. 0. 0. 0. 0. 0. 0. 0. 0. 0. 0. 0.
      4.32792976e-02 0. 0. 0. 0. 0. 2.16396488e-02 0. 2.16396488e-02 0.
      1.08198244e-02 0. 2.16396488e-02 0. 2.16396488e-02 0.
      1.08198244e-02 0. 0. 0. 0. 0. 1.08198244e-02 0. 2.16396488e-02
      2.16396488e-02 0. 1.08198244e-02 4.32792976e-02 0. 7.57387727e-02
      9.73784178e-02 3.24594751e-02 2.16396488e-02 2.16396488e-02
      3.24594751e-02 1.08198244e-02 0. 1.08198244e-02 5.40991202e-02
      1.08198244e-02 2.16396488e-02 1.08198244e-02 1.08198244e-02
      1.08198244e-02 1.08198244e-02 0. 6.49189502e-02 1.08198244e-02 0.
      0. 0. 0. 0. 0. 2.16396488e-02 0. 0. 0. 0. 0. 0. 2.16396488e-02
      1.08198240e-01 2.16396488e-02 0. 0. 1.08198244e-02 0. 0. 0. 0. 0.
      2.16396488e-02 0. 0. 0. 0. 0. 1.08198244e-02 0. 0. 1.08198244e-02
      0. 0. 0. 0. 1.08198244e-02 1.08198244e-02 1.08198244e-02 0.
      1.08198244e-02 2.16396488e-02 0. 1.08198244e-02 1.40657723e-01 0.
      0. 0. 3.24594751e-02 1.08198244e-02 0. 1.08198244e-02
      9.73784178e-02 2.16396488e-02 1.08198244e-02 0. 0. 1.08198244e-02
      0. 1.08198244e-02 1.29837900e-01 0. 0. 0. 1.08198244e-02 0. 0. 0.
      0. 0. 0. 0. 0. 0. 0. 0. 4.32792976e-02 2.16396488e-02
      1.08198244e-02 1.08198244e-02 7.57387727e-02 1.08198244e-02 0.
      1.08198244e-02 8.65585953e-02 1.08198244e-02 0. 0. 0. 0. 0. 0.
      8.65585953e-02 2.16396488e-02 4.32792976e-02 1.08198244e-02
      7.57387727e-02 0. 0. 0. 4.32792976e-02 7.57387727e-02
      6.49189502e-02 1.08198244e-02 7.57387727e-02 9.73784178e-02
      6.49189502e-02 4.32792976e-02 8.87225628e-01</_>
    <_>
      3.80152583e-01 5.76588035e-01 7.23208308e-01 0. 0. 0. 0. 0. 0. 0.
      0. 0. 0. 0. 0. 0. 0. 0. 0. 0. 0. 0. 0. 0. 0. 0. 0. 0. 0. 0. 0. 0.
      0. 0. 0. 0. 0. 0. 0. 0. 0. 0. 0. 0. 0. 0. 0. 0. 0. 0. 0. 0. 0. 0.
      0. 0. 0. 0. 0. 0. 0. 0. 0. 0. 0. 0. 0. 0. 0. 0. 0. 0. 0. 0. 0. 0.
      0. 0. 0. 0. 0. 0. 0. 0. 0. 0. 0. 0. 0. 0. 0. 0. 0. 0. 0. 0. 0. 1.
      0. 0. 0. 0. 0. 0. 0. 0. 0. 0. 0. 0. 0. 0. 0. 0. 0. 0. 0. 0. 0. 0.
      0. 0. 0. 0. 0. 0. 0. 0. 0. 0. 0. 0. 0. 0. 0. 0. 0. 0. 0. 0. 0. 0.
      0. 0. 0. 0. 0. 0. 0. 0. 0. 0. 0. 0. 0. 0. 0. 0. 0. 0. 0. 0. 0. 0.
      0. 0. 0. 0. 0. 0. 0. 0. 0. 0. 0. 0. 0. 0. 0. 0. 0. 0. 0. 0. 0. 0.
      0. 0. 0. 0. 0. 0. 0. 0. 0. 0. 0. 0. 0. 0. 0. 0. 0. 0. 0. 0. 0. 0.
      0. 0. 0. 0. 0. 0. 0. 0. 0. 0. 0. 7.76041001e-02 1.94010250e-02
      3.88020501e-02 3.88020501e-02 0. 1.94010250e-02 9.70051251e-03
      9.70051251e-03 1.94010250e-02 9.70051251e-03 0. 9.70051251e-03
      9.70051251e-03 0. 1.94010250e-02 2.91015375e-02 9.70051251e-03
      9.70051251e-03 0. 0. 0. 0. 0. 0. 9.70051251e-03 0. 0. 0. 0. 0.
      1.94010250e-02 4.85025644e-02 9.70051251e-03 1.94010250e-02 0. 0.
      9.70051251e-03 0. 9.70051251e-03 0. 9.70051251e-03 0. 0. 0. 0.
      9.70051251e-03 9.70051251e-03 1.94010250e-02 9.70051251e-03 0. 0.
      0. 0. 0. 0. 0. 1.94010250e-02 0. 0. 9.70051251e-03 9.70051251e-03
      0. 9.70051251e-03 2.91015375e-02 2.91015375e-02 9.70051251e-03 0.
      0. 9.70051251e-03 0. 0. 9.70051251e-03 1.94010250e-02 0. 0. 0. 0.
      0. 9.70051251e-03 9.70051251e-03 0. 0. 0. 0. 9.70051251e-03 0. 0.
      0. 0. 0. 0. 9.70051251e-03 0. 0. 0. 9.70051251e-03 0. 0. 0. 0.
      1.94010250e-02 0. 1.94010250e-02 0. 0. 0. 0. 0. 9.70051251e-03 0.
      9.70051251e-03 0. 0. 0. 0. 9.70051251e-03 0. 0. 0. 0. 0.
      1.94010250e-02 0. 1.94010250e-02 9.70051251e-03 0. 9.70051251e-03
      2.91015375e-02 2.91015375e-02 1.94010250e-02 0. 5.82030751e-02
      1.94010250e-02 0. 0. 1.94010250e-02 9.70051251e-03 0. 0. 0. 0. 0.
      0. 5.82030751e-02 1.94010250e-02 0. 0. 1.94010250e-02 0.
      9.70051251e-03 0. 0. 0. 0. 0. 0. 9.70051251e-03 0. 9.70051251e-03
      7.76041001e-02 0. 0. 0. 9.70051251e-03 0. 9.70051251e-03 0.
      9.70051251e-03 0. 0. 0. 0. 0. 0. 0. 0. 0. 0. 9.70051251e-03
      9.70051251e-03 0. 0. 0. 1.94010250e-02 1.94010250e-02 0. 0.
      2.91015375e-02 0. 9.70051251e-03 0. 6.79035857e-02 9.70051251e-03
      9.70051251e-03 9.70051251e-03 4.85025644e-02 0. 0. 2.91015375e-02
      3.88020501e-02 0. 0. 0. 1.94010250e-02 9.70051251e-03 0.
      9.70051251e-03 1.45507693e-01 0. 0. 0. 0. 0. 0. 0. 1.94010250e-02
      9.70051251e-03 0. 0. 9.70051251e-03 0. 0. 0. 3.88020501e-02
      2.91015375e-02 2.91015375e-02 0. 1.94010250e-02 1.94010250e-02
      9.70051251e-03 0. 1.06705636e-01 9.70051251e-03 0. 0. 0.
      9.70051251e-03 9.70051251e-03 0. 1.35807171e-01 0. 6.79035857e-02
      9.70051251e-03 3.88020501e-02 9.70051251e-03 0. 0. 6.79035857e-02
      9.70051251e-03 5.82030751e-02 9.70051251e-03 7.76041001e-02
      2.91015375e-02 4.85025644e-02 4.85025644e-02 9.31249201e-01</_>
    <_>
      4.94424820e-01 5.68143964e-01 6.57842338e-01 0. 0. 0. 0. 0. 0. 0.
      0. 0. 0. 0. 0. 0. 0. 0. 0. 0. 0. 0. 0. 0. 0. 0. 0. 0. 0. 0. 0. 0.
      0. 0. 0. 0. 0. 0. 0. 0. 0. 0. 0. 0. 0. 0. 0. 0. 0. 0. 0. 0. 0. 0.
      0. 0. 0. 0. 0. 0. 0. 0. 0. 0. 0. 0. 0. 0. 0. 0. 0. 0. 0. 0. 0. 0.
      0. 0. 0. 0. 0. 0. 0. 0. 0. 0. 0. 0. 0. 0. 0. 0. 0. 0. 0. 0. 0.
      1.02558713e-02 0. 0. 0. 0. 0. 0. 0. 0. 0. 0. 0. 0. 0. 0. 0. 0. 0.
      0. 0. 0. 0. 0. 0. 0. 0. 0. 0. 0. 0. 0. 0. 0. 0. 0. 0.
      9.99947429e-01 0. 0. 0. 0. 0. 0. 0. 0. 0. 0. 0. 0. 0. 0. 0. 0. 0.
      0. 0. 0. 0. 0. 0. 0. 0. 0. 0. 0. 0. 0. 0. 0. 0. 0. 0. 0. 0. 0. 0.
      0. 0. 0. 0. 0. 0. 0. 0. 0. 0. 0. 0. 0. 0. 0. 0. 0. 0. 0. 0. 0. 0.
      0. 0. 0. 0. 0. 0. 0. 0. 0. 0. 0. 0. 0. 0. 0. 0. 0. 0. 0. 0. 0. 0.
      0. 0. 6.58922270e-02 3.95353362e-02 3.95353362e-02 0. 0. 0.
      1.31784454e-02 1.31784454e-02 3.95353362e-02 0. 0. 0.
      2.63568908e-02 1.31784454e-02 0. 3.95353362e-02 1.31784454e-02 0.
      0. 0. 0. 0. 0. 1.31784454e-02 1.31784454e-02 0. 0. 1.31784454e-02
      0. 0. 1.31784454e-02 3.95353362e-02 2.63568908e-02 2.63568908e-02
      0. 0. 0. 0. 1.31784454e-02 0. 1.31784454e-02 0. 0. 0. 0. 0.
      1.31784454e-02 1.31784454e-02 2.63568908e-02 1.31784454e-02 0. 0.
      0. 0. 0. 0. 1.31784454e-02 0. 0. 0. 1.31784454e-02 0.
      1.31784454e-02 3.95353362e-02 0. 0. 1.31784454e-02 0. 0. 0. 0. 0.
      0. 0. 0. 0. 1.31784454e-02 0. 0. 0. 0. 0. 0. 0. 0. 0. 0. 0. 0. 0.
      0. 0. 0. 0. 1.31784454e-02 0. 0. 1.31784454e-02 0. 0.
      1.31784454e-02 0. 0. 1.31784454e-02 3.95353362e-02 0. 0. 0.
      1.31784454e-02 0. 1.31784454e-02 0. 1.31784454e-02 0.
      1.31784454e-02 0. 0. 0. 1.31784454e-02 0. 1.31784454e-02 0.
      1.31784454e-02 3.95353362e-02 3.95353362e-02 0. 3.95353362e-02
      1.05427563e-01 2.63568908e-02 7.90706724e-02 2.63568908e-02
      7.90706724e-02 0. 0. 3.95353362e-02 6.58922270e-02 0.
      1.31784454e-02 0. 3.95353362e-02 2.63568908e-02 1.31784454e-02
      2.63568908e-02 6.58922270e-02 0. 0. 0. 2.63568908e-02 0. 0. 0. 0.
      0. 0. 0. 0. 1.31784454e-02 0. 1.31784454e-02 6.58922270e-02 0.
      2.63568908e-02 0. 1.31784454e-02 0. 0. 0. 0. 0. 0. 0. 0. 0. 0.
      1.31784454e-02 2.63568908e-02 0. 3.95353362e-02 0. 2.63568908e-02
      0. 0. 0. 3.95353362e-02 1.31784454e-02 1.31784454e-02 0.
      2.63568908e-02 0. 0. 1.31784454e-02 5.27137816e-02 9.22491178e-02
      7.90706724e-02 1.31784454e-02 1.18606009e-01 0. 0. 1.31784454e-02
      3.95353362e-02 0. 1.31784454e-02 0. 0. 1.31784454e-02 0. 0.
      1.71319783e-01 0. 1.31784454e-02 0. 0. 0. 0. 0. 0. 0. 0. 0.
      1.31784454e-02 0. 1.31784454e-02 0. 7.90706724e-02 5.27137816e-02
      1.18606009e-01 1.31784454e-02 3.03104252e-01 0. 0. 1.31784454e-02
      2.10855126e-01 0. 1.31784454e-02 0. 3.95353362e-02 0. 0. 0.
      1.05427563e-01 3.95353362e-02 1.84498236e-01 0. 1.44962907e-01
      1.31784454e-02 2.63568908e-02 0. 6.58922270e-02 3.95353362e-02
      3.95353362e-02 0. 1.31784454e-01 3.95353362e-02 9.22491178e-02
      9.22491178e-02 7.64349818e-01</_>
    <_>
      2.99996912e-01 5.52081704e-01 7.77950943e-01 0. 2.79278290e-02 0.
      0. 0. 0. 0. 1.67566985e-01 8.00597787e-01 0. 0. 0. 0. 0.
      2.32731905e-02 0. 0. 0. 0. 0. 0. 0. 0. 0. 0. 0. 0. 0. 0. 0. 0. 0.
      0. 0. 0. 0. 0. 0. 0. 0. 0. 0. 0. 9.30927601e-03 3.30479324e-01 0.
      0. 0. 0. 0. 4.04953539e-01 2.37386540e-01 0. 0. 0. 0. 0. 0. 0. 0.
      0. 0. 0. 0. 0. 0. 0. 0. 0. 0. 0. 0. 0. 0. 0. 0. 0. 0. 0. 0. 0. 0.
      0. 0. 0. 0. 0. 0. 0. 0. 0. 0. 0. 0. 0. 0. 0. 0. 0. 0. 0. 0. 0. 0.
      0. 0. 0. 0. 0. 0. 0. 0. 0. 0. 0. 0. 0. 0. 0. 0. 0. 0. 0. 0. 0. 0.
      0. 0. 0. 0. 0. 0. 0. 0. 0. 0. 0. 0. 0. 0. 0. 0. 0. 0. 0. 0. 0. 0.
      0. 0. 0. 0. 0. 0. 0. 0. 0. 0. 0. 0. 0. 0. 0. 0. 0. 0. 0. 0. 0. 0.
      0. 0. 0. 0. 0. 0. 0. 0. 0. 0. 0. 0. 0. 0. 0. 0. 0. 0. 0. 0. 0. 0.
      0. 0. 0. 0. 0. 0. 0. 0. 0. 0. 0. 0. 0. 0. 0. 0. 0. 0. 0. 0. 0. 0.
      0. 0. 5.68276979e-02 0. 0. 1.42069245e-02 0. 0. 0. 0. 0.
      7.10346224e-03 0. 7.10346224e-03 1.42069245e-02 0. 2.13103872e-02
      2.84138490e-02 0. 0. 0. 0. 0. 0. 7.10346224e-03 7.10346224e-03 0.
      0. 0. 0. 2.13103872e-02 0. 2.91241944e-01 4.26207744e-02
      1.42069245e-02 0. 7.10346224e-03 1.42069245e-02 0. 0. 0. 0. 0. 0.
      0. 0. 0. 0. 0. 0. 1.42069245e-02 0. 0. 0. 0. 0. 0. 0. 0. 0. 0. 0.
      4.26207744e-02 0. 9.94484723e-02 0. 7.10346224e-03 7.10346224e-03
      0. 1.42069245e-02 0. 0. 0. 0. 0. 0. 0. 0. 0. 0. 0. 0. 0. 0. 0. 0.
      0. 0. 0. 0. 0. 0. 0. 0. 0. 0. 0. 0. 7.10346224e-03 7.10346224e-03
      7.10346224e-03 7.10346224e-03 0. 0. 0. 0. 7.10346224e-03 0. 0. 0.
      0. 0. 0. 0. 0. 7.10346224e-03 0. 0. 0. 0. 0. 0. 0. 0. 0. 0. 0. 0.
      7.10346224e-03 2.13103872e-02 7.10346224e-03 2.13103872e-02 0.
      7.10346224e-03 0. 0. 0. 0. 0. 0. 0. 0. 0. 0. 0. 7.10346224e-03 0.
      0. 0. 0. 7.10346224e-03 0. 0. 0. 0. 0. 0. 7.10346224e-03 0. 0. 0.
      3.55173126e-02 0. 0. 0. 7.10346224e-03 0. 0. 0. 0. 0. 0. 0. 0. 0.
      0. 0. 1.42069245e-02 0. 0. 0. 0. 0. 0. 0. 0. 0. 1.42069245e-02 0.
      7.10346224e-03 0. 0. 0. 2.13103872e-02 1.42069245e-02
      1.63379624e-01 7.10346224e-03 7.67173946e-01 7.10346224e-03 0. 0.
      0. 0. 0. 0. 7.10346224e-03 0. 7.10346224e-03 7.10346224e-03
      3.55173126e-02 0. 0. 0. 7.10346224e-03 0. 0. 0. 7.10346224e-03 0.
      0. 0. 0. 7.10346224e-03 0. 0. 2.13103872e-02 4.26207744e-02
      3.05448890e-01 0. 4.04897362e-01 0. 7.10346224e-03 0.
      2.84138490e-02 0. 0. 0. 1.42069245e-02 0. 0. 0. 2.84138490e-02 0.
      2.13103872e-02 0. 1.42069245e-02 0. 0. 0. 2.13103872e-02 0. 0. 0.
      0. 7.10346224e-03 1.42069245e-02 1.42069245e-02 1.06551930e-01</_>
    <_>
      2.24182561e-01 5.24627566e-01 8.21284413e-01 0. 1.02495393e-02 0.
      0. 0. 0. 0. 6.18388891e-01 7.85798013e-01 0. 0. 0. 0. 0. 0. 0. 0.
      0. 0. 0. 0. 0. 0. 0. 0. 0. 0. 0. 0. 0. 0. 0. 0. 0. 0. 0. 0. 0. 0.
      0. 0. 0. 0. 0. 3.41651309e-03 0. 0. 0. 0. 0. 0. 0. 0. 0. 0. 0. 0.
      0. 0. 0. 0. 0. 0. 0. 0. 0. 0. 0. 0. 0. 0. 0. 0. 0. 0. 0. 0. 0. 0.
      0. 0. 0. 0. 0. 0. 0. 0. 0. 0. 0. 0. 0. 0. 0. 0. 0. 0. 0. 0. 0. 0.
      0. 0. 0. 0. 0. 0. 0. 0. 0. 0. 0. 0. 0. 0. 0. 0. 0. 0. 0. 0. 0. 0.
      0. 0. 0. 0. 0. 0. 0. 0. 0. 0. 0. 0. 0. 0. 0. 0. 0. 0. 0. 0. 0. 0.
      0. 0. 0. 0. 0. 0. 0. 0. 0. 0. 0. 0. 0. 0. 0. 0. 0. 0. 0. 0. 0. 0.
      0. 0. 0. 0. 0. 0. 0. 0. 0. 0. 0. 0. 0. 0. 0. 0. 0. 0. 0. 0. 0. 0.
      0. 0. 0. 0. 0. 0. 0. 0. 0. 0. 0. 0. 0. 0. 0. 0. 0. 0. 0. 0. 0. 0.
      0. 0. 0. 0. 0. 1.12260384e-02 1.12260384e-02 2.24520769e-02
      3.36781144e-02 0. 0. 1.12260384e-02 0. 1.12260384e-02 0. 0. 0.
      2.24520769e-02 0. 2.24520769e-02 1.90842658e-01 0. 0.
      1.12260384e-02 0. 0. 0. 0. 0. 0. 0. 1.12260384e-02 0.
      4.49041538e-02 0. 6.73562288e-02 1.45938501e-01 0. 2.24520769e-02
      0. 0. 1.12260384e-02 0. 0. 0. 0. 0. 0. 0. 0. 0. 1.12260384e-02
      1.12260384e-02 1.12260384e-02 0. 0. 0. 0. 0. 0. 0. 3.36781144e-02
      0. 0. 0. 1.12260386e-01 1.12260384e-02 2.24520769e-02
      5.61301932e-02 1.12260384e-02 0. 0. 0. 1.12260384e-02 0.
      1.12260384e-02 0. 0. 0. 0. 0. 0. 0. 0. 0. 0. 0. 0. 0. 0. 0. 0. 0.
      0. 0. 0. 0. 0. 0. 0. 1.12260384e-02 2.24520769e-02 1.12260384e-02
      0. 0. 0. 0. 0. 0. 0. 0. 0. 0. 0. 0. 0. 0. 1.12260384e-02 0. 0.
      1.12260384e-02 0. 0. 0. 0. 3.36781144e-02 1.12260384e-02 0.
      1.12260384e-02 1.12260384e-02 0. 2.24520769e-02 1.12260384e-02
      1.12260384e-02 3.36781144e-02 0. 6.73562288e-02 1.12260384e-02 0.
      0. 8.98083076e-02 0. 0. 0. 0. 0. 0. 0. 1.01034343e-01 0. 0. 0. 0.
      0. 0. 0. 1.12260384e-02 0. 0. 0. 0. 0. 0. 1.12260384e-02
      4.49041538e-02 0. 2.24520769e-02 0. 0. 0. 0. 0. 0. 0. 0. 0. 0. 0.
      0. 0. 0. 0. 1.12260384e-02 0. 0. 0. 1.12260384e-02 0. 0. 0. 0. 0.
      2.24520769e-02 0. 1.12260384e-02 0. 3.36781144e-02 4.49041538e-02
      8.98083076e-02 1.12260384e-02 1.57164544e-01 0. 0. 0.
      1.34712458e-01 0. 1.12260384e-02 0. 0. 0. 0. 0. 1.34712458e-01
      1.12260384e-02 0. 0. 1.12260384e-02 0. 0. 0. 0. 0. 0. 0.
      3.36781144e-02 0. 0. 0. 1.12260384e-02 7.85822719e-02
      5.16397774e-01 0. 5.83754003e-01 0. 0. 0. 7.85822719e-02
      1.12260384e-02 1.12260384e-02 0. 0. 1.12260384e-02 0. 0.
      8.98083076e-02 3.36781144e-02 2.24520773e-01 0. 1.12260386e-01 0.
      0. 0. 4.49041538e-02 6.73562288e-02 7.85822719e-02 0.
      1.01034343e-01 1.12260384e-02 3.36781144e-02 0. 3.03103030e-01</_>
    <_>
      8.97411257e-02 4.85155642e-01 8.69810641e-01 2.55101197e-03
      9.99996722e-01 0. 0. 0. 0. 0. 0. 0. 0. 0. 0. 0. 0. 0. 0. 0. 0. 0.
      0. 0. 0. 0. 0. 0. 0. 0. 0. 0. 0. 0. 0. 0. 0. 0. 0. 0. 0. 0. 0. 0.
      0. 0. 0. 0. 0. 0. 0. 0. 0. 0. 0. 0. 0. 0. 0. 0. 0. 0. 0. 0. 0. 0.
      0. 0. 0. 0. 0. 0. 0. 0. 0. 0. 0. 0. 0. 0. 0. 0. 0. 0. 0. 0. 0. 0.
      0. 0. 0. 0. 0. 0. 0. 0. 0. 0. 0. 0. 0. 0. 0. 0. 0. 0. 0. 0. 0. 0.
      0. 0. 0. 0. 0. 0. 0. 0. 0. 0. 0. 0. 0. 0. 0. 0. 0. 0. 0. 0. 0. 0.
      0. 0. 0. 0. 0. 0. 0. 0. 0. 0. 0. 0. 0. 0. 0. 0. 0. 0. 0. 0. 0. 0.
      0. 0. 0. 0. 0. 0. 0. 0. 0. 0. 0. 0. 0. 0. 0. 0. 0. 0. 0. 0. 0. 0.
      0. 0. 0. 0. 0. 0. 0. 0. 0. 0. 0. 0. 0. 0. 0. 0. 0. 0. 0. 0. 0. 0.
      0. 0. 0. 0. 0. 0. 0. 0. 0. 0. 0. 0. 0. 0. 0. 0. 0. 0. 0. 0. 0.
      1.33073358e-02 0. 2.66146716e-02 0. 0. 1.33073358e-02
      1.33073358e-02 0. 2.66146716e-02 0. 0. 0. 3.99220064e-02 0.
      7.98440129e-02 0. 1.33073358e-02 2.66146716e-02 1.33073358e-02 0.
      1.33073358e-02 0. 3.99220064e-02 0. 6.65366799e-02 0. 0. 0.
      1.06458686e-01 3.99220064e-02 2.12917373e-01 5.32293431e-02
      3.99220064e-02 1.33073358e-02 0. 0. 0. 1.33073358e-02 0. 0. 0. 0.
      0. 0. 3.99220064e-02 0. 2.66146716e-02 0. 0. 0. 0. 0. 0. 0. 0. 0.
      1.59688026e-01 0. 0. 3.99220064e-02 1.86302707e-01 1.33073358e-02
      2.39532039e-01 1.06458686e-01 0. 0. 0. 0. 0. 0. 0. 0. 0. 0. 0. 0.
      0. 0. 1.33073358e-02 1.33073358e-02 0. 0. 0. 0. 0. 0. 0.
      1.33073358e-02 0. 0. 0. 1.33073358e-02 0. 0. 2.66146716e-02
      1.33073358e-02 1.33073358e-02 1.33073358e-02 2.66146716e-02 0. 0.
      0. 1.33073358e-02 0. 0. 0. 0. 0. 1.33073358e-02 0. 1.33073358e-02
      0. 6.65366799e-02 0. 0. 0. 0. 0. 2.66146716e-02 0. 1.19766019e-01
      0. 0. 1.33073358e-02 1.99610040e-01 1.33073358e-02 1.06458686e-01
      7.98440129e-02 1.33073358e-02 0. 0. 1.33073358e-02 0. 0. 0. 0. 0.
      0. 0. 0. 0. 0. 0. 0. 0. 0. 0. 3.99220064e-02 0. 0. 0. 0. 0. 0. 0.
      1.33073358e-02 1.33073358e-02 0. 1.33073358e-02 3.99220064e-02 0.
      0. 0. 0. 0. 0. 0. 0. 0. 0. 0. 0. 0. 1.33073358e-02 0. 0.
      2.66146716e-02 1.33073358e-02 2.66146716e-02 0. 1.33073358e-02 0.
      0. 0. 1.33073358e-02 0. 0. 0. 0. 1.33073358e-02 5.32293431e-02
      9.31513533e-02 1.33073358e-02 0. 2.66146716e-02 1.33073358e-02 0.
      0. 0. 0. 0. 0. 0. 0. 0. 0. 1.33073358e-02 1.33073358e-02
      1.33073358e-02 0. 0. 0. 0. 0. 0. 0. 2.66146716e-02 1.33073358e-02
      0. 3.99220064e-02 0. 0. 2.66146716e-02 2.66146716e-02
      9.31513533e-02 1.33073358e-02 0. 1.33073358e-02 0. 1.33073358e-02
      3.99220064e-02 1.33073358e-02 2.66146716e-02 0. 1.33073358e-02 0.
      0. 0. 0. 2.66146716e-02 1.33073360e-01 6.65366799e-02
      1.33073358e-02 7.98440129e-02 0. 2.66146716e-02 0. 3.99220064e-02
      2.26224706e-01 1.59688026e-01 1.33073358e-02 3.99220064e-02
      1.46380693e-01 3.99220064e-02 1.46380693e-01 7.18596160e-01</_>
    <_>
      2.94292212e-01 5.47651231e-01 7.83243418e-01 0. 0. 0. 0. 0. 0. 0.
      1.69407547e-01 8.89389575e-01 0. 0. 0. 0. 0. 3.85017134e-03 0. 0.
      0. 0. 0. 0. 0. 0. 0. 0. 0. 0. 0. 0. 0. 0. 0. 0. 0. 0. 0. 0. 0. 0.
      0. 0. 0. 0. 0. 3.50365609e-01 0. 0. 0. 0. 0. 1.61707208e-01
      1.77107885e-01 0. 0. 0. 0. 0. 0. 0. 0. 0. 0. 0. 0. 0. 0. 0. 0. 0.
      0. 0. 0. 0. 0. 0. 0. 0. 0. 0. 0. 0. 0. 0. 0. 0. 0. 0. 0. 0. 0. 0.
      0. 0. 0. 0. 0. 0. 0. 0. 0. 0. 0. 0. 0. 0. 0. 0. 0. 0. 0. 0. 0. 0.
      0. 0. 0. 0. 0. 0. 0. 0. 0. 0. 0. 0. 0. 0. 0. 0. 0. 0. 0. 0. 0. 0.
      0. 0. 0. 0. 0. 0. 0. 0. 0. 0. 0. 0. 0. 0. 0. 0. 0. 0. 0. 0. 0. 0.
      0. 0. 0. 0. 0. 0. 0. 0. 0. 0. 0. 0. 0. 0. 0. 0. 0. 0. 0. 0. 0. 0.
      0. 0. 0. 0. 0. 0. 0. 0. 0. 0. 0. 0. 0. 0. 0. 0. 0. 0. 0. 0. 0. 0.
      0. 0. 0. 0. 0. 0. 0. 0. 0. 0. 0. 0. 0. 0. 0. 1.91378072e-02
      6.37926906e-03 6.37926906e-03 1.27585381e-02 0. 0. 6.37926906e-03
      0. 0. 0. 0. 0. 0. 0. 1.27585381e-02 6.37926906e-03 0. 0. 0. 0. 0.
      0. 0. 0. 0. 0. 0. 0. 3.18963453e-02 0. 1.02068305e-01 0. 0. 0. 0.
      6.37926906e-03 0. 0. 0. 0. 0. 0. 0. 0. 0. 0. 0. 0. 0.
      6.37926906e-03 0. 6.37926906e-03 0. 0. 0. 0. 0. 6.37926906e-03 0.
      0. 2.55170763e-02 0. 5.10341525e-02 1.27585381e-02 6.37926906e-03
      0. 0. 6.37926906e-03 0. 0. 0. 0. 0. 0. 0. 0. 0. 0. 0. 0. 0. 0. 0.
      0. 0. 0. 0. 0. 0. 0. 0. 0. 0. 0. 0. 0. 6.37926906e-03
      6.37926906e-03 0. 0. 0. 0. 0. 0. 0. 0. 6.37926906e-03 0. 0. 0. 0.
      0. 0. 0. 0. 0. 0. 0. 0. 0. 6.37926906e-03 0. 0. 0. 0. 0.
      6.37926906e-03 0. 0. 3.18963453e-02 0. 7.01719597e-02 0. 0. 0.
      1.27585381e-02 0. 0. 0. 0. 0. 0. 0. 0. 0. 0. 0. 6.37926906e-03 0.
      0. 0. 0. 0. 0. 0. 6.37926906e-03 0. 6.37926906e-03 0. 0. 0.
      6.37926906e-03 6.37926906e-03 1.91378072e-02 0. 0. 0. 0. 0. 0. 0.
      0. 0. 0. 0. 0. 0. 0. 0. 0. 0. 0. 0. 0. 0. 0. 0. 0. 0. 0. 0.
      6.37926906e-03 0. 1.08447574e-01 1.27585381e-02 5.74134231e-01 0.
      0. 0. 9.56890360e-02 0. 0. 0. 1.91378072e-02 0. 0. 0.
      1.91378072e-02 0. 0. 0. 6.37926906e-03 0. 0. 0. 0. 0. 0. 0. 0. 0.
      6.37926906e-03 0. 1.91378072e-02 3.82756144e-02 4.78445172e-01 0.
      6.12409830e-01 0. 6.37926906e-03 0. 9.56890360e-02 0. 0. 0. 0. 0.
      0. 0. 3.82756144e-02 0. 3.18963453e-02 0. 5.10341525e-02 0. 0. 0.
      3.18963453e-02 0. 1.91378072e-02 0. 2.55170763e-02 6.37926906e-03
      1.27585381e-02 0. 5.74134216e-02</_>
    <_>
      3.96073997e-01 5.76599896e-01 7.14603364e-01 0. 0. 0. 0. 0. 0. 0.
      0. 0. 0. 0. 0. 0. 0. 0. 0. 0. 0. 0. 0. 0. 0. 0. 0. 0. 0. 0. 0. 0.
      0. 0. 0. 0. 0. 0. 0. 0. 0. 0. 0. 0. 0. 0. 0. 0. 0. 0. 0. 0. 0. 0.
      2.61678100e-01 0. 0. 0. 0. 0. 3.08925509e-01 2.18065064e-02 0. 0.
      0. 0. 0. 0. 0. 0. 0. 0. 0. 0. 0. 0. 0. 0. 0. 0. 0. 0. 0. 0. 0. 0.
      0. 0. 0. 0. 3.77979457e-01 0. 0. 0. 0. 0. 8.32281649e-01
      7.26883579e-03 0. 0. 0. 0. 0. 0. 0. 0. 0. 0. 0. 0. 0. 0. 0. 0. 0.
      0. 0. 0. 0. 0. 0. 0. 0. 0. 0. 0. 0. 0. 0. 0. 0. 0. 0. 0. 0. 0. 0.
      0. 0. 0. 0. 0. 0. 0. 0. 0. 0. 0. 0. 0. 0. 0. 0. 0. 0. 0. 0. 0. 0.
      0. 0. 0. 0. 0. 0. 0. 0. 0. 0. 0. 0. 0. 0. 0. 0. 0. 0. 0. 0. 0. 0.
      0. 0. 0. 0. 0. 0. 0. 0. 0. 0. 0. 0. 0. 0. 0. 0. 0. 0. 0. 0. 0. 0.
      0. 0. 0. 0. 0. 0. 0. 0. 0. 0. 0. 0. 0. 0. 0. 0. 1.06819078e-01
      1.06819076e-02 0. 3.20457220e-02 1.06819076e-02 0. 2.13638153e-02
      7.47733563e-02 1.06819076e-02 1.06819076e-02 1.06819076e-02 0.
      1.06819076e-02 0. 4.27276306e-02 2.35001966e-01 0. 0. 0.
      1.06819076e-02 0. 0. 0. 0. 0. 0. 0. 0. 0. 0. 1.06819076e-02
      4.27276306e-02 2.13638153e-02 0. 1.06819076e-02 0. 1.06819076e-02
      0. 0. 2.13638153e-02 0. 0. 0. 0. 0. 1.06819076e-02 0.
      1.06819076e-02 3.20457220e-02 0. 0. 0. 0. 0. 0. 0. 5.34095392e-02
      0. 0. 0. 3.20457220e-02 0. 7.47733563e-02 6.40914440e-02
      4.27276306e-02 0. 1.06819076e-02 0. 0. 0. 0. 0. 0. 0. 0. 0.
      1.06819076e-02 0. 0. 0. 1.06819076e-02 0. 1.06819076e-02 0. 0. 0.
      1.06819076e-02 0. 0. 0. 0. 0. 0. 0. 0. 0. 5.34095392e-02 0. 0. 0.
      0. 0. 0. 0. 1.06819076e-02 0. 0. 0. 1.06819076e-02 0.
      1.06819076e-02 1.06819076e-02 5.34095392e-02 1.06819076e-02
      2.13638153e-02 0. 0. 0. 0. 3.20457220e-02 7.47733563e-02
      1.06819076e-02 3.20457220e-02 0. 5.34095392e-02 0. 6.40914440e-02
      4.27276306e-02 1.06819076e-02 2.13638153e-02 0. 4.27276306e-02 0.
      0. 1.06819076e-02 8.54552612e-02 0. 0. 1.06819076e-02
      1.06819076e-02 1.06819076e-02 1.06819076e-02 2.13638153e-02
      2.99093425e-01 0. 0. 0. 0. 0. 0. 0. 1.06819076e-02 0.
      3.20457220e-02 0. 1.06819076e-02 0. 0. 0. 8.54552612e-02
      1.06819076e-02 2.13638153e-02 0. 0. 0. 0. 0. 0. 0. 0. 0.
      1.06819076e-02 0. 0. 0. 0. 1.06819076e-02 1.06819076e-02 0. 0. 0.
      0. 0. 0. 0. 2.13638153e-02 0. 0. 0. 1.06819076e-02 0.
      4.27276306e-02 0. 1.06819076e-02 0. 3.20457220e-02 0. 0.
      2.13638153e-02 7.47733563e-02 0. 1.06819076e-02 0. 1.06819076e-02
      0. 0. 0. 5.34095392e-02 0. 0. 0. 2.13638153e-02 0. 0. 0. 0. 0.
      1.06819076e-02 0. 2.13638153e-02 0. 0. 0. 4.27276306e-02
      9.61371660e-02 6.40914440e-02 3.20457220e-02 8.54552612e-02
      1.06819076e-02 2.13638153e-02 0. 1.06819078e-01 0. 0. 0. 0. 0.
      1.06819076e-02 3.20457220e-02 1.17500983e-01 3.73866767e-01
      1.92274332e-01 2.13638153e-02 1.17500983e-01 1.06819076e-02
      1.06819076e-02 0. 7.47733563e-02 2.35001966e-01 1.17500983e-01
      1.06819076e-02 8.54552612e-02 7.47733563e-02 4.27276306e-02
      3.20457220e-02 6.51596367e-01</_>
    <_>
      4.18151319e-01 5.66978395e-01 7.09707677e-01 0. 0. 0. 0. 0. 0. 0.
      0. 0. 0. 0. 0. 0. 0. 0. 0. 0. 0. 0. 0. 0. 0. 0. 0. 0. 0. 0. 0. 0.
      0. 0. 0. 0. 0. 0. 0. 0. 0. 0. 0. 0. 0. 0. 0. 0. 0. 0. 0. 0. 0. 0.
      3.07688862e-01 0. 0. 0. 0. 0. 2.14666650e-02 0. 0. 0. 0. 0. 0. 0.
      0. 0. 0. 0. 0. 0. 0. 0. 0. 0. 0. 0. 0. 0. 0. 0. 0. 0. 0. 0. 0. 0.
      9.40955460e-01 0. 0. 0. 0. 0. 1.39533311e-01 0. 0. 0. 0. 0. 0. 0.
      0. 0. 0. 0. 0. 0. 0. 0. 0. 0. 0. 0. 0. 0. 0. 0. 0. 0. 0. 0. 0. 0.
      0. 0. 0. 0. 0. 0. 0. 0. 0. 0. 0. 0. 0. 0. 0. 0. 0. 0. 0. 0. 0. 0.
      0. 0. 0. 0. 0. 0. 0. 0. 0. 0. 0. 0. 0. 0. 0. 0. 0. 0. 0. 0. 0. 0.
      0. 0. 0. 0. 0. 0. 0. 0. 0. 0. 0. 0. 0. 0. 0. 0. 0. 0. 0. 0. 0. 0.
      0. 0. 0. 0. 0. 0. 0. 0. 0. 0. 0. 0. 0. 0. 0. 0. 0. 0. 0. 0. 0. 0.
      0. 0. 0. 0. 0. 6.35308102e-02 2.54123248e-02 0. 1.27061624e-02 0.
      0. 2.54123248e-02 5.08246496e-02 2.54123248e-02 2.54123248e-02 0.
      0. 1.27061624e-02 0. 0. 3.68478715e-01 0. 1.27061624e-02 0. 0. 0.
      0. 0. 1.27061624e-02 0. 0. 0. 0. 1.27061624e-02 0. 0.
      7.62369782e-02 0. 0. 0. 0. 0. 0. 0. 0. 0. 0. 0. 0. 0. 0. 0. 0.
      1.27061624e-02 0. 0. 0. 0. 1.27061624e-02 0. 0. 2.54123248e-02
      1.27061624e-02 1.27061624e-02 0. 0. 0. 1.27061624e-02
      1.27061624e-02 1.27061624e-02 0. 0. 0. 0. 0. 0. 3.81184891e-02 0.
      0. 0. 0. 1.27061624e-02 0. 1.27061624e-02 0. 0. 0. 0. 0. 0. 0. 0.
      0. 0. 0. 0. 0. 0. 0. 0. 0. 0. 0. 0. 0. 1.27061624e-02 0. 0. 0. 0.
      0. 0. 0. 0. 0. 0. 1.27061624e-02 5.08246496e-02 1.27061624e-02
      1.27061624e-02 0. 0. 0. 0. 0. 1.39767781e-01 0. 1.27061624e-02 0.
      1.27061624e-02 0. 3.81184891e-02 3.81184891e-02 5.08246496e-02 0.
      0. 3.81184891e-02 1.27061624e-02 0. 0. 1.27061620e-01
      1.27061624e-02 1.27061624e-02 0. 2.54123248e-02 0. 0.
      2.54123248e-02 2.41417080e-01 2.54123248e-02 1.27061624e-02 0.
      1.27061624e-02 0. 0. 0. 0. 0. 1.27061624e-02 1.27061624e-02 0. 0.
      0. 0. 5.08246496e-02 0. 0. 0. 0. 0. 0. 0. 1.27061624e-02
      1.27061624e-02 0. 0. 1.27061624e-02 0. 0. 0. 1.27061624e-02
      1.27061624e-02 0. 0. 2.54123248e-02 0. 0. 0. 1.27061624e-02 0. 0.
      0. 0. 0. 0. 0. 3.81184891e-02 3.81184891e-02 2.54123248e-02 0.
      1.27061624e-02 0. 0. 1.27061624e-02 2.54123248e-02 0. 0. 0. 0. 0.
      1.27061624e-02 0. 5.08246496e-02 2.54123248e-02 1.27061624e-02 0.
      0. 0. 0. 0. 0. 0. 0. 0. 0. 2.54123248e-02 0. 1.27061624e-02
      2.54123248e-02 1.65180117e-01 7.62369782e-02 1.27061624e-02
      7.62369782e-02 0. 2.54123248e-02 0. 6.35308102e-02 6.35308102e-02
      0. 0. 0. 1.27061624e-02 0. 0. 7.62369782e-02 4.32009518e-01
      1.77886277e-01 0. 1.14355460e-01 1.27061624e-02 1.27061624e-02
      2.54123248e-02 1.14355460e-01 2.66829401e-01 1.65180117e-01 0.
      8.89431387e-02 3.81184891e-02 3.81184891e-02 5.08246496e-02
      5.59071124e-01</_>
    <_>
      5.32019615e-01 5.69603086e-01 6.26504123e-01 0. 0. 0. 0. 0. 0. 0.
      0. 0. 0. 0. 0. 0. 0. 0. 0. 0. 0. 0. 0. 0. 0. 0. 0. 0. 0. 0. 0. 0.
      0. 0. 0. 0. 0. 0. 0. 0. 0. 0. 0. 0. 0. 0. 0. 0. 0. 0. 0. 0. 0. 0.
      0. 0. 0. 0. 0. 0. 0. 0. 0. 0. 0. 0. 0. 0. 0. 0. 0. 0. 0. 0. 0. 0.
      0. 0. 0. 0. 0. 0. 0. 0. 0. 0. 0. 0. 0. 0. 0. 0. 0. 0. 0. 0. 0. 0.
      0. 0. 0. 0. 0. 0. 0. 0. 0. 0. 0. 0. 0. 0. 0. 0. 0. 0. 0. 0. 0. 0.
      0. 0. 0. 0. 0. 0. 0. 0. 0. 0. 0. 0. 0. 0. 0. 0. 0. 0. 0.
      3.50759834e-01 2.80607888e-03 0. 0. 0. 0. 0. 0. 0. 0. 0. 0. 0. 0.
      0. 0. 0. 0. 0. 0. 0. 0. 0. 0. 0. 0. 0. 0. 0. 0. 0. 0. 0. 0. 0. 0.
      9.34424222e-01 6.17337339e-02 0. 0. 0. 0. 0. 0. 0. 0. 0. 0. 0. 0.
      0. 0. 0. 0. 0. 0. 0. 0. 0. 0. 0. 0. 0. 0. 0. 0. 0. 0. 0. 0. 0. 0.
      0. 0. 0. 0. 0. 0. 0. 0. 1.68539330e-01 4.49438207e-02
      1.12359552e-02 8.98876414e-02 0. 0. 2.24719103e-02 3.37078646e-02
      1.12359552e-02 1.12359552e-02 0. 1.12359552e-02 0. 0.
      1.12359552e-02 5.61797768e-02 0. 0. 0. 0. 0. 0. 0. 0.
      1.12359552e-02 0. 0. 0. 1.12359552e-02 0. 1.12359552e-02
      4.49438207e-02 0. 0. 0. 2.24719103e-02 0. 0. 0. 1.12359552e-02
      1.12359552e-02 0. 0. 0. 0. 0. 1.12359552e-02 1.12359552e-02
      2.24719103e-02 0. 0. 0. 0. 0. 1.12359552e-02 0. 0. 0.
      2.24719103e-02 1.12359552e-02 0. 0. 3.37078646e-02 4.49438207e-02
      2.24719103e-02 0. 0. 1.12359552e-02 0. 0. 0. 1.12359552e-02 0. 0.
      0. 0. 0. 0. 1.12359552e-02 1.12359552e-02 0. 0. 0. 0. 0. 0. 0. 0.
      0. 1.12359552e-02 0. 0. 0. 0. 0. 0. 2.24719103e-02 0.
      1.12359552e-02 0. 1.12359552e-02 0. 1.12359552e-02 0. 0. 0. 0. 0.
      0. 1.12359552e-02 0. 1.12359552e-02 0. 0. 0. 1.12359552e-02 0. 0.
      0. 0. 0. 0. 0. 1.12359552e-02 1.12359552e-02 0. 4.49438207e-02
      5.61797768e-02 2.24719103e-02 4.49438207e-02 1.12359552e-02
      1.57303378e-01 0. 0. 1.12359552e-02 1.01123594e-01 2.24719103e-02
      1.12359552e-02 0. 2.24719103e-02 1.12359552e-02 0. 0.
      1.68539330e-01 1.12359552e-02 2.24719103e-02 0. 0. 0. 0. 0. 0. 0.
      0. 0. 3.37078646e-02 0. 1.12359552e-02 0. 5.61797768e-02 0.
      2.24719103e-02 0. 2.24719103e-02 0. 0. 0. 3.37078646e-02 0. 0. 0.
      0. 0. 1.12359552e-02 0. 2.24719103e-02 1.12359552e-02
      1.12359552e-02 0. 0. 0. 0. 0. 1.12359552e-02 0. 0. 0.
      2.24719103e-02 0. 1.12359552e-02 1.12359552e-02 6.74157292e-02
      2.24719103e-02 6.74157292e-02 1.12359552e-02 2.47191012e-01 0. 0.
      0. 2.47191012e-01 0. 0. 0. 2.24719103e-02 0. 0. 2.24719103e-02
      1.57303378e-01 0. 1.12359552e-02 0. 1.12359552e-02 0. 0. 0.
      1.12359552e-02 0. 1.12359552e-02 0. 0. 0. 0. 1.12359552e-02
      1.23595506e-01 6.74157292e-02 1.23595506e-01 1.12359552e-02
      2.58426964e-01 0. 4.49438207e-02 0. 2.35955060e-01 0.
      1.12359552e-02 0. 1.12359552e-02 0. 1.12359552e-02 3.37078646e-02
      2.13483155e-01 3.37078646e-02 7.86516890e-02 0. 1.46067411e-01 0.
      0. 0. 7.86516890e-02 1.12359552e-02 6.74157292e-02 1.12359552e-02
      1.46067411e-01 1.12359552e-02 1.12359554e-01 2.24719103e-02
      6.51685417e-01</_>
    <_>
      4.87310708e-01 5.72372854e-01 6.59482837e-01 0. 0. 0. 0. 0. 0. 0.
      0. 0. 0. 0. 0. 0. 0. 0. 0. 0. 0. 0. 0. 0. 0. 0. 0. 0. 0. 0. 0. 0.
      0. 0. 0. 0. 0. 0. 0. 0. 0. 0. 0. 0. 0. 0. 0. 0. 0. 0. 0. 0. 0. 0.
      0. 0. 0. 0. 0. 0. 0. 0. 0. 0. 0. 0. 0. 0. 0. 0. 0. 0. 0. 0. 0. 0.
      0. 0. 0. 0. 0. 0. 0. 0. 0. 0. 0. 0. 0. 0. 0. 0. 0. 0. 0. 0. 0.
      1.08101787e-02 0. 0. 0. 0. 0. 0. 0. 0. 0. 0. 0. 0. 0. 0. 0. 0. 0.
      0. 0. 0. 0. 0. 0. 0. 0. 0. 0. 0. 0. 0. 0. 0. 0. 0. 0.
      9.99941528e-01 0. 0. 0. 0. 0. 0. 0. 0. 0. 0. 0. 0. 0. 0. 0. 0. 0.
      0. 0. 0. 0. 0. 0. 0. 0. 0. 0. 0. 0. 0. 0. 0. 0. 0. 0. 0. 0. 0. 0.
      0. 0. 0. 0. 0. 0. 0. 0. 0. 0. 0. 0. 0. 0. 0. 0. 0. 0. 0. 0. 0. 0.
      0. 0. 0. 0. 0. 0. 0. 0. 0. 0. 0. 0. 0. 0. 0. 0. 0. 0. 0. 0. 0. 0.
      0. 0. 6.99591562e-02 4.19754907e-02 2.79836617e-02 0.
      4.19754907e-02 0. 2.79836617e-02 2.79836617e-02 1.39918309e-02 0.
      1.39918309e-02 0. 1.39918309e-02 0. 0. 2.79836617e-02 0. 0. 0. 0.
      0. 1.39918309e-02 0. 0. 1.39918309e-02 1.39918309e-02 0. 0.
      1.39918309e-02 0. 1.39918309e-02 0. 2.79836617e-02 0.
