<?xml version="1.0"?>
<opencv_storage>
<opencv_ml_svm>
  <format>3</format>
  <svmType>C_SVC</svmType>
  <kernel>
    <type>RBF</type>
    <gamma>5.0625000000000009e-01</gamma></kernel>
  <C>2.5000000000000000e+00</C>
  <term_criteria><iterations>100</iterations></term_criteria>
  <var_count>475</var_count>
  <class_count>2</class_count>
  <class_labels type_id="opencv-matrix">
    <rows>2</rows>
    <cols>1</cols>
    <dt>i</dt>
    <data>
      1 2</data></class_labels>
  <sv_total>183</sv_total>
  <support_vectors>
    <_>
      6.52437627e-01 5.75348973e-01 4.93253082e-01 0. 0. 0. 0. 0. 0. 0.
      0. 0. 0. 0. 0. 0. 0. 0. 0. 0. 0. 0. 0. 0. 0. 0. 0. 0. 0. 0. 0. 0.
      0. 0. 0. 0. 0. 0. 0. 0. 0. 0. 0. 0. 0. 0. 0. 0. 0. 0. 0. 0. 0. 0.
      0. 0. 0. 0. 0. 0. 0. 0. 0. 0. 0. 0. 0. 0. 0. 0. 0. 0. 0. 0. 0. 0.
      0. 0. 0. 0. 0. 0. 0. 0. 0. 0. 0. 0. 0. 0. 0. 0. 0. 0. 0. 0. 0. 0.
      0. 0. 0. 0. 0. 0. 0. 0. 0. 0. 0. 0. 0. 0. 0. 0. 0. 0. 0. 0. 0. 0.
      0. 0. 0. 0. 0. 0. 0. 0. 0. 0. 0. 9.70015705e-01 2.42503926e-01 0.
      0. 0. 0. 0. 0. 0. 0. 0. 0. 0. 0. 0. 0. 0. 0. 0. 0. 0. 0. 0. 0. 0.
      0. 0. 0. 0. 0. 0. 0. 0. 0. 0. 0. 0. 1.61669273e-02 0. 0. 0. 0. 0.
      0. 0. 0. 0. 0. 0. 0. 0. 0. 0. 0. 0. 0. 0. 0. 0. 0. 0. 0. 0. 0. 0.
      0. 0. 0. 0. 0. 0. 0. 0. 0. 0. 0. 0. 0. 0. 0. 0. 0. 0. 0. 0. 0. 0.
      0. 6.20173663e-02 6.20173663e-02 0. 6.20173663e-02 0. 0.
      6.20173663e-02 2.48069465e-01 1.24034733e-01 0. 0. 0. 0. 0. 0.
      3.72104198e-01 0. 0. 0. 0. 0. 0. 0. 0. 0. 0. 0. 0. 0. 0.
      6.20173663e-02 1.24034733e-01 0. 0. 0. 6.20173663e-02 0. 0. 0. 0.
      0. 0. 0. 0. 0. 0. 0. 0. 0. 0. 0. 0. 0. 0. 0. 0. 0. 0. 0. 0. 0. 0.
      0. 1.24034733e-01 0. 0. 0. 0. 0. 0. 0. 0. 0. 0. 0. 0.
      6.20173663e-02 0. 0. 0. 0. 0. 0. 0. 0. 0. 0. 0. 0. 0. 0. 0. 0. 0.
      0. 0. 0. 0. 0. 0. 0. 0. 0. 6.20173663e-02 0. 0. 0. 0. 0. 0. 0. 0.
      0. 0. 0. 0. 0. 0. 0. 0. 0. 0. 0. 0. 1.24034733e-01 0. 0.
      6.20173663e-02 6.20173663e-02 0. 0. 6.20173663e-02 0.
      6.20173663e-02 0. 2.48069465e-01 0. 0. 0. 0. 6.20173663e-02 0. 0.
      4.34121549e-01 0. 0. 0. 6.20173663e-02 0. 0. 0. 0. 0. 0. 0. 0. 0.
      6.20173663e-02 6.20173663e-02 1.24034733e-01 0. 0. 0. 0. 0. 0. 0.
      6.20173663e-02 0. 0. 0. 0. 0. 6.20173663e-02 0. 6.20173663e-02 0.
      0. 0. 6.20173663e-02 0. 0. 0. 0. 0. 0. 0. 0. 0. 0. 0. 0. 0. 0. 0.
      0. 0. 0. 0. 1.24034733e-01 0. 0. 0. 0. 0. 0. 0. 3.72104198e-01 0.
      0. 0. 0. 0. 0. 0. 0. 0. 0. 0. 0. 0. 0. 0. 1.24034733e-01 0.
      6.20173663e-02 0. 6.20173663e-02 0. 0. 0. 2.48069465e-01 0. 0. 0.
      0. 0. 0. 0. 2.48069465e-01 0. 0. 0. 0. 0. 0. 0. 0. 0. 0. 0. 0. 0.
      0. 0. 3.10086846e-01</_>
    <_>
      5.95730424e-01 5.79303086e-01 5.56339025e-01 0. 0. 0. 0. 0. 0. 0.
      0. 0. 0. 0. 0. 0. 0. 0. 0. 0. 0. 0. 0. 0. 0. 0. 0. 0. 0. 0. 0. 0.
      0. 0. 0. 0. 0. 0. 0. 0. 0. 0. 0. 0. 0. 0. 0. 0. 0. 0. 0. 0. 0. 0.
      0. 0. 0. 0. 0. 0. 0. 0. 0. 0. 0. 0. 0. 0. 0. 0. 0. 0. 0. 0. 0. 0.
      0. 0. 0. 0. 0. 0. 0. 0. 0. 0. 0. 0. 0. 0. 0. 0. 0. 0. 0. 0. 0. 0.
      0. 0. 0. 0. 0. 0. 0. 0. 0. 0. 0. 0. 0. 0. 0. 0. 0. 0. 0. 0. 0. 0.
      0. 0. 0. 0. 0. 0. 0. 0. 0. 0. 0. 0. 4.56568927e-01 0. 0. 0. 0. 0.
      0. 0. 0. 0. 0. 0. 0. 0. 0. 0. 0. 0. 0. 0. 0. 0. 0. 0. 0. 0. 0. 0.
      0. 0. 0. 0. 0. 0. 0. 0. 7.98995674e-01 0. 0. 0. 0. 0.
      3.91344815e-01 0. 0. 0. 0. 0. 0. 0. 0. 0. 0. 0. 0. 0. 0. 0. 0. 0.
      0. 0. 0. 0. 0. 0. 0. 0. 0. 0. 0. 0. 0. 0. 0. 0. 0. 0. 0. 0. 0. 0.
      0. 0. 0. 0. 0. 8.83021578e-02 0. 0. 0. 0. 0. 0. 0. 4.41510789e-02
      0. 0. 0. 0. 0. 4.41510789e-02 4.41510789e-02 0. 0. 0. 0. 0. 0. 0.
      0. 0. 0. 0. 0. 0. 0. 1.32453233e-01 0. 4.41510789e-02 0.
      4.41510789e-02 0. 0. 0. 0. 0. 0. 0. 0. 0. 0. 0. 0. 0.
      1.32453233e-01 0. 0. 0. 0. 0. 0. 0. 3.53208631e-01 0.
      4.41510789e-02 0. 1.32453233e-01 0. 1.76604316e-01 0. 0. 0. 0. 0.
      0. 0. 0. 0. 0. 0. 0. 0. 0. 0. 0. 0. 0. 0. 0. 0. 0. 0. 0. 0. 0. 0.
      0. 0. 0. 0. 0. 0. 0. 0. 0. 0. 0. 0. 0. 0. 0. 0. 0. 0. 0. 0. 0. 0.
      8.83021578e-02 0. 0. 0. 0. 0. 0. 0. 3.09057564e-01 0. 0. 0.
      2.64906466e-01 0. 2.20755398e-01 4.41510789e-02 0. 0. 0. 0. 0. 0.
      0. 0. 4.41510789e-02 0. 0. 0. 0. 0. 0. 4.41510789e-02 0. 0. 0. 0.
      0. 0. 0. 0. 0. 0. 0. 0. 0. 0. 0. 4.41510789e-02 0. 0. 0. 0. 0. 0.
      0. 0. 0. 0. 0. 0. 0. 0. 0. 0. 0. 0. 0. 0. 0. 0. 0. 0. 0. 0. 0. 0.
      0. 0. 0. 0. 0. 0. 0. 0. 0. 0. 0. 0. 0. 0. 0. 0. 0. 0. 0.
      4.41510789e-02 0. 0. 0. 0. 0. 0. 0. 0. 0. 0. 0. 0. 0. 0. 0. 0. 0.
      0. 0. 0. 0. 0. 0. 0. 0. 0. 0. 0. 0. 0. 0. 0. 5.73964000e-01 0. 0.
      0. 0. 0. 0. 0. 1.76604316e-01 1.32453233e-01 0. 4.41510789e-02
      2.20755398e-01 8.83021578e-02 8.83021578e-02 3.09057564e-01</_>
    <_>
      5.49735487e-01 5.94065487e-01 5.87262392e-01 0. 0. 0. 0. 0. 0. 0.
      0. 0. 0. 0. 0. 0. 0. 0. 0. 0. 0. 0. 0. 0. 0. 0. 0. 0. 0. 0. 0. 0.
      0. 0. 0. 0. 0. 0. 0. 0. 0. 0. 0. 0. 0. 0. 0. 0. 0. 0. 0. 0. 0.
      1.61838569e-02 0. 0. 0. 0. 0. 0. 0. 0. 0. 0. 0. 0. 0. 0. 0. 0. 0.
      0. 0. 0. 0. 0. 0. 0. 0. 0. 0. 0. 0. 0. 0. 0. 0. 0. 0.
      9.54847574e-01 1.61838569e-02 0. 0. 0. 0. 4.85515743e-02
      2.75125563e-01 0. 0. 0. 0. 0. 0. 0. 0. 0. 0. 0. 0. 0. 0. 0. 0. 0.
      0. 0. 0. 0. 0. 0. 0. 0. 0. 0. 0. 1.61838569e-02 0. 0. 0. 0. 0. 0.
      9.71031487e-02 0. 0. 0. 0. 0. 0. 0. 0. 0. 0. 0. 0. 0. 0. 0. 0. 0.
      0. 0. 0. 0. 0. 0. 0. 0. 0. 0. 0. 0. 0. 0. 0. 0. 0. 0. 0. 0. 0. 0.
      0. 0. 0. 0. 0. 0. 0. 0. 0. 0. 0. 0. 0. 0. 0. 0. 0. 0. 0. 0. 0. 0.
      0. 0. 0. 0. 0. 0. 0. 0. 0. 0. 0. 0. 0. 0. 0. 0. 0. 0. 0. 0. 0. 0.
      0. 0. 0. 6.45497218e-02 6.45497218e-02 0. 0. 0. 0. 6.45497218e-02
      6.45497218e-02 1.29099444e-01 0. 6.45497218e-02 0. 0. 0.
      1.29099444e-01 1.29099444e-01 6.45497218e-02 6.45497218e-02 0. 0.
      0. 0. 0. 0. 3.22748601e-01 0. 0. 0. 1.93649173e-01 0.
      2.58198887e-01 2.58198887e-01 0. 0. 0. 0. 0. 0. 0. 0. 0. 0. 0. 0.
      0. 0. 0. 0. 0. 0. 0. 0. 0. 0. 0. 0. 6.45497218e-02 0. 0. 0.
      1.93649173e-01 0. 3.22748601e-01 6.45497218e-02 0. 0. 0. 0. 0. 0.
      6.45497218e-02 0. 0. 0. 0. 0. 0. 0. 0. 0. 0. 0. 0. 0.
      6.45497218e-02 0. 0. 0. 0. 0. 0. 0. 0. 0. 0. 0. 6.45497218e-02 0.
      0. 0. 0. 0. 0. 6.45497218e-02 0. 0. 0. 0. 6.45497218e-02 0. 0. 0.
      1.29099444e-01 0. 0. 0. 0. 0. 0. 0. 0. 0. 0. 6.45497218e-02
      2.58198887e-01 0. 0. 2.58198887e-01 0. 6.45497218e-02 0. 0. 0. 0.
      0. 0. 0. 0. 0. 0. 6.45497218e-02 0. 0. 1.93649173e-01 0.
      6.45497218e-02 0. 0. 0. 0. 0. 0. 0. 0. 0. 0. 0. 0. 0. 0. 0. 0. 0.
      0. 0. 0. 0. 6.45497218e-02 0. 0. 0. 0. 0. 0. 0. 0. 0. 0. 0. 0. 0.
      0. 0. 0. 0. 0. 0. 0. 0. 0. 0. 0. 0. 0. 0. 6.45497218e-02
      6.45497218e-02 0. 0. 0. 0. 0. 0. 0. 0. 0. 0. 6.45497218e-02 0. 0.
      0. 0. 0. 0. 0. 0. 0. 0. 0. 0. 0. 0. 0. 1.93649173e-01
      1.29099444e-01 0. 0. 1.29099444e-01 0. 0. 0. 0. 0. 0. 0. 0. 0. 0.
      0. 0. 6.45497218e-02 0. 0. 1.29099444e-01 0. 0. 0. 0.
      1.29099444e-01 1.29099444e-01 6.45497218e-02 0. 0. 6.45497218e-02
      1.29099444e-01 3.22748601e-01</_>
    <_>
      5.85745156e-01 5.81018269e-01 5.65084338e-01 0. 0. 0. 0. 0. 0. 0.
      0. 0. 0. 0. 0. 0. 0. 0. 0. 0. 0. 0. 0. 0. 0. 0. 0. 0. 0. 0. 0. 0.
      0. 0. 0. 0. 0. 0. 0. 0. 0. 0. 0. 0. 0. 0. 0. 0. 0. 0. 0. 0. 0. 0.
      0. 0. 0. 0. 0. 0. 0. 0. 0. 0. 0. 0. 0. 0. 0. 0. 0. 0. 0. 0. 0. 0.
      0. 0. 0. 0. 0. 0. 0. 0. 0. 0. 0. 0. 0. 4.51984629e-02 0. 0. 0. 0.
      0. 4.51984629e-02 4.51984629e-02 0. 0. 0. 0. 0. 0. 0. 0. 0. 0. 0.
      0. 0. 0. 0. 0. 0. 0. 0. 0. 0. 0. 0. 0. 0. 0. 0. 0. 2.25992315e-02
      0. 0. 0. 0. 0. 6.77976981e-02 9.94366169e-01 0. 0. 0. 0. 0. 0. 0.
      0. 0. 0. 0. 0. 0. 0. 0. 0. 0. 0. 0. 0. 0. 0. 0. 0. 0. 0. 0. 0. 0.
      0. 0. 0. 0. 0. 0. 0. 0. 0. 0. 0. 0. 0. 0. 0. 0. 0. 0. 0. 0. 0. 0.
      0. 0. 0. 0. 0. 0. 0. 0. 0. 0. 0. 0. 0. 0. 0. 0. 0. 0. 0. 0. 0. 0.
      0. 0. 0. 0. 0. 0. 0. 0. 0. 0. 0. 0. 0. 0. 0. 1.49906337e-01
      1.49906337e-01 7.49531686e-02 0. 1.49906337e-01 2.24859506e-01 0.
      0. 0. 0. 0. 0. 7.49531686e-02 7.49531686e-02 0. 0. 0. 0. 0. 0. 0.
      0. 0. 7.49531686e-02 0. 0. 7.49531686e-02 0. 0. 0. 0. 0.
      7.49531686e-02 0. 0. 0. 0. 0. 0. 0. 0. 0. 0. 0. 0. 0. 0. 0. 0. 0.
      0. 0. 0. 0. 0. 0. 0. 0. 1.49906337e-01 0. 0. 0. 0. 0. 0. 0. 0. 0.
      0. 0. 0. 0. 0. 0. 0. 0. 0. 0. 0. 0. 0. 0. 0. 0. 0. 0. 0. 0. 0. 0.
      0. 0. 0. 0. 0. 0. 0. 0. 0. 0. 0. 0. 0. 0. 0. 0. 0. 0. 0. 0. 0. 0.
      0. 0. 0. 0. 0. 0. 0. 0. 0. 0. 0. 0. 0. 0. 2.24859506e-01 0. 0.
      7.49531686e-02 0. 0. 0. 7.49531686e-02 0. 0. 0. 0. 0. 0. 0.
      2.24859506e-01 0. 0. 0. 0. 0. 0. 0. 0. 0. 0. 0. 0. 0. 0. 0. 0. 0.
      0. 0. 0. 0. 0. 0. 0. 0. 0. 0. 0. 0. 0. 0. 0. 0. 0. 0. 0. 0. 0. 0.
      0. 0. 0. 0. 0. 7.49531686e-02 0. 0. 0. 0. 0. 0. 5.99625349e-01 0.
      7.49531686e-02 0. 3.74765843e-01 0. 0. 0. 0. 0. 0. 0. 0. 0. 0. 0.
      0. 0. 0. 0. 0. 0. 0. 0. 0. 0. 0. 0. 0. 0. 7.49531686e-02 0.
      2.99812675e-01 0. 0. 0. 7.49531686e-02 0. 0. 0. 0. 0. 0. 0.
      1.49906337e-01 0. 0. 0. 2.24859506e-01 0. 0. 0. 0. 0. 0. 0. 0. 0.
      1.49906337e-01 0. 7.49531686e-02</_>
    <_>
      6.22705042e-01 5.76129079e-01 5.29446602e-01 0. 0. 0. 0. 0. 0. 0.
      0. 0. 0. 0. 0. 0. 0. 0. 0. 0. 0. 0. 0. 0. 0. 0. 0. 0. 0. 0. 0. 0.
      0. 0. 0. 0. 0. 0. 0. 0. 0. 0. 0. 0. 0. 0. 0. 0. 0. 0. 0. 0. 0. 0.
      0. 0. 0. 0. 0. 0. 0. 0. 0. 0. 0. 0. 0. 0. 0. 0. 0. 0. 0. 0. 0. 0.
      0. 0. 0. 0. 0. 0. 0. 0. 0. 0. 0. 0. 0. 0. 0. 0. 0. 0. 0. 0. 0. 0.
      0. 0. 0. 0. 0. 0. 0. 0. 0. 0. 0. 0. 0. 0. 0. 0. 0. 0. 0. 0. 0. 0.
      0. 0. 0. 0. 0. 0. 0. 0. 0. 0. 0. 0. 9.98274386e-01 0. 0. 0. 0. 0.
      0. 0. 0. 0. 0. 0. 0. 0. 0. 0. 0. 0. 0. 0. 0. 0. 0. 0. 0. 0. 0. 0.
      0. 0. 0. 0. 0. 0. 0. 0. 5.87220266e-02 0. 0. 0. 0. 0. 0. 0. 0. 0.
      0. 0. 0. 0. 0. 0. 0. 0. 0. 0. 0. 0. 0. 0. 0. 0. 0. 0. 0. 0. 0. 0.
      0. 0. 0. 0. 0. 0. 0. 0. 0. 0. 0. 0. 0. 0. 0. 0. 0. 0. 0. 0. 0. 0.
      6.91714436e-02 0. 0. 0. 3.45857218e-02 6.91714436e-02 0. 0. 0.
      1.03757165e-01 0. 3.45857218e-02 5.87957263e-01 0. 0. 0. 0. 0. 0.
      0. 0. 0. 0. 0. 3.45857218e-02 6.91714436e-02 0. 6.91714436e-02
      1.72928602e-01 0. 0. 0. 3.45857218e-02 0. 0. 0. 0. 0. 0. 0. 0. 0.
      0. 0. 0. 3.45857218e-02 0. 0. 0. 0. 0. 0. 0. 1.03757165e-01 0. 0.
      0. 0. 0. 0. 1.03757165e-01 0. 0. 0. 0. 0. 0. 0. 0. 0. 0. 0. 0. 0.
      0. 0. 0. 0. 0. 0. 0. 0. 0. 0. 0. 0. 0. 0. 0. 0. 0. 0. 0. 0. 0. 0.
      0. 0. 0. 0. 0. 0. 0. 0. 0. 0. 0. 0. 0. 0. 0. 0. 0. 0. 0. 0. 0.
      6.91714436e-02 0. 0. 0. 3.45857218e-02 0. 1.38342887e-01
      1.03757165e-01 3.45857218e-02 0. 0. 0. 0. 0. 0. 6.91714436e-02
      3.45857218e-02 0. 0. 0. 0. 0. 0. 4.84200120e-01 0. 0. 0. 0. 0. 0.
      0. 0. 3.45857218e-02 0. 0. 0. 0. 0. 0. 2.07514331e-01 0. 0. 0. 0.
      0. 0. 0. 0. 0. 0. 0. 0. 0. 0. 0. 0. 0. 0. 0. 0. 0. 0. 0.
      3.45857218e-02 3.45857218e-02 0. 0. 0. 0. 3.45857218e-02 0.
      1.03757165e-01 0. 0. 0. 0. 0. 0. 0. 3.45857218e-02 0. 0. 0. 0. 0.
      0. 0. 0. 0. 0. 0. 0. 0. 0. 0. 0. 0. 0. 0. 0. 0. 0. 0.
      1.38342887e-01 0. 0. 0. 0. 0. 0. 0. 0. 0. 0. 0. 0. 0. 0. 0. 0. 0.
      0. 0. 3.45857218e-02 0. 0. 0. 0. 3.45857218e-02 0. 0. 0. 0.
      3.45857218e-02 6.91714436e-02 4.49614376e-01</_>
    <_>
      5.67240715e-01 5.86574554e-01 5.78072846e-01 0. 0. 0. 0. 0. 0. 0.
      0. 0. 0. 0. 0. 0. 0. 0. 0. 0. 0. 0. 0. 0. 0. 0. 0. 0. 0. 0. 0. 0.
      0. 0. 0. 0. 0. 0. 0. 0. 0. 0. 0. 0. 0. 0. 0. 0. 0. 0. 0. 0. 0. 0.
      0. 0. 0. 0. 0. 0. 0. 0. 0. 0. 0. 0. 0. 0. 0. 0. 0. 0. 0. 0. 0. 0.
      0. 0. 0. 0. 0. 0. 0. 0. 0. 0. 0. 0. 0. 3.64299342e-02 0. 0. 0. 0.
      0. 0. 0. 0. 0. 0. 0. 0. 0. 0. 0. 0. 0. 0. 0. 0. 0. 0. 0. 0. 0. 0.
      0. 0. 0. 0. 0. 0. 0. 0. 0. 0. 0. 0. 0. 0. 0. 0. 9.47178304e-01 0.
      0. 0. 0. 0. 2.36794576e-01 2.00364634e-01 0. 0. 0. 0. 0. 0. 0. 0.
      0. 0. 0. 0. 0. 0. 0. 0. 0. 0. 0. 0. 0. 0. 0. 0. 0. 0. 0. 0. 0. 0.
      0. 0. 0. 0. 0. 7.28598684e-02 0. 0. 0. 0. 0. 0. 0. 0. 0. 0. 0. 0.
      0. 0. 0. 0. 0. 0. 0. 0. 0. 0. 0. 0. 0. 0. 0. 0. 0. 0. 0. 0. 0. 0.
      0. 0. 0. 0. 0. 0. 0. 0. 0. 1.51402235e-01 3.78505588e-02 0.
      3.78505588e-02 7.57011175e-02 0. 0. 3.78505588e-02 0. 0. 0. 0. 0.
      0. 0. 3.78505588e-02 0. 0. 0. 0. 0. 0. 0. 0. 0. 0. 0. 0. 0. 0. 0.
      3.78505588e-02 0. 0. 0. 0. 0. 3.78505588e-02 0. 3.78505588e-02 0.
      0. 0. 0. 0. 0. 0. 0. 3.78505588e-02 0. 0. 0. 0. 0. 0. 0. 0. 0. 0.
      0. 0. 0. 0. 0. 0. 0. 0. 7.57011175e-02 0. 0. 0. 0. 0. 0.
      3.78505588e-02 0. 0. 0. 0. 3.78505588e-02 0. 0. 0. 0. 0. 0. 0. 0.
      0. 0. 0. 0. 0. 0. 0. 0. 0. 0. 0. 0. 0. 0. 0. 0. 0. 0. 0. 0. 0. 0.
      0. 3.78505588e-02 0. 0. 0. 0. 0. 0. 0. 0. 0. 0. 0. 0. 0. 0. 0. 0.
      3.78505588e-02 3.78505588e-02 0. 1.13551676e-01 3.78505588e-02
      3.78505588e-02 3.78505588e-02 8.70562851e-01 0. 0. 0.
      7.57011175e-02 0. 0. 0. 3.78505588e-02 0. 0. 0. 0. 0.
      3.78505588e-02 0. 1.13551676e-01 0. 3.78505588e-02 0. 0. 0. 0. 0.
      0. 0. 0. 0. 0. 0. 0. 0. 0. 0. 0. 0. 0. 0. 0. 0. 0. 0. 0. 0. 0. 0.
      0. 0. 0. 0. 0. 0. 0. 0. 0. 0. 0. 0. 0. 0. 3.78505588e-02 0. 0. 0.
      3.02804470e-01 0. 0. 0. 0. 0. 0. 0. 1.13551676e-01 0. 0. 0. 0. 0.
      0. 0. 0. 0. 0. 0. 0. 0. 0. 0. 3.78505588e-02 0. 0. 0. 0. 0. 0. 0.
      3.78505588e-02 0. 0. 0. 3.78505588e-02 0. 0. 3.78505588e-02
      1.13551676e-01 0. 0. 0. 0. 0. 0. 0. 3.78505588e-02 0. 0. 0. 0. 0.
      0. 0. 1.51402235e-01</_>
    <_>
      5.81875980e-01 5.78780353e-01 5.71343660e-01 0. 0. 0. 0. 0. 0. 0.
      0. 0. 0. 0. 0. 0. 0. 0. 0. 0. 0. 0. 0. 0. 0. 0. 0. 0. 0. 0. 0. 0.
      0. 0. 0. 0. 0. 0. 0. 0. 0. 0. 0. 0. 0. 0. 0. 0. 0. 0. 0. 0. 0. 0.
      0. 0. 0. 0. 0. 0. 0. 0. 0. 0. 0. 0. 0. 0. 0. 0. 0. 0. 0. 0. 0. 0.
      0. 0. 0. 0. 0. 0. 0. 0. 0. 0. 0. 0. 0. 1.17360465e-01 0. 0. 0. 0.
      0. 1.06691336e-02 1.06691336e-02 0. 0. 0. 0. 0. 0. 0. 0. 0. 0. 0.
      0. 0. 0. 0. 0. 0. 0. 0. 0. 0. 0. 0. 0. 0. 0. 0. 0. 2.13382673e-02
      0. 0. 0. 0. 0. 2.13382673e-02 9.92229402e-01 0. 0. 0. 0. 0. 0. 0.
      0. 0. 0. 0. 0. 0. 0. 0. 0. 0. 0. 0. 0. 0. 0. 0. 0. 0. 0. 0. 0. 0.
      0. 0. 0. 0. 0. 0. 1.06691336e-02 0. 0. 0. 0. 0. 0. 2.13382673e-02
      0. 0. 0. 0. 0. 0. 0. 0. 0. 0. 0. 0. 0. 0. 0. 0. 0. 0. 0. 0. 0. 0.
      0. 0. 0. 0. 0. 0. 0. 0. 0. 0. 0. 0. 0. 0. 0. 0. 0. 0. 0. 0. 0.
      2.95014828e-01 0. 0. 4.21449766e-02 4.21449766e-02 0. 0.
      1.26434922e-01 1.68579906e-01 8.42899531e-02 4.21449766e-02
      4.21449766e-02 0. 0. 4.21449766e-02 5.47884703e-01 0. 0. 0. 0. 0.
      0. 0. 0. 8.42899531e-02 0. 0. 0. 0. 0. 4.21449766e-02
      4.21449766e-02 0. 0. 0. 0. 0. 0. 0. 0. 0. 0. 0. 0. 0. 0. 0.
      4.21449766e-02 8.42899531e-02 0. 0. 0. 0. 0. 0. 0. 0. 0. 0. 0. 0.
      0. 0. 0. 0. 0. 0. 0. 0. 0. 0. 0. 0. 0. 0. 0. 0. 0. 0.
      4.21449766e-02 0. 0. 0. 0. 0. 0. 0. 0. 0. 0. 0. 0. 0. 0. 0. 0.
      4.21449766e-02 0. 0. 0. 0. 0. 0. 0. 0. 0. 0. 0. 0. 0. 0.
      8.42899531e-02 1.26434922e-01 4.21449766e-02 0. 0. 4.21449766e-02
      0. 0. 4.21449766e-02 4.21449766e-02 0. 0. 0. 0. 0. 4.21449766e-02
      8.42899531e-02 2.52869844e-01 4.21449766e-02 0. 4.21449766e-02 0.
      0. 0. 0. 8.42899531e-02 0. 0. 0. 0. 0. 0. 4.21449766e-02
      4.21449766e-02 0. 0. 0. 0. 0. 0. 0. 0. 0. 0. 0. 0. 0. 0.
      4.21449766e-02 0. 0. 0. 0. 0. 0. 0. 0. 0. 0. 0. 0. 0. 0. 0. 0.
      8.42899531e-02 0. 0. 0. 0. 0. 0. 0. 4.21449766e-02 0. 0. 0. 0. 0.
      0. 0. 4.21449766e-02 0. 0. 0. 0. 0. 0. 0. 0. 0. 0. 0. 0. 0.
      4.21449766e-02 4.21449766e-02 0. 0. 0. 0. 0. 0. 0. 0.
      4.21449766e-02 0. 0. 0. 0. 0. 0. 0. 8.42899531e-02 0. 0. 0.
      4.21449766e-02 0. 0. 0. 0. 0. 0. 0. 0. 0. 0. 0. 4.63594735e-01
      8.42899531e-02 4.21449766e-02 0. 8.42899531e-02 0. 0.
      2.52869844e-01 2.52869844e-01 8.42899531e-02 0. 4.21449766e-02 0.
      0. 4.21449766e-02 1.26434922e-01</_>
    <_>
      6.24463916e-01 5.75755358e-01 5.27778924e-01 0. 0. 0. 0. 0. 0. 0.
      0. 0. 0. 0. 0. 0. 0. 0. 0. 0. 0. 0. 0. 0. 0. 0. 0. 0. 0. 0. 0. 0.
      0. 0. 0. 0. 0. 0. 0. 0. 0. 0. 0. 0. 0. 0. 0. 0. 0. 0. 0. 0. 0. 0.
      0. 0. 0. 0. 0. 0. 0. 0. 0. 0. 0. 0. 0. 0. 0. 0. 0. 0. 0. 0. 0. 0.
      0. 0. 0. 0. 0. 0. 0. 0. 0. 0. 0. 0. 0. 0. 0. 0. 0. 0. 0. 0. 0. 0.
      0. 0. 0. 0. 0. 0. 0. 0. 0. 0. 0. 0. 0. 0. 0. 0. 0. 0. 0. 0. 0. 0.
      0. 0. 0. 0. 0. 0. 0. 0. 0. 0. 0. 0. 1.58465892e-01 0. 0. 0. 0. 0.
      0. 0. 0. 0. 0. 0. 0. 0. 0. 0. 0. 0. 0. 0. 0. 0. 0. 0. 0. 0. 0. 0.
      0. 0. 0. 0. 0. 0. 0. 0. 9.87364411e-01 0. 0. 0. 0. 0. 0. 0. 0. 0.
      0. 0. 0. 0. 0. 0. 0. 0. 0. 0. 0. 0. 0. 0. 0. 0. 0. 0. 0. 0. 0. 0.
      0. 0. 0. 0. 0. 0. 0. 0. 0. 0. 0. 0. 0. 0. 0. 0. 0. 0. 0.
      1.20482892e-01 0. 0. 0. 0. 0. 4.01609652e-02 0. 4.01609652e-02 0.
      4.01609652e-02 4.01609652e-02 0. 4.01609652e-02 0. 8.03219303e-02
      0. 0. 0. 0. 0. 0. 0. 0. 0. 0. 0. 0. 0. 0. 0. 4.01609652e-02 0. 0.
      0. 0. 0. 0. 0. 0. 4.01609652e-02 0. 0. 0. 0. 0. 0. 0. 0. 0. 0. 0.
      0. 0. 0. 0. 4.01609652e-02 0. 0. 0. 0. 0. 0. 2.00804830e-01 0. 0.
      0. 0. 0. 0. 0. 0. 0. 0. 0. 0. 0. 0. 4.01609652e-02 0. 0. 0. 0. 0.
      0. 0. 0. 0. 0. 0. 0. 0. 0. 0. 4.01609652e-02 0. 4.01609652e-02 0.
      0. 0. 0. 0. 0. 0. 0. 0. 0. 0. 0. 0. 0. 0. 4.01609652e-02 0. 0. 0.
      0. 0. 0. 0. 3.61448675e-01 0. 0. 0. 8.03219303e-02 0.
      1.20482892e-01 4.01609652e-02 0. 0. 4.01609652e-02 4.01609652e-02
      4.01609652e-02 0. 0. 8.03219303e-02 0. 0. 0. 0. 4.01609652e-02 0.
      0. 3.21287721e-01 0. 0. 0. 0. 0. 0. 0. 0. 4.01609652e-02 0. 0. 0.
      0. 0. 4.01609652e-02 4.01609652e-02 0. 0. 0. 0. 0. 0. 0. 0. 0. 0.
      0. 0. 0. 0. 0. 0. 4.01609652e-02 0. 0. 0. 0. 0. 0. 0. 0. 0. 0. 0.
      0. 0. 0. 4.01609652e-02 0. 0. 0. 0. 0. 0. 0. 0. 8.03219303e-02 0.
      0. 0. 0. 0. 0. 0. 0. 0. 0. 0. 0. 0. 0. 0. 0. 0. 0. 0. 0. 0. 0. 0.
      0. 0. 0. 0. 0. 0. 0. 4.01609652e-02 0. 0. 0. 4.01609652e-02 0. 0.
      0. 0. 8.03219303e-02 0. 0. 0. 0. 0. 0. 1.20482892e-01
      2.81126767e-01 4.01609652e-02 0. 0. 4.01609652e-02 8.03219303e-02
      0. 7.22897351e-01</_>
    <_>
      6.16900444e-01 5.76661527e-01 5.35626173e-01 0. 0. 0. 0. 0. 0. 0.
      0. 0. 0. 0. 0. 0. 0. 0. 0. 0. 0. 0. 0. 0. 0. 0. 0. 0. 0. 0. 0. 0.
      0. 0. 0. 0. 0. 0. 0. 0. 0. 0. 0. 0. 0. 0. 0. 0. 0. 0. 0. 0. 0. 0.
      0. 0. 0. 0. 0. 0. 0. 0. 0. 0. 0. 0. 0. 0. 0. 0. 0. 0. 0. 0. 0. 0.
      0. 0. 0. 0. 0. 0. 0. 0. 0. 0. 0. 0. 0. 0. 0. 0. 0. 0. 0. 0. 0. 0.
      0. 0. 0. 0. 0. 0. 0. 0. 0. 0. 0. 0. 0. 0. 0. 0. 0. 0. 0. 0. 0. 0.
      0. 0. 0. 0. 0. 0. 0. 0. 0. 0. 0. 0. 9.85281393e-02 0. 0. 0. 0. 0.
      0. 0. 0. 0. 0. 0. 0. 0. 0. 0. 0. 0. 0. 0. 0. 0. 0. 0. 0. 0. 0. 0.
      0. 0. 0. 0. 0. 0. 0. 0. 9.95134294e-01 0. 0. 0. 0. 0. 0. 0. 0. 0.
      0. 0. 0. 0. 0. 0. 0. 0. 0. 0. 0. 0. 0. 0. 0. 0. 0. 0. 0. 0. 0. 0.
      0. 0. 0. 0. 0. 0. 0. 0. 0. 0. 0. 0. 0. 0. 0. 0. 0. 0. 0.
      8.50486532e-02 0. 0. 0. 4.25243266e-02 0. 0. 4.25243266e-02 0. 0.
      0. 0. 1.27572984e-01 0. 1.27572984e-01 2.97670275e-01 0. 0. 0. 0.
      0. 0. 0. 0. 0. 4.25243266e-02 4.25243266e-02 0. 8.50486532e-02 0.
      1.27572984e-01 2.97670275e-01 0. 4.25243266e-02 0. 0. 0. 0. 0. 0.
      0. 0. 0. 0. 0. 0. 0. 0. 0. 0. 0. 0. 4.25243266e-02 0. 0. 0.
      4.25243266e-02 0. 0. 0. 1.70097306e-01 0. 0. 4.25243266e-02 0. 0.
      4.25243266e-02 0. 0. 0. 0. 0. 0. 0. 0. 0. 0. 0. 0. 0. 0. 0. 0. 0.
      0. 0. 0. 0. 0. 0. 0. 0. 4.25243266e-02 0. 0. 0. 0. 0. 0. 0. 0. 0.
      0. 0. 0. 0. 0. 0. 4.25243266e-02 0. 0. 0. 8.50486532e-02 0. 0. 0.
      0. 0. 0. 4.25243266e-02 2.12621629e-01 0. 0. 0. 4.25243266e-02 0.
      0. 2.55145967e-01 0. 4.25243266e-02 0. 0. 0. 0. 0. 4.25243266e-02
      0. 0. 0. 4.25243266e-02 0. 0. 0. 5.10291934e-01 0. 0. 0.
      4.25243266e-02 0. 0. 0. 0. 0. 0. 4.25243266e-02 0. 0. 0. 0.
      2.97670275e-01 0. 0. 0. 0. 0. 0. 0. 0. 0. 0. 0. 0. 0. 0. 0. 0. 0.
      0. 0. 0. 0. 0. 0. 0. 4.25243266e-02 8.50486532e-02 0. 0. 0. 0. 0.
      8.50486532e-02 0. 0. 0. 0. 0. 0. 0. 0. 0. 0. 0. 0. 0. 0. 0. 0. 0.
      0. 0. 0. 0. 0. 0. 0. 0. 0. 0. 0. 0. 0. 0. 0. 0. 0. 0. 0. 0. 0. 0.
      0. 0. 0. 0. 0. 4.25243266e-02 0. 0. 0. 1.27572984e-01 0. 0. 0. 0.
      0. 0. 8.50486532e-02 2.97670275e-01 4.25243266e-02 0.
      4.25243266e-02 4.25243266e-02 0. 8.50486532e-02 2.97670275e-01</_>
    <_>
      6.07634842e-01 5.79532146e-01 5.43067515e-01 0. 0. 0. 0. 0. 0. 0.
      0. 0. 0. 0. 0. 0. 0. 0. 0. 0. 0. 0. 0. 0. 0. 0. 0. 0. 0. 0. 0. 0.
      0. 0. 0. 0. 0. 0. 0. 0. 0. 0. 0. 0. 0. 0. 0. 0. 0. 0. 0. 0. 0. 0.
      0. 0. 0. 0. 0. 0. 0. 0. 0. 0. 0. 0. 0. 0. 0. 0. 0. 0. 0. 0. 0. 0.
      0. 0. 0. 0. 0. 0. 0. 0. 0. 0. 0. 0. 0. 0. 0. 0. 0. 0. 0. 0. 0. 0.
      0. 0. 0. 0. 0. 0. 0. 0. 0. 0. 0. 0. 0. 0. 0. 0. 0. 0. 0. 0. 0. 0.
      0. 0. 0. 0. 0. 0. 0. 0. 0. 0. 0. 0. 2.62454540e-01 0. 0. 0. 0. 0.
      2.62454543e-02 9.18590873e-02 0. 0. 0. 0. 0. 0. 0. 0. 0. 0. 0. 0.
      0. 0. 0. 0. 0. 0. 0. 0. 0. 0. 0. 0. 0. 0. 0. 0. 9.57959056e-01 0.
      0. 0. 0. 0. 6.56136349e-02 0. 0. 0. 0. 0. 0. 0. 0. 0. 0. 0. 0. 0.
      0. 0. 0. 0. 0. 0. 0. 0. 0. 0. 0. 0. 0. 0. 0. 0. 0. 0. 0. 0. 0. 0.
      0. 0. 0. 0. 0. 0. 0. 0. 0. 0. 0. 0. 0. 0. 0. 0. 0. 6.70778453e-02
      0. 3.35389227e-02 0. 3.35389227e-02 0. 1.00616768e-01
      3.35389227e-02 3.35389227e-02 0. 0. 0. 0. 0. 0. 0. 3.35389227e-02
      0. 0. 0. 0. 0. 0. 0. 0. 0. 0. 0. 0. 0. 0. 0. 0. 0. 0. 0. 0. 0. 0.
      0. 3.35389227e-02 0. 0. 0. 0. 0. 0. 0. 1.34155691e-01 0. 0. 0.
      3.01850319e-01 0. 0. 3.35389227e-02 0. 0. 0. 0. 0. 0. 0. 0. 0. 0.
      0. 0. 0. 0. 0. 0. 0. 0. 0. 0. 0. 0. 0. 0. 0. 0. 0. 0. 0. 0. 0. 0.
      0. 0. 0. 0. 0. 0. 0. 0. 0. 0. 0. 0. 0. 0. 0. 0. 3.35389227e-02 0.
      0. 0. 0. 0. 0. 0. 5.36622763e-01 0. 0. 0. 4.36006010e-01 0. 0.
      1.34155691e-01 6.70778453e-02 0. 0. 0. 0. 0. 0. 0. 0. 0. 0. 0. 0.
      0. 0. 1.00616768e-01 0. 0. 0. 0. 0. 0. 0. 0. 3.35389227e-02 0. 0.
      0. 0. 0. 0. 0. 0. 0. 0. 0. 0. 0. 0. 0. 0. 0. 0. 0. 0. 0. 0. 0. 0.
      0. 0. 0. 0. 0. 0. 0. 3.35389227e-02 0. 0. 0. 0. 0. 0. 0.
      3.35389227e-02 0. 0. 0. 0. 0. 0. 0. 3.35389227e-02 0. 0. 0. 0. 0.
      0. 0. 0. 0. 0. 0. 0. 0. 0. 0. 0. 0. 0. 0. 0. 0. 0. 0. 0. 0. 0. 0.
      0. 0. 0. 0. 3.35389227e-02 0. 0. 0. 0. 0. 0. 0. 1.67694613e-01
      3.35389227e-02 0. 0. 3.35389227e-02 0. 0. 3.35389227e-02
      4.02467072e-01 1.00616768e-01 0. 3.35389227e-02 1.00616768e-01 0.
      0. 3.68928134e-01</_>
    <_>
      6.25291884e-01 5.74775219e-01 5.27866900e-01 0. 0. 0. 0. 0. 0. 0.
      0. 0. 0. 0. 0. 0. 0. 0. 0. 0. 0. 0. 0. 0. 0. 0. 0. 0. 0. 0. 0. 0.
      0. 0. 0. 0. 0. 0. 0. 0. 0. 0. 0. 0. 0. 0. 0. 0. 0. 0. 0. 0. 0. 0.
      0. 0. 0. 0. 0. 0. 0. 0. 0. 0. 0. 0. 0. 0. 0. 0. 0. 0. 0. 0. 0. 0.
      0. 0. 0. 0. 0. 0. 0. 0. 0. 0. 0. 0. 0. 0. 0. 0. 0. 0. 0. 0. 0. 0.
      0. 0. 0. 0. 0. 0. 0. 0. 0. 0. 0. 0. 0. 0. 0. 0. 0. 0. 0. 0. 0. 0.
      0. 0. 0. 0. 0. 0. 0. 0. 0. 0. 0. 0. 5.32576479e-02 0. 0. 0. 0. 0.
      0. 0. 0. 0. 0. 0. 0. 0. 0. 0. 0. 0. 0. 0. 0. 0. 0. 0. 0. 0. 0. 0.
      0. 0. 0. 0. 0. 0. 0. 0. 9.98580813e-01 0. 0. 0. 0. 0. 0. 0. 0. 0.
      0. 0. 0. 0. 0. 0. 0. 0. 0. 0. 0. 0. 0. 0. 0. 0. 0. 0. 0. 0. 0. 0.
      0. 0. 0. 0. 0. 0. 0. 0. 0. 0. 0. 0. 0. 0. 0. 0. 0. 0. 0.
      5.67047969e-02 0. 0. 0. 0. 0. 0. 0. 1.70114398e-01 0. 0. 0. 0. 0.
      1.13409594e-01 3.40228796e-01 0. 0. 0. 0. 0. 0. 0. 0.
      5.67047969e-02 0. 0. 0. 0. 0. 0. 0. 0. 0. 0. 0. 0. 0. 0. 0. 0. 0.
      0. 0. 0. 0. 0. 0. 0. 0. 0. 0. 0. 0. 0. 0. 5.67047969e-02 0. 0. 0.
      0. 0. 0. 5.67047969e-02 0. 0. 0. 0. 0. 0. 0. 0. 0. 0. 0. 0. 0. 0.
      0. 0. 0. 0. 0. 0. 0. 0. 0. 0. 0. 0. 0. 0. 0. 0. 0. 0. 0. 0. 0. 0.
      0. 0. 0. 0. 0. 0. 0. 0. 0. 0. 0. 0. 0. 5.67047969e-02 0. 0. 0. 0.
      0. 0. 0. 0. 0. 0. 0. 0. 1.13409594e-01 0. 1.70114398e-01
      5.67047969e-02 0. 5.67047969e-02 0. 0. 0. 1.13409594e-01 0. 0. 0.
      0. 5.67047969e-02 0. 0. 6.23752773e-01 0. 0. 0. 0. 0. 0. 0. 0. 0.
      0. 0. 5.67047969e-02 0. 0. 0. 0. 0. 0. 0. 0. 0. 0. 0. 0. 0. 0. 0.
      0. 0. 0. 0. 0. 0. 0. 0. 0. 0. 0. 0. 0. 5.67047969e-02
      5.67047969e-02 0. 5.67047969e-02 0. 0. 0. 0. 0. 5.67047969e-02 0.
      5.67047969e-02 0. 0. 0. 0. 0. 0. 0. 0. 0. 0. 0. 5.67047969e-02 0.
      0. 0. 0. 0. 0. 0. 5.67047969e-02 5.67047969e-02 0. 0. 0. 0. 0. 0.
      0. 1.13409594e-01 5.67047969e-02 0. 0. 0. 0. 0. 0. 5.67047969e-02
      0. 0. 0. 0. 0. 0. 1.13409594e-01 1.13409594e-01 1.70114398e-01 0.
      2.26819187e-01 0. 0. 0. 1.13409594e-01 1.13409594e-01
      1.13409594e-01 0. 1.13409594e-01 5.67047969e-02 5.67047969e-02
      5.67047969e-02 3.96933585e-01</_>
    <_>
      6.50282681e-01 5.83451450e-01 4.86535579e-01 0. 0. 0. 0. 0. 0. 0.
      0. 0. 0. 0. 0. 0. 0. 0. 0. 0. 0. 0. 0. 0. 0. 0. 0. 0. 0. 0. 0. 0.
      0. 0. 0. 0. 0. 0. 0. 0. 0. 0. 0. 0. 0. 0. 1.85089987e-02 0. 0. 0.
      0. 0. 0. 0. 0. 0. 0. 0. 0. 0. 0. 0. 0. 0. 0. 0. 0. 0. 0. 0. 0. 0.
      0. 0. 0. 0. 0. 0. 0. 0. 0. 0. 0. 0. 0. 0. 0. 0. 7.40359947e-02
      1.48071989e-01 0. 0. 0. 0. 0. 0. 0. 0. 0. 0. 0. 0. 0. 0. 0. 0. 0.
      0. 0. 0. 0. 0. 0. 0. 0. 0. 0. 0. 0. 0. 0. 0. 0. 0. 1.85089987e-02
      4.25707012e-01 0. 0. 0. 0. 0. 8.88431966e-01 3.70179974e-02 0. 0.
      0. 0. 0. 0. 0. 0. 0. 0. 0. 0. 0. 0. 0. 0. 0. 0. 0. 0. 0. 0. 0. 0.
      0. 0. 0. 0. 0. 0. 0. 0. 0. 0. 0. 0. 0. 0. 0. 0. 0. 0. 0. 0. 0. 0.
      0. 0. 0. 0. 0. 0. 0. 0. 0. 0. 0. 0. 0. 0. 0. 0. 0. 0. 0. 0. 0. 0.
      0. 0. 0. 0. 0. 0. 0. 0. 0. 0. 0. 0. 0. 0. 0. 0. 0. 0.
      4.19058204e-01 6.98430315e-02 1.39686063e-01 0. 0. 0.
      6.98430315e-02 0. 1.39686063e-01 0. 0. 0. 0. 0. 6.98430315e-02
      1.39686063e-01 6.98430315e-02 0. 0. 0. 0. 0. 0. 0. 6.98430315e-02
      0. 0. 0. 6.98430315e-02 0. 3.49215150e-01 6.98430315e-02
      6.98430315e-02 0. 0. 0. 0. 0. 6.98430315e-02 0. 0. 0. 0. 0. 0. 0.
      0. 6.98430315e-02 1.39686063e-01 6.98430315e-02 0. 0. 0. 0. 0.
      6.98430315e-02 6.98430315e-02 0. 6.98430315e-02 0. 0. 0.
      2.09529102e-01 0. 6.98430315e-02 0. 0. 0. 0. 0. 0. 0.
      6.98430315e-02 0. 0. 0. 0. 0. 0. 0. 0. 0. 0. 0. 0. 0.
      6.98430315e-02 0. 0. 6.98430315e-02 0. 0. 0. 0. 0. 0. 0. 0.
      6.98430315e-02 0. 0. 0. 0. 0. 0. 0. 0. 0. 0. 0. 0. 0.
      6.98430315e-02 0. 0. 0. 0. 0. 0. 0. 6.98430315e-02 0. 0. 0. 0. 0.
      6.98430315e-02 1.39686063e-01 0. 1.39686063e-01 6.98430315e-02
      1.39686063e-01 0. 0. 0. 0. 0. 0. 0. 0. 0. 6.98430315e-02 0. 0. 0.
      0. 0. 0. 0. 0. 0. 0. 0. 0. 0. 0. 6.98430315e-02 6.98430315e-02 0.
      0. 6.98430315e-02 6.98430315e-02 0. 0. 0. 0. 0. 0. 0. 0. 0. 0. 0.
      0. 0. 0. 0. 0. 0. 0. 0. 0. 0. 6.98430315e-02 0. 0. 0. 0.
      6.98430315e-02 0. 0. 0. 1.39686063e-01 6.98430315e-02 0. 0. 0. 0.
      0. 6.98430315e-02 0. 0. 0. 6.98430315e-02 0. 0. 0. 0. 0. 0. 0. 0.
      0. 0. 0. 0. 0. 0. 0. 0. 0. 0. 0. 0. 6.98430315e-02 0. 0.
      1.39686063e-01 6.98430315e-02 0. 0. 0. 6.98430315e-02 0. 0.
      6.98430315e-02 0. 6.98430315e-02 0. 0. 2.79372126e-01
      6.98430315e-02 0. 1.39686063e-01 0. 6.98430315e-02 0.
      6.98430315e-02 0. 6.98430315e-02 0. 0. 6.98430315e-02 0. 0.
      4.19058204e-01</_>
    <_>
      6.25807881e-01 5.89100599e-01 5.11199594e-01 0. 0. 0. 0. 0. 0. 0.
      0. 0. 0. 0. 0. 0. 0. 0. 0. 0. 0. 0. 0. 0. 0. 0. 0. 0. 0. 0. 0. 0.
      0. 0. 0. 0. 0. 0. 0. 0. 0. 0. 0. 0. 0. 0. 2.80514747e-01
      1.16881140e-01 0. 0. 0. 0. 4.67524566e-02 1.63633600e-01 0. 0. 0.
      0. 0. 0. 0. 0. 0. 0. 0. 0. 0. 0. 0. 0. 0. 0. 0. 0. 0. 0. 0. 0. 0.
      0. 0. 0. 2.33762283e-02 0. 0. 0. 0. 0. 4.20772135e-01
      4.67524558e-01 0. 0. 0. 0. 0. 2.33762283e-02 0. 0. 0. 0. 0. 0. 0.
      0. 0. 0. 0. 0. 0. 0. 0. 0. 0. 0. 0. 0. 0. 0. 0. 0. 0. 0. 0. 0. 0.
      4.90900815e-01 0. 0. 0. 0. 0. 4.90900815e-01 0. 0. 0. 0. 0. 0. 0.
      0. 0. 0. 0. 0. 0. 0. 0. 0. 0. 0. 0. 0. 0. 0. 0. 0. 0. 0. 0. 0. 0.
      0. 0. 0. 0. 0. 0. 0. 0. 0. 0. 0. 0. 0. 0. 0. 0. 0. 0. 0. 0. 0. 0.
      0. 0. 0. 0. 0. 0. 0. 0. 0. 0. 0. 0. 0. 0. 0. 0. 0. 0. 0. 0. 0. 0.
      0. 0. 0. 0. 0. 0. 0. 0. 0. 0. 0. 0. 0. 0. 3.17526460e-01 0. 0.
      4.53609228e-02 0. 0. 0. 0. 9.07218456e-02 0. 0. 0. 0. 0.
      4.53609228e-02 9.07218456e-02 0. 0. 0. 0. 4.53609228e-02 0. 0. 0.
      4.53609228e-02 0. 0. 0. 0. 0. 4.53609228e-02 0. 9.07218456e-02 0.
      0. 0. 0. 0. 0. 0. 4.53609228e-02 0. 0. 0. 0. 0. 0. 0. 0. 0. 0. 0.
      0. 0. 0. 0. 0. 0. 0. 0. 0. 0. 0. 4.53609228e-02 0. 0. 0. 0. 0. 0.
      0. 4.53609228e-02 0. 0. 0. 0. 0. 0. 0. 0. 0. 0. 0. 0. 0. 0. 0. 0.
      0. 0. 0. 0. 0. 0. 0. 0. 9.07218456e-02 4.53609228e-02 0.
      9.07218456e-02 0. 0. 0. 0. 0. 0. 0. 0. 0. 0. 0. 4.53609228e-02 0.
      0. 0. 0. 0. 0. 0. 0. 4.53609228e-02 4.53609228e-02 0. 0. 0. 0.
      4.53609228e-02 4.53609228e-02 9.07218456e-02 1.36082768e-01 0.
      4.53609228e-02 0. 0. 0. 4.53609228e-02 1.36082768e-01 0. 0. 0. 0.
      0. 0. 0. 0. 4.53609228e-02 0. 0. 0. 0. 0. 0. 0. 0. 0. 0. 0. 0. 0.
      0. 0. 9.07218456e-02 0. 0. 0. 0. 0. 0. 0. 0. 0. 0. 0. 0. 0. 0.
      4.53609228e-02 4.53609228e-02 0. 0. 0. 0. 0. 0. 0. 0. 0. 0. 0. 0.
      0. 0. 9.07218456e-02 1.36082768e-01 0. 0. 0. 4.53609228e-02 0. 0.
      0. 0. 0. 0. 0. 4.53609228e-02 0. 0. 0. 0. 0. 0. 0. 0. 0. 0.
      4.53609228e-02 0. 0. 4.53609228e-02 0. 4.53609228e-02 0.
      4.53609228e-02 0. 4.08248305e-01 0. 3.62887383e-01 0. 0. 0.
      9.07218456e-02 4.53609228e-02 0. 4.53609228e-02 0. 0. 0. 0. 0.
      1.81443691e-01 1.36082768e-01 4.53609228e-02 4.53609228e-02
      4.53609228e-02 0. 0. 2.26804614e-01 0. 0. 0. 9.07218456e-02
      4.53609228e-02 0. 0. 5.44331074e-01</_>
    <_>
      5.05112886e-01 5.66338718e-01 6.51246130e-01 9.73431468e-01
      6.57723919e-02 0. 0. 0. 0. 1.31544787e-02 6.57723919e-02
      2.63089575e-02 0. 0. 0. 0. 0. 0. 0. 0. 0. 0. 0. 0. 0. 0. 0. 0. 0.
      0. 0. 0. 0. 0. 0. 0. 0. 0. 0. 5.26179150e-02 0. 0. 0. 0. 0. 0.
      1.84162706e-01 7.89268762e-02 0. 0. 0. 0. 0. 0. 0. 0. 0. 0. 0. 0.
      0. 0. 0. 0. 0. 0. 0. 0. 0. 0. 0. 0. 0. 0. 0. 0. 0. 0. 0. 0. 0. 0.
      0. 0. 0. 0. 0. 0. 0. 0. 0. 0. 0. 0. 0. 0. 0. 0. 0. 0. 0. 0. 0. 0.
      0. 0. 0. 0. 0. 0. 0. 0. 0. 0. 0. 0. 0. 0. 0. 0. 0. 0. 0. 0. 0. 0.
      0. 0. 0. 0. 0. 0. 0. 0. 0. 0. 0. 0. 0. 0. 0. 0. 0. 0. 0. 0. 0. 0.
      0. 0. 0. 0. 0. 0. 0. 0. 0. 0. 0. 0. 0. 0. 0. 0. 0. 0. 0. 0. 0. 0.
      0. 0. 0. 0. 0. 0. 0. 0. 0. 0. 0. 0. 0. 0. 0. 0. 0. 0. 0. 0. 0. 0.
      0. 0. 0. 0. 0. 0. 0. 0. 0. 0. 0. 0. 0. 0. 0. 0. 0. 0. 0. 0. 0. 0.
      0. 0. 0. 0. 0. 9.04431269e-02 0. 4.52215634e-02 0. 0. 0.
      4.52215634e-02 9.04431269e-02 4.52215634e-02 4.52215634e-02 0. 0.
      4.52215634e-02 0. 2.71329373e-01 3.16550940e-01 0. 0. 0. 0. 0. 0.
      0. 0. 0. 0. 0. 4.52215634e-02 4.52215634e-02 0. 9.04431269e-02
      9.04431269e-02 0. 0. 0. 0. 0. 0. 0. 0. 0. 0. 0. 0. 0. 0. 0. 0.
      4.52215634e-02 0. 0. 0. 0. 0. 0. 0. 4.52215634e-02 4.52215634e-02
      0. 0. 0. 0. 0. 4.52215634e-02 0. 0. 0. 0. 0. 0. 0. 0. 0. 0. 0. 0.
      0. 0. 0. 0. 0. 0. 0. 0. 0. 0. 0. 0. 0. 0. 0. 0. 4.52215634e-02 0.
      0. 0. 0. 0. 0. 0. 0. 0. 0. 0. 0. 0. 0. 0. 0. 0. 0. 4.52215634e-02
      4.52215634e-02 0. 0. 0. 0. 0. 9.04431269e-02 0. 0. 0. 0. 0. 0. 0.
      4.52215634e-02 9.04431269e-02 1.35664687e-01 0. 0. 0. 0.
      4.52215634e-02 0. 9.04431269e-02 0. 0. 0. 4.52215634e-02 0. 0. 0.
      2.26107821e-01 0. 0. 0. 0. 0. 0. 0. 0. 0. 0. 0. 0. 0. 0. 0.
      9.04431269e-02 0. 0. 0. 0. 0. 0. 0. 0. 0. 0. 0. 0. 0. 0. 0. 0.
      4.52215634e-02 0. 0. 0. 0. 0. 0. 0. 0. 0. 0. 0. 0. 0. 0. 0.
      9.04431269e-02 0. 0. 9.04431269e-02 0. 0. 0. 0. 0. 0. 0. 0. 0. 0.
      0. 0. 0. 0. 0. 0. 0. 0. 0. 0. 4.52215634e-02 0. 0. 0. 0. 0. 0.
      4.52215634e-02 9.04431269e-02 4.52215634e-02 0. 4.52215634e-02 0.
      0. 0. 4.52215634e-02 0. 0. 0. 4.52215634e-02 0. 0. 0.
      9.04431269e-02 6.33101881e-01 1.80886254e-01 0. 4.52215634e-02 0.
      9.04431269e-02 4.52215634e-02 2.26107821e-01 9.04431269e-02
      1.35664687e-01 0. 0. 4.52215634e-02 4.52215634e-02 9.04431269e-02
      2.71329373e-01</_>
    <_>
      6.37271225e-01 5.68858862e-01 5.19889414e-01 0. 0. 0. 0. 0. 0. 0.
      0. 0. 0. 0. 0. 0. 0. 0. 0. 0. 0. 0. 0. 0. 0. 0. 0. 0. 0. 0. 0. 0.
      0. 0. 0. 0. 0. 0. 0. 2.90619098e-02 0. 0. 0. 0. 0. 1.45309549e-02
      1.45309538e-01 1.45309549e-02 0. 0. 0. 0. 0. 0. 0. 0. 0. 0. 0. 0.
      0. 0. 0. 0. 0. 0. 0. 0. 0. 0. 0. 0. 0. 0. 0. 0. 0. 0. 0. 0. 0. 0.
      1.45309538e-01 1.45309549e-02 0. 0. 0. 0. 7.26547688e-02
      9.73573983e-01 4.35928628e-02 0. 0. 0. 0. 0. 0. 0. 0. 0. 0. 0. 0.
      0. 0. 0. 0. 0. 0. 0. 0. 0. 0. 0. 0. 0. 0. 0. 0. 0. 0. 0. 0. 0. 0.
      2.90619098e-02 0. 0. 0. 0. 0. 0. 1.45309549e-02 1.45309549e-02 0.
      0. 0. 0. 0. 0. 0. 0. 0. 0. 0. 0. 0. 0. 0. 0. 0. 0. 0. 0. 0. 0. 0.
      0. 0. 0. 0. 0. 0. 0. 0. 0. 0. 0. 0. 0. 0. 0. 0. 0. 0. 0. 0. 0. 0.
      0. 0. 0. 0. 0. 0. 0. 0. 0. 0. 0. 0. 0. 0. 0. 0. 0. 0. 0. 0. 0. 0.
      0. 0. 0. 0. 0. 0. 0. 0. 0. 0. 0. 0. 0. 0. 0. 0. 0. 0.
      1.15900107e-01 0. 7.72667378e-02 3.86333689e-02 0. 0.
      7.72667378e-02 0. 3.86333689e-02 0. 0. 0. 3.86333689e-02 0.
      3.86333689e-02 7.72667378e-02 0. 0. 0. 0. 0. 0. 0. 0. 0. 0. 0.
      3.86333689e-02 3.86333689e-02 0. 0. 7.72667378e-02 1.54533476e-01
      0. 7.72667378e-02 3.86333689e-02 0. 0. 0. 0. 0. 0. 0. 0. 0. 0. 0.
      0. 3.86333689e-02 0. 3.86333689e-02 0. 0. 0. 0. 0. 7.72667378e-02
      0. 3.86333689e-02 0. 0. 0. 0. 3.86333689e-02 0. 0. 0. 0. 0. 0. 0.
      0. 0. 0. 0. 0. 0. 0. 7.72667378e-02 0. 0. 0. 0. 0. 0. 0. 0. 0. 0.
      0. 0. 0. 0. 0. 0. 0. 0. 0. 0. 0. 0. 0. 0. 0. 0. 0. 0. 0. 0. 0. 0.
      0. 3.86333689e-02 0. 0. 0. 3.86333689e-02 0. 0. 0. 0. 0. 0. 0. 0.
      0. 0. 3.86333689e-02 1.54533476e-01 0. 0. 3.86333689e-02 0. 0. 0.
      0. 0. 0. 0. 0. 0. 0. 0. 3.86333689e-02 0. 0. 0. 0. 0. 0. 0. 0. 0.
      0. 0. 0. 0. 0. 0. 7.72667378e-02 0. 0. 0. 0. 0. 0. 0. 0. 0. 0. 0.
      0. 0. 0. 0. 0. 0. 0. 0. 0. 0. 0. 0. 0. 0. 0. 0. 0. 0.
      3.86333689e-02 0. 0. 0. 3.86333689e-02 0. 0. 0. 0. 0. 0. 0. 0. 0.
      0. 0. 0. 3.86333689e-02 7.72667378e-02 0. 0. 0. 0. 0. 0. 0. 0. 0.
      0. 0. 0. 0. 3.86333689e-02 0. 3.86333689e-02 7.72667378e-02
      7.72667408e-01 0. 3.86333689e-02 0. 3.86333689e-02 0.
      3.86333689e-02 0. 0. 0. 0. 3.86333689e-02 0. 0. 3.86333689e-02
      3.86333689e-02 1.93166852e-01 0. 3.86333689e-02 0. 0.
      7.72667378e-02 3.86333689e-02 7.72667378e-02 7.72667378e-02 0.
      3.86333689e-02 3.86333689e-02 0. 0. 4.24967051e-01</_>
    <_>
      6.07063532e-01 5.76576352e-01 5.46839654e-01 0. 0. 0. 0. 0. 0. 0.
      0. 0. 0. 0. 0. 0. 0. 0. 0. 0. 0. 0. 0. 0. 0. 0. 0. 0. 0. 0. 0. 0.
      0. 0. 0. 0. 0. 0. 0. 0. 0. 0. 0. 0. 0. 0. 0. 0. 0. 0. 0. 0. 0. 0.
      0. 0. 0. 0. 0. 0. 0. 0. 0. 0. 0. 0. 0. 0. 0. 0. 0. 0. 0. 0. 0. 0.
      0. 0. 0. 0. 0. 0. 0. 0. 0. 0. 0. 0. 0. 5.36490008e-02 0. 0. 0. 0.
      0. 0. 0. 0. 0. 0. 0. 0. 0. 0. 0. 0. 0. 0. 0. 0. 0. 0. 0. 0. 0. 0.
      0. 0. 0. 0. 0. 0. 0. 0. 0. 8.04735050e-02 0. 0. 0. 0. 0.
      3.62130761e-01 9.25445259e-01 0. 0. 0. 0. 0. 0. 0. 0. 0. 0. 0. 0.
      0. 0. 0. 0. 0. 0. 0. 0. 0. 0. 0. 0. 0. 0. 0. 0. 0. 0. 0. 0. 0. 0.
      0. 2.68245004e-02 0. 0. 0. 0. 0. 2.68245004e-02 4.02367525e-02 0.
      0. 0. 0. 0. 0. 0. 0. 0. 0. 0. 0. 0. 0. 0. 0. 0. 0. 0. 0. 0. 0. 0.
      0. 0. 0. 0. 0. 0. 0. 0. 0. 0. 0. 0. 0. 0. 0. 0. 0. 0. 0. 0.
      1.55752242e-01 0. 5.19174114e-02 1.03834823e-01 0. 0.
      5.19174114e-02 0. 1.03834823e-01 0. 5.19174114e-02 0.
      1.03834823e-01 0. 1.03834823e-01 0. 0. 0. 0. 0. 0. 0. 0. 0. 0. 0.
      0. 0. 0. 0. 0. 0. 1.03834823e-01 5.19174114e-02 0. 0. 0. 0. 0. 0.
      0. 0. 0. 0. 5.19174114e-02 0. 0. 5.19174114e-02 5.19174114e-02 0.
      0. 5.19174114e-02 0. 0. 0. 0. 1.55752242e-01 0. 0. 0.
      1.03834823e-01 0. 0. 1.03834823e-01 5.19174114e-02 0. 0.
      5.19174114e-02 5.19174114e-02 0. 0. 0. 0. 0. 0. 0. 0. 0. 0. 0. 0.
      0. 0. 0. 0. 0. 0. 0. 0. 0. 0. 0. 0. 0. 0. 0. 0. 0. 0. 0. 0. 0. 0.
      0. 0. 0. 0. 0. 5.19174114e-02 0. 0. 0. 5.19174114e-02 0.
      5.19174114e-02 0. 0. 0. 0. 0. 0. 0. 0. 0. 0. 0. 5.19174114e-02
      5.19174114e-02 5.19174114e-02 1.03834823e-01 0. 1.03834823e-01 0.
      0. 0. 5.19174114e-02 0. 0. 0. 5.19174114e-02 0. 0. 0.
      5.19174114e-02 5.19174114e-02 0. 0. 0. 0. 0. 0. 0. 0. 0. 0.
      5.19174114e-02 0. 0. 0. 5.19174114e-02 0. 5.19174114e-02 0. 0. 0.
      5.19174114e-02 0. 0. 0. 0. 0. 0. 0. 0. 0. 0. 0. 0. 0. 0. 0. 0. 0.
      0. 0. 0. 0. 5.19174114e-02 0. 0. 0. 5.19174114e-02 0.
      1.55752242e-01 0. 5.19174099e-01 0. 5.19174114e-02 0.
      2.59587049e-01 5.19174114e-02 0. 0. 0. 0. 0. 0. 0. 0. 0. 0. 0. 0.
      0. 0. 5.19174114e-02 0. 0. 0. 5.19174114e-02 0. 0. 5.19174114e-02
      1.55752242e-01 1.55752242e-01 2.07669646e-01 0. 3.11504483e-01 0.
      0. 0. 1.03834823e-01 0. 5.19174114e-02 0. 0. 0. 0. 0.
      5.19174114e-02 1.55752242e-01 0. 0. 3.11504483e-01 0. 0. 0. 0. 0.
      5.19174114e-02 0. 1.03834823e-01 0. 2.07669646e-01 0.
      1.55752242e-01</_>
    <_>
      6.25982583e-01 5.74039459e-01 5.27848959e-01 0. 0. 0. 0. 0. 0. 0.
      0. 0. 0. 0. 0. 0. 0. 0. 0. 0. 0. 0. 0. 0. 0. 0. 0. 0. 0. 0. 0. 0.
      0. 0. 0. 0. 0. 0. 0. 0. 0. 0. 0. 0. 0. 0. 0. 0. 0. 0. 0. 0. 0. 0.
      0. 0. 0. 0. 0. 0. 0. 0. 0. 0. 0. 0. 0. 0. 0. 0. 0. 0. 0. 0. 0. 0.
      0. 0. 0. 0. 0. 0. 0. 0. 0. 0. 0. 0. 0. 0. 0. 0. 0. 0. 0. 0. 0. 0.
      0. 0. 0. 0. 0. 0. 0. 0. 0. 0. 0. 0. 0. 0. 0. 0. 0. 0. 0. 0. 0. 0.
      0. 0. 0. 0. 0. 0. 0. 0. 0. 0. 0. 0. 3.70116606e-02 0. 0. 0. 0. 0.
      0. 0. 0. 0. 0. 0. 0. 0. 0. 0. 0. 0. 0. 0. 0. 0. 0. 0. 0. 0. 0. 0.
      0. 0. 0. 0. 0. 0. 0. 0. 9.99314785e-01 0. 0. 0. 0. 0. 0. 0. 0. 0.
      0. 0. 0. 0. 0. 0. 0. 0. 0. 0. 0. 0. 0. 0. 0. 0. 0. 0. 0. 0. 0. 0.
      0. 0. 0. 0. 0. 0. 0. 0. 0. 0. 0. 0. 0. 0. 0. 0. 0. 0. 0.
      6.04122095e-02 0. 0. 0. 0. 0. 6.04122095e-02 6.04122095e-02
      6.04122095e-02 0. 0. 0. 1.20824419e-01 0. 3.02061051e-01
      3.62473249e-01 0. 0. 0. 6.04122095e-02 0. 0. 0. 0. 0. 0. 0. 0.
      6.04122095e-02 0. 1.81236625e-01 4.83297676e-01 0. 0. 0. 0. 0. 0.
      0. 0. 0. 0. 0. 0. 0. 0. 0. 0. 0. 0. 0. 0. 0. 0. 0. 0.
      6.04122095e-02 6.04122095e-02 0. 0. 6.04122095e-02 0.
      1.20824419e-01 3.02061051e-01 0. 0. 0. 0. 0. 0. 0. 0. 0. 0. 0. 0.
      0. 0. 0. 0. 0. 0. 0. 0. 0. 0. 0. 0. 0. 0. 0. 0. 0. 0. 0. 0. 0. 0.
      0. 0. 0. 0. 0. 0. 0. 0. 0. 0. 0. 0. 0. 0. 6.04122095e-02 0. 0. 0.
      0. 0. 0. 0. 0. 0. 0. 0. 0. 0. 0. 1.20824419e-01 6.04122095e-02 0.
      0. 0. 0. 0. 0. 1.81236625e-01 6.04122095e-02 0. 0. 6.04122095e-02
      0. 0. 0. 2.41648838e-01 0. 0. 0. 0. 0. 0. 0. 0. 0. 0. 0. 0.
      6.04122095e-02 6.04122095e-02 0. 1.20824419e-01 0. 0. 0. 0. 0. 0.
      0. 6.04122095e-02 0. 0. 0. 0. 0. 0. 0. 0. 0. 0. 6.04122095e-02 0.
      0. 0. 0. 0. 6.04122095e-02 0. 0. 0. 0. 0. 1.20824419e-01 0.
      6.04122095e-02 1.20824419e-01 0. 0. 0. 0. 0. 6.04122095e-02 0. 0.
      0. 0. 0. 0. 0. 6.04122095e-02 0. 0. 0. 0. 0. 0. 0. 0. 0. 0. 0. 0.
      0. 0. 0. 0. 6.04122095e-02 0. 0. 6.04122095e-02 0. 0. 0.
      6.04122095e-02 0. 0. 0. 0. 0. 0. 0. 6.04122095e-02 6.04122095e-02
      6.04122095e-02 0. 1.81236625e-01 0. 0. 0. 1.20824419e-01
      6.04122095e-02 0. 0. 0. 0. 0. 0. 3.02061051e-01</_>
    <_>
      5.79047501e-01 5.85513055e-01 5.67343235e-01 0. 0. 0. 0. 0. 0. 0.
      0. 0. 0. 0. 0. 0. 0. 0. 0. 0. 0. 0. 0. 0. 0. 0. 0. 0. 0. 0. 0. 0.
      0. 0. 0. 0. 0. 0. 0. 0. 0. 0. 0. 0. 0. 0. 0. 0. 0. 0. 0. 0. 0. 0.
      0. 0. 0. 0. 0. 0. 0. 0. 0. 0. 0. 0. 0. 0. 0. 0. 0. 0. 0. 0. 0. 0.
      0. 0. 0. 0. 0. 0. 0. 0. 0. 0. 0. 0. 0. 0. 0. 0. 0. 0. 0. 0. 0. 0.
      0. 0. 0. 0. 0. 0. 0. 0. 0. 0. 0. 0. 0. 0. 0. 0. 0. 0. 0. 0. 0. 0.
      0. 0. 0. 0. 0. 0. 0. 0. 0. 0. 0. 0. 0. 0. 0. 0. 0. 0. 0. 0. 0. 0.
      0. 0. 0. 0. 0. 0. 0. 0. 0. 0. 0. 0. 0. 0. 0. 0. 0. 0. 0. 0. 0. 0.
      0. 0. 0. 0. 0. 0. 0. 0. 0. 0. 0. 1. 0. 0. 0. 0. 0. 0. 0. 0. 0. 0.
      0. 0. 0. 0. 0. 0. 0. 0. 0. 0. 0. 0. 0. 0. 0. 0. 0. 0. 0. 0. 0. 0.
      0. 0. 0. 0. 0. 0. 0. 0. 0. 0. 0. 1.03834823e-01 0. 0. 0. 0. 0. 0.
      0. 5.19174114e-02 0. 0. 5.19174114e-02 0. 0. 0. 1.03834823e-01
      1.03834823e-01 0. 0. 0. 0. 0. 0. 0. 5.19174114e-02 0. 0. 0. 0. 0.
      5.19174114e-02 5.19174114e-02 5.19174114e-02 0. 0. 0. 0. 0. 0. 0.
      0. 0. 0. 0. 0. 0. 0. 0. 5.19174114e-02 0. 5.19174114e-02 0. 0. 0.
      0. 0. 0. 5.19174114e-02 0. 0. 1.03834823e-01 5.19174114e-02
      1.03834823e-01 0. 0. 0. 0. 0. 0. 0. 0. 0. 0. 0. 5.19174114e-02 0.
      0. 0. 0. 5.19174114e-02 0. 0. 0. 0. 0. 0. 0. 0. 0. 0. 0. 0.
      5.19174114e-02 0. 0. 5.19174114e-02 0. 0. 0. 0. 0. 0. 0. 0. 0. 0.
      0. 0. 0. 0. 0. 0. 0. 5.19174114e-02 0. 0. 0. 0. 0. 0. 0. 0.
      5.19174114e-02 0. 1.03834823e-01 0. 1.03834823e-01 1.03834823e-01
      1.03834823e-01 0. 0. 5.19174114e-02 0. 0. 0. 0. 0. 0. 0. 0. 0. 0.
      0. 0. 0. 5.19174114e-02 0. 0. 0. 0. 0. 0. 5.19174114e-02 0. 0. 0.
      0. 0. 0. 0. 0. 0. 0. 0. 0. 0. 0. 0. 0. 0. 0. 0. 0. 0. 0. 0. 0.
      5.19174114e-02 0. 0. 0. 0. 0. 5.19174114e-02 5.19174114e-02 0. 0.
      0. 0. 5.19174114e-02 0. 1.55752242e-01 0. 0. 0. 0. 0. 0. 0. 0. 0.
      0. 0. 0. 0. 0. 0. 0. 0. 0. 0. 0. 0. 0. 0. 0. 0. 0. 0. 0. 0. 0.
      5.19174114e-02 1.55752242e-01 5.19174114e-02 1.03834823e-01 0.
      5.19174114e-02 5.19174114e-02 5.19174114e-02 0. 0. 0. 0. 0. 0. 0.
      0. 5.19174114e-02 2.07669646e-01 1.55752242e-01 1.03834823e-01 0.
      1.03834823e-01 0. 5.19174114e-02 0. 1.03834823e-01 5.19174114e-02
      1.03834823e-01 0. 2.59587049e-01 0. 1.03834823e-01 2.07669646e-01
      7.26843774e-01</_>
    <_>
      5.77149987e-01 5.85391462e-01 5.69398642e-01 0. 0. 0. 0. 0. 0. 0.
      0. 0. 0. 0. 0. 0. 0. 0. 0. 0. 0. 0. 0. 0. 0. 0. 0. 0. 0. 0. 0. 0.
      0. 0. 0. 0. 0. 0. 0. 0. 0. 0. 0. 0. 0. 0. 0. 0. 0. 0. 0. 0. 0. 0.
      0. 0. 0. 0. 0. 0. 0. 0. 0. 0. 0. 0. 0. 0. 0. 0. 0. 0. 0. 0. 0. 0.
      0. 0. 0. 0. 0. 0. 0. 0. 0. 0. 0. 0. 0. 1.17785707e-02
      3.53357121e-02 0. 0. 0. 0. 0. 1.17785707e-02 0. 0. 0. 0. 0. 0. 0.
      0. 0. 0. 0. 0. 0. 0. 0. 0. 0. 0. 0. 0. 0. 0. 0. 0. 0. 0. 0. 0. 0.
      0. 0. 0. 0. 0. 0. 3.53357121e-02 1.17785707e-02 0. 0. 0. 0.
      1.17785707e-02 3.53357121e-02 0. 0. 0. 0. 0. 0. 0. 0. 0. 0. 0. 0.
      0. 0. 0. 0. 0. 0. 0. 0. 0. 0. 0. 0. 0. 0. 0. 0. 0. 0. 0. 0. 0. 0.
      1.29564285e-01 9.89399970e-01 0. 0. 0. 0. 0. 0. 0. 0. 0. 0. 0. 0.
      0. 0. 0. 0. 0. 0. 0. 0. 0. 0. 0. 0. 0. 0. 0. 0. 0. 0. 0. 0. 0. 0.
      0. 0. 0. 0. 0. 0. 0. 0. 0. 7.23574609e-02 0. 0. 3.61787304e-02 0.
      0. 0. 0. 1.08536191e-01 3.61787304e-02 0. 0. 3.61787304e-02 0.
      3.61787304e-02 3.61787304e-02 0. 0. 0. 0. 0. 0. 0. 0. 0. 0. 0. 0.
      0. 0. 0. 0. 3.61787304e-02 0. 0. 0. 0. 0. 0. 0. 0. 0. 0. 0. 0. 0.
      0. 0. 0. 0. 0. 0. 0. 0. 0. 0. 0. 3.61787304e-02 0. 3.61787304e-02
      0. 0. 3.61787304e-02 3.61787304e-02 3.61787304e-02 0. 0. 0. 0. 0.
      0. 0. 3.61787304e-02 0. 0. 0. 0. 0. 0. 0. 0. 0. 0. 0. 0. 0. 0. 0.
      0. 0. 0. 0. 0. 0. 0. 0. 3.61787304e-02 0. 0. 0. 0. 0. 0.
      3.61787304e-02 0. 3.61787304e-02 0. 0. 0. 0. 3.61787304e-02 0. 0.
      0. 0. 0. 0. 0. 0. 0. 0. 0. 0. 0. 0. 0. 3.61787304e-02
      3.61787304e-02 2.17072383e-01 0. 0. 1.08536191e-01 0. 0. 0. 0.
      3.61787304e-02 0. 0. 0. 0. 0. 0. 0. 7.23574609e-02 0. 0. 0. 0. 0.
      0. 0. 0. 0. 0. 0. 0. 0. 3.61787304e-02 0. 0. 0. 0. 0. 0. 0. 0. 0.
      0. 0. 0. 0. 0. 0. 0. 0. 3.61787304e-02 0. 0. 0. 0. 0. 0. 0. 0. 0.
      0. 0. 0. 0. 0. 3.61787304e-02 0. 3.61787304e-02 0. 7.23574609e-02
      3.61787304e-02 0. 0. 3.61787304e-02 0. 0. 0. 0. 0. 0. 0.
      3.61787304e-02 0. 0. 0. 0. 0. 0. 0. 0. 0. 0. 0. 0. 0. 0. 0. 0. 0.
      7.23574609e-02 3.61787304e-02 1.80893660e-01 0. 0. 0.
      1.44714922e-01 3.61787304e-02 0. 0. 7.23574609e-02 0. 0. 0.
      1.08536191e-01 4.34144765e-01 0. 3.61787304e-02 3.61787304e-02 0.
      0. 0. 1.08536191e-01 3.61787304e-02 3.61787304e-02 0.
      1.08536191e-01 7.23574609e-02 0. 3.61787304e-02 7.59753346e-01</_>
    <_>
      6.17420793e-01 5.76960564e-01 5.34703791e-01 0. 0. 0. 0. 0. 0. 0.
      0. 0. 0. 0. 0. 0. 0. 0. 0. 0. 0. 0. 0. 0. 0. 0. 0. 0. 0. 0. 0. 0.
      0. 0. 0. 0. 0. 0. 0. 0. 0. 0. 0. 0. 0. 0. 0. 0. 0. 0. 0. 0. 0. 0.
      0. 0. 0. 0. 0. 0. 0. 0. 0. 0. 0. 0. 0. 0. 0. 0. 0. 0. 0. 0. 0. 0.
      0. 0. 0. 0. 0. 0. 0. 0. 0. 0. 0. 0. 0. 2.73715928e-02 0. 0. 0. 0.
      0. 0. 0. 0. 0. 0. 0. 0. 0. 0. 0. 0. 0. 0. 0. 0. 0. 0. 0. 0. 0. 0.
      0. 0. 0. 0. 0. 0. 0. 0. 0. 1.09486371e-01 1.36857964e-02 0. 0. 0.
      0. 8.62205148e-01 4.92688656e-01 0. 0. 0. 0. 0. 0. 0. 0. 0. 0. 0.
      0. 0. 0. 0. 0. 0. 0. 0. 0. 0. 0. 0. 0. 0. 0. 0. 0. 0. 0. 0. 0. 0.
      0. 0. 2.73715928e-02 0. 0. 0. 0. 0. 1.36857964e-02 0. 0. 0. 0. 0.
      0. 0. 0. 0. 0. 0. 0. 0. 0. 0. 0. 0. 0. 0. 0. 0. 0. 0. 0. 0. 0. 0.
      0. 0. 0. 0. 0. 0. 0. 0. 0. 0. 0. 0. 0. 0. 0. 0. 0. 2.38095239e-01
      0. 0. 0. 4.76190485e-02 0. 4.76190485e-02 0. 0. 0. 0. 0.
      4.76190485e-02 0. 0. 0. 0. 0. 0. 0. 0. 0. 0. 0. 0. 0. 0. 0.
      4.76190485e-02 0. 0. 9.52380970e-02 4.76190485e-02 0. 0. 0. 0. 0.
      0. 4.76190485e-02 4.76190485e-02 0. 0. 0. 0. 0. 0. 0.
      4.76190485e-02 0. 0. 0. 0. 0. 0. 0. 9.52380970e-02 0.
      4.76190485e-02 0. 1.42857149e-01 0. 4.76190485e-02 0. 0. 0. 0. 0.
      0. 0. 0. 0. 4.76190485e-02 0. 0. 0. 0. 0. 0. 0. 0. 0. 0. 0. 0. 0.
      0. 0. 0. 0. 0. 0. 0. 0. 0. 0. 9.52380970e-02 0. 0. 0. 0. 0. 0. 0.
      0. 0. 0. 0. 0. 0. 0. 0. 0. 0. 0. 0. 0. 0. 0. 4.76190485e-02 0.
      4.76190485e-02 0. 0. 0. 0. 0. 0. 1.90476194e-01 4.76190485e-02 0.
      1.42857149e-01 0. 0. 0. 4.76190485e-02 1.42857149e-01 0. 0.
      4.76190485e-02 0. 0. 0. 0. 0. 0. 0. 0. 0. 0. 0. 0. 0.
      4.76190485e-02 0. 0. 0. 0. 0. 0. 0. 0. 0. 0. 0. 0. 0. 0. 0. 0. 0.
      0. 0. 0. 0. 0. 0. 0. 0. 4.76190485e-02 0. 0. 0. 0. 0. 0. 0. 0. 0.
      0. 0. 4.76190485e-02 4.76190485e-02 2.38095239e-01 0.
      2.38095239e-01 0. 0. 0. 2.85714298e-01 0. 0. 0. 4.76190485e-02
      4.76190485e-02 0. 0. 4.76190485e-02 0. 0. 0. 0. 0. 0. 0. 0. 0. 0.
      0. 0. 0. 4.76190485e-02 4.76190485e-02 4.76190485e-02
      1.42857149e-01 1.42857149e-01 4.76190485e-02 4.76190478e-01 0. 0.
      0. 1.90476194e-01 0. 0. 0. 0. 0. 0. 0. 9.52380970e-02 0.
      4.76190485e-02 0. 2.38095239e-01 0. 4.76190485e-02 0.
      9.52380970e-02 0. 4.76190485e-02 0. 1.42857149e-01 4.76190485e-02
      9.52380970e-02 0. 3.80952388e-01</_>
    <_>
      6.21649802e-01 5.75017750e-01 5.31889200e-01 0. 0. 0. 0. 0. 0. 0.
      0. 0. 0. 0. 0. 0. 0. 0. 0. 0. 0. 0. 0. 0. 0. 0. 0. 0. 0. 0. 0. 0.
      0. 0. 0. 0. 0. 0. 0. 0. 0. 0. 0. 0. 0. 0. 0. 0. 0. 0. 0. 0. 0. 0.
      0. 0. 0. 0. 0. 0. 0. 0. 0. 0. 0. 0. 0. 0. 0. 0. 0. 0. 0. 0. 0. 0.
      0. 0. 0. 0. 0. 0. 0. 0. 0. 0. 0. 0. 0. 0. 0. 0. 0. 0. 0. 0. 0. 0.
      0. 0. 0. 0. 0. 0. 0. 0. 0. 0. 0. 0. 0. 0. 0. 0. 0. 0. 0. 0. 0. 0.
      0. 0. 0. 0. 0. 0. 0. 0. 0. 0. 0. 0. 1.83324311e-02 0. 0. 0. 0. 0.
      0. 0. 0. 0. 0. 0. 0. 0. 0. 0. 0. 0. 0. 0. 0. 0. 0. 0. 0. 0. 0. 0.
      0. 0. 0. 0. 0. 0. 0. 0. 9.99117434e-01 0. 0. 0. 0. 0.
      3.66648622e-02 9.16621555e-03 0. 0. 0. 0. 0. 0. 0. 0. 0. 0. 0. 0.
      0. 0. 0. 0. 0. 0. 0. 0. 0. 0. 0. 0. 0. 0. 0. 0. 0. 0. 0. 0. 0. 0.
      0. 0. 0. 0. 0. 0. 0. 0. 0. 3.58057432e-02 0. 0. 0. 0. 0.
      3.58057432e-02 0. 7.16114864e-02 0. 0. 0. 0. 0. 3.58057432e-02 0.
      0. 0. 0. 0. 0. 0. 0. 0. 0. 0. 0. 0. 0. 0. 0. 0. 3.58057432e-02 0.
      0. 0. 0. 0. 0. 0. 0. 0. 3.58057432e-02 0. 0. 0. 0. 0.
      7.16114864e-02 0. 0. 0. 0. 0. 0. 0. 0. 0. 3.58057432e-02 0. 0. 0.
      7.16114864e-02 1.07417226e-01 0. 3.58057432e-02 0. 0. 0. 0. 0. 0.
      0. 0. 0. 3.58057432e-02 0. 0. 0. 0. 0. 0. 0. 0. 0. 0. 0. 0. 0. 0.
      0. 0. 0. 0. 0. 0. 0. 0. 0. 0. 0. 0. 0. 0. 0. 0. 0. 0. 0. 0. 0. 0.
      0. 0. 0. 3.58057432e-02 0. 0. 0. 0. 0. 0. 0. 0. 3.58057432e-02 0.
      1.07417226e-01 0. 3.58057432e-02 3.58057432e-02 0. 1.79028720e-01
      0. 3.58057432e-02 3.58057432e-02 2.14834452e-01 3.58057432e-02
      3.58057432e-02 3.58057432e-02 3.58057432e-02 7.16114864e-02 0.
      3.58057432e-02 2.86445946e-01 0. 0. 0. 0. 0. 0. 0. 0.
      3.58057432e-02 0. 0. 3.58057432e-02 0. 0. 0. 1.07417226e-01 0. 0.
      0. 0. 0. 0. 0. 3.58057432e-02 0. 0. 0. 0. 0. 0. 0. 0. 0. 0. 0.
      3.58057432e-02 0. 0. 0. 0. 0. 3.58057432e-02 0. 0. 3.58057432e-02
      0. 0. 3.58057432e-02 0. 3.58057432e-02 0. 1.07417226e-01 0. 0. 0.
      3.22251678e-01 0. 3.58057432e-02 0. 0. 0. 0. 0. 3.58057432e-02 0.
      0. 0. 0. 0. 0. 0. 0. 0. 0. 0. 0. 0. 0. 0. 7.16114864e-02 0. 0. 0.
      1.07417226e-01 0. 0. 0. 1.79028720e-01 0. 0. 0. 0. 0. 0. 0.
      3.58057432e-02 3.58057432e-02 0. 0. 1.07417226e-01 0. 0. 0. 0.
      3.58057432e-02 0. 0. 0. 3.58057432e-02 3.58057432e-02 0.
      7.51920581e-01</_>
    <_>
      6.23896837e-01 5.75333953e-01 5.28907895e-01 0. 0. 0. 0. 0. 0. 0.
      0. 0. 0. 0. 0. 0. 0. 0. 0. 0. 0. 0. 0. 0. 0. 0. 0. 0. 0. 0. 0. 0.
      0. 0. 0. 0. 0. 0. 0. 0. 0. 0. 0. 0. 0. 0. 0. 0. 0. 0. 0. 0. 0. 0.
      0. 0. 0. 0. 0. 0. 0. 0. 0. 0. 0. 0. 0. 0. 0. 0. 0. 0. 0. 0. 0. 0.
      0. 0. 0. 0. 0. 0. 0. 0. 0. 0. 0. 0. 0. 0. 0. 0. 0. 0. 0. 0. 0. 0.
      0. 0. 0. 0. 0. 0. 0. 0. 0. 0. 0. 0. 0. 0. 0. 0. 0. 0. 0. 0. 0. 0.
      0. 0. 0. 0. 0. 0. 0. 0. 0. 0. 0. 0. 0. 0. 0. 0. 0. 0. 0. 0. 0. 0.
      0. 0. 0. 0. 0. 0. 0. 0. 0. 0. 0. 0. 0. 0. 0. 0. 0. 0. 0. 0. 0. 0.
      0. 0. 0. 0. 1. 0. 0. 0. 0. 0. 0. 0. 0. 0. 0. 0. 0. 0. 0. 0. 0. 0.
      0. 0. 0. 0. 0. 0. 0. 0. 0. 0. 0. 0. 0. 0. 0. 0. 0. 0. 0. 0. 0. 0.
      0. 0. 0. 0. 0. 0. 0. 0. 0. 0. 0. 6.28694594e-02 0. 0. 0. 0. 0. 0.
      0. 1.25738919e-01 0. 0. 0. 0. 0. 1.25738919e-01 1.25738919e-01 0.
      0. 0. 0. 0. 0. 0. 0. 6.28694594e-02 0. 0. 0. 0. 0. 6.28694594e-02
      1.88608378e-01 0. 0. 0. 0. 0. 0. 0. 0. 0. 0. 0. 0. 0. 0. 0. 0.
      6.28694594e-02 0. 0. 6.28694594e-02 0. 0. 0. 0. 6.28694594e-02 0.
      0. 0. 0. 0. 1.25738919e-01 1.88608378e-01 0. 0. 0. 0. 0. 0. 0. 0.
      0. 0. 0. 0. 0. 0. 0. 0. 0. 0. 0. 0. 0. 0. 0. 0. 0. 0. 0. 0. 0. 0.
      0. 0. 6.28694594e-02 0. 0. 0. 0. 0. 0. 0. 0. 0. 0. 0. 0. 0.
      6.28694594e-02 0. 6.28694594e-02 0. 0. 0. 0. 0. 0. 0.
      1.88608378e-01 0. 0. 0. 0. 0. 0. 6.28694594e-02 6.28694594e-02
      6.28694594e-02 0. 2.51477838e-01 0. 0. 0. 1.25738919e-01
      1.25738919e-01 0. 0. 0. 0. 0. 0. 1.25738919e-01 0. 0. 0. 0. 0. 0.
      0. 0. 0. 0. 0. 0. 6.28694594e-02 0. 0. 1.25738919e-01 0. 0. 0. 0.
      0. 0. 0. 6.28694594e-02 0. 0. 0. 0. 0. 0. 0. 0. 0. 0. 0. 0. 0. 0.
      0. 0. 0. 0. 0. 0. 0. 0. 0. 6.28694594e-02 0. 0. 0. 6.28694594e-02
      0. 0. 6.28694594e-02 2.51477838e-01 0. 0. 0. 0. 0. 0. 0.
      6.28694594e-02 0. 0. 0. 0. 0. 0. 0. 0. 0. 0. 0. 0. 0. 0.
      6.28694594e-02 6.28694594e-02 1.25738919e-01 1.25738919e-01 0.
      6.28694594e-02 0. 0. 0. 2.51477838e-01 0. 0. 0. 0. 0.
      1.25738919e-01 0. 1.25738919e-01 6.28694594e-02 2.51477838e-01 0.
      1.25738919e-01 0. 0. 0. 1.88608378e-01 1.88608378e-01
      6.28694594e-02 0. 6.28694594e-02 0. 1.25738919e-01 0.
      5.02955675e-01</_>
    <_>
      6.18749559e-01 5.74339747e-01 5.35987675e-01 0. 0. 0. 0. 0. 0. 0.
      0. 0. 0. 0. 0. 0. 0. 0. 0. 0. 0. 0. 0. 0. 0. 0. 0. 0. 0. 0. 0. 0.
      0. 0. 0. 0. 0. 0. 0. 0. 0. 0. 0. 0. 0. 0. 0. 0. 0. 0. 0. 0. 0. 0.
      0. 0. 0. 0. 0. 0. 0. 0. 0. 0. 0. 0. 0. 0. 0. 0. 0. 0. 0. 0. 0. 0.
      0. 0. 0. 0. 0. 0. 0. 0. 0. 0. 0. 0. 0. 0. 0. 0. 0. 0. 0. 0. 0. 0.
      0. 0. 0. 0. 0. 0. 0. 0. 0. 0. 0. 0. 0. 0. 0. 0. 0. 0. 0. 0. 0. 0.
      0. 0. 0. 0. 0. 0. 0. 0. 0. 0. 0. 0. 2.38027778e-02 0. 0. 0. 0. 0.
      0. 0. 0. 0. 0. 0. 0. 0. 0. 0. 0. 0. 0. 0. 0. 0. 0. 0. 0. 0. 0. 0.
      0. 0. 0. 0. 0. 0. 0. 0. 9.99716640e-01 0. 0. 0. 0. 0. 0. 0. 0. 0.
      0. 0. 0. 0. 0. 0. 0. 0. 0. 0. 0. 0. 0. 0. 0. 0. 0. 0. 0. 0. 0. 0.
      0. 0. 0. 0. 0. 0. 0. 0. 0. 0. 0. 0. 0. 0. 0. 0. 0. 0. 0.
      1.28564864e-01 0. 0. 0. 0. 0. 0. 0. 6.42824322e-02 0.
      6.42824322e-02 0. 6.42824322e-02 0. 6.42824322e-02 0. 0. 0. 0. 0.
      0. 0. 0. 0. 6.42824322e-02 0. 0. 0. 0. 0. 1.28564864e-01 0.
      6.42824322e-02 0. 0. 0. 0. 0. 0. 0. 0. 0. 0. 0. 0. 0. 0. 0.
      6.42824322e-02 0. 6.42824322e-02 0. 0. 0. 0. 0. 3.21412146e-01
      6.42824322e-02 0. 0. 6.42824322e-02 0. 1.28564864e-01
      6.42824322e-02 0. 0. 0. 0. 0. 0. 0. 0. 0. 0. 0. 0. 0. 0. 0. 0. 0.
      0. 0. 0. 0. 0. 0. 0. 0. 0. 0. 0. 0. 0. 0. 0. 0. 0. 0. 0. 0. 0.
      6.42824322e-02 0. 0. 0. 0. 0. 0. 0. 0. 0. 1.28564864e-01 0. 0. 0.
      0. 0. 0. 0. 2.57129729e-01 0. 0. 0. 3.21412146e-01 6.42824322e-02
      1.92847297e-01 6.42824322e-02 0. 0. 0. 0. 0. 0. 0. 0. 0. 0. 0. 0.
      6.42824322e-02 6.42824322e-02 0. 0. 0. 6.42824322e-02 0. 0. 0. 0.
      0. 0. 0. 0. 0. 0. 0. 0. 6.42824322e-02 6.42824322e-02 0. 0. 0. 0.
      0. 0. 0. 0. 0. 0. 0. 0. 0. 0. 0. 0. 6.42824322e-02 0. 0. 0. 0. 0.
      0. 0. 0. 0. 0. 0. 0. 0. 0. 1.92847297e-01 0. 0. 0. 0. 0. 0. 0. 0.
      0. 0. 0. 0. 0. 0. 0. 1.28564864e-01 0. 0. 0. 6.42824322e-02 0. 0.
      0. 0. 0. 0. 0. 0. 0. 0. 0. 6.42824322e-02 1.92847297e-01 0. 0.
      6.42824322e-02 6.42824322e-02 0. 0. 1.28564864e-01 0. 0. 0. 0. 0.
      0. 1.28564864e-01 6.42824322e-02 0. 6.42824322e-02 0.
      1.28564864e-01 0. 0. 0. 0. 3.21412146e-01 1.28564864e-01
      6.42824322e-02 0. 2.57129729e-01 0. 1.92847297e-01 3.85694593e-01</_>
    <_>
      5.33420920e-01 6.08113885e-01 5.87928295e-01 0. 0. 0. 0. 0. 0. 0.
      0. 0. 0. 0. 0. 0. 0. 0. 0. 0. 0. 0. 0. 0. 0. 0. 0. 0. 0. 0. 0. 0.
      0. 0. 0. 0. 0. 0. 0. 0. 0. 0. 0. 0. 0. 0. 3.20914298e-01 0. 0. 0.
      0. 0. 1.72799990e-01 4.69028562e-01 0. 0. 0. 0. 0. 0. 0. 0. 0. 0.
      0. 0. 0. 0. 0. 0. 0. 0. 0. 0. 0. 0. 0. 0. 0. 0. 0. 0. 0. 0. 0. 0.
      0. 0. 0. 7.40571439e-01 0. 0. 0. 0. 0. 9.87428576e-02
      2.71542847e-01 0. 0. 0. 0. 0. 0. 0. 0. 0. 0. 0. 0. 0. 0. 0. 0. 0.
      0. 0. 0. 0. 0. 0. 0. 0. 0. 0. 0. 0. 0. 0. 0. 0. 0. 0.
      1.23428568e-01 0. 0. 0. 0. 0. 0. 0. 0. 0. 0. 0. 0. 0. 0. 0. 0. 0.
      0. 0. 0. 0. 0. 0. 0. 0. 0. 0. 0. 0. 0. 0. 0. 0. 0. 0. 0. 0. 0. 0.
      0. 0. 0. 0. 0. 0. 0. 0. 0. 0. 0. 0. 0. 0. 0. 0. 0. 0. 0. 0. 0. 0.
      0. 0. 0. 0. 0. 0. 0. 0. 0. 0. 0. 0. 0. 0. 0. 0. 0. 0. 0. 0. 0. 0.
      0. 0. 0. 3.48578095e-02 3.48578095e-02 0. 3.48578095e-02
      1.04573429e-01 3.48578095e-02 6.97156191e-02 3.48578095e-02 0. 0.
      0. 0. 3.48578095e-02 0. 6.97156191e-02 3.48578095e-02 0. 0. 0. 0.
      0. 0. 0. 0. 0. 0. 0. 0. 3.48578095e-02 0. 0. 0. 0. 0. 0. 0. 0. 0.
      0. 0. 0. 0. 0. 0. 3.48578095e-02 0. 0. 0. 0. 0. 0. 0. 0. 0. 0. 0.
      6.97156191e-02 0. 0. 0. 0. 3.48578095e-02 0. 3.48578095e-02 0. 0.
      0. 0. 0. 0. 0. 3.48578095e-02 0. 0. 0. 0. 0. 0. 0. 0. 0. 0. 0. 0.
      0. 0. 0. 0. 0. 0. 0. 0. 0. 0. 0. 0. 0. 0. 0. 0. 0. 0. 0. 0. 0. 0.
      0. 0. 3.48578095e-02 0. 0. 0. 0. 3.48578095e-02 0. 0. 0. 0. 0. 0.
      0. 0. 0. 3.48578095e-02 3.48578095e-02 0. 0. 0. 0. 0.
      3.48578095e-02 2.09146857e-01 0. 3.48578095e-02 0. 9.06303048e-01
      0. 3.48578095e-02 0. 0. 3.48578095e-02 0. 0. 0. 0. 0. 0.
      3.48578095e-02 0. 0. 0. 3.48578095e-02 0. 0. 0. 0. 0. 0. 0.
      1.04573429e-01 0. 0. 0. 0. 0. 0. 0. 0. 0. 0. 3.48578095e-02 0. 0.
      0. 0. 0. 0. 0. 0. 0. 0. 0. 0. 0. 0. 0. 0. 0. 0. 0. 0.
      1.04573429e-01 3.48578095e-02 0. 0. 3.48578095e-02 0. 0. 0.
      1.74289048e-01 0. 0. 0. 0. 0. 0. 0. 6.97156191e-02 0. 0. 0. 0. 0.
      0. 0. 3.48578095e-02 0. 0. 0. 0. 0. 0. 0. 3.48578095e-02 0. 0. 0.
      0. 0. 0. 0. 0. 0. 0. 0. 0. 0. 0. 0. 6.97156191e-02 3.48578095e-02
      3.48578095e-02 0. 0. 0. 0. 0. 3.48578095e-02 0. 0. 0. 0. 0. 0. 0.
      1.04573429e-01</_>
    <_>
      1.71343908e-01 4.37066108e-01 8.82957816e-01 0. 0. 0. 0. 0. 0. 0.
      0. 4.55768913e-01 8.70104313e-01 1.24300614e-01 0. 0. 0. 0.
      4.14335392e-02 4.14335392e-02 0. 0. 0. 0. 0. 0. 0. 0. 0. 0. 0. 0.
      0. 0. 0. 0. 0. 0. 0. 0. 0. 0. 0. 0. 0. 0. 1.24300614e-01
      2.07167696e-02 2.07167696e-02 0. 0. 0. 0. 0. 0. 0. 0. 0. 0. 0. 0.
      0. 0. 0. 0. 0. 0. 0. 0. 0. 0. 0. 0. 0. 0. 0. 0. 0. 0. 0. 0. 0. 0.
      0. 0. 0. 0. 0. 0. 0. 0. 0. 0. 0. 0. 0. 0. 0. 0. 0. 0. 0. 0. 0. 0.
      0. 0. 0. 0. 0. 0. 0. 0. 0. 0. 0. 0. 0. 0. 0. 0. 0. 0. 0. 0. 0. 0.
      0. 0. 0. 0. 0. 0. 0. 0. 0. 0. 0. 0. 0. 0. 0. 0. 0. 0. 0. 0. 0. 0.
      0. 0. 0. 0. 0. 0. 0. 0. 0. 0. 0. 0. 0. 0. 0. 0. 0. 0. 0. 0. 0. 0.
      0. 0. 0. 0. 0. 0. 0. 0. 0. 0. 0. 0. 0. 0. 0. 0. 0. 0. 0. 0. 0. 0.
      0. 0. 0. 0. 0. 0. 0. 0. 0. 0. 0. 0. 0. 0. 0. 0. 0. 0. 0. 0. 0. 0.
      0. 0. 0. 0. 0. 0. 0. 0. 0. 0. 0. 0. 0. 0. 0. 0. 0. 0. 0. 0. 0. 0.
      0. 0. 0. 0. 0. 0. 0. 0. 0. 0. 0. 0. 7.70371184e-02 0.
      7.70371184e-02 0. 0. 0. 0. 0. 0. 0. 0. 0. 0. 0. 0. 0. 0. 0.
      3.85185592e-02 0. 0. 0. 0. 0. 0. 0. 5.00741243e-01 0. 0. 0.
      4.23704147e-01 0. 0. 0. 0. 0. 0. 0. 0. 0. 0. 0. 0. 0. 0. 0. 0. 0.
      0. 0. 0. 0. 0. 0. 0. 0. 0. 0. 0. 0. 0. 0. 0. 0. 0. 0.
      7.70371184e-02 0. 0. 0. 0. 0. 0. 0. 0. 0. 0. 0. 0. 0. 0. 0.
      3.85185592e-02 0. 0. 0. 0. 0. 0. 0. 3.46667022e-01 0. 0. 0.
      5.00741243e-01 0. 0. 0. 0. 0. 0. 0. 0. 0. 0. 0. 0. 0. 0. 0. 0. 0.
      0. 0. 0. 0. 0. 0. 0. 0. 0. 0. 0. 0. 0. 0. 0. 0. 0. 0. 0. 0. 0. 0.
      0. 0. 0. 0. 0. 0. 0. 0. 0. 0. 0. 0. 0. 0. 0. 0. 0. 0. 0. 0. 0. 0.
      0. 0. 0. 0. 0. 0. 0. 0. 0. 0. 0. 0. 0. 0. 0. 0. 0. 0. 0. 0. 0. 0.
      0. 0. 0. 0. 0. 0. 0. 0. 0. 0. 0. 0. 0. 0. 0. 3.85185592e-02
      7.70371184e-02 3.08148474e-01 0. 0. 0. 3.85185592e-02 0. 0. 0. 0.
      0. 0. 0. 3.85185592e-02 0. 3.85185592e-02 2.31111348e-01 0. 0. 0.
      0. 3.85185592e-02 0. 0. 7.70371184e-02 0. 0. 0. 3.85185592e-02
      7.70371184e-02 3.85185592e-02 3.85185592e-02</_>
    <_>
      5.97237051e-01 5.71824610e-01 5.62427282e-01 0. 0. 0. 0. 0. 0. 0.
      0. 0. 0. 0. 0. 0. 0. 0. 0. 0. 0. 0. 0. 0. 0. 0. 0. 0. 0. 0. 0. 0.
      0. 0. 0. 0. 0. 0. 0. 0. 0. 0. 0. 0. 0. 0. 0. 0. 0. 0. 0. 0. 0. 0.
      0. 0. 0. 0. 0. 0. 0. 0. 0. 0. 0. 0. 0. 0. 0. 0. 0. 0. 0. 0. 0. 0.
      0. 0. 0. 0. 0. 0. 0. 0. 0. 0. 0. 0. 0. 8.71670902e-01
      1.42313614e-01 1.77892018e-02 0. 0. 0. 0. 0. 0. 0. 0. 0. 0. 0. 0.
      0. 0. 0. 0. 0. 0. 0. 0. 0. 0. 0. 0. 0. 0. 0. 0. 0. 0. 0. 0. 0.
      2.84627229e-01 3.55784036e-02 0. 0. 0. 0. 2.13470414e-01
      3.02416414e-01 0. 0. 0. 0. 0. 0. 0. 0. 0. 0. 0. 0. 0. 0. 0. 0. 0.
      0. 0. 0. 0. 0. 0. 0. 0. 0. 0. 0. 0. 0. 0. 0. 0. 0. 0.
      1.77892018e-02 0. 0. 0. 0. 0. 0. 0. 0. 0. 0. 0. 0. 0. 0. 0. 0. 0.
      0. 0. 0. 0. 0. 0. 0. 0. 0. 0. 0. 0. 0. 0. 0. 0. 0. 0. 0. 0. 0. 0.
      0. 0. 0. 0. 0. 0. 0. 0. 0. 0. 0. 2.20192760e-01 5.50481901e-02 0.
      0. 1.10096380e-01 0. 0. 0. 5.50481901e-02 5.50481901e-02 0. 0.
      1.65144563e-01 0. 1.10096380e-01 5.50481901e-02 0. 0. 0. 0. 0. 0.
      0. 0. 1.10096380e-01 0. 0. 0. 5.50481901e-02 0. 5.50481901e-02
      1.10096380e-01 2.20192760e-01 0. 0. 0. 5.50481901e-02 0. 0. 0.
      5.50481901e-02 0. 0. 0. 0. 0. 0. 0. 5.50481901e-02 0. 0. 0. 0. 0.
      0. 5.50481901e-02 5.50481901e-02 0. 0. 0. 2.20192760e-01
      5.50481901e-02 0. 0. 5.50481901e-02 0. 5.50481901e-02 0. 0.
      5.50481901e-02 0. 0. 5.50481901e-02 0. 0. 0. 5.50481901e-02 0. 0.
      0. 0. 5.50481901e-02 0. 0. 0. 0. 0. 0. 0. 5.50481901e-02 0. 0. 0.
      0. 0. 0. 0. 0. 5.50481901e-02 0. 0. 0. 0. 0. 0. 0. 0. 0. 0. 0.
      5.50481901e-02 0. 0. 0. 0. 0. 0. 0. 0. 0. 1.10096380e-01 0. 0. 0.
      0. 0. 1.10096380e-01 1.10096380e-01 1.10096380e-01 5.50481901e-02
      0. 5.50481901e-02 0. 0. 1.10096380e-01 0. 0. 0. 0. 0. 0. 0. 0.
      5.50481901e-02 0. 5.50481901e-02 0. 0. 0. 0. 0. 0. 0.
      5.50481901e-02 0. 0. 0. 0. 0. 0. 5.50481901e-02 5.50481901e-02 0.
      0. 0. 0. 0. 0. 0. 0. 0. 0. 0. 0. 0. 0. 0. 0. 0. 0. 0. 0. 0. 0. 0.
      0. 0. 0. 0. 0. 0. 0. 0. 5.50481901e-02 0. 5.50481901e-02 0. 0. 0.
      5.50481901e-02 0. 0. 0. 0. 0. 0. 0. 0. 0. 0. 0. 0. 0. 0.
      5.50481901e-02 5.50481901e-02 0. 0. 0. 0. 5.50481901e-02 0. 0. 0.
      5.50481901e-02 1.10096380e-01 1.10096380e-01 0. 0. 0. 0. 0. 0. 0.
      5.50481901e-02 1.10096380e-01 0. 0. 0. 5.50481901e-02
      5.50481901e-02 0. 0. 2.20192760e-01 0. 0. 0. 1.65144563e-01
      1.10096380e-01 1.10096380e-01 0. 1.10096380e-01 5.50481901e-02
      1.10096380e-01 5.50481901e-02 6.60578251e-01</_>
    <_>
      6.22216642e-01 5.72627902e-01 5.33801198e-01 0. 0. 0. 0. 0. 0. 0.
      0. 0. 0. 0. 0. 0. 0. 0. 0. 0. 0. 0. 0. 0. 0. 0. 0. 0. 0. 0. 0. 0.
      0. 0. 0. 0. 0. 0. 0. 0. 0. 0. 0. 0. 0. 0. 0. 0. 0. 0. 0. 0. 0. 0.
      0. 0. 0. 0. 0. 0. 0. 0. 0. 0. 0. 0. 0. 0. 0. 0. 0. 0. 0. 0. 0. 0.
      0. 0. 0. 0. 0. 0. 0. 0. 0. 0. 0. 0. 0. 0. 0. 0. 0. 0. 0. 0. 0. 0.
      0. 0. 0. 0. 0. 0. 0. 0. 0. 0. 0. 0. 0. 0. 0. 0. 0. 0. 0. 0. 0. 0.
      0. 0. 0. 0. 0. 0. 0. 0. 0. 0. 0. 0. 1.58465892e-01 0. 0. 0. 0. 0.
      0. 0. 0. 0. 0. 0. 0. 0. 0. 0. 0. 0. 0. 0. 0. 0. 0. 0. 0. 0. 0. 0.
      0. 0. 0. 0. 0. 0. 0. 0. 9.87364411e-01 0. 0. 0. 0. 0. 0. 0. 0. 0.
      0. 0. 0. 0. 0. 0. 0. 0. 0. 0. 0. 0. 0. 0. 0. 0. 0. 0. 0. 0. 0. 0.
      0. 0. 0. 0. 0. 0. 0. 0. 0. 0. 0. 0. 0. 0. 0. 0. 0. 0. 0.
      1.82195008e-01 0. 0. 0. 0. 0. 0. 0. 9.10975039e-02 0. 0.
      4.55487520e-02 4.55487520e-02 0. 4.55487520e-02 0. 4.55487520e-02
      0. 4.55487520e-02 0. 0. 0. 0. 0. 9.10975039e-02 0. 0. 0. 0. 0. 0.
      0. 4.55487520e-02 0. 0. 0. 0. 0. 0. 0. 0. 0. 0. 0. 0. 0. 0. 0. 0.
      0. 0. 0. 0. 0. 0. 0. 9.10975039e-02 0. 0. 0. 0. 0. 9.10975039e-02
      0. 0. 0. 0. 0. 0. 0. 0. 0. 4.55487520e-02 0. 0. 0. 0. 0. 0.
      4.55487520e-02 0. 0. 0. 0. 0. 0. 0. 0. 0. 0. 0. 0. 0. 0. 0. 0.
      4.55487520e-02 0. 0. 0. 0. 0. 0. 0. 9.10975039e-02 0. 0. 0. 0. 0.
      0. 0. 0. 0. 0. 0. 0. 0. 0. 0. 1.82195008e-01 9.10975039e-02 0.
      4.55487520e-02 0. 0. 0. 2.27743760e-01 9.10975039e-02 0. 0.
      1.36646256e-01 0. 0. 9.10975039e-02 9.10975039e-02 9.10975039e-02
      0. 0. 0. 0. 0. 0. 0. 0. 0. 0. 0. 0. 0. 0. 0. 4.55487520e-02
      4.55487520e-02 0. 0. 0. 0. 0. 4.55487520e-02 0. 0. 0. 0. 0. 0. 0.
      0. 0. 0. 0. 0. 0. 0. 0. 0. 0. 0. 0. 0. 0. 0. 0. 4.55487520e-02 0.
      4.55487520e-02 0. 0. 4.55487520e-02 0. 0. 4.55487520e-02
      4.55487520e-02 0. 0. 4.55487520e-02 0. 0. 0. 0. 4.55487520e-02 0.
      0. 0. 4.55487520e-02 0. 0. 9.10975039e-02 0. 0. 0. 0. 0. 0. 0. 0.
      0. 0. 0. 0. 0. 4.55487520e-02 0. 0. 9.10975039e-02 0. 0. 0. 0. 0.
      0. 4.55487520e-02 0. 0. 0. 0. 4.55487520e-02 0. 0. 0.
      4.55487520e-02 0. 0. 0. 0. 0. 0. 2.27743760e-01 2.27743760e-01
      9.10975039e-02 0. 0. 0. 0. 0. 7.74328768e-01</_>
    <_>
      5.63102365e-01 5.85960150e-01 5.82723379e-01 0. 0. 0. 0. 0. 0. 0.
      0. 0. 0. 0. 0. 0. 0. 0. 0. 0. 0. 0. 0. 0. 0. 0. 0. 0. 0. 0. 0. 0.
      0. 0. 0. 0. 0. 0. 0. 0. 0. 0. 0. 0. 0. 0. 0. 0. 0. 0. 0. 0. 0. 0.
      0. 0. 0. 0. 0. 0. 0. 0. 0. 0. 0. 0. 0. 0. 0. 0. 0. 0. 0. 0. 0. 0.
      0. 0. 0. 0. 0. 0. 0. 0. 0. 0. 0. 0. 0. 0. 0. 0. 0. 0. 0. 0. 0. 0.
      0. 0. 0. 0. 0. 0. 0. 0. 0. 0. 0. 0. 0. 0. 0. 0. 0. 0. 0. 0. 0. 0.
      0. 0. 0. 0. 0. 0. 0. 0. 0. 0. 0. 0. 0. 0. 0. 0. 0. 0. 0.
      3.12321097e-01 0. 0. 0. 0. 0. 0. 0. 0. 0. 0. 0. 0. 0. 0. 0. 0. 0.
      0. 0. 0. 0. 0. 0. 0. 0. 0. 0. 0. 0. 0. 0. 0. 0. 0. 0.
      9.49976623e-01 0. 0. 0. 0. 0. 0. 0. 0. 0. 0. 0. 0. 0. 0. 0. 0. 0.
      0. 0. 0. 0. 0. 0. 0. 0. 0. 0. 0. 0. 0. 0. 0. 0. 0. 0. 0. 0. 0. 0.
      0. 0. 0. 0. 4.79463302e-02 9.58926603e-02 0. 9.58926603e-02 0. 0.
      0. 0. 1.91785321e-01 0. 4.79463302e-02 0. 0. 0. 0. 4.79463302e-02
      0. 0. 0. 0. 0. 0. 0. 0. 0. 0. 0. 0. 0. 0. 0. 9.58926603e-02 0. 0.
      0. 0. 0. 0. 0. 0. 0. 0. 0. 0. 0. 0. 0. 0. 0. 0. 0. 4.79463302e-02
      0. 0. 0. 0. 0. 0. 0. 0. 0. 0. 4.79463302e-02 4.79463302e-02 0. 0.
      0. 0. 0. 0. 4.79463302e-02 0. 0. 0. 0. 0. 0. 0. 4.79463302e-02
      4.79463302e-02 0. 0. 0. 0. 0. 0. 0. 0. 0. 0. 0. 0. 0. 0. 0. 0. 0.
      0. 0. 0. 0. 0. 0. 0. 0. 0. 0. 0. 0. 0. 0. 0. 0. 0. 0. 0. 0. 0. 0.
      0. 0. 0. 0. 0. 0. 0. 0. 9.58926603e-02 9.58926603e-02
      1.43838987e-01 0. 2.39731655e-01 0. 0. 0. 3.35624307e-01 0. 0. 0.
      4.79463302e-02 0. 0. 0. 3.83570641e-01 0. 4.79463302e-02 0.
      4.79463302e-02 0. 0. 0. 0. 0. 0. 0. 0. 0. 4.79463302e-02 0.
      4.79463302e-02 0. 0. 0. 0. 0. 0. 0. 9.58926603e-02 0. 0. 0. 0. 0.
      0. 0. 0. 0. 0. 0. 0. 0. 0. 0. 0. 0. 0. 0. 0. 0. 0. 0. 0.
      4.79463302e-02 4.79463302e-02 0. 9.58926603e-02 0. 0. 0.
      5.75355947e-01 0. 0. 0. 0. 0. 0. 0. 1.91785321e-01 0. 0. 0. 0. 0.
      0. 0. 0. 0. 0. 0. 0. 0. 0. 0. 9.58926603e-02 0. 0. 0.
      1.91785321e-01 0. 4.79463302e-02 0. 9.58926603e-02 0. 0. 0. 0.
      4.79463302e-02 0. 0. 9.58926603e-02 0. 4.79463302e-02 0.
      4.79463302e-02 0. 0. 0. 1.43838987e-01 0. 0. 0. 4.79463302e-02 0.
      4.79463302e-02 0. 2.39731655e-01</_>
    <_>
      5.64522147e-01 5.84458470e-01 5.82857728e-01 0. 0. 0. 0. 0. 0. 0.
      0. 0. 0. 0. 0. 0. 0. 0. 0. 0. 0. 0. 0. 0. 0. 0. 0. 0. 0. 0. 0. 0.
      0. 0. 0. 0. 0. 0. 0. 0. 0. 0. 0. 0. 0. 0. 0. 0. 0. 0. 0. 0. 0. 0.
      0. 0. 0. 0. 0. 0. 0. 0. 0. 0. 0. 0. 0. 0. 0. 0. 0. 0. 0. 0. 0. 0.
      0. 0. 0. 0. 0. 0. 0. 0. 0. 0. 0. 0. 0. 0. 0. 0. 0. 0. 0. 0. 0. 0.
      0. 0. 0. 0. 0. 0. 0. 0. 0. 0. 0. 0. 0. 0. 0. 0. 0. 0. 0. 0. 0. 0.
      0. 0. 0. 0. 0. 0. 0. 0. 0. 0. 0. 0. 9.94476914e-01 0. 0. 0. 0. 0.
      7.42146894e-02 7.42146894e-02 0. 0. 0. 0. 0. 0. 0. 0. 0. 0. 0. 0.
      0. 0. 0. 0. 0. 0. 0. 0. 0. 0. 0. 0. 0. 0. 0. 0. 0. 0. 0. 0. 0. 0.
      0. 0. 0. 0. 0. 0. 0. 0. 0. 0. 0. 0. 0. 0. 0. 0. 0. 0. 0. 0. 0. 0.
      0. 0. 0. 0. 0. 0. 0. 0. 0. 0. 0. 0. 0. 0. 0. 0. 0. 0. 0. 0. 0. 0.
      0. 4.09960039e-02 4.09960039e-02 0. 1.22988015e-01 0. 0. 0. 0. 0.
      0. 0. 4.09960039e-02 0. 0. 0. 4.09960039e-02 0. 0. 0. 0. 0. 0. 0.
      0. 0. 0. 0. 0. 0. 0. 0. 0. 0. 4.09960039e-02 0. 0. 0. 0. 0. 0. 0.
      0. 0. 0. 0. 0. 0. 0. 0. 0. 0. 0. 0. 0. 0. 0. 0. 0. 0. 0. 0. 0. 0.
      0. 0. 0. 0. 0. 0. 0. 0. 0. 0. 0. 0. 0. 0. 0. 0. 4.09960039e-02 0.
      0. 0. 0. 0. 0. 0. 0. 0. 0. 0. 0. 0. 0. 0. 0. 0. 0. 0. 0. 0. 0. 0.
      0. 0. 4.09960039e-02 0. 0. 0. 0. 0. 0. 0. 0. 0. 0. 0. 0. 0. 0. 0.
      0. 0. 0. 0. 0. 0. 0. 4.09960039e-02 8.19920078e-02 0.
      4.50956047e-01 0. 0. 0. 6.14940047e-01 0. 0. 0. 4.09960039e-02 0.
      0. 0. 4.09960039e-02 0. 0. 0. 0. 0. 0. 0. 0. 0. 0. 0.
      4.09960039e-02 0. 0. 0. 0. 0. 0. 0. 4.09960039e-02 0. 0. 0.
      4.09960039e-02 0. 0. 0. 0. 0. 0. 0. 0. 0. 0. 0. 0. 0. 0. 0. 0. 0.
      0. 0. 0. 0. 0. 0. 0. 0. 0. 0. 3.27968031e-01 0. 0. 0.
      4.50956047e-01 0. 0. 0. 0. 0. 0. 0. 1.63984016e-01 0. 0. 0. 0. 0.
      0. 0. 4.09960039e-02 0. 0. 0. 0. 0. 0. 0. 4.09960039e-02 0. 0. 0.
      0. 4.09960039e-02 0. 0. 4.09960039e-02 0. 0. 0. 0. 0. 0. 0.
      4.09960039e-02 0. 0. 0. 4.09960039e-02 0. 0. 0. 0. 0. 0. 0. 0. 0.
      0. 0. 1.63984016e-01</_>
    <_>
      5.23476779e-01 5.16918778e-01 6.77323401e-01 0. 0. 0.
      7.82660469e-02 0. 0. 0. 0. 0. 0. 0. 0. 0. 0. 0. 0. 0. 0. 0. 0. 0.
      0. 0. 0. 0. 0. 0. 0. 0. 0. 0. 0. 0. 0. 0. 0. 0. 0. 0.
      5.86995371e-02 0. 0. 0. 0. 1.95665117e-02 9.78325531e-02
      1.95665106e-01 0. 0. 0. 0. 0. 0. 0. 0. 0. 0. 0. 0. 0. 0. 0. 0. 0.
      0. 0. 0. 0. 0. 0. 0. 0. 0. 0. 0. 0. 0. 0. 0. 0. 0. 0. 0. 0. 0. 0.
      3.91330235e-02 2.15231627e-01 7.82660469e-02 0. 0. 0. 0. 0. 0. 0.
      0. 0. 0. 0. 0. 0. 0. 0. 0. 0. 0. 0. 0. 0. 0. 0. 0. 0. 0. 0. 0. 0.
      0. 0. 0. 0. 0. 7.82660469e-02 0. 0. 0. 0. 0. 9.39192593e-01 0. 0.
      0. 0. 0. 0. 0. 0. 0. 0. 0. 0. 0. 0. 0. 0. 0. 0. 0. 0. 0. 0. 0. 0.
      0. 0. 0. 0. 0. 0. 0. 0. 0. 0. 0. 0. 0. 0. 0. 0. 0. 0. 0. 0. 0. 0.
      0. 0. 0. 0. 0. 0. 0. 0. 0. 0. 0. 0. 0. 0. 0. 0. 0. 0. 0. 0. 0. 0.
      0. 0. 0. 0. 0. 0. 0. 0. 0. 0. 0. 0. 0. 0. 0. 0. 0. 0.
      1.00222960e-01 0. 0. 0. 0. 0. 3.34076546e-02 2.67261237e-01
      1.00222960e-01 0. 0. 6.68153092e-02 3.34076546e-02 0.
      1.67038277e-01 7.34968424e-01 0. 0. 0. 0. 0. 0. 0. 0. 0. 0. 0. 0.
      6.68153092e-02 0. 0. 3.34076546e-02 0. 0. 0. 0. 0. 0. 0. 0. 0. 0.
      0. 0. 0. 0. 3.34076546e-02 0. 0. 0. 0. 0. 0. 0. 0. 3.34076546e-02
      0. 0. 0. 0. 1.00222960e-01 0. 3.34076546e-02 6.68153092e-02 0. 0.
      0. 0. 0. 0. 0. 0. 0. 0. 0. 0. 0. 0. 0. 6.68153092e-02 0. 0. 0. 0.
      0. 0. 0. 0. 0. 0. 0. 0. 0. 0. 0. 0. 0. 0. 0. 0. 0. 0. 0. 0. 0. 0.
      0. 0. 0. 0. 3.34076546e-02 0. 0. 0. 0. 0. 0. 0. 0. 0. 0. 0. 0. 0.
      0. 0. 0. 3.34076546e-02 0. 0. 0. 0. 3.34076546e-02 0. 0.
      1.67038277e-01 0. 0. 0. 0. 0. 0. 0. 5.01114845e-01 3.34076546e-02
      0. 0. 0. 0. 0. 0. 0. 0. 0. 0. 0. 0. 0. 0. 1.00222960e-01 0. 0. 0.
      0. 0. 0. 0. 0. 0. 0. 0. 0. 0. 0. 0. 3.34076546e-02 0. 0. 0. 0. 0.
      0. 0. 0. 0. 0. 0. 0. 0. 0. 0. 3.34076546e-02 0. 0. 0. 0. 0. 0. 0.
      0. 0. 0. 0. 0. 0. 0. 0. 0. 0. 0. 0. 0. 0. 0. 0. 0. 0. 0. 0. 0. 0.
      0. 0. 0. 0. 0. 0. 0. 0. 0. 0. 0. 0. 0. 0. 0. 0. 0. 0. 0.
      6.68153092e-02 0. 0. 0. 0. 0. 0. 3.34076546e-02 0. 0. 0. 0. 0. 0.
      0. 6.68153092e-02</_>
    <_>
      6.03765428e-01 5.74880242e-01 5.52249908e-01 0. 0. 0. 0. 0. 0. 0.
      0. 0. 0. 0. 0. 0. 0. 0. 0. 0. 0. 0. 0. 0. 0. 0. 0. 0. 0. 0. 0. 0.
      0. 0. 0. 0. 0. 0. 0. 0. 0. 0. 0. 0. 0. 0. 0. 0. 0. 0. 0. 0. 0. 0.
      0. 0. 0. 0. 0. 0. 0. 0. 0. 0. 0. 0. 0. 0. 0. 0. 0. 0. 0. 0. 0. 0.
      0. 0. 0. 0. 0. 0. 0. 0. 0. 0. 0. 0. 0. 8.48477960e-01
      1.63168833e-02 0. 0. 0. 0. 1.63168833e-02 1.63168833e-02 0. 0. 0.
      0. 0. 0. 0. 0. 0. 0. 0. 0. 0. 0. 0. 0. 0. 0. 0. 0. 0. 0. 0. 0. 0.
      0. 0. 0. 4.07922059e-01 0. 0. 0. 0. 0. 1.63168818e-01
      2.93703914e-01 0. 0. 0. 0. 0. 0. 0. 0. 0. 0. 0. 0. 0. 0. 0. 0. 0.
      0. 0. 0. 0. 0. 0. 0. 0. 0. 0. 0. 0. 0. 0. 0. 0. 0. 0. 0. 0. 0. 0.
      0. 0. 0. 0. 0. 0. 0. 0. 0. 0. 0. 0. 0. 0. 0. 0. 0. 0. 0. 0. 0. 0.
      0. 0. 0. 0. 0. 0. 0. 0. 0. 0. 0. 0. 0. 0. 0. 0. 0. 0. 0. 0. 0. 0.
      0. 0. 0. 0. 0. 1.30066499e-01 4.33554985e-02 0. 0. 0. 0.
      4.33554985e-02 0. 0. 0. 0. 0. 0. 4.33554985e-02 0. 0.
      4.33554985e-02 0. 0. 0. 0. 0. 8.67109969e-02 0. 0. 0. 0. 0. 0. 0.
      8.67109969e-02 0. 0. 0. 0. 0. 0. 4.33554985e-02 0. 0. 0. 0. 0. 0.
      0. 0. 1.30066499e-01 0. 0. 0. 0. 0. 0. 0. 1.30066499e-01 0. 0. 0.
      1.30066499e-01 0. 0. 8.67109969e-02 0. 0. 0. 4.33554985e-02 0. 0.
      0. 0. 0. 0. 0. 4.33554985e-02 4.33554985e-02 0. 0. 0. 0. 0. 0. 0.
      0. 0. 0. 0. 0. 0. 0. 0. 4.33554985e-02 0. 0. 0. 4.33554985e-02 0.
      0. 0. 0. 0. 0. 0. 0. 0. 0. 0. 0. 0. 0. 0. 0. 4.33554985e-02
      4.33554985e-02 0. 0. 0. 0. 0. 0. 0. 0. 0. 4.33554985e-02 0. 0.
      4.33554985e-02 0. 4.33554985e-02 0. 1.73421994e-01 0. 0. 0.
      8.67109969e-02 0. 0. 0. 0. 0. 0. 0. 4.33554985e-02 0. 0. 0. 0. 0.
      0. 0. 0. 4.33554985e-02 0. 0. 0. 0. 0. 0. 8.67109969e-02 0. 0. 0.
      0. 0. 0. 0. 0. 0. 0. 0. 0. 0. 0. 0. 0. 0. 0. 0. 0. 0. 0. 0.
      4.33554985e-02 0. 0. 0. 4.33554985e-02 0. 0. 0. 0. 0.
      4.33554985e-02 4.33554985e-02 6.93687975e-01 0. 0. 8.67109969e-02
      3.90199482e-01 0. 0. 4.33554985e-02 0. 0. 0. 0. 8.67109969e-02 0.
      0. 0. 0. 0. 0. 0. 0. 0. 0. 0. 4.33554985e-02 0. 0. 0.
      1.30066499e-01 0. 4.33554985e-02 0. 2.16777489e-01 0. 0. 0.
      1.30066499e-01 0. 0. 0. 0. 4.33554985e-02 8.67109969e-02 0.
      8.67109969e-02 8.67109969e-02 4.33554985e-02 0. 8.67109969e-02 0.
      0. 0. 8.67109969e-02 0. 0. 0. 4.33554985e-02 0. 0. 0.
      2.16777489e-01</_>
    <_>
      6.00769281e-01 5.85322917e-01 5.44493616e-01 0. 0. 0. 0. 0. 0. 0.
      0. 0. 0. 0. 0. 0. 0. 0. 0. 0. 0. 0. 0. 0. 0. 0. 0. 0. 0. 0. 0. 0.
      0. 0. 0. 0. 0. 0. 0. 0. 0. 0. 0. 0. 0. 0. 0. 0. 0. 0. 0. 0. 0. 0.
      0. 0. 0. 0. 0. 0. 0. 0. 0. 0. 0. 0. 0. 0. 0. 0. 0. 0. 0. 0. 0. 0.
      0. 0. 0. 0. 0. 0. 0. 0. 0. 0. 0. 0. 0. 0. 0. 0. 0. 0. 0. 0. 0. 0.
      0. 0. 0. 0. 2.29672752e-02 1.14836376e-02 0. 0. 0. 0. 0. 0. 0. 0.
      0. 0. 0. 0. 0. 0. 0. 0. 0. 0. 0. 0. 0. 0. 0. 0. 0. 0. 0. 0.
      5.74181862e-02 0. 0. 0. 0. 0. 2.06705481e-01 0. 0. 0. 0. 0. 0. 0.
      0. 0. 0. 0. 0. 0. 0. 0. 0. 0. 0. 0. 0. 0. 0. 0. 0. 0. 0. 0. 0. 0.
      9.76109147e-01 0. 0. 0. 0. 0. 2.29672752e-02 0. 0. 0. 0. 0. 0. 0.
      0. 0. 0. 0. 0. 0. 0. 0. 0. 0. 0. 0. 0. 0. 0. 0. 0. 0. 0. 0. 0. 0.
      0. 0. 0. 0. 0. 0. 0. 0. 0. 0. 0. 0. 0. 0. 0. 4.53143269e-02 0. 0.
      1.35942981e-01 0. 0. 4.53143269e-02 4.53143269e-02 4.53143269e-02
      0. 0. 0. 0. 0. 1.35942981e-01 9.06286538e-02 4.53143269e-02 0. 0.
      0. 0. 0. 0. 0. 0. 0. 4.53143269e-02 0. 0. 0. 1.35942981e-01 0. 0.
      0. 0. 0. 0. 4.53143269e-02 0. 0. 0. 0. 0. 0. 0. 0. 0. 0. 0.
      4.53143269e-02 0. 0. 0. 0. 0. 0. 0. 0. 0. 0. 0. 0. 0.
      1.35942981e-01 0. 0. 4.53143269e-02 0. 0. 0. 0. 0. 0. 0. 0. 0. 0.
      0. 0. 0. 0. 0. 0. 0. 0. 0. 0. 0. 0. 0. 0. 0. 0. 0. 0. 0.
      9.06286538e-02 0. 0. 0. 0. 0. 4.53143269e-02 0. 0. 0. 0. 0. 0. 0.
      4.53143269e-02 0. 0. 0. 0. 0. 0. 0. 0. 0. 0. 0. 0. 0.
      4.53143269e-02 0. 0. 0. 4.53143269e-02 4.53143269e-02 0.
      2.26571634e-01 0. 0. 0. 4.07828927e-01 0. 0. 0. 0. 0.
      4.53143269e-02 4.53143269e-02 5.43771923e-01 0. 0. 0. 0. 0. 0. 0.
      0. 0. 0. 0. 0. 0. 0. 0. 1.35942981e-01 0. 4.53143269e-02 0. 0. 0.
      0. 0. 0. 0. 0. 0. 0. 0. 0. 0. 0. 0. 0. 4.53143269e-02 0. 0. 0. 0.
      0. 0. 0. 0. 0. 0. 0. 0. 4.53143269e-02 0. 0. 0. 9.06286538e-02 0.
      0. 0. 2.26571634e-01 0. 0. 0. 4.53143269e-02 4.53143269e-02 0. 0.
      1.81257308e-01 0. 0. 0. 0. 0. 0. 0. 0. 0. 0. 0. 0. 4.53143269e-02
      0. 0. 9.06286538e-02 9.06286538e-02 2.26571634e-01 0.
      9.06286538e-02 0. 0. 4.53143269e-02 4.53143269e-02 0. 0. 0. 0. 0.
      0. 0. 9.06286538e-02 0. 4.53143269e-02 0. 4.53143269e-02 0. 0. 0.
      1.35942981e-01 0. 4.53143269e-02 0. 9.06286538e-02 4.53143269e-02
      9.06286538e-02 9.06286538e-02 3.17200303e-01</_>
    <_>
      6.19699717e-01 5.77867925e-01 5.31075180e-01 0. 0. 0. 0. 0. 0. 0.
      0. 0. 0. 0. 0. 0. 0. 0. 0. 0. 0. 0. 0. 0. 0. 0. 0. 0. 0. 0. 0. 0.
      0. 0. 0. 0. 0. 0. 0. 0. 0. 0. 0. 0. 0. 0. 0. 0. 0. 0. 0. 0. 0. 0.
      0. 0. 0. 0. 0. 0. 0. 0. 0. 0. 0. 0. 0. 0. 0. 0. 0. 0. 0. 0. 0. 0.
      0. 0. 0. 0. 0. 0. 0. 0. 0. 0. 0. 0. 0. 0. 0. 0. 0. 0. 0. 0. 0. 0.
      0. 0. 0. 0. 0. 0. 0. 0. 0. 0. 0. 0. 0. 0. 0. 0. 0. 0. 0. 0. 0. 0.
      0. 0. 0. 0. 0. 0. 0. 0. 0. 0. 0. 0. 2.24859521e-01 0. 0. 0. 0. 0.
      0. 0. 0. 0. 0. 0. 0. 0. 0. 0. 0. 0. 0. 0. 0. 0. 0. 0. 0. 0. 0. 0.
      0. 0. 0. 0. 0. 0. 0. 0. 9.74391222e-01 0. 0. 0. 0. 0. 0. 0. 0. 0.
      0. 0. 0. 0. 0. 0. 0. 0. 0. 0. 0. 0. 0. 0. 0. 0. 0. 0. 0. 0. 0. 0.
      0. 0. 0. 0. 0. 0. 0. 0. 0. 0. 0. 0. 0. 0. 0. 0. 0. 0. 0.
      8.27605873e-02 0. 0. 0. 0. 0. 0. 4.13802937e-02 0. 0. 0. 0. 0. 0.
      4.13802937e-02 4.13802937e-02 0. 0. 0. 0. 0. 0. 0. 0. 0. 0. 0. 0.
      0. 0. 0. 0. 0. 0. 0. 0. 0. 0. 0. 0. 0. 0. 0. 0. 0. 0.
      4.13802937e-02 0. 4.13802937e-02 0. 0. 0. 0. 0. 0. 4.13802937e-02
      0. 4.13802937e-02 0. 0. 0. 0. 4.13802937e-02 0. 0. 0. 0. 0. 0. 0.
      0. 0. 0. 0. 0. 0. 0. 0. 0. 0. 0. 0. 0. 0. 0. 0. 0. 0. 0. 0. 0. 0.
      0. 0. 0. 0. 0. 0. 0. 0. 0. 0. 4.13802937e-02 0. 0. 0. 0. 0. 0. 0.
      0. 0. 0. 0. 0. 0. 0. 0. 0. 0. 0. 0. 0. 0. 4.13802937e-02 0.
      4.13802937e-02 4.13802937e-02 1.24140881e-01 1.24140881e-01
      4.13802937e-02 2.48281762e-01 0. 0. 0. 4.13802922e-01
      4.13802937e-02 0. 0. 4.13802937e-02 0. 0. 0. 0. 0. 0. 0.
      1.24140881e-01 0. 0. 0. 0. 0. 0. 0. 0. 0. 0. 0. 0. 0. 0. 0. 0. 0.
      0. 0. 0. 0. 0. 0. 0. 0. 0. 0. 4.13802937e-02 0. 0. 0. 0. 0. 0. 0.
      0. 0. 0. 0. 4.13802937e-02 0. 0. 0. 0. 4.13802937e-02
      4.13802937e-02 0. 2.06901461e-01 0. 0. 0. 3.31042349e-01 0. 0.
      4.13802937e-02 4.13802937e-02 0. 0. 0. 2.48281762e-01 0. 0. 0. 0.
      0. 0. 0. 0. 4.13802937e-02 0. 0. 0. 0. 0. 0. 8.27605873e-02
      8.27605873e-02 8.27605873e-02 0. 1.65521175e-01 0. 0. 0.
      2.89662063e-01 4.13802937e-02 0. 0. 0. 0. 0. 4.13802937e-02
      4.13802937e-02 0. 8.27605873e-02 0. 1.24140881e-01 0. 0. 0.
      8.27605873e-02 4.13802937e-02 4.13802937e-02 0. 0. 0.
      4.13802937e-02 4.13802937e-02 5.37943840e-01</_>
    <_>
      5.70210993e-01 5.81678629e-01 5.80094278e-01 0. 0. 0. 0. 0. 0. 0.
      0. 0. 0. 0. 0. 0. 0. 0. 0. 0. 0. 0. 0. 0. 0. 0. 0. 0. 0. 0. 0. 0.
      0. 0. 0. 0. 0. 0. 0. 0. 0. 0. 0. 0. 0. 0. 0. 0. 0. 0. 0. 0. 0. 0.
      0. 0. 0. 0. 0. 0. 0. 0. 0. 0. 0. 0. 0. 0. 0. 0. 0. 0. 0. 0. 0. 0.
      0. 0. 0. 0. 0. 0. 0. 0. 0. 0. 0. 0. 0. 0. 0. 0. 0. 0. 0. 0. 0. 0.
      0. 0. 0. 0. 0. 0. 0. 0. 0. 0. 0. 0. 0. 0. 0. 0. 0. 0. 0. 0. 0. 0.
      0. 0. 0. 0. 0. 0. 0. 0. 0. 0. 0. 0. 0. 0. 0. 0. 0. 0. 0. 0. 0. 0.
      0. 0. 0. 0. 0. 0. 0. 0. 0. 0. 0. 0. 0. 0. 0. 0. 0. 0. 0. 0. 0. 0.
      0. 0. 0. 0. 0. 0. 0. 0. 0. 0. 0. 1. 0. 0. 0. 0. 0. 0. 0. 0. 0. 0.
      0. 0. 0. 0. 0. 0. 0. 0. 0. 0. 0. 0. 0. 0. 0. 0. 0. 0. 0. 0. 0. 0.
      0. 0. 0. 0. 0. 0. 0. 0. 0. 0. 0. 2.50000000e-01 0. 0.
      1.25000000e-01 0. 0. 0. 1.25000000e-01 1.25000000e-01 0. 0. 0. 0.
      1.25000000e-01 0. 0. 0. 0. 0. 0. 0. 0. 0. 0. 0. 0. 0. 0. 0. 0. 0.
      0. 0. 0. 0. 0. 0. 0. 0. 0. 0. 0. 0. 0. 0. 0. 0. 0. 0. 0. 0. 0. 0.
      0. 0. 0. 0. 0. 0. 0. 0. 0. 0. 0. 0. 0. 0. 0. 0. 0. 0. 0. 0. 0. 0.
      0. 0. 0. 0. 0. 0. 0. 0. 0. 0. 0. 0. 0. 0. 0. 0. 0. 0. 0. 0. 0.
      1.25000000e-01 0. 0. 1.25000000e-01 0. 0. 0. 0. 0. 0. 0. 0. 0. 0.
      0. 0. 0. 0. 0. 0. 0. 0. 0. 0. 0. 0. 0. 0. 2.50000000e-01 0. 0. 0.
      1.25000000e-01 0. 0. 1.25000000e-01 0. 0. 0. 0. 0. 0. 0. 0. 0. 0.
      0. 2.50000000e-01 0. 0. 0. 0. 0. 0. 0. 0. 0. 0. 0. 0. 0. 0. 0. 0.
      0. 0. 0. 1.25000000e-01 0. 0. 0. 0. 0. 0. 0. 0. 0. 0. 0. 0. 0. 0.
      0. 0. 0. 0. 0. 0. 0. 0. 0. 0. 0. 0. 0. 0. 1.25000000e-01 0. 0. 0.
      0. 0. 0. 1.25000000e-01 0. 0. 0. 0. 1.25000000e-01 0. 0.
      2.50000000e-01 0. 0. 0. 1.25000000e-01 0. 0. 0. 0. 0. 0. 0. 0. 0.
      0. 0. 0. 0. 1.25000000e-01 0. 0. 0. 0. 0. 2.50000000e-01 0. 0. 0.
      0. 0. 0. 0. 1.25000000e-01 0. 1.25000000e-01 1.25000000e-01 0. 0.
      0. 0. 1.25000000e-01 3.75000000e-01 3.75000000e-01 0.
      2.50000000e-01 1.25000000e-01 1.25000000e-01 1.25000000e-01
      1.25000000e-01</_>
    <_>
      5.93798161e-01 5.78036904e-01 5.59711695e-01 0. 0. 0. 0. 0. 0. 0.
      1.35693830e-02 0. 0. 0. 0. 0. 0. 0. 0. 0. 0. 0. 0. 0. 0. 0. 0. 0.
      0. 0. 0. 0. 0. 0. 0. 0. 0. 0. 0. 0. 0. 0. 0. 0. 0. 0.
      9.76995587e-01 0. 0. 0. 0. 0. 0. 0. 0. 0. 0. 0. 0. 0. 0. 0. 0. 0.
      0. 0. 0. 0. 0. 0. 0. 0. 0. 0. 0. 0. 0. 0. 0. 0. 0. 0.
      1.35693818e-01 0. 0. 0. 0. 0. 1.49263203e-01 6.78469092e-02 0. 0.
      0. 0. 0. 0. 0. 0. 0. 0. 0. 0. 0. 0. 0. 0. 0. 0. 0. 0. 0. 0. 0. 0.
      0. 0. 0. 0. 0. 0. 0. 0. 0. 0. 0. 0. 0. 0. 0. 0. 0. 0. 0. 0. 0. 0.
      0. 0. 0. 0. 0. 0. 0. 0. 0. 0. 0. 0. 0. 0. 0. 0. 0. 0. 0. 0. 0. 0.
      0. 0. 0. 0. 0. 0. 0. 0. 0. 0. 0. 0. 0. 0. 0. 0. 0. 0. 0. 0. 0. 0.
      0. 0. 0. 0. 0. 0. 0. 0. 0. 0. 0. 0. 0. 0. 0. 0. 0. 0. 0. 0. 0. 0.
      0. 0. 0. 0. 0. 0. 0. 0. 0. 0. 0. 0. 0. 0. 0. 0. 0. 6.86398223e-02
      0. 0. 0. 0. 0. 0. 2.05919474e-01 3.43199112e-02 0. 0. 0. 0. 0.
      3.43199112e-02 4.46158856e-01 0. 0. 0. 0. 0. 0. 0. 0. 0. 0. 0. 0.
      0. 0. 0. 1.71599552e-01 0. 0. 0. 0. 0. 0. 0. 0. 3.43199112e-02 0.
      0. 0. 0. 0. 0. 0. 0. 0. 0. 0. 0. 0. 0. 0. 0. 0. 0. 0. 0. 0. 0.
      3.43199112e-02 3.43199112e-02 0. 0. 0. 0. 0. 0. 0. 0. 0. 0. 0. 0.
      0. 0. 3.43199112e-02 0. 0. 0. 0. 0. 0. 0. 0. 0. 0. 0. 0. 0. 0. 0.
      0. 0. 0. 0. 0. 0. 0. 0. 0. 3.43199112e-02 0. 0. 0. 0. 0. 0.
      3.43199112e-02 0. 0. 0. 0. 0. 0. 3.43199112e-02 0. 0. 0. 0. 0.
      6.86398223e-02 0. 0. 3.43199112e-02 3.43199112e-02 0. 0.
      6.86398223e-02 3.43199112e-02 0. 0. 5.49118578e-01 0. 0. 0. 0. 0.
      0. 0. 5.83438516e-01 0. 0. 0. 0. 0. 0. 0. 3.43199112e-02 0. 0. 0.
      0. 0. 0. 0. 3.43199112e-02 0. 0. 0. 0. 0. 0. 0. 0. 3.43199112e-02
      0. 0. 0. 0. 0. 0. 0. 0. 0. 0. 0. 0. 0. 0. 0. 0. 0. 0.
      3.43199112e-02 0. 0. 0. 3.43199112e-02 6.86398223e-02 0. 0. 0. 0.
      0. 3.43199112e-02 6.86398223e-02 3.43199112e-02 0. 0. 0. 0. 0. 0.
      6.86398223e-02 0. 0. 0. 0. 0. 0. 0. 0. 0. 0. 0. 0. 0. 0. 0.
      3.43199112e-02 0. 0. 0. 0. 0. 0. 0. 3.43199112e-02 0. 0. 0. 0. 0.
      0. 0. 0. 0. 0. 0. 0. 0. 0. 0. 0. 3.43199112e-02 0. 0. 0.
      3.43199112e-02 3.43199112e-02 3.43199112e-02 1.71599552e-01</_>
    <_>
      6.15480423e-01 5.80510855e-01 5.33095717e-01 0. 0. 0. 0. 0. 0. 0.
      2.20647901e-02 0. 0. 0. 0. 0. 0. 0. 0. 0. 0. 0. 0. 0. 0. 0. 0. 0.
      0. 0. 0. 0. 0. 0. 0. 0. 0. 0. 0. 0. 0. 0. 0. 0. 0. 0.
      4.63360578e-01 0. 0. 0. 0. 0. 0. 0. 0. 0. 0. 0. 0. 0. 0. 0. 0. 0.
      0. 0. 0. 0. 0. 0. 0. 0. 0. 0. 0. 0. 0. 0. 0. 0. 0. 0.
      1.76518321e-01 0. 0. 0. 0. 0. 2.86842257e-01 8.16397250e-01 0. 0.
      0. 0. 0. 0. 0. 0. 0. 0. 0. 0. 0. 0. 0. 0. 0. 0. 0. 0. 0. 0. 0. 0.
      0. 0. 0. 0. 0. 0. 0. 0. 0. 0. 0. 2.20647901e-02 0. 0. 0. 0. 0.
      6.61943704e-02 0. 0. 0. 0. 0. 0. 0. 0. 0. 0. 0. 0. 0. 0. 0. 0. 0.
      0. 0. 0. 0. 0. 0. 0. 0. 0. 0. 0. 0. 0. 0. 0. 0. 0. 0. 0. 0. 0. 0.
      0. 0. 0. 0. 0. 0. 0. 0. 0. 0. 0. 0. 0. 0. 0. 0. 0. 0. 0. 0. 0. 0.
      0. 0. 0. 0. 0. 0. 0. 0. 0. 0. 0. 0. 0. 0. 0. 0. 0. 0. 0. 0. 0. 0.
      0. 0. 0. 0. 3.76354977e-02 0. 3.76354977e-02 0. 3.76354977e-02
      3.76354977e-02 7.52709955e-02 7.52709955e-02 0. 0. 0.
      3.76354977e-02 0. 0. 1.50541991e-01 7.52709985e-01 0. 0. 0. 0. 0.
      0. 0. 0. 3.76354977e-02 0. 0. 0. 3.76354977e-02 0. 3.76354992e-01
      3.01083982e-01 0. 0. 0. 0. 0. 0. 0. 0. 0. 0. 0. 0. 0. 0. 0. 0. 0.
      0. 0. 0. 0. 0. 0. 0. 0. 0. 0. 0. 0. 0. 3.76354977e-02
      3.76354977e-02 0. 0. 0. 0. 0. 0. 0. 0. 0. 0. 0. 0. 0. 0. 0. 0. 0.
      0. 0. 0. 0. 0. 0. 0. 0. 0. 0. 3.76354977e-02 0. 0. 3.76354977e-02
      0. 0. 0. 0. 0. 0. 0. 0. 0. 0. 0. 0. 0. 0. 0. 0. 3.76354977e-02 0.
      0. 0. 0. 0. 0. 0. 0. 0. 0. 0. 0. 0. 0. 0. 0. 0. 3.76354977e-02 0.
      3.76354977e-02 0. 0. 0. 7.52709955e-02 0. 0. 0. 0. 0.
      3.76354977e-02 0. 3.38719487e-01 0. 0. 0. 0. 0. 0. 3.76354977e-02
      3.76354977e-02 0. 0. 0. 0. 0. 0. 3.76354977e-02 3.76354977e-02 0.
      0. 0. 0. 0. 0. 0. 0. 0. 0. 0. 0. 0. 0. 0. 3.76354977e-02 0. 0. 0.
      0. 0. 0. 0. 0. 0. 0. 0. 0. 0. 0. 0. 3.76354977e-02 0. 0. 0. 0. 0.
      0. 0. 3.76354977e-02 0. 0. 0. 0. 0. 0. 0. 3.76354977e-02 0. 0. 0.
      0. 0. 0. 0. 0. 0. 0. 0. 0. 0. 0. 0. 0. 0. 0. 0. 0. 0. 0.
      3.76354977e-02 0. 0. 0. 0. 0. 0. 0. 0. 0. 0. 0. 0. 0. 0. 0. 0. 0.
      0. 0. 0. 0. 0. 0. 0. 1.12906493e-01</_>
    <_>
      5.68471670e-01 5.73665261e-01 5.89701653e-01 0. 0. 0. 0. 0. 0. 0.
      0. 0. 0. 0. 0. 0. 0. 0. 0. 0. 0. 0. 0. 0. 0. 0. 0. 0. 0. 0. 0. 0.
      0. 0. 0. 0. 0. 0. 0. 0. 0. 0. 0. 0. 0. 0. 0. 0. 0. 0. 0. 0. 0. 0.
      0. 0. 0. 0. 0. 0. 0. 0. 0. 0. 0. 0. 0. 0. 0. 0. 0. 0. 0. 0. 0. 0.
      0. 0. 0. 0. 0. 0. 0. 0. 0. 0. 0. 0. 0. 0. 1.66506141e-01 0. 0. 0.
      0. 1.38755124e-02 2.77510248e-02 0. 0. 0. 0. 0. 0. 0. 0. 0. 0. 0.
      0. 0. 0. 0. 0. 0. 0. 0. 0. 0. 0. 0. 0. 0. 0. 0. 0. 0.
      2.77510248e-02 0. 0. 0. 0. 0. 9.85161364e-01 0. 0. 0. 0. 0. 0. 0.
      0. 0. 0. 0. 0. 0. 0. 0. 0. 0. 0. 0. 0. 0. 0. 0. 0. 0. 0. 0. 0. 0.
      0. 0. 0. 0. 0. 0. 0. 0. 0. 0. 0. 0. 0. 0. 0. 0. 0. 0. 0. 0. 0. 0.
      0. 0. 0. 0. 0. 0. 0. 0. 0. 0. 0. 0. 0. 0. 0. 0. 0. 0. 0. 0. 0. 0.
      0. 0. 0. 0. 0. 0. 0. 0. 0. 0. 0. 0. 0. 0. 0. 2.56157760e-02
      5.12315519e-02 0. 0. 7.68473297e-02 2.56157756e-01 0. 0. 0. 0. 0.
      0. 1.02463104e-01 8.70936394e-01 0. 0. 0. 0. 0. 0. 0. 0. 0. 0. 0.
      0. 0. 0. 0. 2.56157760e-02 0. 0. 0. 0. 0. 0. 0. 0. 0. 0. 0. 0. 0.
      0. 0. 2.56157760e-02 0. 0. 0. 0. 0. 0. 0. 0. 0. 0. 0. 0. 0. 0. 0.
      5.12315519e-02 0. 0. 0. 0. 0. 0. 0. 0. 0. 0. 0. 0. 0. 0. 0. 0. 0.
      0. 0. 0. 0. 0. 0. 0. 0. 0. 0. 0. 0. 0. 0. 0. 0. 0. 0. 0. 0. 0. 0.
      0. 0. 0. 0. 0. 0. 0. 0. 0. 0. 0. 0. 0. 0. 0. 0. 0. 0. 0. 0. 0. 0.
      0. 0. 0. 0. 0. 0. 7.68473297e-02 0. 0. 0. 2.56157760e-02 0. 0. 0.
      0. 0. 0. 0. 3.33005100e-01 0. 0. 0. 0. 0. 0. 0. 0. 0. 0. 0. 0. 0.
      0. 0. 1.28078878e-01 0. 0. 0. 0. 0. 0. 0. 0. 0. 0. 0. 0. 0. 0. 0.
      0. 0. 0. 0. 0. 0. 0. 0. 0. 0. 0. 0. 0. 0. 0. 0. 2.56157760e-02 0.
      0. 0. 1.28078878e-01 0. 0. 0. 0. 0. 0. 0. 0. 0. 0. 0.
      2.56157760e-02 0. 0. 0. 0. 0. 0. 0. 0. 0. 0. 0. 0. 0. 0. 0. 0. 0.
      0. 0. 0. 0. 0. 0. 0. 0. 0. 0. 0. 0. 0. 0. 0. 0. 0. 0. 0. 0. 0. 0.
      0. 0. 0. 0. 0. 0. 0. 0. 2.56157760e-02</_>
    <_>
      6.22470856e-01 5.67283213e-01 5.39184272e-01 0. 0. 0. 0. 0. 0. 0.
      0. 0. 0. 0. 0. 0. 0. 0. 0. 0. 0. 0. 0. 0. 0. 0. 0. 0. 0. 0. 0. 0.
      0. 0. 0. 0. 0. 0. 0. 0. 0. 0. 0. 0. 0. 0. 3.79318535e-01 0. 0. 0.
      0. 0. 0. 0. 0. 0. 0. 0. 0. 0. 0. 0. 0. 0. 0. 0. 0. 0. 0. 0. 0. 0.
      0. 0. 0. 0. 0. 0. 0. 0. 0. 0. 1.62565082e-01 1.80627871e-02 0. 0.
      0. 0. 2.70941824e-01 8.67013752e-01 0. 0. 0. 0. 0. 0. 0. 0. 0. 0.
      0. 0. 0. 0. 0. 0. 0. 0. 0. 0. 0. 0. 0. 0. 0. 0. 0. 0. 0. 0. 0. 0.
      0. 0. 0. 5.41883595e-02 0. 0. 0. 0. 0. 0. 3.61255743e-02 0. 0. 0.
      0. 0. 0. 0. 0. 0. 0. 0. 0. 0. 0. 0. 0. 0. 0. 0. 0. 0. 0. 0. 0. 0.
      0. 0. 0. 0. 0. 0. 0. 0. 0. 0. 0. 0. 0. 0. 0. 0. 0. 0. 0. 0. 0. 0.
      0. 0. 0. 0. 0. 0. 0. 0. 0. 0. 0. 0. 0. 0. 0. 0. 0. 0. 0. 0. 0. 0.
      0. 0. 0. 0. 0. 0. 0. 0. 0. 0. 0. 0. 0. 0. 0. 0. 0. 1.59673899e-01
      0. 5.32246307e-02 1.06449261e-01 0. 0. 0. 1.59673899e-01
      5.32246307e-02 0. 0. 0. 5.32246307e-02 0. 0. 2.66123146e-01
      5.32246307e-02 0. 0. 0. 0. 0. 0. 5.32246307e-02 0. 0.
      5.32246307e-02 0. 1.06449261e-01 0. 0. 5.32246307e-02 0. 0. 0. 0.
      0. 0. 0. 0. 0. 0. 0. 0. 0. 0. 0. 0. 0. 0. 0. 0. 0. 0. 0. 0. 0.
      5.32246307e-02 0. 0. 5.85470915e-01 0. 1.06449261e-01
      5.32246307e-02 1.06449261e-01 0. 0. 0. 0. 0. 0. 0. 0. 0. 0. 0. 0.
      0. 0. 0. 0. 0. 0. 0. 0. 0. 0. 0. 0. 0. 0. 0. 0. 0. 0. 0. 0. 0. 0.
      0. 0. 0. 0. 5.32246307e-02 0. 0. 0. 0. 0. 0. 0. 0. 0. 0. 0. 0. 0.
      0. 0. 0. 5.32246307e-02 0. 0. 0. 1.59673899e-01 0. 1.59673899e-01
      1.06449261e-01 5.32246307e-02 1.06449261e-01 0. 2.66123146e-01 0.
      0. 0. 3.19347799e-01 0. 0. 5.32246307e-02 0. 0. 0. 0.
      1.59673899e-01 0. 0. 0. 0. 0. 0. 0. 0. 0. 0. 0. 0. 0.
      5.32246307e-02 0. 1.59673899e-01 0. 0. 0. 0. 0. 0. 0. 0. 0. 0. 0.
      0. 0. 0. 0. 0. 0. 0. 0. 0. 0. 0. 0. 0. 1.06449261e-01 0. 0. 0. 0.
      5.32246307e-02 0. 0. 5.32246307e-02 0. 0. 0. 0. 0. 0.
      5.32246307e-02 1.06449261e-01 0. 0. 0. 0. 0. 0. 1.59673899e-01
      5.32246307e-02 0. 0. 0. 0. 0. 0. 0. 0. 0. 0. 0. 0. 0. 0.
      5.32246307e-02 0. 0. 0. 5.32246307e-02 0. 0. 0. 1.06449261e-01 0.
      0. 0. 0. 0. 0. 0. 5.32246307e-02 0. 1.06449261e-01 0. 0. 0.
      5.32246307e-02 0. 5.32246307e-02 0. 5.32246307e-02 0.
      5.32246307e-02 0. 5.32246307e-02 5.32246307e-02 2.12898523e-01</_>
    <_>
      5.85142791e-01 5.79046845e-01 5.67725897e-01 0. 0. 0. 0. 0. 0. 0.
      0. 0. 0. 0. 0. 0. 0. 0. 0. 0. 0. 0. 0. 0. 0. 0. 0. 0. 0. 0. 0. 0.
      0. 0. 0. 0. 0. 0. 0. 0. 0. 0. 0. 0. 0. 0. 0. 0. 0. 0. 0. 0. 0. 0.
      0. 0. 0. 0. 0. 0. 0. 0. 0. 0. 0. 0. 0. 0. 0. 0. 0. 0. 0. 0. 0. 0.
      0. 0. 0. 0. 0. 0. 0. 0. 0. 0. 0. 0. 0. 0. 0. 0. 0. 0. 0. 0. 0. 0.
      0. 0. 0. 0. 0. 0. 0. 0. 0. 0. 0. 0. 0. 0. 0. 0. 0. 0. 0. 0. 0. 0.
      0. 0. 0. 0. 0. 0. 0. 0. 0. 0. 0. 0. 9.91496027e-01 1.06612481e-02
      0. 0. 0. 0. 3.19837444e-02 0. 0. 0. 0. 0. 0. 0. 0. 0. 0. 0. 0. 0.
      0. 0. 0. 0. 0. 0. 0. 0. 0. 0. 0. 0. 0. 0. 0. 0. 1.06612481e-02
      4.26449925e-02 0. 0. 0. 0. 1.17273726e-01 1.06612481e-02 0. 0. 0.
      0. 0. 0. 0. 0. 0. 0. 0. 0. 0. 0. 0. 0. 0. 0. 0. 0. 0. 0. 0. 0. 0.
      0. 0. 0. 0. 0. 0. 0. 0. 0. 0. 0. 0. 0. 0. 0. 0. 0. 0.
      4.81125228e-02 4.81125228e-02 2.40562614e-02 2.40562614e-02
      2.40562614e-02 0. 0. 1.44337565e-01 0. 0. 0. 0. 0. 0. 0.
      1.92450091e-01 0. 0. 0. 0. 0. 0. 0. 0. 0. 0. 0. 0. 0. 0. 0.
      2.40562614e-02 0. 0. 0. 0. 0. 0. 0. 2.40562614e-02 0. 0. 0. 0. 0.
      0. 0. 0. 0. 0. 0. 0. 0. 0. 0. 0. 0. 0. 0. 0. 0. 0. 0. 0. 0. 0. 0.
      0. 0. 0. 0. 0. 0. 0. 0. 0. 0. 0. 0. 0. 0. 0. 0. 0. 0. 0. 0. 0. 0.
      0. 0. 0. 0. 0. 0. 0. 0. 0. 0. 0. 0. 0. 0. 2.40562614e-02 0. 0. 0.
      0. 0. 0. 0. 0. 0. 0. 0. 0. 0. 0. 0. 0. 0. 0. 0. 0. 0. 0. 0. 0.
      2.40562614e-02 0. 0. 1.92450091e-01 0. 0. 0. 2.16506347e-01 0. 0.
      0. 0. 0. 0. 0. 2.16506347e-01 0. 0. 0. 0. 0. 0. 0. 0. 0. 0. 0. 0.
      0. 0. 0. 2.40562614e-02 0. 0. 0. 2.40562614e-02 0. 0. 0. 0. 0. 0.
      0. 0. 0. 0. 0. 0. 0. 0. 0. 0. 0. 0. 0. 0. 0. 0. 0. 0. 0. 0. 0.
      7.21687824e-02 0. 0. 0. 8.41969132e-01 0. 0. 0. 2.64618874e-01 0.
      0. 0. 0. 0. 0. 0. 7.21687824e-02 0. 0. 0. 0. 0. 0. 0. 0. 0. 0. 0.
      0. 0. 0. 0. 4.81125228e-02 0. 0. 0. 4.81125228e-02 0. 0. 0.
      7.21687824e-02 0. 0. 0. 0. 0. 0. 0. 4.81125228e-02 0. 0. 0. 0. 0.
      0. 0. 0. 0. 0. 0. 0. 0. 0. 0. 0.</_>
    <_>
      5.85840821e-01 5.89025080e-01 5.56632698e-01 0. 0. 0. 0. 0. 0. 0.
      0. 0. 0. 0. 0. 0. 0. 0. 0. 0. 0. 0. 0. 0. 0. 0. 0. 0. 0. 0. 0. 0.
      0. 0. 0. 0. 0. 0. 0. 0. 0. 0. 0. 0. 0. 0. 0. 0. 0. 0. 0. 0. 0. 0.
      0. 0. 0. 0. 0. 0. 0. 0. 0. 0. 0. 0. 0. 0. 0. 0. 0. 0. 0. 0. 0. 0.
      0. 0. 0. 0. 0. 0. 0. 0. 0. 0. 0. 0. 0. 1.16571020e-02 0. 0. 0. 0.
      0. 1.16571020e-02 8.15997124e-02 0. 0. 0. 0. 0. 0. 0. 0. 0. 0. 0.
      0. 0. 0. 0. 0. 0. 0. 0. 0. 0. 0. 0. 0. 0. 0. 0. 0. 0. 0. 0. 0. 0.
      0. 0. 9.67539489e-01 0. 0. 0. 0. 0. 2.33142041e-02 1.16571020e-02
      0. 0. 0. 0. 0. 0. 0. 0. 0. 0. 0. 0. 0. 0. 0. 0. 0. 0. 0. 0. 0. 0.
      0. 0. 0. 0. 0. 0. 1.04913920e-01 0. 0. 0. 0. 0. 3.49713080e-02
      2.09827840e-01 0. 0. 0. 0. 0. 0. 0. 0. 0. 0. 0. 0. 0. 0. 0. 0. 0.
      0. 0. 0. 0. 0. 0. 0. 0. 0. 0. 0. 0. 0. 0. 0. 0. 0. 0. 0. 0. 0. 0.
      0. 0. 0. 0. 3.10236029e-02 0. 0. 0. 0. 0. 3.10236029e-02 0.
      3.10236029e-02 0. 0. 0. 6.20472059e-02 0. 6.20472059e-02 0. 0. 0.
      0. 0. 0. 0. 0. 0. 1.24094412e-01 0. 0. 0. 3.10236029e-02 0.
      9.30708051e-02 0. 3.10236029e-02 0. 0. 0. 0. 0. 0. 0. 0. 0. 0. 0.
      0. 0. 0. 0. 0. 0. 0. 3.10236029e-02 0. 0. 3.10236029e-02 0.
      3.72283220e-01 0. 0. 0. 9.30708051e-02 0. 9.30708051e-02
      6.20472059e-02 3.10236029e-02 0. 0. 0. 0. 0. 0. 0. 0. 0. 0. 0. 0.
      0. 0. 0. 0. 0. 0. 0. 0. 0. 0. 0. 0. 0. 0. 0. 0. 0. 0. 0. 0. 0.
      3.10236029e-02 0. 0. 0. 0. 0. 1.24094412e-01 0. 0. 0.
      3.10236029e-02 0. 0. 0. 9.30708051e-02 0. 0. 0. 0. 0. 0. 0.
      7.75590062e-01 3.10236029e-02 0. 3.10236029e-02 1.86141610e-01 0.
      3.10236029e-02 9.30708051e-02 3.10236029e-02 0. 0. 3.10236029e-02
      0. 0. 0. 0. 0. 0. 0. 0. 0. 0. 0. 0. 6.20472059e-02 0. 0.
      3.10236029e-02 0. 0. 0. 0. 0. 0. 0. 0. 3.10236029e-02 0. 0. 0.
      3.10236029e-02 0. 0. 0. 0. 0. 0. 0. 0. 0. 0. 0. 0. 0. 0. 0.
      3.10236029e-02 0. 0. 0. 0. 0. 0. 0. 0. 0. 0. 0. 0. 0. 0.
      3.10236029e-02 3.10236029e-02 0. 0. 0. 0. 0. 3.10236029e-02 0. 0.
      0. 0. 0. 0. 0. 0. 0. 0. 0. 0. 0. 0. 0. 0. 0. 0. 0. 0. 0. 0. 0. 0.
      3.10236029e-02 3.10236029e-02 0. 0. 0. 0. 0. 3.10236029e-02 0. 0.
      0. 0. 0. 0. 0. 0. 0. 1.55118018e-01 3.10236029e-02 0.
      3.10236029e-02 0. 0. 0. 3.10236029e-02 1.86141610e-01 0. 0.
      3.10236029e-02 1.55118018e-01 3.10236029e-02 0. 1.55118018e-01</_>
    <_>
      5.68786979e-01 5.82240820e-01 5.80927610e-01 0. 0. 0. 0. 0. 0. 0.
      0. 0. 0. 0. 0. 0. 0. 0. 0. 0. 0. 0. 0. 0. 0. 0. 0. 0. 0. 0. 0. 0.
      0. 0. 0. 0. 0. 0. 0. 0. 0. 0. 0. 0. 0. 0. 0. 0. 0. 0. 0. 0. 0. 0.
      0. 0. 0. 0. 0. 0. 0. 0. 0. 0. 0. 0. 0. 0. 0. 0. 0. 0. 0. 0. 0. 0.
      0. 0. 0. 0. 0. 0. 0. 0. 0. 0. 0. 0. 0. 0. 0. 0. 0. 0. 0. 0. 0. 0.
      0. 0. 0. 0. 0. 0. 0. 0. 0. 0. 0. 0. 0. 0. 0. 0. 0. 0. 0. 0. 0. 0.
      0. 0. 0. 0. 0. 0. 0. 0. 0. 0. 0. 0. 0. 0. 0. 0. 0. 0. 0. 0. 0. 0.
      0. 0. 0. 0. 0. 0. 0. 0. 0. 0. 0. 0. 0. 0. 0. 0. 0. 0. 0. 0. 0. 0.
      0. 0. 0. 0. 0. 0. 0. 0. 0. 0. 0. 1. 0. 0. 0. 0. 0. 0. 0. 0. 0. 0.
      0. 0. 0. 0. 0. 0. 0. 0. 0. 0. 0. 0. 0. 0. 0. 0. 0. 0. 0. 0. 0. 0.
      0. 0. 0. 0. 0. 0. 0. 0. 0. 0. 0. 4.61757109e-02 0. 4.61757109e-02
      0. 9.23514217e-02 0. 0. 0. 1.84702843e-01 0. 0. 0. 4.61757109e-02
      0. 9.23514217e-02 9.23514217e-02 0. 0. 0. 0. 0. 0. 0. 0.
      4.61757109e-02 0. 0. 0. 4.61757109e-02 0. 0. 4.61757109e-02 0. 0.
      0. 0. 0. 0. 0. 0. 0. 0. 0. 0. 0. 0. 4.61757109e-02 0. 0. 0. 0. 0.
      0. 0. 0. 0. 4.61757109e-02 0. 0. 4.61757109e-02 0. 0.
      4.61757109e-02 9.23514217e-02 4.61757109e-02 0. 0. 0. 0. 0. 0. 0.
      9.23514217e-02 0. 0. 0. 0. 0. 0. 0. 0. 0. 0. 0. 0. 0. 0. 0. 0. 0.
      0. 0. 0. 0. 0. 0. 9.23514217e-02 0. 0. 4.61757109e-02 0. 0. 0. 0.
      4.61757109e-02 0. 0. 0. 0. 0. 0. 4.61757109e-02 0. 0. 0. 0. 0. 0.
      0. 0. 3.23229969e-01 4.61757109e-02 0. 0. 9.23514217e-02 0.
      4.61757109e-02 2.30878562e-01 1.84702843e-01 0. 0. 4.61757109e-02
      0. 0. 0. 1.84702843e-01 9.23514217e-02 0. 0. 0. 0. 0.
      4.61757109e-02 1.38527125e-01 0. 0. 0. 0. 0. 0. 0. 9.23514217e-02
      0. 0. 0. 0. 0. 0. 0. 4.61757109e-02 0. 0. 0. 0. 0. 0. 0. 0. 0. 0.
      0. 0. 0. 0. 0. 0. 4.61757109e-02 0. 0. 0. 0. 0. 0. 4.61757109e-02
      0. 0. 0. 0. 0. 0. 4.61757109e-02 9.23514217e-02 0. 4.61757109e-02
      0. 4.61757109e-02 0. 0. 4.61757109e-02 9.23514217e-02
      4.61757109e-02 0. 0. 0. 0. 0. 4.61757109e-02 4.61757109e-02 0. 0.
      0. 0. 0. 0. 0. 0. 0. 0. 0. 0. 0. 4.61757109e-02 0. 1.38527125e-01
      4.61757109e-02 0. 0. 9.23514217e-02 4.61757109e-02 0. 0.
      1.38527125e-01 0. 0. 0. 0. 0. 0. 0. 4.61757109e-02 0.
      4.61757109e-02 0. 0. 0. 0. 9.23514217e-02 4.61757109e-02
      9.23514217e-02 4.61757109e-02 0. 0. 9.23514217e-02 0. 0.
      6.92635655e-01</_>
    <_>
      5.90478301e-01 5.80661535e-01 5.60506523e-01 0. 0. 0. 0. 0. 0. 0.
      0. 0. 0. 0. 0. 0. 0. 0. 0. 0. 0. 0. 0. 0. 0. 0. 0. 0. 0. 0. 0. 0.
      0. 0. 0. 0. 0. 0. 0. 0. 0. 0. 0. 0. 0. 0. 0. 0. 0. 0. 0. 0. 0. 0.
      0. 0. 0. 0. 0. 0. 0. 0. 0. 0. 0. 0. 0. 0. 0. 0. 0. 0. 0. 0. 0. 0.
      0. 0. 0. 0. 0. 0. 0. 0. 0. 0. 0. 0. 0. 0. 0. 0. 0. 0. 0. 0. 0. 0.
      0. 0. 0. 0. 0. 0. 0. 0. 0. 0. 0. 0. 0. 0. 0. 0. 0. 0. 0. 0. 0. 0.
      0. 0. 0. 0. 0. 0. 0. 0. 0. 0. 0. 0. 6.57155752e-01 0. 0. 0. 0. 0.
      0. 0. 0. 0. 0. 0. 0. 0. 0. 0. 0. 0. 0. 0. 0. 0. 0. 0. 0. 0. 0. 0.
      0. 0. 0. 0. 0. 0. 0. 0. 1.64288938e-01 0. 0. 0. 0. 0.
      7.46767893e-02 7.31832504e-01 0. 0. 0. 0. 0. 0. 0. 0. 0. 0. 0. 0.
      0. 0. 0. 0. 0. 0. 0. 0. 0. 0. 0. 0. 0. 0. 0. 0. 0. 0. 0. 0. 0. 0.
      0. 0. 0. 0. 0. 0. 0. 0. 0. 6.57951683e-02 0. 0. 0. 0. 0. 0. 0.
      6.57951683e-02 0. 0. 0. 0. 0. 0. 0. 0. 0. 0. 0. 0. 0. 0. 0. 0. 0.
      0. 0. 0. 0. 0. 4.38634455e-02 0. 0. 0. 0. 0. 0. 0. 0. 0. 0. 0. 0.
      0. 0. 0. 0. 0. 0. 0. 0. 0. 0. 0. 0. 6.57951683e-02 0. 0. 0.
      2.19317228e-02 0. 0. 0. 0. 0. 0. 0. 0. 0. 0. 0. 0. 0. 0. 0. 0. 0.
      0. 0. 0. 0. 0. 0. 0. 0. 0. 0. 0. 0. 0. 0. 0. 0. 0. 0.
      2.19317228e-02 0. 0. 0. 0. 0. 0. 0. 2.19317228e-02 0. 0. 0.
      2.19317228e-02 0. 0. 0. 4.38634455e-02 0. 0. 0. 0. 0. 0. 0.
      9.43064094e-01 0. 0. 0. 4.38634455e-02 0. 4.38634455e-02
      4.38634455e-02 2.19317228e-02 0. 0. 0. 0. 0. 0. 0. 0. 0. 0. 0. 0.
      0. 0. 4.38634455e-02 0. 0. 0. 0. 0. 0. 0. 0. 2.19317228e-02 0. 0.
      0. 0. 0. 0. 0. 0. 0. 0. 0. 0. 0. 0. 0. 0. 0. 0. 0. 0. 0. 0. 0. 0.
      0. 0. 0. 0. 0. 0. 2.19317228e-02 0. 0. 0. 0. 0. 0. 0.
      2.19317228e-02 4.38634455e-02 0. 0. 2.19317228e-02 0. 0.
      2.19317228e-02 0. 0. 0. 0. 0. 0. 0. 2.19317228e-02 2.19317228e-02
      0. 0. 0. 0. 0. 0. 0. 0. 0. 0. 0. 0. 0. 0. 0. 4.38634455e-02
      2.19317228e-02 0. 0. 0. 0. 0. 0. 0. 0. 0. 0. 0. 0. 0. 0. 0.
      8.77268910e-02 0. 0. 2.19317228e-02 0. 0. 0. 4.38634455e-02
      2.19317228e-01 4.38634455e-02 0. 4.38634455e-02 4.38634455e-02 0.
      0. 1.09658614e-01</_>
    <_>
      5.60295761e-01 5.83929241e-01 5.87448180e-01 0. 0. 0. 0. 0. 0. 0.
      0. 0. 0. 0. 0. 0. 0. 0. 0. 0. 0. 0. 0. 0. 0. 0. 0. 0. 0. 0. 0. 0.
      0. 0. 0. 0. 0. 0. 0. 0. 0. 0. 0. 0. 0. 0. 0. 0. 0. 0. 0. 0. 0. 0.
      0. 0. 0. 0. 0. 0. 0. 0. 0. 0. 0. 0. 0. 0. 0. 0. 0. 0. 0. 0. 0. 0.
      0. 0. 0. 0. 0. 0. 0. 0. 0. 0. 0. 0. 0. 0. 0. 0. 0. 0. 0. 0. 0. 0.
      0. 0. 0. 0. 0. 0. 0. 0. 0. 0. 0. 0. 0. 0. 0. 0. 0. 0. 0. 0. 0. 0.
      0. 0. 0. 0. 0. 0. 0. 0. 0. 0. 0. 0. 1.93928145e-02 3.87856290e-02
      0. 0. 0. 0. 0. 4.84820366e-01 0. 0. 0. 0. 0. 0. 0. 0. 0. 0. 0. 0.
      0. 0. 0. 0. 0. 0. 0. 0. 0. 0. 0. 0. 0. 0. 0. 0. 0. 3.87856290e-02
      0. 0. 0. 0. 0. 8.72676671e-01 0. 0. 0. 0. 0. 0. 0. 0. 0. 0. 0. 0.
      0. 0. 0. 0. 0. 0. 0. 0. 0. 0. 0. 0. 0. 0. 0. 0. 0. 0. 0. 0. 0. 0.
      0. 0. 0. 0. 0. 0. 0. 0. 0. 5.67047969e-02 0. 0. 1.70114398e-01
      1.13409594e-01 0. 5.67047969e-02 0. 0. 0. 0. 0. 0. 0. 0.
      1.13409594e-01 0. 0. 0. 0. 0. 0. 0. 0. 0. 0. 0. 0. 0. 0. 0. 0. 0.
      0. 0. 0. 0. 0. 0. 0. 0. 0. 0. 0. 0. 5.67047969e-02 0. 0. 0. 0. 0.
      0. 0. 0. 0. 0. 0. 0. 0. 0. 0. 0. 0. 0. 0. 5.67047969e-02 0. 0. 0.
      0. 0. 0. 0. 5.67047969e-02 0. 0. 0. 0. 0. 0. 0. 0. 0. 0. 0. 0. 0.
      0. 0. 0. 0. 0. 0. 0. 0. 0. 0. 0. 5.67047969e-02 0. 0. 0. 0. 0. 0.
      0. 0. 0. 0. 0. 0. 5.67047969e-02 0. 0. 0. 0. 0. 0. 0. 0. 0. 0. 0.
      0. 0. 0. 0. 0. 0. 0. 5.67047969e-02 3.96933585e-01 0.
      5.67047969e-02 0. 5.10343194e-01 0. 0. 0. 0. 0. 0. 0.
      2.83523977e-01 0. 0. 0. 0. 0. 0. 0. 5.67047969e-02 0. 0. 0. 0. 0.
      0. 0. 0. 0. 0. 0. 0. 0. 0. 0. 5.67047969e-02 0. 0. 0. 0. 0. 0. 0.
      5.67047969e-02 0. 0. 0. 0. 0. 0. 0. 0. 0. 0. 0. 0. 0. 0. 0.
      5.67047969e-02 0. 5.67047969e-02 5.67047969e-02 2.83523977e-01 0.
      5.67047969e-02 0. 2.83523977e-01 0. 0. 0. 0. 0. 5.67047969e-02 0.
      1.70114398e-01 0. 0. 0. 0. 0. 0. 0. 5.67047969e-02 0. 0. 0. 0. 0.
      0. 0. 0. 0. 0. 0. 1.13409594e-01 0. 0. 0. 2.26819187e-01 0. 0. 0.
      0. 0. 0. 0. 2.83523977e-01 0. 0. 0. 0. 0. 0. 0. 0. 0. 0. 0. 0. 0.
      5.67047969e-02 0. 2.26819187e-01</_>
    <_>
      6.23530626e-01 5.72101355e-01 5.32831669e-01 0. 0. 0. 0. 0. 0. 0.
      0. 0. 0. 0. 0. 0. 0. 0. 0. 0. 0. 0. 0. 0. 0. 0. 0. 0. 0. 0. 0. 0.
      0. 0. 0. 0. 0. 0. 0. 0. 0. 0. 0. 0. 0. 0. 0. 0. 0. 0. 0. 0. 0. 0.
      0. 0. 0. 0. 0. 0. 0. 0. 0. 0. 0. 0. 0. 0. 0. 0. 0. 0. 0. 0. 0. 0.
      0. 0. 0. 0. 0. 0. 6.40594736e-02 4.80446070e-02 0. 0. 0. 0.
      4.00371701e-01 9.12847519e-01 0. 0. 0. 0. 0. 0. 0. 0. 0. 0. 0. 0.
      0. 0. 0. 0. 0. 0. 0. 0. 0. 0. 0. 0. 0. 0. 0. 0. 0. 0. 0. 0. 0. 0.
      0. 0. 0. 0. 0. 0. 0. 0. 0. 0. 0. 0. 0. 0. 0. 0. 0. 0. 0. 0. 0. 0.
      0. 0. 0. 0. 0. 0. 0. 0. 0. 0. 0. 0. 0. 0. 0. 0. 0. 0. 0. 0. 0. 0.
      0. 0. 0. 0. 0. 0. 0. 0. 0. 0. 0. 0. 0. 0. 0. 0. 0. 0. 0. 0. 0. 0.
      0. 0. 0. 0. 0. 0. 0. 0. 0. 0. 0. 0. 0. 0. 0. 0. 0. 0. 0. 0. 0. 0.
      0. 0. 0. 0. 0. 0. 0. 6.82391226e-02 0. 0. 0. 0. 0. 1.02358684e-01
      1.70597807e-01 6.82391226e-02 0. 0. 0. 0. 0. 1.36478245e-01
      6.48271680e-01 0. 0. 0. 0. 0. 0. 0. 0. 0. 0. 0. 0. 0. 0. 0.
      1.70597807e-01 0. 0. 0. 0. 0. 0. 0. 0. 0. 0. 0. 0. 0. 0. 0.
      6.82391226e-02 0. 0. 0. 0. 0. 0. 3.41195613e-02 3.41195613e-02 0.
      0. 0. 0. 0. 0. 0. 6.82391226e-02 0. 0. 0. 0. 0. 0. 0. 0. 0. 0. 0.
      0. 0. 0. 0. 0. 0. 0. 0. 0. 0. 0. 0. 0. 0. 0. 0. 0. 0. 0. 0. 0. 0.
      0. 0. 0. 0. 0. 0. 0. 0. 0. 0. 0. 0. 0. 0. 0. 0. 0. 0. 0. 0. 0. 0.
      0. 0. 0. 0. 0. 0. 0. 0. 1.36478245e-01 3.41195613e-02 0. 0. 0. 0.
      0. 0. 2.04717368e-01 0. 0. 0. 0. 0. 0. 6.82391226e-02
      5.80032527e-01 0. 0. 0. 0. 0. 0. 0. 0. 3.41195613e-02 0. 0. 0. 0.
      0. 0. 2.38836929e-01 0. 0. 0. 0. 0. 0. 0. 0. 0. 0. 0. 0. 0. 0. 0.
      0. 0. 0. 0. 0. 0. 0. 0. 0. 0. 0. 0. 0. 0. 0. 0. 0. 0. 0. 0. 0. 0.
      0. 0. 0. 0. 0. 0. 0. 0. 3.41195613e-02 0. 6.82391226e-02 0. 0. 0.
      0. 0. 0. 0. 0. 0. 0. 0. 0. 0. 0. 0. 0. 0. 0. 0. 0. 0. 0. 0. 0. 0.
      0. 0. 0. 0. 0. 0. 0. 0. 0. 0. 0. 0. 0. 0. 0. 0. 0. 0. 0. 0. 0. 0.
      6.82391226e-02</_>
    <_>
      6.05461895e-01 5.77898264e-01 5.47219813e-01 0. 0. 0. 0. 0. 0. 0.
      0. 0. 0. 0. 0. 0. 0. 0. 0. 0. 0. 0. 0. 0. 0. 0. 0. 0. 0. 0. 0. 0.
      0. 0. 0. 0. 0. 0. 0. 0. 0. 0. 0. 0. 0. 0. 0. 0. 0. 0. 0. 0. 0. 0.
      0. 0. 0. 0. 0. 0. 0. 0. 0. 0. 0. 0. 0. 0. 0. 0. 0. 0. 0. 0. 0. 0.
      0. 0. 0. 0. 0. 0. 0. 0. 0. 0. 0. 0. 0. 1.23169281e-01
      4.10564244e-02 0. 0. 0. 0. 2.25810334e-01 8.21128488e-02 0. 0. 0.
      0. 0. 0. 0. 0. 0. 0. 0. 0. 0. 0. 0. 0. 0. 0. 0. 0. 0. 0. 0. 0. 0.
      0. 0. 0. 2.46338561e-01 4.10564244e-02 0. 0. 0. 0. 6.56902790e-01
      6.56902790e-01 0. 0. 0. 0. 0. 0. 0. 0. 0. 0. 0. 0. 0. 0. 0. 0. 0.
      0. 0. 0. 0. 0. 0. 0. 0. 0. 0. 0. 0. 0. 0. 0. 0. 0. 0. 0. 0. 0. 0.
      0. 0. 0. 0. 0. 0. 0. 0. 0. 0. 0. 0. 0. 0. 0. 0. 0. 0. 0. 0. 0. 0.
      0. 0. 0. 0. 0. 0. 0. 0. 0. 0. 0. 0. 0. 0. 0. 0. 0. 0. 0. 0. 0. 0.
      0. 0. 0. 3.67855951e-02 0. 7.35711902e-02 0. 1.10356785e-01 0.
      7.35711902e-02 3.67855951e-02 0. 0. 0. 0. 7.35711902e-02 0.
      1.47142380e-01 1.10356785e-01 0. 0. 0. 0. 0. 0. 0. 0. 0. 0. 0. 0.
      1.10356785e-01 0. 6.98926330e-01 7.35711902e-02 0. 0. 0. 0. 0. 0.
      0. 0. 0. 0. 0. 0. 0. 0. 0. 0. 0. 0. 0. 0. 0. 0. 0. 0.
      3.67855951e-02 0. 0. 0. 2.94284761e-01 0. 4.41427141e-01
      1.10356785e-01 0. 0. 0. 0. 0. 0. 0. 0. 0. 0. 0. 0. 3.67855951e-02
      0. 0. 0. 0. 0. 0. 0. 0. 0. 0. 0. 0. 0. 0. 0. 0. 0. 7.35711902e-02
      0. 0. 0. 0. 0. 0. 0. 0. 0. 0. 0. 0. 0. 3.67855951e-02 0. 0. 0. 0.
      0. 0. 0. 0. 0. 0. 0. 0. 0. 0. 0. 0. 0. 0. 3.67855951e-02 0. 0. 0.
